
\data\
ngram 1=46847
ngram 2=2590

\1-grams:
1 <unk>
1 <s>
1 </s>
1 <num>
85 -D
30 -EM
43 -Eleven
27 -aksen
78 -album
90 -albummet
125 -bit
32 -bits
40 -ca
37 -dages
32 -datering
59 -dobbelt
47 -dobbelte
54 -dommer
190 -dørs
35 -en
31 -er
26 -et
50 -etagers
86 -film
62 -filmen
74 -filmene
74 -finalen
26 -finaler
100 -finalerne
33 -fly
60 -fodboldlandshold
53 -grad
30 -graden
29 -gruppen
36 -hit
70 -hold
45 -holdet
42 -klasse
183 -klassen
52 -klub
76 -klubben
34 -koden
34 -krone
35 -kronen
74 -kroner
73 -landshold
95 -landsholdet
48 -liste
42 -listen
736 -liters
42 -loven
91 -mands
33 -materiel
60 -meter
49 -meter-løb
40 -minutters
40 -model
92 -modellen
29 -modeller
31 -modellerne
38 -motor
30 -motoren
27 -motors
30 -nederlag
36 -og
162 -område
46 -området
152 -plads
609 -pladsen
36 -pladserne
86 -planen
27 -prisen
25 -priser
52 -programmet
42 -projekt
31 -projektet
57 -punds
117 -sejr
44 -sejren
110 -serie
403 -serien
26 -siders
48 -spil
36 -sporet
38 -studerende
27 -systemet
52 -sæson
1095 -sæsonen
45 -t
132 -tal
11328 -tallet
469 -tallets
27 -tallig
411 -tallige
58 -tals
49 -tiden
88 -timers
56 -toere
46 -tog
84 -tommer
36 -tommers
36 -trilogien
75 -trins
96 -træner
26 -turneringen
40 -turné
28 -turnéen
242 -udgaven
39 -universet
38 -versionen
36 -år
151 -årene
140 -året
3361 -årig
1628 -årige
61 -årigt
631 -års
26 -års-alderen
31 -års-jubilæum
94 -årsdagen
32 A-EM
118 A-gruppen
43 A-kasse
28 A-klassen
61 A-klub
201 A-landshold
137 A-landsholdet
171 A-landskampe
58 A-side
769 AB
82 ABBA
352 ABC
56 AD
38 AE
441 AG
33 AHL
34 AI
144 AIDS
108 AK
39 ALDE
163 AM
40 AN
48 API
27 ARA
33 ARD
58 ARIA
25 ARM
480 AS
103 ASA
31 ASP
52 AVA
73 AWA
634 Aabenraa
74 Aaby
52 Aabybro
171 Aagaard
702 Aage
48 Aakirkeby
4543 Aalborg
89 Aalborgs
84 Aalestrup
42 Aamund
5846 Aarhus
26 Aarhus-bydelen
276 Aaron
208 Aars
84 Aarup
41 Aase
35 Ab
79 Abbas
30 Abby
71 Abd
63 Abdel
120 Abdul
65 Abdullah
97 Abe
297 Abel
44 Abels
47 Abigail
35 Abild
679 Abraham
126 Abrahams
245 Absalon
67 Absalons
176 Absolute
258 Abu
54 Accra
263 Action
35 Acton
28 Ad
91 Ada
1484 Adam
632 Adams
50 Addis
41 Adel
135 Adelaide
41 Adele
56 Adelgade
61 Adelheid
30 Adelige
57 Adels
37 Aden
198 Adler
166 Administration
239 Admiral
64 Admiralitetet
44 Admiralitets
43 Admiralitetsøerne
1411 Adolf
75 Adolfs
536 Adolph
31 Adolphine
40 Adonis
30 Adresseavisen
171 Adrian
25 Adriana
180 Adriaterhavet
155 Afdeling
26 Afdelingen
854 Afghanistan
82 Afghanistans
50 Afhandling
60 Afhandlinger
2223 Afrika
62 Afrikanske
230 Afrikas
81 Afsked
27 Afsnit
67 Aften
39 Aftenposten
39 Aftenshowet
170 After
164 Agatha
60 Agathe
191 Age
165 Agent
53 Agerskov
26 Agersø
25 Ages
144 Agger
37 Aggersborg
317 Agnes
151 Agnete
25 Agri
103 Ahmad
121 Ahmed
86 Aid
39 Aida
25 Aidan
34 Aikido
1778 Air
279 Airbus
400 Aires
717 Airlines
940 Airport
34 Ajstrup
777 Akademi
25 Akademiens
699 Akademiet
378 Akademiets
90 Akademis
383 Akademisk
38 Akbar
30 Aki
343 Aksel
83 Aksemagterne
41 Aksemagternes
28 Akt
38 Aktieselskab
43 Aktieselskabet
72 Aktion
25 Aktiv
27 Akts
81 Aktuelt
619 Al
401 Alabama
91 Aladdin
88 Alain
521 Alan
450 Alaska
40 Alaskas
113 Alba
52 Alban
76 Albani
424 Albanien
57 Albaniens
96 Albany
1468 Albert
106 Alberta
32 Alberte
49 Albertine
181 Alberto
27 Alberts
245 Albertslund
37 Albertus
82 Albin
44 Albinus
481 Albrecht
28 Albuen
287 Album
29 Albummet
123 Albums
37 Albæk
59 Alder
30 Alderslyst
53 Ale
49 Alec
55 Alejandro
107 Aleksander
124 Aleksandr
55 Aleksej
34 Alert
124 Alessandro
598 Alex
2054 Alexander
118 Alexanders
347 Alexandra
35 Alexandras
123 Alexandre
420 Alexandria
65 Alexandrine
103 Alexis
149 Alf
291 Alfa
88 Alfons
1150 Alfred
61 Alfredo
32 Alfreds
36 Alger
367 Algeriet
45 Algeriets
172 Algier
568 Ali
74 Alias
620 Alice
46 Alicia
55 Alis
54 Alison
26 Alkoholikere
1107 All
128 All-Star
109 Allah
39 Allahs
551 Allan
310 Alle
26 Allegro
465 Allen
51 Allens
121 Aller
25 Allers
36 Allerslev
154 Allerød
762 Alliance
104 Alliancen
55 Alliances
65 Allie
389 Allierede
125 Allieredes
29 Allies
88 Alling
61 Allinge
29 Allingåbro
50 Ally
792 Allé
94 Alma
29 Almaty
36 Almen
34 Almere
30 Almind
552 Almindelig
38 Almindelige
29 Almindeligt
34 Almindingen
90 Alois
34 Alpe
140 Alper
642 Alperne
55 Alpernes
39 Alpes-Maritimes
118 Alpha
57 Alphonse
43 Alpine
692 Als
108 Alslev
48 Alsted
33 Alstrup
193 Alt
45 Alte
40 Alter
36 Alternativ
45 Alternative
30 Alting
148 Altinget
352 Altona
31 Alvar
32 Alves
27 Alvilda
50 Alvin
30 Alvor
69 Alzheimers
237 Am
129 Amadeus
1343 Amager
32 Amagerbanken
71 Amagerbro
49 Amagerbrogade
64 Amagers
67 Amagertorv
88 Amalia
710 Amalie
240 Amalienborg
63 Amalies
163 Amanda
31 Amatør
49 Amber
92 Ambrosius
36 Amdi
62 Amelia
1230 Amerika
317 Amerikansk
290 Amerikanske
239 Amerikas
30 Ami
61 Amin
39 Amir
25 Amis
29 Amman
92 Amos
1562 Amsterdam
68 Amsterdams
6846 Amt
230 Amter
35 Amtet
472 Amts
75 Amtsgymnasium
545 Amtskreds
216 Amtsråd
42 Amtssygehus
57 Amtstidende
203 Amy
30 Amélie
229 An
116 Ana
36 Analyse
93 Anand
49 Anastasia
33 Anatomi
152 Ancher
29 Anchers
1149 And
27 Andelsmejeri
669 Anden
2885 Anders
2566 Andersen
143 Andersens
30 Andersine
219 Andersson
227 Andet
130 Andorra
258 Andre
358 Andrea
1635 Andreas
118 Andreasen
26 Andreassen
41 Andrei
60 Andrej
82 Andresen
648 Andrew
266 Andrews
70 Android
361 André
53 Andrés
51 Ands
49 Andst
476 Andy
379 Ane
103 Anemone
104 Anette
564 Angel
143 Angela
42 Angelica
46 Angelina
108 Angelo
315 Angels
36 Anger
34 Angers
32 Angie
116 Angle
186 Angola
42 Angora
54 Angreb
26 Angrebet
83 Angus
112 Anholt
96 Animation
134 Anita
149 Anja
77 Ankara
398 Anker
31 Ankers
32 Ankerstjerne
96 Anledning
45 Anliggender
71 Anlæg
26 Anmærkninger
410 Ann
2669 Anna
27 Annalen
31 Annapolis
78 Annas
1937 Anne
68 Anne-Marie
71 Annelise
75 Annes
145 Annette
27 Anni
200 Annie
42 Annika
30 Annisette
29 Anno
35 Anonyme
53 Ansager
29 Anseelse
37 Anselm
90 Ansgar
51 Ansgars
30 Anskuelser
36 Anstalten
63 Antal
25 Antananarivo
683 Antarktis
73 Anthon
501 Anthony
60 Antigua
42 Antikken
25 Antikkens
30 Antikrist
81 Antiller
182 Antoine
144 Antoinette
818 Anton
28 Antoni
43 Antonia
36 Antonie
526 Antonio
189 Antonius
42 Antony
148 Antvorskov
34 Anvendelse
27 Anvendt
45 Anwar
32 Any
232 ApS
93 Apache
321 Apollo
49 Apollo-programmet
93 Apostlenes
65 Apotek
30 Apotekerforening
107 Appel
185 April
37 Ar
37 Arabella
178 Arabien
133 Arabisk
310 Arabiske
116 Aragorn
262 Arbejde
319 Arbejder
46 Arbejderbevægelsens
28 Arbejderforening
218 Arbejdernes
155 Arbejderparti
31 Arbejderpartiet
33 Arbejdet
97 Arbejdsgiverforening
25 Arbejdstilsynet
75 Archibald
76 Archie
123 Arden
321 Are
813 Arena
37 Arendt
27 Arent
70 Ares
39 Aretha
1305 Argentina
209 Argentinas
27 Ari
48 Ariane
94 Ariel
92 Arild
27 Aris
288 Aristoteles
553 Arizona
26 Arizonas
119 Ark
281 Arkansas
30 Arken
29 Arkitekt
25 Arkitekten
94 Arkitekter
53 Arkitekters
105 Arkitektforening
77 Arkitektforenings
328 Arkitektskole
45 Arkitektskolen
71 Arkitektur
151 Arkiv
50 Arkiver
26 Arkivet
81 Arktis
35 Arktisk
31 Arktiske
68 Arla
36 Arm
41 Armada
64 Armand
59 Arme
33 Armeen
319 Armenien
44 Armeniens
25 Armenske
97 Arms
92 Armé
49 Arn
28 Arnborg
33 Arndt
659 Arne
34 Arnfred
50 Arno
531 Arnold
25 Arnolds
106 Aron
26 Arons
25 Arp
30 Arreskov
68 Arresø
54 Ars
633 Arsenal
69 Arsenals
878 Art
32 Arte
114 Artemis
1347 Arthur
124 Arthurs
44 Artikel
45 Artikler
28 Artilleri
30 Artillerikorpset
36 Artilleriregiment
30 Artillerivej
144 Artist
110 Artists
641 Arts
35 Artur
44 Aruba
62 Arup
26 Arve
120 Arvefølgekrig
88 Arveprins
84 Arvid
181 As
94 Asbjørn
195 Aserbajdsjan
174 Asger
144 Ashley
86 Asia
82 Asiatisk
27 Asiatiske
1841 Asien
52 Asiens
162 Ask
64 Aske
65 Askepot
71 Asker
217 Askov
27 Askø
38 Aslan
37 Asmaa
45 Asmild
64 Asminderød
53 Asmindrup
35 Asmus
116 Asmussen
60 Asnæs
44 Asp
31 Aspen
35 Aspergers
465 Assens
63 Asser
37 Asserbo
29 Assessor
28 Assistance
29 Assistent
1320 Association
32 Associations
102 Asta
44 Aster
39 Asters
247 Aston
52 Astor
101 Astra
28 Astragel
256 Astrid
28 Astronomi
699 Astronomiske
131 Astrup
28 Asyl
40 Atelier
1206 Athen
42 Athena
70 Athene
29 Athenes
134 Athens
618 Atlanta
25 Atlantas
183 Atlanten
966 Atlanterhavet
230 Atlas
337 Atletik
28 Atom
32 Atomvåben
30 Attika
72 Attila
28 Attitude
25 Aud
36 Auditorium
76 Audrey
1937 August
542 Augusta
152 Auguste
222 Augustenborg
169 Augustin
33 Augustine
27 Augustins
59 Augustinus
60 Augusto
40 Augusts
365 Augustus
27 Aulum
36 Auning
60 Aura
88 Aurelius
70 Aurora
626 Austin
34 Austins
2545 Australien
232 Australiens
41 Australske
162 Auto
37 Autohjælp
25 Automobil
59 Automobile
30 Autonome
47 Ava
37 Ave
121 Avedøre
307 Avenue
313 Avis
126 Avisen
55 Avnbøg
30 Avnø
1035 Axel
25 Ayub
38 Aziz
68 Azorerne
129 B-EM
26 B-Joe
134 B-gruppen
95 B-side
57 B-siden
78 BA
45 BASIC
40 BI
110 BT
47 Ba
371 Baby
196 Babylon
370 Bach
91 Bachelor
91 Bachs
387 Back
38 Backer
127 Bacon
709 Bad
25 Badeanstalt
26 Badehotel
31 Bader
73 Badminton
52 Bag
31 Bagenkop
52 Bager
78 Bagge
46 Baghdad
207 Bagsværd
92 Bahamas
153 Bahrain
127 Bailey
27 Bajer
82 Bak
357 Baker
117 Bakke
40 Bakkehuset
82 Bakken
25 Bakkens
177 Bakker
107 Baku
43 Balbo
28 Balboa
141 Balder
106 Balders
39 Balduin
101 Bale
29 Balearerne
26 Baleariske
74 Bali
364 Balkan
39 Ballad
29 Balladen
31 Ballads
160 Balle
301 Ballerup
32 Balles
166 Ballet
58 Ballin
174 Balling
31 Ballon
57 Ballum
27 Balsam
42 Balslev
87 Balthasar
56 Balthazar
78 Baltic
205 Baltikum
68 Baltiske
29 Bamako
88 Bamse
60 Bamses
41 Ban
868 Band
28 Banden
49 Bandet
57 Bandholm
66 Bands
54 Bandy
35 Bane
65 Banegård
29 Banegårdspladsen
110 Banen
870 Bang
141 Bangkok
190 Bangladesh
147 Bangs
78 Bangsbo
1400 Bank
91 Banke
57 Banken
286 Banks
149 Banner
43 Baptist
180 Bar
75 Barbados
369 Barbara
53 Barber
31 Barberen
40 Barbra
55 Barbuda
1125 Barcelona
45 Barcelonas
43 Bardia
48 Bare
73 Barentshavet
120 Barfod
71 Barker
74 Barks
74 Barn
29 Barnabas
25 Barndom
111 Barnet
25 Barnets
128 Barney
28 Barometer
195 Baron
84 Baroniet
55 Barracks
31 Barre
34 Barritskov
238 Barry
291 Bart
40 Bartholomæus
65 Barton
28 Barts
62 Bas
293 Base
155 Baseball
393 Basel
73 Basic
52 Basil
89 Basin
35 Basket
108 Basketball
28 Basnæs
53 Basse
68 Basso
31 Bastard
33 Basten
67 Bastholm
59 Bastian
51 Bastillen
57 Bastion
56 Bastrup
47 Bat
42 Baton
102 Batteri
59 Bavnehøj
1003 Bay
2707 Bayern
79 Bayerns
51 Bayerske
30 Bays
152 Beat
78 Beate
445 Beatles
75 Beatrice
42 Beatrix
64 Beats
320 Bech
477 Beck
37 Becks
25 Becky
30 Bed
31 Beder
110 Bedre
502 Bedste
103 Bedsted
30 Bedstemor
257 Beethoven
127 Beethovens
25 Befrielsen
34 Befrielseshær
74 Befæstning
34 Beg
37 Begin
524 Begivenheder
61 Begravelsesplads
52 Begrebet
25 Begtrup
48 Behandling
907 Beijing
144 Beirut
27 Bekendelseskirken
38 Bekendtgørelse
101 Bekæmpelse
42 Bel
68 Bela
27 Beldringe
105 Belejringen
194 Belfast
1993 Belgien
140 Belgiens
45 Belgisk
33 Belgiske
47 Belize
500 Bell
317 Bella
57 Bellahøj
125 Belle
95 Bellevue
29 Bellinge
44 Bells
26 Belysning
30 Bemærk
39 Bemærkninger
887 Ben
141 Bendix
93 Bendt
82 Bendtsen
65 Benedict
101 Benedicte
101 Benedikt
70 Benedikte
47 Bengalen
28 Bengals
31 Bengalske
86 Bengt
108 Benin
123 Benito
617 Benjamin
38 Benløse
52 Bennet
437 Benny
46 Bens
575 Bent
112 Bente
48 Benton
37 Benved
302 Beograd
39 Berberis
35 Beredskab
62 Beredskabsstyrelsen
30 Beretning
647 Berg
1157 Bergen
133 Bergens
105 Bergs
118 Bering
33 Berings
44 Berit
4678 Berlin
203 Berliner
710 Berlingske
74 Berlinmuren
65 Berlinmurens
360 Berlins
106 Bermuda
290 Bern
396 Bernard
41 Bernd
74 Berner
542 Bernhard
29 Bernhardt
106 Bernie
27 Berns
100 Bernt
26 Bernth
170 Berry
62 Bert
26 Berta
28 Berte
288 Bertel
204 Bertelsen
108 Bertha
90 Berthelsen
35 Berthold
36 Bertil
56 Bertolt
46 Bertram
112 Bertrand
28 Besiddelse
90 Beskrivelse
83 Beskyttelse
46 Bess
29 Bestemmelser
40 Bestseller
41 Bestyrelsen
166 Besættelsen
29 Besøg
108 Bet
61 Beta
65 Beth
41 Betis
61 Betlehem
40 Betragtninger
25 Betsy
42 Bette
41 Bettina
36 Betts
360 Betty
103 Betydning
41 Bevaring
340 Beverly
98 Bevægelse
33 Bevægelsen
38 Bey
101 Bhutan
27 Bi
106 Bianca
110 Bibel
643 Bibelen
97 Bibelens
26 Bibelselskab
59 Bible
91 Biblen
967 Bibliotek
62 Biblioteker
59 Bibliotekerne
42 Biblioteket
95 Biblioteks
42 Biblioteksskole
26 Bidende
158 Bidrag
67 Bidstrup
59 Bie
26 Biel
27 Bien
43 Bier
53 Bifrost
42 Biker
60 Bikuben
78 Bil
46 Bilbo
46 Bild
27 Bildt
40 Bilka
1089 Bill
553 Bille
26 Billedbog
127 Billede
110 Billeder
43 Billes
110 Billie
64 Bills
260 Billund
744 Billy
32 Bin
87 Bind
50 Bindslev
282 Bing
94 Bio
57 Biografisk
75 Biovidenskabelige
242 Birger
112 Birgit
77 Birgitta
404 Birgitte
243 Birk
40 Birka
73 Birkedal
33 Birkeland
38 Birkelse
299 Birkerød
53 Birkholm
41 Birkum
457 Birmingham
48 Birte
145 Birthe
62 Bishop
195 Biskop
314 Bismarck
72 Bismarcks
273 Bispebjerg
25 Bispegården
36 Bispestol
113 Bissen
46 Bissens
55 Bistrup
35 Bit
28 BitTorrent
53 Bitter
82 Bjarke
334 Bjarne
27 Bjarup
142 Bjerg
62 Bjergby
171 Bjerge
60 Bjerget
25 Bjergsted
29 Bjergte
56 Bjerke
30 Bjernede
214 Bjerre
154 Bjerregaard
43 Bjerring
99 Bjerringbro
38 Bjerringbro-Silkeborg
49 Bjæverskov
57 Björk
136 Björn
615 Bjørn
49 Bjørne-banden
36 Bjørneøen
30 Bjørnsholm
30 Blackout
62 Blad
189 Blade
417 Bladet
80 Bladets
36 Blaise
79 Blanche
43 Blanco
27 Blank
44 Bleed
326 Blekinge
26 Blekinges
31 Blender
32 Blik
97 Blind
35 Blinde
37 Blitz
35 Blod
28 Blodbad
29 Blodrød
39 Blok
75 Blokhus
25 Bloksbjerg
37 Blomster
32 Blonde
62 Blondie
52 Blovstrød
28 Blu
414 Blues
43 Bluff
363 Blå
26 Blåbjerg
46 Blåbær
151 Blåtand
37 Blåtands
34 Blåtop
46 Blåvand
27 Blåvandshuk
27 Blæs
684 Bo
26 Boas
821 Bob
450 Bobby
25 Bode
41 Boden
373 Bodil
44 Boe
64 Boel
30 Boer
26 Boeslunde
662 Bog
70 Bogart
25 Bogdan
108 Bogen
160 Bogense
64 Boghandel
43 Bogotá
82 Bogs
34 Bogtrykkeri
52 Bogø
41 Bois
25 Boje
25 Bolbro
29 Bold
33 Bolderslev
33 Boldhus
1976 Boldklub
376 Boldklubben
27 Boldklubber
157 Boldklubs
397 Boldspil-Union
59 Boldspil-Unions
25 Boldspilklub
76 Bolette
53 Bolig
52 Boliger
38 Boligforening
27 Boligselskab
273 Bolivia
26 Bolivias
41 Bolle
48 Boller
28 Bollerup
36 Bolt
25 Bolten
169 Bolton
42 Bom
47 Bomb
26 Bombardement
80 Bombardier
61 Bomber
189 Bon
185 Bonde
41 Bonderup
63 Bondevennerne
44 Bondevennernes
58 Bone
70 Bones
113 Bonnie
25 Bonus
250 Book
91 Booker
76 Boom
41 Boot
30 Bord
266 Bordeaux
47 Border
92 Bording
160 Borg
34 Borge
29 Borgeby
82 Borgen
26 Borgens
41 Borger
64 Borgerdyd
35 Borgergade
113 Borgerkrig
57 Borgerkrigen
25 Borgerligt
219 Borgerrepræsentation
108 Borgerrepræsentationen
26 Borgerskole
39 Borges
47 Borgmester
295 Boris
59 Bork
1294 Bornholm
519 Bornholms
38 Bornholmske
97 Borre
77 Borreby
40 Borris
37 Borte
56 Borum
106 Borup
48 Borups
44 Boserup
257 Bosnien
215 Bosnien-Hercegovina
80 Boss
37 Bosse
811 Boston
27 Bostons
44 Bostrup
26 Botanik
149 Botanisk
26 Botaniske
69 Botniske
96 Botswana
70 Bougainville
368 Boulevard
26 Boulevardbanen
65 Bourgogne
96 Bov
227 Bowie
37 Bowies
679 Bowl
39 Bowling
47 Boxer
475 Boy
67 Boyd
136 Boye
596 Boys
232 Brabrand
123 Bradford
215 Bradley
28 Bradleys
29 Brage
52 Bram
113 Bramming
25 Bramstrup
57 Branch
158 Brand
125 Brande
217 Brandes
76 Brandforsikring
68 Brandstrup
362 Brandt
127 Brandts
66 Brandvæsen
74 Brandy
57 Brarup
1598 Brasilien
225 Brasiliens
61 Brask
295 Bratislava
59 Brats
34 Brave
26 Braves
90 Bravo
125 Break
42 Bredal
59 Bredbladet
102 Brede
65 Bredebro
181 Bredgade
176 Bredning
91 Bredsted
26 Bredsten
72 Bregninge
31 Brejning
758 Bremen
60 Bremens
51 Bremerholm
33 Brems
146 Brenda
53 Brendan
74 Brescia
92 Brett
43 Breum
84 Brev
129 Breve
998 Brian
39 Briand
566 Bridge
112 Bridges
34 Bridget
37 Briefe
40 Brier
386 Brigade
31 Brigadegeneral
30 Brigaden
33 Brigades
51 Brigitte
69 Bring
56 Brink
272 Bristol
50 Brit
285 Britisk
239 Britiske
41 Britta
371 Bro
104 Broager
79 Broby
160 Brockdorff
25 Brod
136 Broder
36 Brodersen
50 Broderskab
27 Broderskabet
49 Broen
52 Broge
61 Broholm
64 Brok
65 Bronze
57 Bror
271 Bros
131 Brother
540 Brothers
99 Brovst
581 Bruce
31 Brud
113 Brug
25 Brugs
25 Brugsen
27 Brugsforening
62 Brummer
278 Brun
28 Brune
55 Brunei
30 Brunel
276 Bruno
49 Bruns
32 Brusk
84 Brutus
526 Bruun
57 Bruuns
612 Bruxelles
240 Bryan
350 Brygge
35 Bryggen
60 Bryggeren
160 Bryggeri
105 Bryggerier
50 Bryggerierne
91 Bryggeriet
26 Bryggervangen
111 Bryghus
28 Brylle
73 Bryllup
34 Bryndum
28 Bryrup
89 Brædstrup
41 Brød
65 Brødre
164 Brødrene
945 Brøndby
38 Brøndbys
36 Brøndbyvester
60 Brøndbyøster
339 Brønderslev
69 Brøndsted
83 Brøndum
32 Brøns
273 Brønshøj
50 Brørup
152 Buch
79 Bud
418 Budapest
148 Buddha
48 Buddhas
32 Buddhisme
25 Buddhismen
61 Buddinge
37 Bue
406 Buenos
51 Bug
94 Bugge
27 Bugges
711 Bugt
27 Bugt-banen
26 Bugten
108 Buhl
223 Bukarest
25 Buksbom
35 Bulbjerg
710 Bulgarien
103 Bulgariens
42 Bulldogs
62 Bullet
41 Bulletin
92 Bund
123 Bundgaard
34 Bunke
60 Bunker
49 Burbank
250 Bureau
83 Burgenland
77 Burger
77 Burhan
68 Burkina
297 Burma
247 Burton
46 Burtons
75 Burundi
77 Bus
41 Busby
546 Business
59 Busk
33 Busse
78 Buster
27 Bustrup
73 But
28 Bute
235 Butler
27 Butlers
115 Butterfly
842 By
271 Byen
75 Byens
35 Byer
36 Byg
26 Bygade
28 Bygge
59 Byggeforening
27 Byggeforskningsinstitut
28 Byggeren
37 Byggeri
49 Byggeskik
71 Bygholm
52 Bygning
25 Bygninger
30 Bygnings
55 Bygningssyn
36 Bygningstjeneste
42 Bymuseum
55 Byrd
51 Byrds
132 Byret
102 Byron
333 Byråd
60 Bys
92 Byzantinske
28 Byåsen
25 Bånd
39 Bårse
75 Bæk
28 Bække
47 Bækkeskov
80 Bælt
32 Bælum
37 Bærmispel
78 Bærum
29 Bævre-Asp
36 Bø
49 Bødker
25 Bødskov
143 Bøg
68 Bøge
116 Bøger
43 Bøje
72 Bølle
59 Bølling
25 Bønder
348 Børge
198 Børglum
32 Børkop
222 Børn
34 Børnebogspris
50 Børnenes
35 Børns
41 Børs
189 Børsen
36 Børsens
31 Bøsser
43 Bøvling
45 C-dur
43 C-gruppen
44 C-vitamin
32 CAD
96 CAF
674 CD
225 CIA
31 CL
59 CM
31 CMS
72 CPU
66 CS
61 CV
100 Cabriolet
97 Cafe
279 Café
97 Cai
44 Caine
201 Cairo
102 Calgary
2430 Californien
79 Californiens
25 Callas
26 Calle
80 Calvados
135 Calvin
26 Calvins
35 Calypso
37 Cam
184 Cambodja
27 Cambodjas
264 Cameron
179 Cameroun
36 Camerouns
261 Camilla
108 Camille
30 Camillo
49 Camping
91 Campus
229 Can
2937 Canada
164 Canadas
88 Canadisk
58 Canberra
40 Cancer
31 Cantabile
185 Canyon
391 Cape
40 Caracas
34 Caravan
145 Cardiff
328 Caribien
114 Caribiske
59 Carina
32 Carit
4884 Carl
33 Carl-Henning
113 Carla
393 Carlo
502 Carlos
53 Carls
492 Carlsberg
65 Carlsbergs
277 Carlsen
66 Carly
131 Carmen
143 Carol
51 Carole
1189 Carolina
91 Carolinas
1044 Caroline
38 Carolyn
124 Carrie
105 Carson
477 Carsten
98 Carstens
108 Carstensen
370 Carter
33 Carters
26 Casanova
67 Case
62 Casey
294 Casino
385 Caspar
403 Casper
27 Caspian
33 Cassiopeia
56 Cassius
32 Cast
30 Castello
121 Cat
92 Catalansk
40 Catalina
46 Catarina
36 Cate
223 Catharina
106 Catharine
270 Catherine
677 Cathrine
28 Cathrines
26 Cathy
73 Cato
38 Cats
27 Cay
28 Cd
131 Cecil
109 Cecilia
210 Cecilie
74 Cedric
62 Celine
81 Celle
143 Celsius
41 Census
55 Cent
1830 Center
38 Centeret
39 Centerpartiet
55 Centers
986 Central
70 Centralafrikanske
54 Centralamerika
403 Centralasien
32 Centralbank
25 Centralbibliotek
90 Centrale
199 Centraleuropa
28 Centralkomiteen
61 Centralmagterne
32 Centralorganisation
33 Centralskole
427 Centre
136 Centret
28 Centro
321 Centrum
60 Centrum-Demokraterne
30 Cerberus
57 Cesare
52 Ceuta
104 Chad
73 Champagne
141 Champion
1453 Champions
2014 Championship
39 Championship-klubben
113 Chan
86 Chance
85 Chanel
30 Chania
73 Charge
32 Chargers
2268 Charles
133 Charleston
824 Charlie
31 Charlies
36 Charlotta
1248 Charlotte
241 Charlottenlund
60 Charter
39 Chartres
47 Chastine
25 Chat
54 Che
106 Chef
520 Chelsea
78 Chen
169 Chester
169 Chi
1363 Chicago
57 Chicagos
48 Chico
804 Chile
154 Chiles
125 Chili
38 Chip
46 Chirac
27 Chresten
991 Chris
35 Christa
636 Christen
41 Christence
1816 Christensen
116 Christensens
68 Christer
81 Christi
11756 Christian
562 Christiane
812 Christiania
33 Christianias
223 Christians
677 Christiansborg
50 Christiansborgs
39 Christiansdal
549 Christiansen
89 Christiansfeld
688 Christianshavn
121 Christianshavns
74 Christiansø
242 Christie
48 Christiern
99 Christies
462 Christina
822 Christine
707 Christoffer
33 Christoffers
86 Christoffersen
294 Christoph
57 Christophe
1037 Christopher
26 Cikorie
55 Cimber
55 Cindy
27 Cirkeline
138 Cirkus
35 Cirkusbygningen
86 Cirkusrevyen
29 Cisco
40 Citadellet
43 Citronen
4422 City
94 Citys
100 Ciudad
120 Civil
35 Cl
75 Claes
204 Claire
270 Clara
74 Clare
111 Clarence
392 Clark
331 Claude
33 Claudette
26 Claudi
68 Claudia
28 Claudine
70 Claudio
259 Claudius
872 Claus
602 Clausen
85 Clausens
67 Clausholm
25 Clear
348 Clemens
186 Clement
35 Clementine
26 Clements
184 Cliff
64 Clifford
75 Clint
296 Clinton
38 Clintons
74 Clive
137 Clyde
36 Coach
78 Coco
74 Cody
94 Cola
225 Colin
1517 College
66 Collie
25 Cologne
281 Colombia
30 Colombias
49 Colombo
384 Colorado
789 Columbia
30 Columbias
26 Columbine
394 Columbus
84 Combination
179 Computer
57 Concord
49 Concordia
423 Congo
28 Congos
338 Connecticut
99 Connie
65 Connor
654 Conrad
42 Conradine
35 Conrads
115 Constance
223 Constantin
36 Constantine
116 Cool
308 Cooper
27 Cora
36 Corfits
104 Corfitz
57 Cornelia
96 Cornelis
374 Cornelius
78 Corner
27 Corners
74 Corpus
31 Cort
28 Cosima
28 Cosmo
25 Cosmos
293 Costa
164 Coupe
108 Coupé
28 Courage
88 Cover
70 Cowboy
98 Cowboys
161 Craig
149 Crash
143 Crazy
44 Creme
54 Cricket
39 Cristina
657 Cross
270 Cruz
674 Cuba
84 Cubas
32 Cunha
3800 Cup
27 Cup-finale
105 Cup-finalen
46 Cup-kamp
26 Cup-titel
47 Cup-titler
714 Cuppen
52 Curie
149 Curling
80 Curt
190 Curtis
85 Cut
49 Cykle
65 Cynthia
323 Cypern
43 Cyril
138 Cyrus
27 Cæcilia
49 Cæcilie
422 Cæsar
38 Cæsarea
130 Cæsars
50 D-A-D
25 D-Generation
189 D-dag
33 D-dagen
46 DAF
30 DANMARK
86 DB
675 DDR
43 DDRs
25 DDT
32 DES
65 DF
54 DI
31 DISA
583 DJ
25 DL
689 DM
26 DM-bronze
58 DM-guld
34 DM-titler
517 DNA
42 DO
89 DONG
80 DOS
1671 DR
171 DS
946 DSB
564 DVD
402 Da
65 Dacia
27 Dafne
336 Dag
197 Dagblad
418 Dagbladet
54 Dagbog
117 Dage
136 Dagen
121 Dagens
85 Dages
306 Dagmar
51 Dags
27 Dagsværk
465 Dahl
49 Dahlia
35 Dahls
87 Daisy
86 Dakar
435 Dakota
83 Dal
103 Dalai
168 Dalby
114 Dale
45 Dalen
64 Dalgaard
142 Dalgas
52 Dali
57 Dall
392 Dallas
108 Dalsgaard
139 Dalton
124 Dalum
338 Dam
128 Damaskus
292 Dame
34 Damehåndboldligaen
36 Damen
26 Damer
26 Damernes
101 Damgaard
32 Damhussøen
25 Damian
38 Damien
47 Damme
33 Damned
33 Dampskibsselskab
52 Dampskibsselskabet
36 Damsholte
735 Dan
114 Dana
27 Dandy
105 Dane
36 Danelagen
58 Danes
26 Dani
58 Dania
128 Danica
1298 Daniel
27 Daniela
106 Danielle
119 Daniels
70 Danielsen
53 Danilo
555 Danish
31515 Danmark
304 Danmark-Norge
36 Danmark-Norges
8280 Danmarks
51 Danmarkshistorie
54 Danmarkshistorien
69 Danmarksmester
33 Danmarksmesterskab
30 Danmarksmesterskaber
29 Danmarksmesterskaberne
88 Danmarksmesterskabet
280 Danmarksserien
173 Danmarksturneringen
28 Danmarksturneringens
2805 Dannebrog
661 Dannebrogordenen
45 Dannebrogordenens
1083 Dannebrogsmand
34 Dannebrogsordenen
25 Dannebrogsordenens
29 Dannelse
53 Dannemand
83 Danner
175 Dannevirke
36 Dannevirkes
293 Danny
106 Dans
31 Danse
46 Danser
6098 Dansk
4172 Danske
49 Dansktoppen
154 Dante
60 Dantes
71 Daphne
47 Dario
43 Darius
61 Darren
158 Darwin
73 Darwins
395 Das
175 Data
51 Database
25 Date
41 Dato
149 Datter
516 Dave
36 Davey
3260 David
174 Davids
114 Davidsen
281 Davies
737 Davis
93 Davy
183 Dawn
31 Dayan
6401 De
33 Dea
36 Deacon
77 Deadline
321 Dean
34 Debat
108 Debbie
42 Debian
52 Deborah
28 Debra
97 Decca
103 December
141 Dee
25 Definition
44 Degn
467 Del
152 Delaware
35 Deleuran
82 Delfi
101 Delhi
32 Della
29 Delphi
47 Dels
187 Delta
31 Deltagelse
139 Dem
47 Demi
40 Demo
41 Demokrat
44 Demokraten
60 Demokrater
166 Demokraterne
57 Demokraternes
44 Demokrati
92 Demokratisk
446 Demokratiske
13134 Den
40 Deng
142 Denis
72 Denise
213 Denne
344 Dennis
37 Denny
25 Dent
201 Denver
64 Depeche
80 Depot
25 Depression
69 Depressionen
214 Derby
123 Derek
42 Derry
31 Derudover
84 Des
339 Design
39 Designskole
39 Desire
167 Desmond
78 Desperate
29 Destination
53 Destiny
25 Destroyer
13640 Det
25 Detlef
83 Detlev
234 Dette
547 Development
165 Devon
114 Dexter
43 Dhabi
64 Dharma
185 Di
27 Diakonissestiftelsen
52 Dialog
27 Dialogcentret
42 Diamant
302 Diana
43 Dianalund
88 Diane
32 Dias
36 Dich
273 Dick
35 Dicte
47 Did
34 Diderich
108 Diderik
36 Didier
49 Dido
78 Didrik
1268 Die
374 Diego
34 Dies
129 Diesel
41 Dieter
160 Dietrich
72 Dig
256 Digital
34 Digitale
44 Digt
229 Digte
59 Digter
27 Digtere
49 Digtning
37 Dimension
68 Din
53 Dina
32 Dine
26 Ding
44 Dino
138 Dio
76 Dion
30 Dione
26 Dios
28 Diplomatarium
80 Dirch
36 Direktoratet
81 Direktør
62 Dirk
27 Disciple
203 Discovery
39 Discoverys
32 Disk
898 Disney
221 Disneys
32 Distance
58 Distribution
80 Distrikt
30 Disturbed
490 Ditlev
153 Ditmarsken
80 Ditte
1112 Division
47 Divisionen
46 Dj
45 Djibouti
67 Djurs
56 Djævelen
32 Djævelens
104 Dmitrij
335 Do
114 Doc
38 Docent
200 Doctor
28 Dodo
29 Dogmatik
71 Dogs
46 Doha
58 Doktor
31 Doktorgraden
39 Dolce
64 Dollar
38 Dollars
39 Dollerup
62 Dolly
41 Dolores
155 Dom
87 Domenico
122 Domingo
84 Dominic
26 Dominica
147 Dominikanske
29 Dominion
63 Dominique
54 Domino
25 Domkapitel
680 Domkirke
59 Domkirken
34 Domkirkes
46 Dommedag
52 Domstol
25 Domstolen
869 Don
300 Donald
768 Donau
40 Donau-Iller
32 Donau-Ries
60 Donaus
59 Dong
209 Donna
51 Donnie
95 Dons
46 Dora
25 Doria
63 Doris
31 Dorn
625 Dorothea
92 Dorothy
32 Dorrit
126 Dorte
128 Dorthe
124 Dorthea
185 Double
633 Douglas
107 Dover
33 Download
1383 Dr
64 Drage
43 Dragen
274 Dragon
64 Dragoner
93 Dragonregiment
61 Dragons
124 Dragsholm
217 Dragør
225 Drama
43 Dramatisk
189 Drammen
27 Draper
46 Drejer
25 Drejers
25 Dreng
91 Drenge
46 Drengekor
38 Drengen
50 Drengene
725 Dresden
54 Dresdens
39 Drift
133 Drive
50 Driver
747 Dronning
77 Dronningborg
103 Dronningen
184 Dronningens
148 Dronninglund
41 Drop
31 Druemunke
27 Drug
39 Drum
28 Drums
33 Dryas
43 Dråby
41 Drøm
27 Drømme
30 Drømmen
346 Du
124 Dubai
758 Dublin
45 Dublins
42 Duborg
39 Duborg-Skolen
103 Dudley
112 Due
28 Dueholm
26 Dueodde
44 Dulles
28 Dum
65 Dumas
28 Dun-Birk
33 Dun-Eg
157 Duncan
55 Dunder
49 Dunet
72 Dunst
64 Duo
127 Durham
35 Durup
62 Dustin
45 Dværgmispel
281 Dybbøl
37 Dybbøls
74 Dybvad
35 Dygtighed
352 Dylan
81 Dylans
168 Dynamo
32 Dyr
31 Dyre
89 Dyrehave
139 Dyrehaven
91 Dyrenes
33 Dyveke
26 Dæmoner
81 Døberen
36 Døberens
364 Død
143 Døden
97 Dødens
465 Dødsfald
35 Døllefjelde
28 Døre
26 Døstrup
362 Düsseldorf
93 EA
268 EF
25 EF-Domstolen
36 EFTA
2347 EM
41 EM-guld
55 EM-kvalifikationskamp
25 EM-medaljer
32 EM-slutrunde
69 EM-slutrunden
50 EM-titel
67 EM-titlen
346 EP
51 EPO
26 ES
71 ESC
91 ESP
82 ETA
1483 EU
27 EU-Kommissionen
26 EU-Parlamentet
27 EU-kommissær
82 EU-lande
30 EU-landene
48 EVA
167 Earl
106 Ebba
276 Ebbe
181 Ebeltoft
81 Eberhard
120 Ebert
159 Ecuador
377 Ed
239 Edda
41 Edderkoppen
26 Edderkopurt
398 Eddie
115 Eddy
54 Edel
101 Eden
32 Edens
46 Eder
271 Edgar
431 Edinburgh
194 Edith
277 Edition
32 Edmond
308 Edmund
32 Edna
67 Edouard
254 Eduard
92 Eduardo
874 Edvard
32 Edvards
1276 Edward
238 Edwards
197 Edwin
39 Een
43 Efterladte
97 Efterretninger
151 Efterretningstjeneste
203 Efterskole
28 Efterslægten
123 Efterårsudstilling
128 Eg
85 Ege
49 Egebjerg
38 Egebæksvang
88 Egedal
229 Egede
47 Egedes
37 Egelund
32 Egense
26 Egenskaber
32 Eger
51 Egernsund
92 Egeskov
100 Eggert
111 Egholm
57 Egil
29 Egill
275 Egmont
29 Ego
286 Egon
76 Egtved
1473 Egypten
137 Egyptens
52 Egå
42 Ehlers
61 Eide
51 Eiffeltårnet
112 Eigil
41 Eik
25 Eileen
178 Eiler
26 Eilert
27 Eilif
296 Einar
140 Einstein
87 Einsteins
34 Eirik
28 Eivind
88 Ejby
37 Eje
44 Ejegod
33 Ejendom
49 Ejendomme
43 Ejer
62 Ejler
163 Ejnar
39 Ejner
30 Ejstrup
41 Ejvind
52 Ekko
71 Eksamen
60 Ekspedition
123 Ekspeditionen
421 Ekstra
29 Ekstrabladet
812 El
70 Elaine
457 Elben
54 Elbens
30 Elbæk
26 Eldrup
119 Eleanor
101 Elefanten
89 Elefantordenen
92 Elektra
46 Elektriske
30 Elektronik
25 Elektronisk
35 Element
33 Elementer
28 Elements
91 Elena
162 Eleonora
126 Eleonore
69 Elev
48 Elever
103 Elevskole
148 Elfenbenskysten
44 Elfenbenskystens
132 Eli
247 Elias
29 Elimination
58 Elin
42 Eline
32 Eliot
52 Elis
71 Elisa
37 Elisabet
1746 Elisabeth
38 Elisabeths
205 Elise
125 Elite
35 Elitedivisionen
33 Eliteserien
58 Eliza
953 Elizabeth
45 Elizabeths
124 Ella
73 Elle
43 Ellebjerg
543 Ellen
43 Ellie
78 Elling
124 Elliot
72 Elliott
140 Ellis
100 Elm
37 Elmelunde
58 Elmer
47 Elna
34 Elo
62 Elsa
401 Else
37 Elsebeth
27 Elsk
40 Elsker
271 Elton
52 Elverhøj
38 Elvin
63 Elvira
931 Elvis
119 Em
351 Emanuel
62 Embede
41 Emborg
63 Emden
56 Emdrup
1160 Emil
71 Emile
74 Emilia
369 Emilie
58 Emilio
35 Emilius
149 Emily
133 Emirater
478 Emma
120 Emmanuel
26 Emmas
27 Emmerich
391 Emmy
34 Emner
301 Empire
37 Empires
57 Ems
44 Encyklopædi
458 End
92 Ende
25 Endelave
99 Ene
36 Enel
31 Enemark
139 Enemy
188 Energi
28 Energiministeriet
80 Enevold
30 Enevoldsen
38 Eng
57 Enge
125 Engel
43 Engelbert
47 Engelbrecht
44 Engelhardt
96 Engels
33 Engelsholm
258 Engelsk
207 Engelske
36 Engestofte
34 Engesvang
89 Enghave
9767 England
725 Englands
45 Engle
36 Enhed
285 Enhedslisten
49 Enhedslistens
73 Enke
30 Eno
106 Enrico
61 Enrique
110 Ensemble
33 Ententen
857 Entertainment
38 Entertainments
29 Enver
45 Enzo
40 Ephraim
60 Episode
148 Erasmus
106 Erfurt
116 Erhard
55 Erhverv
94 Erhvervs
66 Erhvervsministeriet
34 Erhvervsråd
662 Eric
56 Erica
299 Erich
3678 Erik
31 Erika
131 Eriks
399 Eriksen
41 Eriksholm
48 Erin
62 Erindringer
161 Eritrea
38 Erland
261 Erling
63 Erna
321 Ernest
56 Ernestine
44 Ernesto
1382 Ernst
113 Erobreren
81 Eros
118 Erslev
29 Erslevs
170 Erwin
67 Es
43 Esaias
42 Esajas
92 Esben
66 Esbern
1668 Esbjerg
25 Esbjergs
40 Esbønderup
31 Esger
62 Eskadrille
84 Eske
100 Eskil
48 Eskild
53 Eskildsen
52 Eskilstrup
30 Espe
31 Espen
26 Esperanto
124 Espergærde
35 Esplanaden
96 Esrum
26 Essay
140 Essen
32 Estelle
40 Ester
105 Esther
49 Estiske
1015 Estland
159 Estlands
32 Estrid
299 Estrup
57 Estrups
25 Estvadgård
41 Etablissement
138 Ethan
28 Ethel
343 Etiopien
36 Etiopiens
27 Etna
30 Etta
69 Eufrat
248 Eugen
140 Eugene
140 Eugène
31 Eugénie
30 Euklids
271 Euro
25 Euroen
26 Euroman
9599 Europa
97 Europa-Kommissionen
438 Europa-Parlamentet
43 Europa-Parlamentsvalget
44 Europamesterskaberne
165 Europamesterskabet
1051 Europas
113 Europavej
184 Europæisk
895 Europæiske
888 Eurovision
28 Eurydike
494 Eva
79 Evald
77 Evan
25 Evander
26 Evangeline
372 Evans
26 Evas
96 Eve
73 Evelyn
37 Even
115 Eventyr
41 Eventyret
48 Eventyrland
60 Evert
27 Evita
33 Evne
42 Evner
86 Evolution
200 Ewald
59 Ewalds
27 Ewan
31 Ex
26 Excel
60 Excellence
144 Explorer
40 Eyvind
52 Ezra
841 FA
5595 FC
141 FDF
25 FE
61 FIF
571 FIFA
58 FIFA-dommer
278 FM
912 FN
53 FO
28 Fa
351 Faaborg
133 Faaborg-Midtfyn
114 Fabian
37 Fabio
57 Fabius
79 Fabrik
50 Fabriker
93 Fabrikker
139 Face
163 Facebook
114 Faces
221 Factor
204 Fader
100 Faderen
44 Faderens
38 Faderhuset
77 Fag
47 Fagforening
53 Fahrenheit
199 Fair
148 Faith
108 Fakse
68 Fakta
418 Fakultet
74 Fald
112 Falk
93 Falklandsøerne
64 Falkoner
25 Fallen
78 Falling
40 Falsen
992 Falster
86 Falsters
131 Familie
150 Familien
48 Fan
30 Fanefjord
76 Fangen
26 Fangerne
27 Fannie
184 Fanny
34 Fantastiske
37 Fantomet
185 Fanø
234 Far
44 Farao
26 Faraos
46 Farina
136 Farm
57 Farmaceutiske
87 Farmer
88 Farrell
35 Fars
101 Farsø
438 Farum
25 Farvandsvæsenet
67 Farvel
31 Farver
41 Fasanvej
27 Fase
112 Fast
137 Fat
39 Fatah
32 Fatal
25 Fatima
33 Fauna
72 Favre
204 Favrskov
342 Faxe
48 Fay
192 Fe
167 Fear
34 Feature
57 Februar
29 Februarrevolutionen
59 Fed
31 Fede
160 Federal
856 Federation
64 Federer
47 Fedtmule
25 Feed
80 Feel
117 Fejde
31 Fejø
37 Felding
32 Felicia
62 Felipe
31 Felis
333 Felix
26 Felt
104 Felttoget
73 Fem
79 Female
149 Femern
58 Femte
25 Femø
111 Fender
57 Feng
47 Fensmark
1326 Ferdinand
60 Ferdinands
47 Ferenc
52 Ferm
29 Fermats
229 Fernando
31 Ferring
170 Ferry
30 Ferslev
43 Fest
40 Festen
1294 Festival
168 Festivalen
26 Festivals
27 Festskrift
31 Festspillene
42 Festuge
115 Fiction
77 Fideikommis
92 Fidel
188 Fight
114 Fighter
49 Fighters
87 Fiji
363 Fil
26 Filadelfia
197 File
460 Filip
369 Filippinerne
51 Filippo
48 Filips
1387 Film
50 Filmen
29 Filmfestival
98 Filmfestivalen
80 Filminstitut
201 Films
95 Filmskole
30 Filmskolen
36 Filologi
99 Filosofi
27 Filosofiske
35 Filskov
243 Final
33 Finalen
36 Finans
32 Finansiel
46 Finanskollegiet
38 Finansloven
150 Finansministeriet
37 Finansministeriets
42 Finanstilsynet
39 Finansudvalg
72 Finansudvalget
54 Find
77 Finderup
181 Fine
30 Finger
59 Fingers
3625 Finland
618 Finlands
32 Finmarken
582 Finn
36 Finsk
193 Finske
43 Fiona
433 Fire
61 Firefox
556 Firenze
25 Firenzes
40 Firmaet
613 Fischer
45 Fischers
41 Fisk
177 Fisker
58 Fiskeri
27 Fisketorvet
80 Fist
49 Fitness
27 Fix
99 Fjends
35 Fjenneslev
29 Fjerbregne
88 Fjerde
25 Fjergræs
145 Fjernøsten
28 Fjernøstlige
119 Fjerritslev
55 Fjodor
1235 Fjord
162 Fjordane
36 Fjords
34 Fladbælg
33 Flade
59 Fladstrand
28 Fladså
179 Flag
28 Flags
350 Flair
28 Flairs
72 Flakkebjerg
40 Flammen
95 Flammernes
133 Flash
141 Fleming
51 Flemings
534 Flemming
1289 Flensborg
60 Flensborgs
32 Flest
29 Flid
75 Flint
54 Flintholm
43 Flitteraks
37 Flo
66 Flod
34 Floden
87 Flor
201 Flora
104 Florence
39 Flores
48 Florian
1098 Florida
48 Floridas
303 Floyd
62 Floyds
29 Flugt
29 Flugten
120 Fly
42 Flygtningehjælp
27 Flyvefisken-klassen
51 Flyvende
70 Flyveplads
167 Flyvestation
30 Flyvetjeneste
151 Flyvevåbnet
62 Flyvevåbnets
45 Flåden
45 Flådens
79 Flådestation
58 Fløjstrup
31 Fløng
33 Fod
279 Fodbold
25 Fodboldklub
34 Fodboldlandskampe
78 Fodboldspiller
34 Fodgarden
28 Fodregiment
114 Fods
128 Fog
409 Fogh
95 Fokker
315 Folk
107 Folke
118 Folkebevægelsen
174 Folkeblad
153 Folkeforbundet
32 Folkeforbundets
47 Folkefronten
68 Folkehøjskole
36 Folkekirke
137 Folkekirken
95 Folkekirkens
51 Folkemuseum
1265 Folkeparti
192 Folkepartis
42 Folkerepublik
483 Folkerepublikken
25 Folkeskolen
59 Folket
277 Folketeatret
36 Folketidende
125 Folketing
2915 Folketinget
547 Folketingets
35 Folketingsmand
42 Folketingsmedlem
25 Folketingsvalg
127 Folketingsvalget
188 Folkets
52 Folks
31 Folmer
426 Fond
27 Fonde
371 Fonden
35 Fondens
46 Fondet
39 Fonds
102 Fondsbørs
34 Forandring
39 Forbedring
95 Forbindelse
42 Forbrugerrådet
62 Forbrydelsen
78 Forbudte
650 Forbund
45 Forbundet
76 Forbunds
97 Forbundsdagen
82 Forbundsrepublikken
67 Forbundsrådet
1009 Force
227 Forces
1016 Ford
87 Fords
26 Forebyggelse
53 Foredrag
100 Forelæsninger
1043 Forenede
900 Forening
737 Foreningen
63 Forenings
29 Forenklet
29 Forfatning
40 Forfatter
36 Forfattere
90 Forfatterforening
25 Forfatterforenings
126 Forfatterskolen
41 Forhandlinger
199 Forhold
26 Forholdet
30 Fork
27 Forklaring
50 Forks
576 Forlag
217 Forlaget
127 Form
38 Forman
113 Formand
33 Format
293 Formel
27 Former
59 Formosa
25 Forordning
102 Forrest
36 Forsamling
39 Forsamlingshus
93 Forsikring
97 Forskning
54 Forskningscenter
62 Forskningsråd
46 Forskønnelse
67 Forslag
60 Forst
39 Forster
172 Forsvar
189 Forsvaret
303 Forsvarets
104 Forsvarsministeriet
29 Forsvarsstaben
37 Forsyning
115 Forsøg
1292 Fort
34 Fortid
33 Fortjeneste
140 Fortjenstmedaljen
82 Fortsættelseskrigen
108 Fortuna
91 Fortællinger
579 Forum
28 Forvaltning
33 Forward
30 Forwards
36 Forår
33 Foråret
289 Forårsudstilling
28 Forældre
45 Fossum
220 Foster
458 Foundation
37 Foundations
52 Fraktion
46 Framlev
1734 France
130 Frances
54 Francesca
260 Francesco
25 Francine
571 Francis
27 Francisca
1019 Francisco
37 Franciscos
63 Franck
204 Franco
77 Francois
59 Francos
67 Frands
105 Frandsen
1659 Frank
834 Frankfurt
59 Frankfurter
75 Frankie
558 Franklin
32 Franklins
10270 Frankrig
927 Frankrigs
102 Franks
464 Frans
416 Fransk
280 Franske
149 Frants
117 Frantz
1017 Franz
25 Franziska
75 Fraser
84 Fraugde
35 Freak
69 Freaks
425 Fred
35 Fredag
266 Freddie
154 Freddy
101 Frede
305 Freden
69 Fredens
402 Fredensborg
55 Frederic
1192 Fredericia
33 Fredericias
364 Frederick
8604 Frederik
25 Frederike
712 Frederikke
479 Frederiks
3612 Frederiksberg
37 Frederiksbergs
997 Frederiksborg
265 Frederiksborgmuseet
86 Frederiksdal
320 Frederiksen
48 Frederikshald
946 Frederikshavn
31 Frederikshavns
45 Frederiksholm
65 Frederiksholms
48 Frederikslund
380 Frederikssund
259 Frederiksværk
377 Fredrik
79 Fredrikstad
60 Freds
39 Fredspris
339 Free
31 FreeBSD
30 Fregatten
149 Frej
396 Freja
44 Frejas
91 Frejlev
36 Frejs
35 Frelsens
157 Frelsers
340 Frem
456 Fremad
110 Fremme
32 Fremmedlegionen
27 Fremskridt
158 Fremskridtspartiet
34 Fremskridtspartiets
93 Fremstilling
62 Fremtiden
28 Fremtidens
32 Frey
28 Freya
111 Fri
62 Frida
107 Friday
61 Fridtjof
279 Frie
32 Fried
92 Friederich
67 Friederike
2023 Friedrich
48 Friedrichs
27 Fries
104 Frigg
82 Frihavn
66 Frihavnen
125 Frihed
68 Friheden
37 Frihedens
29 Frihedsråd
59 Frihedsrådet
726 Friis
53 Friis-Hansen
37 Friis-Mikkelsen
30 Frikonservative
91 Frikorps
88 Frilandsmuseet
83 Frimurerorden
32 Frimurerordens
101 Friskole
33 Fristaden
59 Fristaten
152 Frit
161 Frits
573 Fritz
28 Frivilligt
170 Frode
92 Frodo
334 From
50 Fromme
329 Front
47 Frontier
213 Frost
213 Fru
667 Frue
43 Fruens
27 Frugt
25 Frugter
67 Fry
51 Frydendal
29 Frydenlund
126 Frédéric
27 Frø
56 Frøken
30 Frørup
35 Frøs
41 Frøslev
59 Fu
42 Fugl
35 Fugle
27 Fugle-Kirsebær
53 Fuglebjerg
25 Fuglede
136 Fuglsang
49 Fuglse
126 Fund
75 Funder
112 Funk
30 Fup
80 Fur
110 Furesø
37 Furesøen
44 Fusion
40 Fussing
122 Future
1826 Fyn
26 Fynboerne
717 Fyns
43 Fynshav
206 Fynske
255 Fyr
40 Fyrstedømmet
28 Fyrsten
25 Fyrstendømmet
73 Fysik
104 Fåborg
42 Fårevejle
53 Fårup
29 Fædreland
140 Fædrelandet
263 Fædrelandets
95 Fælled
27 Fælleden
94 Fælledparken
74 Fælles
25 Fællesforfatningen
41 Fællesrepræsentationen
130 Fællesråd
76 Fællesskab
145 Fængsel
33 Færd
35 Færder
47 Færgeby
28 Færgefart
27 Færgen
1821 Færøerne
579 Færøernes
61 Fæstning
114 Fætter
40 Føderale
62 Føderation
67 Fødevarer
27 Fødevarestyrelsen
36 Fødsel
46 Fødselsstiftelsen
615 Født
38 Følge
201 Før
26 Førerbunkeren
32 Førslev
747 Første
43 Føtex
44 G-Man
143 GB
57 GHz
33 GIF
33 GNOME
162 GNU
84 GPS
26 GUI
35 Ga
80 Gabon
488 Gabriel
35 Gabriele
55 Gabriella
56 Gabrielle
27 Gabriels
25 Gaby
125 Gad
533 Gade
42 Gades
41 Gael
175 Gaga
39 Gage
105 Gaia
29 Gail
33 Gal
32 Galaktiske
72 Galathea
93 Gale
50 Galen
86 Galilæa
32 Galla
29 Galle
129 Galleri
212 Gallery
48 Gallup
32 Galt
111 Galten
98 Gambia
32 Gamble
50 Gamborg
471 Game
364 Games
912 Gamle
44 Gamles
45 Gamma
536 Gammel
38 Gammelby
29 Gamtofte
117 Gandalf
301 Gang
46 Ganges
26 Gangster
39 Ganløse
30 Garage
110 Garde
50 Gardehusarregimentet
535 Garden
131 Gardens
48 Gardermoen
83 Garner
357 Garnisons
349 Gary
90 Gas
38 Gasolin
79 Gaston
136 Gasværk
180 Gate
194 Gates
70 Gavin
74 Gavnø
119 Gay
90 Gazastriben
117 Gear
40 Gedde
48 Gedeblad
114 Gedser
33 Gedsted
62 Gedved
47 Geert
62 Gefion
29 Geir
46 Gellerup
43 Gelsted
25 Gemma
194 Gene
1060 General
27 Generalkommissariat
27 Generalløjtnant
68 Generalmajor
40 Generalstab
163 Generalstaben
48 Generalstabens
29 Generalstaterne
38 Generaltoldkammer
132 Generation
29 Genesaret
105 Genesis
25 Geneva
278 Geneve
103 Genforeningen
30 Genius
25 Genlyd
33 Gennembrud
143 Gent
36 Gentleman
39 Gentlemen
976 Gentofte
31 Genua
46 Geo
116 Geoffrey
67 Geografi
38 Geografisk
60 Geografiske
28 Geologi
39 Geologisk
34 Geologiske
2467 Georg
3244 George
322 Georges
52 Georgetown
797 Georgia
32 Georgias
251 Georgien
45 Georgiens
56 Georgine
36 Georgios
48 Georgs
34 Gerais
135 Gerald
128 Gerard
110 Gerd
144 Gerda
26 Gere
378 Gerhard
26 Gerhardt
43 Gerlev
87 German
39 Germanien
75 Gerner
28 Gerners
90 Gerninger
29 Gerrit
81 Gerry
27 Gers
31 Gerson
247 Gert
108 Gertrud
75 Gertrude
48 Gestapos
30 Getsemane
29 Gevninge
96 Geyser
252 Ghana
52 Ghanas
37 Ghetto
46 Ghita
32 Gian
29 Gianni
59 Gibbon
61 Gibbons
298 Gibraltar
56 Gibraltars
69 Gideon
34 Giesegård
32 Gigi
63 Gil
30 Gila
252 Gilbert
92 Gilleleje
37 Gillian
31 Gin
55 Gina
76 Ginny
81 Giorgio
467 Giovanni
302 Giro
55 Giroen
30 Gislev
37 Gislum
157 Gitte
40 Giulia
49 Giulio
254 Giuseppe
27 Giv
183 Give
70 Gjellerup
39 Gjerlev
93 Gjern
44 Gjesing
53 Gjorslev
31 Gjøl
37 Glad
31 Glade
38 Gladiator
514 Gladsaxe
57 Gladys
26 Glamour
45 Glamsbjerg
34 Glansbladet
28 Glas
381 Glasgow
63 Glasværk
47 Glat
157 Glen
210 Glenn
36 Glimmer
58 Glistrup
215 Global
407 Globe
25 Globe-nominering
25 Globen
46 Globes
29 Globus
111 Gloria
123 Glory
452 Glostrup
38 Gloves
90 Glud
74 Glyngøre
88 Glyptotek
53 Glyptoteket
41 Glæde
387 Go
63 Goa
341 God
173 Gode
67 Godfather
86 Godfred
25 Godfreds
907 Gods
76 Godske
124 Godthåb
492 Gold
804 Golf
36 Golfen
42 Golfklub
111 Golfkrigen
62 Golfstrømmen
34 Gong
259 Google
26 Googles
458 Gordon
47 Gorilla
210 Gorm
66 Gospel
249 Got
110 Gotfred
29 Gothard
35 Gottfred
233 Gottfried
72 Gotthard
306 Gottlieb
246 Grace
98 Grad
32 Grade
157 Graf
38 Grafisk
41 Grafiske
392 Graham
444 Gram
52 Grammatik
557 Grammy
27 Grammy-priser
51 Grams
213 Gran
2073 Grand
298 Grande
30 Grandløse
64 Granger
757 Grant
29 Grasten
65 Grathe
51 Grav
69 Grave
28 Graven
37 Graves
31 Gravkirken
948 Green
31 Greens
249 Greg
144 Gregers
65 Gregersen
283 Gregor
42 Gregorius
147 Gregory
45 Gren
302 Grenaa
51 Grenada
58 Grene
34 Grenen
32 Grenet
27 Grenland
72 Grenå
69 Greta
29 Gretchen
161 Grete
175 Grethe
329 Greve
52 Greven
121 Grevens
97 Grevinde
180 Grevskabet
124 Gribskov
68 Grimes
28 Grimstrup
187 Grindsted
37 Gris
66 Gro
180 Groningen
192 Grove
104 Groves
137 Grubbe
64 Grue
113 Grund
30 Grunde
29 Grunden
42 Grundet
33 Grundfos
26 Grundfør
57 Grundlag
87 Grundlov
184 Grundloven
86 Grundlovens
70 Grundlovgivende
344 Grundtvig
176 Grundtvigs
223 Gruppe
227 Gruppen
29 Grusomme
60 Grut
50 Gry
70 Grå
47 Gråbrødre
188 Gråsten
1940 Grækenland
143 Grækenlands
77 Grænser
164 Græsk
37 Græske
71 Græsted
217 Grøn
26 Grønbæk
36 Grøndal
37 Grønholt
2294 Grønland
798 Grønlands
31 Grønlandsk
96 Grønlandske
293 Grønne
57 Grønnegade
28 Grønnegårds
67 Grønningen
27 Grønvold
68 Guadeloupe
60 Guam
121 Guardian
186 Guatemala
29 Guatemalas
2270 Gud
29 Gudbjerg
34 Guddommelige
44 Guden
36 Gudenå
72 Gudhjem
31 Gudman
110 Gudme
51 Gudmund
148 Gudrun
1048 Guds
42 Gudum
27 Guf
36 Gug
177 Guide
64 Guido
112 Guillaume
37 Guillermo
516 Guinea
57 Guinea-Bissau
35 Guineabugten
35 Guineas
172 Guitar
255 Gul
37 Gulaks
171 Guld
37 Guldager
25 Guldborg
254 Guldborgsund
47 Guldhornene
86 Guldkysten
28 Guldmedalje
220 Gule
31 Gummi
136 Gun
25 Gunder
35 Gunderup
33 Gundestrup
78 Gunhild
53 Gunn
496 Gunnar
50 Gunner
174 Guns
38 Gunther
48 Gurre
42 Guru
92 Gus
434 Gustaf
1586 Gustav
28 Gustav-krig
39 Gustav-krigene
29 Gustav-linjen
115 Gustave
33 Gustavs
59 Gut
92 Guvernement
29 Guvernør
350 Guy
124 Guyana
25 Guys
102 Gwen
357 Gyldendal
145 Gyldendals
32 Gyldendalske
34 Gyldenkrone
177 Gyldenløve
67 Gyldenløves
31 Gyldenpalm
41 Gyldenris
42 Gyldensteen
194 Gyldenstierne
107 Gyldenstjerne
369 Gyldne
47 Gylling
35 Gymnasieelevers
1363 Gymnasium
140 Gymnastik
92 Gymnastikforening
223 Gård
45 Gåsefod
53 Göran
58 Gösta
776 Göteborg
123 Göteborgs
30 Gødstrup
29 Gøgeurt
34 Gønge
31 Gørding
45 Gørlev
41 Gørløse
54 Gøs
30 Günter
182 Günther
71 HA
42 HAL
244 HD
40 HDTV
249 HF
34 HF-kursus
90 HG
46 HH
30 HHX
67 HIK
87 HIV
585 HK
80 HP
101 HTML
39 HTX
43 Ha
39 Haagen
127 Haakon
37 Haarby
38 Habsburgske
123 Hack
55 Had
1221 Haderslev
33 Haderup
120 Hades
74 Hadrian
41 Hadrians
64 Hads
234 Hadsten
606 Hadsund
26 Hadsunds
28 Hagbard
170 Hage
263 Hagen
29 Hagens
194 Hagerup
35 Hai
40 Haider
116 Haifa
316 Haiti
40 Haitis
25 Hak
110 Hakon
174 Hal
280 Hald
26 Haldor
61 Hale
99 Halen
68 Halfdan
49 Halkær
1515 Hall
300 Halland
52 Hallands
359 Halle
236 Hallen
50 Haller
34 Halling
32 Hallo
83 Halls
123 Halmstad
35 Halmstads
34 Halmtorvet
34 Halo
209 Hals
73 Halsnæs
63 Halsted
52 Halvdan
156 Halvø
275 Ham
1087 Hamborg
28 Hamborg-Bremen
77 Hamborgs
204 Hamburger
29 Hamid
338 Hamilton
26 Hamiltons
153 Hamlet
30 Hamlets
168 Hammel
33 Hammelev
343 Hammer
78 Hammershus
84 Hammerum
273 Hampshire
30 Han-dynastiet
103 Hand
118 Handel
127 Handels
35 Handelsbank
50 Handelsbanken
27 Handelshøjskole
180 Handelshøjskolen
25 Handelskompagni
67 Handelsretten
113 Handelsskole
30 Handling
28 Hang
142 Hank
28 Hanke
106 Hanks
92 Hanna
208 Hannah
311 Hanne
48 Hannes
268 Hannibal
813 Hannover
26 Hannovers
72 Hanoi
5443 Hans
48 Hansa
4551 Hansen
349 Hansens
65 Hansestæderne
62 Hansine
39 Hansted
167 Hanstholm
1505 Harald
67 Haralds
27 Haraldskær
27 Haraldsted
60 Harboøre
74 Hardcore
37 Harding
130 Hardy
41 Hare
28 Hareskov
25 Hareskovbanen
33 Hari
78 Harley
29 Harms
341 Harold
98 Harper
88 Harpers
35 Harre
99 Harriet
372 Harris
35 Harrisburg
2499 Harry
177 Harrys
26 Harte
73 Hartford
53 Hartley
274 Hartmann
26 Hartmanns
164 Hartvig
51 Hartwig
212 Harvey
95 Harzen
41 Has
48 Hasan
25 Hasbro
25 Hashim
220 Hasle
172 Haslev
46 Haslund
121 Hassan
58 Hasse
100 Hassel
59 Hasseris
146 Hassing
164 Hastings
87 Hastrup
92 Hat
32 Hatten
63 Hatting
58 Hauge
30 Haurum
72 Haus
25 Hausser
775 Hav
81 Havana
40 Havanna
28 Havdrup
685 Have
231 Haven
45 Havens
25 Haves
34 Haveselskab
72 Havet
70 Havfrue
29 Havfruen
670 Havn
26 Havnbjerg
31 Havne
40 Havnegade
28 Havnen
99 Havre
508 Hawaii
61 Hawaiis
27 Hazel
217 He
333 Head
27 Heard
137 Heat
89 Heather
207 Heavy
27 Hebe
84 Hebraisk
123 Hector
26 Hedda
100 Heddinge
344 Hede
162 Hedeby
229 Hedegaard
83 Hedehusene
44 Hedelyng
25 Hedemarken
35 Heden
224 Hedensted
63 Hedeselskabet
228 Hedevig
120 Hedvig
38 Hedwig
42 Hee
86 Hegn
190 Heide
109 Heidi
30 Heil
62 Heimdal
112 Hein
80 Heine
1469 Heinrich
179 Heinz
56 Heise
54 Hej
47 Hekla
48 Heksene
83 Hel
47 Held
189 Helen
284 Helena
347 Helene
123 Helga
341 Helge
52 Helgenæs
138 Helgoland
97 Helistop
51 Hella
98 Hellas
440 Helle
79 Hellebæk
35 Heller
735 Hellerup
30 Hellevad
75 Hellig
437 Hellige
47 Helliges
117 Helligånden
35 Helligåndens
81 Hello
50 Hellum
32 Helm
84 Helmer
131 Helmut
152 Helmuth
479 Helsingborg
65 Helsingborgs
180 Helsinge
1565 Helsingør
45 Helsingørmotorvejen
67 Helsingørs
634 Helsinki
66 Helsted
140 Helt
29 Helte
91 Helvede
62 Helvig
26 Hem
31 Hemmelige
33 Hemmelighed
107 Hemmelighedernes
30 Hemmet
48 Hemming
27 Hemmings
78 Hemmingsen
35 Hen
121 Hendes
141 Hendrik
48 Henne
25 Hennie
845 Henning
38 Henning-Jensen
62 Hennings
258 Henningsen
43 Henningsens
35 Henny
467 Henri
101 Henrich
30 Henrietta
549 Henriette
4071 Henrik
138 Henriks
349 Henriksen
1891 Henry
36 Henryk
44 Henrys
69 Henseende
73 Hensyn
307 Her
61 Hera
28 Heras
436 Herbert
91 Hercegovina
38 Herculaneum
113 Hercules
82 Herder
207 Herfølge
344 Herlev
136 Herluf
33 Herlufmagle
870 Herman
613 Hermann
81 Hermansen
95 Hermes
1228 Herning
116 Hero
101 Herodes
106 Heroes
445 Herre
4711 Herred
174 Herreder
29 Herreders
64 Herreds
29 Herregård
181 Herren
97 Herrens
32 Herritslev
29 Herskind
27 Herslev
55 Herstedvester
36 Herstedøster
100 Hertha
232 Hertug
161 Hertugdømmerne
30 Hertugdømmernes
321 Hertugdømmet
93 Hertugen
227 Hertz
33 Herzegovina
112 Hess
28 Hessel
59 Hesselager
604 Hessen
38 Hessens
135 Hest
30 Heste
46 Hestgarden
29 Hg
49 Hickory
34 Hids
108 Hieronymus
36 Highlanders
37 Hilbert
81 Hilda
28 Hilde
43 Hildebrand
31 Hildegard
30 Hilleborg
43 Hillerslev
821 Hillerød
25 Hillerødsholm
67 Hilmar
149 Himalaya
65 Himlen
48 Himmel
42 Himmelbjerget
27 Himmelen
33 Himmelev
58 Himmelske
37 Hina
61 Hind
32 Hindborg
31 Hindu
35 Hine
28 Hines
58 Hinnerup
76 Hinrich
84 Hip
29 Hip-Hop
188 Hirtshals
136 His
985 Historie
85 Historien
43 Historier
185 Historisk
115 Historiske
122 Hit
1990 Hitler
68 Hitlerjugend
664 Hitlers
238 Hits
45 Hjallerup
63 Hjallese
191 Hjalmar
25 Hjalte
68 Hjarbæk
73 Hjejle
59 Hjelm
112 Hjem
37 Hjemkomst
25 Hjemkomsten
61 Hjemme
31 Hjemmeside
55 Hjemmestyre
71 Hjemmet
83 Hjemmeværnet
28 Hjemmeværnets
25 Hjemvendte
28 Hjerl
74 Hjerm
65 Hjerte
30 Hjertegræs
37 Hjerter
45 Hjerting
196 Hjort
83 Hjorth
35 Hjortholm
109 Hjortshøj
32 Hjortø
89 Hjælp
1084 Hjørring
175 Ho
440 Hobro
222 Hockey
289 Hof
27 Hoffet
182 Hoffmann
26 Hoffmanns
66 Hofman
43 Hofretten
37 Hofteatret
27 Hol
1134 Holbæk
49 Holbækmotorvejen
166 Hold
118 Holden
36 Holder
324 Holding
77 Holdings
82 Holdt
91 Hole
77 Holeby
1055 Holger
49 Holger-Madsen
3275 Holland
247 Hollands
106 Hollandsk
52 Hollandske
52 Hollies
26 Holluf
142 Holly
1180 Hollywood
30 Hollywood-film
77 Hollywoods
27 Hollænder
937 Holm
98 Holme
75 Holmegaard
266 Holmen
622 Holmens
279 Holmes
93 Holms
35 Holmsland
48 Holmstrup
162 Holocaust
287 Holst
859 Holstebro
73 Holsted
1447 Holsten
58 Holstens
65 Holstenske
83 Holt
231 Holte
144 Holten
481 Homer
125 Homers
115 Honduras
68 Honey
407 Hong
227 Hongkong
76 Honolulu
42 Hook
182 Hooker
106 Hop
222 Hope
85 Hoppe
72 Hopper
40 Horats
83 Horde
31 Horden
322 Horn
132 Hornbæk
167 Horne
108 Hornet
28 Hornets
157 Horns
96 Hornum
1827 Horsens
28 Horserød
52 Horses
78 Horst
892 Hospital
39 Hospitals
60 Hostrup
732 Hot
1192 Hotel
48 Hotellet
25 Hotelliv
52 Hotels
47 Hother
121 Hou
31 Hougaard
40 Houlbjerg
97 Hov
69 Hove
89 Hoved
147 Hovedbanegård
76 Hovedbanegården
100 Hovedgade
237 Hovedgård
547 Hovedstaden
157 Hovedstadens
82 Hovedstadsområdet
39 Hovedstadsregionen
45 Hovedvej
48 Hovedværk
537 Howard
39 Howards
28 Hrafn
44 Hu
116 Hubert
290 Hudson
246 Hugh
581 Hugo
33 Hugos
31 Huk
362 Hulk
25 Hulkravet
308 Human
68 Humanistiske
47 Humble
168 Humlebæk
29 Humlebøg
26 Humlum
79 Humphrey
220 Hun
70 Hund
46 Hundborg
88 Hundested
49 Hundige
28 Hundred
38 Hundslund
64 Hunger
32 Hunting
39 Hurtigruten
63 Hurup
1230 Hus
70 Husby
95 Huse
514 Huset
57 Husets
189 Hussein
81 Husseins
60 Huston
180 Hustru
56 Hustrus
373 Husum
199 Hvad
34 Hvalpsund
67 Hvalsø
132 Hvam
28 Hvas
40 Hvedekorn
155 Hvem
37 Hverringe
41 Hverv
418 Hvid
58 Hvidbjerg
641 Hvide
65 Hvidehavet
524 Hviderusland
32 Hvideruslands
25 Hvideslægten
32 Hviding
57 Hvidkilde
587 Hvidovre
68 Hvidt
61 Hvidtjørn
29 Hvile
218 Hvis
42 Hvordan
41 Hvorfor
36 Hvorslev
47 Hybrid
35 Hydra
27 Hygum
25 Hyllested
32 Hyllinge
37 Hyperion
51 Hytten
161 Hz
75 Håb
249 Håkon
39 Hånd
40 Håndbog
550 Håndbold
71 Håndboldklub
150 Håndboldligaen
43 Håndværk
87 Håret
48 Hårfager
29 Hårfagers
39 Hårlev
43 Hæderspris
63 Hæderstegn
49 Hæderstegnet
50 Hæg
629 Hær
414 Hæren
436 Hærens
59 Hærloven
125 Hærs
86 Hærvejen
41 Hæstrup
60 Høg
65 Høgsbro
111 Høj
31 Højben
56 Højbjerg
49 Højbro
79 Højby
40 Højde
247 Høje
82 Høje-Taastrup
38 Højen
128 Højer
37 Højere
26 Højerup
32 Højeste
701 Højesteret
39 Højesterets
25 Højesteretsassessor
140 Højhed
390 Højre
94 Højres
40 Højrup
25 Højsangen
845 Højskole
50 Højskolen
26 Højskoles
25 Højskolesangbogen
32 Højslev
63 Høng
26 Hønsebær
135 Hør
63 Hørby
25 Hørdum
52 Hørning
422 Hørsholm
102 Hørup
137 Høst
32 Høvelte
117 I-II
44 IA
42 IB
266 IBM
68 ID
4048 II
76 IL
33 IN
36 IR
169 IRA
88 IS
238 ISO
236 IT
26 ITU
25 Iagttagelser
34 Iain
498 Ian
371 Ib
101 Iben
121 Iberiske
108 Ibrahim
207 Ibsen
75 Ibsens
453 Ida
161 Idaho
61 Ide
27 Ideer
138 Idol
28 Idols
48 Idris
74 Idræt
152 Idræts
138 Idræts-Forbund
55 Idrætsanlæg
47 Idrætscenter
35 Idrætsefterskole
42 Idrætsforbund
387 Idrætsforening
27 Idrætsforeningen
42 Idrætsforeninger
27 Idrætshuset
32 Idrætshøjskole
49 Idrætsklub
222 Idrætspark
106 Idrætsparken
28 Idrættens
44 Idun
25 Idé
85 Ifølge
46 Iggy
49 Ignatius
152 Igor
234 Ikast
96 Ikast-Brande
56 Ike
194 Il
33 Ild
34 Ilder
34 Ilja
29 Iller
619 Illinois
42 Illum
35 Illusion
136 Illustreret
44 Illyrien
26 Ilse
410 Image
79 Imam
145 Immanuel
118 Imperial
45 Imperiet
117 Imperium
36 Imre
1223 In
36 Indenfor
65 Indenrigs
169 Indenrigsministeriet
34 Indenrigsministeriets
25 Inderpartiet
211 Index
127 Indflydelse
26 Indførelse
32 Indhold
154 India
413 Indiana
131 Indianapolis
39 Indianerterritoriet
2288 Indien
212 Indiens
36 Indigo
562 Indiske
28 Indledning
418 Indonesien
32 Indonesiens
765 Indre
26 Indretning
27 Indsigt
33 Indtryk
27 Indus
312 Industri
108 Industrial
62 Industriens
180 Industries
99 Industriforeningen
55 Industriforeningens
52 Industrirådet
265 Infanteriregiment
47 Inferno
79 Infinite
542 Information
58 Informations
50 Inga
211 Inge
473 Ingeborg
104 Ingemann
50 Ingemar
118 Ingen
48 Ingeniøren
31 Ingeniørforening
28 Ingeniørforeningen
31 Ingeniørhøjskolen
140 Ingeniørkorpset
30 Ingeniørkorpsets
28 Ingeniørtropperne
302 Inger
55 Ingerslev
44 Ingmar
86 Ingolf
279 Ingrid
40 Ingrids
51 Ingvar
78 Innovation
169 Innsbruck
32 Ino
1362 Institut
75 Institution
28 Instituts
156 Instituttet
53 Instruktør
32 Instrumental
46 Instruments
41 Integration
33 Integrationsministeriet
125 Intel
87 Interesse
36 Interesser
32 Interface
2576 International
1815 Internationale
25 Internationals
44 Internationalt
315 Internet
237 Internettet
28 Intet
82 Inuit
49 Invasion
67 Io
49 Ion
26 Iona
49 Ioniske
296 Iowa
32 Ira
983 Irak
32 Irak-krigen
84 Iraks
896 Iran
105 Irans
163 Irene
141 Iris
2092 Irland
267 Irlands
97 Irma
27 Ironi
29 Ironman
181 Irsk
136 Irske
91 Irving
721 Is
25 Isa
252 Isaac
117 Isabel
248 Isabella
38 Isabelle
120 Isak
25 Isaksen
114 Isar
31 Iselin
25 Isfjord
40 Isfjorden
396 Ishav
457 Ishavet
208 Ishockey
156 Ishøj
43 Isidor
73 Isis
75 Isla
247 Islam
25 Islamabad
57 Islamisk
47 Islamiske
46 Islams
3441 Island
846 Islands
38 Islandsk
37 Islandske
228 Isle
27 Isles
25 Islev
29 Ismael
55 Ismail
183 Isolde
2012 Israel
540 Israels
280 Istanbul
46 Istedgade
894 It
189 Italia
6243 Italien
423 Italiens
184 Italiensk
90 Italienske
38 Ito
524 Ivan
281 Ivar
312 Iver
257 Iversen
28 Ivo
34 Ivy
27 JEM
172 JPG
78 Ja
1833 Jack
201 Jackie
114 Jacks
1492 Jackson
403 Jacksons
38 Jaco
2241 Jacob
98 Jacobine
103 Jacobs
1042 Jacobsen
153 Jacobsens
37 Jacopo
72 Jacqueline
414 Jacques
55 Jade
29 Jafar
25 Jag
63 Jagten
202 Jagtvej
62 Jaguar
71 Jaguars
33 Jahn
55 Jahve
45 Jaime
43 Jakarta
193 Jake
1162 Jakob
114 Jakobs
231 Jakobsen
197 Jam
278 Jamaica
30 Jamaicas
25 Jamal
3419 James
246 Jamie
162 Jammerbugt
1663 Jan
663 Jane
28 Janes
89 Janet
27 Janice
67 Janis
70 Janne
61 Jannik
91 Januar
156 Janus
28 Janusz
3895 Japan
538 Japans
278 Japansk
84 Japanske
29 Jar
39 Jared
264 Jarl
33 Jarls
44 Jarvis
449 Jason
65 Jasper
245 Java
76 Javier
331 Jay
81 Jay-Z
25 Jaya
364 Jazz
30 Jazzband
43 Jazzhus
1039 Jean
53 Jean-Claude
76 Jean-Jacques
25 Jean-Louis
40 Jean-Luc
30 Jean-Marc
73 Jean-Paul
57 Jean-Pierre
54 Jeanette
147 Jeanne
31 Jeans
39 Jeep
488 Jeff
327 Jefferson
32 Jeffersons
101 Jeffrey
636 Jeg
43 Jehova
189 Jehovas
50 Jelena
254 Jelling
38 Jels
256 Jena
77 Jenna
40 Jennie
251 Jennifer
77 Jennings
178 Jenny
3096 Jens
28 Jensby
3928 Jensen
218 Jensens
52 Jensine
49 Jep
293 Jeppe
111 Jeppesen
142 Jepsen
31 Jeremiah
47 Jeremias
152 Jeremy
31 Jerevan
36 Jern
435 Jernbane
83 Jernbanegade
34 Jernbanen
85 Jernbaner
47 Jernbaneselskab
36 Jerne
44 Jernkorset
30 Jernkorsets
35 Jernløse
47 Jernstøberi
28 Jernved
68 Jernværk
65 Jerome
361 Jerry
866 Jersey
27 Jerseys
42 Jersild
28 Jerslev
32 Jerup
994 Jerusalem
99 Jerusalems
50 Jerzy
110 Jes
959 Jesper
237 Jespersen
35 Jespersens
104 Jess
174 Jesse
304 Jessen
26 Jessens
181 Jessica
47 Jessie
964 Jesu
1838 Jesus
116 Jet
104 Jets
38 Jetta
64 Jette
28 Jewel
44 Jihad
64 Jill
805 Jim
121 Jimi
25 Jimmi
631 Jimmy
208 Jin
39 Jinan
34 Jive
110 Jo
820 Joachim
524 Joakim
210 Joan
45 Joanna
80 Job
97 Jobs
27 Jodie
35 Jodl
961 Joe
167 Joel
230 Joey
92 Joh
3517 Johan
1465 Johann
104 Johanna
801 Johanne
2541 Johannes
60 Johannesen
84 Johannesevangeliet
71 Johannsen
66 Johans
609 Johansen
282 Johansson
7529 John
864 Johnny
130 Johns
86 Johnsen
281 Johnston
64 Johnstons
52 Johs
144 Joint
38 Joker
67 Jokeren
41 Jolie
308 Jomfru
34 Jomfruen
27 Jomfruens
44 Jomfrukloster
67 Jomfruøer
567 Jon
32 Jonah
686 Jonas
49 Jonatan
366 Jonathan
1278 Jones
51 Jonny
74 Jonstrup
101 Jord
537 Jordan
52 Jordanes
28 Jordans
165 Jordebog
1830 Jorden
841 Jordens
51 Jordin
44 Jordskælvet
135 Jorge
105 Jorn
139 Jose
672 Josef
64 Josefine
56 Josefs
1971 Joseph
29 Josepha
149 Josephine
39 Josephs
171 Josh
130 Joshua
32 Josiah
33 Josias
433 José
361 Journal
35 Journalistforbund
270 Journalisthøjskole
31 Journalistik
120 Joy
97 Joyce
25 Jozef
510 Juan
391 Judas
95 Judith
28 Judo
78 Judy
74 Judæa
642 Juel
38 Juellinge
82 Juels
91 Juelsminde
32 Jugend
893 Jugoslavien
60 Jugoslaviens
31 Jugoslaviske
89 Juhl
29 Juice
231 Jul
51 Julemanden
271 Jules
119 Juli
325 Julia
270 Julian
48 Juliana
332 Juliane
39 Julianehåb
27 Julians
639 Julie
38 Julien
166 Juliet
80 Juliette
34 Julio
1092 Julius
27 Julsø
26 Jumbo
75 Jump
66 Jun
81 June
115 Jung
87 Junge
108 Jungle
32 Jungshoved
114 Juni
352 Junior
46 Junior-VM
118 Juniors
33 Junker
80 Junkers
389 Jupiter
45 Jupiter-måner
167 Jupiters
107 Jura
39 Jurabjergene
60 Juridisk
38 Juridiske
102 Jurij
29 Juris
32 Jurist
28 Jury
36 Jussi
372 Just
193 Justice
220 Justin
53 Justine
214 Justitsministeriet
49 Justitsministeriets
70 Justus
39 Jutta
328 Juul
94 Jyderup
1673 Jylland
223 Jyllands
309 Jyllands-Posten
65 Jyllands-Postens
48 Jyllandsposten
65 Jyllandsserien
43 Jyllinge
81 Jysk
452 Jyske
35 Jystrup
117 Jytte
39 Jákup
53 Jæger
42 Jægerkorps
47 Jægerkorpset
205 Jægersborg
134 Jægerspris
27 Jérôme
25 Jóhanna
67 Jón
99 Jönköping
80 Jönköpings
62 Jörg
32 Jøde
31 Jøden
28 Jøderne
51 Jødiske
37 Jønsson
2611 Jørgen
124 Jørgens
1684 Jørgensen
112 Jørgensens
38 Jørlunde
279 Jørn
143 Jürgen
350 KB
25 KB-Hallen
42 KDE
52 KG
147 KIF
29 KISS
69 KO
25 KODA
88 KV
69 Kaare
27 Kabel
110 Kabul
37 Kaffe
320 Kai
72 Kain
166 Kairo
349 Kaj
39 Kald
55 Kaledonien
26 Kalkbrud
25 Kalkbrænderi
45 Kalle
334 Kalmar
625 Kalundborg
33 Kalv
107 Kalvebod
65 Kalvehave
36 Kalvslund
124 Kalø
48 Kam
33 Kambrium
31 Kamilla
51 Kamma
142 Kammer
42 Kammerat
179 Kamp
35 Kampagnen
68 Kampe
172 Kampen
664 Kanal
76 Kanalen
36 Kanalflåden
132 Kanariske
330 Kancelli
83 Kancelliet
215 Kane
43 Kano
460 Kansas
27 Kansler
244 Kant
32 Kantet
118 Kanton
74 Kants
43 Kaos
572 Kap
265 Kapel
77 Kapitel
122 Kapkolonien
27 Kaplan
117 Kappel
58 Kapstaden
156 Kaptajn
77 Kara
76 Karakter
76 Karate
37 Kardinal
107 Karel
103 Karelske
1148 Karen
42 Kari
35 Karim
195 Karin
56 Karina
41 Karise
3835 Karl
61 Karla
42 Karlebo
26 Karleby
121 Karls
41 Karlsen
33 Karlslunde
75 Karlstad
55 Karma
30 Karmark
36 Karneval
58 Karol
79 Karoline
31 Karrebæk
34 Karrebæksminde
209 Karsten
245 Karup
277 Kasakhstan
256 Kaserne
147 Kashmir
43 Kasimir
68 Kaspar
326 Kasper
146 Kaspiske
30 Kasse
31 Kastanje
194 Kastellet
367 Kastrup
88 Kat
28 Katara
130 Katarina
591 Kate
36 Katedral
534 Katedralskole
54 Kategori
53 Katekismus
283 Katharina
36 Katharinas
55 Katharine
106 Katherine
70 Kathleen
42 Katholm
75 Kathrine
29 Kathryn
48 Kathy
71 Katie
32 Katja
26 Katla
35 Kato
25 Katolsk
93 Katolske
63 Katrina
147 Katrine
28 Katrinebjerg
429 Kattegat
36 Kattrup
74 Katy
41 Kawasaki
180 Kay
42 Kaya
33 Kazimierz
86 Kbh
28 Keegan
45 Kegnæs
603 Keith
196 Kejser
44 Kejserens
28 Kejserinde
74 Kejserlige
216 Kejserrige
79 Kejserriget
124 Keld
37 Keldby
540 Kelly
31 Kellys
76 Kelvin
63 Kemal
109 Kemi
52 Kemisk
254 Ken
28 Kender
26 Kendskab
26 Kenn
37 Kennel
406 Kenneth
215 Kenny
448 Kent
38 Kenton
422 Kentucky
378 Kenya
47 Kenyas
29 Keren
57 Keres
37 Kern
147 Kerry
326 Kerteminde
68 Kettinge
613 Kevin
46 Keyboard
77 Khader
39 Khaled
56 Khalid
385 Khan
47 Khans
80 Khartoum
33 Khmer
71 Khmerer
112 Kia
39 Kick
240 Kid
70 Kidman
205 Kids
1103 Kiel
32 Kiels
32 Kielstrup
32 Kiki
89 Kilde
36 Kilden
55 Kilder
57 Killing
1220 Kim
27 Kimberley
54 Kimberly
4442 Kina
665 Kinas
81 Kind
115 Kinesisk
70 Kinesiske
1533 King
297 Kings
117 Kingston
29 Kino
30 Kinshasa
47 Kira
81 Kirgisistan
34 Kiribati
8945 Kirke
125 Kirkeby
131 Kirkedistrikt
93 Kirkegaard
2448 Kirkegård
25 Kirkehistorie
27 Kirkeligt
40 Kirkeministeriet
234 Kirken
95 Kirkens
95 Kirker
29 Kirkernes
32 Kirkerup
229 Kirkes
51 Kirkestaten
28 Kirketerp
25 Kirketidende
36 Kirsebær-Kornel
25 Kirsebærhaven
597 Kirsten
426 Kirstine
25 Kirurgisk
27 Kirurgiske
176 Kiss
60 Kit
46 Kitts
74 Kitty
284 Kjeld
39 Kjelds
75 Kjeldsen
94 Kjell
189 Kjellerup
416 Kjær
68 Kjærgaard
28 Klak
174 Klampenborg
69 Klan
38 Klara
28 Klasse
39 Klassisk
29 Klatre-Vildvin
487 Klaus
26 Klavs
32 Klemens
117 Kleopatra
32 Kleopatras
45 Klim
43 Klima
25 Kline
33 Klinisk
331 Klint
49 Klintholm
36 Kliplev
59 Klipping
84 Klit
58 Klitmøller
104 Klitplantage
75 Klokke
34 Klondike
1005 Kloster
26 Klosteret
63 Klosterkirke
26 Klosterkirken
56 Klosters
100 Klovn
25 Klovner
554 Klub
70 Klubben
26 Klump
69 Klædefabrik
98 Kløvedal
58 Kløver
55 Kløvermarken
26 Kløvermarkens
57 Knabstrup
31 Knebel
82 Knesset
32 Knob
55 Knoldet
47 Knopurt
1829 Knud
26 Knude
161 Knuds
830 Knudsen
86 Knudsens
40 Knudshoved
33 Knudstrup
189 Knut
55 Ko
53 Kobberstiksamling
52 Kobberstiksamlingen
31 Kobjælde
465 Koch
57 Kochs
28 Koda
66 Kodriver
33 Kofi
91 Kofoed
48 Kog
28 Kogsbølle
96 Kokkedal
32 Koks
71 Kold
83 Kolde
1735 Kolding
170 Koldinghus
36 Koldings
41 Kolind
130 Kollegiet
200 Kollegium
32 Kollerup
37 Kollund
29 Kolstrup
57 Komedie
68 Komintern
28 Kominterns
65 Komite
60 Komiteen
163 Komité
147 Kommando
978 Kommandør
88 Kommandørkorset
105 Kommission
202 Kommissionen
145 Kommunalbestyrelse
65 Kommunale
2986 Kommunalreformen
13256 Kommune
44 Kommunehospital
68 Kommunehospitalet
37 Kommunen
112 Kommuner
85 Kommunernes
422 Kommunes
82 Kommunikation
80 Kommunistisk
268 Kommunistiske
29 Kommunistparti
41 Kommunitetet
382 Kompagni
41 Kompagnis
36 Kompas
26 Komposition
62 Koncert
74 Koncertsal
30 Kone
34 Konferencier
145 Konføderationen
79 Konføderationens
1909 Kong
538 Konge
53 Kongedømmet
64 Kongehuset
92 Kongelig
2876 Kongelige
41 Kongeloven
28 Kongelunden
31 Kongelys
383 Kongen
916 Kongens
32 Konger
180 Kongerige
598 Kongeriget
74 Kongernes
48 Kongers
37 Kongerslev
74 Kongevej
73 Kongevejen
88 Kongeåen
168 Kongres
321 Kongressen
40 Kongressens
30 Kongsdal
26 Kongsted
25 Konkurrencen
242 Konrad
94 Konservativ
750 Konservative
33 Konservatoriet
55 Konservatorium
36 Konsistorium
409 Konstantin
569 Konstantinopel
33 Konstantinopels
55 Konstantins
29 Konstruktionskommissionen
44 Kontor
26 Kontoret
41 Konval
25 Konventionen
98 Konversationsleksikon
30 Kooperative
60 Kopernikus
81 Kor
45 Koralhavet
217 Koranen
525 Korea
50 Koreas
113 Korinth
67 Korn
39 Kornel
79 Kornerup
588 Korps
34 Korridorer
429 Kors
48 Korsbæk
29 Korset
40 Korsfæstelsen
367 Korsør
164 Kort
45 Kos
347 Kosovo
46 Kosovos
73 Kostskole
345 Krabbe
208 Kraft
49 Kraften
291 Krag
31 Kragelund
44 Kragerup
86 Kragh
35 Kragh-Jacobsen
247 Kraks
248 Krarup
50 Krat
50 Krav
93 Krebs
46 Kreditforening
39 Kreditforeningen
77 Kreds
25 Kredse
25 Kredsen
175 Kreis
35 Kresten
37 Kridt
685 Krig
174 Krigen
42 Krigs
129 Krigsministeriet
28 Krigsministeriets
27 Kriminalforsorgen
52 Kris
73 Kristelig
177 Kristeligt
181 Kristen
52 Kristendom
50 Kristendommen
623 Kristensen
32 Kristensens
694 Kristian
297 Kristiansand
154 Kristiansen
84 Kristin
144 Kristina
28 Kristinas
116 Kristine
63 Kristne
145 Kristoffer
25 Kristrup
40 Kristtorn
771 Kristus
140 Kritik
43 Kritisk
33 Kritiske
268 Kro
583 Kroatien
81 Kroatiens
112 Krog
36 Krogen
73 Krogerup
387 Krogh
412 Kronborg
65 Krone
126 Kronen
58 Kronens
26 Kronologiske
36 Kronor
194 Kronprins
59 Kronprinsens
111 Kronprinsesse
26 Krum
38 Krummedige
26 Krummerne
148 Kruse
44 Kruså
57 Krybende
26 Krystalgade
42 Kræ
54 Kræftens
66 Kræfter
45 Krønike
58 Krøniken
38 Krøsus
31 Kuala
40 Kul
61 Kullen
31 Kultorvet
284 Kultur
30 Kulturby
26 Kulturcenter
39 Kulturfond
43 Kulturhus
34 Kulturhuset
67 Kulturkanonen
133 Kulturministeriet
77 Kulturministeriets
40 Kulturpris
28 Kulturrevolutionen
41 Kultusministeriet
25 Kundby
34 Kundskab
28 Kundskaber
692 Kunst
266 Kunstakademi
1052 Kunstakademiet
568 Kunstakademiets
37 Kunstakademis
25 Kunstauktioner
45 Kunsten
40 Kunster
194 Kunstfond
142 Kunstfonds
50 Kunstforening
111 Kunstforeningen
28 Kunsthistorie
28 Kunsthåndværk
45 Kunsthåndværkerskolen
73 Kunstindustrimuseet
26 Kunstindustrimuseum
55 Kunstmuseet
334 Kunstmuseum
44 Kunstner
49 Kunstnere
39 Kunstneres
38 Kunstnerforeningen
35 Kunstnerleksikon
150 Kunstnernes
29 Kunstråd
26 Kunstskole
61 Kunstudstilling
29 Kure
35 Kurfyrstedømmet
256 Kurland
47 Kursus
773 Kurt
188 Kuwait
26 Kvalifikation
30 Kvalkved
26 Kvanløse
92 Kvarter
34 Kvik
87 Kvinde
71 Kvindelige
33 Kvinden
140 Kvinder
93 Kvindernes
47 Kvinders
59 Kvindesamfund
48 Kvist
25 Kværkeby
43 Kværndrup
92 Kyle
59 Kylling
48 Kyst
141 Kystbanen
25 Kyster
59 Kåre
109 Kær
35 Kære
26 Kærgård
151 Kærlighed
31 Kærlighedens
28 Kærsgård
29 Kæruld
23883 København
9237 Københavns
62 Københavnske
30 Købmanden
27 Købmandsskole
1155 Køge
79 Køkken
69 Køln
46 Køng
66 LA
67 LAN
72 LEGO
33 LEO
26 LIVE
173 LO
349 LP
57 LP-plade
41 LS
86 LSD
76 LT
2563 La
68 Lab
56 Laban
38 Label
111 Laboratorium
71 Labrador
54 Labs
72 Lad
38 Lade
64 Ladegård
145 Laden
43 Ladeplads
64 Ladies
540 Lady
33 Lage
84 Lago
75 Lagos
28 Lagting
178 Lagtinget
36 Laila
894 Lake
40 Lakes
46 Lam
160 Lama
93 Lambert
34 Lammefjorden
42 Lan
32 Lana
149 Lance
45 Lancer
27 Lancet-Vejbred
1169 Land
52 Landboforening
48 Landboforeninger
81 Landbohøjskole
119 Landbohøjskolen
275 Landbrug
36 Landbrugets
63 Landbrugs
78 Landbrugsskole
33 Landdagen
94 Lande
34 Landes
172 Landet
65 Landets
90 Landevej
138 Landing
46 Lands
47 Landsarkivet
28 Landsbank
82 Landsby
46 Landsbyen
30 Landsdelskommando
56 Landsforbund
72 Landsforening
156 Landsforeningen
43 Landskab
52 Landskrone
48 Landsorganisation
27 Landsover
32 Landsoverret
26 Landsoverretten
141 Landspokalturnering
39 Landspokalturneringen
279 Landsret
40 Landsretten
27 Landsråd
42 Landsstyre
175 Landsting
627 Landstinget
103 Landstingets
42 Landstingsmand
53 Landsudstillingen
284 Lane
171 Lang
62 Langballe
620 Lange
28 Langebæk
88 Langelinie
34 Langen
47 Langenæs
47 Langer
93 Langes
26 Langeskov
28 Langesø
31 Langgade
26 Langholt
45 Langstrømpe
62 Langsø
70 Langt
122 Langå
236 Lanka
29 Lankas
28 Lansing
120 Laos
91 Lapland
218 Lara
38 Laras
43 Large
34 Largo
28 Larissa
299 Larry
2189 Lars
26 Lars-Henrik
2164 Larsen
163 Larsens
529 Las
61 Laser
117 Lasker
27 Lass
348 Lasse
389 Lassen
31 Lassens
435 Last
239 Latin
233 Latinamerika
116 Latinskole
31 Latinskolen
131 Lau
32 Lauge
392 Laura
28 Laurbjerg
59 Laurbær
102 Lauren
93 Laurence
33 Laurens
96 Laurent
86 Laurentius
263 Laurids
170 Lauridsen
176 Laurits
57 Lauritsen
319 Lauritz
254 Lauritzen
204 Laursen
35 Laust
62 Lav
30 Lava
89 Lavard
47 Lave
380 Law
305 Lawrence
52 Laws
38 Lazarus
1383 Le
112 Lea
30 Lean
59 Leander
69 Learning
91 Leben
163 Led
32 Leda
56 Ledelse
56 Leder
30 Ledøje-Smørum
1860 Lee
249 Leeds
36 Leer
320 Lees
41 Legal
407 Legat
28 Legater
264 Lege
96 Legion
56 Lego
27 Legoland
88 Legolas
43 Lei
40 Leia
399 Leif
99 Leigh
31 Leila
52 Lejlighed
303 Lejre
146 Leksikon
28 Lektor
34 Lellinge
85 Lem
31 Lemming
47 Lemmy
26 Lemon
349 Lemvig
465 Len
168 Lena
291 Lene
104 Lennart
275 Lennon
40 Lennons
47 Lennox
84 Lenny
69 Lens
562 Leo
245 Leon
28 Leona
277 Leonard
227 Leonardo
205 Leone
37 Leones
68 Leonhard
123 Leonora
64 Leopard
592 Leopold
38 Leopolds
28 Lerby
34 Lerbæk
52 Leroy
37 Lersø
644 Les
26 Lesbiske
34 Lesley
194 Leslie
40 Lesotho
83 Lester
258 Let
26 Letbane
27 Letgallen
1455 Letland
588 Letlands
42 Letter
57 Letters
191 Lettiske
46 Lettres
98 Lev
49 Levanten
36 Leven
46 Levende
109 Levi
183 Levin
42 Levned
27 Levring
74 Levy
605 Lewis
158 Lex
180 Li
153 Liam
416 Libanon
29 Libanons
256 Liberal
78 Liberale
29 Liberalt
103 Liberation
88 Liberia
542 Libyen
74 Libyens
135 Liden
198 Lie
266 Liechtenstein
30 Liechtensteins
43 Lied
50 Lieder
57 Lier
63 Lies
37 Lig
723 Liga
57 Liga-klub
55 Liga-klubben
150 Ligaen
68 Lige
459 Light
32 Liguster
27 Ligustervænget
25 Lihme
49 Lil
36 Lild
142 Lilholt
50 Lili
45 Lilian
85 Lilla
1169 Lille
355 Lilleasien
226 Lillebælt
38 Lillebæltsbroen
53 Lillelund
26 Lillemor
44 Lillerød
44 Lillestrøm
70 Lillian
99 Lilly
165 Lily
133 Lima
75 Limerick
29 Limes
518 Limfjorden
32 Limfjordens
38 Limit
70 Limousine
72 Lin
61 Lina
764 Lincoln
95 Lincolns
281 Lind
278 Linda
130 Linde
81 Linden
60 Lindenborg
25 Lindersvold
43 Lindesnes
134 Lindhardt
219 Lindholm
110 Lindsay
31 Lindø
1018 Line
32 Linear
187 Lines
56 Ling
50 Linge
43 Linje
165 Link
38 Linke
102 Linkin
75 Links
100 Linköping
28 Linköpings
25 Lintrup
77 Linus
359 Linux
30 Linå
128 Lionel
141 Lis
417 Lisa
87 Lisbet
129 Lisbeth
95 Lisbjerg
34 Lisby
295 Lise
73 Liselund
58 Lissa
310 Lissabon
98 List
68 Liste
36 Listen
48 Lister
1476 Litauen
234 Litauens
29 Litauiske
57 Litra
229 Litteratur
62 Litteraturpris
25 Litteraturs
57 Litteraturselskab
855 Little
451 Liv
79 Liva
958 Live
826 Liverpool
33 Liverpools
45 Lives
165 Livet
82 Livets
98 Livgarde
199 Livgarden
41 Livgardens
33 Livia
141 Living
67 Livius
200 Livregiment
52 Livs
33 Livø
32 Liz
35 Liza
34 Lizzie
82 Lizzy
77 Ljubljana
329 Lloyd
63 Lo
50 Loa
44 Loft
116 Logan
26 Loge
38 Logik
27 Logistics
30 Lohals
49 Lois
38 Lokalavisen
31 Lokale
36 Lokalhistoriske
296 Loke
64 Lokes
46 Lokomotiv
41 Lola
34 Lolita
937 Lolland
207 Lolland-Falster
237 Lolland-Falsters
120 Lollands
43 Lom
33 Lombard
166 Lombardiet
50 Lomborg
38 Lommer
9013 London
39 London-klubben
411 Londons
210 Lone
541 Long
127 Look
38 Loop
928 Lord
55 Lords
31 Loren
25 Lorents
150 Lorentz
148 Lorentzen
167 Lorenz
110 Lorenzen
174 Lorenzo
25 Lori
125 Lorraine
60 Lorry
2560 Los
593 Lost
118 Lothar
48 Lotta
169 Lotte
41 Lotto
140 Lotus
156 Lou
34 Louie
1425 Louis
57 Louisa
1488 Louise
30 Louisenlund
104 Louises
467 Louisiana
28 Louisiana-købet
29 Louisiana-territoriet
40 Lous
671 Lov
1715 Love
43 Loved
71 Loven
41 Lover
48 Loves
47 Lovisa
35 Lovise
27 Lovns
61 Luc
155 Luca
408 Lucas
48 Lucca
175 Lucia
34 Lucian
53 Luciano
91 Lucie
68 Lucien
66 Lucifer
36 Lucretia
195 Lucy
25 Ludolf
2420 Ludvig
44 Ludvigs
809 Ludwig
26 Ludwigs
42 Luft
84 Luftfartsvæsen
988 Lufthavn
35 Lufthavne
33 Lufthavnen
66 Lufthavnsvæsen
137 Luger
147 Luigi
279 Luis
90 Luise
58 Luk
48 Luka
207 Lukas
78 Lukasevangeliet
26 Lukasgildet
318 Luke
25 Lula
64 Lulu
31 Lumby
31 Lumpur
153 Luna
1634 Lund
95 Lundby
119 Lunde
30 Lundeborg
32 Lunden
27 Lundenæs
55 Lunderskov
43 Lunding
241 Lunds
35 Lundsgård
32 Lundtoft
83 Lundtofte
28 Lune
95 Lunge
99 Lupus
532 Luther
194 Luthers
62 Luthersk
25 Lux
805 Luxembourg
31 Luxembourgs
28 Luz
83 Luzern
36 Lyby
41 Lydia
32 Lydien
30 Lygten
303 Lykke
33 Lykkelige
32 Lykkes
41 Lykketoft
76 Lyn
25 Lynar
143 Lynch
38 Lyndelse
127 Lyne
54 Lyng
26 Lyngbo
1262 Lyngby
116 Lyngby-Taarbæk
40 Lyngbygård
25 Lyngbykredsen
81 Lyngbyvej
176 Lynge
25 Lynge-Frederiksborg
32 Lynge-Kronborg
28 Lyngen
27 Lyngør
130 Lynn
57 Lynne
193 Lyra
27 Lyras
90 Lys
32 Lyse-Siv
30 Lysefjorden
89 Lyset
58 Lysgård
51 Lyst
87 Lystrup
39 Lyø
33 Låsby
44 Læge
34 Lægeforeningens
30 Lægemiddelstyrelsen
101 Læger
25 Læk
34 Længde
54 Lærde
84 Lære
240 Læreanstalt
72 Lærebog
27 Lærebøger
25 Læren
113 Lærer
29 Lærere
70 Lærerforening
83 Lærerhøjskole
59 Lærk
28 Lærke
26 Læsning
272 Læsø
35 Løb
25 Løgismose
37 Løgstrup
213 Løgstør
52 Løgum
159 Løgumkloster
38 Løjt
27 Løjtnant
181 Løkke
89 Løkken
98 Løn
73 Lønborg
34 Lønborg-Jensen
27 Lønmodtagernes
48 Lønstrup
33 Løsning
170 Løve
46 Løvehjerte
33 Løven
28 Løvens
27 Løver
32 Løvernes
29 Løves
57 MA
30 MAC
136 MB
197 MC
89 MF
95 MG
255 MHz
25 MIR
114 MIT
33 ML
42 MM
416 MS
51 MS-DOS
31 MY
76 Ma
36 Maarten
38 Mabel
391 Mac
58 Macao
40 Mach
72 Macintosh
85 Mack
43 Macon
141 Mad
211 Madagaskar
32 Madagaskars
71 Madam
154 Madame
93 Madara
35 Madden
125 Made
123 Madeira
92 Madeleine
251 Madison
229 Madonna
38 Madras
1234 Madrid
33 Madrids
838 Mads
1156 Madsen
39 Madsen-Mygdal
101 Madsens
59 Madvig
77 Mae
27 Maestro
25 Mafia
25 Mag
179 Magasin
63 Magasinet
71 Magda
113 Magdalena
547 Magdalene
29 Magdalenes
230 Magdeburg
48 Magellan
121 Maggie
78 Magi
32 Magisk
39 Magiske
50 Magister
47 Magistrat
30 Magistraten
56 Magistratens
120 Magleby
72 Magna
70 Magne
27 Magnolia
46 Magnum
862 Magnus
75 Magt
36 Magtens
29 Maher
43 Mahmoud
31 Mahmud
80 Mai
36 Maia
88 Mail
335 Maine
30 Maines
152 Maj
82 Maja
87 Majestæt
31 Majestæts
466 Major
76 Major-turnering
25 Majors
476 Makedonien
32 Makedoniens
79 Malawi
278 Malaysia
27 Malaysias
275 Malcolm
50 Maldiverne
75 Male
93 Malene
43 Maler
147 Malerisamling
214 Mali
42 Malibu
34 Malice
57 Malik
32 Malis
33 Malk
210 Malling
27 Malling-Hansen
240 Mallorca
37 Malm
68 Malmros
481 Malmö
670 Malmø
45 Malmøs
70 Malone
77 Malt
325 Malta
31 Maltas
35 Malte
67 Malthe
88 Mama
41 Mamma
27 Mammen
1289 Man
319 Management
106 Manager
1509 Manchester
338 Mand
35 Mandag
80 Mandela
127 Manden
35 Mander
26 Manderup
41 Mandrup
25 Mands
61 Mandy
82 Mandø
53 Manet
84 Manfred
34 Mangel
25 Mani
33 Manifest
100 Manila
25 Manny
48 Manon
156 Mans
229 Manuel
73 Manus
153 Mar
46 Mara
52 Marat
276 Marc
188 Marcel
65 Marcello
27 Marcelo
120 March
28 Marcia
251 Marco
31 Marcos
617 Marcus
342 Mare
288 Maren
299 Margaret
78 Margareta
88 Margaretha
48 Margarethe
28 Margarita
46 Margit
70 Margot
328 Margrete
29 Margretes
1534 Margrethe
40 Margrethes
95 Marguerite
31 Margård
35 Mari
2595 Maria
309 Mariager
56 Mariah
40 Marian
84 Mariane
261 Marianne
42 Mariano
156 Marias
594 Maribo
3353 Marie
30 Marielyst
79 Marienlyst
68 Maries
47 Marietta
47 Marija
165 Marilyn
57 Marin
168 Marina
324 Marine
37 Marineministeriet
164 Marinen
84 Marinens
42 Mariner
74 Marines
151 Marino
65 Marinus
315 Mario
128 Marion
33 Maris
37 Marit
119 Maritime
370 Marius
1223 Mark
75 Marked
33 Marker
28 Marketing
33 Marko
26 Marks
201 Markus
71 Markusevangeliet
27 Markuskirken
53 Markussen
57 Marlene
81 Marley
75 Marlon
49 Marne
579 Marokko
36 Marokkos
673 Mars
125 Marselisborg
50 Marshalløerne
71 Marsk
32 Marskal
37 Marslev
163 Marstal
60 Marsvin
53 Marta
280 Martha
3107 Martin
35 Martina
43 Martine
61 Martinez
65 Martinique
36 Martino
121 Martins
88 Martinus
91 Marts
74 Marty
142 Marvin
40 Marwan
377 Marx
1299 Mary
30 Mary-Kate
475 Maryland
45 Marys
105 María
58 Mask
105 Maskinfabrik
29 Masnedø
72 Mass
792 Massachusetts
25 Massakren
33 Massenet
30 Massimo
366 Master
186 Masters
52 Mat
162 Matador
105 Match
65 Matematik
45 Matematisk
294 Mathias
28 Mathiasen
101 Mathiesen
411 Mathilde
34 Mathildes
120 Matilda
62 Matisse
62 Matrix
46 Mats
501 Matt
29 Matteo
33 Matter
321 Matthew
88 Matthews
269 Matthias
121 Matthæus
64 Matthæusevangeliet
41 Matti
36 Mattias
40 Mattis
46 Mattrup
32 Matzen
91 Maud
35 Maude
42 Maureen
105 Mauretanien
294 Maurice
82 Mauritius
42 Mauritz
973 Max
32 Maxi
82 Maxim
30 Maxime
282 Maximilian
98 Maximus
271 May
70 Maya
74 Mayen
52 Mays
49 Mazarin
89 McDonald
36 Mean
418 Mecklenburg
208 Medal
56 Medalje
86 Medaljen
98 Meddelelser
44 Medea
66 Medicin
40 Medicinsk
26 Medie
168 Medier
189 Medina
27 Medium
296 Medlem
60 Medley
34 Medusa
60 Meg
25 Megan
25 Mehmed
51 Mehmet
26 Mei
28 Meinert
39 Meir
27 Mejer
48 Mejeri
150 Mekka
158 Mel
25 Meland
64 Melanie
28 Melby
247 Melchior
33 Meldal
41 Melfi
45 Melinda
81 Melissa
45 Melkor
218 Mellemamerika
41 Mellemfolkeligt
948 Mellemøsten
42 Mellerup
550 Melodi
47 Melodifestivalen
68 Melody
35 Melton
29 Melvin
43 Menighed
28 Mening
68 Menneske
88 Mennesker
52 Menneskerettigheder
46 Menneskerettighedsdomstol
31 Menneskerettighedskonvention
38 Mennesket
27 Menneskets
38 Mental
31 Mer
114 Mercedes
82 Mercy
93 Merete
38 Merian
43 Merit
205 Merkur
54 Merkurs
32 Merle
335 Merlin
48 Merlins
66 Merløse
39 Mern
78 Merry
63 Messe
39 Messecenter
136 Messias
75 Messina
109 Mester
256 Mesterholdenes
26 Mestersangerne
104 Mesterskab
26 Mesterskaber
61 Met
66 Meta
535 Metal
25 Metalist
324 Metallica
83 Metallicas
249 Metro
31 Metroen
49 Metropol
29 Metros
621 Mette
117 Mexicansk-amerikanske
134 Mexicanske
2127 Mexico
156 Mexicos
665 Meyer
80 Meyers
30 Mi
154 Mia
374 Miami
3869 Michael
328 Michaels
29 Michail
273 Michel
98 Michelangelo
26 Michelangelos
131 Michele
259 Michelle
152 Michelsen
522 Michigan
611 Mick
361 Mickey
40 Micky
734 Microsoft
106 Microsofts
42 Middelalder
47 Middelaldercentret
342 Middelalderen
40 Middelalderens
438 Middelfart
41 Middelhav
1003 Middelhavet
44 Middelhavets
146 Middelhavsområdet
60 Midler
186 Midt
34 Midten
46 Midtfyn
29 Midtfyns
1441 Midtjylland
79 Midtjyllands
72 Midtjyske
37 Midtpunkt
76 Midtsjælland
131 Midway
34 Mie
53 Mies
81 Mig
182 Miguel
27 Mik
53 Mika
403 Mikael
840 Mike
28 Mikey
315 Mikhail
483 Mikkel
25 Mikkelborg
541 Mikkelsen
35 Mikkelsens
29 Mikronesien
36 Mil
460 Milan
688 Milano
27 Milanos
26 Mildred
145 Mile
305 Miles
33 Militære
27 Militært
90 Miljø
90 Miljøministeriet
34 Miljøstyrelsen
29 Miljøudvalget
90 Mille
61 Millennium
397 Miller
36 Millers
30 Milles
66 Million
110 Milo
35 Milos
187 Milton
66 Mimi
273 Min
32 Mina
84 Minas
50 Minato
164 Mind
51 Mindaugas
97 Minde
113 Mindelegat
56 Mindelunden
53 Minder
35 Mindesmærker
47 Minds
175 Mine
30 Ming
57 Ming-dynastiet
65 Mingus
162 Minh
140 Mini
113 Minister
497 Ministeriet
60 Ministerium
54 Ministerråd
34 Ministerrådet
53 Minna
509 Minnesota
29 Minnie
160 Minsk
33 Minus
54 Minutes
31 Mio
180 Mir
60 Mira
156 Miranda
59 Miriam
37 Mises
527 Miss
381 Mission
26 Missionen
80 Missions
26 Missionskollegiet
35 Missionsselskab
630 Mississippi
110 Mississippi-floden
27 Mississippis
532 Missouri
28 Missouri-floden
31 Mistral
137 Mit
52 Mitch
385 Mitchell
66 Mitchells
193 Mitte
49 Mjødurt
97 Mo
33 Mob
34 Mobil
192 Mobile
120 Mode
276 Model
52 Models
37 Modelskolen
101 Moder
84 Moderate
151 Moderne
28 Modtryk
68 Moesgård
52 Mogadishu
933 Mogens
246 Mogensen
35 Mogenstrup
106 Mohamed
75 Mohammad
165 Mohammed
34 Moines
89 Moldavien
127 Moldova
79 Mollerup
120 Molly
146 Mols
28 Molukkerne
102 Moment
30 Mommark
28 Mon
126 Mona
360 Monaco
35 Mondiale
360 Mongoliet
295 Monica
25 Monicas
25 Monique
85 Monitor
36 Mono
174 Monrad
278 Monroe
29 Monroes
90 Mons
42 Monsieur
106 Monster
80 Monsters
292 Montana
410 Monte
358 Montenegro
41 Montenegros
64 Montes
107 Montevideo
392 Montgomery
55 Montgomerys
375 Montreal
26 Montserrat
121 Monty
152 Monument
42 Monuments
130 Mor
29 Moral
30 Morales
49 Morbid
61 Mord
43 Mordet
28 Mordred
257 More
37 Moresby
387 Morgan
80 Morgana
165 Morgen
64 Morgenavisen
56 Morgenbladet
74 Morgenstierne
170 Moritz
25 Mormon
81 Mormonkirken
173 Mormons
382 Morris
387 Mors
32 Morse
216 Morsø
1204 Morten
38 Mortens
525 Mortensen
37 Mortensens
39 Mortimer
93 Morton
89 Mos
86 Mosaisk
230 Mose
25 Mose-Pors
25 Moseand
180 Mosebog
36 Moser
372 Moses
2150 Moskva
157 Moskvas
26 Mossø
165 Most
229 Motion
552 Motor
68 Motorring
244 Motors
182 Motorvej
61 Motorvejen
47 Motorvejskryds
30 Mouritz
28 Moussa
238 Mozambique
30 Mozambiques
326 Mozart
195 Mozarts
103 Mozilla
44 Ms
34 Mu
27 Mugabe
216 Muhammad
367 Muhammed
26 Muhammed-tegninger
41 Muhammed-tegningerne
132 Muhammeds
27 Muld
32 Mulde
63 Mule
32 Mullerup
31 Mund
68 Mungo
445 Munk
29 Munk-Poulsen
34 Munke
45 Munkebo
35 Munks
45 Mur
30 Murad
34 Murat
40 Muren
270 Murray
81 Mus
85 Musa
53 Muse
54 Museer
278 Museet
2646 Museum
87 Museums
164 Musical
405 Musik
34 Musikfestival
48 Musikforeningen
50 Musikhuset
45 Musikkens
40 Musikkonservatoriet
507 Musikkonservatorium
31 Musikkorps
33 Musikpris
35 Musikskole
31 Musikteater
48 Muslim
30 Muslimske
68 Musse
95 Mustafa
42 Mustang
35 Mutant
40 Mutter
1372 My
28 MySQL
69 Myanmar
28 Myggen
84 Mygind
91 Mylius
29 Myndighed
25 Myra
65 Mysteriet
34 Märtha
67 Mål
104 Måløv
67 Måne
1285 Månen
993 Månens
93 Mælkevejen
35 Mælkevejens
203 Mænd
77 Mængde
25 Møbler
37 Møde
25 Møen
51 Møgeltønder
44 Mølby
44 Møldrup
41 Mølgaard
616 Mølle
28 Møllebæk
25 Møllegade
25 Møllegård
32 Møllehave
1695 Møller
228 Møllers
66 Mølleåen
437 Møn
87 Mønsted
45 Mønster
62 Mønt
30 Mørdrup
171 Møre
155 Mørk
72 Mørke
105 Mørkets
37 Mørkøv
25 Mørup
551 Müller
70 Müllers
2130 München
98 Münchens
675 NATO
39 NATO-lande
88 NB
104 NET
84 NEWS
135 NM
60 NN
38 NO
45 NOR
59 Nadal
112 Nadia
37 Nails
83 Nairobi
41 Naja
46 Najaden
482 Nakskov
28 Nam
125 Namibia
32 Nana
248 Nancy
143 Nanna
100 Naomi
42 Napalm
1224 Napoleon
370 Napoleons
584 Napoli
36 Nas
59 Naser
349 Nashville
101 Nassau
62 Nasser
124 Nat
105 Natalie
45 Natasha
54 Natasja
54 Nate
62 Nathalie
266 Nathan
28 Nathanael
86 Nathaniel
26 Nathans
237 Nation
2652 National
91 Nationalbank
159 Nationalbanken
62 Nationalbankens
406 Nationale
33 Nationalforeningen
27 Nationalforsamling
80 Nationalforsamlingen
35 Nationalgalleriet
97 Nationalhistoriske
55 Nationalliberale
503 Nationalmuseet
103 Nationalmuseets
92 Nationalmuseum
282 Nationalpark
32 Nationalparken
82 Nationalrådet
73 Nationalsocialistiske
63 Nationaltidende
26 Nationaløkonomisk
117 Nationer
53 Nationers
400 Nations
27 Native
32 Natskygge
51 Natten
69 Nattens
148 Natur
291 Natura
162 Natural
46 Naturen
25 Naturens
72 Naturfredningsforening
29 Naturgas
68 Naturhistorisk
32 Naturhistoriske
210 Naturpark
180 Naturstyrelsen
26 Naturstyrelsens
62 Naturvidenskabelige
40 Naur
122 Nauru
64 Nautilus
108 Navarra
35 Navigation
181 Navn
70 Navnet
25 Navr
39 Nazaret
196 Nazityskland
32 Nazitysklands
64 Neal
123 Neapel
151 Nebel
202 Nebraska
27 Neck
148 Ned
48 Neder
130 Nederland
198 Nederlande
1080 Nederlandene
43 Nederlandenes
75 Nederlandske
208 Nedre
35 Negative
264 Neil
51 Nej
61 Nellie
58 Nelly
504 Nelson
30 Nelsons
47 Nemesis
59 Nemo
51 Neo
29 Neon
314 Nepal
208 Nepals
202 Neptun
72 Neptuns
200 Nero
55 Neros
76 Nes
39 Nestor
37 Net
34 Nets
34 Netscape
54 Netto
64 Netværk
60 Neva
293 Nevada
173 Neville
60 Nevis
12042 New
468 News
255 Newton
114 Newtons
36 Nexus
166 Nexø
27 Nguyen
54 Ni
48 Niagara
157 Nibe
31 Nic
129 Nicaragua
422 Nice
201 Nicholas
485 Nick
45 Nicki
44 Nicklas
32 Nicks
64 Nicky
48 Niclas
49 Nico
26 Nicodemus
50 Nicola
787 Nicolai
95 Nicolaj
411 Nicolas
32 Nicolas-Henri
200 Nicolaus
164 Nicole
104 Nicoline
43 Nicosia
3377 Niels
26 Niels-Henning
4153 Nielsen
339 Nielsens
33 Nielsine
58 Nielstrup
75 Nigel
174 Niger
365 Nigeria
51 Nigerias
91 Nik
104 Nikita
51 Nikkende
53 Nikki
63 Niklas
27 Niko
40 Nikola
200 Nikolai
790 Nikolaj
29 Nikolaos
159 Nikolaus
31 Nile
409 Nils
156 Nilsson
39 Nim
47 Nimbus
271 Nina
111 Nine
84 Ninja
28 Nino
90 Nirvana
82 Nis
32 Nissebanden
270 Nissen
108 Nissum
25 Niue
48 Niverød
161 Nivå
138 Nm
866 No
61 Noa
145 Noah
30 Noam
72 Nobel
34 Nobelpris
492 Nobelprisen
213 Nobels
51 Noble
184 Noel
34 Nomineret
71 Non
107 Nonstop
200 Nor
63 Nora
37 Norbert
1197 Nord
30 Nord-Amerika
52 Nord-Norge
855 Nordafrika
55 Nordahl
27 Nordals
1838 Nordamerika
41 Nordamerikanske
70 Nordamerikas
141 Nordatlanten
45 Nordatlantiske
65 Nordbanen
177 Nordborg
75 Nordby
147 Norddjurs
1156 Norden
418 Nordens
363 Nordeuropa
130 Nordeuropas
29 Nordfjord
94 Nordfrankrig
43 Nordfyn
92 Nordfyns
47 Nordgrønland
40 Nordhavn
56 Nordhavnen
32 Nordholland
514 Nordirland
41 Nordirlands
1359 Nordisk
539 Nordiske
178 Norditalien
950 Nordjylland
437 Nordjyllands
42 Nordjysk
119 Nordjyske
32 Nordkap
332 Nordkorea
59 Nordkoreas
53 Nordkraft
36 Nordkredsen
264 Nordland
26 Nordlandsbanen
166 Nordlige
43 Nordmøre
127 Nordnorge
123 Nordpolen
439 Nordre
25 Nords
902 Nordsjælland
97 Nordsjællands
33 Nordskov
183 Nordslesvig
126 Nordstaterne
37 Nordstaternes
135 Nordstrand
32 Nordsverige
40 Nordsø
547 Nordsøen
50 Nordtyske
302 Nordtyskland
45 Nordvest
33 Nordvestbanen
55 Nordvesteuropa
44 Nordvestjylland
60 Nordvestpassagen
177 Nordvestsjælland
73 Nordvietnam
40 Nordøen
32 Nordøstgrønland
47 Nordøstsjælland
33 Nore
182 Norfolk
9398 Norge
1656 Norges
63 Norma
31 Normal
25 Normale
329 Norman
738 Normandiet
78 Normann
93 Norrköping
42 Nors
427 Norsk
448 Norske
43 Norskehavet
1835 North
48 Norup
294 Not
97 Note
58 Notes
246 Nova
25 Novell
128 November
28 Novemberforfatningen
211 Nu
25 Nul
72 Numsen
1703 Ny
25 Ny-Ålesund
51 Nya
110 Nyboder
802 Nyborg
40 Nybro
127 Nybøl
42 Nydam
27 Nydambåden
699 Nye
126 Nygaard
46 Nygade
55 Nygård
112 Nyhavn
98 Nyheder
125 Nyhederne
57 Nyhedsavisen
31 Nyhedsmagasin
119 Nyholm
49 Nykirke
63 Nykredit
1061 Nykøbing
58 Nyland
39 Nyman
41 Nymindegab
25 Nymølle
159 Nyrup
28 Nysprog
56 Nystad
284 Nysted
32 Nystrøm
39 Nysø
175 Nyt
282 Nytorv
37 Nytte
210 Når
40 Nælde
34 Nældetræ
85 Nærum
34 Nærå
99 Næs
58 Næsby
1129 Næstved
65 Nævn
27 Nøddeknækkeren
43 Nødebo
52 Nødhjælp
94 Nørager
95 Nørby
335 Nørgaard
28 Nørgaards
66 Nørgård
36 Nørhald
78 Nørholm
119 Nørlund
1174 Nørre
846 Nørrebro
191 Nørrebros
163 Nørregade
240 Nørresundby
33 Nørresø
26 Nørskov
29 Nørup
50 Nørvang
46 OD
37 ODS
62 OH
83 OK
3889 OL
82 OL-guld
29 OL-guldmedaljer
28 OL-programmet
34 OL-turneringen
43 OR
291 OS
42 OVA
80 Oberst
47 Observatoriet
42 Observatorium
56 Observer
677 Ocean
223 Oceanien
34 Oceaniens
113 Octavia
29 Octavius
31 Od
57 Oda
135 Odd
210 Odde
59 Odden
322 Odder
25 Oddernes
28 Oddesund
39 Ode
5549 Odense
113 Odenses
190 Oder
81 Odessa
550 Odin
196 Odins
58 Ods
209 Odsherred
83 Odysseen
166 Odysseus
33 Ofelia
50 Offentlige
25 Offer
300 Office
126 Officer
124 Officersskole
26 Officersskoles
29 Official
39 Officin
26 Offshore
134 Oh
820 Ohio
35 Ohm
34 Okay
413 Oklahoma
28 Oksby
84 Oksbøl
87 Oktober
67 Oktoberrevolutionen
51 Ola
413 Olaf
43 Olai
48 Olaus
481 Olav
78 Olavs
673 Old
26 Oldenborgske
70 Oldham
45 Oldkyndighed
31 Oldnordisk
36 Oldsager
25 Oldskriftselskab
32 Oldtid
31 Oldtidens
1757 Ole
65 Oleg
261 Olesen
71 Olfert
219 Olga
60 Olie
36 Oline
512 Oliver
132 Olivia
105 Olivier
63 Ollerup
29 Ollie
260 Olof
1603 Olsen
80 Olsen-banden
118 Olsens
76 Olsson
27 Olstrup
531 Oluf
52 Olympen
130 Olympia
25 Olympisk
518 Olympiske
706 Om
86 Oman
237 Omar
28 Ombudsmand
113 Omega
165 Omegn
93 Omegns
57 Omme
58 Onde
30 Ondskabens
373 Onkel
171 Online
54 Onsild
44 OpenOffice
554 Opera
26 Operaakademiet
109 Operaen
1547 Operation
82 Operations
92 Operative
48 Opfattelse
32 Opgave
30 Ophelia
64 Ophold
58 Oplysning
41 Oplysninger
26 Opmuntringspræmie
41 Opmærksomhed
33 Opret
26 Oprettelsen
56 Oprindelse
27 Oprør
29 Optegnelser
25 Optræden
46 Opus
71 Or
32 Oracle
329 Orange
200 Ord
164 Ordbog
654 Orden
85 Ordenen
77 Ordens
29 Ordenskapitlet
86 Ordet
32 Ordning
39 Ordre
301 Ordrup
28 Ore
305 Oregon
35 Organ
219 Organisation
83 Organisationen
76 Orient
36 Orientalsk
84 Orienten
47 Orientering
137 Original
97 Orion
25 Orkanen
101 Orkester
96 Orkneyøerne
137 Orla
206 Orlando
498 Orleans
114 Orlogsværftet
44 Ormen
53 Orne
48 Orne-floden
30 Ornitologisk
57 Orson
94 Os
95 Osama
1467 Oscar
50 Oscar-nomineret
47 Oscar-nominering
27 Oscar-uddelingen
40 Oscar-vindende
198 Oscars
172 Oskar
2566 Oslo
52 Oslos
46 Osman
363 Osmanniske
65 Ost
45 Osted
106 Osten
73 Ostindiske
57 Osvald
124 Oswald
56 Otis
49 Ottar
123 Ottawa
191 Otte
43 Otter
104 Otterup
2295 Otto
33 Ottos
36 Oure
520 Out
32 Outsiders
58 Oval
637 Ove
27 Overby
25 Overdrev
38 Overgaard
27 Overgaden
45 Overgård
96 Overhuset
59 Overland
148 Overlord
29 Overretten
36 Overs
48 Oversigt
35 Oversættelse
27 Oversø
47 Owe
349 Owen
49 Owens
753 Oxford
100 Ozzy
30 PA
31 PAL
40 PARKEN
42 PBS
262 PC
34 PCB
35 PEN
304 PET
36 PETA
138 PGA
45 PH
105 PHP
93 PR
51 PS
45 PVC
40 Pa
36 Paavo
169 Pablo
39 Pac
32 Pac-Man
43 Pace
89 Padborg
319 Page
34 Pagten
43 Pagter
44 Pakhus
676 Pakistan
96 Pakistans
79 Palads
54 Paladset
59 Palau
162 Palermo
65 Palladium
71 Pallas
440 Palle
137 Palm
108 Palma
46 Palmas
289 Palme
56 Palmemordet
190 Palmer
45 Palmes
49 Palnatoke
33 Palsgård
313 Palæ
47 Palæet
595 Palæstina
47 Palæstinas
25 Pam
52 Pamela
268 Pan
189 Panama
26 Panamas
49 Panda
45 Pandrup
35 Panter
158 Paolo
116 Papa
48 Papirfabrik
26 Paprika
89 Papua
78 Par
75 Parade
122 Paradis
247 Paraguay
41 Paranoid
26 Paribas
7451 Paris
51 Paris-Nice
40 Pariserkommunen
29 Pariseroperaen
32 Parisersalonen
2737 Park
239 Parken
433 Parker
28 Parkinson
54 Parkinsons
127 Parks
44 Parlament
119 Parlamentet
181 Parma
57 Parry
148 Part
752 Parti
118 Partiet
49 Partiets
45 Partis
26 Partito
28 Partner
88 Partners
31 Parton
611 Party
44 Pas
122 Pascal
143 Pasha
112 Pass
63 Passage
125 Passat
32 Passenger
92 Passer
67 Passion
46 Past
37 Pasteur
40 Pastor
73 Pastorat
136 Pat
46 Patent
33 Patrice
111 Patricia
518 Patrick
38 Patrik
32 Patriot
239 Patriots
69 Patti
42 Pau
2910 Paul
82 Paula
97 Pauli
130 Pauline
43 Paulli
297 Paulo
104 Pauls
189 Paulsen
457 Paulus
64 Paus
317 Pave
71 Pavel
75 Paven
27 Pavestaten
95 Pavia
26 Paw
26 Pay
35 Pays
383 Pearl
1678 Peder
56 Peders
38 Pedersborg
1825 Pedersen
84 Pedersens
56 Pederstrup
247 Pedro
51 Peel
142 Peer
44 Pegasus
66 Peggy
31 Pehr
94 Pelle
26 Peloponnesiske
61 Pelé
57 Pen
90 Penelope
78 Penge
33 Penh
868 Pennsylvania
88 Penny
103 Pension
42 Pensionskasse
96 Pentagon
25 Pep
70 Pepper
32 Pepsi
1174 Per
26 Perch
143 Percy
37 Peres
47 Pergamon
66 Perikon
42 Perl
59 Perle
98 Perm
29 Permanente
261 Pernille
25 Perron
359 Perry
40 Perrys
315 Persien
58 Persisk
132 Persiske
54 Person
71 Personal
27 Personalhistorie
90 Personer
49 Personlighed
84 Persson
479 Peru
63 Perus
39 Pest
73 Pet
268 Pete
7104 Peter
268 Peters
593 Petersborg
1770 Petersen
144 Petersens
78 Peterskirken
95 Petit
109 Petra
43 Petrarca
32 Petrea
244 Petri
25 Petrie
66 Petrine
53 Petroleum
68 Petrus
62 Petter
37 Petunia
27 Phi
650 Philadelphia
895 Philip
210 Philipp
42 Philippa
201 Philippe
170 Philips
95 Phillip
242 Phillips
183 Phoebe
334 Phoenix
40 Pi
259 Pia
89 Piano
62 Piccolo
81 Pie
43 Pier
125 Pierce
670 Pierre
57 Piet
126 Pieter
208 Pietro
77 Pige
55 Pigen
42 Piger
101 Pike
66 Pil
53 Pilatus
33 Pile
26 Pilebladet
25 Pilestræde
47 Pilmark
79 Pilot
31 Pilsner
25 Pinakotek
79 Pind
25 Pindstrup
51 Pine
55 Pines
32 Ping
41 Pingel
384 Pink
25 Piotr
336 Piper
34 Pipers
50 Pippi
75 Pirates
113 Pisa
68 Pistols
29 Pitcairn
209 Pius
48 Pizza
33 Pjerrot
76 Plade
831 Plads
179 Plan
29 Planck
35 Plancks
40 Plane
163 Planet
78 Plant
159 Plantage
28 Planter
48 Plastic
53 Plat
32 Platan
105 Plate
34 Plateau
40 Platform
110 Playboy
95 Playstation
91 Please
26 Pleje
40 Plessens
29 Plettet
27 Plovpenning
158 Plus
184 Pluto
58 Plutos
54 Plys
82 Podebusk
42 Poesi
26 Poet
35 Poets
770 Point
37 Points
108 Pokal
28 Pokalen
94 Pokalturnering
178 Pokalvindernes
135 Poker
71 Pol
33 Polar
3284 Polen
33 Polen-Litauen
350 Polens
268 Police
201 Politi
69 Politiet
145 Politiets
27 Politigården
132 Politik
702 Politiken
284 Politikens
31 Politiret
69 Politisk
38 Politiske
32 Politiskolen
37 Polle
27 Pollux
73 Polly
222 Polo
29 Polsk
66 Polske
107 Polynesien
176 Polyteknisk
59 Polytekniske
455 Pommern
35 Pommerns
26 Pontius
134 Pontoppidan
57 Pontoppidans
56 Pony
55 Pool
314 Pop
148 Pope
50 Popes
26 Poppel
60 Popper
61 Pops
36 Popstars
68 Porcelænsfabrik
643 Port
37 Portable
44 Portal
43 Porte
49 Porten
175 Porter
34 Porters
258 Portland
38 Portman
266 Porto
63 Portræt
26 Portrætter
1374 Portugal
152 Portugals
58 Portugisisk
35 Pose
66 Posen
552 Post
41 Postal
83 Posten
66 Pot
49 Potentil
760 Potter
46 Potters
1842 Poul
32 Pouline
781 Poulsen
47 Poulsens
178 Povl
825 Prag
113 Prags
27 Praia
59 Pram
38 Prater
27 Pravda
355 Preben
31 Premiere
25 Present
29 Presents
41 Presse
39 Prestige
36 Pretoria
27 Preussisk-østrigske
35 Preussiske
39 Prikbladet
42 Prima
61 Prime
46 Primetime
35 Primo
62 Primærrute
354 Prince
29 Princes
56 Princip
28 Principal
28 Principe
853 Prins
72 Prinsen
80 Prinsens
415 Prinsesse
42 Prior
157 Pris
27 Priscilla
214 Prisen
31 Privat
37 Privatbaner
70 Privatbanken
153 Private
29 Privatskole
26 Problem
36 Process
29 Producer
25 Producers
64 Produktion
215 Prof
398 Professor
29 Profil
113 Program
28 Programmet
53 Progressive
117 Projekt
25 Promenade
40 Promotions
143 Provence
77 Providence
65 Provinsen
37 Provst
2397 Provsti
185 Præmie
34 Prærien
123 Præsident
25 Præsidenten
35 Præsidentens
25 Præsidium
97 Præst
127 Præstegård
43 Præstegæld
42 Præsten
365 Præstø
28 Prøvestenen
32 Psykiatrisk
31 Psykologi
29 Psykologisk
63 Ptolemæus
57 Pu
49 Puck
25 Puget
43 Puk
28 Pulje
28 Pullers
57 Pulp
28 Puls
26 Pulse
29 Puma
27 Pumpehuset
39 Punch
146 Punk
29 Punkt
45 Pure
26 Push
36 Pusher
45 Put
64 Pyongyang
30 Pyrenæisk
91 Python
31 Påskekrisen
27 Pædagogisk
76 Pædagogiske
51 Pære
183 Qatar
27 Qatars
133 Quinn
165 Quintus
55 Quisling
93 RAM
33 RAN
27 REM-søvn
33 ROM
39 Raad
36 Rabat
26 Rabbi
233 Race
37 Racer
50 Races
486 Rachel
42 Rachels
28 Radar
81 Radikal
636 Radikale
1826 Radio
67 Radioavisen
32 Radioens
58 Radiohuset
26 Radiometer
223 Radios
26 Radioteatret
219 Rafael
25 Rafe
87 Rafn
26 Rag
94 Rage
33 Ragna
55 Ragnar
198 Ragnarok
101 Ragnhild
31 Ragnvald
77 Rahman
131 Raider
77 Raiders
48 Rainer
29 Rainier
65 Raleigh
60 Ralf
52 Rally
248 Ralph
72 Ram
62 Rama
78 Ramasjang
36 Rambøll
50 Ramløse
63 Ramon
41 Ramos
49 Rams
52 Ramses
28 Ramsing
49 Ramsø
58 Ramus
29 Ran
83 Rana
65 Ranch
56 Rand
47 Randall
2710 Randers
25 Randersgade
44 Randersvej
35 Randi
31 Randlev
66 Randolph
349 Randy
27 Rang
33 Ranger
26 Rangoon
40 Rank
27 Ranulf
54 Ranum
43 Ranunkel
187 Rap
74 Raphael
137 Rapid
69 Rapids
39 Rapport
66 Ras
25 Rashid
208 Rask
25 Rasmine
941 Rasmus
2247 Rasmussen
180 Rasmussens
50 Rasted
44 Rat
50 Ravel
106 Raven
85 Ravens
191 Ravn
27 Ravnholt
54 Ravnsborg
34 Ravnstrup
611 Ray
326 Raymond
26 Rays
84 Re
882 Real
44 Realkredit
44 Really
172 Realskole
122 Rebecca
34 Rebekka
81 Rebel
174 Rebild
1166 Red
27 Redaktør
25 Rede
137 Reden
40 Rederi
27 Redningskorps
39 Reds
33 Reersø
43 Reese
34 Reference
53 Reform
179 Reformationen
47 Reformert
39 Refsnæs
29 Regal
39 Regel
44 Regent
83 Regering
358 Regeringen
31 Regeringens
31 Reggae
521 Regiment
38 Regin
112 Regina
67 Reginald
46 Regine
3917 Region
120 Regional
35 Regionale
40 Regioner
79 Regionskommune
31 Regis
60 Register
65 Regitze
32 Regler
49 Regnar
34 Regner
32 Reimar
39 Reimer
116 Reims
39 Reiner
115 Reinhard
68 Reinhardt
93 Reinhold
36 Reinholdt
120 Rejse
81 Rejseholdet
45 Rejselegat
69 Rejsen
153 Rejser
95 Rekordbog
48 Rektor
52 Relations
43 Relief
101 Religion
75 Remee
48 Remix
38 Remo
78 Remus
28 Ren
527 Renault
114 Rene
71 Reno
37 Rent
31 Rente
204 Rentekammeret
30 Renæssancen
351 René
64 Renée
35 Repræsentant
397 Repræsentanternes
701 Republik
41 Republikaner
32 Republikanere
89 Republikanerne
26 Republikanernes
123 Republikanske
746 Republikken
39 Republiks
72 Requiem
288 Research
26 Reseda
172 Resen
34 Resens
111 Reserve
29 Reserves
33 Resident
42 Resolution
28 Rest
112 Restaurant
31 Resten
81 Restrup
25 Resultat
43 Resultater
126 Ret
27 Retfærdighed
72 Retning
54 Retsforbundet
53 Retskrivningsordbogen
27 Retsvæsen
29 Rette
96 Retten
49 Rettigheder
112 Rev
26 Reverend
25 Revision
332 Revolution
29 Revolutionen
25 Revolutions
25 Revolutionskrigene
52 Revolutionære
47 Revolver
69 Revy
95 Revyen
179 Rex
209 Reykjavik
168 Reynolds
38 Reza
47 Rhea
191 Rhode
199 Rhodes
84 Rhododendron
125 Rhodos
1593 Ribe
41 Riber
40 Ribes
25 Ribs
220 Ric
172 Rica
43 Ricard
91 Ricardo
29 Ricas
2442 Richard
763 Richards
66 Richardt
452 Richmond
33 Richterskalaen
279 Rick
49 Rickard
111 Ricky
203 Rico
2520 Ridder
39 Ridderkors
76 Ridderkorset
94 Riddersalen
127 Ride
44 Rider
27 Rie
38 Ries
74 Rifbjerg
52 Rift
37 Rig
995 Riga
213 Rigas
728 Rige
26 Riger
136 Riges
84 Riget
28 Rigets
49 Rigmor
165 Rigsarkivet
89 Rigsdag
416 Rigsdagen
112 Rigsdagens
51 Rigsdaler
142 Rigsforsamling
30 Rigsforsamlingen
199 Rigshospitalet
51 Rigshospitalets
32 Rigspolitiet
78 Rigsretten
40 Rigsrevisionen
40 Rigsråd
176 Rigsrådet
98 Rigsrådets
81 Rihanna
30 Rihannas
261 Riis
34 Rikard
143 Rikke
27 Rima
62 Rimmer
45 Rind
39 Rinds
568 Ring
59 Ringbanen
191 Ringe
120 Ringen
308 Ringenes
57 Ringhof
681 Ringkøbing
131 Ringkøbing-Skjern
71 Ringo
28 Rings
712 Ringsted
36 Ringsted-Sorø
66 Ringvej
39 Ringvejen
37 Rink
28 Rinkenæs
586 Rio
71 Rip
74 Ripper
101 Rise
49 Riskær
28 Rislund
127 Risskov
52 Risø
122 Rita
65 Ritt
143 Ritter
42 Ritzau
52 Ritzaus
1282 River
79 Rivers
33 Riviera
71 Roald
38 Roar
274 Rob
60 Robbins
3216 Robert
49 Roberta
144 Roberto
227 Roberts
425 Robin
502 Robinson
35 Robinsons
39 Robot
28 Robyn
45 Rocco
1719 Rock
88 Rocket
39 Rockmaskinen
96 Rocks
25 Rockstar
271 Rocky
200 Rod
35 Roda
145 Rode
46 Rodes
72 Rodgers
40 Rodin
44 Rododendron
45 Rodrigo
27 Rodrigues
33 Roe
867 Roger
197 Rogers
45 Rohan
119 Rohde
29 Roholte
108 Roklub
237 Roland
77 Rold
280 Rolf
26 Rolfe
48 Rolighed
51 Rolle
1096 Rolling
46 Rollo
3689 Rom
244 Roma
224 Roman
81 Romance
30 Romandiet
39 Romani
62 Romano
352 Romeo
469 Romerriget
154 Romerrigets
35 Romersk
81 Romerske
254 Rommel
64 Rommels
351 Roms
613 Ron
310 Ronald
101 Ronaldo
101 Ronja
283 Ronnie
28 Rons
84 Rory
366 Rosa
54 Rosalie
31 Rosas
794 Rose
32 Rosemary
182 Rosen
451 Rosenborg
78 Rosendal
181 Rosenholm
49 Rosenkilde
25 Rosenlund
52 Rosenstand
39 Rosenvinge
26 Rosenvold
45 Rosenvænget
29 Rosenvængets
105 Rosenørn
29 Rosenørns
30 Roser
200 Roses
27 Rosie
30 Rosina
3549 Roskilde
42 Roskildes
26 Roslev
591 Ross
64 Rostrup
35 Rot
27 Rota
147 Rotten
106 Rouge
35 Rougsø
25 Roxanne
401 Roy
2627 Royal
116 Royale
112 Ruben
82 Rubens
160 Rubin
41 Rubjerg
100 Ruby
138 Rud
83 Rude
113 Rudersdal
52 Rudi
152 Rudkøbing
578 Rudolf
339 Rudolph
41 Ruds
48 Rudy
150 Rue
122 Rufus
93 Rugby
79 Ruhr
43 Ruhr-distriktet
76 Rum
209 Rumble
203 Rumstation
1090 Rumænien
150 Rumæniens
391 Run
72 Runddel
30 Runde
64 Rundetårn
452 Rundt
252 Rune
26 Runestenen
37 Rung
41 Runge
188 Rungsted
55 Running
58 Rup
73 Rupert
51 Rus
56 Ruse
164 Rush
5631 Rusland
562 Ruslands
452 Russell
39 Russells
201 Russisk
387 Russiske
88 Rust
31 Rute
286 Ruth
175 Rwanda
121 Ry
394 Ryan
26 Ryd
31 Ryde
171 Rye
32 Ryes
30 Rygge
31 Rygård
37 Rynkeby
36 Ryomgård
108 Ryslinge
53 Rytmisk
57 Rytter
26 Rytterdistrikt
28 Ryttere
97 Rytterregiment
45 Råbjerg
547 Råd
169 Rådet
27 Rådgivende
293 Rådhus
48 Rådhuset
205 Rådhuspladsen
151 Råds
26 Rårup
134 Række
227 Rød
43 Rød-El
36 Rød-Løn
144 Rødby
56 Rødbyhavn
25 Rødder
215 Rødding
1725 Røde
64 Rødekro
29 Rødes
48 Rødkilde
425 Rødovre
35 Rødvig
117 Rømø
71 Røn
74 Rønde
520 Rønne
57 Rønnede
59 Rørbæk
59 Rørvig
30 Røsnæs
40 Røst
41 S-bane
80 S-banen
155 S-tog
27 S-togene
53 S-togs-station
256 SA
31 SAG
38 SAM
344 SAS
104 SE
556 SF
28 SI
41 SI-enhed
34 SI-enheden
28 SI-præfiks
29 SIF
26 SIK
252 SK
65 SKAT
52 SM
79 SMS
32 SOK
35 SOS
37 SP
38 SPOT
34 SQL
33 ST
36 STS
39 SU
291 SV
39 Sa
43 Saba
50 Sabina
46 Sabine
54 Sabro
48 Sabroe
82 Sachs
64 Sacramento
60 Sad
63 Sadat
158 Saddam
90 Safari
46 Sag
119 Saga
77 Sagen
56 Sager
205 Sahara
31 Sahl
119 Said
138 Sakskøbing
56 Sal
68 Salamis
70 Salem
26 Sali
28 Salinas
46 Sall
329 Salling
53 Sallinge
45 Sallingsund
174 Sally
34 Salman
60 Salmebog
25 Salmer
58 Salome
216 Salomon
33 Salomons
39 Salomonøer
202 Salomonøerne
54 Salon
34 Salonen
195 Salt
40 Salten
53 Saltholm
50 Saltlageret
42 Salto
28 Saltum
28 Saltø
257 Salvador
52 Salvatore
29 Salvie
693 Salzburg
38 Salzburgs
718 Sam
54 Samantha
25 Samar
52 Samara
63 Samarbejde
32 Same
272 Samfund
132 Samfundet
33 Samfunds
37 Samfundsvidenskabelige
39 Sami
51 Samlede
397 Samling
112 Samlinger
104 Sammenslutning
78 Sammenslutningen
62 Sammy
93 Samoa
49 Samos
33 Samråd
64 Sams
82 Samson
306 Samsø
31 Samtiden
650 Samuel
84 Samvirke
53 Samvirkende
2634 San
238 Sand
31 Sandager
68 Sandbjerg
34 Sandby
118 Sande
73 Sander
139 Sanders
28 Sanderum
79 Sandhed
26 Sandheden
49 Sandler
41 Sandman
111 Sandra
30 Sandro
87 Sands
31 Sandur
41 Sandvig
37 Sandwich
106 Sandy
25 Sandø
102 Sang
100 Sange
74 Sangen
45 Sanger
3069 Sankt
176 Sanne
65 Sans
51 Sanskrit
900 Santa
136 Santana
284 Santiago
179 Santo
176 Santos
45 Sar
291 Sara
407 Sarah
234 Sarajevo
70 Sartre
38 Sasha
34 Sassnitz
60 Sastre
179 Satan
49 Satans
312 Saturn
127 Saturns
89 Saudi
213 Saudi-Arabien
57 Sava
162 Savannah
100 Save
40 Savoy
25 Savværk
312 Saxo
83 Saxos
165 Sayid
42 Scarlet
63 Scarlett
152 Scene
134 Scenen
341 Schack
44 Schacks
25 Schilling
341 Schlesien
60 Schleswig-Holstein
112 Schlüter
570 Schmidt
38 Schmidt-Nielsen
28 Schmidts
200 Schou
265 Schrøder
37 Schuberts
201 Schultz
94 Schwarzwald
2709 Schweiz
26 Schweizer
60 Schweiziske
461 Science
25 Scientist
38 Score
1289 Scott
310 Scottish
127 Scotts
185 Screen
1392 Se
298 Sean
382 Seattle
423 Sebastian
56 Sebastians
28 Sebber
85 Sedan
43 Seden
55 Seest
85 Sega
115 Seinen
33 Seinens
39 Sejerø
45 Sejlflod
26 Sejlstrup
39 Sejmen
176 Sejr
50 Sejrs
50 Sekretær
33 Sektion
33 Selena
29 Selene
40 Selim
75 Selma
41 Selmer
1385 Selskab
365 Selskabet
41 Selskabets
371 Selskabs
29 Selskabsstyrelsen
36 Selvom
37 Selvstyre
47 Semgallen
505 Seminarium
70 Sen
71 Senat
372 Senatet
39 Senatets
71 Senator
39 Senators
197 Senegal
25 Senegals
47 Sengeløse
180 Senior
36 Sennels
25 Sensation
25 Sentinel
195 Seoul
60 Sepp
181 September
47 Ser
743 Serbien
67 Serbiens
61 Serena
35 Serenade
40 Serge
54 Sergei
132 Sergej
80 Sergio
681 Serie
169 Serieforlaget
29 Serien
541 Series
25 Serum
135 Server
34 Serveto
694 Service
154 Services
57 Sessions
60 Set
151 Seth
32 Sevel
247 Severin
28 Severine
291 Sevilla
220 Sex
26 Sextus
27 Seychellerne
128 Shah
104 Shakur
90 Shan
114 Shane
480 Shanghai
149 Shannon
34 Sharif
167 Sharon
48 Shaun
208 Shawn
44 Shea
37 Shearer
267 Sheffield
58 Sheik
79 Sheikh
40 Sheila
52 Shelley
