
\data\
ngram 1=39187
ngram 2=1597

\1-grams:
1 <unk>
1 <s>
1 </s>
1 <num>
748 -chlorid
622 -fach
405 -fluorid
3856 -mal
1230 -oxid
3041 -trainer
540 A-Dur
1200 A-Jugend
563 A-Klasse
401 A-Länderspiel
411 A-Länderspiele
2678 A-Nationalmannschaft
415 A-Seite
523 A-Team
2741 AB
2490 ABC
1076 AD
1093 ADAC
1678 AEG
55781 AG
426 AGS
1510 AIDS
1337 AMD
730 AOK
466 AOL
649 API
420 AR
4939 ARD
529 ART
774 ARTE
1449 AT
554 AU
17223 Aachen
4786 Aachener
515 Aal
1940 Aalen
3326 Aargau
867 Aas
1975 Ab
8443 Abbau
493 Abbaus
600 Abberufung
1793 Abbild
7588 Abbildung
4047 Abbildungen
5528 Abbruch
1498 Abdankung
1086 Abdeckung
596 Abdichtung
802 Abdruck
2159 Abel
12648 Abend
415 Abende
461 Abenden
940 Abendessen
459 Abendland
435 Abendlandes
1679 Abendmahl
1341 Abends
458 Abendschule
708 Abendstunden
6178 Abenteuer
917 Abenteuerfilm
883 Abenteuern
1192 Abenteurer
570 Aberglauben
451 Aberkennung
7287 Abfahrt
1310 Abfahrten
2194 Abfall
877 Abfassung
418 Abfertigung
711 Abfindung
3501 Abfluss
559 Abflussmenge
2726 Abfolge
454 Abfrage
1445 Abfälle
687 Abfällen
2989 Abgabe
3422 Abgaben
1478 Abgang
452 Abgas
737 Abgase
8328 Abgeordnete
13418 Abgeordneten
3510 Abgeordnetenhaus
1807 Abgeordnetenhauses
1471 Abgeordnetenkammer
668 Abgeordnetenmandat
23807 Abgeordneter
431 Abgesandten
710 Abgeschiedenheit
580 Abgleich
7043 Abgrenzung
445 Abgrenzungen
825 Abgrund
427 Abgänge
3140 Abhandlung
2496 Abhandlungen
1013 Abhang
675 Abhilfe
660 Abholzung
7893 Abhängigkeit
896 Abhängigkeiten
28986 Abitur
498 Abiturienten
447 Abiturprüfung
400 Abiturs
2040 Abkehr
7753 Abkommen
1600 Abkommens
607 Abkömmling
546 Abkömmlinge
504 Abkühlen
1264 Abkühlung
8929 Abkürzung
1069 Abkürzungen
510 Ablage
931 Ablagerung
2635 Ablagerungen
523 Ablass
8859 Ablauf
1750 Ableben
670 Ablegen
2491 Ableger
564 Ablegung
6946 Ablehnung
672 Ableistung
3386 Ableitung
934 Ableitungen
805 Ablenkung
570 Ablieferung
1393 Abläufe
704 Ablöse
1670 Ablösesumme
3388 Ablösung
444 Abmachung
2713 Abmessungen
2413 Abnahme
1090 Abnehmer
1447 Abneigung
561 Abnutzung
562 Abonnement
1029 Abonnenten
686 Abordnung
6014 Abraham
490 Abrahams
439 Abraum
1518 Abrechnung
1818 Abreise
5720 Abriss
426 Abruf
771 Abrüstung
1281 Absage
4740 Absatz
5225 Abschaffung
403 Abschalten
683 Abschaltung
538 Abschiebung
4643 Abschied
423 Abschiedsbrief
501 Abschirmung
40816 Abschluss
466 Abschlussarbeit
607 Abschlussbericht
1061 Abschlussprüfung
724 Abschlusstabelle
1083 Abschlüsse
1077 Abschneiden
32604 Abschnitt
6011 Abschnitte
3428 Abschnitten
818 Abschnittes
1635 Abschnitts
696 Abschreckung
1391 Abschrift
936 Abschriften
1203 Abschuss
481 Abschwächung
821 Abschätzung
415 Abschüsse
520 Abseits
806 Absender
945 Absenkung
629 Absetzen
2643 Absetzung
1938 Absicherung
6923 Absicht
1894 Absichten
691 Absinken
448 Absolute
957 Absolutismus
1174 Absolvent
2651 Absolventen
868 Absolvierung
1082 Absorption
3167 Abspaltung
1833 Abspann
532 Abspielen
1577 Absprache
620 Absprachen
13023 Abstammung
17206 Abstand
773 Abstecher
2395 Absteiger
736 Absterben
12111 Abstieg
803 Abstiegskampf
623 Abstiegsplatz
933 Abstiegsrunde
6027 Abstimmung
943 Abstimmungen
622 Abstinenz
436 Abstrakten
1253 Abstraktion
473 Abstufung
465 Abstufungen
2742 Absturz
1051 Abstände
4953 Abständen
12606 Abt
11546 Abtei
447 Abteien
409 Abteil
30596 Abteilung
6762 Abteilungen
2775 Abteilungsleiter
1527 Abtes
422 Abteufen
577 Abtragung
1300 Abtransport
968 Abtreibung
1490 Abtrennung
1305 Abtretung
478 Abwahl
2011 Abwanderung
1139 Abwandlung
628 Abwandlungen
1269 Abwasser
666 Abwechslung
5798 Abwehr
2910 Abwehrspieler
2572 Abweichung
3304 Abweichungen
662 Abwendung
703 Abwertung
5293 Abwesenheit
1907 Abwicklung
590 Abwurf
455 Abwägung
477 Abwärme
905 Abwässer
2162 Abzeichen
5412 Abzug
1394 Abzweigung
718 Accessoires
418 Aceton
847 Ach
755 Achilles
1769 Achim
6344 Achse
534 Achseln
4199 Achsen
809 Achsenmächte
876 Achsfolge
426 Achslast
2131 Acht
1014 Achte
614 Achtel
5031 Achtelfinale
3133 Achter
824 Achterbahn
1377 Achtung
523 Achtungserfolg
490 Achtziger
413 Achtzigjährigen
2657 Acker
4864 Ackerbau
1048 Ackerfläche
826 Ackerflächen
2083 Ackerland
1345 Ackermann
552 Acta
3424 Action
1125 Actionfilm
966 Ad
1121 Ada
12949 Adam
6382 Adams
669 Adapter
2221 Adaption
617 Adaptionen
1693 Addition
7343 Adel
1105 Adele
1250 Adelige
1819 Adeligen
691 Adeliger
4128 Adels
3472 Adelsfamilie
1352 Adelsfamilien
5550 Adelsgeschlecht
746 Adelsgeschlechter
423 Adelsgeschlechtes
1917 Adelsgeschlechts
540 Adelssitz
2918 Adelsstand
1315 Adelstitel
2055 Adenauer
405 Adenauers
513 Ader
1150 Adern
1465 Adjektiv
515 Adjektive
2392 Adjutant
605 Adjutanten
9756 Adler
715 Adlerorden
798 Adlers
1789 Adlige
3031 Adligen
1536 Adliger
4201 Administration
1037 Administrative
2439 Administrator
419 Administratoren
7306 Admiral
1577 Admiralität
1253 Admirals
1047 Adobe
24122 Adolf
558 Adolfs
3596 Adolph
1086 Adoption
553 Adoptivsohn
568 Adorno
446 Adrenalin
657 Adressaten
586 Adressbuch
4479 Adresse
1504 Adressen
2149 Adria
2948 Adrian
435 Adrianopel
514 Advent
916 Advokat
426 Advokaten
836 Aerodynamik
478 Affe
2009 Affen
986 Affinität
5158 Affäre
827 Affären
6247 Afghanistan
925 Afghanistans
16049 Afrika
673 Afrikameisterschaft
1153 Afrikaner
971 Afrikanische
1293 Afrikanischen
3725 Afrikas
1697 Afroamerikaner
3911 Afroamerikanern
1637 After
1839 Afterflosse
836 Agave
1027 Agenda
4239 Agent
3569 Agenten
608 Agentin
3651 Agentur
935 Agenturen
532 Agfa
1713 Agglomeration
537 Aggregat
729 Aggregate
941 Aggression
684 Aggressivität
656 Agios
1012 Agitation
564 Agrarpolitik
427 Agrarwirtschaft
490 Agrarwissenschaften
409 Agrarwissenschaftler
1092 Ahlen
1385 Ahnen
580 Ahnung
705 Ahorn
624 Aids
452 Airbags
2397 Airbus
841 Airline
6313 Airlines
42475 Akademie
1749 Akademien
1009 Akademiker
970 Akademische
1797 Akademischen
649 Akademischer
607 Akkord
751 Akkorde
508 Akkorden
1235 Akkordeon
666 Akkreditierung
561 Akku
432 Akkumulation
677 Akkumulatoren
548 Akkus
471 Akkusativ
1304 Akronym
1090 Akropolis
4301 Akt
2195 Akte
4776 Akten
449 Aktenzeichen
418 Aktes
826 Akteur
2913 Akteure
1119 Akteuren
1319 Aktie
5667 Aktien
6721 Aktiengesellschaft
707 Aktiengesellschaften
747 Aktienindex
799 Aktienmehrheit
12396 Aktion
7585 Aktionen
449 Aktionär
1215 Aktionäre
404 Aktionären
437 Aktiv
659 Aktive
942 Aktiven
571 Aktiver
2107 Aktivierung
1511 Aktivist
2097 Aktivisten
441 Aktivistin
6191 Aktivität
18711 Aktivitäten
747 Aktualisierung
763 Aktualität
1350 Akustik
1518 Akzent
1322 Akzente
2658 Akzeptanz
1295 Alarm
5202 Alaska
851 Alaskas
2762 Alb
2536 Alba
1302 Albaner
3799 Albanien
501 Albanisch
665 Albatros
19708 Alben
23863 Albert
1631 Albert-Ludwigs-Universität
449 Alberts
1288 Albion
14404 Albrecht
1024 Albrechts
96301 Album
866 Album-Charts
13156 Albums
600 Alchemie
745 Alemannen
6080 Alex
34244 Alexander
954 Alexanderplatz
2355 Alexanders
2767 Alexandra
4868 Alexandria
777 Alf
2236 Alfa
3559 Alfons
20742 Alfred
2216 Algebra
2041 Algen
4244 Algerien
531 Algeriens
1819 Algier
1771 Algorithmen
2950 Algorithmus
400 Alias
485 Alibi
6070 Alice
6099 Alkohol
945 Alkoholgehalt
623 Alkoholiker
756 Alkoholismus
685 Alkoholkonsum
10950 All
2766 All-Star
597 All-Star-Team
443 All-Stars
514 Allah
1961 Alle
3973 Allee
663 Alleen
841 Allegorie
571 Allegorien
592 Allegro
500 Allein
864 Alleingang
425 Alleinherrschaft
5937 Allen
1412 Aller
489 Allergien
895 Allerheiligen
2126 Alles
567 Allesfresser
424 Allgemeinbildung
6924 Allgemeine
18827 Allgemeinen
510 Allgemeiner
454 Allgemeines
1618 Allgemeinheit
2730 Allgäu
6559 Allianz
482 Allianzen
471 Alliierte
9796 Alliierten
1424 Allradantrieb
5093 Alltag
1091 Alltags
883 Alltagsleben
709 Alltagssprache
1208 Alm
506 Almanach
410 Almen
475 Almosen
839 Alp
14142 Alpen
748 Alpenraum
494 Alpenverein
814 Alpenvereins
901 Alpenvorland
2110 Alpha
3027 Alphabet
1356 Alphabets
1400 Alpine
901 Alpinen
594 Alster
5478 Alt
12219 Altar
459 Altaraufsatz
1791 Altarbild
455 Altarbilder
678 Altarblatt
1995 Altarraum
1945 Altars
400 Altartisch
674 Altbau
986 Altbischof
1685 Altdorf
12744 Alte
18056 Alten
1728 Altenberg
3077 Altenburg
698 Altendorf
893 Altenheim
1334 Altenkirchen
521 Altenstadt
76384 Alter
463 Altern
9006 Alternative
2565 Alternativen
698 Alternativtitel
4133 Alters
834 Altersgrenze
1321 Altersgruppe
1041 Altersgruppen
1497 Altersgründen
905 Altersheim
1359 Altersklasse
1007 Altersklassen
516 Altersstufen
458 Altersversorgung
1779 Altertum
794 Altertums
840 Altertumskunde
574 Altertumswissenschaft
418 Altertumswissenschaften
485 Alterung
1455 Altes
473 Altgriechisch
424 Altgriechischen
471 Altheim
1011 Althistoriker
421 Althochdeutschen
483 Altkreis
610 Altmann
1723 Altmark
3364 Altona
863 Altphilologe
1577 Altpreußischen
515 Altsaxophon
16957 Altstadt
748 Altsteinzeit
457 Altstädter
2229 Altäre
595 Altären
4463 Aluminium
405 Alzheimer
13373 Am
2922 Amadeus
2975 Amateur
583 Amateurbereich
2811 Amateure
1212 Amateuren
1513 Amateurliga
843 Amateurmannschaft
645 Amateurmeisterschaft
414 Amateurverein
890 Amazon
1453 Amazonas
411 Amazonen
694 Ambiente
1711 Ambitionen
1929 Ameisen
15948 Amerika
8126 Amerikaner
670 Amerikanerin
2132 Amerikanern
1637 Amerikanische
4541 Amerikanischen
485 Amerikanischer
2472 Amerikas
410 Ami
877 Aminosäure
2203 Aminosäuren
558 Amme
1548 Ammoniak
1173 Amnestie
934 Amnesty
474 Amoklauf
844 Amor
1813 Amphibien
904 Amphitheater
1118 Amplitude
446 Amrum
15669 Amsterdam
1833 Amsterdamer
97295 Amt
10520 Amtes
2346 Amtmann
2707 Amts
2571 Amtsantritt
909 Amtsbezeichnung
3274 Amtsbezirk
554 Amtsbezirks
775 Amtsblatt
477 Amtsdauer
1127 Amtseinführung
454 Amtsenthebung
756 Amtsführung
6263 Amtsgericht
490 Amtsgerichte
601 Amtsgerichten
1243 Amtsgerichts
1174 Amtsgeschäfte
449 Amtshandlungen
522 Amtshauptmann
900 Amtshauptmannschaft
861 Amtshaus
2346 Amtsinhaber
518 Amtsleiter
1287 Amtsperiode
631 Amtsrichter
1883 Amtssitz
1983 Amtssprache
471 Amtssprachen
1048 Amtsträger
523 Amtsvorgänger
23342 Amtszeit
1218 Amtszeiten
428 Amtsübernahme
1666 Analogie
425 Analogien
11279 Analyse
3331 Analysen
2220 Analysis
536 Analytik
487 Ananas
617 Anarchie
950 Anarchismus
492 Anarchist
1195 Anarchisten
1301 Anatolien
3411 Anatomie
9484 Anbau
766 Anbaufläche
509 Anbauflächen
615 Anbaugebiet
436 Anbaus
1564 Anbauten
723 Anbeginn
1158 Anbetracht
1419 Anbetung
5628 Anbieter
1277 Anbietern
5609 Anbindung
1521 Anblick
489 Anbringen
668 Anbringung
571 Andacht
1027 Andalusien
2218 Anden
1151 Anden-Staat
2578 Andenken
1450 Andere
1563 Anderem
2411 Anderen
2700 Anders
587 Andeutungen
1111 Andorra
1171 Andre
5567 Andrea
18857 Andreas
691 Andres
1052 Androhung
494 Andromeda
5276 Andy
620 Aneignung
451 Aneinanderreihung
816 Anekdote
973 Anekdoten
18129 Anerkennung
430 Anfahren
661 Anfall
95225 Anfang
1133 Anfangs
918 Anfangsbuchstaben
1809 Anfangsjahren
1046 Anfangsphase
2434 Anfangszeit
824 Anfeindungen
1045 Anfertigung
752 Anflug
1428 Anforderung
12796 Anforderungen
2723 Anfrage
1594 Anfragen
509 Anfälle
526 Anfälligkeit
3287 Anfänge
3064 Anfängen
1192 Anfänger
7382 Anführer
5868 Angabe
33080 Angaben
18549 Angebot
5233 Angebote
1358 Angeboten
781 Angebots
8769 Angehörige
10000 Angehörigen
3392 Angehöriger
1242 Angeklagte
3189 Angeklagten
3552 Angel
2917 Angela
2583 Angelegenheit
10225 Angelegenheiten
27112 Angeles
1294 Angelika
1473 Angeln
528 Angelsachsen
900 Angesicht
4237 Angestellte
4468 Angestellten
4228 Angestellter
2314 Angewandte
728 Angleichung
563 Angler
937 Angliederung
418 Anglikanischen
1852 Anglistik
3004 Angola
6143 Angreifer
722 Angreifern
24313 Angriff
8179 Angriffe
4110 Angriffen
406 Angriffes
2416 Angriffs
9754 Angst
2267 Anhalt
668 Anhalt-Dessau
902 Anhalter
460 Anhaltspunkt
1041 Anhaltspunkte
2836 Anhang
698 Anhebung
5137 Anhieb
415 Anhängen
16430 Anhänger
4973 Anhängern
960 Anhängerschaft
715 Anhängsel
435 Anhäufung
4413 Anhöhe
884 Anhöhen
1132 Anhörung
2120 Animation
714 Animationen
766 Animationsfilm
990 Anionen
1723 Anita
1147 Anja
3063 Ankara
1686 Ankauf
775 Anke
2846 Anker
4784 Anklage
578 Anklagen
440 Anklageschrift
1711 Anklang
521 Anklicken
569 Ankläger
592 Anklänge
461 Anknüpfung
7984 Ankunft
430 Ankäufe
1909 Ankündigung
41059 Anlage
18135 Anlagen
575 Anlagenbau
11292 Anlass
1996 Anlauf
775 Anlaufstelle
1356 Anlegen
1610 Anleger
693 Anlegestelle
7728 Anlehnung
593 Anleihe
1801 Anleihen
2621 Anleitung
546 Anleitungen
4916 Anliegen
984 Anlässe
2789 Anlässen
1547 Anmeldung
862 Anmerkung
1255 Anmerkungen
406 Anmut
25443 Anna
10349 Annahme
1987 Annahmen
1699 Annalen
688 Annas
7956 Anne
573 Anneliese
1096 Annemarie
1760 Annette
2620 Annexion
2356 Annie
981 Anno
3424 Annäherung
813 Anode
440 Anomalie
448 Anomalien
617 Anonymität
10460 Anordnung
1227 Anordnungen
5573 Anpassung
1717 Anpassungen
1570 Anraten
484 Anrecht
1152 Anrede
4336 Anregung
1924 Anregungen
765 Anreicherung
606 Anreise
921 Anreiz
578 Anreize
1329 Anruf
451 Anrufe
493 Anrufer
458 Anrufung
503 Ansage
1443 Ansammlung
489 Ansammlungen
10072 Ansatz
756 Ansatzes
4011 Ansbach
1254 Anschaffung
402 Anschaffungskosten
1179 Anschauung
955 Anschauungen
1480 Anschein
3871 Anschlag
412 Anschlags
41652 Anschluss
480 Anschlussbahn
567 Anschlusses
727 Anschlussgleis
4767 Anschlussstelle
1187 Anschlussstellen
1830 Anschläge
1236 Anschlägen
1602 Anschlüsse
521 Anschlüssen
668 Anschrift
1385 Anschuldigungen
6621 Ansehen
414 Ansehens
14478 Ansicht
6671 Ansichten
8050 Ansiedlung
1993 Ansiedlungen
816 Ansinnen
481 Ansitz
404 Anspannung
3641 Anspielung
1760 Anspielungen
1408 Ansprache
413 Ansprachen
1247 Ansprechpartner
17430 Anspruch
540 Anspruchs
6760 Ansprüche
2213 Ansprüchen
5089 Anstalt
1791 Anstalten
7642 Anstellung
453 Anstellungen
575 Ansteuerung
6583 Anstieg
460 Anstiege
413 Anstiftung
1947 Anstoß
883 Anstrengung
2931 Anstrengungen
1220 Anstrich
580 Ansturm
5356 Ansätze
1769 Ansätzen
2474 Antarktis
36885 Anteil
9206 Anteile
1479 Anteilen
934 Anteilnahme
1124 Anteils
950 Anteilseigner
2924 Antenne
1872 Antennen
1394 Anthologie
1390 Anthologien
732 Anthropologe
524 Anthropologen
2996 Anthropologie
1208 Antibiotika
470 Antichrist
400 Antidepressiva
458 Antifaschisten
429 Antigen
454 Antigene
11030 Antike
1971 Antikörper
575 Antikörpern
1144 Antillen
502 Antiquitäten
475 Antisemiten
3046 Antisemitismus
605 Antje
461 Antlitz
20022 Anton
12632 Antonio
4274 Antonius
9934 Antrag
631 Antragsteller
8151 Antrieb
808 Antriebe
579 Antriebs
510 Antriebsanlage
502 Antriebstechnik
813 Antritt
474 Antrittsrede
1400 Anträge
6010 Antwerpen
7272 Antwort
2433 Antworten
861 Anwachsen
10106 Anwalt
649 Anwalts
1076 Anwaltskammer
1536 Anwaltskanzlei
3577 Anweisung
2651 Anweisungen
549 Anwendbarkeit
2470 Anwender
493 Anwendern
25788 Anwendung
8614 Anwendungen
828 Anwendungsbereich
410 Anwendungsfall
428 Anwendungsgebiet
445 Anwendungsgebiete
516 Anwerbung
9764 Anwesen
1234 Anwesenden
7187 Anwesenheit
1144 Anwesens
1569 Anwohner
671 Anwohnern
1284 Anwälte
447 Anwälten
653 Anwältin
962 Anwärter
47644 Anzahl
2903 Anzeichen
3603 Anzeige
2026 Anzeigen
1139 Anzeiger
433 Anziehung
794 Anziehungskraft
1037 Anziehungspunkt
1045 Anzug
572 Anästhesie
1262 Apache
762 Apachen
1052 Apartheid
618 Apartment
1409 Apfel
438 Aphorismen
770 Aphrodite
754 Apokalypse
2647 Apollo
4647 Apostel
542 Apostelgeschichte
789 Aposteln
842 Apostels
3828 Apostolische
6814 Apostolischen
1985 Apostolischer
623 Apostolisches
2644 Apotheke
1008 Apotheken
2453 Apotheker
571 Apothekers
637 Appalachen
1199 Apparat
731 Apparate
439 Apparatur
616 Appartement
1022 Appell
528 Appellationsgericht
410 Applaus
4261 Apple
445 Apples
799 Applikation
823 Applikationen
1092 Approbation
65290 April
844 Apsiden
4758 Apsis
1138 Apulien
675 Aquarell
1413 Aquarelle
525 Aquarellen
641 Aquarien
1394 Aquarium
1919 Aquitanien
626 Aquädukt
1144 Ar
2886 Araber
1218 Arabern
1035 Arabien
1757 Arabisch
1715 Arabische
4099 Arabischen
402 Arafat
97387 Arbeit
54380 Arbeiten
16728 Arbeiter
2781 Arbeiterbewegung
757 Arbeiterfamilie
903 Arbeiterinnen
455 Arbeiterjugend
498 Arbeiterkammer
1405 Arbeiterklasse
3410 Arbeitern
2824 Arbeiterpartei
550 Arbeiters
1233 Arbeiterschaft
622 Arbeitersiedlung
889 Arbeiterwohlfahrt
8638 Arbeitgeber
968 Arbeitgebern
786 Arbeitgebers
5041 Arbeitnehmer
976 Arbeitnehmern
460 Arbeitnehmers
480 Arbeitsamt
1775 Arbeitsbedingungen
623 Arbeitsbereich
575 Arbeitsdienst
488 Arbeitseinsatz
497 Arbeitsfront
672 Arbeitsgebiet
445 Arbeitsgebiete
6464 Arbeitsgemeinschaft
893 Arbeitsgemeinschaften
892 Arbeitsgericht
3878 Arbeitsgruppe
1303 Arbeitsgruppen
1299 Arbeitskraft
2319 Arbeitskreis
1238 Arbeitskreises
2426 Arbeitskräfte
1083 Arbeitskräften
1208 Arbeitslager
496 Arbeitsleistung
629 Arbeitslose
772 Arbeitslosen
622 Arbeitslosengeld
1129 Arbeitslosenquote
432 Arbeitslosenversicherung
3768 Arbeitslosigkeit
1473 Arbeitsmarkt
1666 Arbeitsort
2863 Arbeitsplatz
5526 Arbeitsplätze
1425 Arbeitsplätzen
953 Arbeitsrecht
505 Arbeitsschutz
575 Arbeitsschwerpunkt
589 Arbeitsschwerpunkte
944 Arbeitsspeicher
1285 Arbeitsstelle
903 Arbeitsstätten
906 Arbeitsteilung
981 Arbeitstitel
640 Arbeitsverhältnis
424 Arbeitsvertrag
1787 Arbeitsweise
828 Arbeitswelt
1584 Arbeitszeit
545 Arbeitszeiten
546 Arbeitszimmer
1010 Arche
442 Archimedes
1419 Archipel
895 Archipels
17079 Architekt
26774 Architekten
423 Architektenwettbewerb
662 Architektin
19260 Architektur
2402 Architekturbüro
683 Architekturbüros
453 Architekturen
401 Architekturgeschichte
545 Architekturstudium
7769 Archiv
623 Archivalien
1942 Archive
1437 Archiven
615 Archivierung
1344 Archivs
2696 Archäologe
3441 Archäologen
6971 Archäologie
520 Archäologin
835 Archäologische
2992 Archäologischen
8449 Areal
908 Areale
1499 Areals
7581 Arena
13141 Argentinien
2402 Argentiniens
3041 Argument
1911 Argumentation
2315 Argumente
883 Argumenten
604 Ariadne
937 Ariane
1377 Arie
827 Arien
637 Aristokraten
1039 Aristokratie
4240 Aristoteles
666 Arithmetik
6055 Arizona
2099 Arkaden
3936 Arkansas
1272 Arktis
418 Arktischen
7425 Arm
741 Armada
434 Armaturen
796 Armaturenbrett
482 Armbrust
5065 Arme
57376 Armee
888 Armeekorps
3687 Armeen
6123 Armen
544 Armenhaus
3295 Armenien
1527 Armenier
849 Armeniern
540 Armenischen
467 Armes
1492 Arms
471 Armschwingen
3347 Armstrong
5209 Armut
5350 Armutsgrenze
1549 Arndt
2253 Arno
11063 Arnold
3477 Arnsberg
1006 Aroma
589 Aromen
1210 Arosa
1409 Arrangement
2173 Arrangements
597 Array
744 Arrest
10044 Arrondissement
2128 Arrondissements
940 Arsen
3609 Arsenal
146126 Art
418 Artaxerxes
1510 Arte
1846 Artefakte
584 Artefakten
956 Artemis
64203 Arten
400 Artenschutz
1306 Artenvielfalt
501 Arterien
1481 Artgenossen
641 Arthritis
14386 Arthur
35036 Artikel
3913 Artikeln
1819 Artikels
6487 Artillerie
744 Artilleriebeschuss
574 Artilleriefeuer
2389 Artist
471 Artisten
568 Artname
868 Artus
2350 Arzneimittel
1043 Arzneimitteln
1328 Arzneistoff
580 Arzneistoffe
19378 Arzt
3005 Arztes
436 Arztpraxen
534 Arztpraxis
3636 Aschaffenburg
3570 Asche
433 Aschermittwoch
572 Ascona
2927 Aserbaidschan
413 Aserbaidschans
4581 Asiaten
492 Asiatische
574 Asiatischen
11077 Asien
786 Asienmeisterschaft
405 Asienmeisterschaften
2086 Asiens
846 Asienspielen
520 Askese
5382 Aspekt
8152 Aspekte
3046 Aspekten
977 Asphalt
539 Ass
445 Asse
1937 Assessor
858 Assimilation
1138 Assisi
15385 Assistent
2698 Assistenten
2172 Assistentin
548 Assistenz
1041 Assistenzarzt
899 Assistenzprofessor
1990 Assistenztrainer
1368 Assoziation
988 Assoziationen
432 Assyrien
2156 Ast
773 Asterix
7501 Asteroid
2525 Asteroiden
706 Asthma
425 Astoria
1064 Astrid
1081 Astrologie
811 Astronaut
1563 Astronauten
2814 Astronom
6134 Astronomen
4799 Astronomie
562 Astronomische
950 Astronomischen
839 Astrophysik
414 Astrophysiker
1654 Asyl
1650 Atari
6803 Atelier
1396 Ateliers
944 Atem
468 Atemluft
436 Atemnot
830 Atemwege
573 Atheismus
421 Atheisten
16521 Athen
807 Athene
1813 Athens
1122 Athlet
5394 Athleten
621 Athletin
718 Athletinnen
6180 Atlanta
432 Atlanten
5691 Atlantik
1629 Atlantikküste
590 Atlantiks
2088 Atlantis
1528 Atlantischen
3642 Atlas
7658 Atmosphäre
1398 Atmung
1319 Atoll
437 Atolls
1456 Atom
979 Atombombe
1865 Atome
1034 Atomen
411 Atomenergie
447 Atoms
971 Atomwaffen
512 Attaché
1198 Attacke
1186 Attacken
4507 Attentat
517 Attentate
738 Attentats
1230 Attentäter
990 Attika
1031 Attila
1903 Attraktion
1540 Attraktionen
1517 Attraktivität
1446 Attribut
1779 Attribute
834 Attributen
2714 Au
3326 Audi
692 Audienz
859 Auditorium
813 Audrey
3806 Aue
655 Auen
2669 Aufarbeitung
26500 Aufbau
1353 Aufbaus
609 Aufbaustudium
2599 Aufbauten
1461 Aufbereitung
1258 Aufbewahrung
1281 Aufbruch
931 Aufdeckung
488 Aufdruck
1168 Aufeinandertreffen
9521 Aufenthalt
1259 Aufenthalte
1104 Aufenthalten
1421 Aufenthaltes
1982 Aufenthalts
1575 Aufenthaltsort
2303 Auferstehung
835 Auferstehungskirche
772 Auffahrt
11351 Auffassung
1975 Auffassungen
905 Auffinden
667 Auffindung
2499 Aufforderung
407 Aufforstung
411 Auffälligkeiten
7798 Aufführung
5033 Aufführungen
865 Aufführungspraxis
32899 Aufgabe
31100 Aufgaben
1052 Aufgabenbereich
641 Aufgabengebiet
743 Aufgabenstellung
877 Aufgang
4760 Aufgebot
638 Aufgrund
9426 Aufhebung
726 Aufhängung
476 Aufkleber
1293 Aufklärer
9813 Aufklärung
3690 Aufkommen
534 Aufladung
14313 Auflage
6414 Auflagen
2259 Auflistung
25596 Auflösung
442 Auflösungen
471 Aufmachung
12841 Aufmerksamkeit
25411 Aufnahme
21547 Aufnahmen
798 Aufnahmeprüfung
783 Aufprall
898 Aufpreis
1974 Aufrechterhaltung
918 Aufregung
3369 Aufruf
570 Aufrufe
1162 Aufruhr
1172 Aufrüstung
4044 Aufsatz
831 Aufschlag
1684 Aufschluss
2635 Aufschrift
7809 Aufschwung
412 Aufschwungs
5967 Aufsehen
866 Aufseher
416 Aufsetzen
5631 Aufsicht
724 Aufsichtsbehörde
3971 Aufsichtsrat
1418 Aufsichtsrates
1059 Aufsichtsrats
627 Aufsichtsratsmitglied
1359 Aufsichtsratsvorsitzender
430 Aufsichtsräten
1025 Aufspaltung
10994 Aufstand
2326 Aufstandes
1541 Aufstands
4714 Aufsteiger
629 Aufstellen
7253 Aufstellung
26844 Aufstieg
717 Aufstiegs
3014 Aufstiegsrunde
468 Aufstiegsspielen
1019 Aufstockung
1845 Aufstände
1289 Aufständen
688 Aufständische
3939 Aufständischen
3613 Aufsätze
1237 Aufsätzen
2274 Auftakt
958 Auftauchen
4981 Aufteilung
40035 Auftrag
634 Auftrage
3534 Auftraggeber
474 Auftraggebern
502 Auftrags
438 Auftragsarbeit
624 Auftragsarbeiten
7294 Auftreten
885 Auftretens
1848 Auftrieb
14236 Auftritt
11950 Auftritte
5175 Auftritten
582 Auftritts
5245 Aufträge
1158 Aufträgen
6188 Aufwand
1078 Aufwendungen
1350 Aufwertung
1880 Aufzeichnung
6371 Aufzeichnungen
878 Aufzucht
1562 Aufzug
1040 Aufzählung
911 Aufzüge
565 Aufzügen
12079 Auge
19980 Augen
563 Augenarzt
2294 Augenblick
430 Augenbrauen
659 Augenheilkunde
479 Augenhöhe
2004 Augenmerk
581 Augenzeuge
721 Augenzeugen
1689 Auges
15696 Augsburg
5632 Augsburger
88769 August
2301 Augustin
428 Augustiner-Chorherren
414 Augustinerkloster
647 Augusts
4412 Augustus
998 Auktion
605 Auktionen
461 Auktionshaus
1638 Aula
937 Aura
851 Aurel
2788 Aurich
7367 Aus
2567 Ausarbeitung
19053 Ausbau
1304 Ausbaus
679 Ausbaustufe
536 Ausbauten
1104 Ausbeute
2304 Ausbeutung
1413 Ausbilder
60216 Ausbildung
962 Ausbildungen
768 Ausbildungsberuf
1194 Ausbildungsstätte
512 Ausbildungsstätten
435 Ausbildungszeit
600 Ausbildungszentrum
620 Ausbleiben
1622 Ausblick
414 Ausblicke
4687 Ausbreitung
14418 Ausbruch
759 Ausbruchs
886 Ausbrüche
446 Ausbrüchen
4310 Auschwitz
837 Auschwitz-Birkenau
988 Ausdauer
8271 Ausdehnung
22336 Ausdruck
1054 Ausdrucks
673 Ausdrucksformen
588 Ausdrucksweise
1926 Ausdrücke
651 Ausdrücken
13126 Auseinandersetzung
14146 Auseinandersetzungen
1883 Ausfahrt
453 Ausfahrten
3186 Ausfall
418 Ausfallstraße
1167 Ausflug
442 Ausflugslokal
2216 Ausflugsziel
586 Ausfluss
984 Ausflüge
505 Ausformung
612 Ausfuhr
1064 Ausfälle
646 Ausfällen
12080 Ausführung
4234 Ausführungen
21723 Ausgabe
11711 Ausgaben
6298 Ausgang
430 Ausgangs
436 Ausgangslage
580 Ausgangsmaterial
7393 Ausgangspunkt
411 Ausgangsspannung
459 Ausgangsstoff
3188 Ausgestaltung
5460 Ausgleich
863 Ausgliederung
1711 Ausgrabung
8293 Ausgrabungen
780 Ausgrenzung
715 Ausgänge
463 Aushub
684 Aushängeschild
662 Auskommen
561 Auskopplung
3427 Auskunft
584 Auskünfte
537 Auslagerung
24235 Ausland
557 Auslandsreisen
1345 Auslastung
472 Auslauf
1278 Auslaufen
631 Ausleger
4019 Auslegung
416 Auslese
2997 Auslieferung
924 Auslosung
4252 Ausländer
925 Ausländeranteil
1154 Ausländern
4391 Ausläufer
2592 Ausläufern
410 Auslöschung
412 Auslösen
2586 Auslöser
818 Auslösung
4865 Ausmaß
1757 Ausmaße
655 Ausmaßen
510 Ausmaßes
23200 Ausnahme
1998 Ausnahmefällen
404 Ausnahmegenehmigung
5684 Ausnahmen
727 Ausnahmezustand
1478 Ausnutzung
3332 Ausprägung
1392 Ausprägungen
1417 Ausreise
458 Ausreißer
9046 Ausrichtung
827 Ausrottung
577 Ausruf
7692 Ausrüstung
468 Ausrüstungen
567 Ausrüstungsgegenstände
516 Aussaat
15219 Aussage
662 Aussagekraft
12997 Aussagen
659 Ausschaltung
504 Ausschau
7629 Ausscheiden
941 Ausscheidung
1045 Ausschlag
3477 Ausschluss
1270 Ausschnitt
994 Ausschnitte
2790 Ausschreibung
496 Ausschreibungen
2112 Ausschreitungen
9223 Ausschuss
4801 Ausschusses
1410 Ausschüsse
1381 Ausschüssen
642 Ausschüttung
8943 Aussehen
812 Aussehens
623 Aussetzung
5558 Aussicht
815 Aussichten
1709 Aussichtsplattform
1224 Aussichtspunkt
2560 Aussichtsturm
4453 Aussprache
1347 Ausspruch
12216 Ausstattung
507 Ausstattungen
954 Aussteller
21056 Ausstellung
12913 Ausstellungen
1032 Ausstellungsfläche
476 Ausstellungshalle
633 Ausstellungsraum
612 Ausstellungsräume
819 Ausstellungsstücke
6141 Aussterben
2668 Ausstieg
689 Ausstoß
4878 Ausstrahlung
887 Aussöhnung
8921 Austausch
573 Austern
3375 Austragung
451 Austragungen
2954 Austragungsort
406 Austragungsorte
27438 Australien
1708 Australier
861 Australische
921 Australischen
3028 Austritt
17262 Auswahl
779 Auswahlmannschaft
548 Auswahlmannschaften
546 Auswahlverfahren
1323 Auswanderer
424 Auswanderern
2372 Auswanderung
1227 Ausweg
489 Ausweichen
774 Ausweis
1936 Ausweisung
3029 Ausweitung
4319 Auswertung
544 Auswertungen
1756 Auswirkung
11319 Auswirkungen
1830 Auswärtige
5099 Auswärtigen
1766 Auswärtsspiel
571 Auswärtstorregel
464 Auswüchse
976 Auszahlung
16688 Auszeichnung
9095 Auszeichnungen
872 Auszeit
883 Auszubildende
731 Auszubildenden
2142 Auszug
788 Auszüge
3669 Ausübung
406 Authentifizierung
1418 Authentizität
14957 Auto
14431 Autobahn
756 Autobahnanschluss
485 Autobahnanschlussstelle
409 Autobahnbrücke
832 Autobahndreieck
3198 Autobahnen
1394 Autobahnkreuz
600 Autobahnnetz
408 Autobahnring
430 Autobahnzubringer
2166 Autobiografie
2202 Autobiographie
1423 Autodidakt
760 Autofahrer
400 Autohersteller
637 Automarke
1367 Automaten
479 Automatik
721 Automatikgetriebe
522 Automation
833 Automatisierung
424 Automatisierungstechnik
1938 Automobil
465 Automobilbau
2479 Automobile
3562 Automobilen
2363 Automobilhersteller
1023 Automobilherstellers
1553 Automobilindustrie
418 Automobilmarke
698 Automobilrennfahrer
1095 Automotive
1183 Autonome
4395 Autonomen
4090 Autonomie
34872 Autor
25067 Autoren
1603 Autorenkürzel
700 Autorennen
1006 Autorennfahrer
8045 Autorin
1020 Autorinnen
4365 Autorität
1065 Autoritäten
801 Autoroute
4918 Autors
432 Autorschaft
6482 Autos
2428 Autounfall
741 Autoverkehr
1710 Auvergne
2074 Außen
407 Außenanlagen
758 Außenaufnahmen
1066 Außenbereich
754 Außenfassade
1093 Außenhandel
676 Außenhaut
1508 Außenlager
774 Außenmauer
1144 Außenmauern
6985 Außenminister
2734 Außenministerium
1091 Außenministeriums
986 Außenministers
3174 Außenpolitik
602 Außenposten
538 Außenrand
498 Außenring
2638 Außenseite
582 Außenseiten
1654 Außenseiter
3228 Außenstelle
849 Außenstellen
692 Außenverteidiger
1328 Außenwand
1811 Außenwelt
1047 Außenwände
452 Außenwänden
723 Außerdem
412 Außerirdische
755 Außerirdischen
1895 Avantgarde
3341 Aviv
4443 Axel
445 Axiome
1162 Axt
1115 Azoren
916 Azteken
1310 Azur
527 B-Charts
492 B-Dur
495 B-Jugend
474 B-Mannschaft
2074 B-Seite
1338 BASF
548 BASIC
6573 BBC
6776 BGB
1214 BGH
1954 BIP
458 BKA
6634 BMW
603 BND
1778 BP
2183 BRD
519 BUND
1181 BVG
564 Babel
5013 Baby
2199 Babylon
803 Babys
21390 Bach
413 Bachbett
9996 Bachelor
1248 Bachelor-Abschluss
3288 Baches
866 Bachlauf
1296 Bachmann
2709 Bachs
3386 Back
470 Backbord
771 Backen
563 Backenzähne
866 Backhaus
476 Backofen
2143 Backstein
1093 Backsteinbau
943 Backsteinen
532 Backwaren
51881 Bad
672 Bade
637 Badeanstalt
657 Badehaus
14764 Baden
3833 Baden-Baden
21467 Baden-Württemberg
1073 Baden-Württembergs
793 Badeort
575 Bades
751 Badesee
639 Badewanne
604 Badezimmer
1072 Badische
2523 Badischen
6337 Badminton
2908 Bagdad
527 Bagger
1410 Bahamas
28684 Bahn
1016 Bahnanlagen
1537 Bahnanschluss
660 Bahnbau
569 Bahnbetrieb
1248 Bahnbetriebswerk
827 Bahndamm
5425 Bahnen
431 Bahnexzentrizität
1677 Bahngesellschaft
914 Bahngesellschaften
59120 Bahnhof
1594 Bahnhofes
6597 Bahnhofs
2594 Bahnhofsgebäude
1464 Bahnhofstraße
647 Bahnhofsvorplatz
4821 Bahnhöfe
2990 Bahnhöfen
5361 Bahnlinie
850 Bahnlinien
588 Bahnnetz
473 Bahnradsportler
3030 Bahnstation
2858 Bahnsteig
2500 Bahnsteige
1056 Bahnsteigen
455 Bahnsteiggleise
26223 Bahnstrecke
1804 Bahnstrecken
1059 Bahntrasse
948 Bahnverbindung
661 Bahnverkehr
908 Bahnübergang
498 Bahnübergänge
1230 Bahrain
458 Bai
5881 Bakterien
1115 Bakterium
1199 Balance
751 Balearen
962 Bali
3278 Balkan
837 Balkanhalbinsel
3667 Balken
1936 Balkon
434 Balkone
9009 Ball
2290 Ballade
1466 Balladen
441 Ballast
442 Balles
2995 Ballett
443 Balletts
459 Ballhaus
1239 Ballon
807 Ballons
619 Balls
467 Ballsaal
977 Ballungsraum
1746 Baltikum
1085 Baltischen
8250 Bamberg
555 Bambi
775 Bambus
1136 Bananen
137511 Band
3221 Bandbreite
5572 Bande
983 Banden
1701 Bandes
572 Bandgeschichte
1108 Banditen
479 Bandkollegen
912 Bandmitglied
3212 Bandmitglieder
712 Bandmitgliedern
855 Bandname
982 Bandnamen
14751 Bands
1925 Bang
3565 Bangkok
1407 Bangladesch
914 Banjo
29326 Bank
7707 Banken
416 Bankett
555 Bankgeschäft
1569 Bankhaus
540 Bankhauses
2975 Bankier
1530 Bankiers
749 Bankkaufmann
1695 Banknoten
1043 Bankrott
500 Bankwesen
1758 Bann
2339 Banner
561 Bantu
3731 Baptist
1165 Baptisten
5421 Bar
667 Baracke
1265 Baracken
822 Barbados
9979 Barbara
826 Barbaren
1900 Barbarossa
640 Barbier
13467 Barcelona
964 Bargeld
1079 Bariton
565 Bark
693 Barmherzigen
671 Barmherzigkeit
5299 Barock
451 Barockschloss
777 Barockstil
1262 Barockzeit
8755 Baron
962 Barone
782 Baronin
1225 Barons
839 Barrel
675 Barren
947 Barriere
562 Barrieren
456 Barrikaden
692 Barrio
570 Barrios
2232 Bars
2664 Bart
1134 Bartholdy
957 Barton
1321 Basalt
4621 Base
2610 Baseball
697 Baseballspieler
21121 Basel
835 Basel-Landschaft
750 Basel-Stadt
2356 Basen
1143 Basic
5619 Basilika
41639 Basis
429 Basislager
905 Baskenland
4795 Basketball
900 Basketball-Bundesliga
2127 Basketballspieler
4479 Basler
10429 Bass
561 Bassgitarre
427 Bassin
5552 Bassist
3043 Bassisten
505 Bastard
541 Bastille
1147 Bastion
1011 Bastionen
500 Bat
3102 Bataillon
1510 Bataillone
676 Bataillonen
922 Bataillons
428 Bataillonskommandeur
2414 Batterie
2228 Batterien
105552 Bau
1554 Bauabschnitt
558 Bauabschnitten
606 Bauakademie
9780 Bauarbeiten
969 Bauarbeiter
5894 Bauart
742 Bauarten
415 Bauauftrag
780 Bauausführung
436 Baubeamter
2896 Baubeginn
4586 Bauch
1034 Bauchflossen
1101 Bauchseite
527 Bauchspeicheldrüse
2430 Baudenkmal
4134 Baudenkmäler
450 Baudenkmälern
575 Baue
435 Bauelement
1234 Bauelemente
515 Bauelementen
1653 Bauen
8056 Bauer
21059 Bauern
424 Bauernaufstand
1535 Bauerndorf
790 Bauernfamilie
860 Bauernhaus
3031 Bauernhof
963 Bauernhäuser
1660 Bauernhöfe
838 Bauernhöfen
1315 Bauernkrieg
471 Bauernpartei
882 Bauernschaft
841 Baues
866 Baufirma
2551 Bauform
1254 Bauformen
1468 Baufälligkeit
771 Baugenehmigung
900 Baugeschichte
597 Baugewerbe
461 Baugrube
645 Baugrund
629 Baugruppe
975 Baugruppen
859 Bauhauptgewerbe
1201 Bauhaus
415 Bauhauses
1163 Bauherr
1024 Bauherren
764 Bauherrn
690 Bauholz
439 Bauindustrie
1436 Bauingenieur
993 Bauingenieurwesen
1564 Baujahr
3742 Baukosten
1507 Baukunst
1544 Baukörper
706 Bauland
595 Bauleiter
1179 Bauleitung
11293 Baum
1954 Baumann
631 Baumart
1106 Baumarten
510 Baumaschinen
2704 Baumaterial
929 Baumaterialien
527 Baumaßnahme
2404 Baumaßnahmen
1216 Baumbestand
6898 Baumeister
1084 Baumeisters
1356 Baumes
1166 Baumgarten
501 Baumgrenze
594 Baumhöhlen
419 Baumkronen
408 Baums
449 Baumschule
437 Baumstamm
520 Baumstämme
680 Baumstämmen
2509 Baumwolle
521 Baumwollspinnerei
996 Baunummer
1898 Bauphase
754 Bauphasen
491 Bauplan
971 Bauplatz
649 Baupläne
627 Bauprojekt
557 Bauprojekte
825 Baurat
469 Baurecht
12513 Baureihe
2098 Baureihen
4047 Baus
415 Bausch
431 Bausparkasse
816 Baustein
894 Bausteine
1835 Baustelle
752 Baustellen
2132 Baustil
609 Baustoff
733 Baustoffe
3004 Bausubstanz
480 Bautechnik
1971 Bauteil
4169 Bauteile
1551 Bauteilen
552 Bauteils
13512 Bauten
1946 Bautätigkeit
1099 Bauunternehmen
1147 Bauunternehmer
1660 Bauvorhaben
5980 Bauweise
12517 Bauwerk
6245 Bauwerke
2132 Bauwerken
562 Bauwerkes
2267 Bauwerks
2133 Bauwesen
589 Bauwirtschaft
6092 Bauzeit
1255 Bavaria
5705 Bayer
6069 Bayerische
19381 Bayerischen
1293 Bayerischer
403 Bayerisches
45897 Bayern
2751 Bayerns
455 Bayeux
605 Bayonne
5378 Bayreuth
1360 Bayreuther
596 Bayrischen
922 Bde
6251 Beachtung
4605 Beamte
7221 Beamten
4571 Beamter
814 Beanspruchung
637 Beantwortung
424 Bearbeiten
632 Bearbeiter
6251 Bearbeitung
1352 Bearbeitungen
999 Beate
2945 Beatles
1276 Beatrice
1322 Beatrix
537 Beauftragte
954 Beauftragten
1382 Beauftragter
6423 Bebauung
811 Bebauungsplan
920 Beben
1697 Becher
4763 Beck
8876 Becken
568 Beckenbauer
2486 Beckens
6136 Becker
418 Beckers
1329 Beckmann
11686 Bedarf
1085 Bedarfs
537 Bedarfsfall
3310 Bedenken
498 Bedenkzeit
91501 Bedeutung
2133 Bedeutungen
646 Bedeutungslosigkeit
628 Bedienstete
1154 Bediensteten
2759 Bedienung
5288 Bedingung
20059 Bedingungen
6159 Bedrohung
906 Bedrohungen
1034 Bedrängnis
2014 Bedürfnis
3911 Bedürfnisse
2081 Bedürfnissen
409 Bedürftige
1941 Beeinflussung
1311 Beeinträchtigung
937 Beeinträchtigungen
8555 Beendigung
2485 Beerdigung
548 Beerdigungen
2767 Beeren
3249 Beethoven
1848 Beethovens
526 Befahren
13106 Befehl
2729 Befehle
754 Befehlen
542 Befehls
526 Befehlsgewalt
5162 Befehlshaber
448 Befehlshabers
4468 Befestigung
2117 Befestigungen
1464 Befestigungsanlage
2100 Befestigungsanlagen
1053 Befragten
1730 Befragung
658 Befragungen
416 Befreier
8265 Befreiung
923 Befreiungskriege
811 Befreiungskriegen
987 Befriedigung
449 Befriedung
1269 Befruchtung
700 Befugnis
1834 Befugnisse
1521 Befund
2103 Befunde
636 Befunden
738 Befähigung
7262 Beförderung
732 Befürchtung
900 Befürchtungen
2626 Befürworter
730 Befürwortern
2480 Begabung
1022 Begebenheit
1206 Begebenheiten
8073 Begegnung
5236 Begegnungen
602 Begehren
905 Begehung
2861 Begeisterung
596 Begierde
91583 Beginn
439 Beginns
753 Begleitband
3910 Begleiter
626 Begleitern
5344 Begleitung
788 Begnadigung
2937 Begrenzung
70474 Begriff
10020 Begriffe
3024 Begriffen
1295 Begriffes
3455 Begriffs
1677 Begräbnis
474 Begräbnisplatz
1046 Begräbnisstätte
8612 Begründer
472 Begründern
7978 Begründung
437 Begründungen
520 Begrüßung
950 Begutachtung
1440 Behaarung
19818 Behandlung
1031 Behandlungen
3481 Behauptung
1525 Behauptungen
508 Behausung
585 Behausungen
588 Behebung
1162 Beherrschung
1029 Behinderte
697 Behinderten
3464 Behinderung
1374 Behinderungen
700 Behr
2365 Behälter
530 Behältern
7510 Behörde
16498 Behörden
2015 Beibehaltung
665 Beichte
625 Beichtvater
832 Beiden
687 Beifahrer
889 Beifall
776 Beigaben
418 Beigeordneten
861 Beigeordneter
1193 Beihilfe
715 Beil
1354 Beilage
444 Beilagen
699 Beilegung
3465 Bein
1397 Beiname
4959 Beinamen
7797 Beine
2725 Beinen
3469 Beirat
670 Beirates
1067 Beirats
2196 Beirut
1904 Beisein
1372 Beisetzung
1295 Beisitzer
106233 Beispiel
9156 Beispiele
1450 Beispielen
959 Beistand
12290 Beitrag
471 Beitrags
3908 Beitritt
14196 Beiträge
2907 Beiträgen
1982 Beiwagen
960 Bekannte
1890 Bekannten
440 Bekannter
1126 Bekanntgabe
8577 Bekanntheit
2411 Bekanntheitsgrad
1529 Bekanntmachung
3567 Bekanntschaft
1154 Bekanntwerden
938 Bekehrung
1012 Bekennenden
3329 Bekenntnis
473 Bekenntnisse
676 Bekenntnisses
1549 Bekleidung
539 Bekunden
6564 Bekämpfung
634 Beladung
606 Belag
544 Belagerer
10923 Belagerung
665 Belagerungen
434 Belang
3432 Belange
896 Belangen
604 Belastbarkeit
5539 Belastung
2572 Belastungen
640 Belebung
3032 Beleg
3477 Belege
451 Belegen
1839 Belegschaft
856 Belegung
439 Belehrung
1215 Beleidigung
420 Beleidigungen
3753 Beleuchtung
2130 Belfast
20078 Belgien
1867 Belgiens
1878 Belgier
471 Belgische
727 Belgischen
6468 Belgrad
654 Belgrader
950 Belichtung
449 Belichtungszeit
758 Belieben
5259 Beliebtheit
416 Belieferung
926 Belize
1842 Belle
810 Belletristik
877 Bellevue
2112 Belohnung
416 Belästigung
590 Belüftung
1200 Bemalung
1268 Bemerkung
1120 Bemerkungen
418 Bemessung
1444 Bemühen
8021 Bemühungen
7982 Ben
715 Benachteiligung
8263 Benedikt
1581 Benediktiner
1152 Benediktinerabtei
405 Benediktinerinnen
1415 Benediktinerkloster
553 Benediktinerklosters
568 Benehmen
3825 Benennung
430 Benetton
7187 Benjamin
1108 Bentley
5562 Benutzer
1124 Benutzern
1208 Benutzeroberfläche
606 Benutzers
4700 Benutzung
1560 Benz
2312 Benzin
488 Benzinmotor
760 Benzol
4933 Beobachter
729 Beobachtern
611 Beobachters
6176 Beobachtung
5693 Beobachtungen
594 Bepflanzung
454 Beratenden
11915 Berater
790 Beraterin
570 Beratern
5294 Beratung
1456 Beratungen
477 Beratungsstelle
2191 Berchtesgaden
7446 Berechnung
2896 Berechnungen
1348 Berechtigung
108542 Bereich
13700 Bereiche
19514 Bereichen
748 Bereicherung
787 Bereiches
1437 Bereichs
2563 Bereitschaft
408 Bereitschaftspolizei
2503 Bereitstellung
41345 Berg
1085 Bergakademie
936 Bergarbeiter
443 Bergbahn
437 Bergbahnen
8017 Bergbau
1461 Bergbaus
561 Bergdorf
11659 Berge
12037 Bergen
5436 Berger
5709 Berges
650 Bergführer
658 Berggipfel
680 Berghang
1346 Bergheim
578 Berghängen
400 Berghütte
1589 Bergisch
664 Bergische
1811 Bergischen
1140 Bergkette
476 Bergketten
566 Bergkuppe
3442 Bergland
778 Berglandes
2747 Bergleute
1492 Bergleuten
2473 Bergmann
468 Bergmassiv
649 Bergregionen
542 Bergrennen
1575 Bergrücken
1335 Bergs
770 Bergsporn
556 Bergstadt
1102 Bergstation
481 Bergsteigen
2059 Bergsteiger
466 Bergsteigern
2037 Bergstraße
1408 Bergung
4687 Bergwerk
1358 Bergwerke
910 Bergwerken
1376 Bergwerks
964 Bergwertung
13506 Bericht
8317 Berichte
4060 Berichten
820 Berichterstatter
3943 Berichterstattung
630 Berichts
4822 Berkeley
194369 Berlin
1666 Berlin-Brandenburg
1443 Berlin-Charlottenburg
850 Berlin-Kreuzberg
1060 Berlin-Mitte
448 Berlin-Neukölln
569 Berlin-Schöneberg
491 Berlin-Spandau
415 Berlin-Tempelhof
605 Berlin-Weißensee
448 Berlin-Wilmersdorf
63791 Berliner
4829 Berlins
762 Berlusconi
20043 Bern
586 Bernadotte
6084 Bernd
5870 Berner
15776 Bernhard
608 Bernhards
635 Bernhardt
409 Bernoulli
2965 Bernstein
1871 Bert
990 Berta
1134 Bertelsmann
3141 Berthold
19123 Beruf
2581 Berufe
1711 Berufen
431 Berufes
1264 Berufs
2334 Berufsausbildung
1019 Berufsbezeichnung
504 Berufsbild
565 Berufsbildung
515 Berufserfahrung
761 Berufsfachschule
1052 Berufsfeuerwehr
400 Berufsgenossenschaften
757 Berufsgruppen
940 Berufsleben
2017 Berufsschule
608 Berufsschulen
430 Berufssoldaten
420 Berufstitel
781 Berufstätigkeit
796 Berufsverband
901 Berufsverbot
495 Berufsverkehr
8998 Berufung
683 Berufungen
619 Berufungsgericht
500 Beruhigung
5827 Berücksichtigung
2158 Berühmtheit
3857 Berührung
1592 Besatzer
832 Besatzern
15337 Besatzung
1526 Besatzungen
657 Besatzungsbehörden
3441 Besatzungsmacht
423 Besatzungsmitglied
2715 Besatzungsmitglieder
559 Besatzungsmitgliedern
636 Besatzungsmächte
1343 Besatzungstruppen
1275 Besatzungszeit
4880 Besatzungszone
846 Besatzungszonen
2159 Beschaffenheit
3139 Beschaffung
2725 Bescheid
516 Bescheidenheit
425 Bescheinigung
831 Beschichtung
560 Beschießung
523 Beschilderung
661 Beschlagnahme
2481 Beschleunigung
9578 Beschluss
556 Beschlusses
3322 Beschlüsse
701 Beschlüssen
1048 Beschneidung
14091 Beschreibung
3273 Beschreibungen
869 Beschriftung
2372 Beschränkung
2036 Beschränkungen
844 Beschuldigten
2729 Beschuss
1756 Beschwerde
3653 Beschwerden
1409 Beschädigung
2014 Beschädigungen
4160 Beschäftigte
5575 Beschäftigten
6651 Beschäftigung
766 Beschützer
3387 Beseitigung
490 Besen
21622 Besetzung
1183 Besetzungen
1302 Besichtigung
2695 Besiedelung
11122 Besiedlung
60836 Besitz
20430 Besitzer
1077 Besitzerin
1683 Besitzern
1001 Besitzers
2254 Besitzes
1851 Besitztümer
470 Besitzung
8933 Besitzungen
739 Besitzverhältnisse
588 Besoldung
1226 Besondere
1944 Besonderen
11695 Besonderheit
4301 Besonderheiten
556 Besorgnis
1195 Besprechung
614 Besprechungen
1231 Besserung
13898 Bestand
815 Bestandes
726 Bestandsaufnahme
22292 Bestandteil
4681 Bestandteile
1147 Bestandteilen
2055 Bestattung
1571 Bestattungen
7312 Beste
767 Bestechung
5629 Bestehen
3541 Bestehens
1611 Besteigung
2766 Bestellung
814 Bestellungen
2402 Besten
7019 Bester
2003 Bestes
1375 Besteuerung
458 Bestie
10353 Bestimmung
6953 Bestimmungen
1580 Bestleistung
516 Bestmarke
1965 Bestrafung
685 Bestrahlung
2069 Bestreben
4777 Bestrebungen
1917 Bestseller
458 Bestuhlung
1672 Bestzeit
5979 Bestände
1649 Beständen
683 Beständigkeit
4238 Bestätigung
24382 Besuch
1729 Besuche
940 Besuchen
17200 Besucher
5897 Besuchern
506 Besucherzahl
1074 Besucherzahlen
800 Besucherzentrum
594 Besuches
1012 Besuchs
1183 Beta
532 Beteiligte
4530 Beteiligten
14047 Beteiligung
1797 Beteiligungen
616 Beteiligungsgesellschaft
1202 Bethlehem
4588 Beton
2735 Betonung
3763 Betracht
466 Betrachten
3433 Betrachter
628 Betrachters
4894 Betrachtung
1430 Betrachtungen
790 Betrachtungsweise
4478 Betrag
4432 Betreiben
5956 Betreiber
617 Betreibern
437 Betreibers
1360 Betreten
1459 Betreuer
6261 Betreuung
68977 Betrieb
14726 Betriebe
4498 Betrieben
2132 Betriebes
2480 Betriebs
488 Betriebsaufnahme
1521 Betriebsführung
426 Betriebsgebäude
597 Betriebsgelände
1113 Betriebshof
964 Betriebskosten
623 Betriebsleiter
484 Betriebsmittel
693 Betriebsnummern
1052 Betriebsrat
409 Betriebsspannung
811 Betriebssportgemeinschaft
3849 Betriebssystem
1388 Betriebssysteme
1045 Betriebssystemen
993 Betriebssystems
435 Betriebswirt
1529 Betriebswirtschaft
3114 Betriebswirtschaftslehre
477 Betriebszeit
1553 Betroffene
4820 Betroffenen
1556 Betrug
512 Betrugs
1110 Beträge
699 Betrüger
4818 Bett
597 Bette
3558 Betten
1339 Bettina
831 Bettler
2179 Betty
2249 Betätigung
622 Betätigungsfeld
591 Beugung
4300 Beurteilung
5659 Beute
1175 Beutel
1162 Beutetiere
415 Beutetieren
667 Bevollmächtigten
883 Bevollmächtigter
833 Bevorzugung
90667 Bevölkerung
969 Bevölkerungsanteil
10946 Bevölkerungsdichte
772 Bevölkerungsentwicklung
1138 Bevölkerungsgruppe
1578 Bevölkerungsgruppen
901 Bevölkerungsmehrheit
699 Bevölkerungsrückgang
1055 Bevölkerungsschichten
438 Bevölkerungsteile
2906 Bevölkerungswachstum
6241 Bevölkerungszahl
502 Bevölkerungszahlen
1048 Bevölkerungszunahme
556 Bevölkerungszuwachs
1221 Bewachung
4145 Bewaffnung
1455 Bewahrung
532 Beweggründe
1527 Beweglichkeit
29444 Bewegung
8192 Bewegungen
424 Bewegungsabläufe
646 Bewegungsfreiheit
501 Bewegungsrichtung
7207 Beweis
3275 Beweise
954 Beweisen
579 Beweismittel
2712 Bewerber
799 Bewerbern
2102 Bewerbung
611 Bewerbungen
6393 Bewertung
1305 Bewertungen
1104 Bewilligung
2073 Bewirtschaftung
26790 Bewohner
9020 Bewohnern
832 Bewuchs
683 Bewunderer
1106 Bewunderung
430 Bewusstlosigkeit
6260 Bewusstsein
1147 Bewusstseins
1940 Bewährung
1370 Bewältigung
1655 Bewässerung
2837 Bezahlung
71979 Bezeichnung
10138 Bezeichnungen
21107 Beziehung
23757 Beziehungen
33524 Bezirk
5241 Bezirke
2216 Bezirken
1558 Bezirkes
6283 Bezirks
2524 Bezirksamt
1766 Bezirksgericht
2014 Bezirkshauptmannschaft
1103 Bezirkshauptstadt
871 Bezirksklasse
3365 Bezirksliga
1207 Bezirksregierung
936 Bezirksstaatsanwalt
474 Bezirksteil
479 Bezirksversammlung
446 Bezirksvertretung
438 Bezirksverwaltung
463 Bezirksvorsitzender
22877 Bezug
800 Bezugnahme
565 Bezugspunkt
432 Bezugssystem
2286 Bezüge
714 Bezügen
1398 Biathlet
1041 Biathletin
1394 Biathlon
638 Biathlon-Europameisterschaften
1292 Biathlon-Weltmeisterschaften
8013 Bibel
622 Bibelübersetzung
1346 Biber
748 Bibliographie
18546 Bibliothek
2473 Bibliothekar
4993 Bibliotheken
912 Biedenkopf
443 Biedermeier
593 Biegung
9017 Bielefeld
1236 Bielefelder
771 Biene
2150 Bienen
5603 Bier
549 Bierbrauerei
533 Biere
655 Biergarten
605 Biermann
452 Biest
1028 Bigband
3255 Bilanz
895 Bilanzsumme
40283 Bild
428 Bild-Zeitung
495 Bildband
2547 Bildende
3333 Bildenden
894 Bildender
24198 Bilder
441 Bilderbuch
8980 Bildern
3343 Bildes
506 Bildfläche
14858 Bildhauer
2421 Bildhauerei
1147 Bildhauerin
623 Bildhauern
3041 Bildhauers
424 Bildmaterial
2101 Bildnis
834 Bildnisse
508 Bildqualität
615 Bildrand
2226 Bildschirm
572 Bildsprache
471 Bildstock
31949 Bildung
745 Bildungsarbeit
428 Bildungsbereich
1024 Bildungseinrichtung
1708 Bildungseinrichtungen
532 Bildungsminister
477 Bildungsministerium
740 Bildungspolitik
435 Bildungsreise
516 Bildungsstätte
760 Bildungssystem
638 Bildungsweg
1109 Bildungswesen
459 Bildungswesens
794 Bildungszentrum
423 Bildverarbeitung
436 Bildwerke
12083 Bill
467 Billard
700 Billigung
633 Billionen
557 Bills
6787 Billy
828 Bin
894 Binde
680 Bindegewebe
1205 Bindeglied
851 Bindemittel
736 Binden
1107 Binder
515 Bindestrich
5764 Bindung
2042 Bindungen
1841 Bingen
452 Binnenhafen
1060 Binnenland
483 Binnenmarkt
681 Binnenschifffahrt
1860 Biochemie
626 Biochemiker
402 Biodiesel
440 Biogas
3234 Biografie
1085 Biografien
694 Biograph
434 Biographen
3934 Biographie
1177 Biographien
1035 Biologe
897 Biologen
6499 Biologie
434 Biologische
402 Biologischen
1233 Biomasse
473 Biophysik
492 Biosynthese
960 Biotechnologie
783 Biotop
714 Biotope
1220 Birgit
557 Birke
1550 Birken
1263 Birkenfeld
4814 Birmingham
643 Birnbaum
518 Birnen
57786 Bischof
7684 Bischofs
634 Bischofsamt
705 Bischofskirche
2317 Bischofskonferenz
3553 Bischofssitz
6833 Bischofsweihe
7422 Bischöfe
2124 Bischöfen
771 Bischöflichen
432 Biskaya
4334 Bismarck
1133 Bismarcks
777 Biss
23224 Bistum
10005 Bistums
1926 Bistümer
661 Bistümern
3275 Bit
1150 Bits
3834 Bitte
1835 Bitten
626 Bitter
1452 Björn
1675 Blair
819 Blank
719 Blase
667 Blasen
427 Blasmusik
728 Blasorchester
651 Blast
7570 Blatt
740 Blattachseln
429 Blattadern
1187 Blattes
432 Blattfedern
1135 Blattoberfläche
1466 Blattoberflächen
770 Blattoberseite
2517 Blattrand
708 Blattränder
566 Blattscheiden
621 Blattspitze
2005 Blattstiel
845 Blattstiele
888 Blattunterseite
8103 Blau
948 Blau-Weiß
2195 Blaue
2064 Blauen
594 Blauer
1364 Blech
406 Bleche
402 Blechen
3310 Blei
418 Bleibe
515 Bleistift
824 Blende
425 Blenden
15068 Blick
525 Blicke
1048 Blickfeld
765 Blickpunkt
450 Blickrichtung
1107 Blickwinkel
1238 Blind
753 Blinde
639 Blinden
438 Blindheit
2382 Blitz
429 Blitze
839 Blitzschlag
6381 Block
2087 Blockade
429 Blockbuster
468 Blockflöte
469 Blockhaus
1252 Blocks
1238 Blog
727 Blogs
11606 Blues
538 Bluetooth
704 Bluff
1979 Blume
3863 Blumen
11345 Blut
496 Blut-Hirn-Schranke
487 Blutbad
817 Blutdruck
1342 Blutes
914 Blutgefäße
454 Blutgefäßen
508 Bluthochdruck
509 Blutkreislauf
930 Blutkörperchen
496 Blutung
1035 Blutungen
806 Bläser
793 Blättchen
16651 Blätter
6442 Blättern
2426 Blöcke
1139 Blöcken
7172 Blüte
23664 Blüten
406 Blütenbecher
610 Blütenblätter
1002 Blütenhülle
538 Blütenkrone
746 Blütenröhre
4121 Blütenstand
669 Blütenstiel
1095 Blütenstiele
1107 Blütenstielen
3036 Blütenstände
1239 Blütenständen
8115 Blütezeit
9749 Bob
9844 Bochum
1770 Bochumer
2179 Bock
416 Bockwindmühle
36996 Boden
1263 Bodendenkmal
461 Bodendenkmäler
467 Bodenkultur
537 Bodenkunde
470 Bodennähe
452 Bodenplatte
1360 Bodenreform
2560 Bodens
811 Bodenschätze
606 Bodenschätzen
4185 Bodensee
434 Bodenseekreis
560 Bodensees
568 Bodentruppen
5455 Boeing
8189 Bogen
624 Bogenbrücke
825 Bogens
522 Bogenschießen
477 Bogenschütze
919 Bogenschützen
529 Bogensekunden
1185 Bohlen
1472 Bohnen
622 Bohr
468 Bohrer
1755 Bohrung
1319 Bohrungen
4983 Bolivien
621 Boliviens
655 Bollwerk
5710 Bologna
1666 Bolschewiki
497 Bolzen
754 Bombardement
577 Bombardements
1635 Bombardierung
589 Bombardierungen
1957 Bombay
2847 Bombe
3865 Bomben
2113 Bombenangriff
1311 Bombenangriffe
941 Bombenangriffen
582 Bombenanschlag
652 Bombentreffer
3396 Bomber
641 Bombern
1685 Bon
3246 Bonaparte
520 Bonapartes
663 Bonhoeffer
407 Boni
28727 Bonn
4815 Bonner
979 Bonus
999 Boogie
810 Booklet
1676 Boom
13457 Boot
7959 Boote
3125 Booten
1506 Bootes
560 Boots
445 Bootshaus
436 Bootsklasse
15906 Bord
4811 Bordeaux
685 Bordell
4579 Boris
1108 Borke
1172 Borken
684 Borkum
1611 Borsten
7244 Borussia
2708 Bosch
4144 Bosnien
1275 Bosnien-Herzegowina
823 Bosporus
1855 Boss
683 Bosse
15926 Boston
3192 Botanik
4470 Botaniker
798 Botanische
2339 Botanischen
980 Bote
1403 Boten
10155 Botschaft
2014 Botschaften
12743 Botschafter
826 Botschafterin
1271 Botschafters
523 Botschaftsrat
1025 Botswana
418 Bougainville
404 Bouillon
2650 Boulevard
436 Boulevardzeitung
726 Bourbonen
592 Bourgeoisie
558 Bourgogne
674 Bowling
3665 Box
551 Boxberg
2128 Boxen
3509 Boxer
4587 Boy
1158 Boykott
5668 Boys
3439 Bozen
1508 Brabant
410 Bracht
648 Brackwasser
1752 Brahms
2965 Branche
2407 Branchen
17309 Brand
605 Brandbekämpfung
552 Brandbomben
498 Brandeis
21882 Brandenburg
569 Brandenburg-Ansbach
2665 Brandenburger
881 Brandenburgischen
1152 Brandenburgs
1367 Brandes
401 Brandkatastrophe
744 Brands
906 Brandschutz
1093 Brandstiftung
3253 Brandt
473 Brandung
434 Branntwein
1500 Brasilianer
18701 Brasilien
2666 Brasiliens
434 Bratsche
3288 Brauch
1202 Brauchtum
1101 Brauer
8910 Brauerei
1610 Brauereien
1051 Brauhaus
5530 Braun
1251 Braunau
815 Braune
573 Braunen
957 Brauner
534 Braunfels
1828 Braunkohle
412 Braunlage
18748 Braunschweig
1288 Braunschweig-Lüneburg
3567 Braunschweiger
481 Braunschweigs
3579 Braut
559 Brauweiler
2946 Brecht
416 Brechung
480 Brechungsindex
2521 Bregenz
484 Brei
706 Breisach
21138 Breite
2186 Breiten
721 Breitenbach
475 Breitengrad
657 Breitensport
530 Breitspur
31684 Bremen
747 Bremens
10814 Bremer
5317 Bremerhaven
1164 Bremse
1969 Bremsen
543 Brennelemente
665 Brennen
1893 Brenner
1586 Brennerei
707 Brennholz
438 Brennkammer
849 Brennpunkt
1614 Brennstoff
605 Brennstoffe
1162 Brennweite
14765 Breslau
2919 Brest
459 Brest-Litowsk
3245 Brett
554 Bretter
507 Brettern
545 Brettspiel
14063 Brief
7278 Briefe
3248 Briefen
726 Briefes
1220 Briefmarke
2470 Briefmarken
2376 Briefwechsel
5689 Brigade
2582 Brigadegeneral
1665 Brigaden
715 Brigadier
1848 Brighton
2502 Brigitte
464 Brikettfabrik
1061 Brille
445 Brisanz
4613 Bristol
1250 Brite
13437 Briten
490 Britin
811 Britisch-Amerikanischen
704 Britisch-Indien
1583 Britische
4559 Britischen
449 Britta
1677 Brixen
614 Broadcast
871 Brocken
747 Brockhaus
12841 Bronze
562 Bronzeglocken
13482 Bronzemedaille
1174 Bronzemedaillen
547 Bronzestatue
4859 Bronzezeit
1116 Broschüre
884 Broschüren
4745 Brot
1385 Browser
7440 Bruch
705 Bruchstein
805 Bruchsteinen
413 Bruchsteinmauerwerk
1156 Bruchstücke
969 Bruchteil
67378 Bruder
8067 Bruders
2239 Bruderschaft
448 Bruderschaften
10516 Brunnen
1004 Brunnens
9286 Bruno
7233 Brust
1154 Brustflossen
485 Brustkorb
786 Brustkrebs
799 Brustseite
2007 Brut
999 Brutalität
789 Brutgebiet
493 Brutgebiete
473 Brutkolonien
961 Brutpaare
418 Brutpflege
890 Bruttoinlandsprodukt
475 Brutvogel
509 Brutvögel
2546 Brutzeit
2203 Bryan
1579 Brände
1017 Bränden
1287 Bräuche
400 Bräuchen
1199 Bräutigam
435 Brötchen
1048 Brüche
422 Brüchen
34611 Brücke
8497 Brücken
758 Brückenbau
1444 Brückenkopf
22815 Brüder
7561 Brüdern
2144 Brügge
11497 Brüssel
1334 Brüsseler
513 Brüste
985 Brüstung
462 Bsp
438 Buben
63127 Buch
583 Buchau
1444 Buchautor
503 Buchbinder
546 Buchdruck
1084 Buchdrucker
518 Buchdruckerei
443 Buchdrucks
1866 Buche
1985 Buchen
443 Buchenau
2818 Buchenwald
7558 Buches
1193 Buchform
694 Buchführung
1082 Buchhalter
601 Buchhaltung
840 Buchhandel
630 Buchhandels
1921 Buchhandlung
444 Buchhandlungen
2320 Buchholz
1929 Buchhändler
400 Buchillustrationen
597 Buchkunst
741 Buchmalerei
972 Buchmesse
1326 Buchreihe
1430 Buchs
3000 Buchstabe
10297 Buchstaben
11436 Bucht
1399 Buchten
471 Buchtitel
519 Buchverlag
408 Buchwald
501 Buckel
862 Buckingham
12628 Budapest
1927 Buddha
673 Buddhas
4596 Buddhismus
636 Buddhisten
4180 Budget
732 Budgets
8779 Buenos
3626 Bug
592 Bugs
6861 Bukarest
9586 Bulgarien
1503 Bulgariens
559 Bulgarische
1048 Bulgarischen
3257 Bull
3287 Bulle
947 Bullen
824 Bulletin
17733 Bund
666 Bunde
12300 Bundes
665 Bundesagentur
2837 Bundesamt
755 Bundesamtes
1637 Bundesanstalt
467 Bundesarbeitsgericht
507 Bundesarchiv
7156 Bundesautobahn
476 Bundesautobahnen
3073 Bundesbahn
1159 Bundesbahnen
993 Bundesbank
562 Bundesbehörden
2119 Bundesebene
707 Bundesgartenschau
1098 Bundesgebiet
414 Bundesgenossen
721 Bundesgericht
2155 Bundesgerichtshof
501 Bundesgerichtshofs
1993 Bundesgesetz
1197 Bundeshauptstadt
1059 Bundesheer
721 Bundesheeres
408 Bundesinstitut
3816 Bundeskanzler
821 Bundeskanzleramt
698 Bundeskanzlerin
721 Bundeskanzlers
7319 Bundesland
2307 Bundeslandes
13826 Bundesliga
484 Bundesligasaison
614 Bundesligaspiel
767 Bundesligaspiele
2441 Bundesligisten
4450 Bundesländer
6602 Bundesländern
812 Bundesmarine
2149 Bundesminister
421 Bundesministerin
5267 Bundesministerium
1554 Bundesministeriums
600 Bundesnetzagentur
402 Bundesparteitag
1122 Bundespolizei
1576 Bundespost
2433 Bundespräsident
2849 Bundespräsidenten
434 Bundesprüfstelle
4301 Bundesrat
1605 Bundesrates
406 Bundesrats
9624 Bundesregierung
23992 Bundesrepublik
518 Bundesrichter
25652 Bundesstaat
6028 Bundesstaaten
10405 Bundesstaates
1227 Bundesstaats
16761 Bundesstraße
2260 Bundesstraßen
9809 Bundestag
4338 Bundestages
711 Bundestags
408 Bundestagsabgeordnete
583 Bundestagsabgeordneten
4961 Bundestagswahl
612 Bundestagswahlen
1117 Bundestagswahlkreis
1515 Bundestrainer
2477 Bundesverband
827 Bundesverbandes
3493 Bundesverdienstkreuz
562 Bundesverdienstkreuzes
606 Bundesvereinigung
958 Bundesverfassung
2628 Bundesverfassungsgericht
987 Bundesverfassungsgerichts
1368 Bundesversammlung
406 Bundesverwaltung
787 Bundesverwaltungsgericht
916 Bundesvorsitzender
1183 Bundesvorstand
411 Bundesvorstandes
12728 Bundeswehr
532 Bundeszentrale
3097 Bunker
449 Bunkern
634 Bunte
1202 Buntsandstein
898 Burchard
476 Burda
451 Burenkrieg
83001 Burg
4746 Burganlage
416 Burganlagen
466 Burgau
1195 Burgberg
1143 Burgdorf
6419 Burgen
3744 Burgenland
526 Burgenlandes
705 Burggraben
946 Burggraf
1544 Burggrafen
556 Burgherren
854 Burghof
486 Burghügel
972 Burgkapelle
530 Burgmannen
465 Burgplatz
3869 Burgruine
2132 Burgstall
477 Burgstelle
536 Burgstraße
1659 Burgtheater
441 Burgtheaters
471 Burgtor
5358 Burgund
471 Burgunder
604 Burgwall
1306 Burma
676 Burschen
3796 Burschenschaft
854 Burschenschaften
706 Burundi
5713 Bus
1399 Busbahnhof
4895 Busch
606 Buschland
2295 Bush
777 Bushaltestelle
424 Bushaltestellen
6898 Business
2895 Buslinie
4392 Buslinien
4933 Busse
1820 Bussen
526 Busunternehmen
514 Busverbindung
829 Busverbindungen
990 Busverkehr
3132 Butler
1880 Butter
1261 Button
819 Buxtehude
1016 Buße
1158 Byte
799 Bytes
746 Byzantiner
512 Byzantinische
1107 Byzantinischen
2261 Byzanz
3171 Bäche
1666 Bächen
1537 Bäcker
1463 Bäckerei
467 Bäckereien
1203 Bäder
454 Bädern
1232 Bälle
404 Bällen
9162 Bände
5344 Bänden
1993 Bänder
1218 Bändern
917 Bänke
530 Bänken
2977 Bär
534 Bärbel
3786 Bären
404 Bäuerin
9383 Bäume
7053 Bäumen
1397 Böblingen
8542 Böden
3692 Bögen
1211 Böhme
11700 Böhmen
602 Böhmisch
720 Böhmische
1833 Böhmischen
1624 Börde
6036 Börse
740 Börsen
831 Börsengang
551 Böschung
542 Böschungen
2378 Böse
1888 Bösen
632 Bösewicht
29042 Bücher
1470 Bücherei
9885 Büchern
415 Büchlein
788 Büchner
592 Büffel
473 Bügel
16992 Bühne
6497 Bühnen
1065 Bühnenbild
498 Bühnenbilder
464 Bühnendebüt
876 Bühnenstück
1623 Bünde
903 Bündel
552 Bündelung
418 Bünden
9606 Bündnis
514 Bündnispartner
776 Bündnisse
937 Bündnisses
25960 Bürger
436 Bürgerbewegung
620 Bürgerentscheid
1222 Bürgerhaus
648 Bürgerhäuser
1664 Bürgerinitiative
659 Bürgerinitiativen
604 Bürgerinnen
9017 Bürgerkrieg
419 Bürgerkriege
4383 Bürgerkrieges
3238 Bürgerkriegs
562 Bürgerliche
907 Bürgerlichen
729 Bürgerliches
582 Bürgerliste
39312 Bürgermeister
712 Bürgermeisteramt
2855 Bürgermeisterei
1709 Bürgermeisterin
528 Bürgermeistern
5439 Bürgermeisters
657 Bürgermeisterwahl
6373 Bürgern
2070 Bürgerrecht
1420 Bürgerrechte
440 Bürgerrechtler
1042 Bürgerrechtsbewegung
1059 Bürgers
7404 Bürgerschaft
754 Bürgerschaftswahl
1510 Bürgerschule
1822 Bürgertum
1142 Bürgertums
654 Bürgerwehr
616 Bürgschaft
10096 Büro
1366 Bürogebäude
888 Bürokratie
624 Büroräume
5239 Büros
442 Büsche
412 Büschel
402 Büscheln
878 Büschen
1936 Büste
925 Büsten
923 C-Dur
575 CAD
14835 CD
27546 CDU
1193 CDU-Fraktion
513 CDU-Kreisverbandes
4149 CDs
2432 CH
2558 CIA
587 CM
589 CNN
841 CO
1218 CPU
477 CPUs
6121 CSU
583 CSU-Bundestagsfraktion
745 Cabaret
672 Cabrio
1330 Cabriolet
668 Cache
1247 Cadillac
1342 Caen
556 Cafeteria
5254 Café
1496 Cafés
1043 Calcium
1469 Calvin
10394 Cambridge
4111 Camp
559 Camping
1633 Campingplatz
586 Campingplätze
670 Camps
5588 Campus
1359 Canberra
4050 Cannes
1119 Canon
468 Caravan
434 Carbonate
1003 Caritas
6526 Carlo
9252 Carlos
1810 Carol
715 Carola
550 Cartoon
799 Cartoons
621 Casanova
2209 Casino
527 Casinos
3362 Castro
485 Cathy
3825 Celle
906 Cellist
582 Cellisten
1848 Cello
450 Cellulose
2179 Celsius
1146 Cembalo
2156 Cent
16915 Center
1481 Centers
1056 Ceylon
464 Ch
542 Champagner
2414 Champion
8089 Champions
9420 Chance
3929 Chancen
554 Chancengleichheit
505 Chanel
1330 Chanson
1101 Chansons
3433 Chaos
1069 Chaplin
20076 Charakter
432 Charakterdarsteller
5641 Charaktere
1352 Charakteren
1357 Charakterisierung
890 Charakteristik
993 Charakteristika
2232 Charakters
431 Charge
29478 Charles
6561 Charlie
8763 Charlotte
3039 Charlottenburg
411 Charlottenburg-Wilmersdorf
1360 Charme
2104 Charta
493 Charterflüge
944 Chartres
14146 Charts
1934 Chassis
632 Chat
608 Chauffeur
2145 Chaussee
14895 Chef
1246 Chefarzt
1056 Chefdirigent
455 Chefin
561 Chefingenieur
433 Chefkonstrukteur
7161 Chefredakteur
633 Chefredakteurin
458 Chefredaktion
1586 Chefs
4765 Cheftrainer
411 Cheftrainers
18011 Chemie
1515 Chemikalien
5758 Chemiker
466 Chemikers
1021 Chemische
949 Chemischen
7306 Chemnitz
892 Chemotherapie
465 Cheops
935 Cheyenne
1006 Chi
719 Chiapas
24010 Chicago
1037 Chiemsee
11027 Chile
1425 Chiles
41066 China
4651 Chinas
1365 Chinese
3239 Chinesen
1247 Chinesisch
1568 Chinesische
1858 Chinesischen
1509 Chip
1175 Chips
548 Chirac
2079 Chirurg
1481 Chirurgen
3094 Chirurgie
460 Chirurgischen
997 Chlor
1089 Cholera
432 Cholesterin
424 Chomsky
940 Chopin
22790 Chor
814 Choral
462 Chorapsis
696 Chorbogen
528 Choreograf
623 Choreografie
580 Choreographie
2607 Chores
571 Chorfenster
984 Chorgestühl
677 Chorherren
439 Chorherrenstift
1328 Chorleiter
439 Chorleitung
509 Chormusik
1983 Chorraum
1608 Chors
403 Chorumgang
641 Chorwerke
4034 Christ
1398 Christa
827 Christdemokraten
12498 Christen
603 Christenheit
7184 Christentum
2483 Christentums
11184 Christi
35762 Christian
1119 Christian-Albrechts-Universität
2231 Christiane
1844 Christianisierung
716 Christians
451 Christin
3240 Christina
4768 Christine
1504 Christliche
1612 Christlichen
553 Christlicher
18485 Christoph
547 Christophorus
11671 Christus
837 Chrom
1138 Chromosom
1168 Chromosomen
1591 Chromosomenzahl
5680 Chronik
1742 Chroniken
1567 Chronist
1406 Chronisten
1359 Chronologie
737 Chruschtschow
2305 Chrysler
3074 Chur
2504 Churchill
2965 Château
1775 Chöre
848 Chören
1957 Circus
53795 City
2277 Civil
5892 Claude
3263 Claudia
6516 Clemens
1098 Clement
1801 Client
962 Clients
3136 Clinton
499 Clip
441 Clips
557 Clique
949 Clown
421 Clowns
31692 Club
463 Clubhaus
7636 Clubs
819 Cluny
1224 Cluster
19317 Co
909 Co-Autor
418 Co-Produzent
2793 Co-Trainer
506 Cobalt
4100 Coburg
870 Coca-Cola
2620 Cockpit
430 Cocktail
456 Cocteau
5869 Code
457 Codename
520 Codenamen
1483 Codes
3757 Codex
530 Cognac
729 Cola
529 Collage
602 Collagen
1291 Colmar
1208 Colombo
1175 Colt
904 Colts
2824 Columbus
3895 Comeback
3036 Comic
6305 Comics
700 Comicserie
1294 Comiczeichner
672 Commerzbank
1708 Commodore
4477 Commonwealth
1000 Compiler
10699 Computer
1676 Computern
534 Computerprogramm
1207 Computers
1286 Computerspiel
1044 Computerspiele
909 Computerspielen
418 Computertechnik
425 Computertomographie
592 Concorde
1589 Connor
902 Consulting
1886 Container
613 Containern
476 Containerschiffe
1139 Controller
1127 Cool
459 Copyright
1389 Cornelia
2149 Cornwall
4810 Cottbus
409 Couleur
546 Countdown
846 Coup
1694 Coupe
1399 Courage
4991 Cousin
2338 Cousine
1154 Cousins
466 Couture
1365 Coventry
4761 Cover
429 Covers
985 Cowboy
1799 Cowboys
617 Crash
3485 Crew
5739 Cruz
608 Curie
577 Curry
2511 Cuxhaven
847 Cäsar
713 D-Dur
1384 D-Mark
6740 DB
449 DB-Baureihe
49726 DDR
1864 DDR-Liga
957 DDR-Meister
517 DDR-Meisterschaft
709 DDR-Meisterschaften
1605 DDR-Oberliga
902 DDR-Zeit
1473 DDR-Zeiten
1126 DE
2924 DFB
2598 DFB-Pokal
834 DFB-Pokals
896 DGB
5517 DIN
416 DIN-Norm
682 DKP
9255 DM
517 DNS
1974 DNVP
1051 DOS
777 DRK
9796 DVD
2038 DVDs
3730 Da
1024 Dabei
16104 Dach
4484 Dachau
743 Dachauer
888 Dachboden
889 Daches
1170 Dachgeschoss
772 Dachkonstruktion
1356 Dachorganisation
2730 Dachreiter
650 Dachs
1307 Dachstuhl
3121 Dachverband
422 Dachverbandes
1051 Dagmar
1631 Daimler
1226 Daimler-Benz
1410 Dakar
687 Dalai
5159 Dallas
1311 Dalmatien
2642 Damaskus
6244 Dame
7328 Damen
1785 Damendoppel
1182 Dameneinzel
1004 Damenmannschaft
708 Damenstift
783 Damit
4882 Damm
479 Dammes
420 Damms
2570 Dampf
478 Dampfdruck
2128 Dampfer
586 Dampfkessel
905 Dampflokomotive
2807 Dampflokomotiven
1739 Dampfmaschine
1096 Dampfmaschinen
1105 Dampfschiff
535 Dampfschiffe
426 Dampfturbinen
17558 Daniel
1175 Daniels
3252 Dank
1222 Dankbarkeit
1381 Dante
459 Dantes
7691 Danzig
1946 Danziger
686 Dar
1115 Darbietung
988 Darbietungen
1767 Darlehen
1905 Darm
11542 Darmstadt
1956 Darmstädter
1076 Darstellende
5895 Darsteller
1768 Darstellerin
433 Darstellerinnen
1150 Darstellern
35508 Darstellung
12173 Darstellungen
453 Darstellungsweise
2565 Darwin
580 Darwins
54306 Das
1560 Dasein
621 Daseins
10075 Datei
3458 Dateien
705 Dateisystem
28951 Daten
628 Datenaustausch
4146 Datenbank
2005 Datenbanken
433 Datenmengen
529 Datenrate
467 Datensatz
1078 Datenschutz
621 Datensätze
773 Datenträger
1326 Datenverarbeitung
1082 Datenübertragung
3672 Datierung
479 Datierungen
460 Dativ
610 Datteln
6417 Datum
1082 Datums
11943 Dauer
2114 Dauerausstellung
658 Dauergrünfläche
439 Dauerleihgabe
1330 Daumen
36432 David
1168 Davids
1017 Davidson
9451 Davis
2152 Davos
18976 De
1356 Deal
5339 Debatte
2384 Debatten
619 Debussy
19918 Debüt
1020 Debüt-Album
2886 Deck
5769 Decke
1959 Deckel
3628 Decken
1097 Deckengemälde
562 Deckflügel
442 Deckname
1304 Decknamen
1118 Decks
612 Deckstein
503 Decksteine
2570 Deckung
1139 Defekt
672 Defekte
1960 Defensive
562 Defensivspieler
11317 Definition
1753 Definitionen
774 Defizit
986 Defizite
1010 Degen
564 Dehnung
1229 Deich
821 Deiche
613 Dein
589 Deine
952 Dekade
414 Dekaden
6258 Dekan
3856 Dekanat
440 Dekanate
723 Dekanats
528 Dekans
813 Deklaration
535 Deklination
998 Dekor
1701 Dekoration
782 Dekorationen
3358 Dekret
2918 Delaware
5729 Delegation
613 Delegationen
1130 Delegierte
2099 Delegierten
4662 Delegierter
470 Delfine
1947 Delhi
404 Delikatesse
682 Delikte
642 Dell
430 Delle
1181 Delphi
3452 Delta
525 Demenz
2868 Demo
451 Demobilisierung
1182 Demokrat
5750 Demokraten
8488 Demokratie
489 Demokratien
738 Demokratisch-Republikanischen
4611 Demokratische
12456 Demokratischen
1177 Demokratisierung
2729 Demonstranten
3518 Demonstration
3614 Demonstrationen
870 Demontage
1523 Demos
448 Demut
524 Demütigung
535 Denk
6249 Denken
2176 Denkens
1281 Denker
443 Denkfabrik
14006 Denkmal
6036 Denkmalliste
3479 Denkmalpflege
2024 Denkmals
12403 Denkmalschutz
455 Denkmalschutzbehörde
453 Denkmalschutzes
538 Denkmalschutzgesetz
2489 Denkmalschutzgesetzes
1851 Denkmalschutzvorschriften
608 Denkmalverzeichnis
4227 Denkmäler
819 Denkmälern
1202 Denkschrift
563 Denkweise
3715 Dennis
453 Denunziation
3445 Departement
1693 Departements
645 Deponie
2503 Deportation
992 Deportationen
423 Deportierten
2742 Depot
931 Depots
466 Depp
2948 Depression
1877 Depressionen
424 Deputierter
94103 Der
494 Derivat
819 Derivate
922 Desaster
1053 Descartes
13899 Design
3345 Designer
462 Designerin
1188 Designs
403 Desinfektion
746 Desktop
3946 Dessau
783 Destillation
2771 Detail
7932 Details
1030 Detektiv
672 Detektor
500 Detektoren
1253 Detlef
925 Detlev
617 Detonation
7647 Detroit
17157 Deutsch
422 Deutsch-Dänischen
2811 Deutsch-Französischen
574 Deutsch-Ostafrika
552 Deutsch-Südwestafrika
66903 Deutsche
146629 Deutschen
17602 Deutscher
3203 Deutsches
238069 Deutschland
579 Deutschlandfunk
576 Deutschlandradio
27882 Deutschlands
592 Deutschschweiz
405 Deutschösterreich
4141 Deutung
1213 Deutungen
634 Devise
781 Devisen
1876 Devon
62775 Dezember
522 Dezentralisierung
477 Dezernent
989 Dhabi
1991 Diabetes
3793 Diagnose
2113 Diagnostik
542 Diagonale
944 Diagramm
2000 Diakon
405 Diakone
996 Diakonie
441 Diakonischen
6556 Dialekt
3363 Dialekte
1908 Dialekten
1060 Dialektik
5702 Dialog
2338 Dialoge
1104 Dialogen
661 Dialogs
901 Diamant
1900 Diamanten
3200 Diana
678 Dias
1071 Diaspora
1105 Dich
5715 Dichte
16621 Dichter
1784 Dichterin
1178 Dichtern
3589 Dichters
889 Dichtkunst
5230 Dichtung
1569 Dichtungen
4011 Dick
3185 Dicke
409 Dicken
1366 Didaktik
152381 Die
1072 Dieb
652 Diebe
1867 Diebstahl
574 Diebstahls
3401 Diener
426 Dienerin
42179 Dienst
1355 Dienstag
12150 Dienste
5741 Diensten
2625 Dienstes
2743 Dienstgrad
597 Dienstgrade
405 Dienstherrn
1424 Dienstleister
1524 Dienstleistung
6356 Dienstleistungen
415 Dienstleistungsbereich
1648 Dienstleistungssektor
695 Dienstleistungsunternehmen
698 Dienstmädchen
500 Dienstposten
650 Dienstsitz
2193 Dienststelle
1635 Dienststellen
555 Dienststellung
2506 Dienstzeit
1694 Dies
3611 Diese
2142 Diesel
1156 Diesellokomotiven
1668 Dieselmotor
2004 Dieselmotoren
796 Dieseltriebwagen
842 Dieses
8852 Dieter
10087 Dietrich
487 Dietrichs
541 Differential
643 Differentialgeometrie
773 Differentialgleichung
1556 Differentialgleichungen
3360 Differenz
4672 Differenzen
2195 Differenzierung
849 Diffusion
3556 Digital
649 Digitale
695 Digitalisierung
477 Digitalkameras
1991 Diktator
833 Diktators
3490 Diktatur
436 Diktaturen
751 Dilemma
648 Dill
4237 Dimension
3330 Dimensionen
1452 Ding
8306 Dinge
3563 Dingen
1930 Dinosaurier
524 Dinosauriern
779 Diogenes
841 Dionysios
6833 Diplom
872 Diplom-Ingenieur
521 Diplom-Kaufmann
458 Diplom-Volkswirt
1099 Diplomarbeit
6771 Diplomat
2763 Diplomaten
1065 Diplomatie
499 Diplomatischen
401 Diplomingenieur
411 Diplomprüfung
1071 Dir
1996 Direktion
1005 Direktkandidat
662 Direktkandidaten
1788 Direktmandat
37534 Direktor
1446 Direktoren
2025 Direktorin
1009 Direktorium
607 Direktoriums
1923 Direktors
641 Direktwahl
7263 Dirigent
3053 Dirigenten
1175 Dirigieren
3243 Dirk
405 Diskette
698 Diskografie
862 Diskothek
700 Diskotheken
542 Diskrepanz
2521 Diskriminierung
1745 Diskurs
610 Diskus
10502 Diskussion
6109 Diskussionen
3720 Disney
442 Disneys
1227 Display
437 Displays
1683 Disposition
673 Disput
603 Disqualifikation
11445 Dissertation
764 Dissertationen
684 Dissidenten
7996 Distanz
1600 Distanzen
462 Distanzierung
1503 Distribution
14969 Distrikt
2382 Distrikte
1117 Distrikten
616 Distriktes
2856 Distrikts
7157 Disziplin
6081 Disziplinen
527 Diva
461 Dividende
27321 Division
3414 Divisionen
416 Divisionskommandeur
442 Dixieland
654 Diät
418 Diözesanbischof
10846 Diözese
1496 Diözesen
494 Doch
1182 Dock
686 Docks
550 Documenta
837 Dogen
641 Dogma
1113 Dogmatik
452 Dogmen
9407 Doktor
409 Doktorand
1492 Doktoranden
1926 Doktorarbeit
1268 Doktorgrad
583 Doktors
1682 Doktortitel
635 Doktorvater
414 Doktorwürde
933 Doktrin
4943 Dokument
5304 Dokumentarfilm
1427 Dokumentarfilme
632 Dokumentarfilmen
7296 Dokumentation
1985 Dokumentationen
7486 Dokumente
3507 Dokumenten
421 Dokuments
847 Dolch
14403 Dollar
732 Dolly
1334 Dolmetscher
12080 Dom
1477 Domain
572 Domains
505 Dombaumeister
1158 Dome
1463 Domes
1920 Domherr
911 Domherren
743 Dominante
2781 Dominanz
496 Domini
1395 Dominik
1502 Dominikaner
585 Dominikanische
1261 Dominikanischen
662 Domino
1018 Domizil
3846 Domkapitel
1572 Domkapitels
734 Domkirche
514 Domplatz
2450 Doms
787 Domschule
2228 Domäne
758 Domänen
14801 Don
4499 Donald
14244 Donau
447 Donau-Ries
497 Donaukanal
761 Donaumonarchie
588 Donaustadt
603 Donauufer
1002 Donner
1931 Donnerstag
605 Doping
656 Dopings
7873 Doppel
590 Doppel-CD
461 Doppeladler
560 Doppelalbum
742 Doppeldecker
480 Doppelgänger
830 Doppelkonkurrenz
431 Doppelsieg
1182 Doppelsitzer
503 Doppelstockwagen
799 Doppelte
657 Doppeltitel
1306 Dora
92000 Dorf
442 Dorfbevölkerung
2212 Dorfbewohner
558 Dorfbewohnern
19247 Dorfes
792 Dorfgemeinschaft
526 Dorfgemeinschaften
721 Dorfgemeinschaftshaus
1196 Dorfkern
523 Dorfkerns
4679 Dorfkirche
417 Dorfkirchen
973 Dorfplatz
1330 Dorfs
1133 Dorfschule
647 Dorfsowjet
906 Dorfstraße
492 Dorfzentrum
2229 Doris
735 Dormagen
2027 Dorn
3172 Dornen
1290 Dornier
509 Dorothee
15255 Dortmund
3433 Dortmunder
604 Dose
1471 Dosen
938 Dosierung
1629 Dosis
3299 Double
1492 Dover
899 Dow
2469 Download
576 Downloads
9984 Dozent
1978 Dozenten
1357 Dozentin
1333 Drache
3244 Drachen
1037 Dracula
638 Dragoner
436 Dragoner-Regiment
1471 Draht
501 Drahtzieher
9494 Drama
903 Dramas
752 Dramatik
2637 Dramatiker
1609 Dramaturg
912 Dramaturgie
2564 Dramen
1061 Drang
507 Drechsler
1099 Dreh
426 Drehachse
7812 Dreharbeiten
557 Drehbewegung
14165 Drehbuch
8388 Drehbuchautor
903 Drehbuchautoren
1371 Drehbuchautorin
565 Drehbuchs
2865 Drehbücher
800 Drehbüchern
909 Drehen
908 Dreher
581 Drehgestell
787 Drehgestelle
473 Drehgestellen
496 Drehkreuz
2399 Drehmoment
891 Drehort
429 Drehorte
973 Drehscheibe
1862 Drehung
520 Drehungen
2006 Drehzahl
716 Drehzahlen
5986 Drei
1035 Dreiberg
3720 Dreieck
725 Dreiecke
1145 Dreiecks
890 Dreiecksgiebel
536 Dreier
1480 Dreifaltigkeit
452 Dreiganggetriebe
785 Dreijahresvertrag
820 Dreiländereck
556 Dreisprung
505 Dreiteilung
947 Dreißigjährige
13589 Dreißigjährigen
40815 Dresden
1152 Dresdens
11897 Dresdner
769 Dress
452 Dressur
406 Drift
6520 Dritte
17098 Drittel
1081 Dritteln
10192 Dritten
8900 Dritter
435 Drittplatzierten
997 Droge
4278 Drogen
660 Drogenhandel
586 Drogenkonsum
454 Drohne
554 Drohnen
1138 Drohung
974 Drohungen
27516 Druck
1411 Drucke
722 Drucken
2308 Drucker
3601 Druckerei
582 Druckereien
404 Druckes
964 Druckluft
1156 Drucks
449 Druiden
1261 Drummer
565 Drähte
2382 Drängen
946 Drücken
1274 Drüsen
622 Dschibuti
565 Dschihad
425 Dschingis
1310 Dschungel
5015 Du
653 Dual
783 Dualismus
2433 Dubai
6509 Dublin
758 Duden
4153 Duell
492 Duelle
2444 Duett
424 Duette
980 Duft
9005 Duisburg
505 Duisburg-Essen
1983 Duisburger
616 Dukaten
694 Duldung
843 Dumas
961 Dunkel
2858 Dunkelheit
1380 Dunkeln
679 Dunkle
653 Dunklen
7154 Duo
1126 Duos
541 Dur
540 Durchblutung
13549 Durchbruch
509 Durchdringung
425 Durcheinander
1571 Durchfahrt
968 Durchfall
489 Durchfluss
10959 Durchführung
3572 Durchgang
442 Durchgangsachsen
713 Durchgangsbahnhof
405 Durchgangslager
915 Durchgangsstraßen
923 Durchgangsverkehr
462 Durchgänge
416 Durchgängen
418 Durchlauf
409 Durchlässigkeit
908 Durchmarsch
27638 Durchmesser
891 Durchmessern
455 Durchmischung
582 Durchquerung
403 Durchschlag
7177 Durchschnitt
4415 Durchschnittsalter
9453 Durchschnittseinkommen
846 Durchschnittsgeschwindigkeit
2400 Durchschnittshaushaltsgröße
1257 Durchschnittstemperatur
3271 Durchsetzung
563 Durchsuchung
437 Durchzug
617 Durst
436 Dusche
432 Duschen
4455 Dutzend
658 Dutzende
2901 Dynamik
630 Dynamit
6178 Dynamo
4876 Dynastie
889 Dynastien
1747 Dächer
957 Dächern
888 Dämme
462 Dämmen
1139 Dämmerung
1221 Dämon
2219 Dämonen
599 Dämpfe
880 Dämpfung
457 Däne
20955 Dänemark
2163 Dänemarks
2577 Dänen
616 Dänisch
993 Dänische
1457 Dänischen
17951 Dörfer
9014 Dörfern
633 Düne
1537 Dünen
493 Düngemittel
808 Dünger
665 Düngung
769 Dünkirchen
419 Dünndarm
1108 Dürer
416 Dürers
530 Dürr
870 Dürre
411 Dürrenmatt
607 Düse
460 Düsen
27727 Düsseldorf
6878 Düsseldorfer
402 Düsseldorfs
1031 E-Bass
1278 E-Gitarre
1901 E-Mail
1039 E-Mails
682 EADS
585 EDV
3440 EG
3973 EM
784 ESC
1125 ET
2213 ETH
10431 EU
508 EU-Beitritt
1064 EU-Kommission
436 EU-Mitgliedstaaten
586 EU-Staaten
429 EVA
1242 EWG
673 EZB
800 Ebbe
28395 Ebene
6445 Ebenen
656 Eber
8105 Eberhard
2655 Ebert
2650 Echo
1060 Echte
1740 Echten
640 Echter
1146 Echtheit
1205 Echtzeit
1570 Eck
871 Eckart
9459 Ecke
4895 Ecken
1236 Eckernförde
479 Eckhaus
401 Eckpunkte
537 Eckstein
505 Eckturm
450 Ecktürme
487 Ecktürmen
444 Eckzähne
3373 Ecuador
727 Ecuadors
490 Edel
642 Edelherren
750 Edelmann
478 Edelmetall
1042 Edelstahl
606 Edelsteine
658 Edelsteinen
1766 Eden
1906 Eder
4597 Edgar
6430 Edinburgh
1645 Edison
2405 Edith
6976 Edition
1002 Editionen
1184 Editor
465 Editorial
444 Editors
433 Edle
1113 Edlen
1050 Edler
4709 Edmund
13088 Eduard
532 Eduards
8278 Effekt
5409 Effekte
1119 Effekten
993 Effektivität
2189 Effizienz
865 Ego
447 Egoismus
3483 Egon
44919 Ehe
619 Ehebruch
24578 Ehefrau
1165 Ehefrauen
961 Ehegatten
1592 Eheleute
11829 Ehemann
1058 Ehemannes
721 Ehemanns
2230 Ehen
6057 Ehepaar
676 Ehepaares
574 Ehepaars
734 Ehepartner
2241 Eheschließung
5251 Ehre
16709 Ehren
473 Ehrenamt
798 Ehrenberg
609 Ehrenbreitstein
469 Ehrenburg
3965 Ehrenbürger
437 Ehrenbürgerrecht
799 Ehrenbürgerschaft
819 Ehrenbürgerwürde
2295 Ehrendoktor
683 Ehrendoktortitel
3304 Ehrendoktorwürde
1135 Ehrengrab
595 Ehrenhof
469 Ehrenkreuz
1873 Ehrenlegion
985 Ehrenmal
527 Ehrenmedaille
5241 Ehrenmitglied
497 Ehrenmitgliedschaft
503 Ehrennadel
705 Ehrenpreis
1072 Ehrenpräsident
433 Ehrenring
439 Ehrensenator
2158 Ehrentitel
886 Ehrenvorsitzender
2009 Ehrenzeichen
402 Ehrfurcht
973 Ehrgeiz
813 Ehrlich
1992 Ehrung
1850 Ehrungen
3141 Ei
419 Eibe
666 Eich
434 Eichberg
2975 Eiche
828 Eichel
660 Eicheln
3109 Eichen
919 Eichenholz
1050 Eichenlaub
763 Eichhorn
593 Eichhörnchen
787 Eichmann
1963 Eid
718 Eidechsen
1399 Eidgenossen
2140 Eidgenossenschaft
756 Eidgenössische
1451 Eidgenössischen
10597 Eier
2993 Eiern
2984 Eifel
898 Eifer
1384 Eifersucht
573 Eiffelturm
884 Eigen
932 Eigenart
483 Eigenarten
704 Eigenbedarf
472 Eigenbewegung
687 Eigenbezeichnung
488 Eigengewicht
1030 Eigenheiten
467 Eigeninitiative
993 Eigenkapital
798 Eigenkompositionen
442 Eigenleistung
533 Eigenname
1072 Eigennamen
455 Eigenproduktion
470 Eigenproduktionen
1088 Eigenregie
8984 Eigenschaft
19139 Eigenschaften
715 Eigenschreibweise
2838 Eigenständigkeit
540 Eigentlichen
11551 Eigentum
1382 Eigentums
426 Eigentumsrechte
445 Eigentumswohnungen
11281 Eigentümer
1114 Eigentümerin
929 Eigentümern
604 Eigentümers
423 Eigenverlag
436 Eigenwerte
1165 Eigner
1692 Eignung
588 Eiland
704 Eile
686 Eimer
18776 Ein
433 Einband
4318 Einbau
497 Einbauten
1893 Einberufung
650 Einbettung
3293 Einbeziehung
2090 Einbindung
2865 Einblick
1420 Einblicke
489 Einbringen
427 Einbringung
2561 Einbruch
422 Einbrüche
550 Einbußen
578 Einbürgerung
1767 Eindringen
590 Eindringlinge
11218 Eindruck
1778 Eindrücke
435 Eindrücken
511 Eindämmung
1478 Einfachheit
1770 Einfahrt
1538 Einfall
707 Einfamilienhäuser
560 Einfamilienhäusern
752 Einfassung
48536 Einfluss
1423 Einflussbereich
1689 Einflusses
405 Einflussfaktoren
406 Einflussgebiet
1701 Einflussnahme
8215 Einflüsse
3107 Einflüssen
930 Einfuhr
744 Einfälle
459 Einfällen
421 Einfügen
30431 Einführung
2004 Eingabe
857 Eingaben
15460 Eingang
875 Eingangs
2015 Eingangsbereich
1161 Eingangshalle
991 Eingangsportal
683 Eingangstor
809 Eingangstür
464 Eingeborenen
3886 Eingliederung
2145 Eingreifen
2843 Eingriff
2655 Eingriffe
985 Eingriffen
1637 Eingänge
722 Eingängen
577 Einhalt
4173 Einhaltung
1133 Einheimische
3653 Einheimischen
24948 Einheit
22489 Einheiten
486 Einheitlichkeit
1257 Einheitsgemeinde
728 Einheitspartei
673 Einhorn
1310 Einigkeit
4107 Einigung
591 Einjahresvertrag
735 Einjährig-Freiwilliger
1015 Einkauf
437 Einkaufs
585 Einkaufsmöglichkeiten
1140 Einkaufszentren
3036 Einkaufszentrum
475 Einkaufszentrums
2184 Einklang
7906 Einkommen
934 Einkommens
860 Einkommensteuer
3074 Einkünfte
729 Einkünften
6110 Einladung
813 Einladungen
538 Einlage
1162 Einlagen
509 Einlagerung
648 Einlass
3351 Einleitung
3883 Einmarsch
894 Einmischung
4104 Einmündung
5737 Einnahme
7309 Einnahmen
1236 Einnahmequelle
411 Einnahmequellen
3096 Einordnung
493 Einquartierungen
1226 Einreise
22279 Einrichtung
19480 Einrichtungen
466 Einrichtungsgegenstände
2142 Eins
1615 Einsamkeit
93023 Einsatz
548 Einsatzbereitschaft
2771 Einsatzes
1319 Einsatzgebiet
591 Einsatzgebiete
695 Einsatzgruppe
511 Einsatzgruppen
673 Einsatzkräfte
463 Einsatzmöglichkeiten
525 Einsatzort
647 Einsatzzeit
556 Einsatzzweck
478 Einschalten
1082 Einschaltquoten
1194 Einschlag
1121 Einschlagkrater
755 Einschluss
1701 Einschnitt
574 Einschnitte
3198 Einschränkung
4180 Einschränkungen
3748 Einschätzung
584 Einschätzungen
1287 Einsetzen
1561 Einsetzung
2177 Einsicht
685 Einsichten
1232 Einsiedeln
1097 Einsiedler
418 Einsitz
1347 Einsitzer
432 Einsparung
757 Einsparungen
526 Einspielergebnis
717 Einspielung
908 Einspielungen
1630 Einspruch
1064 Einstand
2495 Einstein
491 Einsteins
451 Einstellen
12540 Einstellung
2619 Einstellungen
3721 Einstieg
1402 Einstufung
1572 Einsturz
434 Einsturzgefahr
11088 Einsätze
10171 Einsätzen
1327 Eintagesrennen
5184 Einteilung
6869 Eintracht
3145 Eintrag
2069 Eintragung
816 Eintragungen
1882 Eintreffen
1174 Eintreten
7834 Eintritt
526 Eintrittskarten
2251 Einträge
528 Einträgen
1569 Einvernehmen
1759 Einverständnis
543 Einwand
4665 Einwanderer
1521 Einwanderern
2341 Einwanderung
1166 Einwechselspieler
604 Einwechslung
5703 Einweihung
561 Einweisung
1220 Einwilligung
1690 Einwirkung
585 Einwirkungen
112306 Einwohner
473 Einwohnerentwicklung
515 Einwohnergemeinde
54112 Einwohnern
975 Einwohnerschaft
18314 Einwohnerzahl
2482 Einwohnerzahlen
1003 Einwände
13598 Einzel
1280 Einzelausstellung
862 Einzelausstellungen
512 Einzelblüten
2014 Einzelfall
1443 Einzelfällen
1075 Einzelgänger
401 Einzelhaft
1851 Einzelhandel
569 Einzelhandels
2399 Einzelheiten
442 Einzelhändler
1141 Einzelhöfe
552 Einzelkonkurrenz
621 Einzellauf
447 Einzelmeisterschaft
764 Einzelne
4178 Einzelnen
2227 Einzelpersonen
906 Einzelrennen
1178 Einzels
487 Einzelstaaten
543 Einzelstück
415 Einzelstücke
829 Einzelteile
466 Einzelteilen
667 Einzeltitel
820 Einzelwertung
764 Einzelwettbewerb
1470 Einzelzeitfahren
500 Einziehung
429 Einzigartigkeit
655 Einzige
10302 Einzug
1653 Einzugsbereich
7456 Einzugsgebiet
585 Einzugsgebietes
458 Einzylindermotor
1024 Einöde
10359 Eis
514 Eisbrecher
1613 Eisbären
8757 Eisen
4042 Eisenach
1178 Eisenacher
15321 Eisenbahn
2224 Eisenbahn-Gesellschaft
1033 Eisenbahnanschluss
916 Eisenbahnbau
1824 Eisenbahnbrücke
503 Eisenbahndirektion
3014 Eisenbahnen
633 Eisenbahner
3261 Eisenbahngesellschaft
757 Eisenbahngesellschaften
529 Eisenbahnknoten
723 Eisenbahnknotenpunkt
4082 Eisenbahnlinie
915 Eisenbahnlinien
727 Eisenbahnmuseum
2614 Eisenbahnnetz
440 Eisenbahnnetzes
6133 Eisenbahnstrecke
1382 Eisenbahnstrecken
687 Eisenbahntunnel
1159 Eisenbahnverbindung
734 Eisenbahnverkehr
519 Eisenbahnverkehrsunternehmen
1147 Eisenberg
1930 Eisenerz
728 Eisengießerei
732 Eisenhütte
535 Eisenhüttenstadt
1079 Eisenstadt
808 Eisenstein
469 Eisenwerk
453 Eisenwerke
2726 Eisenzeit
1563 Eiserne
3780 Eisernen
573 Eises
434 Eisfeld
423 Eisfläche
494 Eishalle
5422 Eishockey
662 Eishockey-Liga
583 Eishockey-Weltmeisterschaft
479 Eishockeyabteilung
1584 Eishockeyliga
1171 Eishockeymannschaft
995 Eishockeynationalmannschaft
11218 Eishockeyspieler
1539 Eishockeyspielklasse
926 Eishockeytorwart
673 Eiskunstlauf
882 Eiskunstläufer
715 Eiskunstläuferin
1201 Eisleben
403 Eisschnelllauf
404 Eisschnellläufer
473 Eissporthalle
537 Eisstadion
525 Eisvogel
3530 Eiszeit
727 Eiszeiten
439 Eitel
440 Eitelkeit
815 Eiweiß
560 Eizelle
447 Ekel
983 Eklat
642 Elastizität
548 Elba
9972 Elbe
452 Elbe-Elster
561 Elche
1027 Elefant
2897 Elefanten
814 Eleganz
2343 Elektrifizierung
434 Elektrik
529 Elektriker
566 Elektrische
2333 Elektrizität
1084 Elektrizitätswerk
453 Elektrizitätswerke
754 Elektrode
1293 Elektroden
412 Elektrodynamik
453 Elektroindustrie
460 Elektroingenieur
631 Elektrolokomotiven
438 Elektrolyse
1212 Elektromotor
1016 Elektromotoren
1138 Elektron
4492 Elektronen
3343 Elektronik
846 Elektronische
423 Elektronischen
467 Elektrons
3694 Elektrotechnik
10354 Element
446 Elementarteilchen
1185 Elementarzelle
22772 Elemente
7609 Elementen
1039 Elements
1466 Elend
1987 Eleonore
2403 Elf
637 Elfen
1252 Elfenbein
2156 Elfenbeinküste
1384 Elfmeter
3368 Elfmeterschießen
476 Elfte
878 Elfter
877 Eli
2889 Elias
532 Elis
19773 Elisabeth
691 Elisabeths
3469 Elite
1055 Eliten
727 Eliza
906 Elke
981 Elle
2922 Ellen
422 Ellenbogen
582 Ellipse
5413 Elsass
2831 Elster
712 Elsässer
42324 Eltern
2978 Elternhaus
832 Elternteil
496 Elternteile
554 Elternvögel
4275 Emanuel
1450 Emanzipation
1085 Emblem
1185 Embryo
479 Embryonen
4766 Emden
5863 Emeritierung
739 Emeritus
1975 Emigranten
2499 Emigration
9900 Emil
1297 Emilia
647 Emirat
1085 Emirate
839 Emiraten
1100 Emission
1149 Emissionen
446 Emittenten
3973 Emma
561 Emotion
1910 Emotionen
452 Empathie
3653 Empfang
3625 Empfangsgebäude
605 Empfangsgebäudes
4424 Empfehlung
2681 Empfehlungen
702 Empfinden
1204 Empfindlichkeit
619 Empfindung
877 Empfindungen
4453 Empfänger
561 Empfängers
894 Empfängnis
951 Empor
4009 Empore
1643 Emporen
1179 Empörung
2866 Ems
1455 Emsland
578 EnBW
569 Endabrechnung
1170 Endbahnhof
270197 Ende
4986 Enden
739 Endergebnis
1932 Endes
494 Endgeräte
733 Endhaltestelle
1069 Endkampf
472 Endkunden
1473 Endphase
591 Endprodukt
4036 Endpunkt
423 Endpunkte
5937 Endrunde
7201 Endspiel
547 Endspiele
409 Endspiels
1033 Endstand
2712 Endstation
2270 Endung
542 Endungen
543 Endverbraucher
22782 Energie
587 Energiebedarf
602 Energieeffizienz
604 Energieerzeugung
895 Energiegewinnung
3135 Energien
695 Energiequelle
433 Energiequellen
424 Energietechnik
648 Energieträger
843 Energieverbrauch
498 Energieversorger
1944 Energieversorgung
463 Energieversorgungsunternehmen
612 Energiewirtschaft
15925 Engagement
5240 Engagements
1529 Enge
8286 Engel
1562 Engeln
2940 Engels
450 Engelskirchen
404 Enger
4388 Engineering
59131 England
4414 Englands
13339 Englisch
3538 Englische
6190 Englischen
5376 Engländer
440 Engländerin
1551 Engländern
515 Engpässe
9258 Enkel
2593 Enkelin
578 Enkelkinder
1037 Enklave
417 Enklaven
12376 Ensemble
1437 Ensemblemitglied
4031 Ensembles
495 Entartete
431 Entbindung
3493 Entdecker
449 Entdeckers
10011 Entdeckung
1891 Entdeckungen
807 Ente
2070 Enteignung
447 Enteignungen
1106 Enten
1072 Entente
876 Entertainer
1289 Entfaltung
1206 Entfernen
19364 Entfernung
2277 Entfernungen
1075 Entfremdung
898 Entführer
2621 Entführung
1191 Entgelt
586 Enthauptung
456 Enthusiasmus
651 Enthüllung
612 Entladung
8757 Entlassung
454 Entlassungen
1987 Entlastung
621 Entlohnung
716 Entmachtung
935 Entnahme
428 Entre
845 Entropie
714 Entscheid
23125 Entscheidung
9133 Entscheidungen
619 Entscheidungsfindung
530 Entscheidungsschlacht
1482 Entscheidungsspiel
617 Entscheidungsträger
469 Entschließung
523 Entschlossenheit
2701 Entschluss
558 Entschlüsselung
807 Entschuldigung
3178 Entschädigung
501 Entschädigungen
1149 Entsendung
749 Entsetzen
1197 Entsorgung
1124 Entspannung
1817 Entsprechung
481 Entsprechungen
2216 Entstehen
18031 Entstehung
1245 Entstehungsgeschichte
2178 Entstehungszeit
2014 Enttäuschung
421 Entwerfen
3958 Entwickler
787 Entwicklern
91472 Entwicklung
8024 Entwicklungen
402 Entwicklungsabteilung
413 Entwicklungsarbeiten
653 Entwicklungsgeschichte
816 Entwicklungshilfe
832 Entwicklungsländer
1592 Entwicklungsländern
466 Entwicklungsphase
534 Entwicklungspolitik
408 Entwicklungsprozess
404 Entwicklungsstufe
500 Entwicklungsumgebung
545 Entwicklungszeit
685 Entwicklungszusammenarbeit
859 Entwicklungszyklus
16871 Entwurf
746 Entwurfs
1845 Entwässerung
5228 Entwürfe
4153 Entwürfen
559 Entzifferung
960 Entzug
1637 Entzündung
995 Entzündungen
1823 Enzyklopädie
2353 Enzym
1993 Enzyme
632 Enzymen
731 Enzyms
585 Epen
855 Epidemie
788 Epidemien
402 Epidemiologie
779 Epilepsie
529 Epilog
6837 Episode
7966 Episoden
401 Epizentrum
7705 Epoche
2920 Epochen
1723 Epos
429 Equipe
924 Equipment
1291 Erarbeitung
1790 Erasmus
2438 Erbauer
1672 Erbauung
10141 Erbe
7286 Erben
1403 Erbes
1224 Erbfolge
2784 Erbfolgekrieg
844 Erbfolgekrieges
513 Erbfolgekriegs
508 Erbgang
547 Erbgut
673 Erbherr
1766 Erbin
426 Erblindung
555 Erbprinz
503 Erbprinzen
1262 Erbrechen
728 Erbrecht
1836 Erbschaft
557 Erbsen
814 Erbstollen
951 Erbteilung
670 Erbtochter
451 Erdarbeiten
1245 Erdatmosphäre
6870 Erdbeben
672 Erdbebens
442 Erdbeeren
1873 Erdboden
31140 Erde
1581 Erden
2939 Erdgas
794 Erdgeschichte
7910 Erdgeschoss
731 Erdgeschosses
403 Erdhügel
1072 Erdkruste
540 Erdkunde
1258 Erdmann
3145 Erdoberfläche
1142 Erdreich
565 Erdumlaufbahn
512 Erdwall
3127 Erdöl
8719 Ereignis
15321 Ereignisse
6117 Ereignissen
1062 Ereignisses
657 Eremitage
10758 Erfahrung
17332 Erfahrungen
591 Erfahrungsaustausch
3288 Erfassung
6441 Erfinder
454 Erfinders
6775 Erfindung
1892 Erfindungen
69681 Erfolg
25785 Erfolge
5379 Erfolgen
2208 Erfolges
567 Erfolglosigkeit
1645 Erfolgs
500 Erfolgsserie
415 Erfordernis
586 Erfordernisse
876 Erfordernissen
10287 Erforschung
12099 Erfurt
2679 Erfurter
4398 Erfüllung
30944 Ergebnis
21026 Ergebnisse
4010 Ergebnissen
647 Ergebnisses
414 Ergreifung
4246 Ergänzung
1329 Ergänzungen
540 Ergänzungsspieler
6358 Erhalt
6999 Erhaltung
553 Erhaltungszustand
2526 Erhard
511 Erhardt
15789 Erhebung
3337 Erhebungen
1299 Erhitzen
2396 Erholung
820 Erholungsgebiet
1101 Erholungsort
419 Erhängen
7544 Erhöhung
13217 Erich
750 Ericsson
2294 Erika
10622 Erinnerung
4791 Erinnerungen
1218 Eritrea
1126 Erkennen
6069 Erkenntnis
7314 Erkenntnisse
2798 Erkenntnissen
895 Erkenntnistheorie
1271 Erkennung
659 Erkennungszeichen
1282 Erker
11825 Erklärung
2369 Erklärungen
585 Erkrankten
9035 Erkrankung
6219 Erkrankungen
1545 Erkundung
418 Erkundungen
6744 Erlangen
1135 Erlangen-Nürnberg
1925 Erlangung
4353 Erlass
415 Erlasse
6797 Erlaubnis
579 Erle
1192 Erleben
1728 Erlebnis
3323 Erlebnisse
885 Erlebnissen
1021 Erledigung
1058 Erleichterung
850 Erlen
1146 Erlernen
799 Erleuchtung
2904 Erliegen
805 Erläuterung
1478 Erläuterungen
1532 Erlös
831 Erlöschen
760 Erlöse
558 Erlöser
1486 Erlösung
663 Ermangelung
800 Ermessen
1352 Ermittler
3491 Ermittlung
5232 Ermittlungen
1258 Ermittlungsverfahren
556 Ermordeten
8120 Ermordung
495 Ermächtigung
12657 Ernennung
5180 Erneuerung
39767 Ernst
429 Ernstfall
430 Ernsthaftigkeit
2975 Ernte
567 Ernten
6530 Ernährung
1612 Eroberer
12361 Eroberung
1184 Eroberungen
823 Eros
2479 Erosion
715 Erotik
801 Erpressung
2352 Erprobung
2691 Erreger
1407 Erregung
805 Erreichbarkeit
6847 Erreichen
1169 Erreichung
21780 Errichtung
1305 Errungenschaften
10093 Ersatz
804 Ersatzbank
851 Ersatzmann
578 Ersatzspieler
706 Ersatzteile
464 Ersatzteilen
479 Ersatztorhüter
874 Erschaffung
6573 Erscheinen
454 Erscheinens
12785 Erscheinung
2236 Erscheinungen
5014 Erscheinungsbild
619 Erscheinungsform
777 Erscheinungsformen
428 Erscheinungsjahr
967 Erschießung
466 Erschießungen
4806 Erschließung
1289 Erschöpfung
588 Erschütterungen
631 Ersetzung
429 Ersparnisse
1045 Erst
461 Erstarken
2176 Erstaufführung
695 Erstauflage
530 Erstaunen
1399 Erstausgabe
3905 Erstausstrahlung
5270 Erstbeschreibung
881 Erstbesteigung
9933 Erste
1145 Erstellen
5675 Erstellung
67460 Ersten
7710 Erster
1626 Ersterwähnung
573 Erstes
2938 Erstflug
863 Erstlingswerk
678 Erstnennung
728 Erstplatzierte
979 Erstplatzierten
1101 Erststimmen
1232 Erstveröffentlichung
994 Erstürmung
590 Ersuchen
1362 Erteilung
2151 Ertrag
2259 Erträge
550 Erträgen
1004 Eruption
681 Eruptionen
692 Erwachen
4099 Erwachsene
4677 Erwachsenen
1103 Erwachsenenalter
595 Erwachsenenbereich
1693 Erwachsenenbildung
896 Erwachsener
1833 Erwartung
5407 Erwartungen
682 Erwartungswert
15574 Erweiterung
3956 Erweiterungen
1522 Erweiterungsbau
406 Erweiterungsbauten
6726 Erwerb
414 Erwerber
422 Erwerbs
516 Erwerbsquote
709 Erwerbsstruktur
2811 Erwerbstätige
1372 Erwerbstätigen
541 Erwerbstätigkeit
522 Erwerbszweig
426 Erwerbungen
5908 Erwin
1020 Erwägung
1027 Erwägungen
19151 Erwähnung
1453 Erwähnungen
2578 Erwärmung
755 Erythrozyten
2040 Erz
29343 Erzbischof
4330 Erzbischofs
1625 Erzbischöfe
446 Erzbischöfen
408 Erzbischöflichen
9447 Erzbistum
4457 Erzbistums
2161 Erzdiözese
988 Erze
509 Erzen
1245 Erzengel
634 Erzeuger
2344 Erzeugnisse
736 Erzeugnissen
4871 Erzeugung
496 Erzfeind
3192 Erzgebirge
822 Erzgebirges
465 Erzgebirgskreis
3336 Erzherzog
805 Erzherzogin
550 Erzherzogs
1962 Erzieher
678 Erzieherin
9729 Erziehung
527 Erziehungsanstalt
828 Erziehungswissenschaft
743 Erziehungswissenschaften
1082 Erzielte
447 Erzielung
716 Erzrivalen
914 Erzstift
4471 Erzähler
405 Erzählerin
746 Erzählers
9938 Erzählung
8997 Erzählungen
18785 Eröffnung
1487 Eröffnungsfeier
605 Eröffnungsspiel
409 Erörterung
7094 Es
556 Es-Dur
849 Esche
739 Eschen
713 Escher
2313 Eschweiler
1547 Esel
823 Eskalation
461 Eskorte
524 Esoterik
925 Esperanto
2020 Essay
842 Essayist
3490 Essays
19243 Essen
3148 Essener
442 Essenz
646 Esser
783 Essig
710 Essigsäure
3249 Esslingen
500 Establishment
5879 Estland
1795 Estlands
677 Estnische
1272 Estnischen
520 Et
2482 Etablierung
2179 Etage
2835 Etagen
7422 Etappe
3698 Etappen
723 Etappenrennen
652 Etappensieg
869 Etat
1496 Ethanol
621 Ethernet
4247 Ethik
1420 Ethnie
4666 Ethnien
677 Ethnologe
444 Ethnologen
1639 Ethnologie
715 Etikett
410 Etiketten
890 Eton
888 Etymologie
665 Euch
424 Eugenik
981 Eule
750 Eulen
401 Eulenburg
430 Eulenfalter
548 Eulenspiegel
912 Euler
480 Eunuchen
565 Eupen
496 Euphorie
994 Euphrat
888 Eurasien
667 Eure
46798 Euro
76243 Europa
462 Europa-Tournee
511 Europa-Union
2451 Europacup
4658 Europameister
1014 Europameisterin
11831 Europameisterschaft
8219 Europameisterschaften
1024 Europameistertitel
694 Europaparlament
4856 Europapokal
948 Europapokals
659 Europarat
735 Europarates
475 Europarecht
17430 Europas
2586 Europastraße
958 Europatournee
1470 Europawahl
4490 Europäer
1474 Europäern
10953 Europäische
26347 Europäischen
1127 Europäischer
1587 Europäisches
401 Eurosport
4283 Eurovision
771 Euthanasie
6221 Eva
1956 Evakuierung
894 Evaluation
1159 Evangelien
843 Evangelisch-Lutherische
2365 Evangelisch-Lutherischen
987 Evangelisch-lutherischen
5983 Evangelische
11328 Evangelischen
545 Evangelischer
940 Evangelist
2434 Evangelisten
1703 Evangelium
714 Evangeliums
1044 Everest
4094 Evolution
1078 Evolutionstheorie
457 Ewige
602 Ewigen
1407 Ewigkeit
1058 Ex
509 Ex-Frau
426 Ex-Klub
3403 Examen
744 Exekution
2085 Exekutive
405 Exekutivkomitee
436 Exekutivkomitees
4628 Exemplar
15614 Exemplare
8508 Exemplaren
9913 Exil
943 Exilregierung
591 Exils
14593 Existenz
748 Exkommunikation
960 Exkursionen
4994 Expansion
10719 Expedition
2753 Expeditionen
477 Expeditionskorps
4015 Experiment
433 Experimentalphysik
4828 Experimente
568 Experimentelle
2126 Experimenten
613 Experiments
2336 Experte
4935 Experten
530 Expertise
690 Exploration
4726 Explosion
1055 Explosionen
1616 Expo
2709 Exponate
988 Exponaten
655 Exponenten
4372 Export
899 Exporte
2194 Exposition
4551 Express
2022 Expressionismus
609 Extension
835 Extra
572 Extraktion
1807 Extraliga
522 Extras
1074 Extreme
946 Extremfall
909 Extremitäten
426 Exzellenz
581 Exzentrizität
526 F-Dur
1203 FAZ
2505 FBI
63910 FC
780 FDGB
1208 FDJ
11442 FDP
524 FDP-Fraktion
2453 FF
621 FR
633 Fabel
605 Fabeln
1578 Fabian
9966 Fabrik
891 Fabrikant
1300 Fabrikanten
560 Fabrikarbeiter
686 Fabrikation
3880 Fabriken
846 Fabrikgebäude
1285 Facebook
725 Facetten
483 Facettenaugen
10826 Fach
536 Facharbeiter
404 Fachartikel
1165 Facharzt
764 Fachbegriff
3960 Fachbereich
1007 Fachbereiche
759 Fachbereichen
864 Fachbereichs
440 Fachbibliothek
679 Fachbücher
853 Faches
2158 Fachgebiet
641 Fachgebiete
601 Fachgebieten
531 Fachgesellschaften
717 Fachgruppe
6213 Fachhochschule
1489 Fachhochschulen
689 Fachhochschulreife
1104 Fachkreisen
737 Fachkräfte
1363 Fachleute
1209 Fachleuten
1875 Fachliteratur
948 Fachmann
400 Fachmesse
442 Fachoberschule
1011 Fachpresse
1451 Fachrichtung
1200 Fachrichtungen
460 Fachs
2651 Fachschule
588 Fachschulen
694 Fachsprache
577 Fachverband
1631 Fachwelt
1809 Fachwerk
948 Fachwerkbau
411 Fachwerkbauten
625 Fachwerkbauweise
1560 Fachwerkhaus
1009 Fachwerkhäuser
554 Fachwerkhäusern
717 Fachwissen
3771 Fachzeitschrift
2609 Fachzeitschriften
832 Fackel
456 Fackeln
1634 Faden
437 Fahndung
3818 Fahne
1776 Fahnen
726 Fahnenjunker
445 Fahnenträger
708 Fahr
2704 Fahrbahn
533 Fahrbahnen
489 Fahrdienstleiter
1170 Fahren
14614 Fahrer
444 Fahrerhaus
543 Fahrerlaubnis
1826 Fahrern
778 Fahrers
1053 Fahrerwertung
529 Fahrgast
807 Fahrgastzahlen
2102 Fahrgestell
700 Fahrgestelle
4133 Fahrgäste
1393 Fahrgästen
535 Fahrkarten
553 Fahrleistungen
489 Fahrleitung
402 Fahrlässigkeit
612 Fahrmotoren
1700 Fahrplan
2753 Fahrrad
421 Fahrrinne
1391 Fahrräder
843 Fahrrädern
700 Fahrspuren
1062 Fahrstreifen
12669 Fahrt
4418 Fahrten
1926 Fahrtrichtung
470 Fahrverhalten
448 Fahrwasser
720 Fahrweg
444 Fahrweise
2743 Fahrwerk
1874 Fahrzeit
17326 Fahrzeug
506 Fahrzeugbau
28567 Fahrzeuge
8796 Fahrzeugen
1442 Fahrzeuges
2700 Fahrzeugs
2030 Fair
430 Fairness
2470 Fakten
6210 Faktor
7941 Faktoren
23321 Fakultät
3186 Fakultäten
1047 Falke
1644 Falken
795 Falklandinseln
56250 Fall
13845 Falle
1360 Fallen
758 Falles
580 Fallhöhe
4572 Falls
961 Fallschirm
882 Fallschirmjäger
843 Falten
4892 Falter
537 Faltung
168834 Familie
39773 Familien
617 Familienangehörige
1091 Familienangehörigen
2197 Familienbesitz
635 Familienbetrieb
732 Familieneinkommen
662 Familiengeschichte
673 Familiengrab
748 Familiengruft
2950 Familiengröße
620 Familienleben
570 Familienmitglied
2045 Familienmitglieder
613 Familienmitgliedern
7601 Familienname
2868 Familiennamen
405 Familiennamens
497 Familiensitz
535 Familientradition
2011 Familienunternehmen
409 Familienunternehmens
459 Familienvater
1023 Familienwappen
504 Familienzweig
2019 Fan
411 Fanclub
1614 Fang
10471 Fans
977 Fantasie
413 Fantastischen
448 Faraday
21138 Farbe
18989 Farben
554 Farbfilm
2093 Farbgebung
724 Farbigkeit
1019 Farbstoff
937 Farbstoffe
429 Farbstoffen
1070 Farbton
602 Farbtöne
408 Farbtönen
484 Farce
5281 Farm
935 Farmen
2578 Farmer
540 Farmers
460 Farne
3011 Faschismus
866 Faschisten
704 Faser
2897 Fasern
1013 Fass
12373 Fassade
2816 Fassaden
13272 Fassung
2027 Fassungen
1915 Fassungsvermögen
1299 Fast
645 Fasten
684 Fastenzeit
708 Fastnacht
1114 Faszination
400 Fatima
3353 Fauna
4352 Faust
1532 Favorit
2740 Favoriten
770 Fazit
976 Feature
1284 Features
52124 Februar
727 Februarrevolution
799 Fechten
653 Fechter
4072 Feder
1546 Federführung
1392 Federgewicht
409 Federkleid
3336 Federn
580 Federung
669 Fee
617 Feedback
404 Feen
3291 Fehde
872 Fehden
642 Fehlbildungen
4707 Fehlen
570 Fehlens
11007 Fehler
1559 Fehlern
457 Fehlers
420 Fehlgeburt
701 Fehlschlag
678 Fehlverhalten
4391 Feier
401 Feierabend
2602 Feierlichkeiten
1832 Feiern
1611 Feiertag
955 Feiertage
2020 Feiertagen
521 Feigen
5122 Feind
4670 Feinde
2004 Feinden
893 Feindes
598 Feindfahrt
467 Feindfahrten
1218 Feindschaft
754 Feindseligkeiten
19507 Feld
466 Feldarbeit
433 Feldartillerie-Regiment
419 Feldbach
723 Feldberg
1295 Felde
7656 Felder
4635 Feldern
2218 Feldes
1791 Feldherr
884 Feldherren
1415 Feldherrn
675 Feldkirchen
568 Feldlager
479 Feldmann
1017 Feldmark
2091 Feldmarschall
401 Feldmarschalls
508 Feldspieler
764 Feldsteinen
511 Feldsteinkirche
655 Feldstärke
585 Feldwebel
461 Feldweg
6235 Feldzug
802 Feldzuges
597 Feldzugs
1527 Feldzüge
1561 Feldzügen
445 Felgen
9873 Felix
5337 Fell
417 Fellbach
1543 Felle
468 Fellen
420 Fells
3812 Fels
421 Felsbrocken
7915 Felsen
549 Felsformationen
722 Felsspalten
885 Felswand
476 Felswände
660 Felswänden
730 Feminismus
21348 Fenster
975 Fensterachsen
4217 Fenstern
572 Fensters
828 Fensteröffnungen
21942 Ferdinand
1043 Ferdinands
1391 Ferien
476 Ferienhäuser
512 Ferienort
720 Ferienwohnungen
788 Fern
4452 Fernando
447 Fernbedienung
1634 Ferne
1250 Fernen
540 Ferner
491 Fernhandel
714 Fernmeldeturm
422 Fernmeldewesen
608 Fernost
573 Fernrohr
474 Fernsehauftritt
675 Fernsehauftritte
25808 Fernsehen
2081 Fernsehens
1305 Fernseher
3692 Fernsehfilm
713 Fernsehfilme
1374 Fernsehfilmen
1072 Fernsehmoderator
816 Fernsehmoderatorin
921 Fernsehpreis
633 Fernsehproduktion
3381 Fernsehproduktionen
770 Fernsehprogramm
476 Fernsehprogramme
682 Fernsehrollen
432 Fernsehschauspieler
5706 Fernsehsender
531 Fernsehsendern
1036 Fernsehsenders
1932 Fernsehsendung
1456 Fernsehsendungen
12669 Fernsehserie
6457 Fernsehserien
1126 Fernsehshow
652 Fernsehshows
466 Fernsehspiel
1014 Fernsehturm
3869 Fernstraße
741 Fernstraßen
907 Fernstudium
1907 Fernverkehr
497 Fernverkehrsstraße
792 Fernwanderweg
683 Fernwärme
456 Fernzüge
1814 Ferrara
5235 Ferrari
606 Fersen
1746 Fertigkeiten
12873 Fertigstellung
5766 Fertigung
597 Fesseln
8239 Fest
708 Festakt
5199 Feste
1598 Festen
1178 Festes
492 Festhalle
796 Festhalten
1705 Festigkeit
940 Festigung
23424 Festival
8005 Festivals
512 Festkörper
419 Festkörpern
607 Festkörperphysik
7813 Festland
554 Festlandes
2890 Festlegung
788 Festlegungen
633 Festlichkeiten
1722 Festnahme
430 Festnahmen
1371 Festplatte
1053 Festplatten
441 Festplatz
1350 Festsaal
928 Festschrift
605 Festsetzung
2010 Festspiele
2413 Festspielen
517 Festspielhaus
2765 Feststellung
1039 Feststoff
607 Festtag
434 Festtagen
18612 Festung
2607 Festungen
555 Festwochen
2193 Fett
854 Fette
496 Fetten
1276 Fettsäuren
553 Feucht
747 Feuchtgebiet
909 Feuchtgebiete
652 Feuchtgebieten
2424 Feuchtigkeit
558 Feuchtwangen
879 Feuchtwiesen
421 Feudalherren
15031 Feuer
1119 Feuerbach
450 Feuergefecht
586 Feuerkraft
492 Feuerland
1076 Feuers
549 Feuersbrunst
1283 Feuerstein
532 Feuerstelle
940 Feuerstellen
862 Feuerwache
838 Feuerwaffen
10469 Feuerwehr
978 Feuerwehrhaus
425 Feuerwehrleute
880 Feuerwerk
685 Feuilleton
597 Feuilletons
443 Fiasko
3171 Fiat
1735 Fichte
890 Fichtelgebirge
1535 Fichten
1229 Fidel
2114 Fieber
21448 Figur
21329 Figuren
1306 Fiktion
4435 Filiale
3913 Filialen
162803 Film
997 Filmakademie
413 Filmarbeit
827 Filmaufnahmen
463 Filmauftritt
483 Filmbiografie
524 Filmbranche
1619 Filmdebüt
3097 Filmdrama
23840 Filme
2797 Filmemacher
405 Filmemacherin
409 Filmemachern
19830 Filmen
2594 Filmes
709 Filmfest
2455 Filmfestival
1681 Filmfestivals
1635 Filmfestspiele
2093 Filmfestspielen
971 Filmgeschichte
1572 Filmgeschäft
685 Filmgesellschaft
624 Filmhochschule
1470 Filmindustrie
1306 Filmkarriere
768 Filmkomponist
3142 Filmkomödie
558 Filmkritik
944 Filmkritiker
522 Filmkunst
856 Filmmaterial
4159 Filmmusik
2876 Filmpreis
467 Filmpreise
590 Filmpreises
1670 Filmproduktion
1689 Filmproduktionen
423 Filmproduktionsfirma
455 Filmproduktionsgesellschaft
2871 Filmproduzent
904 Filmproduzenten
493 Filmproduzentin
530 Filmprojekt
4575 Filmregisseur
462 Filmregisseurin
735 Filmreihe
1524 Filmrolle
1197 Filmrollen
23889 Films
1887 Filmschauspieler
1185 Filmschauspielerin
780 Filmstudio
892 Filmstudios
561 Filmtitel
420 Filmverleih
667 Filmwirtschaft
2679 Filter
554 Filtern
406 Filterung
506 Filz
2782 Final
37258 Finale
702 Finales
802 Finalspiel
630 Finalspiele
644 Finalspielen
2000 Finanz
1339 Finanzamt
513 Finanzausschuss
499 Finanzdienstleistungen
5415 Finanzen
9540 Finanzierung
2011 Finanzkrise
462 Finanzlage
3855 Finanzminister
1596 Finanzministerium
477 Finanzministeriums
562 Finanzministers
675 Finanzmittel
493 Finanzpolitik
953 Finanzverwaltung
435 Finden
624 Findling
4118 Finger
412 Fingerabdrücke
1297 Fingern
453 Fingers
1128 Fink
1088 Finne
1517 Finnen
453 Finnisch
524 Finnische
1229 Finnischen
12629 Finnland
2699 Finnlands
1396 Finsternis
621 Firefox
608 Firewall
59134 Firma
10957 Firmen
445 Firmengelände
542 Firmengruppe
787 Firmengründer
690 Firmengründers
431 Firmenleitung
689 Firmennamen
2924 Firmensitz
500 Firmware
10459 First
5984 Fisch
531 Fischart
1479 Fischarten
1014 Fischbach
7728 Fische
4203 Fischen
14696 Fischer
1035 Fischerdorf
3713 Fischerei
492 Fischereihafen
822 Fischern
744 Fischers
473 Fisches
2476 Fischfang
456 Fischmarkt
525 Fischotter
479 Fischteiche
698 Fischzucht
1148 Fitness
1299 Fitzgerald
436 Fix
1047 Fixierung
1215 Fjord
484 Flach
543 Flachdach
559 Flachdecke
1269 Flachland
638 Flachs
12563 Flagge
1925 Flaggen
2258 Flaggschiff
804 Flair
612 Flak
569 Flamen
415 Flamenco
1510 Flamme
3249 Flammen
4368 Flandern
2596 Flanke
3145 Flanken
2030 Flasche
2249 Flaschen
1574 Flash
1036 Flechten
3398 Fleck
626 Flecke
8107 Flecken
860 Fledermaus
