
\data\
ngram 1=45557
ngram 2=2905

\1-grams:
1 <unk>
1 <s>
1 </s>
1 <num>
1357 ABA
236 ACM
8550 ADN
176 ALBA
331 AMA
175 ANA
162 ANDA
307 ANSI
1278 ARA
194 ARENA
571 ARIA
1435 AS
295 ASA
572 ASCII
244 ATA
510 AVE
1926 Abad
2039 Abadía
1659 Abajo
383 Abarca
324 Abasto
190 Abastos
167 Abate
547 Abe
679 Abierta
2192 Abierto
216 Abisinia
301 Abismo
193 Abogacía
725 Abogado
1135 Abogados
162 Abona
338 Abra
155 Abrazo
4615 Abril
174 Absoluta
229 Absoluto
198 Abuela
276 Abuelas
541 Abuelo
153 Abuelos
436 Acacia
30181 Academia
617 Academias
593 Académica
1262 Académico
259 Académicos
843 Acceso
201 Accidentes
5965 Acción
157 Acedo
206 Aceite
288 Acequia
861 Acero
195 Acorazada
186 Acorazado
921 Acre
322 Acreditación
352 Acres
617 Acrópolis
2880 Acta
518 Actas
219 Activa
358 Active
931 Acto
1097 Actor
870 Actores
950 Actriz
448 Actuación
1153 Actualmente
488 Acuario
370 Acueducto
2567 Acuerdo
925 Acuerdos
195 Acuático
1682 Acuña
824 Ada
189 Adagio
184 Adama
731 Adelantado
519 Adelante
320 Adentro
716 Adiós
706 Adjunto
591 Administraciones
9689 Administración
748 Administrador
175 Administradora
698 Administrativa
364 Administrativas
1223 Administrativo
151 Admirable
961 Adobe
152 Adolescente
415 Adonis
639 Adoración
239 Adorno
178 Adra
2072 Adrián
1264 Adriático
768 Aduana
425 Aduanas
154 Aduanera
353 Adultos
304 Adventista
150 Adviento
1707 Adán
193 Aeroespacial
453 Aerolíneas
233 Aeronaval
1054 Aeronáutica
327 Aeronáutico
10982 Aeropuerto
340 Aeropuertos
319 Aerotransportada
420 Aeródromo
155 Aficionado
275 Aficionados
1555 Africana
1038 Africano
174 Africanos
151 Afroamericana
829 Afrodita
192 Afuera
4369 Agencia
181 Agencias
493 Agenda
760 Agente
265 Agentes
277 Agonía
4146 Agosto
1266 Agraria
197 Agrarias
523 Agrario
237 Agregado
159 Agricultores
3977 Agricultura
564 Agronomía
387 Agropecuaria
224 Agropecuario
183 Agrupaciones
2391 Agrupación
1623 Agrícola
224 Agrícolas
153 Agrónomo
5219 Agua
203 Aguacate
451 Aguada
452 Aguado
2038 Aguas
225 Aguinaldo
483 Agustina
175 Agustinas
464 Agustinos
11066 Agustín
1006 Agüero
648 Ah
390 Ahorro
1057 Ahorros
608 Ahumada
2890 Aire
62754 Aires
1379 Ajedrez
1204 Ala
2072 Alameda
213 Alar
745 Alas
204 Alavesa
601 Alavés
4314 Alba
368 Albaida
335 Albano
249 Albatros
197 Alberca
621 Albino
171 Albo
191 Alborada
695 Albornoz
309 Albufera
203 Alcaide
4782 Alcalde
407 Alcaldes
240 Alcaldesa
1692 Alcaldía
5519 Alcalá
232 Alcantarilla
385 Alcarria
281 Alcatraz
345 Alcazaba
182 Alcohol
288 Alcor
192 Alcoyano
2162 Alcántara
2115 Alcázar
210 Alcázares
1416 Aldea
209 Aldeas
188 Alegoría
2629 Alegre
1045 Alegría
19018 Alejandro
3293 Alejandría
1950 Alejo
3406 Alemana
380 Alemanes
55196 Alemania
3958 Alemán
367 Alerta
2046 Alfa
213 Alfabetización
347 Alfabeto
398 Alfaguara
274 Alfonsina
24931 Alfonso
453 Alfoz
7862 Alfredo
589 Alférez
260 Algarrobo
211 Alguacil
250 Alguien
278 Alhucemas
173 Alhóndiga
213 Aliada
303 Aliadas
290 Aliado
2377 Aliados
304 Aliaga
10121 Alianza
342 Alias
7725 Alicante
4042 Alicia
590 Alimentación
164 Alimentaria
614 Alimentos
168 Alineados
428 Aliste
290 Aljarafe
3349 Allende
337 Allá
2131 Alma
285 Almacenes
257 Almacén
308 Almadén
2831 Almagro
194 Almanaque
712 Almas
325 Almenara
305 Almendra
167 Almendros
876 Almirantazgo
3933 Almirante
208 Almunia
194 Alomar
11094 Alonso
4802 Alpes
190 Alpina
638 Alpino
10758 Alta
943 Altar
929 Altas
294 Altea
893 Alternativa
574 Alternativo
568 Alteza
578 Altiplano
16578 Alto
3152 Altos
413 Alumnos
286 Alzamiento
735 Alzheimer
337 Alá
231 Ama
197 Amada
871 Amado
1169 Amador
412 Aman
616 Amanecer
229 Amantes
645 Amar
207 Amara
327 Amargura
627 Amarilla
1311 Amarillo
621 Amaro
4732 Amazonas
868 Amazonia
303 Amazónica
1240 Ambiental
239 Ambientales
2860 Ambiente
239 Amenazadas
4376 Americana
209 Americanas
2814 Americano
1009 Americanos
322 Ames
871 Amiga
728 Amigo
2750 Amigos
367 Amir
1009 Amistad
774 Amnistía
1050 Amo
5178 Amor
530 Amores
660 Amos
1201 Amparo
338 Ampliación
1199 Amplio
180 Amplitud
58092 América
809 Amón
16270 Ana
161 Anagrama
1036 Anales
301 Anarquista
226 Anarquía
682 Anastasia
735 Anatomía
416 Ancha
186 Anciano
410 Ancianos
483 Ancón
281 Anda
259 Andaluces
170 Andalucista
940 Andaluz
656 Andaluza
8459 Andes
916 Andina
856 Andino
359 Ando
1911 Andorra
17021 Andrés
160 Andén
453 Anexo
368 Anfiteatro
530 Anglicana
254 Anglo
885 Angostura
166 Anguila
416 Angulema
713 Angustias
1048 Angélica
1880 Anillo
1686 Anillos
298 Animación
1351 Animal
579 Anime
978 Aniversario
270 Anotados
3092 Antena
194 Antiaérea
486 Antiaéreo
209 Anticristo
4870 Antigua
7250 Antiguo
732 Antiguos
1866 Antigüedad
435 Antigüedades
2518 Antillas
722 Antología
2034 Antonia
872 Antonino
57752 Antonio
422 Antorcha
1908 Antropología
1830 Antártica
1388 Antártico
730 Anual
371 Anuario
993 Anunciación
1128 Análisis
796 Anónima
1132 Apache
155 Aparecida
161 Apartheid
323 Apeadero
967 Apelaciones
237 Apelación
6323 Apertura
184 Apiano
189 Apio
532 Aplicada
444 Aplicadas
1629 Apocalipsis
242 Apolinar
164 Apología
180 Apostolado
1042 Apostólica
1178 Apostólico
328 Aprendizaje
277 Apuntes
795 Apure
255 Apéndice
2302 Apóstol
1305 Apóstoles
231 Aquilea
1833 Aquiles
198 Aquilino
1181 Aquí
561 Ara
3527 Arabia
220 Arad
182 Arado
395 Aragonesa
556 Aragonés
212 Aran
1568 Arana
162 Aras
184 Araucaria
362 Araña
325 Arbitraje
262 Arbitral
458 Arboleda
899 Arca
1023 Arcadia
399 Arcadio
206 Arcaico
178 Arcas
1671 Arce
284 Archicofradía
949 Archidiócesis
540 Archiduque
1214 Archipiélago
214 Archive
257 Archives
7673 Archivo
903 Archivos
308 Arciprestazgo
185 Arcipreste
2517 Arco
1514 Arcos
1455 Arcángel
271 Arda
236 Arden
2247 Are
4063 Arena
785 Arenal
727 Arenales
2995 Arenas
155 Arenillas
905 Ares
1164 Argel
266 Argentan
83427 Argentina
965 Argentinas
8977 Argentino
1909 Argentinos
261 Argento
1102 Argos
400 Aria
3830 Arias
2799 Arica
541 Aries
645 Arista
152 Arlequín
810 Arma
12681 Armada
4622 Armadas
151 Armado
195 Armamento
3499 Armando
3272 Armas
4441 Armenia
313 Armenio
249 Armero
294 Armería
246 Armisticio
397 Armonía
235 Aro
200 Arpa
1387 Arqueología
329 Arqueológica
1701 Arqueológico
170 Arquero
1993 Arquidiócesis
770 Arquitecto
846 Arquitectos
4149 Arquitectura
155 Arquitectónico
523 Arquímedes
378 Arrabal
245 Arrancar
616 Arras
245 Arrate
296 Arrecife
264 Arrecifes
2093 Arriba
251 Arribes
4191 Arroyo
947 Arroyos
256 Arroz
2722 Arsenal
15048 Arte
964 Artemisa
22553 Artes
194 Artesanos
192 Artesanía
174 Artesanías
344 Artificial
1761 Artillería
1405 Artista
1577 Artistas
8534 Arturo
1199 Artículo
400 Artículos
752 Artística
1530 Artístico
151 Artísticos
823 Arzobispado
264 Arzobispal
3392 Arzobispo
281 Arábiga
195 Arábigo
2114 As
256 Asa
706 Asalto
16031 Asamblea
880 Asambleas
871 Ascensión
1233 Ascenso
237 Asedio
539 Asen
157 Ases
346 Asesino
217 Asesinos
1227 Asesor
267 Asesora
181 Asesores
321 Asesoría
22308 Asia
431 Asilo
275 Asimismo
767 Asiria
1077 Asistencia
635 Asistente
653 Asiática
901 Asiático
1028 Asociaciones
23575 Asociación
793 Asociado
635 Asociados
198 Asteroide
564 Astillero
339 Astilleros
163 Astracán
380 Astral
242 Astro
232 Astrofísica
719 Astronomía
628 Astronómica
499 Astronómico
455 Astros
181 Astur
667 Asturiana
217 Asturiano
12518 Asturias
8064 Asunción
4997 Asuntos
1806 Asís
360 Atalanta
700 Atalaya
150 Ate
883 Atención
1436 Atenea
2210 Ateneo
786 Atlante
2817 Atlas
179 Atleta
1391 Atletismo
884 Atlántica
12675 Atlántico
798 Atlánticos
362 Atlética
13362 Atlético
263 Atléticos
1013 Atocha
152 Atolón
497 Atómica
177 Audaz
5281 Audiencia
195 Audiencias
800 Audio
766 Audiovisual
372 Audiovisuales
204 Auditor
1575 Auditorio
217 Auditoría
2220 Augusta
8829 Augusto
629 Aula
389 Aura
2748 Aurora
1242 Austral
30025 Australia
652 Australiana
514 Australiano
16821 Austria
260 Austriaca
182 Austriaco
194 Austríaca
1287 Auto
151 Autobiografía
525 Autobuses
261 Autodefensa
254 Autodefensas
169 Automotor
190 Automovilismo
1312 Automóvil
239 Automóviles
492 Autonomista
1402 Autonomía
328 Autonómica
181 Autonómico
2433 Autopista
215 Autopistas
887 Autores
2607 Autoridad
241 Autorretrato
173 Autos
1515 Autovía
263 Auténtico
11372 Autónoma
722 Autónomas
802 Autónomo
175 Autónomos
522 Auxiliadora
777 Auxiliar
323 Auxiliares
224 Auxilio
285 Avance
374 Avanzada
270 Avanzado
380 Avanzados
988 Avatar
997 Ave
2806 Avellaneda
18806 Avenida
310 Avenidas
647 Aventura
680 Aventuras
869 Aves
3033 Aviación
1661 Avilés
224 Avispa
657 Ay
376 Aya
348 Ayer
464 Ayudante
14099 Ayuntamiento
442 Ayuntamientos
153 Azar
254 Azara
250 Azcona
1281 Azores
2587 Azteca
260 Aztecas
238 Azua
183 Azucarera
329 Azucena
7230 Azul
238 Azulejos
633 Azules
605 Azúcar
9806 Aérea
1058 Aéreas
1849 Aéreo
241 Aéreos
186 BAR
426 BE
155 BLOC
669 Baba
424 Babel
150 Babia
2242 Babilonia
284 Baca
822 Bachiller
1314 Bachillerato
167 Bachilleres
203 Bactriana
8596 Bahía
282 Baila
554 Bailando
783 Baile
9970 Baja
395 Bajada
342 Bajas
6404 Bajo
11757 Bajos
302 Bala
360 Balada
267 Balance
967 Balboa
237 Balcánica
179 Balcón
241 Bale
364 Balear
3541 Baleares
199 Ballena
760 Ballesteros
2939 Ballet
511 Balneario
992 Balompié
2880 Baloncesto
1184 Balonmano
294 Balsa
333 Balsas
399 Balta
631 Balón
182 Bamba
262 Banana
729 Banca
267 Bancaria
170 Bancario
15513 Banco
677 Bancos
6524 Banda
584 Bandas
3273 Bandera
839 Banderas
310 Bando
264 Bao
394 Baptista
1792 Bar
481 Barajas
207 Baranda
707 Barba
805 Barbados
2216 Barbara
302 Barbera
327 Barbero
335 Barbuda
1442 Barca
49242 Barcelona
166 Barcia
1184 Barco
197 Bardo
352 Barlovento
179 Baronesa
234 Baronía
201 Barquera
1332 Barra
186 Barraca
691 Barracas
160 Barracuda
226 Barradas
644 Barragán
728 Barranca
452 Barrancas
1316 Barranco
152 Barranqueras
182 Barras
292 Barre
497 Barreda
1638 Barrera
151 Barrero
264 Barriga
6528 Barrio
2690 Barrios
310 Barro
1700 Barroco
1840 Barros
713 Barroso
276 Barrón
2559 Barón
4083 Base
650 Bases
1886 Basilio
221 Basta
395 Bastilla
175 Basto
246 Bastos
4060 Basílica
288 Bata
17892 Batalla
389 Batallador
307 Batallas
243 Batallones
4582 Batallón
784 Batería
651 Bates
1699 Batista
162 Bato
248 Batán
363 Bautismo
7915 Bautista
179 Bayas
314 Bayo
160 Bayón
521 Baza
263 Bazar
318 Baño
1308 Baños
3673 Be
270 Beata
578 Beato
218 Bebe
485 Beca
764 Becerra
224 Becerril
341 Becerro
356 Bejarano
532 Belga
2765 Bella
11858 Bellas
799 Belleza
226 Bellido
2340 Bello
2875 Belén
186 Bendita
2210 Benedicto
724 Beneficencia
203 Benemérita
263 Benemérito
1435 Bengala
515 Benigno
151 Benita
6973 Benito
2176 Benjamín
313 Bentos
525 Beocia
216 Berengario
186 Bermeja
1015 Bermejo
797 Bermudas
293 Bernarda
8408 Bernardo
197 Berro
223 Berrocal
850 Berta
236 Beso
229 Besos
1242 Bestia
1126 Beta
384 Bey
5965 Biblia
188 Biblias
245 Bibliografía
10775 Biblioteca
708 Bibliotecas
1606 Bicentenario
2985 Bien
1861 Bienal
667 Bienes
710 Bienestar
267 Bienvenida
285 Bienvenido
1558 Bierzo
326 Bikini
9168 Bilbao
150 Bingo
283 Biodiversidad
339 Biografía
1863 Biología
354 Biológica
477 Biológicas
430 Bioquímica
712 Biosfera
208 Biotecnología
168 Bioética
289 Bit
363 Bitinia
606 Bizantino
154 Bizarro
10296 Blanca
1208 Blancas
9662 Blanco
249 Blandengues
360 Blindada
445 Bloc
1821 Bloque
195 Bloqueo
2776 Blues
554 Boa
272 Boadilla
180 Boas
169 Boba
250 Bobo
6223 Boca
750 Bocas
177 Boda
396 Bodas
504 Bodega
381 Bodegas
902 Body
151 Bogado
2646 Bohemia
559 Bola
265 Bolaño
836 Bolaños
229 Bolchevique
242 Bolero
1509 Boletín
844 Bolivariana
215 Bolivariano
185 Bolivarianos
406 Boliviana
650 Boliviano
179 Bolo
2169 Bolsa
490 Bolsón
9969 Bolívar
434 Bomba
343 Bombardeo
1101 Bomberos
166 Bombo
356 Bombonera
178 Bonaerense
369 Bonanza
183 Bonete
228 Bongo
490 Bonita
276 Bonito
916 Bono
948 Boom
460 Boquerón
477 Borda
187 Borden
246 Boreal
4975 Borgoña
1826 Borneo
247 Borrego
3403 Bosnia
3684 Bosque
739 Bosques
345 Bota
157 Botas
297 Botella
549 Botero
2650 Botánica
3519 Botánico
405 Botánicos
192 Botín
1135 Boxeo
711 Brabante
1160 Braga
280 Bragado
197 Braille
183 Bramante
355 Brandy
42249 Brasil
755 Brasileña
987 Brasileño
854 Brava
4844 Bravo
551 Bravos
394 Brazo
177 Brazos
247 Brea
518 Bree
192 Brenes
15693 Bretaña
399 Bretón
635 Breve
4787 Brigada
997 Brigadas
1016 Brigadier
211 Brillante
258 Brisas
5197 Británica
1144 Británicas
4734 Británico
298 Británicos
210 Broca
3043 Bronce
205 Bronco
333 Broncos
849 Bruja
1215 Brujas
412 Brujo
150 Brujos
4802 Bruselas
1026 Bruto
270 Buceo
2292 Buda
464 Budismo
184 Budista
1985 Buen
2458 Buena
741 Buenas
1597 Buenaventura
1792 Bueno
61985 Buenos
365 Buey
174 Bufo
444 Bula
515 Bulevar
268 Buque
2647 Burdeos
186 Burgas
858 Burgo
11222 Burgos
193 Burro
380 Buró
797 Bus
302 Buscando
196 Buses
411 Busto
1088 Bustos
265 Butrón
2133 Báltico
4004 Bárbara
232 Bárbaro
819 Básica
247 Básicas
425 Básico
2505 Béisbol
11339 Bélgica
169 Bésame
556 Bética
211 Bíblica
168 Bíblico
186 Bóer
484 Bósforo
256 Bóveda
287 Búfalo
193 Búho
397 Búlgaro
1062 CA
410 CAD
184 CAN
1206 CE
308 CEA
586 CEDA
182 CES
241 CIMA
292 CITES
555 COPE
1890 CPU
617 Ca
365 Cabal
179 Cabalgata
6185 Caballero
3309 Caballeros
2219 Caballería
517 Caballito
1202 Caballo
330 Caballos
282 Cabaña
870 Cabañas
237 Cabe
465 Cabecera
1092 Cabello
2112 Cabeza
744 Cabezas
411 Cabezo
478 Cabezón
4179 Cabildo
177 Cabildos
1225 Cable
8120 Cabo
244 Cabos
842 Cabra
213 Cabras
4143 Cabrera
193 Cabrero
164 Cabré
189 Cacao
530 Cacho
166 Cachorro
333 Cachorros
679 Cacique
311 Cactus
172 Cadalso
3010 Cadena
310 Cadenas
245 Cadete
387 Cadetes
861 Caen
2951 Café
229 Caicos
642 Caimán
3988 Caja
460 Cajas
284 Cajón
731 Cal
701 Cala
310 Calabozo
764 Calahorra
2097 Calatrava
276 Calavera
1069 Calcio
1865 Caldas
1023 Caldera
4948 Calderón
210 Cale
1773 Caledonia
427 Calendario
915 Calera
773 Caleta
1092 Calidad
647 Caliente
206 Calientes
299 Califa
748 Califato
37511 California
3932 Callao
353 Callas
8900 Calle
583 Calleja
206 Callejas
493 Callejón
1112 Calles
188 Callosa
840 Calvados
1594 Calvario
2741 Calvo
1517 Calzada
188 Calzado
174 Camaleón
263 Camarones
269 Camarón
151 Camas
156 Camba
1664 Cambio
4682 Cambridge
388 Camera
199 Camerino
581 Cameros
214 Camilla
2615 Camilo
6726 Camino
1619 Caminos
165 Camisas
259 Campa
669 Campamento
1213 Campana
237 Campanario
204 Campanas
2621 Campaña
304 Campeador
2366 Campeche
438 Campeona
28753 Campeonato
2735 Campeonatos
5144 Campeones
665 Campero
384 Campesina
499 Campesino
336 Campesinos
154 Campestre
4963 Campeón
685 Campillo
203 Camping
452 Campiña
12915 Campo
6183 Campos
2325 Campus
2751 Can
165 Cana
1079 Canadiense
226 Canadienses
23724 Canadá
17896 Canal
306 Canalejas
1013 Canales
223 Cananea
4708 Canaria
8961 Canarias
774 Canario
347 Cancha
1385 Canciller
718 Cancillería
554 Cancionero
5831 Canción
225 Candamo
511 Candela
2496 Candelaria
441 Canela
852 Canelones
548 Cangrejo
211 Canillas
2520 Cano
166 Canoas
925 Canon
151 Canosa
512 Canta
274 Cantando
803 Cantar
264 Cantares
183 Cantata
163 Cante
349 Cantera
220 Canteras
255 Cantero
2139 Canto
213 Cantonal
164 Cantones
455 Cantor
268 Cantores
670 Cantos
807 Cantábrica
1174 Cantábrico
2590 Cantón
562 Canuto
158 Canónica
591 Canónico
172 Canónigo
843 Caos
339 Capa
458 Capacitación
835 Cape
229 Capellán
5936 Capilla
7049 Capital
191 Capitana
406 Capitanes
1539 Capitanía
927 Capitolio
401 Capitular
9065 Capitán
311 Capo
230 Capone
287 Capote
171 Capricho
276 Caprichos
321 Capricornio
452 Capuchinos
1431 Capítulo
214 Capítulos
1091 Cara
1161 Carabineros
333 Caracalla
11586 Caracas
1554 Caracol
576 Caras
177 Caravana
167 Carbonera
159 Carbonero
506 Carbonífero
482 Carbón
3110 Cardenal
588 Cardenales
259 Cardeña
176 Cardinal
156 Cardiología
1372 Cardona
221 Caretas
1813 Carey
342 Caria
10337 Caribe
1724 Caridad
213 Carioca
183 Cariño
1149 Carla
1000 Carlista
242 Carlistas
75909 Carlos
1685 Carlota
235 Carmelita
688 Carmelitas
12392 Carmen
152 Carmesí
2504 Carnaval
248 Carnavales
432 Carne
271 Carnero
181 Carnicero
207 Carniola
1571 Caro
304 Carola
10841 Carolina
460 Carolinas
165 Carpintero
192 Carraca
2721 Carranza
219 Carrascal
1887 Carrasco
224 Carrascosa
4515 Carrera
1203 Carreras
359 Carrero
286 Carretas
4055 Carretera
666 Carreteras
198 Carretero
1085 Carril
2859 Carrillo
374 Carrizal
480 Carrizo
289 Carro
183 Carros
240 Carrusel
3759 Carta
156 Cartaginés
1151 Cartas
585 Cartel
747 Cartuja
1663 Carvajal
279 Carvallo
29292 Casa
234 Casación
1059 Casado
786 Casal
1265 Casanova
249 Casar
1032 Casares
157 Casariego
4407 Casas
494 Cascada
246 Cascadas
162 Cascante
920 Casco
787 Case
195 Casero
1111 Caseros
161 Cases
445 Casillas
2154 Casino
164 Casinos
858 Casio
493 Casona
939 Caspio
220 Casta
336 Castas
215 Castañar
1265 Castañeda
724 Castaño
281 Castaños
1024 Castellana
1041 Castellano
1204 Castellanos
548 Castellar
156 Castigador
32510 Castilla
330 Castillejo
210 Castillejos
16145 Castillo
314 Castillos
401 Casto
233 Castor
247 Castres
13851 Castro
2311 Catalana
214 Catalanas
483 Catalanes
7118 Catalina
233 Catalogue
967 Catalán
578 Catar
362 Cataratas
399 Catastro
170 Cate
362 Catecismo
11999 Catedral
797 Catedrático
2403 Categoría
274 Cato
262 Catolicismo
197 Catorce
1077 Catálogo
15800 Católica
182 Católicas
1891 Católico
3106 Católicos
649 Catón
297 Caudillo
1382 Causa
275 Cautivo
369 Cava
176 Cavada
704 Cave
2420 Cayo
276 Cayos
1082 Caza
410 Cazador
314 Cazadora
934 Cazadores
202 Cazalla
440 Caída
203 Caído
293 Caídos
581 Caín
293 Caña
2204 Cañada
239 Cañadas
214 Cañar
1060 Cañas
354 Cañaveral
185 Cañedo
1005 Cañete
244 Cañizares
599 Caño
194 Cañones
248 Caños
208 Cañuelas
1184 Cañón
194 Ce
491 Cea
384 Cebú
249 Cedro
183 Cedros
464 Ceilán
199 Ceja
475 Cela
826 Celeste
357 Celestial
369 Celestina
750 Celestino
1091 Celia
1374 Celta
192 Celtas
177 Celular
3793 Cementerio
296 Cemento
157 Cementos
1841 Cena
525 Cenicienta
273 Ceniza
226 Cenozoico
79405 Censo
174 Censor
470 Censos
324 Centauro
150 Centauros
169 Centelles
2519 Centenario
457 Centeno
307 Centinela
219 Centinelas
31676 Central
1025 Centrales
2546 Centre
35360 Centro
667 Centroafricana
584 Centroamericana
442 Centroamericano
772 Centroamericanos
1560 Centros
306 Centurión
1203 Cepeda
206 Cera
318 Cercado
302 Cercano
1552 Cercanías
1790 Cerda
374 Cerebro
179 Cereceda
293 Ceremonia
358 Ceremonioso
670 Cerezo
1289 Cero
205 Cerrada
378 Cerrado
306 Cerrillos
9767 Cerro
326 Cerros
722 Certamen
222 Certificación
339 Certificado
180 Cerveceros
432 Cervecería
290 Cerveza
164 Cervino
568 Cerámica
1729 Cesar
695 Cesare
308 Cesáreo
179 Chacal
4086 Chaco
1069 Chacón
904 Chamorro
429 Champaña
219 Chapa
247 Chaparral
265 Chaparro
179 Chapinero
1013 Charcas
300 Charco
15634 Charles
192 Charro
227 Chato
1437 Che
3850 Checa
185 Checo
204 Checoslovaca
325 Chef
153 Chic
1265 Chica
565 Chicas
158 Chicha
185 Chichas
2948 Chico
441 Chicos
4112 Chihuahua
71656 Chile
2417 Chilena
1013 Chileno
35278 China
508 Chincha
562 Chinchilla
267 Chinchón
1772 Chino
150 Chinos
486 Chip
387 Chiquita
258 Chiquito
205 Chiquitos
177 Chiva
868 Chivas
156 Chivo
539 Chocolate
587 Chocó
233 Chola
159 Choque
224 Chorrera
569 Chorrillos
234 Chorro
283 Chota
156 Chozas
339 Chucho
154 Churriana
188 Chus
570 Cibeles
170 Cibernético
1446 Cicerón
913 Ciclismo
1053 Ciclista
1045 Ciclo
290 Ciclón
2459 Cid
153 Ciega
380 Ciego
159 Ciegos
1904 Cielo
241 Cielos
1429 Cien
4989 Ciencia
21359 Ciencias
158 Ciento
1153 Científica
928 Científicas
1114 Científico
281 Científicos
404 Cierva
320 Cima
435 Cinca
2415 Cinco
8312 Cine
997 Cinema
525 Cinematografía
325 Cinematográfica
533 Cinematográficas
201 Cinematográfico
406 Cinematográficos
263 Cinta
192 Cintura
700 Cinturón
201 Circe
1040 Circo
1769 Circuito
501 Circuitos
323 Circular
594 Circunscripción
420 Circunvalación
274 Cirenaica
158 Ciruelos
1069 Cirugía
274 Cirujano
327 Cisco
315 Cisma
487 Cisne
291 Cisterna
212 Cita
251 Citerior
269 Cité
48255 Ciudad
963 Ciudadana
930 Ciudadano
462 Ciudadanos
360 Ciudadanía
1127 Ciudadela
23876 Civil
889 Civiles
270 Civilización
396 Ciénaga
1336 Clan
163 Clanes
4983 Clara
229 Clarisas
1016 Claro
152 Claros
1660 Clarín
3458 Clase
186 Clasicismo
1029 Clasificación
2569 Claudia
487 Claustro
4882 Clausura
172 Clavel
217 Claveles
214 Clavero
201 Clavé
294 Clemencia
4372 Clemente
286 Clementina
242 Clero
158 Cliente
324 Climático
376 Clon
56816 Club
1944 Clubes
1006 Clásica
2235 Clásico
431 Clásicos
1532 Clínica
299 Clínicas
463 Clínico
2513 Coalición
196 Cobija
767 Cobra
159 Cobras
757 Cobre
835 Coca
352 Coche
198 Cochinos
329 Cocina
1402 Coco
323 Cocos
188 Codina
3378 Cofradía
562 Cofradías
264 Cogolla
173 Cojo
830 Col
801 Cola
2015 Colección
215 Colectiva
633 Colectivo
166 Colectora
237 Colegial
277 Colegiales
761 Colegiata
20775 Colegio
860 Colegios
152 Coles
2368 Colima
1221 Colina
574 Colinas
1274 Coliseo
975 Collado
303 Collar
152 Collazo
176 Colman
185 Colmar
252 Colmena
628 Colmenar
280 Colmenares
168 Colmillo
1600 Colombiana
1734 Colombiano
207 Colombianos
948 Colombo
363 Colon
9220 Colonia
1097 Colonial
799 Colonias
580 Colonización
1336 Color
373 Colorada
6577 Colorado
322 Colorados
428 Coloso
1315 Columna
8087 Colón
426 Coma
170 Comanche
726 Comandancia
6081 Comandante
201 Comandantes
2848 Comando
378 Comandos
2254 Comarca
455 Comarcal
339 Comas
162 Comba
2082 Combate
248 Combatientes
159 Combinada
399 Combo
1805 Come
1510 Comedia
221 Comedias
826 Comendador
212 Comentario
425 Comentarios
2542 Comercial
389 Comerciales
7420 Comercio
623 Comes
304 Cometa
167 Cometas
683 Comillas
1299 Comisario
254 Comisarios
501 Comisaría
1108 Comisionado
1233 Comisiones
21014 Comisión
15270 Comité
545 Comités
1283 Comodoro
218 Comparada
14574 Compañía
374 Compañías
262 Compendio
705 Competencia
454 Competición
216 Competitividad
1691 Complejo
368 Complete
2968 Complutense
674 Composición
520 Compositores
3252 Compostela
550 Compromiso
622 Computación
1718 Comuna
570 Comunal
243 Comuneros
1216 Comunes
2496 Comunicaciones
3599 Comunicación
17993 Comunidad
2057 Comunidades
198 Comunismo
9077 Comunista
630 Comunistas
514 Comunitaria
417 Comunitario
155 Comunitarios
811 Comunión
1272 Común
483 Concejal
208 Concejales
3052 Concejo
259 Concejos
316 Concentración
12612 Concepción
854 Concertación
1994 Concha
377 Conchas
237 Conciencia
2108 Concierto
518 Conciertos
185 Conciliación
430 Conciliar
4115 Concilio
179 Concilios
292 Concordato
369 Concorde
1868 Concordia
2677 Concurso
10942 Condado
293 Condal
10204 Conde
1777 Condes
1347 Condesa
491 Condestable
169 Conducta
478 Conejo
241 Conexión
588 Confederaciones
8366 Confederación
468 Confederados
6373 Conferencia
544 Conferencias
238 Confesiones
220 Confesión
160 Confesor
448 Conflicto
6329 Congo
2645 Congregación
313 Congresista
31219 Congreso
899 Congresos
198 Conjunción
202 Conjunta
1913 Conjunto
262 Conmigo
604 Cono
522 Conocimiento
1623 Conquista
763 Conquistador
274 Consejera
2116 Consejero
359 Consejeros
1510 Consejería
36863 Consejo
1091 Consejos
157 Consenso
1584 Conservación
2013 Conservador
248 Conservadora
171 Conservadores
4982 Conservatorio
457 Consistorial
277 Consistorio
187 Consola
456 Consolación
1235 Consorcio
331 Conspiración
253 Constancia
389 Constante
3546 Constantino
5366 Constantinopla
4236 Constitucional
407 Constitucionales
341 Constitucionalista
463 Constituciones
20901 Constitución
3463 Constituyente
700 Constituyentes
527 Construcciones
202 Constructora
225 Constructores
228 Consuegra
1012 Consuelo
953 Consulado
300 Consulta
334 Consultiva
553 Consultivo
166 Consultor
251 Consumidor
415 Consumo
487 Contabilidad
863 Contador
334 Contaduría
1261 Contemporánea
1361 Contemporáneo
162 Contemporáneos
159 Contencioso
183 Contenidos
1000 Conteo
275 Contigo
3079 Continental
620 Continentales
704 Continente
152 Contraalmirante
160 Contralmirante
337 Contrarreforma
341 Contrarreloj
338 Contratación
192 Contratos
3566 Control
557 Convenciones
5337 Convención
1493 Convenio
243 Convenios
3912 Convento
666 Convergencia
162 Conversaciones
215 Convictorio
1955 Cooperación
1448 Cooperativa
268 Cooperativas
1046 Coordinación
1160 Coordinador
1013 Coordinadora
51193 Copa
1828 Copas
653 Cope
168 Coplas
239 Coraje
2038 Coral
785 Corazones
4610 Corazón
269 Corbeta
192 Corcovado
1663 Cordero
4971 Cordillera
150 Cordilleras
165 Cordobesa
194 Cordobés
491 Cordón
12054 Corea
194 Coreana
209 Coreano
185 Corintios
1320 Corinto
707 Cornejo
2659 Coro
10180 Corona
647 Coronación
239 Coronada
1027 Coronado
281 Coronas
7695 Coronel
295 Coros
3820 Corporación
174 Corporativa
2092 Corpus
1381 Corral
979 Corrales
206 Corre
2753 Correa
1131 Corredor
221 Corredores
511 Corregidor
689 Corregimiento
1437 Correo
1216 Correos
192 Correspondencia
798 Corriente
4770 Corrientes
210 Corriere
221 Corro
348 Corsa
319 Corso
13018 Corte
8937 Cortes
539 Cortijo
604 Cortina
415 Corto
171 Cortos
5097 Cortés
5459 Coruña
301 Corvino
363 Corzo
1313 Corán
803 Cosa
275 Cosacos
496 Cosas
839 Cosmos
221 Coso
26077 Costa
467 Costanera
504 Costarricense
515 Costas
747 Costera
165 Costero
375 Costilla
410 Cota
661 Coto
176 Coulomb
458 Coyote
193 Coyotes
680 Craso
1085 Creación
463 Creador
272 Creadores
170 Creativa
285 Credo
441 Creed
198 Crema
204 Creo
475 Crepúsculo
1698 Crespo
2025 Creta
222 Cretáceo
2822 Cretácico
162 Criado
462 Cricket
587 Crimen
797 Criminal
192 Criminología
218 Criolla
156 Criollo
158 Criollos
291 Cripta
2121 Crisis
2478 Cristal
178 Cristales
2292 Cristiana
300 Cristianas
268 Cristiandad
1036 Cristianismo
1957 Cristiano
911 Cristianos
6750 Cristina
19228 Cristo
8380 Cristóbal
530 Croata
236 Croatas
384 Cronista
253 Cronistas
347 Crono
269 Cronos
490 Cruce
748 Crucero
227 Cruceros
1381 Cruces
571 Crucificado
200 Crucifijo
422 Crucifixión
455 Cruel
34697 Cruz
1805 Cruzada
513 Cruzadas
176 Cruzado
234 Cruzados
177 Cráneo
160 Cráter
1288 Crédito
162 Cría
185 Crímenes
1623 Crítica
241 Crítico
485 Críticos
2492 Crónica
1246 Crónicas
177 Cuaderno
738 Cuadernos
586 Cuadra
324 Cuadrado
278 Cuadrilla
286 Cuadro
324 Cuadros
195 Cuarenta
595 Cuaresma
1981 Cuarta
1850 Cuartel
1198 Cuarteto
2110 Cuarto
699 Cuartos
411 Cuaternario
4744 Cuatro
21067 Cuba
1231 Cubana
557 Cubano
384 Cubas
241 Cubillas
193 Cubillo
160 Cubillos
425 Cubo
270 Cuca
448 Cuchilla
183 Cuco
193 Cuello
7606 Cuenca
161 Cuencas
721 Cuentas
611 Cuento
1428 Cuentos
335 Cuerda
173 Cuerdas
395 Cuerno
204 Cuero
8105 Cuerpo
728 Cuerpos
1076 Cuervo
169 Cuervos
1659 Cuesta
343 Cuestión
3355 Cueva
2177 Cuevas
223 Cuidado
154 Cuidados
416 Culebra
670 Culto
13290 Cultura
10138 Cultural
894 Culturales
433 Culturas
550 Culture
1597 Cumbre
582 Cumbres
375 Cuna
459 Cuneo
419 Cupido
834 Cura
927 Cure
632 Curia
375 Curro
179 Curse
945 Curso
396 Cursos
246 Curva
255 Custodia
285 Custodio
1563 Cuyo
2869 Cuzco
208 Cuéntame
206 Cábala
226 Cálculo
183 Cáliz
14580 Cámara
713 Cámaras
879 Cáncer
190 Cándida
596 Cándido
332 Cánones
159 Cántabras
152 Cántico
154 Cárcamo
722 Cárcel
3664 Cárdenas
246 Cártel
196 Cástor
1505 Cátedra
1075 Cédula
13203 César
924 Céspedes
777 Cía
459 Cíclope
3546 Círculo
2598 Cívica
877 Cívico
803 Códice
5545 Código
238 Códigos
152 Cólera
545 Cómic
177 Cómico
934 Cómo
292 Cómodo
1392 Cóndor
602 Cónsul
26722 Córdoba
225 Cúmulo
272 Cúpula
194 DAS
184 DMA
661 DNA
350 DO
2174 Da
542 Dacia
273 Dad
290 Daimiel
1052 Dale
1954 Dama
780 Damas
1472 Damasco
1658 Dame
4182 Dan
3969 Dance
395 Danesa
2504 Dante
1991 Danza
488 Danzas
239 Danés
303 Dardo
375 Darla
1194 Das
996 Data
315 Date
283 Dato
879 Datos
28520 David
422 Debate
175 Decanato
1097 Decano
152 Decena
2828 Declaración
259 Decorativas
7794 Decreto
379 Decretos
11148 Defensa
1337 Defensor
678 Defensores
188 Defensoría
278 Definición
200 Degollado
891 Dehesa
288 Delantero
150 Delegaciones
1572 Delegación
222 Delegada
1041 Delegado
223 Delegados
281 Delfina
791 Delfín
155 Delgada
3722 Delgado
1199 Delhi
595 Delia
505 Deliberante
898 Delicias
435 Delos
3279 Delta
360 Demanda
497 Demo
3303 Democracia
7414 Democrática
170 Democráticas
3938 Democrático
497 Demonio
234 Demonios
3807 Demócrata
689 Demócratas
513 Demóstenes
634 Den
851 Denominación
159 Dental
1520 Departamental
176 Departamentales
25242 Departamento
687 Departamentos
189 Dependencia
236 Dependencias
1657 Deporte
6712 Deportes
4964 Deportiva
223 Deportivas
16342 Deportivo
475 Deportivos
1784 Depresión
303 Depósito
176 Derbi
150 Derechas
21333 Derecho
5845 Derechos
918 Des
488 Desafío
328 Desaguadero
313 Desamortización
720 Desamparados
8601 Desarrollo
397 Desastre
173 Desastres
340 Descalzas
302 Descalzos
240 Descanso
877 Descartes
384 Descendimiento
263 Descenso
559 Descentralizado
193 Desconocido
426 Descripción
422 Descubrimiento
503 Deseado
379 Desembarco
355 Deseo
319 Desfile
1908 Desierto
214 Desnudo
624 Despacho
260 Despertar
343 Destacamento
1034 Destino
150 Destinos
338 Destripador
418 Destructor
263 Detalle
771 Detective
166 Detectives
198 Deuda
379 Devoto
415 Devónico
321 Deán
3297 Di
2154 Diablo
520 Diablos
200 Diagnóstico
575 Diagonal
303 Dial
1113 Diamante
182 Diamantes
3398 Diana
6399 Diario
298 Diarios
757 Dibujo
2522 Diccionario
3393 Diciembre
169 Dictador
950 Dictadura
22587 Diego
650 Diesel
783 Dieta
1846 Diez
1207 Diferencia
378 Difusión
4291 Digital
164 Digitales
202 Dignidad
247 Diluvio
255 Dime
342 Dimensión
150 Dinamita
1269 Dinamo
2612 Dinastía
216 Dinosaurios
151 Dinámica
767 Diocesano
28900 Dios
769 Diosa
718 Dioses
588 Diploma
278 Diplomado
518 Diplomática
197 Diplomático
233 Diputaciones
4829 Diputación
473 Diputada
4081 Diputado
5689 Diputados
468 Dique
201 Dircea
206 Direcciones
8423 Dirección
2492 Directiva
917 Directivo
436 Directo
13378 Director
1093 Directora
627 Directores
1792 Directorio
161 Discapacidad
281 Disciplina
2832 Disco
1352 Discos
157 Discriminación
511 Discurso
164 Discursos
2229 Diseño
2234 Distancia
320 Distinguido
20207 Distrito
711 Distritos
505 Diva
411 Divas
213 Diversidad
167 Divididos
1394 Divina
962 Divino
495 Divisiones
46439 División
563 Diálogo
335 Diálogos
266 Diésel
4610 Diócesis
3817 Do
1016 Doble
168 Dobles
1159 Doce
190 Docencia
372 Docente
11309 Doctor
388 Doctora
1359 Doctorado
325 Doctores
1062 Doctrina
741 Documentación
419 Documental
308 Documento
309 Documentos
238 Dogma
182 Dolmen
153 Dolomitas
458 Dolor
5899 Dolores
660 Dolorosa
483 Dome
18495 Domingo
452 Domingos
564 Dominica
6806 Dominicana
520 Dominicano
458 Dominicos
683 Dominio
492 Domino
178 Domo
25125 Don
214 Dona
161 Doncella
251 Done
485 Donoso
789 Dora
847 Dorada
2007 Dorado
375 Dorados
650 Doria
4372 Doña
369 Drago
1099 Dragones
1912 Dragón
1250 Drama
179 Dramaturgia
217 Dramática
1120 Dramático
338 Driver
331 Drogas
165 Drogo
214 Drosera
297 Druso
243 Dual
3133 Ducado
402 Ducal
222 Dude
299 Duelo
480 Duende
884 Dueñas
1882 Dulce
168 Dulces
171 Dulcinea
604 Duma
818 Dumas
225 Dunas
8628 Duque
638 Duques
1180 Duquesa
999 Duran
151 Duras
525 Durazno
156 Durmiente
459 Duro
152 Dársena
187 Dé
336 Décima
488 Décimo
215 Dédalo
163 Déjame
7623 Día
3056 Días
154 Dólar
469 Dónde
474 Dúo
1207 EA
233 ECO
453 EFE
211 EH
303 EPA
582 Echo
389 Eclesiástica
286 Eclesiástico
157 Eclesiásticos
750 Eclipse
835 Eco
330 Ecologista
598 Ecología
343 Ecológica
281 Ecológico
155 Economista
6748 Economía
2716 Económica
1874 Económicas
1758 Económico
489 Económicos
202 Ecos
18871 Ecuador
1666 Ecuatorial
617 Ecuatoriana
671 Ecuatoriano
161 Ecuestre
284 Ecuménico
17581 Edad
252 Edades
2691 Ediciones
1758 Edición
501 Edicto
206 Edificación
2744 Edificio
703 Editor
369 Editora
965 Editores
5933 Editorial
17747 Eduardo
166 Educacional
15434 Educación
834 Educativa
192 Educativas
536 Educativo
651 Edén
274 Egipcio
339 Ego
2715 Eje
1249 Ejecutiva
6812 Ejecutivo
163 Ejecutivos
216 Ejercicios
488 Ejercito
957 Ejido
36017 Ejército
1593 Ejércitos
231784 El
1881 Elche
2216 Elecciones
411 Elector
4446 Electoral
497 Electorales
178 Electores
837 Electricidad
306 Electro
886 Electrónica
246 Electrónico
330 Elefante
169 Elegidos
266 Elemental
298 Eleven
737 Elfos
162 Eliminación
365 Eliminatorias
655 Elite
553 Elle
168 Elogio
1033 Eléctrica
351 Eléctrico
216 Eléctricos
348 Elíseos
227 Emancipación
1500 Embajada
1499 Embajador
213 Embajadora
373 Embajadores
896 Embalse
569 Emergencia
325 Emergencias
7762 Emilio
307 Emir
256 Emirato
1383 Emiratos
246 Emisora
427 Empalme
469 Empatados
8124 Emperador
199 Emperadores
1007 Emperatriz
310 Empleados
743 Empleo
2932 Empresa
810 Empresarial
609 Empresariales
189 Empresarios
2023 Empresas
447 Emérito
405 Enanos
497 Encalada
202 Encantada
171 Encantado
260 Encargado
1621 Encarnación
231 Encartaciones
1337 Enciclopedia
164 Enciclopédico
531 Encina
292 Encinas
337 Enciso
556 Encomienda
1754 Encuentro
382 Encuentros
252 Encuesta
187 Encuestas
153 Ende
175 Enea
687 Eneas
2892 Energía
181 Energías
3201 Enero
457 Enfermedades
700 Enfermería
609 Enigma
374 Enlace
366 Enlaces
564 Enmienda
25990 Enrique
188 Ensamble
611 Ensanche
937 Ensayo
387 Ensayos
1722 Ensenada
2159 Enseñanza
170 Enseñanzas
420 Ente
548 Entidad
420 Entidades
827 Entierro
664 Entrenador
159 Entrenadores
453 Entrenamiento
217 Entretenimiento
357 Entrevista
359 Envigado
914 Eoceno
258 Epifanía
215 Episcopado
1760 Episcopal
710 Episodio
1039 Epístola
384 Equidad
208 Eras
413 Eres
160 Erice
1030 Eritrea
2166 Ermita
165 Ermitaño
556 Eros
154 Errante
169 Erro
643 Escala
870 Escalada
206 Escalda
382 Escalera
549 Escalona
720 Escape
171 Escarabajo
354 Escarlata
208 Esclavo
199 Esclavos
2929 Escobar
342 Escocesa
11401 Escocia
515 Escocés
172 Escolapios
1527 Escolar
150 Escolares
181 Escolta
192 Escondida
336 Escondido
1998 Escorial
279 Escorpión
153 Escoto
374 Escribano
1851 Escritores
685 Escritura
871 Escrituras
1413 Escuadra
381 Escuadrilla
2085 Escuadrón
738 Escudero
2254 Escudo
38759 Escuela
2502 Escuelas
201 Escultismo
1073 Escultura
178 Esculturas
253 Escándalo
468 Escénicas
415 Esfera
214 Esfinge
1634 Esgrima
417 Eslava
179 Eslovaca
212 Eslovenos
1680 Esmeralda
780 Esmeraldas
2081 Espacial
331 Espaciales
2150 Espacio
340 Espacios
1510 Espada
239 Espadas
2701 Esparta
758 Espartero
472 Esparza
177224 España
8799 Español
23590 Española
827 Españolas
1515 Españoles
4039 Especial
1678 Especiales
177 Especialidad
172 Especialidades
198 Especialista
212 Especialización
416 Espectador
246 Espectro
175 Espectros
289 Espectáculo
324 Espectáculos
1053 Espejo
215 Espejos
219 Esperando
574 Esperanto
4245 Esperanza
209 Esperanzas
563 Espina
308 Espinal
344 Espinar
723 Espino
2231 Espinosa
200 Espira
249 Espiral
277 Espiritual
921 Esponja
256 Espora
4043 Espíritu
180 Espíritus
341 Esquilo
373 Esquina
170 Esquinas
838 Esquí
250 Establecimiento
459 Estaciones
10043 Estación
14458 Estadio
77695 Estado
184457 Estados
4234 Estadística
849 Estadísticas
194 Estadístico
227 Estamos
689 Estancia
156 Estancias
181 Estandarte
7508 Estatal
296 Estatales
566 Estatua
3215 Estatuto
719 Estatutos
17318 Este
8173 Esteban
1348 Estela
493 Estelar
392 Estepa
466 Ester
2661 Estero
1451 Esther
3009 Estonia
453 Estoy
2647 Estrada
455 Estrategia
248 Estratégica
321 Estratégico
213 Estratégicos
1914 Estrecho
4508 Estrella
1871 Estrellas
223 Estudiante
5398 Estudiantes
650 Estudiantil
2984 Estudio
10852 Estudios
340 Estándar
156 Estándares
183 Estás
158 Estéreo
380 Estética
824 Etapa
365 Eterna
364 Eternal
188 Eternidad
434 Eterno
714 Ethernet
3606 Etiopía
157 Etnografía
232 Etnográfico
241 Etnología
788 Eucaristía
227 Eucarístico
2184 Eugenia
4042 Eugenio
1265 Eulalia
844 Euro
75638 Europa
13816 Europea
557 Europeas
7727 Europeo
762 Europeos
401 Euros
1922 Eusebio
581 Eustaquio
654 Evaluación
2897 Evangelio
653 Evangelios
1361 Evangelista
215 Evangelistas
173 Evangelización
564 Evangélica
670 Evita
442 Evolución
699 Exactas
236 Exaltación
272 Examen
634 Excelencia
196 Exhibición
193 Exile
312 Expansión
191 Expectativa
303 Expedicionaria
2042 Expedición
200 Expediente
1301 Experimental
254 Expertos
212 Expiración
160 Explanada
257 Exploración
174 Exploradores
833 Exposiciones
4904 Exposición
557 Expreso
196 Exprés
170 Expósito
287 Extended
633 Extensión
1437 Exterior
6869 Exteriores
262 Externado
783 Extra
521 Extranjera
199 Extranjeras
246 Extranjero
301 Extranjeros
264 Extraordinaria
706 Extraordinario
298 Extraño
872 Extreme
888 Extremo
1303 Ezequiel
1816 FA
164 FAS
243 FE
181 FINA
503 Fa
162 Fabrica
258 Fabulosos
362 Faces
1086 Factor
297 Factoría
16169 Facultad
666 Facultades
1192 Facundo
154 Faja
1011 Fajardo
1221 Falange
962 Falla
209 Fallas
388 Fallen
155 Falsa
255 Falso
3151 Fama
5344 Familia
632 Familiar
490 Fan
169 Fandango
1083 Fantasma
267 Fantasmas
714 Fantasía
244 Fantástico
468 Fantásticos
367 Faraón
1226 Farmacia
158 Farmacología
151 Farmacéutica
1646 Faro
267 Fascista
1380 Fase
779 Faso
387 Fatal
573 Fauna
1611 Fausto
165 Favorita
198 Faz
14701 Fe
3481 Febrero
1325 Fecha
358 Federaciones
21181 Federación
253 Federados
20972 Federal
737 Federales
187 Federalista
373 Federativa
464 Felices
274 Felicidad
609 Feliz
1594 Femenina
1773 Femenino
270 Fenicia
322 Feo
4702 Feria
256 Ferial
556 Ferias
175 Fernandina
38946 Fernando
926 Feroe
375 Ferran
263 Ferrando
1371 Ferrara
2070 Ferro
8130 Ferrocarril
3039 Ferrocarriles
864 Ferroviaria
479 Ferroviario
239 Ferroviarios
761 Ferry
518 Ferré
27538 Festival
563 Festivales
181 Festividad
577 Ficción
159 Ficha
321 Ficus
164 Fideicomiso
428 Fiebre
158 Fieles
3906 Fiesta
1941 Fiestas
679 Figura
305 Fijo
221 Fila
4291 Filadelfia
2217 Filarmónica
1537 File
221 Files
156 Filial
282 Filipina
9040 Filipinas
3506 Film
195 Filmoteca
151 Filo
1474 Filología
260 Filomena
7481 Filosofía
176 Filón
191 Fina
6858 Final
1587 Finales
157 Finalista
551 Finalización
674 Financiera
188 Financieras
738 Financiero
221 Financieros
1858 Finanzas
432 Finca
809 Fine
242 Finlandesa
153 Fiordo
2190 Fiscal
391 Fiscales
1014 Fiscalía
548 Fisiología
457 Flaco
231 Flamenca
798 Flamenco
3715 Flandes
2112 Flash
176 Flauta
657 Flecha
1889 Flor
2813 Flora
395 Florales
247 Flore
7523 Florencia
172 Florentina
895 Florentino
8639 Flores
516 Floresta
14620 Florida
183 Florido
274 Floro
2344 Flota
152 Flotilla
439 Fluminense
190 Fluvial
257 Focas
245 Folclore
186 Folclórico
3157 Fomento
562 Fonda
3901 Fondo
357 Fondos
1116 Fontana
158 Fonético
1962 Foral
204 Forense
1081 Forestal
209 Forestales
152 Forja
3569 Formación
614 Formula
2575 Foro
1784 Fortaleza
1003 Fortuna
713 Fortín
220 Foto
836 Fotografía
189 Fotogramas
162 Fotográfica
289 Fracción
810 Fraga
519 Fragata
178 Fragua
517 Fraile
397 Frailes
568 Franca
6166 Francesa
270 Francesas
506 Franceses
86396 Francia
2069 Francisca
492 Franciscana
182 Franciscano
464 Franciscanos
64374 Francisco
12032 Franco
349 Francos
3041 Francés
1153 Franja
192 Franquismo
627 Fraternidad
3698 Fray
695 Frecuencia
10093 Frente
190 Fresco
202 Fresnillo
1181 Fresno
373 Frigia
596 Frisia
4661 Frontera
713 Fronteras
201 Fronteriza
319 Frontón
604 Fructuoso
184 Fruta
524 Frutos
2138 Fría
1250 Frías
482 Frío
929 Fu
4639 Fuego
5809 Fuente
3774 Fuentes
884 Fuero
355 Fueros
3664 Fuerte
12521 Fuerza
8656 Fuerzas
405 Fuga
159 Fumador
14770 Fundación
548 Fundador
280 Fundadores
408 Fundamental
245 Fundamentales
208 Fundamentos
173 Fundición
236 Fundo
460 Funeral
437 Furia
191 Fusil
203 Fusileros
322 Fusión
377 Futura
856 Futuro
1970 Fábrica
190 Fábricas
161 Fábula
6821 Félix
1676 Fénix
171 Fértil
409 Fígaro
3867 Física
752 Físicas
6593 Fórmula
26784 Fútbol
155 GAP
407 GE
762 GHz
2561 GNU
2124 Gabinete
10560 Gabriel
1525 Gaceta
619 Gaetano
1584 Gaga
298 Gago
1154 Gala
1013 Galaxia
431 Galaxias
312 Galeno
291 Galera
162 Galeras
4218 Galería
370 Galerías
7909 Gales
678 Galilea
1231 Galileo
1373 Gallardo
710 Gallega
1728 Gallego
1611 Gallegos
172 Gallina
1746 Gallo
247 Gallos
1022 Galo
413 Galáctica
422 Galáctico
1163 Galán
1011 Galápagos
1047 Gama
1044 Gamarra
204 Gamba
393 Gambito
758 Gamma
157 Gamonal
339 Gana
490 Ganadería
650 Ganados
211 Gandul
207 Ganga
1029 Gante
558 Gap
206 Garantía
313 Garantías
321 Garbo
532 Garganta
161 Garita
223 Garra
1383 Garrido
174 Garrocha
1770 Garza
1233 Garzón
1385 Gas
176 Gascón
340 Gastronomía
758 Gata
1458 Gato
432 Gatos
241 Gaucho
529 Gauss
358 Gavilán
348 Gaviota
1659 Gay
217 Gaya
311 Gayo
1789 Gaza
269 Gema
317 Gemelas
224 Gemelos
503 Gen
531 Gendarmería
186 Genealogía
407 Genera
185 Generaciones
2143 Generación
65086 General
3213 Generales
3352 Generalidad
703 Generalísimo
277 Genio
237 Genocidio
1116 Gente
191 Gentilhombre
381 Genética
3126 Geografía
690 Geográfica
651 Geográfico
616 Geología
180 Geológica
345 Geológico
434 Geometría
150 Georgiana
526 Gerencia
920 Gerente
155 Germana
183 Germano
189 Germinal
3047 Germán
194 Germánica
2188 Germánico
3314 Gerona
412 Gesta
2208 Gestión
242 Gestora
985 Gigante
1022 Gigantes
6029 Gil
916 Giles
3037 Gimnasia
693 Gimnasio
383 Gimnástica
159 Gimnástico
420 Gin
4480 Ginebra
175 Ginecología
260 Giralda
2061 Giro
250 Gitano
195 Glacial
258 Glaciar
151 Glaciares
170 Gladiador
218 Glamour
2363 Global
2435 Globo
465 Globos
4097 Gloria
688 Glorieta
381 Gloriosa
171 Glorioso
3831 Gobernación
10271 Gobernador
258 Gobernadora
441 Gobernadores
170 Gobernante
39014 Gobierno
672 Gobiernos
850 Gol
2987 Goles
270 Goleta
2010 Golf
6732 Golfo
1392 Golpe
176 Goma
661 Gomera
377 Gong
656 Gorda
399 Gordillo
975 Gordo
359 Gospel
150 Gozo
507 Grabado
2794 Gracia
1469 Gracias
1757 Grado
177 Graduado
342 Graduados
685 Gramática
56337 Gran
17152 Granada
831 Granaderos
320 Granadilla
302 Granadina
290 Granadinas
895 Granados
18611 Grande
7087 Grandes
490 Grandeza
393 Grandezas
200 Granero
1346 Granja
307 Grao
391 Grave
660 Graves
1508 Greco
6616 Green
394 Gregoriana
169 Gregoriano
165 Gremial
571 Gremio
618 Grial
492 Griega
821 Griego
196 Griegos
150 Grill
238 Grillo
173 Gringo
608 Gris
269 Grises
432 Grisones
275 Grita
603 Grito
260 Gros
23216 Grupo
340 Gruta
180 Grutas
330 Gráfica
326 Gráficas
630 Gráfico
664 Guaira
709 Guajira
156 Guante
186 Guara
674 Guaraní
663 Guarda
199 Guardacostas
10742 Guardia
814 Guardianes
1044 Guardias
717 Guardián
192 Guardo
150 Guarnición
162 Guatemalteca
188 Guatemalteco
193 Guayabal
150 Guayabo
1018 Guayas
194 Gubernamental
355 Gubernativa
96230 Guerra
3627 Guerras
170 Guerrera
8062 Guerrero
757 Guerreros
280 Guerrilla
150 Guerrillero
2373 Guido
169 Guille
15709 Guillermo
8350 Guinea
406 Guisa
1137 Guitar
1278 Guitarra
185 Guitarras
174 Gulag
211 Gurú
7402 Gustavo
7048 Guzmán
1617 Guía
320 Guías
305 Géminis
1355 Génesis
3229 Génova
200 Gótica
447 Gótico
153 Güines
9356 Habana
204 Habitación
229 Hacha
7678 Hacienda
252 Hada
208 Hadas
355 Halcones
891 Halcón
662 Hale
605 Halen
716 Halle
902 Halo
381 Halterofilia
391 Hambre
221 Hanseática
197 Hao
177 Hardware
673 Has
287 Hatillo
566 Hato
293 Haute
237 Hautes
2310 Haya
242 Haza
1804 He
401 Hebrea
338 Hebreo
976 Hechos
2854 Helena
154 Helio
190 Heliogábalo
466 Helios
217 Helvética
866 Hemisferio
2444 Henares
796 Heraldo
564 Herbario
183 Heredero
279 Herencia
1778 Hermanas
5759 Hermandad
411 Hermandades
1627 Hermano
3932 Hermanos
649 Hermosa
942 Hermoso
154 Hermética
653 Herodes
352 Heroica
155 Heroico
294 Herradura
8071 Herrera
992 Herrero
380 Herreros
191 Heráldica
161 Hespérides
6144 Hidalgo
242 Hidra
179 Hidrocarburos
387 Hidroeléctrica
445 Hidrográfica
1998 Hielo
221 Hierba
4418 Hierro
476 Higiene
571 Higuera
289 Higueras
484 Hijas
2504 Hijo
1491 Hijos
159 Hilo
2056 Himno
159 Hindú
257 Hines
970 Hinojosa
363 Hipotecario
659 Hipódromo
294 Hispana
251 Hispanidad
937 Hispano
453 Hispanoamericana
157 Hispanoamericano
1140 Hispánica
23014 Historia
1201 Historias
193 Historieta
915 Histórica
389 Históricas
5783 Histórico
1672 Históricos
333 Hita
153 Hitlerianas
378 Hito
234 Hoces
1311 Hockey
1113 Hogar
468 Hoja
507 Hola
6743 Holanda
484 Holandesa
369 Holandesas
282 Holandés
403 Holding
1493 Holocausto
4412 Hombre
2031 Hombres
992 Homenaje
180 Homosexual
2429 Honda
664 Hondo
8836 Honduras
5943 Honor
631 Honorable
782 Honorario
933 Honoris
327 Honoré
1720 Hora
1968 Horas
206 Horcas
665 Horda
943 Horizonte
175 Hormiga
186 Hormiguero
244 Horno
1368 Hornos
760 Horror
307 Hortensia
200 Horticultura
422 Hospicio
12900 Hospital
257 Hospitalaria
266 Hospitalarios
279 Hospitales
154 Hostal
6828 Hotel
270 Hoteles
152 Hove
2205 Hoy
1008 Hoya
164 Hoyas
551 Hoyo
870 Hoyos
822 Hoz
246 Huaca
361 Huasteca
276 Hueco
353 Huelga
297 Huelgas
3194 Huerta
440 Huertas
669 Huerto
316 Hueso
198 Huesos
228 Huevo
1540 Human
771 Humana
346 Humanas
4642 Humanidad
1834 Humanidades
285 Humanismo
417 Humanista
168 Humanitario
1270 Humano
4608 Humanos
690 Hume
200 Humildad
320 Humilladero
217 Humo
770 Humor
288 Huracanes
2932 Huracán
2531 Hurtado
213 Huérfanos
1118 Hz
3364 Hércules
1047 Héroe
1618 Héroes
182 Hípico
179 Húmedo
464 Húngara
293 Húngaro
538 Húsares
220 ICE
423 ID
725 IEEE
1160 IRA
418 ISA
1891 ISBN
2779 ISO
1504 Iberia
218 Ibero
1553 Iberoamericana
633 Iberoamericano
154 Iberoamericanos
5385 Ibérica
682 Ibérico
163 Ibídem
1207 Ice
165 Id
888 Ida
502 Ideal
623 Ideas
424 Identidad
179 Identificación
601 Idioma
348 Idiomas
45227 Iglesia
4390 Iglesias
11526 Ignacio
438 Iguala
327 Igualada
681 Igualdad
263 Iguana
407 Iliria
167 Iluminación
238 Ilusión
1978 Ilustración
168 Ilustrada
318 Ilustrado
1197 Ilustre
473 Ilustres
2837 Imagen
215 Imagine
397 Impacto
314 Imparcial
7552 Imperial
322 Imperiales
37129 Imperio
292 Imperios
541 Imprenta
412 Impuesto
263 Impuestos
206 Imán
3424 Inca
724 Incas
225 Incendio
155 Incendios
435 Incidente
11877 Independencia
201 Independentista
6491 Independiente
955 Independientes
27789 India
5711 Indiana
6668 Indias
1480 Indio
1221 Indios
352 Individual
754 Indo
1082 Indochina
7311 Indonesia
3588 Industria
5102 Industrial
890 Industriales
1083 Industrias
701 Industries
557 Indígena
667 Indígenas
420 Infancia
813 Infanta
570 Infantado
2099 Infante
5166 Infantería
951 Infantes
1884 Infantil
357 Infantiles
1580 Inferior
309 Infernal
1366 Infierno
295 Infinita
316 Infinito
313 Informaciones
4134 Información
185 Informativo
293 Informativos
1300 Informe
1499 Informática
355 Infraestructura
304 Infraestructuras
244 Inframundo
2542 Ingeniero
2535 Ingenieros
6204 Ingeniería
522 Ingenio
42826 Inglaterra
204 Ingles
1078 Inglesa
488 Inglesas
306 Ingleses
3941 Inglés
1212 Iniciativa
2854 Inmaculada
215 Inmaterial
362 Inmigración
224 Inmobiliaria
206 Inmortal
214 Inmortales
822 Innovación
153 Inocencia
209 Inocente
284 Inocentes
2703 Inquisición
440 Inquisidor
207 Insignia
512 Inspección
1210 Inspector
258 Instalación
448 Instancia
1989 Institucional
224 Institucionales
1005 Instituciones
2492 Institución
39800 Instituto
848 Institutos
227 Instrucciones
2609 Instrucción
173 Instructor
349 Instrumental
695 Insular
415 Insurgentes
169 Integra
917 Integración
411 Integrado
982 Integral
365 Intelectual
2087 Inteligencia
1877 Intendencia
1731 Intendente
165 Intendentes
1240 Interamericana
671 Interamericano
174 Intercambiador
315 Intercambio
1991 Intercontinental
988 Interestatal
181 Interfaz
337 Interino
7269 Interior
370 Interiores
584 Intermedia
351 Intermedio
421 Interna
44614 Internacional
3255 Internacionales
313 Internado
156 Internas
14611 Internet
630 Interno
250 Internos
1060 Interpretación
952 Intervención
3008 Interés
192 Intransigente
619 Introducción
171 Intérprete
481 Invasiones
1065 Invasión
346 Invencible
233 Inventario
561 Inversiones
400 Inversión
3474 Investigaciones
6021 Investigación
367 Investigador
241 Investigadora
320 Investigadores
2166 Invierno
648 Invisible
201 Invitado
188 Inválidos
747 Ion
428 Ira
277 Iraquí
2004 Irene
1297 Iris
15279 Irlanda
462 Irlandesa
228 Irlandeses
721 Irlandés
6472 Irán
3857 Isaac
17567 Isabel
1846 Isidoro
5505 Isidro
17939 Isla
3081 Islam
3829 Islandia
16830 Islas
209 Isleta
208 Islote
784 Islámica
522 Islámico
1402 Ismael
194 Israelita
427 Israelí
800 Istmo
52680 Italia
2338 Italiana
2746 Italiano
349 Italianos
323 Itinerario
465 Itálica
4247 Izquierda
171 Izquierdas
996 Izquierdo
165 JUAN
345 Ja
1010 Jaca
394 Jacinta
2607 Jacinto
180 Jaco
881 Jade
892 Jaguar
515 Jaguares
10404 Jaime
543 Jalapa
701 Jalón
21293 James
175 Jamás
1569 Japonesa
1423 Japonés
38570 Japón
224 Jaque
1728 Jara
175 Jaraíz
1739 Jardines
6823 Jardín
215 Jarre
169 Jarretera
528 Jauja
4657 Java
12903 Javier
4108 Jazz
5722 Jaén
356 Je
276 Jefa
807 Jefatura
12080 Jefe
830 Jefes
1059 Jehová
393 Jeremías
3895 Jerez
356 Jericó
6578 Jersey
7712 Jerusalén
176 Jerónima
4756 Jerónimo
4375 Jesucristo
255 Jesuita
845 Jesuitas
26072 Jesús
990 Jet
511 Ji
208 Jinete
242 Jinetes
186 Jirón
1082 Jo
11600 Joaquín
658 Job
281 Jonia
1320 Jordán
27243 Jorge
835 Jornada
714 Jornadas
183 Jornal
188 Jos
1319 Josefina
108557 José
324 Jota
3001 Joven
438 Joya
190 Joyas
124391 Juan
390 Juba
236 Jubileo
2041 Judas
295 Judaísmo
799 Judea
190 Judicatura
3003 Judicial
245 Judit
791 Judo
516 Judía
600 Judío
467 Judíos
547 Jueces
2007 Juego
23664 Juegos
1612 Jueves
2072 Juez
1423 Jugador
517 Jugados
1273 Juicio
250 Juicios
4295 Julia
758 Juliana
707 Juliano
20764 Julio
367 Juncal
235 Junco
4411 Junio
4384 Junior
168 Junquera
19955 Junta
1672 Juntas
343 Juntos
1500 Jura
1778 Jurado
463 Juramento
545 Jurisdicción
1058 Jurisprudencia
1570 Jurásico
602 Jurídica
557 Jurídicas
543 Jurídico
229 Jurídicos
496 Justa
13934 Justicia
190 Justiciero
4006 Justo
310 Juvenal
3026 Juvenil
454 Juveniles
4899 Juventud
1316 Juventudes
1129 Juzgado
464 Juzgados
179 Jónicas
265 Jónico
1961 Jóvenes
174 Júbilo
357 Júnior
3855 Júpiter
236 KAS
185 KHz
881 KV
150 KW
552 Ka
168 Kamikaze
1185 Kan
371 Kappa
828 Karate
377 Karma
425 Kelvin
315 Kilómetro
640 Kit
3240 Km
167 Káiser
221 LEGO
270771 La
393 Laberinto
429 Labor
680 Laboral
233 Laborales
2333 Laboratorio
540 Laboratorios
1331 Laborista
171 Labra
1231 Labrador
474 Lacan
706 Lacio
234 Laconia
310 Lada
474 Ladrón
4579 Lady
271 Lagarto
151 Lagartos
6710 Lago
4191 Lagos
7087 Laguna
646 Lagunas
505 Laja
338 Lajas
1132 Lama
714 Lamas
266 Lambda
240 Lampa
597 Lana
895 Lance
205 Lanceros
775 Landa
523 Landas
713 Lanza
163 Lapa
312 Lares
1249 Larga
236 Larra
215 Lasa
210 Laso
376 Lastra
988 Late
203 Lateral
10809 Latina
2835 Latino
1235 Latinoamericana
1291 Latinoamericano
394 Latinoamericanos
380 Latitud
763 Latín
187 Lauda
172 Laude
225 Laudo
4965 Laura
212 Laureada
804 Laurel
241 Laureles
328 Lauro
173 Lava
429 Lay
221 Lazar
221 Lazarillo
378 Lazo
15232 Le
679 Lea
1331 Leal
278 Lealtad
214 Lean
239 Lecciones
489 Leche
424 Lectura
300 Leda
167 Ledo
9717 Lee
180 Leer
289 Lega
206 Legación
364 Legado
792 Legal
679 Legislación
1838 Legislativa
2165 Legislativo
4393 Legislatura
171 Legislaturas
3639 Legión
211 Lego
158 Legua
182 Leila
801 Lejano
204 Lema
870 Lemosín
268 Len
1125 Lena
3570 Lengua
453 Lenguaje
805 Lenguas
3488 Leo
1557 Leona
1425 Leones
384 Leonesa
246 Leonés
243 Leopoldina
508 Lerdo
6478 Les
161 Lesbianas
6118 Letras
473 Levantamiento
2399 Levante
150 Leviatán
24988 Ley
972 Leyenda
483 Leyendas
2587 Leyes
39984 León
4094 Liberación
6035 Liberal
413 Liberales
159 Liberalismo
7136 Libertad
285 Libertades
3531 Libertador
844 Libertadora
5864 Libertadores
169 Libertaria
336 Libertario
3014 Libia
356 Libra
6842 Libre
366 Librería
1258 Libres
8177 Libro
1171 Libros
509 Licencia
304 Licenciada
1969 Licenciado
1554 Licenciatura
4174 Liceo
224 Licia
257 Liderazgo
886 Lidia
37094 Liga
3619 Ligas
336 Ligera
552 Ligero
1222 Ligue
854 Liguilla
566 Lila
23254 Lima
248 Limbo
392 Limitada
248 Limpia
154 Limpias
178 Limpio
1121 Limón
2851 Linares
256 Lince
2148 Linda
405 Linden
332 Lindo
253 Linea
426 Lineal
649 Lingüística
686 Lino
584 Linterna
151 Linternas
5135 Linux
775 Lira
415 Liria
303 Lis
4188 Lisa
2241 Lista
179 Listen
364 Lita
216 Lite
161 Litera
803 Literaria
924 Literario
189 Literarios
5002 Literatura
372 Lito
1398 Litoral
282 Liturgia
480 Livonia
327 Liza
399 Llamas
211 Llana
270 Llanera
2035 Llano
2213 Llanos
456 Llanura
386 Llanuras
536 Llave
426 Lleras
185 Llorona
882 Llosa
463 Lluvia
453 Loa
201 Loba
361 Lobato
154 Lobera
2080 Lobo
1469 Lobos
683 Loca
3089 Local
638 Locales
231 Locas
1281 Loco
387 Locos
245 Locura
1621 Logia
204 Logias
240 Logos
316 Logroñés
367 Logística
1669 Loma
1755 Lomas
225 Lomba
702 Lombardo
154 Lomo
37555 Londres
325 Lonja
152 Loo
856 Look
722 Lora
7110 Lord
202 Lorenzana
12473 Lorenzo
799 Lores
190 Loro
94133 Los
307 Losa
582 Losada
264 Lose
469 Lota
380 Lotería
228 Loto
275 Loza
1951 Lozano
216 Luce
659 Lucerna
873 Lucero
522 Luces
1840 Lucha
672 Lucho
1001 Lucia
581 Lucifer
3328 Lucio
4549 Lucía
178 Luengo
620 Lugano
1447 Lugares
65146 Luis
4827 Luisa
360 Lumbreras
402 Luminoso
11538 Luna
459 Lunar
167 Lunas
1123 Lunes
165 Lupus
244 Luterana
317 Lux
4850 Luz
1932 Luís
967 Láctea
450 Lágrimas
161 Láser
2936 Lázaro
858 Líder
393 Límites
7896 Línea
727 Líneas
192 Lírica
192 Lírico
429 Lógica
357 MA
2589 MHz
253 MIPS
262 MV
221 Macabeos
728 Macarena
171 Macará
203 Mace
4752 Macedonia
197 Macedonio
408 Maceo
1909 Machado
218 Machete
181 Machi
260 Machines
407 Macho
242 Machuca
243 Machín
949 Macizo
176 Macro
247 Madama
663 Madera
2017 Madero
5595 Madre
850 Madres
88151 Madrid
581 Madrigal
340 Madrileña
247 Madrás
907 Maestra
505 Maestranza
438 Maestrazgo
1606 Maestre
6602 Maestro
1297 Maestros
1362 Maestría
883 Mafia
215 Maga
508 Magaña
7527 Magdalena
785 Magia
738 Magisterio
560 Magistrado
368 Magistrados
252 Magistratura
1428 Magna
175 Magnesia
775 Magneto
2705 Magno
367 Magnolia
243 Magnánimo
416 Magnífico
739 Mago
1131 Magos
157 Magro
211 Magíster
521 Mahón
1408 Majestad
1273 Mal
691 Mala
169 Malabar
154 Malagueño
471 Malaya
277 Maldita
201 Maldito
273 Malecón
169 Mallo
600 Malo
2994 Malta
1379 Malí
979 Mama
267 Mambo
575 Mamá
321 Mana
198 Manantial
263 Mancera
7448 Mancha
592 Manco
2351 Mancomunidad
192 Mandamientos
220 Mandarín
679 Mandato
1408 Mando
290 Manejo
846 Manga
287 Mango
191 Manierismo
1190 Manifiesto
2454 Manila
1154 Mano
2232 Manolo
174 Mansa
772 Mansión
427 Manso
665 Manta
325 Mantenimiento
311 Mantilla
198 Mantis
1252 Manual
48796 Manuel
1536 Manuela
221 Manuscrito
164 Manuscritos
415 Manzana
1829 Manzanares
247 Manzanero
190 Manzanilla
729 Manzanillo
890 Manzano
391 Maná
545 Mapa
257 Mapuche
23344 Mar
197 Maracaná
937 Maratón
542 Maravilla
696 Maravillas
994 Marañón
1576 Marca
823 Marcas
1452 Marcha
233 Marche
1013 Marcial
306 Marciales
451 Marciano
8249 Marco
9952 Marcos
239 Marcó
255 Marea
203 Marengo
365 Mares
1847 Marfil
395 Marga
6016 Margarita
173 Margaritas
152 Margrave
2677 Mariana
755 Marianas
8839 Mariano
12900 Marina
269 Marinas
903 Marine
361 Marineros
1798 Marines
2517 Marino
410 Marinos
14505 Mario
327 Mariposa
410 Mariquita
3159 Mariscal
220 Marismas
442 Maristas
594 Marketing
662 Marques
642 Marquesa
1684 Marquesado
354 Marquesas
419 Marqueses
5873 Marqués
183 Marroquí
336 Marroquín
7509 Marruecos
219 Marrón
4561 Marta
4396 Marte
857 Martes
224 Martillo
761 Martina
299 Martirio
29562 Martín
220 Marxista
3533 Marzo
915 Marítima
2210 Marítimo
413 Marítimos
1326 Mas
1048 Masacre
155 Masada
159 Masculina
688 Masculino
425 Masonería
186 Masó
151 Masónica
2462 Mata
311 Matadero
195 Mataderos
258 Matador
1055 Matamoros
176 Matancera
999 Matanza
639 Matanzas
197 Matar
380 Matas
379 Mate
812 Matemática
1825 Matemáticas
151 Matemático
5770 Mateo
158 Matera
381 Materia
237 Maternidad
1217 Mato
596 Matos
741 Matriz
336 Matute
1239 Maule
898 Maura
1341 Mauro
411 Mausoleo
2034 Maya
302 Mayas
10703 Mayo
20838 Mayor
179 Mayoral
247 Mayorazgo
486 Mayordomo
1087 Mayores
867 Maza
288 Mazarrón
449 Mazo
395 Maíz
899 Mañana
383 Mbit
13169 Me
347 Mead
305 Mean
1053 Meca
186 Mecanizada
451 Mecano
263 Mecha
1024 Mecánica
174 Mecánico
5700 Medalla
354 Medallas
17580 Media
182 Mediana
183 Mediano
231 Medianoche
712 Medias
209 Medicamentos
8539 Medicina
646 Medicine
546 Medieval
7048 Medina
10095 Medio
341 Mediodía
305 Mediterránea
9453 Mediterráneo
303 Mediterráneos
480 Medusa
2233 Mega
156 Megalópolis
216 Megas
227 Mejillones
12552 Mejor
159 Mejorada
210 Mela
179 Melero
870 Melgar
431 Melina
501 Mella
245 Mellado
172 Mellizos
348 Mello
185 Melodía
150 Melón
196 Memo
1544 Memoria
3127 Memorial
1477 Memorias
1530 Mena
575 Mención
180 Mendocino
159 Mene
955 Meneses
208 Meninas
1342 Meno
3877 Menor
1074 Menores
241 Mensaje
223 Mensajero
216 Menta
512 Mental
318 Mente
169 Mentiras
203 Mentor
373 Mera
265 Mercader
4076 Mercado
275 Mercados
203 Mercadotecnia
403 Mercante
887 Mercantil
2090 Merced
6066 Mercedes
2224 Mercurio
364 Meridiano
1467 Meridional
1040 Merindad
1227 Merino
1226 Merlo
491 Merlín
151 Mero
4055 Mesa
230 Mesas
1179 Meseta
171 Mesolítico
157 Mesozoica
248 Mesozoico
274 Mesta
862 Mesías
207 Mesón
938 Meta
309 Metafísica
4847 Metal
182 Metales
150 Metalúrgica
222 Metamorfosis
323 Meteorología
275 Meteorológica
301 Meteorológico
531 Metodista
7419 Metro
6088 Metropolitana
3193 Metropolitano
206 Metropolitanos
428 Metrópolis
6788 Mexicana
185 Mexicanas
4065 Mexicano
1016 Mexicanos
850 Meza
976 Mezquita
220 Mezquital
5390 Mi
180 Miaja
481 Micro
173 Microbiología
217 Midas
454 Miedo
385 Miel
1658 Miembro
264 Miera
285 Mies
228 Migración
42087 Miguel
1498 Mil
938 Milagro
1232 Milagros
247 Milagrosa
719 Milano
250 Milanés
983 Milenio
2279 Miles
466 Milicia
532 Milicias
11753 Militar
1387 Militares
537 Milla
355 Millar
416 Millares
628 Millas
1356 Millonarios
230 Milpa
8950 Milán
154 Mimosa
2091 Mina
4802 Minas
581 Mine
632 Minera
458 Mineral
171 Mineralogía
483 Minero
322 Mineros
984 Minerva
840 Minería
205 Mines
432 Ministerial
22113 Ministerio
632 Ministerios
930 Ministra
18129 Ministro
3489 Ministros
297 Minos
276 Minute
302 Minutes
197 Minuto
168 Mio
1201 Mioceno
1443 Mira
237 Mirada
877 Mirador
7284 Miranda
174 Mirandés
191 Miro
281 Mirza
1469 Miró
209 Mirón
649 Mis
1801 Misa
166 Misas
168 Miserables
284 Miserere
1067 Misericordia
312 Mises
186 Misiles
202 Misionera
197 Misioneras
296 Misioneros
3409 Misiones
2544 Misión
681 Misterio
364 Misterios
890 Mistral
190 Mita
320 Mito
280 Mitología
243 Mitos
373 Mitra
3387 Mitre
796 Mixta
431 Mixto
522 Miz
727 Miércoles
201 Moca
227 Mocedades
230 Mocha
233 Moche
505 Moda
3045 Modelo
2226 Moderna
153 Modernas
428 Modernismo
189 Modernización
1975 Moderno
705 Modesto
398 Modulada
2155 Moisés
371 Mojo
159 Mojón
919 Mola
163 Molde
201 Moldes
262 Mole
441 Molecular
1380 Molino
670 Molinos
153 Molle
361 Molotov
362 Momo
758 Mona
306 Monarca
325 Monarcas
1228 Monarquía
5638 Monasterio
649 Monde
289 Mondo
1678 Moneda
173 Moneo
352 Monetaria
763 Monetario
213 Mongol
681 Monitor
338 Monjas
462 Monje
151 Monjes
978 Mono
171 Monos
1843 Monseñor
458 Monstruo
252 Monstruos
178 Montada
2805 Montana
319 Montano
3437 Montaña
2159 Montañas
471 Montañés
13606 Monte
2198 Montero
411 Monteros
6100 Monterrey
379 Montería
4824 Montes
339 Montesa
615 Montesinos
546 Montilla
623 Montoneros
1514 Monumental
5324 Monumento
906 Monumentos
1040 Monzón
195 Mor
3851 Mora
225 Morada
1141 Moral
308 Moraleja
6326 Morales
372 Moran
245 Morava
186 Morcillo
2252 More
1410 Morena
8628 Moreno
398 Morera
254 Morfeo
679 Morillo
253 Morir
566 Mormón
1730 Moro
746 Moros
901 Morro
159 Morros
619 Morse
768 Mortal
218 Mortalidad
158 Moré
1688 Morón
155 Mosaico
389 Mosca
326 Mosquito
178 Mosquitos
984 Mota
176 Motel
368 Moto
455 Motociclismo
1770 Motor
390 Motín
302 Movida
9515 Movimiento
1190 Moya
611 Mozo
214 Muchachos
382 Muela
515 Muelle
254 Muerta
3823 Muerte
1020 Muerto
932 Muertos
165 Muga
339 Muir
3010 Mujer
2893 Mujeres
365 Mula
153 Mullen
383 Multimedia
67622 Mundial
1727 Mundiales
17094 Mundo
519 Mundos
15784 Municipal
1074 Municipales
3711 Municipalidad
9852 Municipio
1284 Municipios
365 Murad
210 Mural
650 Muralla
10644 Murcia
263 Murciélago
208 Murga
162 Murias
1789 Muro
319 Muros
228 Mus
931 Musa
252 Musas
407 Muse
34913 Museo
1154 Museos
434 Musica
3546 Musical
623 Musicales
184 Musicología
359 Musique
156 Musulmana
247 Musulmanes
433 Mutantes
206 Mute
391 Mutis
243 Mutua
208 Muñeca
174 Muñecas
416 Mágica
439 Mágico
11816 Málaga
852 Máquina
291 Máquinas
470 Mármol
889 Mártir
960 Mártires
483 Máscara
653 Máster
2576 Máximo
172 Médanos
1405 Médica
674 Médicas
1730 Médico
784 Médicos
2591 Mérito
703 Método
107780 México
150 Mí
284 Mía
165 Mío
197 Mística
164 Místico
226 Módulo
2634 Mónica
754 Móvil
210 Móviles
170 Múltiple
11332 Música
331 Músicos
199 NA
187 NAS
2974 NASA
1051 Na
184 Nacha
1589 Nacho
849 Nacimiento
136892 Nacional
4407 Nacionales
2344 Nacionalista
12717 Naciones
9406 Nación
996 Nada
573 Nadie
216 Nadir
660 Nana
1217 Nantes
249 Nao
165 Napa
7165 Napoleón
569 Napoleónicas
222 Napolitano
726 Naranja
1105 Naranjo
325 Naranjos
1399 Narciso
346 Narrativa
292 Nas
1206 Natación
752 Natal
173 Natales
210 Nativa
803 Natividad
510 Natura
7984 Natural
3080 Naturales
1875 Naturaleza
1217 Nava
261 Navajo
5589 Naval
505 Navales
14385 Navarra
5198 Navarro
1324 Navas
467 Nave
585 Navegación
183 Navegante
225 Navegantes
5500 Navidad
472 Navío
1943 Nazareno
319 Nazarenos
711 Nazca
1912 Nazi
340 Nazis
406 Nebulosa
172 Necrópolis
276 Neerlandesa
506 Neerlandesas
1381 Negocios
4535 Negra
1068 Negras
743 Negrete
11615 Negro
1020 Negros
316 Nena
241 Nene
775 Neo
296 Neoclasicismo
1192 Neolítico
166 Nepote
1312 Neptuno
1400 Nerón
293 Neto
184 Neurología
5273 Nevada
545 Nevado
159 Neve
308 Neves
2626 Newton
8465 Nicaragua
400 Nicaragüense
13265 Nicolás
386 Nido
671 Niebla
1760 Nieto
466 Nieve
1833 Nieves
1153 Nirvana
228 Nito
541 Nitro
928 Niña
356 Niñas
5261 Niño
1877 Niños
20787 No
4049 Nobel
364 Nobiliarios
1594 Noble
534 Nobles
245 Nobleza
3306 Noche
362 Nochebuena
600 Noches
243 Nocturna
503 Nocturno
579 Nogales
834 Noguera
331 Nomenclatura
432 Non
283 Nono
909 Nordeste
1063 Noreste
430 Noria
1805 Norma
3005 Normal
184 Normales
187 Normalización
424 Normas
3272 Noroeste
52356 Norte
581 Norteamericana
310 Norteamericano
11243 Noruega
211 Noruego
582 Nos
487 Nosotros
562 Nota
269 Notario
557 Notas
710 Note
345 Notes
2333 Noticias
445 Noticiero
3623 Nova
453 Novara
318 Novas
270 Novato
259 Novedades
193 Novel
1134 Novela
349 Novelas
469 Novena
239 Noveno
276 Novia
155 Noviciado
3733 Noviembre
961 Novo
862 Noé
474 Nube
267 Nubes
639 Nubia
234 Nubladas
1578 Nuclear
251 Nucleares
238 Nudo
13450 Nuestra
2285 Nuestro
200 Nuestros
90507 Nueva
1303 Nuevas
1220 Nueve
22119 Nuevo
1578 Nuevos
326 Nuncio
497 Nuria
346 Nutrición
949 Nuño
225 Náutica
418 Náutico
302 Nórdico
446 Núcleo
2600 Número
188 OC
793 OH
316 ONCE
2878 OS
283 OSI
764 OVA
348 OVNI
950 Oasis
210 Obediencia
285 Obelisco
162 Obertura
1190 Obispado
5747 Obispo
847 Obispos
437 Obligado
162 Obligatoria
552 Obrador
4809 Obras
1891 Obregón
1295 Obrera
424 Obreras
2976 Obrero
536 Obreros
254 Observación
215 Observador
3291 Observatorio
216 Obstetricia
1155 Oca
12656 Occidental
1256 Occidentales
6096 Occidente
2243 Oceanía
243 Ochenta
813 Ocho
196 Ocio
593 Octava
208 Octave
553 Octaviano
246 Octavo
267 Octavos
5472 Octubre
214 Oculta
281 Ocupación
6377 Océano
933 Oda
374 Odeón
297 Odio
764 Odisea
473 Odontología
12945 Oeste
601 Ofensiva
6543 Oficial
1242 Oficiales
60562 Oficina
290 Oficinas
829 Oficio
1081 Oficios
1519 Oh
155 Ohm
192 Oidor
1272 Ojo
914 Ojos
521 Ola
300 Olea
503 Oligoceno
545 Olimpiada
973 Olimpiadas
1100 Olimpo
1493 Oliva
294 Olivar
1448 Olivares
720 Olivera
359 Olivo
736 Olivos
177 Olla
152 Olleros
178 Olmeda
1262 Olmedo
607 Olmo
1096 Olmos
160 Olvidados
252 Olvido
535 Olé
924 Olímpica
3934 Olímpico
14696 Olímpicos
1255 Omega
247 Omeya
162 Omeyas
2008 Once
175 Oncología
1440 Onda
582 Ondas
3908 Opera
1604 Operaciones
7046 Operación
981 Operadora
190 Operativa
418 Operativo
686 Opinión
199 Opio
1780 Oporto
1321 Opus
763 Oración
507 Oral
580 Oratorio
296 Orbe
217 Orcos
21024 Orden
792 Ordenación
249 Ordenamiento
719 Ordenanza
433 Ordenanzas
181 Ordinaria
394 Ordinario
727 Oreja
405 Orfeón
633 Organismo
304 Organismos
730 Organizaciones
8693 Organización
310 Organizador
189 Organizadora
456 Orgullo
1869 Orgánica
213 Orgánico
1034 Oribe
330 Orientación
13536 Oriental
3090 Orientales
12971 Oriente
1533 Original
861 Orión
3556 Orlando
16010 Oro
224 Oroya
8216 Orquesta
200 Orquestas
208 Orquídea
156 Orquídeas
4725 Ortega
1444 Ortodoxa
400 Oráculo
464 Orígenes
841 Os
545 Osa
778 Oscura
345 Oscuridad
1067 Oscuro
333 Oscuros
898 Oso
386 Osos
315 Ostia
1045 Osuna
1723 Otero
174 Oteros
1074 Otomano
757 Otoño
214 Oval
257 Ovando
160 Oveja
185 Ovejero
262 Oye
1625 PAN
329 PE
218 PETA
203 PH
165 PI
168 PIN
259 PRISA
357 PRO
365 PSI
1795 Pabellón
26410 Pablo
302 Pace
184 Paciencia
312 Pacifico
3056 Paco
3188 Pacto
172 Pactos
290 Pacífica
54535 Pacífico
2359 Padilla
9263 Padre
2180 Padres
442 Padrino
784 Padrón
154 Pagan
162 Pagano
393 Pago
592 Paisaje
176 Paisajes
427 Paja
362 Pajares
200 Pajarito
168 Pajaritos
181 Pala
907 Palabra
576 Palabras
21578 Palacio
2853 Palacios
303 Palas
181 Palatina
645 Palatinado
368 Palatino
4042 Palencia
728 Palenque
211 Palentina
1290 Paleolítico
293 Paleontología
232 Paleozoico
3847 Palestina
634 Palestino
211 Palestinos
177 Paleta
698 Paleólogo
213 Palio
161 Pallas
7911 Palma
697 Palmar
167 Palmares
4252 Palmas
232 Palmera
243 Palmeras
1396 Palo
1571 Paloma
658 Palomar
264 Palomares
283 Palomas
896 Palomino
323 Palomo
948 Palos
752 Pamela
2687 Pampa
433 Pampas
162 Pampero
2612 Pan
157 Panadería
2150 Panamericana
550 Panamericano
1383 Panamericanos
243 Panameña
13603 Panamá
1019 Pancho
645 Panda
290 Pandilla
290 Panel
152 Panero
598 Panorama
529 Pantano
153 Pantanos
909 Pantera
221 Panteras
1412 Panteón
221 Panza
11888 Papa
460 Papado
197 Papal
497 Papas
171 Papen
281 Papiro
671 Papá
282 Paracaidistas
880 Parada
296 Parador
15746 Paraguay
493 Paraguaya
484 Paraguayo
409 Paraje
229 Paralelo
163 Paraninfo
1961 Paraíso
154 Parco
3379 Pardo
180 Pared
1897 Paredes
657 Pareja
1775 Parejas
157 Pares
286 Paria
208 Parla
408 Parlamentaria
674 Parlamentario
228 Parlamentarios
13179 Parlamento
305 Parnaso
156 Paro
25229 Parque
1377 Parques
2890 Parra
512 Parral
201 Parras
207 Parrilla
4019 Parroquia
1389 Parroquial
203 Parroquias
334 Partida
207 Partidas
59227 Partido
5949 Partidos
180 Parto
48042 París
610 Pasaje
289 Pasajes
182 Pasarela
1379 Pascal
2791 Pascua
3622 Pascual
4872 Paseo
151 Pasillo
2499 Pasión
6143 Paso
371 Pasos
161 Pasta
1325 Pasto
2598 Pastor
865 Pastora
673 Pastoral
251 Pastores
154 Pastos
263 Pata
688 Patagones
283 Patagónico
242 Patentes
448 Paterna
153 Paternal
1056 Patinaje
930 Patio
989 Pato
295 Patología
427 Patos
4060 Patria
1448 Patriarca
500 Patriarcado
177 Patrias
2741 Patricia
3667 Patricio
636 Patricios
7123 Patrimonio
253 Patriota
353 Patriotas
905 Patriótica
394 Patriótico
211 Patrocinio
1213 Patrona
209 Patronal
298 Patronales
1489 Patronato
439 Patrono
561 Patrulla
821 Patrón
1279 Paulina
1260 Pavía
1281 Pavón
175 Payaso
188 Payo
17676 Paz
223 Pazo
333 Pazos
13144 País
13667 Países
538 Peas
207 Pecado
619 Pedagogía
314 Pedagógica
600 Pedagógico
153 Pedernales
266 Pediatría
397 Pedregal
210 Pedrera
195 Pedriza
58380 Pedro
156 Pee
189 Peer
208 Pego
151 Pela
166 Pelado
180 Peleo
391 Peligro
182 Pella
150 Pelo
647 Pelota
257 Pelotas
606 Pelé
555 Pena
2763 Penal
242 Penales
502 Penas
297 Penco
239 Penda
258 Peninsular
369 Penitencia
152 Penitencial
240 Penitenciario
246 Penitenciaría
602 Pensamiento
324 Pensiones
516 Pentecostés
549 Pentágono
7587 Península
213 Peor
496 Pepa
3341 Pepe
312 Pepita
1237 Pequeña
1186 Pequeño
267 Pera
390 Peral
642 Perales
1658 Peralta
155 Percusión
276 Perdida
536 Perdido
824 Perdidos
498 Perdón
477 Pereda
184 Peregrina
212 Peregrino
152 Peregrinos
157 Perfecta
332 Perfecto
299 Perfil
717 Pergamino
524 Perico
243 Pericos
252 Periférico
2153 Periodismo
1000 Periodistas
309 Perito
803 Periódico
1283 Perla
188 Perlas
1997 Permanente
716 Pernambuco
289 Perpetua
366 Perpetuo
847 Perro
414 Perros
363 Persa
1491 Personal
583 Pertenece
1636 Peruana
1427 Peruano
47622 Perú
212 Pesadilla
1508 Pesado
1118 Pesca
244 Pescado
262 Pescador
295 Pescadores
438 Pescara
2046 Peso
263 Pesos
262 Pesquera
318 Peste
185 Petar
165 Petare
2378 Pete
171 Peto
731 Petra
211 Petrolera
340 Petrolero
198 Petroleros
613 Petróleo
329 Petróleos
519 Pez
8391 Peña
486 Peñaranda
682 Peñas
209 Peñíscola
729 Peñón
247 Peón
345 Phi
1116 Pi
268 Piadoso
1130 Piano
215 Piar
331 Pica
195 Picacho
197 Picado
2620 Picardía
173 Pichi
2772 Pico
843 Picos
150 Picota
176 Picón
1064 Pie
2016 Piedad
3411 Piedra
1896 Piedras
394 Piel
214 Pierrot
337 Pila
4875 Pilar
364 Pilas
161 Pilos
151 Pilote
509 Piloto
329 Pilotos
196 Pimienta
237 Pin
348 Pinacoteca
1264 Pinar
375 Pinares
1269 Pineda
216 Pines
271 Pingüino
219 Pinillos
2579 Pino
256 Pinocho
796 Pinos
206 Pinta
152 Pintada
292 Pintado
2533 Pinto
605 Pintor
310 Pintores
289 Pintos
1544 Pintura
331 Pinturas
707 Pinzón
168 Piojos
273 Pioneros
150 Pipe
258 Pipo
163 Piqueras
315 Piragüismo
459 Pirata
1004 Piratas
311 Pires
838 Pirineo
4209 Pirineos
682 Pirro
632 Pirámide
278 Pirámides
1689 Pisa
227 Pisano
278 Piscina
427 Piscis
795 Pisco
231 Piso
898 Pista
265 Pisón
354 Pita
454 Pizza
429 Piña
178 Piñas
583 Placa
153 Placebo
181 Placer
183 Plaga
9203 Plan
1378 Plana
235 Planas
269 Planeamiento
752 Planes
1880 Planeta
300 Planetario
468 Planetas
1078 Planificación
564 Plano
1237 Planta
211 Plantes
22256 Plata
1003 Plataforma
354 Platea
841 Platense
204 Platero
1218 Platino
282 Plato
2049 Platón
3571 Playa
466 Playas
24134 Plaza
215 Plazas
174 Plazoleta
214 Plazuela
1187 Pleistoceno
413 Plenipotenciario
965 Pleno
555 Plioceno
214 Plomo
203 Pluma
155 Plumas
212 Plural
1609 Plus
733 Plutón
854 Plácido
203 Plástica
898 Plásticas
179 Pléyades
397 Poblado
223 Poblados
460 Pobre
419 Pobres
332 Podemos
6610 Poder
440 Poderes
475 Poema
684 Poemas
2532 Poesía
264 Poesías
708 Poeta
470 Poetas
523 Polaca
554 Polaco
1194 Polar
372 Policial
183 Policiales
7990 Policía
223 Policías
881 Polideportivo
1109 Polinesia
1792 Politécnica
1179 Politécnico
211 Polla
492 Pollo
4112 Polo
16102 Polonia
167 Polvo
779 Polígono
5682 Política
2821 Políticas
2030 Político
878 Políticos
212 Poma
529 Pomar
182 Ponferradina
1071 Poniente
1301 Ponte
3540 Pontificia
715 Pontificio
581 Pontificios
715 Ponto
545 Pontífice
183 Pontón
5400 Pop
862 Pope
19267 Popular
808 Populares
667 Porras
969 Porta
336 Portada
1671 Portal
1118 Portales
292 Portavoz
443 Porte
204 Portero
167 Portes
178 Portezuelo
244 Porteña
852 Porteño
222 Portilla
1447 Portillo
3360 Porto
572 Portuaria
23579 Portugal
1603 Portuguesa
423 Portugueses
684 Portugués
915 Porvenir
1044 Posada
1278 Posadas
400 Posgrado
2204 Post
222 Posta
778 Postal
297 Postgrado
160 Postigo
204 Potable
385 Potencias
200 Potenza
4318 Potosí
376 Potrero
327 Potro
177 Potros
433 Poza
183 Pozas
2132 Pozo
351 Pozos
604 Pozuelo
360 Poética
455 Pradera
6700 Prado
319 Prados
229 Pragmática
219 Preciado
179 Precios
395 Preclásico
292 Predicadores
241 Predilecto
631 Prefecto
1878 Prefectura
1408 Preferente
189 Pregón
719 Prehistoria
413 Prelatura
245 Preliminar
238 Preludio
33191 Premio
6823 Premios
223 Prendimiento
3158 Prensa
232 Preolímpico
187 Preparación
988 Preparatoria
1014 Presa
292 Presbiteriana
428 Presbítero
515 Presentación
262 Preservación
5994 Presidencia
1492 Presidencial
1357 Presidenta
37142 Presidente
840 Presidentes
298 Presidio
159 Prestes
888 Presupuesto
300 Presupuestos
399 Pretoria
171 Pretoriana
646 Prevención
536 Previsión
408 Priego
457 Prieta
2871 Prieto
694 Prima
243 Primado
189 Primal
1784 Primaria
267 Primarias
151 Primario
1591 Primavera
1641 Prime
13472 Primer
47262 Primera
1478 Primero
250 Primitivo
2507 Primo
3206 Princesa
4110 Principado
2369 Principal
152 Principia
527 Prior
461 Priorato
293 Prisa
247 Prisco
443 Prisioneros
439 Prisión
546 Privada
162 Privadas
962 Privado
240 Privilegio
4702 Pro
277 Procedimiento
209 Procedimientos
442 Procesal
866 Procesión
1701 Proceso
200 Proclamación
863 Procurador
583 Procuraduría
1259 Producciones
1739 Producción
531 Producto
559 Productor
194 Productora
385 Productores
4422 Profesional
794 Profesionales
5014 Profesor
394 Profesora
314 Profesorado
681 Profesores
573 Profeta
247 Profetas
286 Profundo
5280 Programa
518 Programación
717 Programas
1418 Progresista
186 Progresivo
2307 Progreso
260 Prohibida
175 Prohibido
165 Promesa
222 Promesas
1583 Promoción
624 Propaganda
832 Propiedad
257 Protagonistas
2583 Protección
605 Protector
294 Protectora
765 Protectorado
353 Protegida
265 Protegidas
174 Protegido
251 Protesta
573 Protestante
181 Protestantes
1268 Protocolo
189 Protocolos
1467 Providencia
32737 Provincia
10165 Provincial
532 Provinciales
3617 Provincias
1591 Provisional
258 Provisorio
165 Proyección
5602 Proyecto
729 Proyectos
537 Prueba
4547 Prusia
191 Prácticas
10402 Príncipe
650 Príncipes
446 Próspero
162 Próxima
1116 Próximo
210 Psicoanalítica
171 Psicoanálisis
2189 Psicología
215 Psicosis
236 Psique
480 Psiquiatría
166 Psiquiátrico
313 Publica
666 Publicaciones
543 Publicidad
9074 Puebla
8868 Pueblo
1790 Pueblos
9515 Puente
427 Puentes
5960 Puerta
669 Puertas
30946 Puerto
823 Puertos
409 Puga
150 Pulcro
292 Pulgar
444 Pulido
255 Pulsar
161 Pulse
770 Puma
845 Pumas
567 Puna
188 Pune
2324 Punk
1575 Puno
6235 Punta
158 Puntal
191 Puntas
1828 Punto
1937 Puntos
595 Pura
174 Puranas
301 Purga
340 Purgatorio
359 Purificación
323 Puro
806 Purísima
272 Puyo
311 Puño
1041 Página
251 Páginas
522 Pájaro
367 Pájaros
218 Pánfilo
194 Pánico
1017 Páramo
152 Páramos
330 Párroco
1036 Pérsico
282 Pía
249 Pías
5067 Pío
252 Pórtico
153 Póstumo
8410 Pública
3953 Públicas
3833 Público
969 Públicos
731 Púnica
253 Púrpura
308 Quebracho
1405 Quebrada
321 Quechua
163 Quemada
267 Quemado
152 Querida
206 Querido
174 Quersoneso
1763 Quesada
289 Queso
166 Quetzal
262 Quiché
892 Quiero
161 Quijada
2439 Quijote
189 Quimera
155 Quino
2775 Quinta
3573 Quintana
1481 Quintero
270 Quinteros
599 Quinteto
2058 Quinto
490 Quintín
565 Quique
7119 Quito
1052 Quién
861 Quiñones
2157 Qué
2899 Química
384 Químicas
255 Químico
305 Quíos
423 RAE
1657 RAM
379 RISC
934 ROM
155 Rabanera
220 Rabino
162 Rabí
1108 Rada
555 Radar
218 Radial
3659 Radical
181 Radicales
20225 Radio
721 Radiodifusión
151 Radios
331 Rae
626 Rafa
18626 Rafael
1241 Rain
347 Raja
4567 Rally
1105 Rama
923 Ramal
984 Rambla
2220 Ramiro
637 Ramones
5179 Ramos
16834 Ramón
447 Rana
1166 Rancho
221 Ranchos
281 Rapa
153 Rapsodia
175 Raptor
1341 Raquel
513 Ras
153 Rasa
156 Raso
226 Rastro
596 Rata
176 Rato
236 Ratones
402 Ratón
502 Raya
165 Rayada
171 Rayados
1485 Rayo
287 Rayos
424 Rayón
871 Razón
456 Raíces
7514 Raúl
423 Rea
247 Reactor
63266 Real
169 Realejos
2686 Reales
334 Realismo
158 Realista
224 Realistas
173 Rebaño
628 Rebeca
918 Rebelde
244 Rebeldes
1403 Rebelión
162 Rebollar
381 Rebolledo
168 Rebollo
271 Recibidos
432 Recinto
218 Recio
1089 Recoleta
325 Recoletos
299 Reconciliación
733 Reconocimiento
2052 Reconquista
674 Reconstrucción
360 Recreación
793 Recreativo
426 Recreo
1904 Rector
214 Rectorado
209 Rectores
204 Rectoría
328 Recuerdo
424 Recuerdos
423 Recuperación
1610 Recursos
12780 Red
357 Redacción
222 Redención
420 Redentor
490 Redes
743 Redonda
946 Redondo
272 Reducción
161 Reducido
205 Reemplazo
236 Referencias
213 Referéndum
196 Refinería
222 Reflexiones
5282 Reforma
235 Reformada
255 Reformas
389 Reformista
262 Refugiados
1013 Refugio
219 Regalado
161 Regata
404 Regatas
844 Regencia
337 Regeneración
838 Regente
585 Regia
565 Regidor
198 Regidores
7152 Regimiento
190 Regimientos
671 Regio
10048 Regional
1139 Regionales
526 Regionalista
686 Regiones
3352 Registro
289 Registros
15901 Región
1050 Regla
1967 Reglamento
446 Reglas
498 Regreso
229 Reguera
228 Regulación
410 Regulador
181 Reguladora
332 Regular
310 Regulares
408 Rehabilitación
11237 Reina
272 Reinas
51084 Reino
1064 Reinos
6428 Relaciones
205 Relatividad
244 Relatos
176 Religiones
356 Religiosa
330 Religiosas
230 Religiosos
766 Religión
360 Reliquias
694 Reloj
234 Relámpago
166 Remedio
1473 Remedios
1486 Remo
5112 Renacimiento
260 Rendimiento
352 Rene
315 Rengo
721 Reno
199 Renovables
944 Renovación
209 Rentas
712 Reorganización
401 Reparto
162 Repertorio
385 Represa
998 Representante
2643 Representantes
2822 Republicana
3091 Republicano
228 Republicanos
75176 República
635 Repúblicas
257 Res
706 Rescate
5204 Reserva
347 Reservas
381 Reserve
1013 Residencia
377 Residencial
328 Residente
2669 Resistencia
1935 Resolución
343 Responsabilidad
2224 Restauración
258 Restaurador
295 Restaurante
426 Resucitado
152 Resumen
1512 Resurrección
696 Retablo
2117 Retiro
169 Reto
354 Retorno
1285 Retrato
165 Retratos
210 Retro
270 Retórica
1209 Reunión
811 Revelación
488 Reverendo
224 Revisión
5426 Revista
1370 Revolucionaria
558 Revolucionarias
4067 Revolucionario
217 Revolucionarios
19401 Revolución
409 Revolver
579 Revuelta
262 Revueltas
28056 Rey
12584 Reyes
332 Reza
745 Riachuelo
682 Ribeiro
3860 Ribera
15473 Rica
13799 Ricardo
1178 Rice
13822 Rico
677 Riego
207 Riel
700 Riera
155 Riesgos
161 Riestra
228 Rifle
160 Rifles
156 Rimas
503 Rinconada
2598 Rincón
1691 Ring
1295 Ringo
5573 Rioja
285 Risa
404 Risco
2558 Rita
528 Ritmo
858 Rito
259 Ritual
7987 Rivera
219 Ro
866 Roa
12621 Roberto
216 Robla
583 Roble
1076 Robledo
1896 Robles
276 Robo
785 Robot
262 Robots
154 Robredo
4804 Roca
267 Rocas
16969 Rock
313 Rococó
719 Rocosas
1367 Rocío
932 Roda
1583 Rodas
887 Rodeo
7240 Rodrigo
630 Rodrigues
257 Rodó
244 Roe
5550 Roja
7227 Rojas
9178 Rojo
1554 Rojos
1092 Rolando
278 Rollo
37375 Roma
2874 Romana
1261 Romance
215 Romancero
6445 Romano
887 Romanos
1000 Romanticismo
154 Romaní
203 Romea
2728 Romeo
217 Romeral
6378 Romero
495 Romería
574 Romo
213 Románica
270 Románico
166 Romántica
2586 Ron
280 Roncal
3192 Ronda
196 Rondón
1637 Roo
4618 Roque
192 Roques
220 Roquetas
665 Ros
12493 Rosa
381 Rosada
327 Rosado
346 Rosal
225 Rosaleda
1841 Rosales
167 Rosarina
14681 Rosario
5621 Rosas
4487 Rose
383 Rosen
1224 Roses
230 Rostro
777 Rota
150 Roto
541 Rotonda
285 Royo
163 Roza
873 Rozas
281 Ruano
241 Rubia
2906 Rubio
461 Rubí
257 Rubín
1516 Rueda
426 Rufo
3186 Rugby
173 Ruido
389 Ruinas
463 Rule
528 Rules
282 Rumana
214 Rumano
183 Rumba
201 Rumbo
2588 Rural
338 Rurales
2974 Rusa
30274 Rusia
1853 Ruso
322 Rusos
11474 Ruta
371 Rutas
305 Rábida
397 Rápido
4196 Régimen
180 Régulo
407 Réquiem
442 Ría
183 Rías
40306 Río
8800 Ríos
191 Rítmica
871 Rúa
403 SAN
150 SAO
230 SCSI
224 SED
225 SEGA
175 SIC
1007 SIDA
888 SO
408 SOS
1118 Sabana
386 Saber
456 Sabiduría
1248 Sabina
239 Sabinas
692 Sabino
2000 Sabio
201 Sabios
427 Sable
374 Sabor
181 Sacerdotal
571 Sacerdote
238 Sacerdotes
232 Sacha
223 Saco
399 Sacra
369 Sacramental
2898 Sacramento
185 Sacrificio
290 Sacristán
276 Sacristía
3321 Sacro
153 Saeta
512 Safari
1489 Saga
348 Sagitario
2364 Sagrada
393 Sagradas
2235 Sagrado
548 Sagrados
758 Sagrario
308 Saja
2895 Sajonia
1186 Sal
6648 Sala
238 Salada
410 Saladillo
1635 Salado
9819 Salamanca
164 Salamandra
225 Salar
2941 Salas
1236 Salcedo
414 Sale
611 Sales
277 Salesiana
332 Salesiano
297 Salesianos
772 Salgado
276 Salina
3993 Salinas
376 Salitre
1428 Salle
154 Salles
183 Salma
479 Salmerón
314 Salmo
351 Salmos
194 Salmón
709 Salomé
2964 Salomón
250 Salones
639 Salsa
4969 Salta
2917 Salto
267 Saltos
170 Salubridad
8357 Salud
203 Salva
565 Salvación
20564 Salvador
237 Salvadores
264 Salvadoreña
151 Salvadoreño
635 Salvaje
347 Salvajes
305 Salvamento
336 Salve
189 Salvia
266 Salvo
8428 Salón
332 Sama
367 Samba
151 Samotracia
252791 San
367 Sanatorio
4842 Sancho
193 Sanción
156 Sancta
164 Sanctus
553 Sandinista
284 Saneamiento
162 Sanedrín
1865 Sangre
188 Sangriento
344 Sangüesa
1528 Sanidad
428 Sanitaria
428 Sanitarias
190 Sanitario
164 Sano
389 Sansón
96438 Santa
9250 Santander
382 Santas
48961 Santiago
491 Santidad
27055 Santo
13156 Santos
3637 Santuario
2920 Santísima
2308 Santísimo
1291 Sao
382 Sapo
761 Sarandí
254 Sardes
223 Sardina
233 Sardinero
1246 Sargento
4283 Sarmiento
281 Sarria
570 Sastre
575 Satanás
453 Sato
769 Saturnino
1661 Saturno
410 Satán
512 Satélite
890 Sauce
264 Sauces
643 Saudí
371 Saxo
156 Saya
2090 Sea
2439 Sean
209 Seas
327 Sebastiano
679 Seca
173 Secciones
3209 Sección
815 Secesión
1100 Seco
367 Secreta
1708 Secretaria
566 Secretariado
11578 Secretario
336 Secretarios
6742 Secretaría
227 Secretarías
910 Secreto
561 Secretos
1550 Sector
1946 Secundaria
225 Secundario
205 Secundarios
162 Sed
424 Seda
255 Sedan
3563 Sede
1946 Sega
157 Segoviana
46964 Segunda
5700 Segundo
189 Segur
3353 Segura
8055 Seguridad
1126 Seguro
1087 Seguros
364 Seguí
1622 Seis
165 Seleccionador
470 Selecciones
15118 Selección
327 Sella
701 Sello
2020 Selva
7014 Semana
283 Semanal
388 Semanario
195 Semiconductor
172 Semifinal
485 Semifinales
4426 Seminario
201 Seminarios
462 Sen
2911 Sena
10317 Senado
3183 Senador
317 Senadora
808 Senadores
378 Senatorial
207 Sencillos
292 Senda
719 Sendero
717 Senior
427 Sentencia
163 Sentimiento
755 Seo
757 Septentrional
3900 Septiembre
939 Sepulcro
254 Sepultura
295 Sera
481 Serafín
6395 Serbia
276 Serbio
225 Serbios
2995 Serena
230 Serenata
238 Sereno
204 Serenísima
6906 Sergio
194 Serial
9204 Serie
5035 Series
180 Sermón
1395 Serna
304 Serpa
583 Serpiente
311 Serrador
183 Serrana
3743 Serrano
160 Serranos
809 Serranía
413 Servando
8126 Servicio
3880 Servicios
186 Servidor
164 Serón
217 Sesiones
294 Sesión
197 Sesma
152 Setenta
173 Setiembre
240 Seto
1264 Severo
218 Sevillana
180 Sevillano
178 Sexenio
159 Sexmo
396 Sexo
1085 Sexta
195 Sexteto
985 Sexto
328 Sexual
464 Sexy
389 Señal
254 Señales
12179 Señor
14145 Señora
1084 Señores
490 Señorita
196 Señoritas
1390 Señorío
501 Sheriff
3942 Si
417 Sibila
268 Sida
1760 Siena
22580 Sierra
1113 Sierras
150 Siervo
3241 Siete
6901 Siglo
545 Sigma
158 Signo
246 Signos
1107 Silencio
725 Silla
251 Silo
496 Silos
7016 Silva
229 Silvano
1753 Silvestre
1951 Silvia
155 Silúrico
414 Sima
746 Simple
311 Simposio
6757 Simón
4892 Sin
271 Sinagoga
784 Sindical
152 Sindicalista
2257 Sindicato
373 Sindicatos
2024 Sinfonía
3457 Sinfónica
1369 Single
2848 Singles
400 Siniestro
206 Sionista
226 Sirena
5708 Siria
665 Sirio
251 Siro
225 Sirte
11982 Sistema
1778 Sistemas
245 Sistemática
2291 Sitio
441 Sitios
2060 So
245 Soberana
837 Soberano
313 Soberanía
151 Soberbio
211 Sobrino
12716 Social
949 Socialdemócrata
4469 Sociales
605 Socialismo
10335 Socialista
1235 Socialistas
23643 Sociedad
1017 Sociedades
279 Socio
1510 Sociología
254 Socios
1569 Socorro
718 Soda
2479 Software
17843 Sol
820 Sola
163 Solace
775 Solana
203 Solanas
1439 Solano
4862 Solar
249 Solares
441 Solaris
584 Soldado
191 Soldán
3593 Soledad
245 Solemne
2021 Soler
150 Solera
205 Soles
153 Solidaria
1378 Solidaridad
152 Solidario
282 Solimán
179 Solista
280 Solitario
238 Solé
177 Soma
831 Sombra
685 Sombras
492 Sombrero
157 Somontano
683 Somos
749 Sonata
400 Sonda
1101 Sonia
709 Sonido
4059 Sonora
191 Sopa
562 Soprano
1104 Sor
261 Sordo
225 Soriana
1540 Soriano
158 Sorpresa
224 Sos
2158 Sosa
351 Sostenible
389 Sota
317 Sotavento
4429 Soto
15250 Soviética
398 Soviéticas
424 Soviético
158 Soviéticos
1168 Soy
4378 Sport
160 Spot
297 Sprint
944 Stand
259 Suba
247 Subcampeón
476 Subdirector
223 Subida
184 Sublevación
318 Sublime
211 Submarino
159 Submarinos
247 Suboficiales
866 Subsecretario
420 Subsecretaría
236 Subteniente
1711 Sucesión
171 Suceso
159 Sucesos
3548 Sucre
211 Suda
233 Sudafricana
3538 Sudamericana
2502 Sudamericano
210 Sudamericanos
159 Sudan
1398 Sudeste
656 Sudoeste
870 Sueca
358 Sueco
211 Suero
237 Suerte
1151 Sueño
714 Sueños
416 Suicide
1067 Suite
161 Suites
14540 Suiza
478 Suizo
182 Sujeto
639 Sula
319 Sultanato
867 Sultán
339 Suma
221 Sumeria
779 Sumo
567 Superintendencia
380 Superintendente
14030 Superior
1106 Superiores
174 Supermercados
220 Supernova
163 Supervisión
175 Supervisor
278 Suplemento
5935 Suprema
6814 Supremo
161 Supremos
48713 Sur
330 Suramericanos
269 Surco
1597 Sureste
322 Surf
1048 Suroeste
397 Suso
166 Sutil
1340 Sábado
418 Sábados
217 Sálvame
362 Sé
582 Séneca
725 Séptima
837 Séptimo
277 Sésamo
388 Síndico
919 Síndrome
731 Sínodo
244 Síntesis
1250 Súper
279 TA
326 TAC
152 TACA
188 TAS
225 TE
574 TI
431 TIC
471 Ta
342 Tabaco
166 Tabacos
3735 Tabasco
187 Taberna
178 Tabernas
785 Tabla
446 Tablada
648 Tablas
176 Taco
372 Tagua
163 Taha
415 Taifa
2540 Tajo
488 Tala
163 Talara
373 Tale
334 Talento
1305 Tales
1597 Taller
1431 Talleres
179 Tamarindo
527 Tambo
244 Tambor
222 Tambores
1538 Tango
404 Tanque
323 Tanques
581 Tao
165 Tape
171 Tapes
1408 Tapia
1073 Tara
588 Tardío
895 Tarifa
240 Tarja
318 Tarjeta
260 Taro
246 Tarot
297 Tarraconense
498 Tarso
658 Tasa
472 Tata
986 Tate
339 Tato
525 Tau
548 Tauro
377 Taxi
159 Taxonomía
2991 Te
407 Tea
432 Teatral
25021 Teatro
227 Teatros
199 Techo
439 Tecla
167 Teclados
3234 Tecnología
732 Tecnologías
1054 Tecnológica
153 Tecnológicas
2730 Tecnológico
205 Tecnológicos
194 Teja
1322 Tejada
172 Tejar
339 Tejas
436 Tejedor
270 Tejera
229 Tejero
248 Tejo
161 Tela
1326 Telecomunicaciones
325 Telediario
161 Telefonía
1413 Telefónica
480 Telescopio
3189 Televisa
10498 Televisión
209 Teléfono
187 Teléfonos
218 Telégrafo
376 Telégrafos
221 Temerario
161 Tempestad
517 Templarios
2065 Temple
5226 Templo
173 Templos
236 Tempo
2985 Temporada
382 Temprano
1641 Ten
821 Tena
176 Tenencia
417 Tengo
5212 Teniente
830 Tenis
165 Tenor
690 Tenorio
2886 Teología
220 Teológico
476 Teorema
3039 Teoría
152 Teosófica
490 Tequila
386 Terapia
3498 Tercer
10268 Tercera
663 Tercero
168 Terciaria
498 Terciario
554 Tercio
245 Tercios
8545 Teresa
448 Termas
2424 Terminal
192 Terraza
358 Terrazas
853 Terremoto
200 Terreros
713 Terrestre
216 Terrestres
481 Terrible
1540 Territorial
154 Territoriales
3517 Territorio
1010 Territorios
1482 Terror
442 Terrorismo
170 Tertulia
209 Tertuliano
184 Tes
874 Tesalia
865 Tesalónica
385 Tesis
741 Tesla
648 Tesorero
234 Tesorería
1859 Tesoro
187 Tesoros
947 Test
302 Testa
3205 Testamento
584 Testigos
157 Tete
336 Teutónica
177 Teutónicos
352 Tex
15023 Texas
281 Textil
160 Teórica
939 Ti
1383 Tiberio
411 Tiburones
431 Tiburón
4034 Tiempo
369 Tienda
201 Tierno
32854 Tierra
2064 Tierras
2939 Tigre
1900 Tigres
183 Tilden
158 Tilo
398 Timbiriche
7110 Time
6555 Times
376 Timo
1367 Tina
225 Tinieblas
323 Tino
235 Tinta
410 Tinto
2929 Tipo
294 Tirado
582 Tirana
2199 Tiro
322 Tirreno
561 Tirso
249 Tirón
347 Tita
311 Titan
868 Titanes
4611 Tito
914 Titular
638 Titán
477 Toa
151 Toad
221 Toba
205 Tobar
295 Tobías
165 Toca
410 Toisón
170 Tola
156 Toldos
212 Toledano
14820 Toledo
318 Tolón
833 Toma
979 Tomas
491 Tomo
10500 Tomás
1411 Tomé
228 Ton
298 Tone
873 Tonga
199 Tono
1064 Too
189 Topete
401 Topo
178 Tora
328 Toral
1118 Tormenta
238 Tormo
711 Tornado
14019 Torneo
497 Torneos
4309 Toro
1451 Toros
245 Torpedo
12894 Torre
769 Torrejón
608 Torrente
10543 Torres
1061 Torreón
425 Tortuga
275 Tortugas
167 Tortura
509 Tosca
2410 Toscana
233 Toscano
15044 Tour
232 Tozo
161 Traba
3638 Trabajadores
6178 Trabajo
170 Trace
1510 Tracia
257 Tradicionalista
235 Tradiciones
658 Tradición
443 Traducción
311 Tragedia
181 Traición
1099 Trajano
184 Traje
155 Trampa
377 Trance
297 Transbordador
235 Transferencia
209 Transfiguración
197 Transformación
210 Transiberiano
1233 Transición
234 Transparencia
4501 Transporte
2262 Transportes
373 Transversal
489 Tranvía
206 Tranvías
177 Trap
178 Trasandino
158 Trastorno
12339 Tratado
746 Tratados
169 Travesía
981 Trece
208 Tregua
1599 Treinta
1139 Tren
287 Trenes
7427 Tres
396 Tri
281 Trial
179 Tribal
533 Tribu
685 Tribuna
10269 Tribunal
982 Tribunales
205 Tribus
239 Tributaria
273 Tribute
282 Tributo
196 Tricolor
547 Trienio
403 Trigo
197 Trigueros
326 Trillo
402 Trilogía
6893 Trinidad
163 Trinitaria
165 Tripartito
3434 Triple
285 Triste
321 Tritón
1480 Triunfo
751 Triunvirato
594 Triángulo
1017 Triásico
2166 Trofeo
172 Tronador
553 Troncal
775 Trono
241 Tropa
1350 Tropical
174 Trova
181 Trovadores
2127 Troya
627 Trueno
1249 Trust
349 Tráfico
338 Trágica
970 Tránsito
208 Trébol
155 Tríada
184 Trías
871 Trío
1230 Trípoli
162 Tríptico
306 Trópico
1848 Tu
450 Tuerto
1012 Tulio
231 Tulle
488 Tumba
169 Tumbas
625 Tumbes
260 Tuna
327 Tunas
489 Tunes
194 Turbio
1101 Turbo
424 Turca
169 Turcas
511 Turco
240 Turcos
5007 Turismo
404 Turismos
253 Turno
8957 Turquía
319 Turística
892 Turístico
168 Turón
369 Tus
605 Tácito
188 Tártaro
222 Té
3563 Técnica
597 Técnicas
2890 Técnico
566 Técnicos
479 Tía
1115 Tío
204 Típica
1719 Título
652 Títulos
1116 Tú
626 Túnel
3190 Túnez
253 UFO
349 UNE
616 UNIX
4679 USA
8681 Ucrania
246 Ucraniana
354 Ucraniano
179 Ulterior
466 Ultima
154 Ultimo
1049 Ultra
730 Ultramar
707 Umbría
327 Une
2741 Unida
6266 Unidad
1031 Unidades
11689 Unidas
37349 Unido
178042 Unidos
505 Unificación
151 Unificada
871 Unificado
175 Unionista
297 Unitaria
233 Unitario
7729 Universal
151 Universales
134809 Universidad
2508 Universidades
4414 Universitaria
230 Universitarias
6009 Universitario
576 Universitarios
5242 Universo
1461 Unix
856 Unió
50202 Unión
883 Urano
1192 Urbana
159 Urbanas
853 Urbanismo
590 Urbanización
2560 Urbano
474 Urbanos
228 Urgencias
962 Urraca
796 Uruguaya
778 Uruguayo
312 Use
283 Usted
249 Uta
425 Utopía
452 Utrera
150 Uva
15402 VI
227 VIVA
955 Vaca
233 Vacaciones
360 Vacas
401 Vado
157 Vados
2046 Val
431 Valar
421 Valdepeñas
1093 Vale
28067 Valencia
6084 Valenciana
374 Valencianas
877 Valenciano
791 Valentina
390 Valentiniano
684 Valentino
649 Valiente
182 Valioso
456 Valladares
23309 Valle
1580 Valles
248 Valona
1151 Valores
218 Vals
591 Vamos
358 Vampiro
158 Vampiros
9883 Van
1282 Vanguardia
357 Vapor
238 Vaquero
230 Vaqueros
299 Vara
162 Varadero
440 Varas
6300 Vargas
210 Variable
254 Variaciones
193 Variante
261 Variedades
253 Varo
299 Varones
165 Vas
1015 Vasca
10937 Vasco
335 Vascos
165 Vaso
330 Vaticana
4212 Vaticano
171 Vaya
202 Vea
348 Vecinal
473 Vecinos
251 Vector
235 Vedas
10220 Vega
5074 Vegas
441 Vegeta
325 Vegetal
336 Veinte
230 Veinticinco
1772 Vela
156 Veleta
368 Velilla
220 Velloso
233 Velo
885 Velocidad
169 Veloz
229 Velódromo
386 Ven
159 Vena
520 Venado
186 Venados
191 Vendetta
8639 Venecia
429 Veneno
162 Venera
646 Venerable
1444 Venezolana
733 Venezolano
33924 Venezuela
1362 Vengadores
335 Venganza
1238 Venta
518 Ventana
201 Ventanas
883 Ventas
228 Ventosa
1785 Ventura
4012 Venus
246 Veo
4857 Vera
2499 Verano
466 Verbo
1410 Verdad
245 Verdadera
7381 Verde
1937 Verdes
395 Verdugo
309 Vereda
220 Vergel
208 Verso
214 Versos
176 Verte
254 Vertical
1555 Verónica
195 Vestíbulo
295 Veteranos
621 Veterinaria
200 Vi
280 Viaducto
1448 Viaje
203 Viajero
458 Viajes
1010 Vial
383 Vialidad
1066 Vicario
245 Vicaría
916 Vice
264 Vicealmirante
17852 Vicente
384 Vicepresidencia
250 Vicepresidenta
3429 Vicepresidente
232 Vicepresidentes
236 Vicerrector
15149 Victoria
251 Victoriana
1137 Victoriano
1023 Vicuña
246 Vid
5096 Vida
610 Vidas
183 Vidrio
646 Vieira
4539 Vieja
510 Viejas
7550 Viejo
281 Viejos
932 Viento
551 Vientos
518 Viera
2557 Viernes
604 Vigilancia
292 Vigilante
366 Vigía
24737 Villa
294 Villadiego
163 Villano
1208 Villas
234 Vine
171 Vinilo
852 Vino
203 Vinos
753 Viola
168 Violadores
406 Violencia
1305 Violeta
209 Violín
26877 Virgen
8775 Virginia
508 Virgo
3037 Virreinato
2157 Virrey
1161 Virtual
176 Virtud
276 Virtudes
659 Virus
220 Visa
203 Visir
341 Visitación
174 Visitador
212 Visitante
176 Visitantes
828 Visión
482 Viso
4013 Vista
1248 Visual
480 Visuales
548 Vital
182 Vitamina
805 Vito
487 Viuda
1780 Viva
426 Vivar
491 Vivas
619 Vive
658 Vivero
223 Viveros
948 Vives
211 Vivid
3102 Vivienda
373 Viviendas
178 Viviente
579 Vivir
989 Vivo
5703 Vizcaya
311 Vizcaíno
169 Vizcondado
657 Vizconde
3516 Viña
489 Viñas
1330 Vocal
196 Vocales
561 Voces
276 Volador
330 Volante
160 Volcanes
1051 Volcán
188 Volcánica
1109 Voleibol
798 Volumen
362 Voluntad
1104 Voluntarios
445 Volver
276 Vos
397 Voto
389 Voy
2669 Voz
1092 Vuelo
5633 Vuelta
431 Vueltas
333 Vulgata
421 Véase
1004 Véneto
174 Vértigo
5312 Vía
295 Víbora
331 Víctimas
8817 Víctor
993 Vírgenes
231 Vísperas
3748 Web
1473 Weber
177 Whisky
239 Yacente
167 Yacimientos
234 Yago
1064 Yang
202 Yanquis
285 Yaqui
599 Yates
155 Yeguas
217 Yen
281 Yerba
329 Yin
3763 Yo
327 Yoga
874 Yolanda
220 Yugoslava
343 Yugoslavo
192 Yunque
198 Zafiro
639 Zafra
7839 Zamora
396 Zamorano
238 Zanjón
150 Zapadores
2623 Zapata
1140 Zapatero
224 Zapatista
162 Zape
908 Zar
15794 Zaragoza
224 Zarco
449 Zarza
663 Zarzuela
466 Zayas
710 Zen
378 Zenit
814 Zeta
183 Zetas
248 Zodiaco
567 Zombie
7326 Zona
181 Zonal
737 Zoo
453 Zoología
202 Zoológica
902 Zoológico
261 Zoom
213 Zorita
821 Zorro
188 Zurdo
436 Zurita
270 Zócalo
3081 abad
452 abades
624 abadesa
3897 abadía
386 abadías
12763 abajo
177 abanderada
554 abanderado
5226 abandona
579 abandonaba
276 abandonaban
3819 abandonada
1331 abandonadas
7147 abandonado
1918 abandonados
1314 abandonan
2164 abandonando
13552 abandonar
803 abandonara
407 abandonaran
417 abandonarla
413 abandonarlo
3650 abandonaron
189 abandonará
752 abandonaría
288 abandonase
439 abandone
187 abandonen
5934 abandono
252 abandonos
13722 abandonó
1560 abanico
256 abanicos
221 abaratar
8332 abarca
1537 abarcaba
329 abarcaban
1800 abarcan
1456 abarcando
972 abarcar
187 abarcaría
931 abarcó
286 abarrotes
611 abastece
316 abastecen
1224 abastecer
288 abastecerse
603 abastecida
3058 abastecimiento
249 abastecimientos
274 abastecía
212 abastecían
352 abasto
291 abastos
385 abate
680 abatido
264 abatidos
252 abatir
969 abdicación
571 abdicar
535 abdicó
1899 abdomen
1066 abdominal
322 abdominales
445 abedul
324 abedules
990 abeja
2201 abejas
173 aberraciones
225 aberración
1582 abertura
862 aberturas
451 abeto
325 abetos
11181 abierta
3419 abiertamente
4103 abiertas
16313 abierto
4853 abiertos
778 abismo
203 ablación
233 abocado
232 abocó
523 aboga
402 abogaba
203 abogaban
805 abogacía
1187 abogada
14589 abogado
2774 abogados
219 abogan
238 abogando
175 abogar
588 abogó
171 abolengo
325 abolicionista
181 abolicionistas
2308 abolición
644 abolida
168 abolidas
705 abolido
239 abolidos
174 abolieron
485 abolir
792 abolió
326 abonado
557 abonados
323 abonar
627 abono
440 abonos
1478 aborda
161 abordaba
195 abordada
566 abordado
211 abordados
656 abordaje
509 abordan
235 abordando
1625 abordar
278 abordaron
360 abordo
677 abordó
1055 aborigen
171 abortada
218 abortado
369 abortar
2210 aborto
442 abortos
2800 aborígenes
296 abovedada
157 abovedadas
287 abovedado
467 abra
173 abran
155 abrasivo
239 abrasión
530 abraza
191 abrazado
265 abrazan
257 abrazando
426 abrazar
623 abrazo
397 abrazó
8296 abre
3273 abren
191 abrevadero
228 abrevia
534 abreviación
1900 abreviada
217 abreviadamente
4778 abreviado
223 abreviar
1226 abreviatura
247 abreviaturas
346 abridor
2162 abriendo
327 abriera
164 abrieran
2766 abrieron
1510 abrigo
542 abrigos
98275 abril
7009 abrir
158 abrirla
1448 abrirse
435 abrirá
428 abriría
606 abriéndose
12211 abrió
194 abrumado
263 abrumador
601 abrumadora
184 abrumadoramente
778 abrupta
971 abruptamente
327 abruptas
650 abrupto
293 abruptos
1009 abría
446 abrían
176 absceso
180 abscesos
423 absolución
7547 absoluta
2492 absolutamente
636 absolutas
711 absolutismo
728 absolutista
380 absolutistas
6219 absoluto
678 absolutos
243 absolvió
1409 absorbe
577 absorben
278 absorbente
1640 absorber
1495 absorbida
347 absorbidas
1222 absorbido
584 absorbidos
431 absorbiendo
697 absorbió
3143 absorción
356 abstenciones
748 abstención
324 abstenerse
692 abstinencia
173 abstracciones
1402 abstracción
1028 abstracta
581 abstractas
1556 abstracto
699 abstractos
150 abstuvieron
282 abstuvo
978 absuelto
275 absueltos
404 absurda
271 absurdas
1192 absurdo
219 absurdos
4293 abuela
185 abuelas
7788 abuelo
2262 abuelos
232 abulense
224 abultada
209 abultado
800 abunda
156 abundaba
332 abundaban
1926 abundan
5104 abundancia
7022 abundante
464 abundantemente
6006 abundantes
373 aburrida
589 aburrido
296 aburrimiento
177 abusa
195 abusado
368 abusar
189 abusiva
319 abusivo
2969 abuso
2489 abusos
7716 acaba
2377 acababa
569 acababan
1148 acabada
263 acabadas
3515 acabado
935 acabados
2026 acaban
2301 acabando
9109 acabar
524 acabara
2865 acabaron
680 acabará
214 acabarán
2032 acabaría
446 acabarían
196 acabase
565 acabe
189 acaben
426 acabo
12061 acabó
191 acacia
243 acacias
4251 academia
1044 academias
294 academicismo
241 academicista
4783 académica
289 académicamente
2402 académicas
7052 académico
4546 académicos
698 acaecida
155 acaecidas
462 acaecido
475 acaecidos
175 acaeció
160 acallar
167 acalorada
322 acampada
168 acampado
593 acampar
316 acamparon
283 acampó
1286 acantilado
2113 acantilados
239 acanto
220 acantonadas
186 acantonado
194 acaparar
150 acaparó
283 acarrea
312 acarrear
320 acarreo
336 acarreó
910 acaso
381 acatar
263 acaudalada
394 acaudalado
200 acaudalados
5902 accede
809 acceden
9724 acceder
341 accedido
560 accediendo
160 accediera
487 accedieron
3106 accedió
638 accedía
177 accedían
938 accesibilidad
3155 accesible
1510 accesibles
31642 acceso
152 accesoria
568 accesorio
2096 accesorios
2639 accesos
625 accidentada
282 accidentadas
1072 accidentado
1348 accidental
367 accidentales
2718 accidentalmente
15763 accidente
3851 accidentes
234 acciona
254 accionada
385 accionado
179 accionados
326 accionamiento
1135 accionar
352 accionariado
261 accionario
23372 acciones
1358 accionista
1711 accionistas
36005 acción
163 acebo
160 acebos
155 acecha
260 acecho
9136 aceite
1692 aceites
448 aceituna
612 aceitunas
627 acelera
2123 aceleración
576 acelerada
162 aceleradamente
1269 acelerado
630 acelerador
325 aceleradores
221 acelerados
177 aceleran
298 acelerando
1462 acelerar
192 aceleraron
748 aceleró
2653 acento
522 acentos
289 acentuación
542 acentuada
186 acentuadas
510 acentuado
262 acentuando
347 acentuar
543 acentuó
612 acentúa
218 acentúan
372 acepciones
912 acepción
6616 acepta
912 aceptaba
486 aceptaban
1820 aceptable
637 aceptables
6130 aceptación
4085 aceptada
3704 aceptadas
5090 aceptado
1093 aceptados
1467 aceptan
1245 aceptando
7198 aceptar
530 aceptara
222 aceptaran
157 aceptarla
318 aceptarlo
1978 aceptaron
170 aceptará
338 aceptaría
201 aceptase
448 acepte
165 acepten
417 acepto
9208 aceptó
731 acequia
679 acequias
523 acera
470 aceras
27239 acerca
988 acercaba
539 acercaban
288 acercado
3092 acercamiento
332 acercamientos
1171 acercan
451 acercando
875 acercar
691 acercaron
2787 acercarse
832 acercándose
2001 acercó
8393 acero
488 aceros
301 acerque
561 acertada
211 acertadamente
182 acertadas
465 acertado
247 acertar
184 acertijo
212 acertijos
163 acertó
947 acervo
706 acetato
231 acetileno
253 acetona
802 acidez
216 acidosis
161 acierta
801 acierto
334 aciertos
631 aclamación
1105 aclamada
284 aclamadas
1668 aclamado
417 aclamados
750 aclara
266 aclaración
184 aclaradas
459 aclarado
158 aclaran
238 aclarando
1793 aclarar
714 aclaró
225 aclimatación
264 acné
2484 acoge
240 acogedor
479 acogen
1490 acoger
234 acogerse
3664 acogida
157 acogidas
1199 acogido
320 acogidos
256 acogiendo
345 acogieron
1755 acogió
273 acogía
449 acometer
252 acometida
204 acometidas
329 acometió
201 acomodación
1125 acomodada
307 acomodadas
250 acomodado
311 acomodados
800 acomodar
194 acomodarse
218 acomodo
3935 acompaña
1304 acompañaba
1058 acompañaban
4776 acompañada
1446 acompañadas
10789 acompañado
3210 acompañados
2890 acompañamiento
215 acompañamientos
2190 acompañan
2139 acompañando
1794 acompañante
1047 acompañantes
2924 acompañar
281 acompañara
175 acompañarla
187 acompañarle
361 acompañarlo
1258 acompañaron
273 acompañarse
240 acompañará
312 acompañaría
337 acompañe
251 acompaño
4275 acompañó
270 acondicionada
1388 acondicionado
175 acondicionados
650 acondicionamiento
180 acondicionar
155 acondicionó
1086 aconseja
215 aconsejaba
464 aconsejable
470 aconsejado
178 aconsejan
257 aconsejar
267 aconsejaron
930 aconsejó
357 acontece
350 acontecer
218 acontecida
582 acontecido
240 acontecidos
4292 acontecimiento
10407 acontecimientos
518 aconteció
429 acopio
202 acopla
215 acoplada
172 acopladas
432 acoplado
361 acoplados
1126 acoplamiento
206 acoplar
202 acoplarse
162 acople
238 acorazada
234 acorazadas
2476 acorazado
1966 acorazados
203 acordaba
447 acordada
157 acordadas
1545 acordado
244 acordados
249 acordando
649 acordar
2023 acordaron
2772 acorde
207 acordeonista
2120 acordes
1045 acordeón
3494 acordó
217 acorralado
168 acorta
171 acortada
295 acortado
214 acortamiento
159 acortando
389 acortar
203 acortó
209 acosada
461 acosado
168 acosador
190 acosados
150 acosar
1449 acoso
337 acostado
315 acostarse
947 acostumbra
538 acostumbraba
243 acostumbraban
379 acostumbrada
817 acostumbrado
665 acostumbrados
419 acostumbran
154 acostumbrarse
198 acotada
301 acotado
160 acotar
223 acre
280 acrecentar
326 acrecentó
791 acredita
693 acreditación
856 acreditada
279 acreditadas
1445 acreditado
514 acreditados
277 acreditan
416 acreditar
299 acreditó
963 acreedor
283 acreedora
1023 acreedores
2083 acres
160 acribillado
173 acristalada
232 acrobacia
424 acrobacias
243 acrobático
265 acrílico
154 acróbata
2797 acrónimo
478 acrópolis
3088 acta
1428 actas
245 actinomorfas
9292 actitud
2333 actitudes
10850 activa
2124 activación
478 activada
