
\data\
ngram 1=45115
ngram 2=1297

\1-grams:
1 <unk>
1 <s>
1 </s>
1 <num>
1900 AB
3225 ABC
3996 AC
235 ACE
914 AD
2640 ADN
787 ADSL
219 AH
425 AN
1072 API
312 ARC
220 ARIA
1333 ARN
205 ART
1386 AS
200 ASBL
548 ASCII
214 AXA
180 Ab
430 Abbassides
1049 Abbaye
673 Abbeville
655 Abbé
380 Abdelkader
249 Abeille
1916 Abel
1383 Abidjan
185 Abies
180 Abitibi-Témiscamingue
268 Abkhazie
764 Aborigènes
956 About
4072 Abraham
194 Abrégé
1839 Abu
193 Abyssinie
227 Ac
349 Acacia
883 Acadie
2053 Acadiens
8973 Académie
358 Académies
224 Acapulco
521 Accord
751 Accords
308 Accra
192 Accueil
243 Accès
877 Ace
246 Aces
1945 Achille
227 Achéens
227 Achéménides
522 Acre
252 Acta
770 Acte
1670 Actes
3184 Action
193 Actions
531 Active
211 Actualités
225 Actuel
562 Ad
198 Adagio
6460 Adam
331 Addis-Abeba
397 Adeline
426 Adieu
289 Adjoint
346 Administrateur
2104 Administration
607 Adobe
3142 Adolphe
314 Adonis
247 Adoration
247 Adour
1130 Adriatique
2586 Adrien
481 Adrienne
711 Adèle
1587 Adélaïde
528 Affaire
12038 Affaires
3336 Afghanistan
270 Afghans
882 Africain
425 Africaine
994 Africains
578 Afrikaners
27794 Afrique
466 Afro-Américains
265 Afro-américains
325 Agamemnon
424 Agatha
657 Agathe
355 Agde
2193 Age
1305 Agen
2082 Agence
170 Agences
244 Agenda
461 Agent
189 Agents
426 Agglomération
187 Agha
188 Agir
2179 Agnès
289 Agora
666 Agricole
918 Agriculture
868 Agrippa
556 Ah
3656 Ahmed
839 Ai
298 Aida
359 Aide
245 Aides
577 Aigle
437 Aigles
463 Ailes
1393 Aimé
295 Aimée
1203 Ain
13331 Air
1697 Airbus
443 Aire
6922 Aires
878 Aisne
500 Ait
1431 Aix
215 Aix-Marseille
2261 Aix-en-Provence
907 Aix-la-Chapelle
542 Aix-les-Bains
1502 Ajaccio
218 Al-Qaïda
1670 Alabama
13079 Alain
4640 Alan
1839 Alaska
626 Alban
967 Albanais
1574 Albanie
328 Albatros
17503 Albert
1302 Alberta
265 Albertine
961 Albi
662 Albigeois
174 Albret
1762 Album
1081 Albums
187 Alcazar
229 Alcibiade
269 Alembert
959 Alençon
327 Alerte
4926 Alex
1787 Alexandra
18372 Alexandre
2583 Alexandrie
306 Alexandrine
222 Alexia
4119 Alexis
1577 Alfa
8610 Alfred
6071 Alger
343 Algonquins
12274 Algérie
315 Algérien
200 Algérienne
877 Algériens
8278 Ali
283 Alias
576 Alicante
5072 Alice
905 Alicia
404 Aline
527 Alison
1139 Alix
192 Alla
1280 Allah
296 Allais
2532 Allan
269 Allegro
47940 Allemagne
2338 Allemand
608 Allemande
200 Allemandes
16202 Allemands
212 Allez
4174 Alliance
200 Alliances
1017 Allier
170 Alliées
5679 Alliés
273 Allègre
194 Allée
733 Alma
423 Almanach
182 Almaty
361 Alost
251 Alouette
255 Alouettes
11244 Alpes
2791 Alpes-Maritimes
1578 Alpes-de-Haute-Provence
2224 Alpha
246 Alphabet
5842 Alphonse
217 Alpin
489 Alpine
6970 Alsace
400 Alsace-Lorraine
383 Alsaciens
267 Alter
520 Alternative
189 Alternatives
473 Altesse
1157 Alto
472 Alvin
204 Alzheimer
682 Alès
351 Aléoutiennes
197 Alésia
719 Amadeus
728 Amadou
283 Amand
973 Amanda
388 Amants
525 Amateur
232 Amateurs
935 Amaury
381 Amazone
340 Amazones
648 Amazonie
208 Ambassade
408 Ambassadeur
252 Ambassadeurs
239 Ambre
1156 Ambroise
207 Amen
175 Amer
621 Ami
262 Amicale
2918 Amiens
178 Amina
233 Amine
676 Amiral
2950 Amis
241 Amitié
383 Amman
830 Amos
1588 Amour
502 Amours
300 Ampère
6497 Amsterdam
1783 Amédée
1207 Amélie
321 Aménagement
1859 Américain
1104 Américaine
445 Américaines
7612 Américains
3347 Amérindiens
26182 Amérique
2028 Amériques
3219 An
1437 Ana
175 Anaconda
361 Analyse
978 Anatole
1136 Anatolie
321 Anaïs
1975 Ancien
400 Ancienne
2689 Anciens
185 Andalous
1553 Andalousie
225 Andaman
1261 Anderlecht
827 Andersen
2652 Andes
588 Andorre
265 Andrinople
238 Andromède
22277 André
202 Andréa
754 Andrée
3939 Andy
1450 Ange
429 Angelina
4030 Angers
1193 Anges
255 Angevins
276 Angkor
12514 Anglais
359 Anglaise
753 Angle
501 Angles
204 Anglet
32313 Angleterre
1803 Angola
1930 Angoulême
224 Angoumois
289 Angèle
901 Angélique
203 Anima
776 Animal
872 Animation
312 Animaux
205 Anime
741 Anita
1867 Anjou
741 Ankara
6103 Anna
2631 Annales
12090 Anne
990 Anne-Marie
242 Anneau
418 Anneaux
1444 Annecy
337 Annemasse
636 Annette
315 Annick
2501 Annie
352 Annonciation
198 Annuaire
3098 Années
384 Anonyme
365 Anouilh
6903 Ans
225 Anse
716 Anselme
236 Antananarivo
1948 Antarctique
1213 Antenne
408 Anthologie
4516 Anthony
216 Anthropologie
826 Antibes
782 Antigone
4894 Antilles
1294 Antioche
252 Antique
1691 Antiquité
571 Antiquités
14685 Antoine
1223 Antoinette
1143 Antonin
9892 Antonio
820 Antony
223 Antwerpen
228 Anubis
4930 Anvers
724 Août
795 Apache
367 Apaches
538 Aphrodite
268 Apis
780 Apocalypse
845 Apollinaire
1531 Apollon
218 Apologie
170 Apostolique
981 Appalaches
590 Appel
193 Appellation
348 Application
276 Applications
982 Apôtres
188 Aquarium
229 Aquin
5966 Aquitaine
323 Ara
847 Arabe
4108 Arabes
2034 Arabie
221 Arabique
2040 Aragon
206 Aragonais
402 Arbre
222 Arbres
1353 Arc
365 Arcachon
635 Arcade
252 Arcadie
475 Arche
647 Archer
182 Arches
337 Archevêque
359 Archimède
177 Archipel
274 Architecte
222 Architectes
1165 Architecture
375 Archive
4434 Archives
233 Archéologie
279 Archéologique
353 Arcs
1119 Arctique
448 Ardenne
4484 Ardennes
1145 Ardèche
1527 Are
234 Ares
583 Argent
343 Argentan
643 Argenteuil
176 Argentin
9037 Argentine
526 Argentins
413 Argonautes
202 Argonne
471 Argos
354 Argus
467 Aria
1538 Ariane
329 Arias
965 Ariel
1141 Aristide
284 Aristophane
2129 Aristote
2342 Arizona
717 Ariège
981 Arkansas
318 Arlequin
2660 Arles
261 Arles-Avignon
405 Arlette
436 Arlon
347 Armada
311 Armagnac
449 Armagnacs
3775 Armand
216 Armentières
449 Armes
198 Armoiries
252 Armor
349 Armorique
7141 Armée
1290 Armées
2841 Arménie
1524 Arméniens
3192 Arnaud
205 Arques
1523 Arras
343 Arrondissement
317 Arroyo
238 Arrêt
204 Arrêté
506 Ars
1907 Arsenal
720 Arsène
13387 Art
10738 Arthur
741 Article
454 Articles
256 Artillerie
553 Artiste
1156 Artistes
337 Artistique
942 Artois
13878 Arts
461 Artémis
459 Arènes
322 Arès
1743 As
334 Ascension
260 Ascq
293 Asgard
398 Asiatiques
13063 Asie
261 Asie-Pacifique
551 Asimov
365 Asnières
189 Asnières-sur-Seine
182 Aspects
267 Assassin
266 Assassins
6089 Assemblée
517 Assemblées
341 Assise
346 Assises
392 Assistance
327 Assistant
15400 Association
516 Associations
685 Associés
486 Assomption
326 Assurance
290 Assurances
252 Assyrie
589 Assyriens
736 Astana
273 Asti
371 Astral
479 Astrid
1507 Asturies
309 Asunción
367 Atatürk
881 Atelier
1068 Ateliers
552 Ath
324 Athlétique
229 Athlétisme
7030 Athènes
909 Athéna
853 Athéniens
359 Athénée
2775 Atlanta
188 Atlantide
7549 Atlantique
2403 Atlas
188 Attaquants
369 Attaque
307 Attention
702 Attila
275 Attique
232 Attitude
230 Attorney
370 Au-delà
329 Aubagne
729 Aube
452 Aubervilliers
486 Aubin
477 Aubrac
262 Auburn
652 Auch
1139 Auckland
749 Aude
201 Audenarde
178 Audin
613 Audio
353 Auditorium
822 Audrey
1622 Augusta
10725 Auguste
4451 Augustin
546 Augustine
740 Augustins
200 Aulnay-sous-Bois
294 Aunis
631 Aurillac
547 Auriol
701 Aurore
435 Aurélie
804 Aurélien
1440 Auschwitz
422 Austerlitz
357 Austral
17368 Australie
587 Australie-Méridionale
724 Australie-Occidentale
389 Australien
1195 Australiens
258 Austrasie
241 Autant
307 Auteur
316 Auteurs
1243 Auto
310 Automne
195 Automnes
638 Automobile
292 Automobiles
319 Autonome
176 Autoportrait
882 Autorité
307 Autoroute
193 Autoroutes
239 Autrement
10635 Autriche
923 Autriche-Hongrie
206 Autrichien
2860 Autrichiens
4185 Auvergne
2280 Auxerre
200 Avalanche
387 Avalon
475 Avars
363 Avatar
516 Ave
662 Avenir
365 Aventure
2073 Aventures
238 Aventuriers
3443 Avenue
789 Aveyron
1432 Aviation
282 Avicenne
5035 Avignon
239 Avion
209 Avions
222 Avis
209 Avocat
176 Avocats
1362 Avril
490 Axe
1196 Axel
237 Aymar
354 Aymé
1382 Azerbaïdjan
689 Aztèques
596 Azur
193 Azéris
1037 Açores
270 Aérienne
343 Aéronautique
611 Aéroport
191 Aéroports
194 Aïcha
220 Aïnous
451 BAC
193 BAR
2681 BD
317 BIOS
198 BIS
416 BMX
547 Baal
1154 Baba
605 Babel
2376 Baby
2669 Babylone
735 Babylonie
381 Babyloniens
1180 Bac
512 Baccalauréat
261 Baccarat
624 Bacchus
4043 Bach
288 Bachelard
196 Bachelier
1187 Bacon
1841 Bade
2367 Bade-Wurtemberg
305 Bagad
262 Bagatelle
2921 Bagdad
433 Bagneux
418 Bagnolet
1232 Bahamas
1103 Bahreïn
386 Bai
2843 Baie
306 Baie-Comeau
346 Baie-James
196 Bailli
657 Bain
620 Bains
290 Baiser
208 Baisers
1311 Bakou
333 Bakounine
907 Bal
481 Balance
346 Baleine
994 Bali
3343 Balkans
402 Ballade
2166 Ballet
662 Ballets
1048 Ballon
244 Baltes
754 Balthazar
4017 Baltimore
3572 Baltique
3594 Balzac
924 Baléares
1370 Bamako
1122 Ban
402 Banach
232 Banana
564 Banco
483 Banda
539 Bandai
1367 Bande
179 Bandits
1740 Bang
303 Bangalore
1343 Bangkok
1701 Bangladesh
317 Bangui
197 Banlieue
409 Banner
206 Banon
9538 Banque
246 Banques
390 Banquet
2384 Baptiste
279 Baptême
3281 Bar
566 Bar-le-Duc
236 Bar-sur-Aube
202 Baraka
1058 Barbade
4232 Barbara
198 Barbare
370 Barbares
172 Barbaresques
409 Barbarie
1561 Barbe
246 Barbeau
534 Barber
255 Barbera
215 Barbet
1156 Barbier
383 Barbu
13550 Barcelone
414 Bard
189 Bardas
575 Bardot
440 Barnabé
432 Barnard
3190 Baron
173 Baronne
186 Baronnie
279 Baronnies
411 Barons
479 Baroque
375 Barra
357 Barrage
383 Barras
1500 Barre
836 Barreau
205 Barres
607 Barrière
345 Barrot
377 Barré
338 Bars
1115 Barthélemy
779 Barthélémy
266 Baruch
1626 Bas
1068 Bas-Canada
381 Bas-Congo
331 Bas-Empire
2778 Bas-Rhin
628 Bas-Saint-Laurent
2054 Base
1816 Basile
1334 Basilique
287 Basin
1429 Basket
202 Basket-ball
667 Basque
781 Basques
1764 Basse
880 Basse-Autriche
334 Basse-Bavière
235 Basse-Bretagne
530 Basse-Californie
290 Basse-Lotharingie
404 Basse-Navarre
3693 Basse-Normandie
1298 Basse-Saxe
400 Basse-Terre
356 Basse-Égypte
216 Basses
384 Basses-Alpes
204 Basses-Carpates
338 Basses-Pyrénées
202 Basset
2253 Bassin
2372 Bastia
561 Bastide
495 Bastien
1909 Bastille
205 Bastion
312 Bastogne
374 Bat
181 Bata
290 Bataclan
6904 Bataille
1781 Bataillon
575 Batavia
307 Bateau
1494 Bath
939 Bathurst
213 Bats
198 Battant
366 Batterie
262 Baud
1506 Baudelaire
321 Baudoin
2622 Baudouin
336 Bauges
798 Baugé
551 Baume
873 Baux
404 Bavarois
10579 Bavière
271 Baye
938 Bayer
435 Bayle
3387 Bayonne
212 Bayou
360 Bazar
422 Baïkal
242 Baïkonour
420 Beagle
1364 Beau
988 Beauce
1591 Beaufort
758 Beaujolais
576 Beaumarchais
1191 Beaune
231 Beaupré
606 Beauté
2948 Beauvais
835 Beauvoir
1429 Beaux
6778 Beaux-Arts
846 Beaux-arts
740 Bec
834 Beckett
2970 Beethoven
675 Beijing
2936 Bel
554 Bel-Air
1449 Belfast
3164 Belfort
2660 Belge
2485 Belges
44157 Belgique
7548 Belgrade
851 Belize
4642 Bell
4477 Belle
206 Belle-Île
197 Belle-Île-en-Mer
853 Belles
277 Belles-Lettres
485 Belvédère
12482 Ben
651 Benelux
1325 Bengale
196 Bengale-Occidental
6365 Benjamin
7298 Benoît
175 Ber
918 Berbères
1290 Bercy
1548 Bergen
2227 Berger
1174 Bergerac
770 Bergson
325 Bergère
2434 Berkeley
27285 Berlin
467 Berlin-Est
655 Berlin-Ouest
954 Berlioz
899 Bermudes
1200 Bernadette
20602 Bernard
242 Bernard-Henri
377 Bernardin
5368 Berne
1283 Bernhard
683 Bernoulli
902 Bernstein
176 Berrichonne
3859 Berry
1136 Berthe
7122 Bertrand
307 Besant
6439 Besançon
201 Bessemer
1374 Besson
588 Bethléem
403 Bette
1596 Betty
339 Beveren
1902 Bey
2772 Beyrouth
258 Bezons
1051 Bhoutan
786 Bianchi
1505 Biarritz
283 Bibi
8191 Bible
314 Bibliographie
8403 Bibliothèque
176 Bic
1956 Bien
218 Bienheureuse
273 Bienheureux
1573 Biennale
1097 Bienne
506 Bienvenue
699 Bigot
521 Bihar
214 Bikini
310 Bilal
313 Bilan
2152 Bilbao
9343 Bill
326 Billard
226 Billon
294 Bills
301 Binche
187 Bio
411 Biographie
302 Biologie
3386 Birmanie
199 Birmans
3043 Birmingham
232 Bis
1093 Bishop
310 Bison
243 Bisons
236 Bit
182 Bitter
247 Bizarre
525 Bizet
620 Bièvre
227 Bièvres
179 Biélorusse
234 Biélorusses
3452 Biélorussie
12322 Black
1384 Blacks
280 Blagnac
408 Blainville
1514 Blair
2064 Blaise
6993 Blanc
251 Blanc-Mesnil
6579 Blanche
779 Blanche-Neige
389 Blanches
447 Blanchet
406 Blanchissages
3203 Blancs
173 Blandine
213 Blason
641 Blazers
218 Bled
2791 Bleu
990 Bleue
318 Bleues
1850 Bleus
381 Blizzard
1865 Bloc
216 Blog
3583 Blois
276 Blond
446 Blonde
624 Blondel
222 Blondie
270 Blondin
587 Blu-ray
4997 Blues
303 Bluff
1369 Blum
208 Blé
319 Boa
8840 Bob
684 Bobigny
643 Bobo
586 Bocage
270 Bock
347 Bode
171 Bodhisattva
849 Body
3805 Boeing
1264 Bogotá
422 Bohr
831 Bohème
3851 Bohême
197 Bohême-Moravie
576 Bohême-du-Sud
609 Boileau
6095 Bois
229 Bois-Colombes
462 Bois-le-Duc
240 Boise
231 Boiteux
335 Bol
194 Bolduc
664 Bolivar
4610 Bolivie
771 Bollywood
5669 Bologne
318 Boltzmann
686 Bolzano
956 Bombardier
1397 Bombay
438 Bomber
4836 Bon
7554 Bonaparte
3554 Bond
191 Bonds
589 Bondy
723 Bonheur
580 Bonhomme
278 Boni
476 Bonjour
518 Bonnard
1604 Bonne
595 Bonne-Espérance
261 Bonnes
1030 Bonnet
179 Bonnets
427 Bons
337 Bonus
238 Boole
874 Boom
238 Boomerang
179 Bop
304 Bora
221 Borda
183 Bordas
260 Borde
17900 Bordeaux
492 Bordeaux-Saint-Jean
171 Bordeaux-Toulouse
490 Bordelais
405 Border
190 Borderie
432 Bordes
654 Borel
784 Borgia
414 Borgne
242 Borinage
4515 Boris
594 Borne
1322 Bornéo
185 Boréal
726 Bosco
298 Bose
2326 Bosniaques
6112 Bosnie
9117 Bosnie-Herzégovine
478 Boson
871 Bosphore
353 Bosquet
1132 Boss
173 Bosse
245 Bossu
478 Bossuet
11891 Boston
217 Bot
364 Botanique
1585 Botswana
453 Botticelli
221 Bouc
219 Boucau
257 Bouche
1609 Boucher
253 Boucherville
201 Bouches
2711 Bouches-du-Rhône
558 Boucle
207 Boucles
506 Bouclier
2600 Bouddha
178 Bouddhas
797 Bouddhisme
262 Boudin
276 Bouffon
201 Bougie
1252 Bouillon
1158 Boulanger
555 Boule
294 Boulet
2220 Boulevard
515 Boulez
3391 Boulogne
1366 Boulogne-Billancourt
1255 Boulogne-sur-Mer
573 Boulonnais
653 Bouquet
309 Bourbaki
5791 Bourbon
377 Bourbon-Condé
258 Bourbon-Parme
1573 Bourbons
230 Bourdais
577 Bourdieu
845 Bourdon
228 Bourdonnais
1747 Bourg
227 Bourg-Saint-Maurice
1055 Bourg-en-Bresse
295 Bourg-la-Reine
1352 Bourgeois
4022 Bourges
16864 Bourgogne
345 Bourgoin-Jallieu
362 Bourguignon
806 Bourguignons
3328 Bourse
350 Bout
180 Bouteille
264 Boutique
283 Bouton
205 Boutonne
337 Bouvet
665 Bouvier
269 Bowling
1298 Box
268 Boxe
176 Boxer
399 Boxers
4648 Boy
256 Boyard
3711 Boys
571 Boîte
175 Bq
3883 Brabant
645 Brabant-Septentrional
436 Brahim
1007 Brahms
173 Braille
253 Bran
278 Branche
2548 Brandebourg
1269 Brandon
557 Braque
625 Bras
187 Brassard
610 Brasserie
375 Brasseur
1369 Bratislava
198 Brava
495 Brave
1684 Braves
1077 Bravo
769 Bray
947 Brazzaville
733 Break
178 Breakfast
813 Brecht
948 Bref
1150 Bresse
8054 Brest
24531 Bretagne
2988 Breton
303 Bretonne
1805 Bretons
491 Brevet
6605 Brian
865 Brice
231 Brick
373 Bride
2733 Bridge
417 Bridges
1102 Brie
238 Brie-Comte-Robert
2868 Brigade
841 Brigades
245 Brigadier
2166 Brigitte
295 Brigue
247 Brillant
1654 Brisbane
2407 Bristol
2458 Britannique
10874 Britanniques
506 Brive-la-Gaillarde
196 Broc
175 Brodeur
1245 Broglie
389 Bron
1066 Bronze
908 Brook
1374 Brooks
325 Brossard
525 Brosse
268 Brou
435 Brousse
8063 Brown
1264 Browning
179 Bru
386 Bruant
327 Bruche
455 Bruckner
265 Bruegel
3854 Bruges
175 Brumaire
180 Brume
1424 Brun
587 Brune
712 Brunei
915 Brunet
294 Bruni
7272 Bruno
289 Brunoy
241 Brut
948 Brutus
25005 Bruxelles
776 Bruxelles-Capitale
181 Bruxelles-Midi
329 Bruxellois
580 Bruyère
472 Bruyères
1857 Bryan
25627 Brésil
944 Brésilien
540 Brésiliens
225 Brétigny-sur-Orge
1822 Brême
230 Brûlé
3625 Bucarest
6213 Budapest
778 Budget
6700 Buenos
214 Buenos-Aires
2772 Buffalo
574 Buffet
936 Buffon
283 Bug
886 Bugs
1853 Building
198 Buis
740 Buisson
215 Bujumbura
299 Bulgare
1560 Bulgares
7668 Bulgarie
2507 Bull
755 Bulle
174 Bulles
2162 Bulletin
1502 Bulls
326 Bunker
264 Bure
7985 Bureau
614 Burger
2429 Burkina
246 Burnside
1247 Burundi
1091 Bus
207 Buse
2443 Bush
2656 Business
264 Bute
204 Butor
481 Buts
700 Butte
569 Buzz
432 Bye
1494 Byron
2007 Byzance
2426 Byzantins
5726 Bâle
297 Bâle-Campagne
296 Bâtard
387 Bâtiment
417 Bâtiments
308 Bâton
262 Bâton-Rouge
298 Bègles
258 Bègue
3490 Béarn
311 Béarn-Pays
201 Béarnais
1968 Béatrice
486 Béatrix
391 Bébé
201 Bédouins
348 Bélier
425 Béni
186 Bénigne
1952 Bénin
233 Bénédicte
174 Bénédictines
499 Bénédictins
670 Bérenger
487 Béring
1699 Béthune
2497 Béziers
1118 Bête
568 Bœuf
261 CAB
368 CAD
1126 CAP
241 CAPES
975 CC
13844 CD
694 CD-ROM
771 CEE
215 CEP
481 CERN
1739 CF
236 CHF
663 CHU
275 CI
3619 CIA
354 CITES
574 CNES
3951 CNRS
1184 CP
1217 CR
426 CRS
1742 CV
226 Cab
690 Cabaret
468 Cabernet
2941 Cabinet
383 Cabot
512 Cabrera
437 Cachan
753 Cachemire
326 Cactus
201 Cade
493 Cadet
538 Cadets
395 Cadre
8071 Caen
2019 Café
1289 Cage
778 Cagliari
208 Cagnes-sur-Mer
307 Cahier
2291 Cahiers
1419 Cahors
185 Caille
181 Caillebotte
192 Caillou
214 Cailloux
5058 Caire
262 Cairns
2660 Caisse
408 Caisses
626 Cal
1867 Calabre
2817 Calais
1306 Calcutta
433 Calderón
275 Cale
366 Calendrier
2116 Calgary
866 Cali
237 Califat
353 Calife
26821 Californie
622 Caligula
284 Callisto
3215 Calvados
560 Calvaire
1955 Calvin
338 Calypso
908 Calédonie
1205 Camargue
3487 Cambodge
3183 Cambrai
277 Cambre
5527 Cambridge
352 Cambrien
363 Came
283 Camelot
447 Camera
5066 Cameroun
200 Camerounais
4832 Camille
3133 Camp
1665 Campagne
1600 Campanie
3178 Campbell
255 Camping
661 Campos
312 Camps
1192 Campus
1958 Camus
241 Caméléon
281 Caméra
295 Cana
62567 Canada
249 Canada-Est
237 Canada-Russie
2371 Canadien
480 Canadienne
5530 Canadiens
182 Canadiens-français
9823 Canal
1305 Canard
1719 Canaries
295 Canaris
1103 Canberra
199 Cancale
757 Cancer
289 Canche
327 Candice
339 Candide
379 Candie
223 Cane
7152 Cannes
204 Cannet
1282 Canon
2076 Cantal
364 Cantique
3390 Canton
418 Cantons
669 Cantor
1397 Canyon
7637 Cap
524 Cap-Breton
309 Cap-Occidental
189 Cap-Oriental
1405 Cap-Vert
1373 Cape
318 Capelle
738 Capet
3015 Capitaine
194 Capitainerie
1875 Capital
845 Capitale
234 Capitale-Nationale
246 Capitan
1792 Capitole
770 Cappadoce
215 Cappella
204 Caprice
299 Capricorne
317 Caps
254 Capucines
827 Capucins
415 Capétiens
1611 Car
1289 Caracas
725 Caravage
212 Caravane
477 Caravelle
745 Caraïbe
4152 Caraïbes
328 Carbone
357 Carbonifère
2478 Carcassonne
229 Cardan
1738 Cardinal
180 Cardinale
766 Carex
561 Cargo
223 Carie
340 Carillon
844 Carla
303 Carloman
8156 Carlos
1061 Carmel
2042 Carmen
1048 Carmes
388 Carmine
367 Carmélites
194 Carnage
1459 Carnaval
250 Carnet
436 Carnets
1685 Carnot
344 Carné
1055 Carole
10051 Caroline
295 Carolines
595 Carolingiens
1140 Caron
377 Carouge
1022 Carpates
1289 Carpentras
558 Carrare
1467 Carrefour
535 Carrera
173 Carrick
770 Carrier
767 Carrière
234 Carrières
1218 Carroll
410 Carrousel
1481 Carré
200 Carrée
904 Cars
270 Carta
1214 Carte
760 Cartel
4064 Carter
268 Cartes
3297 Carthage
841 Carthaginois
1616 Cartier
311 Carton
732 Cartoon
390 Cartulaire
591 Carême
2001 Casa
3925 Casablanca
897 Casamance
860 Casanova
564 Casas
312 Casbah
320 Cascade
877 Cascades
1065 Case
195 Caserne
997 Cash
1558 Casimir
2033 Casino
981 Caspienne
319 Casque
443 Cassandra
609 Cassandre
280 Cassation
208 Casse
186 Cassiopée
316 Cassis
1522 Castel
237 Castillans
4631 Castille
1100 Castille-La
793 Castor
383 Castors
1491 Castres
424 Catalan
762 Catalans
6319 Catalogne
1011 Catalogue
296 Catch
208 Cathares
12337 Catherine
1450 Catholique
635 Catholiques
482 Cathy
2477 Cathédrale
213 Catéchisme
636 Catégorie
3272 Caucase
188 Cauchemar
714 Cauchy
373 Causse
405 Causses
173 Cava
821 Cavaillon
690 Cavalerie
794 Cavalier
869 Cavaliers
1311 Cave
585 Caveau
1009 Cayenne
193 Cayley
316 Caïd
338 Caïmans
332 Caïn
413 Ceci
742 Ceinture
221 Cellier
192 Cellule
730 Celsius
1525 Celtes
255 Celtique
226 Cendres
872 Cendrillon
4255 Cent
1199 Cent-Jours
353 Centaure
346 Centenaire
7839 Center
330 Centrafrique
6348 Central
3675 Centrale
34267 Centre
181 Centre-Est
330 Centre-Ouest
274 Centre-du-Québec
744 Centres
199 Cents
316 Centurion
598 Cependant
238 Cerbère
5205 Cercle
210 Cercles
690 Cerf
412 Cergy
466 Cergy-Pontoise
490 Certificat
207 Certification
179 Cervantès
187 Cerveau
1550 Cet
4473 Cette
856 Ceylan
619 Cf
616 Chablais
822 Chabot
754 Chabrol
196 Chacun
603 Chah
740 Chaillot
441 Chair
440 Chaire
246 Chaise
262 Chaise-Dieu
221 Chalet
210 Chaleur
345 Chaleurs
3074 Challenge
923 Challenger
955 Chalon-sur-Saône
204 Chambellan
501 Chambly
761 Chambord
20184 Chambre
952 Chambres
3005 Chambéry
239 Chamois
1320 Chamonix
207 Chamonix-Mont-Blanc
2010 Champ
430 Champ-de-Mars
5542 Champagne
3471 Champagne-Ardenne
186 Champigny-sur-Marne
4892 Champion
19550 Championnat
13710 Championnats
345 Championne
4610 Champions
314 Champollion
1434 Champs
865 Chance
1055 Chancelier
867 Chancellerie
795 Chanel
794 Change
211 Changement
276 Chanoine
1773 Chanson
659 Chansons
1562 Chant
1184 Chantal
202 Chante
267 Chanteur
302 Chanteurs
220 Chantier
691 Chantiers
1473 Chantilly
552 Chants
1593 Chaos
416 Chapeau
219 Chapelier
4027 Chapelle
263 Chaperon
1579 Chapitre
225 Chapitres
712 Char
761 Charbonnages
228 Chardon
319 Chardonnay
5740 Charente
316 Charente-Inférieure
4317 Charente-Maritime
411 Charentes
174 Charenton-le-Pont
177 Chariot
1473 Charité
183 Charité-sur-Loire
182 Charivari
4422 Charlemagne
3070 Charleroi
71185 Charles
501 Charles-Albert
442 Charles-Emmanuel
358 Charles-François
200 Charles-Henri
186 Charles-Joseph
381 Charles-Louis
274 Charles-Quint
438 Charles-de-Gaulle
1004 Charleston
478 Charleville
686 Charleville-Mézières
474 Charlevoix
5015 Charlie
542 Charlot
5963 Charlotte
498 Charlottetown
539 Charly
368 Charmes
411 Charolais
377 Charon
373 Charonne
912 Charpentier
297 Charron
183 Charrues
3511 Charte
201 Charter
229 Chartes
3820 Chartres
1347 Chartreuse
667 Chartreux
985 Chasse
453 Chasseur
1122 Chasseurs
1607 Chat
844 Chateaubriand
264 Chatou
263 Chats
235 Chaudière
410 Chaudière-Appalaches
273 Chaudron
232 Chaume
270 Chaumière
1314 Chaumont
247 Chausson
580 Chaussée
983 Chaussées
1256 Chauve
368 Chauvin
386 Chaux
705 Chaux-de-Fonds
1012 Chaîne
3462 Chef
353 Chefs
1430 Cheikh
4677 Chelem
515 Chelles
3278 Chemin
2124 Chemins
402 Chengdu
338 Chennai
2784 Cher
184 Cherbourg-Octeville
858 Cherry
248 Chesnay
1359 Chester
1226 Cheval
6173 Chevalier
2269 Chevaliers
222 Chevaux
224 Chevrier
246 Chevron
1055 Chez
230 Chic
20113 Chicago
797 Chien
330 Chiens
181 Chiffre
222 Chiffres
448 Chihuahua
426 Childebert
296 Childéric
9983 Chili
190 Chiliens
457 Chilpéric
460 Chimay
585 Chimie
208 Chimère
1823 China
43997 Chine
4622 Chinois
391 Chinoise
218 Chinook
3859 Chirac
226 Chirurgie
792 Chloé
518 Choc
235 Chocolat
278 Choir
251 Choisy-le-Roi
319 Choix
1361 Cholet
1692 Chopin
214 Chorale
265 Chorus
266 Chose
186 Choses
208 Chou
275 Chouannerie
1402 Chouans
193 Chouette
14032 Christ
14612 Christian
1005 Christiane
171 Christiania
628 Christianisme
1485 Christie
3761 Christine
7787 Christophe
3950 Christopher
438 Chrome
2356 Chronique
1611 Chroniques
277 Chrono
592 Chronologie
1412 Chrétien
382 Chrétienne
998 Chrétiens
260 Chrétienté
630 Chu
2780 Churchill
778 Chute
199 Chutes
4423 Chypre
190 Chypriotes
692 Châlons-en-Champagne
187 Châtaigneraie
8761 Château
184 Château-Salins
582 Château-Thierry
250 Châteauguay
1861 Châteauroux
250 Châteauroux-Centre
366 Châteaux
1918 Châtelet
662 Châtellerault
230 Châtenay-Malabry
1531 Châtillon
226 Châtillon-sur-Seine
649 Châtre
180 Chèvre
291 Chérie
257 Chérif
752 Chêne
705 Chœur
263 Chœurs
1649 Cicéron
591 Cid
1932 Cie
2094 Ciel
231 Cieux
352 Cigale
202 Cigogne
1031 Cilicie
1057 Cimetière
3036 Cincinnati
541 Cindy
211 Ciney
2507 Cinq
697 Cinq-Cents
1900 Cinquième
513 Ciné
2272 Cinéma
592 Cinémathèque
400 Ciotat
189 Circonscription
1483 Circuit
241 Circuits
285 Circé
1527 Cirque
934 Cisjordanie
195 Cisterciens
838 Citadelle
184 Citation
350 Citoyen
233 Citoyens
239 Citrus
19490 City
7177 Cité
362 Cités
1294 Civil
673 Civile
362 Civilisation
1166 Clair
3945 Claire
387 Clamart
1560 Clan
2284 Clara
259 Clarisse
231 Clarisses
200 Clarté
777 Clash
1545 Classe
502 Classement
265 Classes
415 Classification
1189 Classique
367 Classiques
23006 Claude
785 Claudel
216 Claudette
832 Claudine
377 Clavier
255 Clef
1633 Clemenceau
1040 Clerc
240 Clergé
3881 Clermont-Ferrand
4620 Cleveland
1102 Clichy
197 Client
919 Clifford
205 Climat
410 Clinique
495 Clippers
838 Clive
334 Cloche
170 Clochette
1033 Clos
484 Close
699 Clotaire
656 Clotilde
304 Cloutier
1997 Clovis
419 Clown
32715 Club
669 Clubs
180 Cluse
219 Cluses
299 Clé
657 Clémence
6922 Clément
595 Clémentine
1077 Cléopâtre
277 Clôture
273 Coach
1589 Coalition
906 Cobra
205 Coca
187 Cocagne
319 Coccinelle
607 Cochinchine
192 Cochon
265 Cochons
300 Cocker
192 Cocktail
749 Coco
193 Cocos
1244 Cocteau
7561 Code
1425 Codex
1784 Cognac
2558 Cohen
328 Coin
329 Coire
275 Coke
1130 Col
2268 Colbert
216 Colchide
1449 Colette
386 Colibri
2881 Colin
614 Colisée
237 Coll
275 Collaboration
604 Colle
830 Collectif
2499 Collection
263 Collections
197 Collective
225 Collectivités
438 Collet
423 Collier
724 Colline
346 Collines
253 Colloque
10674 Collège
475 Collégiale
2545 Colmar
5928 Cologne
1713 Colomb
528 Colombe
919 Colombes
11254 Colombie
3858 Colombie-Britannique
222 Colombien
647 Colombier
828 Colombo
319 Colomiers
240 Colon
2139 Colonel
387 Colonial
271 Coloniale
666 Colonie
906 Colonies
648 Colonne
217 Colonnes
5709 Colorado
677 Colt
423 Colts
225 Colère
2067 Combat
319 Combattants
683 Combe
526 Combes
4487 Comics
196 Comique
20035 Comité
689 Comités
1865 Commandant
176 Commande
1087 Commandement
264 Commandements
540 Commander
430 Commanderie
1251 Commandeur
557 Commando
298 Commandos
982 Comment
389 Commentaire
434 Commentaires
4115 Commerce
580 Commercial
195 Commerciale
1339 Commissaire
208 Commissaires
998 Commissariat
19362 Commission
330 Commissions
279 Commode
1066 Commodore
3678 Commonwealth
256 Commun
180 Communal
171 Communautaire
14848 Communauté
893 Communautés
4418 Commune
2214 Communes
2281 Communication
1973 Communications
478 Communion
973 Communiste
250 Communistes
1356 Comores
318 Compact
22246 Compagnie
529 Compagnies
565 Compagnon
865 Compagnons
2517 Compiègne
576 Complexe
344 Composition
797 Compostelle
684 Comptes
261 Comptoir
1229 Computer
4778 Comte
532 Comtes
860 Comtesse
214 Comtois
6246 Comté
189 Comète
2498 Comédie
1508 Comédie-Française
347 Con
407 Conakry
1913 Conan
515 Concarneau
485 Concept
992 Conception
1366 Concert
1567 Concerto
548 Concerts
265 Conciergerie
1723 Concile
673 Concordat
1446 Concorde
4160 Concours
281 Condition
347 Condom
805 Condor
974 Condorcet
196 Condroz
3172 Condé
353 Confesseur
360 Confession
549 Confessions
243 Conflans-Sainte-Honorine
175 Confort
1116 Confrérie
455 Confucius
6979 Confédération
275 Confédérations
931 Confédérés
5504 Conférence
354 Conférences
10032 Congo
334 Congo-Brazzaville
519 Congo-Kinshasa
306 Congolais
16203 Congrès
3058 Congrégation
395 Connaissance
3352 Connecticut
254 Connétable
268 Conques
1593 Conquérant
697 Conquête
3463 Conrad
333 Conscience
58635 Conseil
1873 Conseiller
348 Conseillers
1062 Conseils
364 Conservateur
816 Conservation
8459 Conservatoire
392 Consistoire
189 Consolation
184 Console
239 Consommation
529 Consortium
176 Constable
3388 Constance
1789 Constant
6699 Constantin
2164 Constantine
10119 Constantinople
491 Constellation
723 Constituante
13090 Constitution
414 Constitutionnel
340 Constitutions
1225 Construction
261 Constructions
1087 Consul
1243 Consulat
276 Consumer
456 Contact
1024 Conte
621 Contemporain
223 Content
1833 Contes
453 Continent
1237 Continental
234 Continentale
180 Continentaux
182 Continuation
209 Contra
583 Contrat
499 Contre-Réforme
315 Contreras
230 Contribution
577 Contrôle
204 Contrôleur
214 Conté
10176 Convention
267 Conventions
186 Conversation
3564 Cook
745 Cool
944 Coopération
458 Coopérative
749 Coordination
184 Copeau
4178 Copenhague
802 Copernic
750 Coq
202 Coquille
388 Cor
528 Corail
186 Coralie
3257 Coran
515 Corbeau
705 Corbeil-Essonnes
350 Corbin
559 Corbières
210 Corda
915 Cordeliers
246 Cordes
630 Cordier
832 Cordillère
213 Cordon
2058 Cordoue
328 Corentin
688 Corinne
1173 Corinthe
298 Corinthiens
389 Coriolis
358 Cormier
239 Cormoran
686 Corne
1604 Corneille
806 Corner
361 Cornet
230 Corniche
215 Cornillon
386 Cornu
6633 Corporation
7698 Corps
725 Corpus
428 Correspondance
241 Corridor
2319 Corrèze
224 Corsaire
8561 Corse
524 Corse-du-Sud
406 Corses
305 Cortex
782 Cortés
287 Coruscant
255 Corvette
14328 Corée
189 Coréen
609 Coréens
784 Cosaques
689 Cosmos
203 Cossé
5803 Costa
221 Costières
311 Cote
401 Coteaux
1120 Cotentin
312 Cotonou
207 Cottage
239 Cotte
742 Cotton
402 Coty
525 Coubertin
341 Coucou
422 Couleur
264 Couleurs
280 Coulomb
422 Coulommiers
2443 Country
1599 Coup
59920 Coupe
2134 Coupes
186 Couple
194 Coupole
642 Coups
633 Coupé
21785 Cour
472 Courage
698 Courant
837 Courbet
596 Courbevoie
532 Courneuve
4530 Couronne
320 Couronnement
222 Couronnes
1267 Courrier
410 Courrières
2003 Cours
1360 Course
209 Courson
2023 Court
690 Courtois
1043 Courtrai
958 Cousin
178 Couteaux
1039 Couture
263 Couturier
538 Couvent
330 Coyote
440 Coyotes
309 Crabe
3106 Cracovie
454 Cramer
534 Crane
326 Crapaud
767 Crash
223 Cratère
272 Credo
1284 Creil
207 Cresson
2518 Creuse
631 Creusot
178 Creux
473 Cri
1232 Cricket
850 Crime
231 Crimes
3638 Crimée
598 Cris
696 Crise
1088 Cristal
930 Critique
844 Critérium
372 Croate
2636 Croates
7588 Croatie
225 Croc
232 Crochet
349 Crocodile
655 Croisade
533 Croisades
178 Croisette
266 Croisière
346 Croissant
636 Croisés
11375 Croix
2023 Croix-Rouge
537 Croix-Rousse
1185 Cromwell
2517 Cross
205 Cru
547 Crucifixion
309 Cruel
171 Crusoé
226 Cruzeiro
2792 Crète
483 Créateur
1679 Création
2942 Crédit
902 Crémone
189 Créole
356 Crépuscule
1911 Crétacé
1540 Créteil
268 Crétois
306 Crête
7406 Cuba
287 Cubain
274 Cubains
780 Cube
393 Cuisine
223 Culte
244 Cultes
490 Cultural
7917 Culture
655 Culturel
291 Culturelle
321 Cultures
246 Cuneo
208 Cupidon
418 Curaçao
1012 Cure
2010 Curie
362 Curry
494 Curé
603 Cuvier
551 Cuzco
353 Cybèle
611 Cyclades
1275 Cycle
202 Cyclisme
180 Cycliste
351 Cyclone
358 Cyclope
459 Cygne
174 Cygnes
607 Cynthia
466 Cyprien
1444 Cyril
1177 Cyrille
185 Cèdres
613 Cène
1804 Cécile
255 Cécilia
1147 Cédric
636 Cégep
587 Céleste
199 Célestes
900 Célestin
179 Célestine
366 Célestins
2157 Céline
186 Céramique
731 Cérès
199 Cérémonie
10339 César
518 Césars
1403 Cévennes
903 Cézanne
1121 Côme
12122 Côte
455 Côte-Nord
175 Côte-d
702 Côtes
657 Côtes-du-Nord
264 Côtière
757 Côté
2975 Cœur
301 Cœurs
389 DO
1966 DOC
442 DOM
909 DOS
268 DR
195 DRS
425 DUT
12376 DVD
1826 Da
608 Dada
676 Dagobert
378 Dahl
198 Dahlia
479 Dahomey
3523 Dakar
2393 Dakota
190 Dalla
3900 Dallas
171 Dalle
1215 Dalmatie
1242 Dalton
911 Dalí
863 Dam
3507 Damas
5163 Dame
1673 Dames
1598 Damien
5058 Dan
683 Dancing
178 Dandy
13080 Danemark
491 Danger
16793 Daniel
1185 Danielle
559 Danièle
1752 Danois
1570 Danse
186 Danses
2001 Dante
817 Danton
4355 Danube
890 Dany
342 Daphné
298 Dard
570 Dardanelles
513 Darfour
308 Darjeeling
2719 Darwin
1098 Data
808 Date
646 Daudet
1990 Dauphin
793 Dauphine
269 Dauphins
2856 Dauphiné
34604 David
873 Davy
1539 Dax
752 Deal
828 Deauville
401 Debout
1243 Debussy
195 Decauville
273 Dedekind
189 Defoe
432 Degas
977 Dei
171 Deinze
1165 Delacroix
808 Delaunay
1348 Delaware
1984 Delhi
835 Delphes
795 Delphine
2853 Delta
333 Delvaux
494 Demain
376 Demi
234 Demoiselle
292 Demoiselles
489 Denain
7166 Denis
1480 Denise
2260 Dennis
601 Dent
382 Dents
2506 Denver
2659 Der
2351 Derby
1492 Dernier
331 Derniers
1036 Dernière
279 Dernières
514 Derrick
189 Desargues
2572 Descartes
245 Descente
232 Deschanel
606 Description
2342 Design
276 Dessin
266 Dessins
623 Destin
441 Destination
417 Destinée
225 Destroyer
173 Destroyers
449 Destruction
2198 Detroit
341 Deutéronome
227 Deux-Montagnes
418 Deux-Ponts
180 Deux-Roses
1913 Deux-Sèvres
4980 Deuxième
277 Devin
761 Devoir
1076 Devon
389 Dey
368 Dhabi
534 Dharma
447 Dia
2015 Diable
913 Diables
227 Diacre
597 Dialogue
300 Dialogues
796 Diamant
2727 Diane
209 Diapason
285 Diaspora
1790 Dickens
3452 Dictionnaire
1831 Diderot
5469 Didier
256 Didot
2178 Dieppe
1414 Diesel
228 Diest
29830 Dieu
1153 Dieux
565 Diffusion
232 Digest
1981 Digital
960 Digne
299 Digne-les-Bains
6532 Dijon
1809 Dimanche
496 Dimension
1509 Dimitri
746 Dinant
300 Ding
692 Dingo
1117 Dioclétien
555 Diocèse
183 Diois
1038 Dionysos
767 Diplôme
425 Dirac
329 Dire
1099 Direct
4915 Directeur
196 Directeurs
4580 Direction
284 Directions
964 Directive
2299 Directoire
309 Directrice
419 Dirichlet
189 Dis
578 Disco
983 Discours
17313 Disney
835 Disque
199 Disque-monde
442 Disques
273 Distance
927 Distribution
4236 District
203 Div
397 Diva
241 Divan
464 Divas
376 Divers
309 Divin
1016 Divine
18854 Division
177 Divisions
1470 Dix
1754 Diète
219 Djamel
554 Djebel
521 Djerba
1222 Djibouti
336 Dnipropetrovsk
2740 Do
1087 Doc
293 Dock
231 Docks
7144 Docteur
587 Doctorat
447 Doctrine
283 Document
417 Documentation
356 Documents
228 Dodo
208 Doge
172 Doges
1011 Doha
907 Dol
190 Dol-de-Bretagne
323 Dolce
1280 Dole
464 Dollar
294 Dolomites
2335 Dom
1707 Domaine
338 Domaines
630 Dombes
189 Domine
178 Dominicaine
727 Dominicains
723 Dominion
9233 Dominique
564 Domino
9982 Don
686 Donetsk
506 Donjon
866 Donjons
1139 Donna
318 Donner
650 Doppler
791 Dora
4640 Dordogne
325 Dore
369 Dorian
627 Doris
181 Dormition
1229 Dorothée
1169 Dortmund
709 Doré
340 Dorée
708 Dos
278 Dossier
207 Dossiers
549 Dostoïevski
173 Dot
2853 Douai
734 Douala
240 Douanes
2224 Double
437 Doubles
3496 Doubs
324 Douce
448 Doucet
175 Douleurs
599 Douma
194 Doumer
250 Doumergue
364 Douro
285 Doux
1248 Douze
470 Doyen
1363 Doyle
7041 Dr
1235 Dracula
4220 Dragon
2912 Dragons
748 Draguignan
214 Drakkar
350 Dramatique
850 Drancy
936 Drapeau
323 Draper
192 Drave
227 Dre
214 Dreadnought
3605 Dresde
1504 Dreux
1152 Drive
407 Driver
3576 Droit
695 Droite
2017 Droits
407 Drop
481 Drummondville
184 Druzes
340 Dry
336 Drôle
3019 Drôme
1683 Dubaï
5391 Dublin
3764 Duc
270 Ducasse
267 Duce
724 Duchesse
1729 Duché
601 Ducs
281 Due
432 Duel
192 Dulac
2733 Dumas
1125 Dundee
889 Dune
226 Dunedin
294 Dunes
3865 Dunkerque
594 Duo
667 Duplessis
243 Durable
1598 Durance
1075 Duras
193 Durbuy
554 Durkheim
206 Durée
492 Dyck
246 Dyke
2350 Dylan
170 Dynamique
324 Dynamite
1630 Dynamo
608 Dynastie
201 Dynasties
254 Dé
225 Débarquement
176 Débat
196 Débats
958 Décembre
214 Décennie
2374 Déclaration
352 Décoratifs
616 Découverte
208 Découvertes
631 Décret
242 Dédale
393 Déesse
574 Défaites
8811 Défense
287 Défenseur
379 Défenseurs
535 Défi
259 Définition
467 Délos
419 Déluge
730 Délégation
313 Délégué
410 Démocrate
763 Démocrates
1331 Démocratie
642 Démocratique
284 Démocrite
452 Démon
345 Démons
341 Démosthène
354 Déméter
5840 Département
211 Départemental
381 Départementale
381 Départementales
223 Départements
280 Déportation
1063 Dépression
201 Députation
445 Député
318 Députés
455 Dépêche
289 Dépôt
802 Désert
700 Désir
702 Désiré
269 Désirée
199 Détail
270 Détective
5011 Détroit
3176 Développement
171 Dévoluy
402 Dévonien
792 Dôme
2022 Düsseldorf
607 EA
943 EC
193 EF
230 EL
588 ES
365 ESA
209 EUR
338 EV
172 EX
869 Eau
266 Eaubonne
1135 Eaux
1561 Eddy
805 Edison
3302 Edmond
958 Edmonton
229 Edwige
268 Ego
1939 Eiffel
1536 Einstein
292 Eisenstein
17069 El
202 Elbeuf
362 Eldorado
1236 Elfes
5015 Elle
899 Elsa
341 Em
305 Embrun
2527 Emma
4767 Emmanuel
866 Emmanuelle
2250 Empereur
193 Empereurs
15742 Empire
494 Empires
402 Emploi
1314 Encyclopédie
384 Endurance
245 Enfance
636 Enfant
2068 Enfants
644 Enfer
983 Enfers
530 Enfin
327 Enfoirés
286 Enquête
253 Enquêtes
646 Enseignement
1486 Ensemble
602 Entente
171 Enter
817 Entraîneur
956 Entreprise
754 Entreprises
199 Entretien
279 Entretiens
275 Entrée
1306 Environnement
778 Enzo
185 Epsilon
690 Epstein
686 Erevan
553 Erfurt
197 Ermitage
222 Ermont
5700 Ernest
208 Erwan
302 Es
274 Escadre
398 Escadron
173 Escalier
484 Escape
325 Escaut
200 Escher
219 Eschyle
174 Esclaves
366 Escobar
1523 Espace
269 Espaces
31928 Espagne
737 Espagnol
399 Espagnole
6180 Espagnols
175 Esplanade
507 Espoir
511 Espoirs
1666 Esprit
345 Esprits
543 Espérance
1087 Essai
682 Essais
337 Essarts
1534 Essonne
441 Est-Ouest
189 Estampes
511 Este
572 Esteban
635 Estelle
1072 Esther
173 Esthétique
1781 Estonie
247 Estoniens
286 Estrie
586 Ethan
563 Ethernet
272 Eucalyptus
277 Euclide
8149 Eugène
1257 Eugénie
184 Eulalie
495 Euler
261 Eupen
288 Euphrate
381 Eurasie
785 Eure
527 Eure-et-Loir
259 Euripide
1621 Euro
58901 Europe
2152 Européen
2572 Européenne
335 Européennes
4241 Européens
248 Euros
2165 Eurovision
303 Eurydice
838 Eustache
257 Everest
180 Evrard
662 Ex
654 Excellence
198 Exercices
313 Exhibition
191 Exile
293 Exode
178 Expansion
295 Expert
461 Experts
298 Exploration
1006 Explorer
210 Explosion
682 Expo
185 Export
1123 Expos
1817 Exposition
373 Expositions
3758 Express
230 Expression
232 Expédition
179 Expérience
249 Extension
291 Extra
206 Extrême
1088 Extrême-Orient
378 Exécutif
1145 FA
1106 FAR
2737 FBI
184 FI
1521 FIA
312 FIAT
498 FIS
1178 FMI
381 FOX
425 FR
188 FRAC
275 FRANCE
496 FRF
785 FTP
179 FUS
444 Fa
173 Fabacées
1412 Fabien
461 Fabienne
602 Fables
1651 Fabrice
630 Fabrique
1966 Face
369 Faces
206 Facteur
5561 Faculté
358 Facultés
233 Fahrenheit
171 Faille
197 Faits
1039 Falaise
216 Falkland
176 Fallières
385 Falun
3118 Famille
339 Familles
671 Fan
235 Fanfare
1849 Fanny
249 Fantaisie
572 Fantasia
213 Fantastique
425 Fantastiques
2956 Fantasy
836 Fantôme
294 Fantômes
950 Far
432 Faraday
336 Farid
616 Farina
303 Faro
379 Fars
2376 Faso
661 Fat
425 Fatal
185 Fatale
464 Fatima
259 Fats
614 Faubourg
217 Faubourg-Saint-Honoré
241 Faucher
747 Faucon
337 Faune
1668 Faure
191 Fauve
433 Faux
235 Favorite
703 Fayard
1628 Fayette
1249 Federer
2197 Femme
2068 Femmes
277 Fenton
177 Fenêtre
2069 Fer
8550 Ferdinand
865 Fermat
1106 Ferme
457 Fermi
3703 Fernand
189 Fernande
889 Ferrer
253 Ferret
2128 Ferry
1093 Ferré
248 Festin
21535 Festival
361 Festivals
2292 Feu
493 Feuille
208 Feuilles
211 Feuillée
474 Feux
623 Feydeau
259 Feynman
299 Fi
172 Fiacre
240 Fiancée
6978 Fiat
372 Fibonacci
2087 Fichier
1215 Fiction
235 Ficus
1839 Fidji
211 Fidèle
263 Fier
343 Fiesta
200 Fig
3758 Figaro
355 Figure
227 Figures
271 Fil
1559 File
1441 Fille
1242 Filles
5722 Film
2074 Films
3091 Fils
3254 Final
1567 Finale
471 Finales
730 Finance
5017 Finances
286 Financière
1239 Fine
173 Fini
3709 Finistère
1119 Finlandais
12433 Finlande
622 Firefox
601 Firmin
2244 Fischer
198 Fièvre
239 Fjord
598 Flair
293 Flamand
855 Flamands
349 Flamme
7282 Flandre
640 Flandre-Occidentale
523 Flandre-Orientale
2743 Flandres
188 Flandrin
1898 Flash
839 Flaubert
198 Flavien
869 Fleur
789 Fleurs
533 Fleurus
946 Fleuve
535 Flint
291 Flood
1016 Flora
926 Flore
11402 Florence
1980 Florent
276 Florentin
329 Florentins
738 Flores
992 Florian
11006 Floride
229 Florès
1098 Flotte
455 Fluide
1814 Flèche
364 Fléau
424 Flûte
412 Focus
944 Foi
1188 Foire
1687 Foix
693 Folie
429 Folies
403 Folio
890 Folk
227 Folklore
380 Folle
684 Fonction
725 Fonctions
448 Fond
399 Fonda
222 Fondateur
9782 Fondation
202 Fonderie
3175 Fonds
650 Font
5196 Fontaine
2703 Fontainebleau
495 Fontaines
180 Fonte
292 Fontenay-aux-Roses
208 Fontenay-sous-Bois
1577 Foot
10958 Football
2764 For
532 Forbach
11272 Force
5863 Forces
781 Forestier
1270 Forez
585 Forge
979 Forges
341 Format
1708 Formation
307 Formose
751 Formula
10888 Formule
10234 Fort
664 Fort-de-France
269 Fortaleza
335 Forte
448 Forteresse
502 Fortin
1171 Fortune
205 Fortuné
3954 Forum
2308 Forêt
517 Forêt-Noire
901 Forêts
817 Fosse
271 Fosses
254 Fossé
872 Fou
1486 Foucault
602 Fouché
209 Foudre
1152 Fougères
177 Foulon
452 Foulque
608 Foulques
2835 Four
1458 Fourier
320 Fournaise
260 Fourneau
1884 Fournier
244 Fous
5101 Fox
783 Foyer
431 Fr
261 Fraction
230 Fragments
710 Franc
266 Franc-maçonnerie
374393 France
255 France-Presse
259 France-Soir
4499 Francfort
1383 Francfort-sur-le-Main
181 Franche
5082 Franche-Comté
207 Francilienne
606 Francine
10322 Francis
517 Franciscains
14053 Francisco
288 Francisque
3721 Franck
3686 Franco
436 Francophone
877 Francophonie
4894 Francs
176 Francs-tireurs
10895 Frank
737 Frankenstein
3876 Franklin
30410 Français
6537 Française
1007 Françaises
45822 François
207 François-Ferdinand
1233 François-Joseph
252 François-Marie
190 François-Mitterrand
186 François-René
697 François-Xavier
5702 Françoise
1232 Fraternité
1070 Freddy
877 Fredericton
259 Freezer
411 Fresnel
660 Fresnes
254 Fret
3479 Freud
3671 Fribourg
830 Friedman
178 Friedmann
6748 Friedrich
1665 Frise
187 Frison
295 Frisons
2533 Fritz
190 Frobenius
216 Froment
823 Fronde
10772 Front
171 Frontignan
426 Frontière
507 Frontières
470 Fruit
197 Fruits
1438 Frère
4350 Frères
14620 Frédéric
187 Frédéric-Auguste
944 Frédéric-Guillaume
531 Frédérique
1028 Fréjus
292 Fréquence
474 Fuchs
232 Fugue
174 Fuite
727 Fukuoka
843 Full
718 Funk
183 Funky
246 Fur
295 Furet
207 Fureur
262 Fusiliers
506 Fusion
228 Futsal
248 Futuna
504 Futur
1037 Future
205 Futures
742 Fécamp
492 Fédéral
1216 Fédérale
25826 Fédération
180 Fédérations
396 Fée
324 Fées
270 Félibrige
506 Félicité
6296 Félix
328 Féminin
277 Féminine
456 Fénelon
1162 Février
2531 Fête
227 Fête-Dieu
855 Fêtes
962 Führer
170 GA
180 GAZ
460 GC
533 GHz
386 GL
416 GMT
469 GNOME
312 GO
1480 GPS
482 GS
688 GSM
2293 GT
235 GW
2539 Gabon
9237 Gabriel
1856 Gabrielle
347 Gadget
1396 Gaga
311 Gage
210 Gagné
255 Gai
1205 Gaillard
357 Gaines
320 Gal
988 Gala
345 Galactique
787 Galaxie
261 Galba
566 Gale
4954 Galerie
633 Galeries
2398 Galice
1126 Galicie
2215 Galilée
271 Galle
8685 Galles
2620 Gallimard
736 Gallo
1407 Gallois
226 Gallup
836 Galois
313 Galère
201 Gamba
936 Gambie
243 Gambier
874 Gamma
552 Gan
4545 Gand
190 Gand-Wevelgem
1336 Gandhi
1047 Gang
534 Gange
333 Gant
333 Ganymède
1889 Gap
368 Garage
3789 Gard
302 Garda
7155 Garde
881 Gardes
623 Gardien
580 Gardiens
324 Gardon
3904 Gare
444 Garenne
189 Garenne-Colombes
327 Gargantua
2850 Garonne
188 Garou
306 Garrigues
314 Garçon
392 Garçons
2441 Gascogne
203 Gascon
1676 Gaspard
858 Gaspésie
6067 Gaston
1257 Gate
948 Gates
811 Gatineau
3179 Gauche
369 Gaucher
615 Gauguin
5094 Gaule
1731 Gaules
7239 Gaulle
2104 Gaulois
217 Gaume
1086 Gauss
1420 Gauthier
1984 Gautier
380 Gauvain
1576 Gay
618 Gaz
2388 Gaza
265 Gazelle
1760 Gazette
224 Gaétan
695 Gaël
399 Gaëtan
232 Gaîté
627 Gaïa
188 Gdansk
214 Gecko
178 Gel
421 Gembloux
250 Gemma
195 Gendarme
1514 Gendarmerie
383 Genet
2103 Geneviève
521 Genevois
498 Genk
497 Gennevilliers
675 Gens
208 Gent
312 Gentil
227 Gentleman
1321 Genèse
17226 Genève
1182 Geoffrey
2691 Geoffroy
28426 George
26984 Georges
363 Georges-Pompidou
597 Georgetown
405 Georgette
307 Gerber
178 Gergovie
2605 Germain
1392 Germaine
907 Germains
1573 Germanie
429 Germanique
465 Germinal
2182 Gers
856 Gertrude
2730 Gestapo
202 Geste
1212 Gestion
3078 Ghana
420 Ghetto
371 Ghislain
197 Ghislaine
377 Giacometti
220 Gibbon
363 Gibbons
639 Gibbs
224 Gibelins
2023 Gibraltar
898 Gide
183 Gif-sur-Yvette
6532 Gilbert
257 Gilberte
448 Gildas
365 Gilgamesh
353 Gille
7392 Gilles
234 Gin
455 Ginette
180 Gio
532 Giono
448 Giotto
3149 Girl
2031 Girls
4901 Gironde
2597 Girondins
1531 Giscard
632 Gisèle
183 Gitans
381 Gizeh
481 Glace
274 Glaces
492 Glacier
173 Glamour
342 Glaris
3677 Glasgow
1183 Glass
2300 Global
2011 Globe
416 Globes
743 Gloire
1555 Gloria
321 Glorieuse
666 Glorieuses
171 Glorieux
312 Gnome
3043 Go
614 Gobelins
241 Gobi
415 Godefroid
1660 Goethe
1170 Gogh
412 Golan
4838 Golden
177 Golem
1536 Golf
3790 Golfe
236 Golgi
212 Golgotha
497 Goliath
1397 Goncourt
348 Gonesse
884 Gong
726 Gorbatchev
190 Gordien
4626 Gordon
793 Gore
366 Gorge
591 Gorges
170 Gorgone
569 Gorki
389 Gospel
199 Gothique
1165 Goths
182 Gouda
194 Gouffre
193 Gouges
243 Goujon
485 Goulag
355 Goulet
274 Goupil
230 Goutte
7071 Gouvernement
378 Gouvernements
2687 Gouverneur
1053 Goya
196 Goût
834 Graal
174 Gracia
402 Gracie
260 Grade
174 Graff
235 Graffiti
201 Grain
554 Gram
297 Grammaire
648 Grammont
493 Granby
66240 Grand
170 Grand-Croix
209 Grand-Duc
666 Grand-Duché
361 Grand-Place
227 Grand-Pré
276 Grand-Saint-Bernard
178 Grand-croix
271 Grand-duc
646 Grand-duché
25779 Grande
16529 Grande-Bretagne
586 Grande-Pologne
3214 Grandes
229 Grandi
5794 Grands
1265 Grange
535 Granges
787 Gras
1550 Grasse
913 Grasset
224 Grau
865 Grave
177 Gravelle
864 Graves
2608 Gray
875 Grec
6681 Grecs
6177 Green
291 Greenville
1605 Greenwich
2986 Grenade
192 Grenadier
250 Grenadiers
1716 Grenelle
916 Grenier
9998 Grenoble
186 Grenoblois
310 Grenouille
181 Griffe
318 Griffon
457 Grignon
363 Grigny
294 Grimaud
244 Grimes
1097 Grimm
695 Gris
1087 Grisons
188 Grive
2222 Groenland
2132 Gros
256 Gros-de-Vaud
692 Grosse
207 Grosses
901 Grosso
670 Grotte
232 Grottes
15715 Groupe
1131 Groupement
597 Groupes
173 Grue
356 Gruyère
701 Grâce
260 Grâces
19378 Grèce
508 Grève
5991 Grégoire
846 Grégory
357 Grévy
1304 Guadalajara
3792 Guadeloupe
582 Guard
575 Guards
3353 Guatemala
270 Guelfes
295 Guenièvre
739 Guernesey
87078 Guerre
1426 Guerres
411 Guerrier
267 Guerriers
187 Guet
566 Guetta
213 Gueule
198 Gueules
224 Gueux
706 Gui
261 Guiche
2504 Guide
484 Guides
251 Guignol
319 Guignols
646 Guilde
24447 Guillaume
224 Guillemette
272 Guillemot
3937 Guinée
741 Guinée-Bissau
1873 Guise
390 Guitare
439 Gujarat
259 Gupta
719 Gus
5641 Gustave
518 Gutenberg
12549 Guy
1373 Guyana
229 Guyancourt
4639 Guyane
1348 Guyenne
302 Gué
566 Guéret
215 Gy
227 Gym
601 Gymnase
268 Gymnastique
504 Gâtinais
627 Géant
463 Géants
260 Gédéon
553 Gémeaux
2030 Génie
848 Génois
177 Généalogie
10445 Général
2491 Générale
191 Générales
565 Généralité
1041 Génération
786 Généraux
824 Géographie
8966 Géorgie
539 Géorgiens
863 Gérald
276 Géraldine
11110 Gérard
512 Géraud
227 Géricault
5521 Gênes
384 Gödel
932 Göring
253 HAL
172 HDMI
1106 HLM
923 Habib
329 Habitat
1325 Hachette
308 Haddock
244 Hadji
676 Hadrien
595 Hadès
936 Haendel
756 Haguenau
629 Hahn
195 Haie
4542 Hainaut
338 Haine
197 Haines
448 Hakim
1055 Hal
675 Hale
1540 Halifax
10423 Hall
2020 Halle
1248 Halles
485 Halley
755 Halloween
921 Halo
240 Hamada
1226 Hamas
5972 Hambourg
303 Hamburger
349 Hameau
532 Hamel
5704 Hamilton
440 Hammam
261 Hamme
1835 Hampshire
283 Hamza
3864 Han
778 Handball
327 Handicap
1133 Hannibal
2956 Hanovre
779 Hanoï
350 Hanse
957 Hansen
176 Harare
393 Haras
1390 Hard
849 Hardi
2989 Hardy
212 Harmattan
342 Harmonie
433 Haro
375 Harpe
1472 Harper
2997 Hart
4056 Harvard
601 Hasselt
691 Haussmann
5031 Haut
254 Haut-Anjou
418 Haut-Canada
220 Haut-Jura
289 Haut-Palatinat
194 Haut-Pérou
2462 Haut-Rhin
225 Haut-commissaire
5780 Haute
244 Haute-Alsace
692 Haute-Autriche
611 Haute-Bavière
236 Haute-Bretagne
892 Haute-Corse
3111 Haute-Garonne
1629 Haute-Loire
1663 Haute-Marne
2574 Haute-Normandie
398 Haute-Provence
2817 Haute-Savoie
2359 Haute-Saône
1869 Haute-Vienne
251 Haute-Volta
537 Haute-Égypte
1592 Hautes
1457 Hautes-Alpes
1887 Hautes-Pyrénées
1050 Hauts
2808 Hauts-de-Seine
2009 Havane
725 Havas
697 Have
5725 Havre
1549 Hawaï
1335 Haydn
3578 Haye
235 Hazebrouck
2633 Haïti
185 Haïtiens
781 Hebdo
1933 Hector
1084 Hegel
256 Heisenberg
1361 Hello
236 Hellènes
3063 Helsinki
303 Helvètes
705 Hemingway
38540 Henri
570 Henri-IV
1600 Henriette
17535 Henry
4005 Herbert
244 Herbiers
183 Herculanum
1618 Hercule
473 Hercules
3693 Hermann
277 Hermine
954 Hermès
404 Hersant
550 Herstal
355 Hertz
325 Herve
3501 Hervé
320 Hesbaye
2975 Hesse
779 Heure
2837 Heures
266 Hi
173 Hibou
652 Hidalgo
262 Higgs
210 Highlander
435 Highlanders
836 Highlands
654 Hilaire
950 Hilbert
423 Himalaya
198 Hipparque
347 Hippocrate
1611 Hippolyte
1066 Hiroshima
10793 Histoire
1044 Histoires
1080 Historia
1075 Historique
801 Historiques
8260 Hitler
498 Hittites
295 Hiver
533 Hobart
499 Hobbes
596 Hoche
3249 Hockey
285 Hodge
1091 Hoffmann
200 Hokkaido
746 Holding
569 Holdings
2576 Hollandais
6626 Hollande
561 Hollande-Méridionale
493 Hollande-Septentrionale
5816 Hollywood
3381 Home
201 Homicide
461 Hommage
3133 Homme
2615 Hommes
1351 Homo
902 Homère
2125 Honduras
6359 Hong
405 Hong-Kong
18530 Hongrie
3311 Hongrois
1146 Honneur
2400 Honoré
670 Hop
1501 Horace
837 Horde
584 Horizon
428 Horizons
1488 Horn
517 Hors
602 Horst
534 Hortense
588 Horus
242 Hospices
311 Hospitalier
1111 Hospitaliers
296 Hou
237 Houdan
247 Houillères
4902 Houston
185 Houx
443 Hua
174 Huard
878 Hubble
3742 Hubert
2171 Hudson
264 Hue
214 Huerta
7109 Hugo
641 Huguenots
5397 Hugues
258 Huguette
492 Hui
175 Huis
647 Huit
543 Huitième
203 Hum
283 Humain
224 Humaine
439 Humaines
445 Humains
392 Humanité
251 Humanoïdes
837 Hume
1022 Huns
524 Huron
483 Hurons
643 Hurricane
711 Hurricanes
526 Hussards
762 Huy
630 Huygens
245 Hué
803 Hyacinthe
305 Hymne
867 Hyères
1074 Hz
225 Hébreu
773 Hébreux
681 Hébrides
196 Héliopolis
252 Héloïse
4014 Hélène
170 Héléna
219 Hénin-Beaumont
401 Héra
659 Héraclès
1575 Hérault
235 Hérisson
209 Héritage
226 Héritiers
692 Hérode
835 Hérodote
467 Héron
1362 Héros
284 Hésiode
186 Hô-Chi-Minh-Ville
1205 Hôpital
413 Hôpitaux
3207 Hôtel
383 Hôtel-Dieu
498 ID
324 IDE
1032 IF
92419 II
48929 III
802 IIIe
519 IIe
1228 INSEE
207 IRA
217 IRIS
520 IRM
3334 ISO
422 IUT
30676 IV
624 IVe
7595 IX
338 IXe
355 Ibiza
1540 Ibrahim
227 Ibères
972 Ibérique
254 Icare
615 Ici
851 Ida
550 Idaho
171 Identité
212 Idée
449 Idées
4504 Ier
982 If
1102 Ignace
1717 Igor
22948 Il
583 Iliade
982 Ille-et-Vilaine
3011 Illinois
269 Illusion
207 Illusions
224 Illyrie
1576 Ils
6855 Image
811 Images
302 Imagine
233 Imam
249 Immaculée
173 Immobilier
219 Immortels
955 Impact
170 Impossible
193 Impressions
333 Imprimerie
289 Impératrice
618 Impérial
1008 Impériale
465 Impériaux
6721 In
477 Inca
555 Incas
14297 Inde
7348 Indes
726 Index
2083 Indiana
993 Indianapolis
5472 Indien
213 Indienne
4191 Indiens
192 Indigo
211 Indigènes
2115 Indochine
4328 Indonésie
269 Indonésiens
533 Indre
649 Indre-et-Loire
1012 Industrie
320 Industriel
539 Industrielle
177 Industriels
1497 Industries
426 Indépendance
255 Indépendant
928 Indépendants
243 Infante
594 Infanterie
746 Info
1653 Information
176 Informations
682 Informatique
182 Infrastructure
206 Infrastructures
239 Ingolstadt
688 Ingrid
289 Ingénierie
460 Ingénieur
360 Ingénieurs
716 Initiative
186 Innocence
2453 Innocent
374 Innocents
482 Innovation
310 Inquisition
192 Inscriptions
709 Inspecteur
216 Inspection
229 Instinct
10288 Institut
1033 Institution
315 Institutions
384 Instituts
544 Instruction
212 Instrument
439 Instruments
1172 Intelligence
187 Intelligent
223 Intendant
2352 Inter
1308 Interactive
173 Interallié
303 Intercommunal
432 Intercontinental
334 Interface
16466 International
4752 Internationale
564 Internationales
1350 Internationaux
13527 Internet
214 Interview
268 Intifada
656 Introduction
204 Intégrale
1432 Intérieur
249 Inuit
637 Inuits
1275 Invalides
447 Invasion
292 Inventaire
176 Invention
333 Investigation
178 Investissement
270 Invincible
322 Invisible
185 Inès
508 Io
768 Ion
185 Ionienne
246 Ioniennes
1058 Iowa
310 Iphigénie
317 Ira
4018 Irak
192 Irakiens
5272 Iran
278 Iran-Irak
371 Iraniens
606 Ire
778 Iris
1982 Irlandais
10531 Irlande
203 Irons
1070 Iroquois
1314 Irène
318 Irénée
3992 Isaac
5432 Isabelle
382 Isaïe
220 Ishtar
1013 Isidore
576 Isis
1196 Islam
308 Islamique
8119 Island
287 Islandais
1875 Islande
482 Ismaël
376 Isola
818 Israéliens
630 Israélites
11486 Israël
520 Issy-les-Moulineaux
2653 Istanbul
494 Istres
1655 Isère
45883 Italie
1057 Italien
567 Italienne
4031 Italiens
203 Itinéraire
351 Ives
1098 Ivoire
271 Ivry-sur-Seine
719 Ixelles
321 Izmir
477 J-C
202 J-Pop
12730 Jack
450 Jackets
1853 Jackie
1084 Jacky
6194 Jacob
407 Jacobi
1481 Jacobins
258 Jacobson
381 Jacobus
238 Jacquard
2561 Jacqueline
45439 Jacques
437 Jacques-Cartier
416 Jacques-Louis
722 Jacquet
342 Jacquot
971 Jade
944 Jaffa
1298 Jaguar
191 Jaguars
903 Jakarta
1386 Jam
216 Jamahiriya
191 Jamaïcain
3107 Jamaïque
200 Jambes
27000 James
7082 Jan
4207 Janeiro
185 Jang
526 Janine
498 Janus
1751 Janvier
50165 Japon
5729 Japonais
437 Japonaise
3804 Jardin
1017 Jardins
391 Jarre
306 Jarretière
272 Jasmin
3873 Jason
572 Jasper
1083 Jaune
251 Jaunes
1156 Jaurès
5229 Java
547 JavaScript
314 Javel
5032 Jazz
6006 Je
93418 Jean
443 Jean-Antoine
9325 Jean-Baptiste
245 Jean-Bernard
1075 Jean-Charles
1082 Jean-Christophe
5455 Jean-Claude
304 Jean-Daniel
5268 Jean-François
299 Jean-Frédéric
268 Jean-Georges
303 Jean-Guy
313 Jean-Henri
4740 Jean-Jacques
375 Jean-Jaurès
525 Jean-Joseph
4831 Jean-Louis
401 Jean-Loup
3611 Jean-Luc
202 Jean-Léon
2449 Jean-Marc
5209 Jean-Marie
3005 Jean-Michel
278 Jean-Nicolas
370 Jean-Noël
7546 Jean-Paul
1264 Jean-Philippe
10061 Jean-Pierre
321 Jean-René
562 Jean-Sébastien
1065 Jean-Yves
12051 Jeanne
394 Jeannette
176 Jeannine
271 Jeans
258 Jeep
211 Jemappes
1888 Jennifer
1331 Jenny
632 Jensen
450 Jerez
8079 Jersey
1532 Jessica
1181 Jet
992 Jets
237 Jette
1864 Jeu
926 Jeudi
4886 Jeune
2648 Jeunes
220 Jeunes-Turcs
4579 Jeunesse
1000 Jeunesses
40649 Jeux
5160 Jimmy
2559 Joachim
1015 Job
587 Jobs
359 Jocelyn
239 Jocelyne
236 Jockey
323 Joconde
202 Joffrey
2655 Johan
6646 Johann
851 Johanna
1215 Johannesburg
58417 John
6795 Johnny
379 Joie
685 Joint
628 Joker
501 Jolie
1899 Jonas
3942 Jonathan
3772 Jordan
2179 Jordanie
2908 Jorge
322 Joris
32336 Joseph
253 Joseph-Marie
251 Josette
237 Josiane
513 Josué
858 Josèphe
13913 José
272 Josée
1693 Joséphine
243 Joule
2404 Jour
1219 Jourdain
11305 Journal
179 Journalisme
194 Journalistes
1402 Journée
1019 Journées
1648 Jours
923 Joyeuse
453 Joyeux
1397 Joël
474 Joëlle
11678 Juan
226 Jubilé
1005 Judas
329 Judaïsme
596 Jude
1536 Judith
456 Judo
1198 Judée
717 Juge
848 Jugement
311 Juges
1906 Juif
20510 Juifs
3097 Juillet
1745 Juin
405 Juive
15145 Jules
2834 Julia
2115 Julian
3739 Julie
7302 Julien
392 Julienne
2821 Juliette
198 Jumeaux
2188 Jung
776 Jungle
3528 Junior
1443 Juniors
654 Junkers
466 Junon
879 Junte
4670 Jupiter
5959 Jura
1332 Jurassique
1057 Jury
1614 Juste
353 Justes
7847 Justice
3066 Justin
765 Justine
1470 Justinien
1311 Jéhovah
368 Jéricho
13333 Jérusalem
180 Jérusalem-Est
1031 Jérémie
618 Jérémy
5512 Jérôme
213 Jésuite
2843 Jésuites
11673 Jésus
3422 Jésus-Christ
189 KAC
471 Kabbale
1149 Kaboul
264 Kabyles
2296 Kabylie
574 Kafka
859 Kairouan
1317 Kaiser
179 Kalahari
336 Kali
463 Kaliningrad
422 Kamel
175 Kampala
246 Kana
187 Kanak
5037 Kansas
1462 Kant
272 Kappa
482 Karachi
414 Karaté
1437 Karen
1145 Karim
465 Karine
8345 Karl
485 Karma
442 Kart
716 Katanga
384 Katia
313 Katmandou
590 Kawasaki
2627 Kazakhstan
1382 Kazan
4403 Kelly
322 Kelvin
3907 Kennedy
2825 Kentucky
3707 Kenya
798 Kepler
583 Kerguelen
434 Kessel
4929 Kevin
809 Keynes
5613 Khan
224 Khanat
571 Kharkov
418 Khartoum
260 Khmer
975 Khmers
943 Khrouchtchev
421 Kick
1473 Kiel
255 Kierkegaard
4578 Kiev
298 Kigali
249 Kiki
327 Kilimandjaro
631 Killing
464 Kimberley
10679 King
2254 Kingston
1692 Kinshasa
414 Kipling
568 Kippour
750 Kirghizistan
445 Kiribati
176 Kisangani
641 Kit
370 Klee
2500 Klein
560 Ko
445 Kobe
1361 Koch
238 Koekelberg
267 Kola
184 Kommandantur
7472 Kong
311 Konya
3144 Kosovo
200 Kota
352 Kourou
1581 Koweït
539 Kraft
798 Kremlin
188 Kremlin-Bicêtre
554 Krishna
266 Kronprinz
322 Ksar
514 Kuala
435 Kuiper
714 Kurdes
896 Kurdistan
2371 Kyoto
198 Kyrie
193 Kyushu
216 Kényan
486 LCD
425 LED
692 LSD
226 LU
229911 La
886 Label
310 Labelle
2121 Laboratoire
419 Laboratoires
612 Labour
956 Labrador
353 Labyrinthe
5001 Lac
436 Lac-Saint-Jean
1605 Lacs
4968 Lady
459 Laeken
821 Lagos
1353 Lagrange
478 Lahore
522 Lai
176 Laine
278 Lainé
254 Laird
1521 Lama
420 Lamarck
791 Lamartine
244 Lambda
4158 Lambert
210 Lamentations
467 Lamine
387 Lanaudière
1568 Lance
906 Lancelot
240 Lancer
5612 Land
193 Landais
777 Landau
507 Lande
172 Landen
3740 Landes
963 Landry
216 Langage
846 Lange
241 Langeais
190 Langer
977 Langue
3178 Languedoc
3817 Languedoc-Roussillon
550 Langues
2449 Lanka
334 Lanterne
2011 Laon
2268 Laos
542 Lapin
782 Laplace
562 Laponie
584 Large
608 Largo
409 Larissa
234 Larmes
901 Larousse
5723 Las
443 Laser
237 Lasse
1295 Latin
922 Latine
654 Latins
183 Lattes
2473 Laura
1457 Laure
2263 Laurence
12274 Laurent
799 Laurentides
171 Laurette
742 Laurie
698 Laurier
240 Lauréat
7456 Lausanne
202 Lava
8640 Laval
241 Laver
478 Lavoisier
225 Laye
334 Layon
1329 Lazare
177563 Le
605 Leader
363 Lebel
356 Lebesgue
893 Lebrun
2501 Leclerc
353 Lecture
241 Lectures
2108 Leeds
636 Legendre
256 Lei
985 Leibniz
313 Leila
5410 Leipzig
614 Lejeune
1186 Leningrad
620 Lenny
3706 Lens
1769 Leone
86897 Les
1479 Leslie
509 Lesotho
1114 Lester
1074 Let
3084 Lettonie
189 Lettons
1681 Lettre
5777 Lettres
630 Lev
464 Levallois-Perret
1647 Levant
1090 Levi
1021 Levy
237 Lez
177 Leçon
237 Leçons
3402 Li
396 Liaison
275 Liaisons
288 Liane
182 Lias
6336 Liban
321 Libanais
209 Libellule
856 Liber
750 Liberia
212 Libertaire
1611 Liberty
3350 Liberté
266 Libertés
692 Libourne
776 Librairie
2876 Libre
437 Libres
540 Libreville
4231 Libye
255 Libyens
397 Libéral
7768 Libération
353 Libéraux
821 Licence
534 Licorne
351 Lido
1298 Lie
1300 Liechtenstein
180 Lied
268 Lien
385 Liens
278 Lierre
317 Lies
1778 Lieutenant
207 Lieutenant-Colonel
255 Lieutenant-colonel
301 Lieux
3324 Ligne
421 Lignes
53478 Ligue
3316 Ligues
185 Ligueurs
432 Ligure
345 Ligures
489 Lilas
508 Lilian
504 Liliane
13852 Lille
291 Lille-Flandres
2623 Lima
1959 Limbourg
627 Limerick
6495 Limoges
4197 Limousin
1152 Lin
472 Lina
4583 Lincoln
1755 Linda
4251 Line
201 Liniers
468 Lino
4647 Linux
3891 Lion
3797 Lionel
2953 Lions
207 Liouville
251 Lippe
337 Lire
177 Lis
3284 Lisa
6261 Lisbonne
707 Lise
1425 Lisieux
242 Lissa
2691 Liste
232 Lister
1570 Liszt
242 Lita
628 Littoral
359 Littré
400 Littéraire
1031 Littérature
4653 Lituanie
340 Lituaniens
5963 Live
5286 Liverpool
956 Living
1020 Livourne
9041 Livre
1141 Livres
170 Livry-Gargan
12850 Liège
470 Liège-Bastogne-Liège
381 Lièvre
591 Liégeois
727 Liévin
929 Ljubljana
198 Llano
662 Local
725 Loch
453 Loches
1116 Locke
258 Locomotive
217 Loft
210 Log
1447 Logan
1705 Loge
639 Logement
558 Loges
221 Logique
306 Logis
190 Logistique
299 Logo
175 Logos
7287 Loi
781 Loir
1490 Loir-et-Cher
15231 Loire
2799 Loire-Atlantique
525 Loire-Inférieure
4824 Loiret
1350 Lois
172 Loisir
556 Loisirs
286 Lokeren
1161 Lola
449 Lolita
1191 Lombard
4380 Lombardie
1174 Lombards
481 Lomé
49687 Londres
5964 Long
366 Longjumeau
264 Longs
782 Longue
234 Longuet
792 Longueuil
569 Lons-le-Saunier
711 Look
353 Loos
8307 Lord
1417 Lords
838 Lorentz
662 Lorenz
2928 Lorenzo
442 Lorette
390 Lori
3625 Lorient
172 Loriot
179 Loris
629 Lorrain
15498 Lorraine
359 Lorrains
436 Lorsque
2901 Lot
1744 Lot-et-Garonne
1199 Lothaire
679 Lotharingie
313 Loti
381 Lotte
2737 Lotus
2055 Lou
308 Loubet
268 Loue
75737 Louis
209 Louis-Alexandre
342 Louis-Ferdinand
273 Louis-François
490 Louis-Joseph
272 Louis-Marie
923 Louis-Napoléon
2712 Louis-Philippe
815 Louis-le-Grand
7164 Louise
5496 Louisiane
410 Loulou
1779 Loup
588 Loups
2005 Lourdes
193 Loutre
3894 Louvain
355 Louvain-la-Neuve
232 Louvet
526 Louvière
5891 Louvre
10120 Love
468 Lovecraft
324 Lover
226 Loves
268 Loyalistes
608 Loyauté
1975 Lozère
654 Loïc
1245 Lu
452 Luanda
331 Lubumbashi
5648 Luc
1974 Luca
3570 Lucas
1502 Lucerne
259 Lucette
1572 Lucie
5372 Lucien
363 Lucienne
683 Lucifer
286 Lucile
599 Lucrèce
1247 Ludovic
967 Lugano
200 Luger
6583 Luis
615 Lully
488 Lulu
2465 Lumière
2860 Lumières
473 Lumpur
733 Lundi
7412 Lune
395 Lunel
1046 Lunéville
622 Lupin
863 Lure
200 Lusaka
2663 Luther
712 Lutte
582 Lux
281 Luxe
13102 Luxembourg
317 Luxembourgeois
3768 Lycée
717 Lydia
522 Lydie
1234 Lynx
29783 Lyon
1535 Lyonnais
422 Lyonnaise
341 Lyra
265 Lyre
1449 Lys
260 Lysimaque
911 Länder
717 Léa
1159 Légende
346 Légendes
1533 Léger
14067 Légion
259 Législative
184 Légère
1482 Léman
406 Léna
2383 Lénine
2755 Léo
14117 Léon
2945 Léonard
654 Léonce
179 Léonidas
319 Léonie
243 Léopard
5865 Léopold
258 Léopoldville
456 Lévi-Strauss
204 Léviathan
1358 Lévis
256 Lévitique
1665 Lévy
338 Lézard
389 MA
564 MAC
296 MAN
485 MAS
212 MAX
1672 MC
208 ME
552 MF
607 MG
338 MH
1706 MHz
412 MI
548 MIDI
214 MIR
1191 MIT
183 MJ
236 MK
1107 MM
1200 MS
446 MS-DOS
215 MT
440 MV
1592 MW
4228 Ma
1683 Maastricht
5991 Mac
358 Mac-Mahon
795 Macdonald
874 Mach
432 Machiavel
285 Machin
2637 Machine
476 Machines
7652 Macédoine
650 Macédoniens
6745 Madagascar
7469 Madame
801 Made
5181 Madeleine
1623 Mademoiselle
2168 Madison
681 Madone
690 Madras
15633 Madrid
921 Madère
442 Maestro
1100 Mafia
185 Magali
405 Magasin
5202 Magazine
245 Magdalénien
1154 Magdebourg
252 Mage
971 Magellan
637 Magenta
421 Mages
3237 Maghreb
456 Magicien
523 Magie
967 Maginot
210 Magique
323 Magister
185 Magistrat
313 Magma
585 Magna
537 Magne
176 Magnificat
781 Magnifique
190 Magnolia
602 Magnum
2688 Magnus
289 Magnéto
262 Magog
480 Magritte
258 Magyar
384 Magyars
421 Maharashtra
190 Mahatma
317 Mahdi
869 Mahler
3050 Mahomet
3078 Mai
1159 Mail
511 Maillard
306 Maillet
243 Maillol
543 Maillot
327 Maillé
2920 Main
5738 Maine
3242 Maine-et-Loire
332 Mains
175 Maintenance
259 Maintenant
2360 Maire
177 Maires
1826 Mairie
19653 Maison
696 Maison-Blanche
1073 Maisons
250 Maisons-Alfort
263 Maisons-Laffitte
1724 Majesté
610 Majeur
3079 Major
1715 Majorque
435 Maki
1446 Mal
315 Malabar
211 Malade
335 Maladie
618 Malaga
285 Malais
373 Malaise
4655 Malaisie
439 Malakoff
1055 Malawi
483 Maldives
292 Malgré
5756 Mali
1029 Malik
243 Malin
1814 Malines
586 Mallarmé
418 Malle
703 Malouines
1250 Malraux
194 Malta
222 Maltais
5017 Malte
213 Malus
234 Malédiction
473 Maman
223 Mambo
630 Mamelouks
8643 Man
489 Mana
2741 Management
935 Manager
254 Managua
7653 Manche
479 Manches
6300 Manchester
219 Mandarin
190 Mandat
264 Mandchous
980 Manet
468 Manga
3740 Manhattan
241 Mania
176 Manicouagan
1278 Manifeste
1074 Manille
2468 Manitoba
963 Manoir
807 Manon
570 Manosque
9141 Mans
360 Mansion
495 Mantes
1012 Mantes-la-Jolie
8361 Manuel
1191 Manufacture
247 Manufactures
232 Manuscrit
191 Manuscrits
291 Manège
2017 Mao
378 Maori
289 Maputo
298 Maquis
202 Marabout
2770 Marais
937 Marat
885 Marathon
13472 Marc
240 Marc-André
456 Marc-Antoine
173 Marc-Olivier
12814 Marcel
626 Marcelle
701 Marcellin
314 Marchais
1528 Marchand
172 Marchands
3122 Marche
1665 Marches
1708 Marché
836 Mardi
2460 Mare
556 Marengo
873 Marennes
241 Margaux
985 Marge
612 Margot
8601 Marguerite
1115 Mari
15610 Maria
806 Mariage
2678 Marianne
31843 Marie
247 Marie-Amélie
832 Marie-Anne
1447 Marie-Antoinette
170 Marie-Caroline
170 Marie-Catherine
575 Marie-Christine
390 Marie-Claire
336 Marie-Claude
327 Marie-France
265 Marie-Françoise
297 Marie-Hélène
321 Marie-Jeanne
211 Marie-Joseph
199 Marie-Josèphe
256 Marie-José
190 Marie-Laure
1441 Marie-Louise
950 Marie-Madeleine
198 Marie-Noëlle
187 Marie-Pierre
198 Marie-Rose
1870 Marie-Thérèse
282 Marielle
349 Mariette
230 Marignan
266 Marignane
1900 Marin
2002 Marina
13511 Marine
370 Mariner
2054 Marines
186 Marins
7814 Mario
2440 Marion
363 Maris
810 Maritime
484 Maritimes
2301 Marius
447 Marivaux
338 Marjorie
10062 Mark
602 Marketing
544 Markov
370 Marks
379 Marlène
5505 Marne
609 Marne-la-Vallée
16353 Maroc
337 Marocain
192 Marocaine
549 Marocains
437 Marque
425 Marques
397 Marquette
1914 Marquis
505 Marquise
372 Marquises
1659 Marrakech
9417 Mars
601 Marseillais
887 Marseillaise
22866 Marseille
549 Marseille-Saint-Charles
3394 Marshall
248 Marteau
1847 Martel
1184 Marthe
1343 Martial
648 Martigues
23405 Martin
1773 Martine
629 Martinet
947 Martini
4273 Martinique
533 Martins
292 Martyr
269 Martyre
581 Martyrs
956 Marvin
3475 Marx
9176 Mary
3096 Maryland
542 Maryse
3173 Maréchal
258 Maréchaux
1488 Mas
405 Mascara
206 Mascate
186 Maskinongé
768 Masque
203 Masques
2057 Massa
6354 Massachusetts
966 Massacre
459 Masse
3214 Massif
301 Massive
818 Massy
262 Massé
4069 Master
4057 Masters
542 Mat
560 Mata
203 Matador
3369 Match
1809 Matches
528 Mater
202 Math
1089 Mathias
4938 Mathieu
2656 Mathilde
387 Mathis
507 Mathématiques
917 Matignon
1252 Matin
940 Matisse
221 Matière
204 Matrice
340 Mats
855 Matteo
1262 Matthias
2382 Matthieu
203 Matériaux
243 Matériel
895 Maubeuge
624 Maud
860 Maupassant
401 Maure
1443 Maures
731 Mauriac
19397 Maurice
458 Mauricie
2079 Mauritanie
397 Mauser
242 Mausolée
706 Mauvais
10311 Max
178 Max-Planck
394 Maxence
2753 Maxime
2699 Maximilien
284 Maximum
1304 Maxwell
1029 Maya
558 Mayas
4306 Mayence
3878 Mayenne
1330 Mayotte
1330 Mazarin
6954 Maître
1274 Maîtres
199 Maîtresse
634 Maîtrise
215 Mbit
648 McKinley
8077 Me
249 MeV
1857 Meaux
907 Mecklembourg
188 Mecklembourg-Poméranie
437 Mecklembourg-Poméranie-Occidentale
408 Mecklembourg-Schwerin
1657 Mecque
554 Medellín
569 Meeting
588 Mehdi
2938 Meilleur
1240 Meilleure
312 Meilleurs
663 Meknès
4396 Melbourne
678 Melchior
229 Melon
2041 Melun
305 Melvin
959 Membre
2432 Memphis
323 Menace
1246 Mende
416 Mendel
179 Menez
255 Menin
235 Mental
203 Mention
793 Menton
183 Mentor
248 Menu
5346 Mer
244 Mercantour
274 Mercator
378 Merci
1938 Mercier
712 Mercredi
2655 Mercure
954 Merle
1851 Merlin
611 Mers
312 Merveilles
864 Mes
860 Mesa
473 Message
520 Messager
209 Messageries
897 Messe
1020 Messie
558 Messier
592 Messieurs
245 Messire
430 Mestre
662 Met
1565 Mets
10878 Metz
1088 Meudon
640 Meunier
1015 Meurthe
2069 Meurthe-et-Moselle
268 Meurtre
6003 Meuse
288 Mexicain
563 Mexicains
5038 Mexico
19502 Mexique
170 Mezzo
260 Mg
487 Mgr
888 Mi
313 Mi-Carême
5218 Miami
21984 Michael
894 Michaël
36059 Michel
1067 Michel-Ange
810 Michelet
493 Micheline
2097 Michelle
5540 Michigan
1952 Michèle
553 Mickaël
735 Micmacs
421 Micro
509 Micronésie
200 Midas
4261 Midi
5287 Midi-Pyrénées
301 Mie
274 Miel
263 Mies
232 Mignard
421 Mignon
3990 Miguel
7989 Mike
357 Mil
17023 Milan
494 Milan-San
410 Milanais
684 Mile
3046 Miles
658 Milice
1362 Milieu
213 Milieux
1342 Militaire
1055 Mill
867 Millau
1841 Mille
229 Millerand
200 Milles
764 Millet
502 Million
408 Millénaire
321 Milne
1694 Milton
625 Mimi
697 Min
632 Mina
1756 Minas
907 Mine
799 Minerve
2438 Mines
1573 Mineure
179 Mineurs
1118 Mini
540 Minimes
6798 Ministre
585 Ministres
8704 Ministère
287 Minitel
209 Minière
464 Minkowski
4854 Minnesota
311 Minos
300 Minotaure
1585 Minsk
641 Minuit
414 Minute
482 Minutes
288 Mio
554 Miocène
312 Miquelon
1061 Mir
578 Mira
904 Mirabeau
257 Mirabel
794 Miracle
256 Miracles
1512 Mirage
223 Miramas
1465 Miranda
1109 Mireille
280 Mirepoix
360 Miro
929 Miroir
554 Miró
730 Mise
292 Mises
6834 Miss
222 Missile
3637 Mission
268 Missionnaires
814 Missions
4651 Mississippi
4449 Missouri
1701 Mistral
384 Misérables
496 Miséricorde
252 Mithra
661 Mithridate
197 Mitre
4173 Mitterrand
402 Mixte
548 Mlle
3268 Mme
1003 Mo
2500 Mobile
202 Mobilité
1290 Mode
179 Modem
1062 Moderne
477 Modernes
369 Modeste
369 Modigliani
290 Module
688 Modèle
282 Mogadiscio
4515 Mohamed
3625 Mohammed
1409 Moi
558 Moine
406 Moineau
599 Moines
214 Moiré
182 Moisson
266 Mol
237 Moldaves
3447 Moldavie
279 Mole
195 Molenbeek-Saint-Jean
2894 Molière
313 Molières
418 Mollet
356 Molotov
2665 Mon
7670 Monaco
1096 Monarchie
182 Monarque
873 Monastère
597 Monceau
16174 Monde
807 Mondes
2128 Mondial
2274 Mondiale
668 Mondiaux
1084 Monet
550 Monge
209 Mongol
2528 Mongolie
320 Mongolie-Intérieure
1833 Mongols
1456 Monique
796 Moniteur
271 Monitor
1433 Monnaie
237 Monnaies
377 Mono
3965 Mons
1608 Monseigneur
6806 Monsieur
358 Monstre
239 Monstres
8746 Mont
1247 Mont-Blanc
365 Mont-Dore
274 Mont-Liban
184 Mont-Louis
457 Mont-Royal
592 Mont-Saint-Michel
181 Mont-Terrible
184 Mont-Tonnerre
210 Mont-Valérien
793 Mont-de-Marsan
451 Montagnards
3479 Montagne
1412 Montagnes
1241 Montaigne
2460 Montana
2016 Montauban
192 Montauban-Ville-Bourbon
2080 Montbéliard
4288 Monte
1788 Monte-Carlo
222 Montel
481 Monterrey
443 Montes
824 Montesquieu
1957 Montevideo
283 Montfermeil
200 Montgeron
1018 Montluçon
2391 Montmartre
2769 Montmorency
211 Montmorency-Laval
10718 Montpellier
1505 Montreuil
930 Montreux
615 Montrouge
33615 Montréal
2716 Monts
203 Montée
797 Montélimar
3729 Monténégro
667 Montérégie
2630 Monument
2666 Monuments
765 Morales
1076 Moravie
620 Moravie-du-Sud
3914 Morbihan
1968 More
2581 Moreau
208 Moresby
4206 Morgan
448 Morgane
417 Mormon
350 Morne
630 Morse
3651 Mort
784 Morte
469 Mortier
1051 Morton
711 Morts
1584 Morvan
21094 Moscou
286 Moscovie
6180 Moselle
254 Moselle-est
451 Moser
741 Mosquée
323 Mossad
847 Motion
414 Moto
319 Mots
319 Motta
1565 Motte
326 Mouche
241 Mouette
4128 Moulin
1958 Moulins
571 Mourad
592 Mouscron
624 Mousquetaires
1326 Moussa
178 Mousse
205 Moustérien
323 Moutier
543 Mouton
8291 Mouvement
265 Mouvements
22081 Moyen
5048 Moyen-Orient
264 Moyen-Âge
1100 Moyenne
2196 Mozambique
3662 Mozart
887 Mozilla
2864 Moïse
374 Ms
729 Mt
593 Mu
357 Muette
205 Mule
3806 Mulhouse
240 Mulhouse-Ville
174 Mulot
248 Multimédia
181 Multiple
500 Mumbai
295 Munch
11248 Munich
1909 Municipal
274 Municipale
490 Municipalité
1714 Munster
1443 Mur
346 Muraille
875 Murcie
252 Mure
271 Mureaux
511 Muret
683 Muriel
364 Murs
292 Mus
587 Musa
175 Musaraigne
213 Muscat
232 Muscle
760 Muse
484 Muses
1039 Musical
386 Musicale
237 Musicales
323 Musiciens
4834 Musique
492 Musiques
719 Musset
2360 Mussolini
285 Must
663 Mustang
888 Mustapha
3056 Musulmans
18663 Musée
782 Musées
2244 Muséum
214 Mutant
251 Mutants
370 Mutualité
225 Mutuel
361 Mutuelle
481 Myanmar
715 Mylène
816 Myriam
230 Mystique
1012 Mystère
697 Mystères
268 Mythe
1449 Mâcon
306 Mâconnais
300 Mèdes
2807 Mère
225 Mères
563 Mécanique
2390 Médaille
307 Médard
577 Médecin
1539 Médecine
557 Médecins
401 Média
482 Médias
268 Médiathèque
177 Médical
235 Médicale
4833 Médicis
178 Méditation
206 Méditations
10900 Méditerranée
732 Médoc
550 Méduse
410 Médée
206 Mégane
186 Mélanges
1080 Mélanie
182 Mélanésie
610 Méliès
451 Mélodie
290 Mélusine
1687 Mémoire
3458 Mémoires
1180 Mémorial
201 Ménage
855 Mérida
180 Méridien
338 Mérignac
2115 Mérite
373 Mérovingiens
240 Mésolithique
2575 Mésopotamie
252 Mésozoïque
478 Métal
398 Métamorphoses
211 Métaphysique
857 Méthode
1080 Métiers
520 Métis
1170 Métro
2137 Métropole
171 Métropolitain
210 Métropolite
251 Météo
242 Météo-France
936 Mézières
270 Möbius
201 N-VA
283 NA
3978 NASA
364 NEC
574 NET
461 NO
1290 Na
205 Nabil
903 Nadia
613 Nadine
316 Nadir
1152 Nagasaki
810 Nagoya
341 Nagy
289 Nain
701 Nains
724 Nairobi
538 Naissance
2070 Namibie
4736 Namur
761 Nana
9862 Nancy
359 Nancy-Lorraine
1250 Nankin
1829 Nanterre
16797 Nantes
220 Nantes-Saint-Nazaire
224 Napalm
10114 Naples
18033 Napoléon
2702 Narbonne
547 Narcisse
1585 Nash
905 Nasser
430 Natacha
879 Natal
258 Natation
2322 Nathalie
2800 Nathan
3759 Nation
26728 National
11047 Nationale
414 Nationales
350 Nationaux
12861 Nations
424 Nations-Unies
363 Native
842 Nativité
3203 Nature
361 Naturel
496 Naturelle
180 Naturelles
1163 Nauru
196 Nautique
1155 Naval
255 Navale
322 Navarin
6855 Navarre
205 Navette
179 Navigateur
537 Navigation
180 Navire
1153 Nazareth
201 Nazca
299 Nazi
1352 Nazis
191 Naïve
1530 Nebraska
179 Neck
281 Nef
314 Nehru
517 Neige
342 Neiges
738 Nelly
2008 Neptune
727 Nestor
741 Net
554 Nets
3162 Neuchâtel
1402 Neuf
1546 Neuilly-sur-Seine
996 Neumann
628 Neustrie
625 Neuve
281 Neuvième
2794 Nevada
2869 Nevers
261 Neveu
81552 New
2459 New-York
3747 News
3035 Newton
680 Nexus
225 Nez
795 Ni
1029 Niagara
361 Niamey
2255 Nicaragua
12820 Nice
1880 Nicholas
391 Nickel
208 Nicodème
195 Nicol
23847 Nicolas
3171 Nicole
577 Nicosie
1308 Nicée
235 Nid
1901 Nietzsche
3056 Niger
3118 Nigeria
3354 Nil
1824 Nina
612 Ninja
331 Ninon
1450 Niort
705 Nippon
771 Nirvana
524 Nitra
312 Nivelle
654 Nivelles
475 Nivernais
221 Niçois
2020 Nièvre
6411 No
1014 Noah
5916 Nobel
920 Noble
224 Nobles
329 Noblesse
659 Noces
308 Nocturne
264 Noether
332 Nogent-sur-Marne
4727 Noir
6175 Noire
491 Noires
393 Noirmoutier
3968 Noirs
583 Noise
274 Noisy-le-Grand
452 Noisy-le-Sec
670 Nolan
185 Nolwenn
242 Nombres
232 Nome
1242 Non
229 Nono
893 Nora
1175 Norbert
81401 Nord
3547 Nord-Est
4647 Nord-Ouest
4729 Nord-Pas-de-Calais
853 Nord-Sud
180 Nord-du-Québec
298 Nord-est
392 Nord-ouest
954 Nordiques
245 Nordistes
279 Normal
737 Normale
868 Normand
172 Normande
12741 Normandie
2529 Normands
13603 Norvège
579 Norvégien
536 Norvégiens
659 Nos
200 Nostalgie
1257 Note
794 Notes
266 Notice
3232 Notre
13822 Notre-Dame
203 Notre-Dame-de-Grâce
253 Nouakchott
224 Noue
2157 Nouméa
2376 Nous
8198 Nouveau
6393 Nouveau-Brunswick
2065 Nouveau-Mexique
1087 Nouveaux
3294 Nouvel
7517 Nouvelle
2057 Nouvelle-Angleterre
178 Nouvelle-Bretagne
4766 Nouvelle-Calédonie
658 Nouvelle-Espagne
3124 Nouvelle-France
2884 Nouvelle-Galles
654 Nouvelle-Galles-du-Sud
632 Nouvelle-Grenade
2365 Nouvelle-Guinée
192 Nouvelle-Irlande
3398 Nouvelle-Orléans
11296 Nouvelle-Zélande
2822 Nouvelle-Écosse
2295 Nouvelles
204 Nouvelles-Hébrides
2954 Nova
1365 Novembre
296 Noyant
201 Noyer
354 Noyers
1310 Noé
229 Noémie
11674 Noël
199 Noëlle
574 Nu
518 Nuage
594 Nubie
203 Nucléaire
404 Nui
3313 Nuit
1481 Nuits
232 Nulle
172 Nuls
369 Numérique
788 Numéro
215 Nunavik
663 Nunavut
2728 Nuremberg
308 Nyons
601 Nègre
182 Néandertaliens
185 Néant
2096 Néerlandais
258 Néguev
218 Némésis
178 Néo
466 Néo-Zélandais
179 Néo-zélandais
2122 Néolithique
2401 Népal
1479 Néron
5559 Nîmes
401 Nôtre
177 O-O
274 OC
372 OCDE
958 OGM
744 OH
341 OK
281 OMC
638 OMS
2205 ONG
1331 ONU
320 OPA
197 ORL
3176 OS
1320 OTAN
349 OVNI
628 Oasis
2129 Obama
191 Objectif
172 Objectifs
195 Objets
187 Oblats
1127 Observateur
321 Observations
792 Observatoire
402 Observer
4749 Occident
457 Occidental
1032 Occidentale
767 Occidentaux
431 Occupation
270 Ocelot
1342 Octave
172 Octavie
1414 Octobre
886 Océan
192 Océane
1330 Océanie
387 Ode
189 Odes
982 Odessa
478 Odette
712 Odile
367 Odilon
744 Odin
608 Odyssée
320 Odéon
912 Off
687 Offenbach
4132 Office
476 Offices
292 Official
686 Officiel
1274 Officier
321 Officiers
187 Ogre
999 Oh
3312 Ohio
1422 Oise
308 Oiseau
816 Oiseaux
1522 Oklahoma
568 Olive
1046 Olivia
8632 Olivier
290 Oliviers
503 Olympe
216 Olympiade
488 Olympiades
231 Olympie
180 Olympiens
2435 Olympique
2249 Olympiques
656 Oman
2448 Omar
259 Ombre
649 Ombres
423 Omnibus
295 Oméga
9968 On
455 Once
363 Oncle
5334 Ontario
309 Onyx
291 Onze
504 Op
6102 Open
212 Ophélie
280 Oppenheimer
178 Opposition
195 Option
570 Opus
2360 Opéra
1195 Opération
334 Opérations
2374 Or
614 Oracle
2017 Oran
3838 Orange
171 Oratoire
233 Oratoriens
235 Orbe
266 Orbiter
746 Orcades
2770 Orchestra
2413 Orchestre
176 Ordonnance
4394 Ordre
412 Ordres
1319 Oregon
215 Orfèvres
2847 Organisation
276 Organisations
191 Orge
221 Orgue
213 Orgueil
4427 Orient
757 Oriental
1076 Orientale
422 Orientales
301 Orientaux
875 Original
255 Origine
232 Origines
240 Origène
708 Orion
435 Orly
6254 Orléans
646 Orne
571 Orphée
317 Orques
635 Orsay
171 Orthodoxe
450 Orwell
338 Os
1302 Osaka
4065 Oscar
2187 Oscars
536 Osiris
2016 Oslo
200 Ossétie
299 Ost
853 Ostende
508 Ostrogoths
2671 Ottawa
396 Ottoman
3327 Ottomans
644 Ouagadougou
762 Oued
10769 Ouest
478 Ouest-France
1114 Ouganda
570 Oui
355 Oural
863 Ours
373 Ourse
3122 Out
772 Outaouais
218 Outre
307 Outre-Mer
297 Outre-mer
543 Ouverture
235 Ouvrier
256 Ouvrière
676 Ouzbékistan
534 Ovide
3557 Oxford
244 Oyonnax
463 PA
442 PACA
526 PAL
378 PAN
214 PARIS
6097 PC
728 PDF
196 PET
345 PG
223 PGCD
231 PH
192 PI
3782 PIB
346 PJ
3728 PK
372 PL
369 PLU
267 PN
627 PNB
1065 PP
421 PPP
624 PR
353 PRES
208 PRO
174 PRS
6822 PS
444 PSI
486 PT
297 PV
528 PVC
506 Pa
3058 Pablo
2613 Pacha
12584 Pacifique
741 Pack
1825 Pacte
354 Paddy
2728 Padoue
2035 Page
505 Pages
564 Pagnol
170 Pagode
240 Paille
197 Paillon
1063 Pain
340 Pair
208 Pairs
190 Pais
4066 Paix
5215 Pakistan
353 Pal
2267 Palace
12717 Palais
992 Palais-Royal
812 Palaiseau
383 Palaos
453 Palatin
1026 Palatinat
256 Palatine
347 Pale
2694 Palerme
6541 Palestine
1235 Palestiniens
267 Paley
238 Palladium
491 Pallas
1377 Palma
548 Palmas
802 Palme
1680 Palmer
491 Palmes
268 Paléogène
1251 Paléolithique
224 Paléozoïque
365 Pampa
2283 Pan
4043 Panama
532 Panamá
477 Panda
315 Pandore
200 Pangée
313 Panic
227 Panique
304 Panne
526 Panorama
278 Panthère
1552 Panthéon
604 Panthéon-Sorbonne
787 Pantin
1138 Panzer
522 Paola
187 Paon
1294 Papa
3569 Pape
439 Papeete
280 Papes
458 Papillon
505 Papouasie
1941 Papouasie-Nouvelle-Guinée
242 Papyrus
323 Paquet
371 Para
272 Parabellum
261 Paracelse
1058 Parade
2515 Paradis
3071 Paraguay
190 Parallèlement
190 Parasite
11657 Parc
259 Parcours
627 Parcs
261 Pardon
716 Parent
235 Parents
294 Pareto
194 Parfait
173 Parfum
222 Pari
235107 Paris
347 Paris-Austerlitz
771 Paris-Bercy
203 Paris-Charles-de-Gaulle
268 Paris-Dakar
236 Paris-Dauphine
700 Paris-Est
446 Paris-Lyon
185 Paris-Match
678 Paris-Nice
965 Paris-Nord
209 Paris-Notre-Dame
253 Paris-Orly
875 Paris-Roubaix
682 Paris-Saint-Lazare
305 Paris-Sorbonne
239 Paris-Sud
261 Paris-Tours
1375 Parisien
409 Parisienne
1167 Parisiens
731 Parkinson
20681 Parlement
224 Parlements
3586 Parme
233 Parménide
364 Parnasse
648 Paroisse
723 Parole
392 Paroles
385 Paros
353 Parque
272 Parquet
485 Parrain
1130 Part
315 Part-Dieu
201 Partage
833 Parthes
205 Parthie
52075 Parti
255 Participation
373 Parties
283 Partis
528 Partisans
358 Paré
4078 Pas-de-Calais
7653 Pascal
657 Pascale
1001 Passage
407 Passages
354 Passau
178 Passerelle
2196 Passion
212 Passions
935 Passy
3028 Pasteur
211 Pastorale
2180 Pat
1236 Patagonie
204 Pataphysique
233 Patch
333 Pater
188 Patience
472 Patras
591 Patriarcat
596 Patriarche
2872 Patrice
1744 Patricia
12441 Patrick
1170 Patrie
2250 Patrimoine
271 Patriote
687 Patriotes
240 Patron
401 Patrouille
228 Patte
4231 Pau
51183 Paul
279 Paul-Henri
187 Paul-Louis
365 Paul-Émile
590 Paule
407 Paulette
822 Paulin
2110 Pauline
5876 Paulo
239 Paume
497 Pausanias
256 Pauvre
329 Pauvres
1730 Pavie
1498 Pavillon
21708 Pays
24180 Pays-Bas
441 Paysage
187 Paysages
193 Paysan
260 Paysans
1468 Paz
217 Peano
453 Peau
628 Peggy
406 Peintre
335 Peintres
662 Peinture
182 Peintures
171 Pella
1117 Pelletier
531 Pelé
176 Pelée
744 Penh
202 Penne
6017 Pennsylvanie
633 Penny
545 Pensée
287 Pensées
593 Pentagone
319 Pentateuque
1182 Pentecôte
182 Pep
504 Perceval
1020 Perche
227 Percheron
252 Perdu
664 Performance
464 Pergame
547 Perle
253 Perles
490 Perm
250 Permanent
432 Permien
3036 Perpignan
917 Perrault
213 Perrine
484 Perron
265 Perruche
441 Persan
3707 Perse
2252 Perses
1010 Persique
450 Personne
235 Personnel
179 Perspective
244 Perspectives
690 Persée
252 Perséphone
1680 Perth
825 Pertuis
306 Pessac
527 Peste
412 Pet
11676 Petit
4827 Petite
287 Petite-Pologne
1316 Petites
1483 Petits
499 Petrograd
528 Peuls
2568 Peuple
540 Peuples
861 Peur
303 Phalange
676 Pharaon
466 Phare
332 Pharmacie
517 Phase
491 Phi
7914 Philadelphie
333 Philharmonie
543 Philharmonique
35279 Philippe
415 Philippe-Auguste
268 Philippeville
307 Philippine
5991 Philippines
321 Philistins
198 Philosophe
188 Philosophes
1392 Philosophie
819 Phnom
399 Phobos
239 Phocéens
362 Phone
635 Photo
400 Photographie
237 Physiologie
880 Physique
385 Phénicie
744 Phéniciens
787 Phénix
599 Pi
703 Piaf
184 Pian
1130 Piano
1812 Pic
1305 Picard
6385 Picardie
2587 Picasso
556 Piccolo
344 Picot
600 Pictes
173 Pictons
6232 Pie
446 Pied
237 Pieds
267 Pieds-Noirs
67190 Pierre
318 Pierre-André
298 Pierre-Antoine
346 Pierre-François
187 Pierre-Henri
277 Pierre-Jean
304 Pierre-Joseph
365 Pierre-Louis
196 Pierre-Marie
334 Pierre-Paul
296 Pierre-Yves
473 Pierres
297 Pierrette
207 Pierrick
824 Pierrot
343 Pietà
1478 Pieux
359 Pif
388 Pigalle
457 Pigeon
249 Pignon
509 Pilate
170 Pilier
219 Pilon
317 Pilot
907 Pilote
1132 Pin
191 Pinacothèque
183 Pinard
364 Pineau
232 Pingouin
734 Pinocchio
812 Pinochet
598 Pinot
649 Pins
208 Pinson
172 Pinter
410 Pio
225 Pionniers
1059 Piper
192 Pique
455 Piquet
258 Pirandello
484 Pirate
2434 Pirates
242 Pire
347 Pires
186 Piscine
2279 Pise
383 Piste
744 Pistons
191 Pitbull
467 Pithiviers
335 Pitié
468 Piton
4388 Pittsburgh
247 Pivot
427 Pizarro
374 Pizza
354 Pièces
293 Piège
4842 Piémont
257 Piémont-Sardaigne
214 Piémontais
6258 Place
351 Placebo
502 Places
172 Placide
453 Plage
291 Plain
1986 Plaine
770 Plaines
304 Plains
1460 Plaisance
439 Plaisir
172 Plaisirs
4915 Plan
335 Plana
269 Planche
759 Planck
188 Plane
179 Planification
309 Planning
360 Plans
887 Plant
351 Plante
443 Plantes
1261 Planète
388 Plastic
233 Plastiques
868 Plate
233 Plate-forme
1954 Plateau
177 Plateaux
285 Platine
3250 Platon
368 Plein
1468 Pline
331 Pliocène
202 Plomb
171 Plombières
279 Plotin
224 Pluie
668 Plume
907 Plutarque
1116 Pluton
732 Pléiade
191 Pléiades
849 Pléistocène
1596 Po
612 Poche
400 Podgorica
317 Poids
188 Poil
1529 Poincaré
5238 Point
1337 Pointe
262 Pointe-Noire
225 Pointe-au-Père
406 Pointe-à-Pitre
1442 Points
671 Poirier
357 Poison
1042 Poisson
377 Poissons
1028 Poissy
346 Poitevin
6311 Poitiers
2101 Poitou
3850 Poitou-Charentes
379 Poivre
195 Poix
807 Poker
410 Polar
222 Poli
3957 Police
1757 Politique
664 Politiques
1378 Polo
24402 Pologne
225 Pologne-Lituanie
3165 Polonais
354 Polonaise
186 Polygone
2499 Polynésie
227 Polynésiens
1286 Polytechnique
527 Pomme
178 Pommier
261 Pompe
1874 Pompidou
1389 Pompée
750 Pompéi
1814 Poméranie
254 Ponant
708 Ponce
228 Poncelet
394 Pond
6385 Pont
248 Pont-Aven
207 Pont-Neuf
216 Pont-Saint-Esprit
210 Pont-Sainte-Maxence
548 Pont-à-Mousson
179 Ponta
1217 Ponte
179 Pontet
267 Pontife
1590 Pontoise
1397 Ponts
559 Pool
2622 Pop
957 Pope
1667 Populaire
213 Populaires
229 Porphyre
183 Porphyrogénète
6057 Port
336 Port-Arthur
483 Port-Louis
1236 Port-Royal
208 Port-Saïd
993 Port-au-Prince
1052 Porta
552 Portable
350 Portage
348 Portail
6052 Porte
1034 Porter
1064 Portes
2662 Portland
6932 Porto
1686 Portrait
311 Portraits
234 Ports
3105 Portugais
205 Portugaise
18024 Portugal
298 Positif
236 Possession
346 Postal
2521 Poste
1160 Postes
896 Poséidon
716 Pot
580 Potez
297 Potier
1222 Potsdam
837 Pouchkine
1031 Pouilles
429 Poulain
704 Poule
332 Poulet
190 Poupée
633 Pourquoi
606 Poussin
225 Poussière
892 Poutine
774 Pouvoir
178 Pouvoirs
339 Poème
488 Poèmes
283 Poète
462 Poètes
874 Poésie
253 Poésies
242 Poétique
631 Pr
178 Pragmatique
7647 Prague
244 Praia
1083 Prairie
372 Prairies
334 Pratique
24881 Premier
894 Premiers
28797 Première
526 Premières
2721 Presse
1185 Presses
232 Pression
450 Prestige
1052 Pretoria
316 Priam
592 Prieur
797 Prieuré
428 Prima
180 Primaire
177 Primat
927 Prime
875 Primera
872 Primo
10822 Prince
1765 Princes
2002 Princesse
1846 Princeton
1872 Principauté
543 Principe
542 Principes
2295 Printemps
245 Priscilla
352 Prise
819 Prison
355 Prisonnier
177 Pristina
382 Privas
337 Privé
38695 Prix
241 Prière
6939 Pro
189 Processus
2207 Proche-Orient
219 Proclamation
760 Procureur
556 Procès
182 Producteur
1793 Production
3545 Productions
320 Produits
260 Prof
2958 Professeur
185 Profession
385 Professionnel
423 Professionnelle
187 Professionnels
2234 Programme
209 Programmes
273 Progressive
957 Progrès
233 Prohibition
1985 Projet
558 Prokofiev
190 Prologue
467 Promenade
191 Promise
2779 Promotion
603 Prométhée
292 Propagande
809 Prophète
326 Prophètes
228 Prophétie
211 Proposition
236 Propriété
233 Propulsion
190 Prospect
1272 Prosper
349 Protecteur
1562 Protection
425 Protectorat
479 Protestants
653 Protocole
233 Protocoles
323 Proton
172 Protée
490 Proudhon
1403 Proust
220 Prouvé
11293 Provence
2340 Provence-Alpes-Côte
207 Provençal
1904 Providence
5813 Province
986 Provinces
1741 Provinces-Unies
407 Provincial
226 Provinciale
1031 Provins
360 Prudence
332 Prunus
9476 Prusse
779 Prusse-Orientale
1468 Prussiens
292 Prytanée
789 Pré
208 Préaux
268 Préface
1432 Préfecture
947 Préfet
1126 Préhistoire
187 Préjugés
299 Prélude
385 Prémontrés
533 Prés
448 Présence
487 Présentation
1280 Présidence
16857 Président
547 Présidente
318 Présidents
281 Prévention
693 Prévert
265 Prévoyance
195 Prêcheurs
468 Prêtre
233 Prêtres
278 Psaume
525 Psaumes
195 Psautier
235 Psi
231 Psychanalyse
568 Psychologie
216 Psychose
305 Psyché
2441 Ptolémée
609 Pts
256 Pu
224 Pub
3257 Public
173 Publication
757 Publications
218 Publicité
509 Publics
947 Publique
596 Puccini
232 Pucelle
291 Puck
403 Puissance
278 Puissances
171 Puissant
528 Puits
410 Pullman
241 Pulse
587 Puma
255 Pumas
215 Puna
450 Punch
1871 Punk
515 Pur
635 Pure
259 Purgatoire
209 Purges
256 Put
534 Puteaux
1953 Puy
2352 Puy-de-Dôme
695 Puy-en-Velay
303 Puzzle
643 Pyongyang
373 Pyramide
290 Pyramides
466 Pyrrhus
6615 Pyrénées
2510 Pyrénées-Atlantiques
2170 Pyrénées-Orientales
671 Pythagore
1112 Python
319 Pâque
3539 Pâques
562 Pâris
345 Pèlerin
756 Pèlerinage
7382 Père
2091 Pères
305 Péan
917 Pégase
7750 Pékin
1758 Péloponnèse
1220 Péninsule
391 Pénitents
382 Pénélope
1647 Pépin
248 Pépé
228 Péri
434 Périclès
1727 Périgord
2001 Périgueux
8750 Pérou
2944 Pétain
227 Péter
184 Pétrel
202 Pétrole
524 Pêche
173 Pêches
182 Pêcheur
1702 Pô
1874 Pôle
386 QI
2024 Qatar
1036 Quai
233 Quakers
189 Qualification
477 Qualité
1581 Quand
237 Quant
304 Quantum
192 Quarante
318 Quart
231 Quarter
738 Quartet
1958 Quartier
185 Quartiers
183 Quartz
208 Quasimodo
523 Quaternaire
3369 Quatre
307 Quatre-Vingts
1541 Quatrième
243 Quattrocento
1300 Quatuor
3857 Queensland
343 Quel
268 Quelle
1571 Quentin
1121 Quercy
225 Querelle
653 Question
483 Questions
193 Queue
794 Quichotte
253 Quiet
2490 Quimper
239 Quine
3050 Quint
303 Quintet
251 Quintette
405 Quinzaine
183 Quinze
940 Quito
356 Quo
178 Quoi
587 Quotidien
53956 Québec
1353 Québécois
214 Quête
389 RA
433 RAI
322 RAID
780 RAM
3236 RDA
3690 RER
1618 RFA
1486 RI
173 RIB
239 RMI
193 ROC
466 ROM
656 RSA
359 Ra
2854 Rabat
1513 Rabbi
394 Rabbin
909 Rabelais
1772 Race
311 Racer
198 Races
2460 Rachel
1139 Rachid
457 Rachmaninov
1395 Racine
173 Racines
301 Racisme
370 Rada
287 Radar
499 Radical
221 Radicaux
13264 Radio
3028 Radio-Canada
240 Radio-France
375 Radiodiffusion
523 Rafale
694 Rage
259 Ragnarök
761 Rai
378 Raid
282 Raider
548 Raiders
1339 Rail
682 Rainer
326 Rais
780 Raison
1074 Raja
415 Rajasthan
205 Ralliement
1534 Rallye
674 Rama
417 Ramadan
1134 Rambouillet
954 Rameau
317 Rameaux
174 Rami
182 Ramona
263 Ramone
475 Ramones
1419 Ramsès
170 Ramuz
386 Rance
404 Ranch
1397 Rand
810 Range
776 Ranger
375 Rangoon
262 Rani
4425 Raoul
833 Rap
3157 Raphaël
240 Rapide
861 Rapport
243 Rare
992 Ras
2322 Rassemblement
729 Rat
965 Ratisbonne
395 Rats
187 Rauch
175 Rave
1342 Ravel
280 Ravi
12632 Raymond
267 Raymonde
342 Rayon
200 Raz
192 Razzie
1880 Reagan
1168 Rebecca
198 Rebelle
273 Recensement
3705 Recherche
1161 Recherches
396 Recife
342 Reclus
478 Reconnaissance
539 Reconquista
651 Reconstruction
1047 Record
16735 Records
260 Recouvrance
289 Recteur
695 Recueil
181 Redoutable
277 Redoute
665 Refuge
193 Reg
348 Regard
272 Regards
385 Reggae
1214 Regina
439 Registre
7068 Reich
1028 Reichstag
9268 Reims
6012 Reine
293 Reines
352 Reis
363 Relais
280 Relation
1408 Relations
271 Relief
1255 Religion
196 Religions
198 Reliques
238 Rem
223 Remarque
929 Rembrandt
566 Remix
435 Remparts
11583 Renaissance
183 Renaix
2043 Renard
3736 Renaud
519 Rencontre
1168 Rencontres
629 Rendez-vous
191 Renier
10404 Rennes
1350 Renoir
438 Renouveau
220 Renseignement
374 Renseignements
16717 René
1344 Renée
184 Repentigny
713 Report
204 Reporter
384 Reporters
186 Repos
246 Reprise
403 Représentant
879 Représentants
1010 Requiem
172 Requin
179 Respect
292 Responsable
712 Ressources
499 Resta
312 Restaurant
4416 Restauration
170 Restos
194 Retable
1856 Retour
219 Retraite
298 Retraits
1210 Retz
231 Revanche
251 Revenu
361 Revolver
6194 Revue
203 Reykjavík
1620 Reynolds
408 Rezé
8726 Rhin
226 Rhin-Rhône
1124 Rhode
3187 Rhodes
202 Rhodia
1073 Rhodésie
235 Rhum
1077 Rhénanie
3298 Rhénanie-Palatinat
1330 Rhénanie-du-Nord-Westphalie
220 Rhétorique
10048 Rhône
6312 Rhône-Alpes
224 Ri
3066 Rica
794 Ricci
26187 Richard
1539 Richards
323 Riche
3834 Richelieu
1278 Richter
3277 Rico
170 Rida
736 Ride
535 Rideau
887 Rider
184 Rides
434 Riel
804 Riemann
590 Rien
193 Ries
386 Riez
237 Rifle
213 Rifles
1913 Riga
1412 Rigaud
1146 Rimbaud
1046 Rimouski
1559 Ring
11186 Rio
182 Ripa
457 Rire
187 Ris
178 Ris-Orangis
585 Rite
252 Rites
483 Riva
224 Rivages
227 Rivas
683 Rive
217 Rive-Sud
7778 River
1320 Rivera
509 Rives
309 Rivet
211 Rivette
3290 Rivière
574 Rivière-du-Loup
684 Rivières
455 Riyad
314 Roald
1321 Roanne
2403 Rob
45553 Robert
1985 Roberts
552 Roberval
2006 Robespierre
4886 Robin
171 Robinet
3524 Robinson
495 Robot
251 Robots
636 Roc
1263 Roch
3554 Roche
209 Roche-Bernard
865 Roche-sur-Yon
3890 Rochefort
1203 Rochefoucauld
5705 Rochelle
1465 Rocher
195 Rochers
703 Roches
1176 Rocheuses
9840 Rock
431 Rocks
315 Rocque
236 Roda
229 Rode
2051 Rodez
2444 Rodolphe
403 Rodrigue
15793 Roger
536 Rogue
17186 Roi
2114 Rois
7367 Roland
351 Roller
4024 Romain
588 Romaine
10691 Romains
303 Romainville
3661 Roman
760 Romance
176 Romanche
329 Romande
179 Romane
257 Romani
1492 Romano
713 Romans
202 Romans-sur-Isère
200 Romantisme
50765 Rome
273 Romuald
756 Romulus
1177 Roméo
552 Ronan
279 Roncevaux
280 Rond
204 Rond-Point
992 Ronde
299 Rondeau
236 Rondo
2948 Roosevelt
698 Roque
251 Roquefort
355 Roques
435 Roquette
3788 Rosa
587 Rosaire
659 Rosalie
629 Rosas
6847 Rose
369 Rose-Croix
200 Roselyne
170 Roseraie
1060 Roses
289 Rosette
333 Rosie
258 Rosier
187 Rosiers
182 Rosine
174 Rosière
283 Rosières
192 Rossa
502 Rossignol
1045 Rossini
476 Rostand
257 Rota
347 Rotary
365 Rote
1197 Roth
302 Rotonde
1793 Roubaix
532 Roue
11066 Rouen
1025 Rouergue
7603 Rouge
1411 Rouges
244 Rouget
184 Rouillé
199 Roule
293 Rouleau
307 Roulers
291 Roumain
206 Roumaine
2622 Roumains
11929 Roumanie
775 Round
280 Rousse
3777 Rousseau
178 Rousses
1781 Roussillon
201 Roussin
4843 Route
422 Routes
181 Rouvres
2993 Roux
372 Rouyn-Noranda
280 Roxane
22059 Royal
4563 Royale
11324 Royaume
30454 Royaume-Uni
1733 Royaumes
208 Royaux
256 Ru
374 Ruban
1230 Rubens
302 Rubis
220 Ruche
323 Rude
1033 Rudy
3743 Rue
425 Rueil-Malmaison
233 Ruelle
3931 Rugby
973 Ruhr
422 Ruisseau
188 Rune
383 Rural
177 Rus
1396 Rush
2449 Russe
5103 Russes
44638 Russie
1658 Ruth
712 Rutherford
218 Ruthènes
212 Ruée
2791 Rwanda
178 Rwandais
3717 Ryan
272 Râle
660 Règle
552 Règlement
242 Règles
1152 Ré
332 Réaction
537 Réal
170 Réalisateur
299 Réalisation
221 Réalités
356 Rébellion
252 Récit
182 Récits
458 Récollets
222 Rédempteur
213 Rédemption
335 Réflexions
3592 Réforme
1490 Références
1080 Régence
761 Régent
798 Régie
4262 Régime
4531 Régiment
450 Régine
12002 Région
1192 Régional
729 Régionale
829 Régions
1440 Régis
975 Rémi
196 Rémus
1424 Rémy
249 Rénovation
386 Répertoire
183 Réponse
883 Républicain
303 Républicaine
2027 Républicains
76031 République
353 Républiques
3553 Réseau
300 Réseaux
1730 Réserve
188 Réserves
185 Réservoir
629 Résidence
6644 Résistance
244 Résistants
477 Résolution
725 Résultats
221 Résumé
910 Résurrection
7684 Réunion
520 Réveil
180 Réveillon
886 Révolte
32123 Révolution
346 Révolutionnaire
627 Révélation
413 Révérend
701 Rêve
397 Rêves
240 SAC
185 SAGE
227 SAMU
263 SAN
564 SARL
1640 SAS
369 SDF
385 SEC
186 SECAM
358 SIC
1274 SIDA
210 SIS
2350 SMS
964 SOS
428 SPA
6495 SS
170 STAR
543 SU
223 Sabin
991 Sabine
261 Sabins
441 Sable
603 Sables
348 Sablon
277 Sablons
559 Sablé
184 Sablé-sur-Sarthe
440 Sabre
838 Sabres
481 Sabrina
201 Sac
1653 Sacha
347 Sacre
252 Sacrement
427 Sacrifice
799 Sacré
1802 Sacré-Cœur
411 Sacrée
886 Sade
480 Safari
230 Safran
1358 Saga
1221 Sage
701 Sages
636 Sagesse
366 Sagittaire
1783 Saguenay
195 Saguenay-Lac-Saint-Jean
2817 Sahara
1114 Sahel
34870 Saint
273 Saint-Alban
192 Saint-Alexandre
445 Saint-Amand
182 Saint-Amand-les-Eaux
2410 Saint-André
336 Saint-Ange
1586 Saint-Antoine
797 Saint-Aubin
870 Saint-Augustin
1072 Saint-Barthélemy
339 Saint-Barthélémy
788 Saint-Benoît
529 Saint-Bernard
467 Saint-Blaise
266 Saint-Bonnet
259 Saint-Brice
1548 Saint-Brieuc
172 Saint-Bénigne
314 Saint-Chamond
959 Saint-Charles
822 Saint-Christophe
343 Saint-Clair
694 Saint-Claude
1750 Saint-Cloud
450 Saint-Clément
293 Saint-Cyprien
5998 Saint-Denis
184 Saint-Didier
549 Saint-Dizier
322 Saint-Dié-des-Vosges
2582 Saint-Domingue
342 Saint-Dominique
3982 Saint-Empire
2065 Saint-Esprit
543 Saint-Eustache
666 Saint-Exupéry
399 Saint-Florent
263 Saint-Florentin
1055 Saint-François
226 Saint-François-Xavier
255 Saint-Félix
237 Saint-Gabriel
1190 Saint-Gall
486 Saint-George
2790 Saint-Georges
3511 Saint-Germain
190 Saint-Germain-des-Fossés
778 Saint-Germain-des-Prés
1614 Saint-Germain-en-Laye
192 Saint-Ghislain
1472 Saint-Gilles
279 Saint-Gilles-Croix-de-Vie
283 Saint-Girons
213 Saint-Grégoire
230 Saint-Henri
212 Saint-Herblain
929 Saint-Hilaire
540 Saint-Hippolyte
652 Saint-Honoré
762 Saint-Hubert
734 Saint-Hyacinthe
234 Saint-Ignace
2905 Saint-Jacques
1827 Saint-Jacques-de-Compostelle
313 Saint-James
8177 Saint-Jean
1424 Saint-Jean-Baptiste
187 Saint-Jean-Pied-de-Port
243 Saint-Jean-sur-Richelieu
222 Saint-John
2499 Saint-Joseph
1117 Saint-Julien
447 Saint-Jérôme
722 Saint-Lambert
5562 Saint-Laurent
1783 Saint-Lazare
345 Saint-Leu
9882 Saint-Louis
532 Saint-Loup
937 Saint-Luc
483 Saint-Léger
631 Saint-Léonard
886 Saint-Lô
2432 Saint-Malo
477 Saint-Mandé
1137 Saint-Marc
554 Saint-Marcel
1095 Saint-Marin
424 Saint-Martial
6082 Saint-Martin
198 Saint-Martin-des-Champs
262 Saint-Mathieu
295 Saint-Maur-des-Fossés
1659 Saint-Maurice
4226 Saint-Michel
425 Saint-Médard
2012 Saint-Nazaire
2804 Saint-Nicolas
213 Saint-Office
1166 Saint-Ouen
195 Saint-Palais
341 Saint-Patrick
2959 Saint-Paul
226 Saint-Philippe
188 Saint-Pie-X
8672 Saint-Pierre
513 Saint-Pierre-et-Miquelon
231 Saint-Pierre-et-Saint-Paul
315 Saint-Priest
322 Saint-Père
8157 Saint-Pétersbourg
2077 Saint-Quentin
368 Saint-Quentin-en-Yvelines
599 Saint-Raphaël
985 Saint-Roch
406 Saint-Romain
240 Saint-Rémi
419 Saint-Rémy
231 Saint-Rémy-de-Provence
561 Saint-Sacrement
403 Saint-Saturnin
1511 Saint-Sauveur
184 Saint-Serge
1051 Saint-Simon
2295 Saint-Siège
242 Saint-Stanislas
238 Saint-Sylvestre
1815 Saint-Sébastien
661 Saint-Sépulcre
211 Saint-Séverin
772 Saint-Thomas
413 Saint-Trond
787 Saint-Tropez
303 Saint-Valentin
1282 Saint-Victor
1929 Saint-Vincent
296 Saint-Vincent-de-Paul
184 Saint-Vincent-et-les-Grenadines
273 Saint-Vladimir
262 Saint-Yves
6902 Saint-Étienne
9144 Sainte
1984 Sainte-Anne
609 Sainte-Barbe
192 Sainte-Baume
1277 Sainte-Catherine
388 Sainte-Chapelle
334 Sainte-Claire
315 Sainte-Colombe
2415 Sainte-Croix
459 Sainte-Cécile
215 Sainte-Famille
904 Sainte-Geneviève
210 Sainte-Geneviève-des-Bois
902 Sainte-Hélène
627 Sainte-Lucie
282 Sainte-Madeleine
581 Sainte-Marguerite
3038 Sainte-Marie
201 Sainte-Marie-Madeleine
351 Sainte-Marie-aux-Mines
265 Sainte-Marthe
216 Sainte-Maure
188 Sainte-Odile
190 Sainte-Pélagie
256 Sainte-Rose
477 Sainte-Sophie
546 Sainte-Suzanne
432 Sainte-Thérèse
483 Sainte-Trinité
210 Sainte-Victoire
197 Sainte-Élisabeth
3544 Saintes
196 Saintes-Maries-de-la-Mer
295 Sainteté
1851 Saintonge
2158 Saints
1631 Saison
436 Saisons
215 Saki
652 Sala
1069 Saladin
234 Salamandre
716 Sale
1143 Salem
913 Sales
818 Salins
179 Salins-les-Bains
1013 Salisbury
2937 Salle
497 Salles
4205 Salomon
761 Salomé
8401 Salon
356 Salon-de-Provence
964 Salonique
571 Salons
375 Salpêtrière
242 Salsa
1316 Salut
4413 Salvador
1159 Salé
898 Samantha
210 Samaritaine
374 Samaritains
474 Samba
842 Sambre
429 Sambre-et-Meuse
1081 Samedi
502 Sami
260 Samia
469 Samir
1807 Samoa
175 Samouraï
1217 Samson
212 Samu
7958 Samuel
242 Samus
276 Samy
45873 San
193 San-Antonio
190 Sana
216 Sanaa
854 Sancerre
622 Sanctuaire
525 Sanctus
1487 Sand
1035 Sandra
220 Sandre
733 Sandrine
420 Sandwich
1604 Sang
304 Sanhédrin
216 Sannois
1912 Sans
178 Sanskrit
15814 Santa
270 Santerre
4491 Santiago
4550 Santé
433 Saoudite
245 Saphir
300 Sapin
487 Sapporo
1979 Sara
2424 Saragosse
4877 Sarah
1751 Sarajevo
420 Sarcelles
4072 Sardaigne
343 Sardes
183 Sari
4979 Sarkozy
1116 Sarrasins
1964 Sarre
861 Sarrebruck
597 Sarreguemines
3437 Sarthe
1565 Sartre
244 Sartrouville
1991 Saskatchewan
567 Sassanides
177 Sassenage
1456 Satan
871 Satellite
432 Sato
1859 Saturne
216 Saturnin
602 Saul
189 Saule
2247 Saumur
298 Saunier
182 Saura
330 Saut
1115 Sauvage
325 Sauvages
207 Sauve
214 Sauvegarde
460 Sauvetages
945 Sauveur
220 Sauvé
210 Savigny-sur-Orge
14032 Savoie
346 Savoir
196 Savonarole
295 Savoyards
5531 Saxe
672 Saxe-Anhalt
326 Saxe-Cobourg
256 Saxe-Weimar
660 Saxo
346 Saxon
1134 Saxons
1143 Saïd
2421 Saône
2692 Saône-et-Loire
349 Scandinaves
1930 Scandinavie
354 Sceau
1578 Sceaux
1554 Schaerbeek
409 Schaffhouse
600 Schengen
741 Schiller
224 Schilling
194 Schiltigheim
333 Schisme
1163 Schleswig-Holstein
953 Schmitt
214 Schoenberg
552 Schopenhauer
436 Schrödinger
1073 Schubert
1176 Schumann
189 Schur
802 Schwartz
415 Schwarz
542 Schwerin
368 Schwytz
604 Schéma
5520 Science
8990 Sciences
210 Sciences-Po
661 Scientifique
331 Scientologie
970 Scipion
208 Scolaire
256 Score
638 Scorpion
567 Scorpions
485 Scots
1225 Scottish
364 Scout
869 Scouts
676 Scrabble
266 Scratch
374 Scribe
413 Sculpture
183 Scylla
398 Scythes
994 Scène
513 Scènes
213 Scénario
4170 Seattle
193 Sec
5006 Second
40513 Seconde
259 Seconds
959 Secours
2664 Secret
683 Secrets
221 Secrète
4550 Secrétaire
1194 Secrétariat
462 Secteur
1886 Section
2462 Sedan
201 Segal
6903 Seigneur
651 Seigneurie
992 Seigneurs
370 Seille
11075 Seine
366 Seine-Inférieure
2588 Seine-Maritime
2098 Seine-Saint-Denis
3091 Seine-et-Marne
1197 Seine-et-Oise
244 Sel
319 Self
238 Sella
361 Selle
203 Sellier
1018 Selon
206 Seltz
228 Selve
1731 Semaine
662 Sen
858 Senior
344 Senne
2401 Sens
189 Sensation
358 Sent
676 Sentier
236 Sentinelle
257 Sentinelles
4146 Sept
276 Sept-Îles
373 Septante
1572 Septembre
465 Septime
568 Septième
321 Seraing
586 Serbe
5018 Serbes
16781 Serbie
388 Serbie-et-Monténégro
7468 Serge
699 Sergent
308 Serment
189 Sermon
769 Serpent
1753 Serra
806 Serre
624 Serres
283 Servais
190 Servant
9551 Service
3062 Services
338 Session
459 Sessions
655 Set
1253 Seth
1153 Seuil
309 Sevran
242 Sexe
435 Sexy
998 Seychelles
223 Seyne-sur-Mer
4176 Shakespeare
3711 Shanghai
266 Shapiro
656 Shawinigan
1005 Shelley
215 Shenyang
2136 Sherbrooke
180 Sherry
703 Shetland
307 Shikoku
453 Ship
1702 Shoah
282 Shogun
212 Shogunat
251 Shoot
217 Shopping
962 Short
399 Shot
5457 Show
189 Shérif
4245 Si
400 Sibylle
4418 Sibérie
1401 Sichuan
8449 Sicile
202 Siciliens
443 Sida
236 Sidoine
428 Siegel
1456 Siegfried
1025 Siemens
2249 Sienne
4295 Sierra
514 Sieur
410 Sigebert
496 Sigma
577 Signal
564 Signature
356 Signe
261 Signes
199 Sikhs
1021 Silence
212 Silhouette
332 Sillon
201 Silurien
577 Sima
12502 Simon
3048 Simone
1099 Simple
3807 Simpson
1090 Sinaï
4222 Singapour
204 Singe
917 Singer
1039 Single
1212 Singles
230 Singleton
1949 Sion
862 Sioux
7419 Sir
585 Sire
811 Sirius
421 Sirène
177 Sisyphe
1368 Site
389 Sites
3612 Six
495 Sixième
788 Sixte
1238 Siècle
1130 Siège
424 Skate
439 Ski
1237 Skopje
386 Slash
344 Slave
1420 Slaves
227 Sleeping
298 Slovaque
511 Slovaques
6306 Slovaquie
252 Slovène
544 Slovènes
3760 Slovénie
333 Slow
486 Smart
629 Smash
286 Smiley
12387 Smith
846 Smolensk
1704 Soccer
1921 Social
938 Sociale
576 Sociales
431 Socialisme
1008 Socialiste
295 Socialistes
432 Sociologie
36890 Société
827 Sociétés
1690 Socrate
194 Soda
293 Sodome
3066 Sofia
2207 Software
371 Soi
199 Soignes
417 Soignies
178 Soins
1329 Soir
280 Soirée
206 Soirées
2041 Soissons
1754 Sol
200 Solaire
390 Solange
486 Soldat
215 Soldats
264 Sole
10620 Soleil
768 Soleure
191 Solidaire
306 Solidaires
1079 Solidarité
676 Soliman
398 Solitaire
309 Solitude
1120 Solo
659 Sologne
293 Solution
421 Solutions
212 Soma
232 Somali
1956 Somalie
188 Somalis
256 Sombre
4902 Somme
181 Sommeil
337 Sommer
694 Sommet
856 Sonate
420 Sonde
453 Songe
1173 Sonia
238 Sonnet
926 Sons
5215 Sophie
539 Soprano
5347 Sorbonne
359 Sorcier
233 Sorciers
494 Sorcière
256 Sorcières
248 Sorel-Tracy
1419 Souabe
177 Souche
274 Souda
3998 Soudan
247 Souffle
492 Souk
189 Soulages
409 Soulier
2109 Source
650 Sources
232 Sourire
591 Souris
260 Soutien
541 Souvenir
716 Souvenirs
739 Souverain
618 Soviet
255 Soviets
1295 Soviétique
2947 Soviétiques
1691 Spa
263 Spa-Francorchamps
419 Sparks
1650 Sparte
529 Spartiates
182 Spatiale
235 Speaker
429 Spectacle
365 Spectre
2202 Spencer
507 Sphinx
499 Spider
2106 Spider-Man
400 Spin
647 Spinoza
202 Spiral
653 Spire
227 Spirituel
1048 Split
6221 Sport
768 Sportif
1535 Sportive
5644 Sports
221 Spot
301 Spoutnik
587 Sprint
742 Spécial
406 Spéciale
178 Spéciales
3620 Square
2939 Sri
15663 St
207 St-Jean
264 St-Laurent
183 St-Louis
248 St-Pierre
15073 Stade
407 Staff
590 Stage
184 Stains
173 Stalag
4234 Staline
1111 Stalingrad
890 Stand
3225 Standard
398 Standards
312 Standing
2358 Stanislas
10231 Star
3523 Stars
361 Stasi
5581 State
4351 States
2982 Station
1070 Statistique
1327 Statistiques
459 Statue
572 Statut
586 Staël
3071 Stefan
1552 Stein
807 Stendhal
888 Step
784 Stephan
217 Steps
