
\data\
ngram 1=55976
ngram 2=2682

\1-grams:
1 <unk>
1 <s>
1 </s>
1 <num>
916 AB
462 ABBA
140 ACE
343 ADSL
113 AH
164 AIA
854 AIDS
277 AMA
970 AN
151 ANSI
728 API
111 ARA
137 ARIA
136 ART
133 ASCI
501 ASCII
355 ASL
279 ATI
323 Ab
165 Abano
1714 Abate
225 Abati
354 Abba
175 Abbadia
378 Abbado
938 Abbazia
120 Abbiamo
232 Abbiategrasso
137 Abbondanza
180 Abbondio
405 Abdul
512 Abeba
932 Abel
302 Abelardo
373 Abele
668 Aberdeen
122 Abete
209 Abissinia
115 Abisso
1258 Abramo
267 Abruzzese
993 Abruzzi
2593 Abruzzo
149 Acacia
311 Acapulco
5220 Accademia
111 Accademici
489 Accademico
292 Accademie
121 Acciaierie
299 Acciaio
478 Accordi
235 Accordo
113 Accorsi
181 Accra
914 Ace
224 Acerbi
165 Acerbo
200 Acerenza
248 Acerra
189 Aceto
359 Achei
3374 Achille
503 Aci
635 Acireale
1057 Acqua
101 Acquapendente
135 Acquasanta
767 Acquaviva
587 Acque
123 Acquedotto
621 Acqui
113 Acre
655 Acri
269 Acta
157 Acuto
1049 Ada
161 Adagio
549 Adalberto
146 Adama
1834 Adamo
535 Adda
235 Addestramento
391 Addio
553 Addis
843 Addison
776 Addolorata
996 Ade
2047 Adelaide
127 Adelasia
185 Adelchi
867 Adele
156 Adelina
105 Adelmo
163 Ademaro
345 Aden
112 Adeodato
165 Adesso
3812 Adige
2188 Adolfo
455 Adone
799 Adorazione
550 Adorno
197 Adrano
101 Adrasto
677 Adria
1073 Adriana
5452 Adriano
444 Adrianopoli
1055 Adriatica
2564 Adriatico
169 Adunanti
562 Aerea
155 Aeree
155 Aerei
264 Aereo
446 Aero
1985 Aeronautica
146 Aeronautiche
215 Aeronautico
879 Aeroporto
2489 Affari
112 Affondatore
1920 Afghanistan
142 Afragola
12338 Africa
485 Africana
227 Africane
128 Africani
567 Africano
881 Afrodite
143 Aga
679 Agamennone
141 Agapito
486 Agata
159 Agatocle
144 Agenda
155 Agenore
759 Agente
189 Agenti
820 Agenzia
136 Agenzie
112 Agnadello
932 Agnelli
211 Agnello
1187 Agnese
188 Agnone
138 Ago
131 Agordo
100 Agorà
206 Agosti
100 Agostina
107 Agostiniane
481 Agostiniani
3784 Agostino
1108 Agosto
192 Agra
493 Agraria
307 Agrario
102 Agrate
183 Agri
659 Agricola
388 Agricole
168 Agricolo
531 Agricoltura
1904 Agrigento
826 Agrippa
321 Agrippina
138 Agro
151 Agropoli
365 Ah
368 Aiace
908 Aida
136 Aidone
318 Aiello
232 Aimone
144 Aire
5197 Aires
183 Airone
103 Aironi
116 Aiutante
136 Aiuto
364 Ajaccio
708 Ala
925 Alabama
139 Aladino
204 Alagna
483 Alani
152 Alano
784 Alarico
1184 Alaska
181 Alassio
386 Alatri
2859 Alba
111 Albana
717 Albanese
522 Albanesi
855 Albani
2188 Albania
2021 Albano
108 Albe
683 Albenga
268 Albergo
246 Alberi
689 Alberico
320 Albero
108 Alberobello
603 Alberta
376 Albertina
325 Albertino
15265 Alberto
396 Albi
130 Albiano
123 Albina
459 Albini
942 Albino
212 Albisola
109 Albissola
286 Albo
339 Alboino
1887 Album
153 Alburni
351 Alcamo
141 Alceo
201 Alceste
263 Alcibiade
541 Alcide
171 Alcione
352 Alda
5172 Aldo
475 Alemanni
250 Alemanno
793 Aleppo
665 Alesi
1865 Alessandra
6764 Alessandria
189 Alessandrina
250 Alessandrini
238 Alessandrino
19987 Alessandro
617 Alessia
2591 Alessio
6583 Alex
2928 Alfa
362 Alfano
119 Alfeo
218 Alfiere
1271 Alfieri
539 Alfio
8032 Alfonso
4017 Alfredo
106 Algebra
1207 Algeri
2213 Algeria
839 Alghero
3004 Ali
210 Alia
827 Alias
401 Alicante
6035 Alice
224 Alida
232 Alife
1485 Alighieri
167 Alighiero
109 Alimentare
206 Alimentari
147 Alina
733 Allah
2693 Alleanza
225 Alleata
575 Alleate
3779 Alleati
329 Alleato
197 Alleghe
188 Allegoria
172 Allegra
342 Allegri
389 Allegro
528 Allenatore
748 Allievi
175 Allori
659 Alma
250 Almanacco
113 Almenno
548 Almirante
166 Aloisio
569 Alone
404 Alpe
11389 Alpi
485 Alpina
425 Alpine
982 Alpini
1162 Alpino
565 Alsazia
271 Alt
3445 Alta
468 Altamura
452 Altare
548 Altavilla
641 Alte
265 Alter
256 Alternativa
543 Alternative
641 Altezza
1089 Alti
271 Altino
118 Altissimo
4229 Alto
117 Altopascio
124 Altopiani
134 Altopiano
117 Altrove
161 Alture
754 Alvaro
472 Alvise
209 Alvito
244 Alzano
534 Alzheimer
504 Alì
137 Ama
289 Amadeo
737 Amalfi
124 Amalfitana
1098 Amalia
138 Amaltea
159 Amami
2051 Amanda
166 Amanita
246 Amantea
138 Amanti
127 Amar
129 Amara
160 Amari
217 Amaro
120 Amata
194 Amati
1032 Amato
296 Amatori
173 Amatrice
1096 Amazzoni
185 Amazzonia
100 Ambasciata
337 Ambasciatore
105 Ambasciatori
322 Ambientale
204 Ambientali
506 Ambiente
432 Ambra
1602 Ambrogio
441 Ambrosiana
263 Ambrosiano
3229 Amburgo
3567 Amedeo
1577 Amelia
199 Amelio
166 Amen
116 Ameno
24238 America
1138 Americana
317 Americane
696 Americani
850 Americano
1900 Americhe
509 Amerigo
280 Ami
173 Amica
182 Amiche
1859 Amici
318 Amicis
113 Amicizia
619 Amico
574 Amiens
446 Amilcare
185 Amintore
949 Amleto
236 Amman
143 Ammessa
316 Ammesse
337 Amministrativa
195 Amministrativo
516 Amministratore
1561 Amministrazione
195 Amministrazioni
509 Ammiraglio
146 Amo
535 Amor
1789 Amore
140 Amoretti
142 Amori
276 Amoroso
738 Amos
101 Ampezzo
4068 Amsterdam
296 Anacleto
462 Anagni
416 Analisi
100 Anarchica
715 Anastasia
695 Anastasio
728 Anatolia
321 Anatomia
195 Ancelle
4506 Ancona
438 Andalusia
124 Andante
105 Andata
1270 Ande
730 Andorra
17065 Andrea
436 Andrei
112 Andreina
658 Andria
148 Andromaca
1173 Andromeda
4332 André
1267 Anelli
474 Anello
130 Anemone
114 Anfitrione
3259 Angela
15817 Angeles
2832 Angeli
818 Angelica
493 Angelico
612 Angelina
116 Angelino
8567 Angelo
206 Angelus
114 Angera
181 Anghiari
632 Angioini
128 Angioino
256 Angiolo
277 Angiosperme
368 Angiò
138 Angli
245 Anglicana
128 Anglosassoni
818 Angola
123 Angolo
107 Angri
139 Anguilla
156 Anguillara
206 Ani
231 Aniello
461 Anima
229 Animale
250 Animali
869 Anime
133 Animoso
1262 Anita
646 Ankara
14042 Anna
114 Annabella
950 Annali
331 Annalisa
237 Annamaria
352 Annette
2363 Annibale
130 Anniversario
956 Anno
316 Annone
136 Annuario
140 Annunciata
1172 Annunciazione
1799 Annunziata
129 Annunzio
814 Anonima
124 Anonimo
715 Ansaldo
150 Anseatica
1237 Anselmo
156 Antananarivo
335 Antares
135 Antartica
199 Antartico
895 Antartide
217 Ante
215 Antemio
128 Antenati
399 Antenna
116 Antenne
142 Antenore
138 Anteo
114 Anteprima
1304 Anteriore
164 Antibes
929 Antica
130 Antiche
1153 Antichi
441 Antichità
1119 Antico
157 Antignano
306 Antigone
329 Antigono
273 Antigua
818 Antille
223 Antimafia
108 Antimo
2648 Antiochia
944 Antioco
136 Antiope
404 Antologia
1021 Antonella
1437 Antonello
1244 Antonia
1500 Antonietta
214 Antonina
1840 Antonino
31852 Antonio
340 Antropologia
195 Anulare
1976 Anversa
611 Anziani
148 Anziano
677 Anzio
1594 Aosta
861 Apache
160 Ape
112 Aperti
262 Aperto
539 Apertura
159 Api
654 Apocalisse
236 Apollinare
4349 Apollo
359 Apollonia
172 Apologia
1807 Apostoli
1276 Apostolica
105 Apostolici
451 Apostolico
908 Apostolo
134 Apoteosi
188 Apparizione
370 Appello
218 Appendice
669 Appennini
561 Appennino
1423 Appia
245 Appiani
511 Appiano
429 Appio
179 Applicata
151 Applicazione
101 Applicazioni
200 Approdo
157 Appuntamento
188 Appunti
1279 Aprile
954 Aprilia
428 Apuane
139 Apuani
218 Apulia
1105 Aquila
437 Aquile
1964 Aquileia
141 Aquilone
121 Aquilonia
377 Aquino
805 Aquisgrana
789 Aquitania
304 Ara
761 Araba
131 Arabella
3038 Arabi
1258 Arabia
125 Arabica
160 Arabico
374 Arabo
2276 Aragona
212 Aragonese
559 Aragonesi
157 Araldica
106 Araldico
111 Araldo
119 Arale
243 Aranci
180 Arancia
112 Arancio
131 Arancione
228 Ararat
226 Arata
198 Arbitri
204 Arbitro
463 Arbore
584 Arborea
136 Arbus
291 Arca
507 Arcade
490 Arcadia
417 Arcadio
205 Arcana
228 Arcangeli
2383 Arcangelo
100 Arcetri
128 Arcevia
469 Archeologia
240 Archeologica
161 Archeologici
948 Archeologico
236 Archi
110 Archibugi
875 Archimede
178 Architetti
188 Architetto
113 Architettonici
1456 Architettura
306 Archivi
1038 Archivio
134 Arcidiocesi
147 Arcidosso
122 Arciduca
164 Arcipelago
139 Arciprete
391 Arcivescovile
812 Arcivescovo
746 Arco
341 Arcobaleno
112 Arcola
119 Arcole
197 Arcore
894 Arda
420 Ardea
194 Ardeatine
126 Ardengo
1210 Ardenne
211 Ardente
494 Arditi
263 Ardito
458 Arduino
1887 Are
4689 Area
204 Aree
3013 Arena
183 Arenzano
357 Arese
362 Aretino
3126 Arezzo
212 Argenta
239 Argentario
8169 Argentina
403 Argentino
1933 Argento
1446 Argo
141 Argomenti
346 Argonauti
341 Ari
765 Aria
120 Ariana
202 Ariane
166 Ariani
752 Arianna
436 Ariano
166 Ariberto
626 Ariccia
103 Arie
989 Ariel
343 Ariete
455 Ariosto
281 Arista
522 Aristide
116 Aristodemo
402 Aristofane
2638 Aristotele
2116 Arizona
571 Arkansas
335 Arlecchino
649 Arma
2239 Armando
5660 Armata
1124 Armate
163 Armati
127 Armena
526 Armeni
1914 Armenia
234 Armeno
515 Armi
203 Armida
198 Armonia
1038 Arnaldo
272 Arnhem
740 Arno
1352 Arnoldo
738 Arnolfo
335 Aroldo
348 Arona
312 Aronne
124 Arpinati
238 Arpino
246 Arquata
138 Arrancar
1180 Arrigo
166 Arriva
145 Arrivederci
242 Arrivo
152 Arroscia
305 Arsenale
239 Arsenio
6863 Art
155 Arta
3338 Arte
840 Artemide
154 Artemio
597 Artemisia
5752 Arti
744 Artico
184 Articoli
425 Articolo
120 Artificiale
156 Artigianato
191 Artigliere
757 Artiglieria
338 Artista
723 Artisti
296 Artistica
667 Artistico
211 Artois
107 Artropodi
3023 Arturo
1804 Artù
194 Aruba
106 Arzachena
135 Arzignano
155 Asburgico
2103 Asburgo
207 Ascalona
639 Ascanio
750 Ascari
320 Ascensione
163 Asciano
191 Asclepio
2214 Ascoli
331 Asdrubale
7751 Asia
899 Asiago
143 Asiatici
316 Asiatico
110 Asilo
266 Asmara
261 Asola
280 Asolo
101 Asperger
188 Aspettando
153 Aspetti
209 Aspromonte
195 Assago
110 Assalto
417 Assassini
139 Assassinio
130 Assassino
226 Asse
138 Assedio
1250 Assemblea
242 Assemblee
106 Assemini
112 Assessorato
514 Assessore
125 Assi
313 Assia
402 Assicurazioni
335 Assiri
150 Assiria
200 Assise
1544 Assisi
172 Assist
412 Assistente
321 Assistenza
542 Asso
132 Associate
286 Associati
4704 Associazione
546 Associazioni
126 Assoluti
281 Assoluto
2502 Assunta
495 Assunzione
114 Asta
201 Astana
158 Astenuti
269 Aster
3040 Asti
318 Astolfo
136 Astorga
200 Astoria
226 Astro
108 Astrofisica
226 Astronomia
680 Astronomica
178 Astronomico
181 Atacama
456 Atalanta
404 Atanasio
133 Atelier
201 Atella
1848 Atena
8402 Atene
511 Ateneo
420 Ateniesi
142 Atessa
428 Athos
173 Atina
3074 Atlanta
541 Atlante
562 Atlantica
637 Atlantici
3678 Atlantico
1125 Atlantide
381 Atletica
434 Atletico
168 Atomo
609 Atri
108 Atripalda
148 Atta
161 Attaccante
232 Attacco
387 Attalo
135 Attenti
1370 Atti
197 Attica
196 Attico
1015 Attila
1457 Attilio
820 Attività
587 Atto
242 Attore
123 Attori
205 Attrice
339 Attualmente
353 Audace
741 Audi
624 Audio
119 Auditore
492 Auditorium
3710 Augusta
879 Auguste
432 Augusti
8280 Augusto
185 Aula
197 Aulla
190 Aura
470 Aurea
1255 Aurelia
867 Aureliano
2619 Aurelio
1464 Aurora
1096 Auschwitz
210 Ausiliatrice
153 Ausoni
139 Ausonia
174 Australe
12814 Australia
199 Australiana
182 Australiano
12054 Austria
245 Austriaca
553 Austriaci
550 Austriaco
1118 Auto
127 Autobiografia
157 Autolinee
327 Automobile
228 Automobili
1746 Autonoma
126 Autonome
203 Autonomia
232 Autonomie
140 Autonomista
413 Autonomo
237 Autore
681 Autori
207 Autoritratto
665 Autorità
295 Autostrada
270 Autostrade
208 Autunno
439 Ava
237 Avanguardia
582 Avanti
123 Avanzi
614 Avari
605 Ave
107 Avellana
2202 Avellino
308 Aventino
178 Averroè
797 Aversa
474 Avezzano
165 Aviano
376 Aviazione
210 Avicenna
170 Aviere
182 Avigliana
247 Avigliano
1413 Avignone
122 Avila
209 Avio
112 Aviotrasportata
202 Avito
438 Avogadro
167 Avola
326 Avvenire
145 Avventista
107 Avvento
152 Avventura
183 Avventure
281 Avvocati
175 Avvocato
570 Azeglio
475 Azerbaigian
227 Azerbaijan
657 Azienda
133 Aziendale
153 Aziende
912 Azione
159 Azioni
127 Azteca
489 Aztechi
198 Azzano
282 Azzo
201 Azzone
551 Azzorre
1893 Azzurra
147 Azzurre
565 Azzurri
823 Azzurro
348 BA
267 BAR
1002 BASIC
238 BBS
112 BI
272 BIOS
256 BIT
190 BO
145 BOB
403 BUS
649 Ba
834 Babbo
242 Babele
159 Babila
205 Babilonesi
1558 Babilonia
2651 Baby
102 Bacchetta
425 Baccio
586 Bacco
2822 Bach
103 Baciami
507 Bacino
106 Bacoli
480 Bacon
230 Bacone
116 Badalona
134 Badessa
120 Badge
1658 Badia
969 Badoglio
1436 Baghdad
201 Bagheria
101 Baglio
178 Bagnacavallo
698 Bagni
883 Bagno
683 Bagnoli
323 Bagnolo
216 Bagnoregio
102 Bagolino
673 Bahamas
107 Bahrein
382 Bai
2205 Baia
102 Baita
336 Balbi
863 Balbo
316 Balboa
2364 Balcani
125 Balcanica
167 Baldassare
873 Baldassarre
426 Baldi
414 Baldo
1351 Baldovino
730 Baleari
357 Balena
236 Balestra
384 Bali
394 Balilla
309 Balla
323 Ballando
141 Ballata
196 Ballerini
165 Balletti
330 Balletto
127 Balli
444 Ballo
520 Balsamo
136 Baltica
143 Baltici
2156 Baltico
977 Baltimora
382 Balzac
542 Balzo
155 Bamako
179 Bambina
355 Bambini
6831 Bambino
302 Banana
539 Banato
5863 Banca
128 Bancarella
124 Bancario
262 Banche
207 Banchi
2136 Banco
4320 Band
1938 Banda
298 Bandai
444 Bande
1701 Bandiera
410 Bandiere
154 Bando
1458 Bang
972 Bangkok
961 Bangladesh
286 Banjo
584 Banner
186 Bano
137 Bantu
1385 Bar
194 Bara
333 Baracca
117 Barassi
174 Baratta
133 Baratti
315 Barba
441 Barbados
245 Barbanera
5433 Barbara
130 Barbareschi
302 Barbari
374 Barbarigo
531 Barbaro
2296 Barbarossa
323 Barbato
650 Barbera
115 Barberi
378 Barbie
178 Barbiere
719 Barbieri
114 Barbo
159 Barbosa
141 Barbuda
497 Barca
8715 Barcellona
239 Barco
268 Bard
158 Barda
666 Bardi
222 Bardo
201 Bardolino
303 Bardonecchia
149 Bardotti
170 Baresi
204 Barga
299 Bargello
9857 Bari
155 Barile
1474 Barletta
719 Barnaba
162 Barnabiti
673 Barocco
150 Barolo
2131 Barone
189 Baronessa
772 Baroni
255 Baronia
497 Barra
101 Barracuda
327 Barre
170 Barreto
472 Barriera
549 Bartolo
103 Bartolomea
5506 Bartolomeo
918 Baschi
131 Basco
1754 Base
1254 Baseball
647 Basile
2580 Basilea
102 Basiliani
5837 Basilica
2401 Basilicata
1664 Basilio
241 Basilisco
3069 Basket
1396 Basketball
6481 Bassa
1374 Bassano
120 Basse
106 Bassetti
8016 Bassi
176 Bassiano
3171 Basso
262 Bassotti
234 Basta
128 Bastardi
195 Bastardo
975 Bastia
126 Bastian
331 Bastiano
312 Bastiglia
307 Bastione
124 Bastioni
138 Bastogne
179 Batavi
227 Batavia
774 Batista
9389 Battaglia
135 Battaglie
2441 Battaglione
171 Battaglioni
595 Batteria
681 Battesimo
11309 Battista
604 Battistero
1667 Battisti
159 Battuti
571 Bava
218 Bavarese
139 Bavari
195 Bavaro
121 Baveno
10692 Baviera
412 Bazar
3358 Be
111 Bea
644 Bear
1249 Beat
1707 Beata
226 Beati
1232 Beato
3037 Beatrice
199 Becca
747 Beccaria
139 Becco
799 Bee
1920 Beethoven
123 Befana
251 Bei
1138 Beirut
662 Bel
385 Bela
272 Belga
222 Belgi
10751 Belgio
178 Belgioioso
3109 Belgrado
220 Belinda
1041 Belisario
561 Belize
2569 Bella
105 Belladonna
240 Bellagio
114 Bellano
181 Bellavista
4785 Belle
339 Bellezza
849 Belli
2013 Bellini
166 Bellino
1057 Bello
292 Bellocchio
124 Bellona
137 Bellunesi
1864 Belluno
441 Belo
240 Beltrami
1269 Belvedere
499 Bembo
7232 Ben
1560 Bene
572 Benedetta
804 Benedetti
170 Benedettine
593 Benedettini
9795 Benedetto
122 Benedizione
1457 Benetton
3826 Benevento
1277 Bengala
746 Bengasi
1953 Beni
646 Beniamino
550 Benigni
366 Benigno
1231 Benin
1921 Benito
733 Benvenuti
548 Benvenuto
407 Beozia
1338 Beppe
336 Berardo
261 Berberi
1127 Berengario
429 Berenice
266 Bergamasca
111 Bergamasche
106 Bergamaschi
287 Bergamasco
6540 Bergamo
461 Bering
1657 Berkeley
16356 Berlino
478 Bermuda
2268 Berna
318 Bernadette
3094 Bernardino
5468 Bernardo
149 Bernesi
233 Bernina
906 Bernini
373 Bernoulli
306 Berretti
178 Bersagliere
383 Bersaglieri
481 Bersani
579 Berta
668 Berti
173 Bertinoro
246 Berto
409 Bertoldo
106 Berzo
158 Besana
104 Besozzo
935 Bestia
119 Bestie
1350 Beta
657 Betlemme
122 Betta
320 Bette
368 Betti
187 Bettina
512 Bettino
124 Bettola
211 Bezzecca
120 Bezzi
611 Bhutan
126 Bi
2658 Biagio
6406 Bianca
122 Biancavilla
352 Bianche
121 Bianchetti
3397 Bianchi
308 Bianchini
4623 Bianco
202 Bianconi
105 Biassono
4799 Bibbia
243 Bibbiena
103 Biblica
141 Biblico
214 Bibliografia
6527 Biblioteca
217 Bibliotecario
164 Biblioteche
171 Bice
304 Bicocca
1340 Biella
507 Biellese
147 Biellesi
1559 Bielorussia
103 Bielorusso
2737 Biennale
116 Biennali
107 Bienne
111 Bientina
116 Biffi
143 Bignami
127 Bignardi
210 Bikini
296 Bilancia
526 Bilancio
1158 Bilbao
112 Bimbo
107 Binasco
194 Binda
162 Bingo
263 Bini
344 Biologia
125 Bionda
483 Biondi
308 Biondo
1625 Birmania
231 Birra
182 Bis
281 Bisaccia
2144 Bisanzio
301 Biscaglia
456 Bisceglie
105 Bisenti
457 Bisenzio
1315 Bismarck
138 Bissau
292 Bit
510 Bitonto
177 Bitter
271 Bivacco
392 Bivio
104 Bizantina
2017 Bizantini
580 Bizantino
165 Bizzarri
313 Bizzarro
191 Blackout
304 Blitz
159 Blitzkrieg
649 Blocco
2355 Blu
5861 Blue
3289 Blues
150 Bluff
1024 Bo
249 Boa
314 Boario
7448 Bob
831 Bocca
1027 Boccaccio
417 Bocche
106 Boccherini
204 Bocchetta
575 Bocconi
127 Bodoni
827 Body
268 Boe
4369 Boemia
194 Boeri
245 Boezio
113 Boffalora
154 Bogliasco
288 Bogotà
152 Boiardo
116 Bojano
121 Bolero
275 Bolivar
2900 Bolivia
115 Boliviano
668 Bolla
142 Bollate
135 Bollati
119 Bolle
379 Bollettino
21732 Bologna
440 Bolognese
277 Bolognesi
385 Bolognini
112 Bolscevichi
349 Bolsena
4797 Bolzano
308 Bomba
138 Bombardamento
104 Bombardieri
836 Bona
111 Bonaccorsi
4440 Bonaparte
207 Bonaria
798 Bonaventura
120 Bondeno
121 Bondo
100 Bonfiglio
2940 Bonifacio
199 Bonifica
298 Bonito
1005 Bonn
1036 Bono
338 Bonus
646 Boom
246 Boomerang
210 Boot
439 Bora
3252 Borbone
810 Borboni
2204 Bordeaux
235 Bordighera
119 Bordone
166 Borea
182 Borgata
1527 Borghese
390 Borghetto
514 Borghi
4810 Borgo
4991 Borgogna
106 Borgognoni
174 Borgomanero
124 Borgosesia
2374 Boris
682 Bormida
410 Bormio
871 Borneo
109 Boro
125 Borri
2133 Borromeo
1634 Borsa
547 Borsellino
263 Bortolo
107 Boschetti
148 Boschetto
370 Boschi
3126 Bosco
566 Bosforo
3067 Bosnia
202 Bosone
1036 Boss
846 Bossi
107 Bosso
6119 Boston
370 Botanica
328 Botanico
2403 Botswana
308 Botta
221 Bottai
132 Botte
332 Bottega
140 Botteghe
151 Botti
630 Botticelli
159 Botticino
104 Botto
386 Bourbon
109 Boves
136 Bovino
106 Bovolone
189 Bowling
1430 Box
126 Boxe
437 Boxer
5025 Boy
138 Bozzetto
104 Bozzi
113 Bozzo
133 Bozzolo
457 Bra
902 Brabante
209 Bracci
113 Bracciali
416 Bracciano
1122 Braccio
297 Bracco
154 Brachiceri
637 Braga
545 Braganza
138 Braies
620 Bramante
474 Branca
282 Brancaleone
537 Branco
2120 Brandeburgo
275 Brandi
672 Brando
217 Brandy
21497 Brasile
283 Brasilia
208 Brasiliana
227 Brasiliano
1203 Bratislava
209 Brava
373 Brave
904 Bravo
115 Brazzaville
230 Breakfast
147 Breccia
584 Brecht
1616 Breda
1366 Brema
468 Brembana
105 Brembilla
453 Brembo
831 Brennero
218 Brenno
1158 Brenta
10061 Brescia
191 Bresciana
162 Bresciani
248 Bresciano
829 Breslavia
881 Bressanone
149 Bresso
16540 Bretagna
176 Bretoni
599 Breve
127 Brevetti
1785 Brianza
130 Bricherasio
266 Bride
2071 Bridge
387 Briga
131 Brigadiere
263 Briganti
4692 Brigata
1829 Brigate
413 Brigida
124 Brigitta
124 Brignano
103 Brilli
3703 Brindisi
124 Brinzio
2164 Bristol
275 Britanni
1527 Britannica
391 Britanniche
240 Britannici
1349 Britannico
208 Brivio
166 Brizio
637 Brno
119 Broccoli
116 Broglio
181 Broletto
152 Brolo
215 Bronco
161 Broni
186 Bronzino
1344 Bronzo
172 Bruco
163 Brugnato
342 Bruna
100 Brunate
486 Brunei
771 Brunelleschi
199 Brunello
151 Brunetta
182 Brunetti
124 Brunetto
658 Bruni
355 Brunico
153 Brunilde
8854 Bruno
116 Brusca
104 Bruschi
127 Brusco
120 Brute
802 Bruto
4134 Bruxelles
102 Buca
1955 Bucarest
144 Buco
3078 Budapest
2324 Buddha
1756 Buddhismo
232 Buddismo
174 Budrio
173 Bue
5105 Buenos
128 Bufalini
244 Bufalo
1573 Buffalo
356 Bug
113 Buggiano
179 Buglione
106 Buglioni
185 Buie
418 Buio
565 Bulgari
4607 Bulgaria
184 Bulgaro
267 Bulldog
358 Bunker
1102 Buon
951 Buona
100 Buonanotte
756 Buonarroti
190 Buongiorno
143 Buoni
733 Buono
236 Burano
122 Buratti
2907 Bureau
700 Burgos
506 Burgundi
157 Burgundia
976 Burkina
227 Burma
115 Burnside
147 Burri
159 Burrone
659 Burundi
630 Bus
177 Busalla
211 Busca
190 Buscemi
202 Busi
1659 Business
146 Bussero
212 Busseto
111 Bussi
110 Busso
179 Bussola
208 Busta
1379 Busto
837 By
1081 Byron
564 CA
735 CC
138 CCC
131 CCI
12339 CD
181 CDI
1284 CE
120 CECA
719 CEE
160 CFC
1140 CIO
384 CL
892 CM
294 CNN
583 CNR
888 CO
894 CONI
239 CPC
2906 CPU
221 CSM
9739 CV
121 CX
1530 Ca
194 Cab
267 Cabala
255 Caballero
111 Cabana
331 Cabaret
258 Cabernet
151 Cabiria
139 Caboto
140 Cabriolet
1251 Caccia
124 Cacciata
309 Cacciatore
717 Cacciatori
343 Cacciatorpediniere
466 Cacciatrice
132 Cacciatrici
163 Cactus
192 Cade
150 Cadetti
1205 Cadore
368 Caduta
603 Caduti
849 Caffè
503 Cagli
6947 Cagliari
463 Caino
762 Caio
3051 Cairo
568 Cala
112 Calabra
407 Calabrese
297 Calabresi
9976 Calabria
527 Calabro
3162 Calais
129 Calci
193 Calciatore
190 Calciatori
103 Calcinaia
6954 Calcio
117 Calcistica
169 Calcolo
724 Calcutta
130 Caldei
107 Caldera
172 Calderone
330 Cale
637 Caledonia
940 Calendario
162 Calende
131 Calenzano
593 Cali
296 Calice
284 Califfato
457 Califfo
16715 California
530 Caligola
115 Calipso
100 Calizzano
485 Calle
192 Callimaco
300 Calliope
1118 Callisto
588 Calogero
402 Calore
581 Caltagirone
1136 Caltanissetta
640 Calvario
976 Calvi
195 Calvinismo
1100 Calvino
292 Calvisano
950 Calvo
260 Calò
146 Camaldolesi
150 Camaleonte
126 Camaleonti
117 Camara
111 Cambi
553 Cambio
1455 Cambogia
455 Cambriano
3788 Cambridge
13228 Camera
228 Camerata
871 Camere
121 Cameri
416 Camerini
847 Camerino
210 Camerlengo
1595 Camerun
235 Camicia
167 Camicie
1080 Camilla
452 Camilleri
565 Camino
399 Cammino
252 Camogli
921 Camonica
189 Camorra
2817 Campagna
166 Campagnola
116 Campagnolo
779 Campana
106 Campane
481 Campanella
116 Campani
5283 Campania
610 Campanile
269 Campano
146 Campanula
1586 Campi
332 Campidano
1329 Campidoglio
244 Campiello
7822 Campionati
16595 Campionato
2895 Campione
109 Campionessa
3667 Campioni
5362 Campo
1102 Campobasso
100 Campoformido
254 Campoformio
104 Camporeale
200 Camposampiero
218 Camposanto
558 Campus
136 Camuno
330 Camus
16828 Canada
290 Canadese
157 Canadesi
7455 Canale
220 Canaletto
427 Canali
1193 Canarie
844 Canavese
524 Canberra
408 Cancelleria
1465 Cancelliere
120 Cancellieri
282 Cancello
210 Cancri
430 Cancro
110 Candace
145 Candela
121 Candelora
209 Candice
370 Candida
123 Candide
580 Candido
1019 Cane
105 Canea
124 Canegrate
106 Canevari
145 Canfora
331 Cani
237 Canicattì
244 Canino
220 Canio
212 Cannabis
482 Canne
242 Canneto
245 Cannone
175 Canoa
856 Canone
394 Canonica
569 Canonici
379 Canonico
209 Canopo
378 Canosa
737 Canossa
359 Canottieri
714 Canova
153 Canta
222 Cantata
1615 Canterbury
570 Canti
110 Cantici
265 Cantico
489 Cantiere
581 Cantieri
191 Cantina
161 Cantini
1373 Canto
6489 Canton
5054 Cantone
720 Cantoni
169 Cantore
154 Cantori
833 Cantù
432 Canuto
1028 Canyon
228 Canzo
1179 Canzone
728 Canzoni
375 Canzoniere
243 Caorle
1013 Caos
154 Capa
181 Capaci
178 Capalbio
375 Capanna
191 Capanne
1190 Cape
379 Capelli
607 Capello
114 Capena
109 Capestrano
482 Capi
171 Capirossi
1735 Capitale
103 Capitana
373 Capitanata
170 Capitaneria
596 Capitani
3799 Capitano
329 Capitolare
326 Capitoli
199 Capitolina
181 Capitolini
321 Capitolino
1887 Capitolo
11619 Capo
726 Capodanno
645 Capodimonte
112 Capogruppo
170 Capoluogo
562 Capone
153 Capote
131 Cappa
918 Cappadocia
5800 Cappella
157 Cappellano
144 Cappelle
139 Cappelletti
268 Cappelli
193 Cappellini
694 Cappello
573 Capponi
190 Cappuccetto
1420 Cappuccini
100 Cappuccio
629 Capra
262 Capraia
151 Caprara
102 Caprarola
223 Caprera
1424 Capri
161 Capriccio
314 Capricorno
121 Caprino
178 Caprioli
1099 Caproni
2399 Capua
714 Cara
315 Carabiniere
2892 Carabinieri
707 Caracalla
940 Caracas
2286 Caraibi
153 Carate
1516 Caravaggio
274 Caravan
333 Carbonara
424 Carbone
214 Carboneria
592 Carboni
392 Carbonia
460 Carbonifero
119 Carcare
232 Carcere
174 Carceri
888 Card
220 Cardano
120 Cardeto
1093 Cardiff
438 Cardinal
1853 Cardinale
335 Cardinali
143 Cardini
180 Cardo
1234 Carducci
331 Care
131 Carella
523 Carena
417 Cargo
126 Cari
316 Caria
121 Cariati
128 Cariddi
127 Carina
379 Carini
180 Carino
1123 Carinzia
354 Carioca
1367 Carità
1729 Carla
158 Carletto
103 Carlina
131 Carlini
504 Carlino
558 Carlisle
51870 Carlo
169 Carloforte
214 Carlomagno
1767 Carlotta
443 Carmela
146 Carmelita
196 Carmelitane
494 Carmelitani
1981 Carmelo
2374 Carmen
191 Carmina
2913 Carmine
154 Carne
155 Carnera
1453 Carnevale
456 Carnia
203 Carniche
161 Carnico
788 Caro
121 Carola
340 Carole
5239 Carolina
176 Carolingi
151 Carona
288 Caronte
442 Carosello
709 Carpazi
127 Carpenedolo
1218 Carpi
164 Carpino
121 Carranza
2472 Carrara
294 Carraresi
700 Carretto
185 Carri
376 Carro
131 Carroccio
218 Carrozzeria
215 Carré
700 Carso
2311 Carta
2262 Cartagine
853 Cartaginesi
509 Carte
185 Cartello
752 Cartesio
120 Carucci
15311 Casa
915 Casablanca
2685 Casale
111 Casaletto
338 Casali
202 Casalmaggiore
460 Casaloldo
848 Casanova
310 Casata
515 Casati
676 Casato
249 Cascata
303 Cascate
468 Casciano
1122 Cascina
301 Cascine
191 Cascio
2156 Case
539 Casella
232 Caselle
485 Caselli
282 Casentino
436 Caserma
2311 Caserta
258 Casertana
103 Casetta
699 Casimiro
184 Casina
475 Casini
1014 Casino
471 Casinò
531 Caso
142 Casone
175 Casoni
104 Casotto
742 Caspio
1568 Cassa
102 Cassala
730 Cassandra
982 Cassano
122 Cassaro
1649 Cassazione
184 Casse
209 Cassero
488 Cassia
454 Cassiano
637 Cassie
283 Cassina
506 Cassini
810 Cassino
818 Cassio
335 Cassiopea
201 Cast
106 Casta
391 Castagna
210 Castagneto
216 Castagno
102 Castagnola
121 Castagnole
104 Castaldi
126 Castano
148 Casteggio
5723 Castel
173 Castelbuono
194 Castelfiorentino
722 Castelfranco
142 Castellaccio
1176 Castellammare
150 Castellamonte
716 Castellana
630 Castellani
713 Castellano
183 Castellanza
147 Castelleone
602 Castelletto
2938 Castelli
123 Castellini
13217 Castello
120 Castellucci
1516 Castelnuovo
133 Castelsardo
115 Castelseprio
6343 Castiglia
2244 Castiglione
155 Castione
171 Casto
399 Castore
283 Castra
155 Castri
2775 Castro
149 Cataclisma
110 Catacombe
196 Catalana
208 Catalani
294 Catalano
629 Cataldo
586 Catalina
3011 Catalogna
690 Catalogo
120 Catanese
8649 Catania
2503 Catanzaro
139 Catari
598 Catarina
313 Catasto
236 Catch
264 Catechismo
3554 Categoria
102 Catello
1302 Catena
119 Catene
9061 Caterina
206 Caterpillar
318 Catilina
797 Catone
961 Cattaneo
366 Cattedra
5729 Cattedrale
106 Cattivi
3794 Cattolica
487 Cattolicesimo
593 Cattolici
448 Cattolico
129 Cattura
304 Catullo
1988 Caucaso
116 Caudina
104 Caulonia
339 Cause
1260 Cava
319 Cavalcanti
117 Cavalese
358 Cavalier
4386 Cavaliere
4394 Cavalieri
128 Cavallaro
204 Cavalleggeri
1231 Cavalleria
100 Cavallero
860 Cavalli
151 Cavallina
218 Cavallini
292 Cavallino
1114 Cavallo
944 Cave
175 Caverna
102 Caviglia
276 Cavo
2529 Cavour
340 Cd
445 Ce
9632 Ceca
344 Cecchini
158 Cece
425 Cecenia
120 Cechov
116 Ceci
3097 Cecilia
362 Cecilio
626 Cecina
109 Ceco
2772 Cecoslovacchia
461 Cefalù
351 Celano
181 Celere
967 Celeste
116 Celesti
120 Celestina
271 Celestini
879 Celestino
104 Celi
277 Celia
565 Celio
251 Cella
456 Celle
228 Celsius
701 Celso
312 Celta
930 Celti
124 Cemento
2119 Cena
309 Cenacolo
332 Cenci
848 Cenerentola
196 Ceneri
169 Cenni
227 Cenozoico
360 Censimento
105 Censore
174 Centaurea
456 Centauri
620 Centauro
387 Centenario
1132 Cento
338 Centrafricana
9530 Centrale
509 Centrali
531 Centri
474 Centrino
15325 Centro
166 Centurione
127 Centuripe
177 Ceppo
111 Ceprano
190 Cerami
249 Ceramica
110 Ceramiche
149 Cerano
160 Cerbero
151 Cercatore
208 Cerchi
103 Cerchia
283 Cerchio
314 Cerda
139 Cerea
111 Cerezo
107 Ceri
396 Cerignola
206 Cerimonia
132 Cerimoniale
108 Cerimonie
116 Cernusco
134 Cerretani
1182 Cerreto
237 Cerri
1023 Cerro
255 Certaldo
106 Certificate
104 Certificato
132 Certificazione
1068 Certosa
483 Cervantes
248 Cerveteri
494 Cervi
488 Cervino
578 Cervo
234 Cesana
348 Cesano
14127 Cesare
1224 Cesarea
249 Cesareo
490 Cesari
247 Cesario
2802 Cesena
266 Cesenatico
116 Cesira
158 Cetacei
347 Ceti
118 Ceto
703 Cetra
796 Champagne
480 Chance
555 Charleston
2820 Charlotte
164 Charter
172 Check
399 Chef
225 Cheope
437 Cherubini
160 Cherubino
2325 Chi
635 Chiana
1129 Chianti
2963 Chiara
678 Chiari
182 Chiarini
192 Chiaro
394 Chiasso
273 Chiave
321 Chiavenna
112 Chic
9511 Chicago
168 Chicco
580 Chieri
287 Chierici
120 Chierico
47115 Chiesa
134 Chiesanuova
2378 Chiese
176 Chiesetta
2038 Chieti
1013 Chievo
575 Chili
233 Chimera
720 Chimica
1362 China
260 Chini
227 Chino
391 Chio
223 Chiocciola
125 Chiodi
193 Chiodo
713 Chioggia
155 Chioma
345 Chiostro
367 Chip
701 Chirurgia
220 Chitarra
286 Chiusa
608 Chiusi
270 Chivasso
730 Chopin
5520 Christian
1807 Churchill
250 Châtillon
724 Ci
872 Ciad
196 Cialdini
210 Ciambellano
893 Ciampi
456 Ciampino
140 Ciani
630 Ciano
836 Ciao
170 Cicala
966 Ciccio
2132 Cicerone
104 Ciclismo
143 Ciclista
374 Ciclistica
1035 Ciclo
111 Ciclone
657 Ciclope
170 Ciclopi
226 Cicogna
138 Cieco
227 Ciel
232 Cieli
1474 Cielo
701 Cigno
247 Cigoli
6326 Cile
104 Cilena
216 Cileno
679 Cilento
1745 Cima
342 Cimabue
340 Cime
395 Cimino
1821 Cimitero
18144 Cina
208 Cincinnato
4078 Cinema
456 Cinematografia
484 Cinematografica
110 Cinematografici
2343 Cinese
508 Cinesi
222 Cineteca
125 Cingoli
100 Cinico
281 Cinisello
113 Cinisi
398 Cino
859 Cinquanta
2886 Cinque
4986 Cinquecento
112 Cinto
378 Cintura
489 Cinzia
310 Cipolla
135 Cipollini
377 Cipriani
3318 Cipro
428 Circe
363 Circeo
843 Circo
229 Circolare
162 Circoli
2332 Circolo
134 Circoncisione
975 Circondario
205 Circonvallazione
728 Circoscrizione
141 Circuiti
1895 Circuito
266 Circumvesuviana
719 Cirenaica
403 Ciriaco
756 Cirillo
118 Cirino
1401 Ciro
146 Cirò
960 Cisalpina
454 Cisgiordania
129 Cispadana
182 Cistercensi
363 Cisterna
153 Citeriore
1505 Cittadella
238 Cittadini
316 Cittadino
175 Cittanova
13812 Città
17819 City
263 Civetta
1174 Civica
206 Civici
1261 Civico
547 Cividale
108 Cividate
2695 Civile
174 Civili
684 Civiltà
639 Civita
1062 Civitavecchia
287 Cl
2306 Claire
1664 Clan
1838 Clara
852 Clarence
107 Claretta
229 Clarice
186 Clarissa
350 Clarisse
4695 Classe
313 Classica
330 Classici
111 Classicismo
1045 Classico
475 Classifica
247 Classificazione
3004 Claudia
123 Claudiano
9364 Claudio
680 Clausura
126 Clavesana
343 Clelia
6021 Clemente
269 Clementi
376 Clementina
188 Clementine
176 Clementino
177 Clemenza
1252 Cleopatra
291 Clero
182 Cles
145 Cleto
2649 Cleveland
157 Click
103 Clima
173 Climatico
211 Climax
532 Clinica
399 Clodoveo
145 Clone
378 Cloni
124 Clorinda
245 Cloro
298 Clotilde
428 Clown
22822 Club
159 Clusone
136 Cluster
2581 Co
329 Coach
426 Coalizione
778 Cobra
357 Coca
162 Cocchi
177 Coccia
274 Cocco
226 Cocker
131 Cocktail
259 Coda
1000 Code
3841 Codice
151 Codici
107 Codroipo
127 Cognac
300 Cogne
197 Cogoleto
1407 Col
839 Cola
276 Colchide
2119 Cole
254 Coleotteri
180 Coleottero
163 Colico
362 Colla
407 Collana
105 Collare
4668 Colle
248 Colleferro
106 Collegamenti
9998 College
134 Collegi
866 Collegiata
138 Collegiate
4975 Collegio
183 Collegno
169 Collesalvetti
117 Collesano
161 Colletta
223 Collettivo
798 Collezione
2028 Colli
115 Collider
136 Collie
223 Collier
791 Collina
896 Colline
254 Collodi
165 Colmar
223 Colo
154 Cologne
233 Cologno
362 Colomba
1060 Colombano
120 Colombe
5284 Colombia
110 Colombiano
4180 Colombo
222 Colon
139 Coloni
4403 Colonia
227 Coloniale
471 Colonie
4162 Colonna
326 Colonne
1393 Colonnello
646 Color
3255 Colorado
116 Colori
559 Colosseo
310 Colosso
107 Colpi
492 Colpo
346 Colui
5368 Columbia
140 Coma
356 Comacchio
2510 Comandante
132 Comandanti
156 Comandi
3594 Comando
485 Combattenti
427 Combattimento
195 Combine
240 Comense
436 Cometa
208 Comfort
115 Comi
144 Comico
224 Comino
1642 Comitati
10717 Comitato
403 Commando
1570 Commedia
184 Commenda
434 Commendatore
106 Commentari
117 Commentario
139 Commento
667 Commerciale
2212 Commercio
196 Commissari
495 Commissariato
1980 Commissario
11640 Commissione
457 Commissioni
425 Commodo
143 Commodoro
1888 Commonwealth
6025 Como
322 Comore
327 Compact
368 Compagni
7571 Compagnia
907 Compagnie
202 Compagno
203 Compagnoni
188 Compartimento
196 Compasso
123 Compendio
145 Competizione
298 Compianto
225 Compilation
604 Complesso
357 Complete
402 Composizione
163 Comprensivo
110 Comprensorio
191 Compromesso
1941 Computer
4307 Comunale
171 Comunali
15310 Comune
3295 Comuni
735 Comunicazione
612 Comunicazioni
675 Comunione
171 Comunismo
5502 Comunista
652 Comunisti
111 Comunitaria
117 Comunitario
7546 Comunità
770 Conca
311 Concerti
1755 Concerto
102 Concesio
206 Concetta
163 Concetto
1432 Concezione
109 Concili
195 Conciliazione
4934 Concilio
102 Concistoriale
131 Concistoro
235 Conclave
523 Concordato
407 Concorde
966 Concordia
1348 Concorso
140 Conde
518 Condor
887 Conegliano
135 Conestabile
171 Confederata
122 Confederate
575 Confederati
135 Confederato
3699 Confederazione
3165 Conferenza
186 Conferenze
299 Confessione
205 Confessioni
217 Confessore
516 Confindustria
264 Confine
186 Confini
161 Conflitto
173 Conforti
116 Conforto
1831 Confraternita
234 Confraternite
105 Confucianesimo
270 Confucio
261 Congiura
3033 Congo
163 Congrega
3973 Congregazione
133 Congregazioni
414 Congressi
8703 Congresso
122 Coni
262 Coniglio
2002 Connecticut
113 Connestabile
186 Cono
110 Conone
228 Conoscenza
261 Conquista
478 Conquistatore
145 Consalvo
428 Conservatore
517 Conservatori
3977 Conservatorio
295 Conservazione
551 Consigli
1421 Consigliere
238 Consiglieri
24800 Consiglio
137 Consolata
265 Consolato
329 Consolazione
664 Console
611 Consoli
125 Consorte
125 Consorzi
1854 Consorzio
171 Consuelo
102 Consulente
781 Consulta
220 Consumatori
120 Consumo
144 Contadini
340 Contado
8256 Conte
12493 Contea
124 Contee
940 Contemporanea
114 Contemporaneo
130 Contender
1083 Contessa
3849 Conti
277 Continentale
431 Continente
404 Contini
336 Continua
236 Contra
1318 Contrada
302 Contrade
106 Contrammiraglio
232 Contratto
113 Controcampo
122 Controllata
656 Controllo
472 Controriforma
496 Convegno
810 Convention
1832 Convento
279 Conventuali
3197 Convenzione
125 Convenzioni
510 Conversano
124 Conversazione
165 Conversione
244 Convitto
118 Convivio
1565 Cook
636 Cooperativa
231 Cooperative
228 Cooperativo
469 Cooperazione
421 Coordinamento
268 Coordinatore
2309 Copenaghen
377 Copernico
180 Copertino
47319 Coppa
4044 Coppe
579 Coppi
113 Coppo
1072 Coppola
144 Copyright
235 Coraggio
112 Coraggioso
383 Corale
149 Coralli
215 Corallo
1175 Corano
181 Corato
290 Corazzata
155 Corazziere
435 Corbetta
114 Corda
419 Cordelia
382 Cordigliera
1092 Cordova
1659 Core
7073 Corea
886 Corfù
268 Cori
172 Corinna
1157 Corinto
284 Corinzi
192 Coriolano
844 Corleone
170 Corna
563 Cornelia
1666 Cornelio
603 Corner
127 Corni
1421 Corno
1182 Cornovaglia
1400 Coro
106 Corolla
3960 Corona
200 Coronado
208 Corone
618 Corpi
8332 Corpo
323 Corporazione
289 Corporazioni
1206 Corpus
219 Corradini
4476 Corrado
153 Corre
156 Correa
1214 Correggio
386 Corrente
109 Correnti
165 Correr
274 Corridoio
3919 Corriere
870 Corsa
136 Corsari
245 Corsaro
583 Corse
811 Corsi
3801 Corsica
119 Corsico
3591 Corso
11538 Corte
136 Cortemilia
132 Corteo
517 Cortese
119 Cortesi
953 Corti
267 Cortile
1631 Cortina
446 Corto
927 Cortona
286 Corvette
202 Corvi
364 Corvino
600 Corvo
1610 Cosa
152 Cosacchi
196 Coscienza
201 Cose
259 Cosentino
3107 Cosenza
157 Cosette
204 Cosima
3316 Cosimo
721 Cosma
115 Cosmico
564 Cosmo
161 Cossato
119 Cosseria
574 Cossiga
127 Cosso
8625 Costa
698 Costante
253 Costantina
5764 Costantino
8343 Costantinopoli
2600 Costanza
3109 Costanzo
255 Coste
560 Costello
583 Costiera
1183 Costituente
1130 Costituzionale
165 Costituzionali
6598 Costituzione
300 Costituzioni
344 Costruttori
468 Costruzioni
177 Costume
969 Così
157 Cotonificio
252 Cotta
171 Cottage
133 Cotto
141 Coulomb
1605 Country
293 Courmayeur
170 Cova
103 Covo
404 Cowboy
151 Coyote
394 Cozie
170 Cozzi
186 Cozzo
124 Crack
1488 Cracovia
641 Crasso
149 Cratere
148 Crea
493 Cream
674 Creative
415 Creatore
184 Creature
587 Creazione
140 Credenti
123 Credi
690 Credito
458 Credo
1089 Crema
169 Cremano
118 Cremasco
717 Cremlino
3778 Cremona
995 Cremonese
105 Cremonesi
207 Crepuscolo
102 Crescentino
203 Crescenzio
336 Crescenzo
133 Creso
510 Crespi
172 Crespo
208 Cresta
2266 Creta
2252 Cretaceo
245 Cretacico
129 Crevalcore
740 Cricket
1947 Crimea
174 Criminale
204 Crimine
167 Crimini
266 Cripta
113 Crisafulli
1553 Crisi
316 Crisostomo
183 Crispino
809 Cristallo
471 Cristian
3005 Cristiana
188 Cristiane
3609 Cristianesimo
1105 Cristiani
280 Cristianità
3345 Cristiano
4678 Cristina
17146 Cristo
2901 Cristoforo
985 Critica
611 Crivelli
153 Croata
541 Croati
171 Croato
4878 Croazia
110 Croccolo
11869 Croce
219 Crocefissione
269 Crocefisso
357 Crocetta
543 Croci
1055 Crociata
381 Crociate
691 Crociati
169 Crociera
213 Crociere
1244 Crocifissione
2229 Crocifisso
164 Croda
102 Croma
1084 Cronaca
1000 Cronache
199 Cronica
365 Crono
167 Cronologia
154 Croquet
2331 Cross
1622 Crotone
853 Crown
830 Crucis
115 Crudele
368 Cruiser
392 Crusca
4303 Cuba
280 Cubo
241 Cucchi
106 Cucciolo
189 Cucco
180 Cucina
337 Culto
3214 Cultura
1238 Culturale
1111 Culturali
990 Culture
165 Cumana
123 Cunegonda
2515 Cuneo
116 Cuoco
228 Cuor
3643 Cuore
419 Cuori
137 Cupa
349 Cupido
243 Cupola
268 Cura
130 Curdi
1851 Cure
177 Curi
1589 Curia
253 Curie
221 Curling
275 Curry
509 Curva
105 Curve
273 Curzio
383 Cusano
269 Cusio
463 Custode
185 Custodi
101 Custodia
169 Cv
6707 DC
249 DEA
399 DG
359 DL
536 DM
6098 DNA
221 DO
555 DOP
468 DPR
397 DR
167 DV
11488 DVD
376 DX
985 Dacia
313 Dada
168 Dado
212 Dafne
267 Dagoberto
1114 Dakar
1757 Dakota
124 Dalia
226 Dalila
3266 Dallas
104 Dalmata
125 Dalmati
2640 Dalmazia
144 Dalmazio
185 Dalmine
614 Dama
1750 Damasco
330 Damaso
1094 Dame
2114 Damiano
989 Dana
2785 Dance
423 Dandolo
132 Dandy
330 Danese
326 Danesi
1077 Daniela
4693 Daniele
1194 Danilo
8054 Danimarca
7449 Dante
134 Danti
3404 Danubio
788 Danza
107 Danze
984 Danzica
112 Danzo
553 Dar
545 Dardanelli
228 Dardo
224 Dare
285 Daria
3216 Dario
197 Darla
171 Darsena
1611 Darwin
2838 Data
426 Database
362 Date
335 Dati
124 Davanti
106 Daverio
4131 Davide
5402 Day
295 Dc
40735 De
991 Dea
373 Debian
233 Debora
786 Deborah
169 Decade
196 Decano
345 Decima
361 Decimo
133 Decimomannu
273 Decisione
108 Decreti
2805 Decreto
272 Dedalo
1406 Dee
180 Deimos
902 Delaware
514 Delegato
711 Delegazione
148 Delfico
241 Delfina
436 Delfinato
136 Delfini
970 Delfino
1136 Delhi
521 Delia
262 Delio
108 Delirio
105 Delirium
251 Delitti
272 Delitto
153 Delizia
2737 Delta
304 Demanio
533 Demetra
1156 Demetrio
129 Demiurgo
349 Demo
3023 Democratica
2094 Democratici
4607 Democratico
2839 Democrazia
240 Democrito
478 Demone
371 Demoni
124 Denaro
341 Denominazione
230 Dente
156 Denti
269 Dentro
139 Depero
107 Depositi
449 Deposito
708 Deposizione
215 Depressione
1040 Deputati
377 Deputato
386 Deputazione
1906 Derby
240 Descrizione
241 Desdemona
635 Deserto
159 Desideri
851 Desiderio
2016 Design
118 Designer
521 Desio
287 Desktop
103 Destinazione
882 Destino
894 Destra
107 Destro
941 Detective
164 Deuteronomio
372 Deva
236 Devi
149 Devo
423 Devoniano
136 Devoto
158 Dia
530 Diacono
137 Diaframma
119 Dialetto
276 Dialoghi
400 Dialogo
987 Diamante
309 Diamanti
116 Dian
3807 Diana
987 Diane
125 Dianne
520 Diano
143 Diari
922 Diario
116 Diaspora
362 Diavoli
1303 Diavolo
1124 Dicembre
1305 Dichiarazione
237 Didone
884 Dieci
6856 Diego
256 Dies
1244 Diesel
965 Dieta
268 Dietro
300 Difensore
195 Difensori
3756 Difesa
708 Differenza
126 Diffusione
472 Diga
117 Digesto
526 Digione
233 Digitale
126 Digitali
1779 Dilettanti
407 Dilettantistica
135 Diliberto
276 Diluvio
375 Dimensione
149 Dimmi
359 Dina
116 Dinamite
2412 Dinamo
1266 Dinastia
133 Dine
2965 Dino
111 Dinosauri
27877 Dio
499 Diocesano
2304 Diocesi
1709 Diocleziano
424 Diodoro
424 Diogene
523 Diomede
886 Dionigi
867 Dionisio
890 Dioniso
145 Dionne
233 Dipartimenti
7288 Dipartimento
451 Diploma
130 Diplomatico
291 Diptera
133 Dir
316 Dire
338 Director
163 Directory
243 Diretta
136 Direttissima
593 Direttiva
436 Direttivo
3610 Direttore
192 Direttori
808 Direttorio
103 Direzionale
2088 Direzione
247 Direzioni
350 Dirigente
889 Diritti
2011 Diritto
162 Disastro
662 Disc
152 Discesa
677 Dischi
268 Disciplina
195 Disciplinare
200 Discipline
1671 Disco
130 Discordia
147 Discorsi
467 Discorso
179 Disegni
532 Disegno
256 Disk
128 Dislivello
237 Display
219 Disposizioni
152 Disputa
183 Distaccamento
107 Distintivo
140 Distretti
5656 Distretto
152 Distrettuale
234 Distribuzione
237 Distruttore
156 Distruzione
114 Dita
230 Ditta
503 Ditteri
426 Diva
142 Divide
122 Divieto
1891 Divina
393 Divine
340 Divinità
614 Divino
14119 Divisione
407 Divisioni
201 Divo
210 Dix
1595 Dizionario
3597 Do
388 Dobbiaco
105 Doccia
229 Dock
109 Documenta
185 Documentazione
163 Documenti
131 Documento
597 Dodici
112 Dodo
456 Dogana
595 Doge
131 Dogma
295 Dogo
458 Doha
854 Dolce
229 Dolci
115 Dole
119 Dollari
169 Dolo
1533 Dolomiti
140 Dolore
179 Dolori
586 Domani
280 Domatori
451 Dome
2305 Domenica
104 Domenicane
626 Domenicani
136 Domenicano
11063 Domenico
117 Domina
123 Dominante
215 Dominatori
183 Domine
1577 Domingo
1172 Domini
176 Dominica
972 Dominicana
453 Dominio
223 Dominion
593 Domino
148 Domitilla
154 Domizia
986 Domiziano
322 Domizio
378 Domodossola
13391 Don
157 Dona
249 Donadoni
621 Donatella
2129 Donatello
915 Donati
2564 Donato
134 Donazione
211 Dongo
511 Doni
3414 Donna
1170 Donne
338 Donnino
185 Dono
175 Donzelli
2088 Dopo
185 Dopoguerra
215 Dopolavoro
185 Doppia
556 Doppio
350 Doppler
1280 Dora
225 Dorata
109 Dorato
351 Dori
206 Doro
529 Dorotea
185 Dorsale
173 Dossena
263 Dossi
163 Dossier
401 Dosso
435 Dostoevskij
109 Dotti
2329 Dottor
332 Dottorato
1269 Dottore
137 Dottoressa
345 Dottori
566 Dottrina
505 Dover
3377 Down
295 Download
5358 Dr
720 Draghi
2699 Drago
541 Dragone
330 Dragoni
172 Dramma
534 Drammatica
127 Drink
1392 Drive
461 Driver
128 Drogo
390 Drop
104 Drosera
151 Druidi
130 Druido
276 Drusilla
539 Druso
259 Dry
3205 Dublino
8081 Duca
1380 Ducale
1365 Ducati
5025 Ducato
624 Duccio
761 Duce
971 Duchessa
532 Duchi
5789 Due
1367 Duecento
148 Duello
198 Duemila
106 Dugnano
673 Duilio
689 Dune
850 Duo
7166 Duomo
178 Dura
157 Durando
1109 Durante
108 Duranti
129 Durata
1732 Durazzo
110 Duri
135 Duro
225 EL
1844 EMI
131 ERG
301 ES
260 ESA
179 EST
522 ET
271 EU
232 EVA
341 EX
223 Eberardo
415 Ebraica
263 Ebraico
122 Ebraismo
1880 Ebrei
104 Ebreo
214 Ebro
245 Ecce
2785 Eccellenza
264 Ecclesiastica
105 Ecclesiastici
131 Ecclesiastico
228 Ecco
791 Eco
284 Ecologia
1740 Economia
608 Economica
185 Economiche
534 Economico
1432 Ecuador
180 Ecuba
199 Ecumenico
384 Edda
845 Eden
379 Edgardo
107 Edilizia
2193 Edimburgo
651 Edipo
165 Editor
3178 Editore
597 Editori
677 Editoriale
1051 Editrice
137 Editto
575 Edizione
3020 Edizioni
691 Edmondo
794 Edo
6793 Edoardo
275 Edolo
851 Eduard
2160 Eduardo
516 Educazione
331 Edvige
808 Efeso
185 Effendi
214 Effetto
112 Efisio
109 Efrem
140 Egadi
1003 Egeo
841 Egidio
305 Egisto
7987 Egitto
392 Egizi
226 Egiziani
169 Egizio
661 Egli
294 Ego
1774 Einaudi
1582 Einstein
547 Eisenhower
9894 El
466 Elba
148 Elda
239 Eldorado
148 Elea
100 Elefante
105 Eleganza
119 Elementare
451 Elementi
6727 Elena
422 Elenco
3176 Eleonora
171 Eletti
249 Elettorale
357 Elettore
101 Elettori
433 Elettra
301 Elettrica
131 Elettriche
107 Elettricità
154 Elettro
285 Elettronica
135 Eleusi
199 Eleuterio
716 Elezioni
1217 Elfi
133 Elfo
1600 Elia
120 Elide
102 Eligio
131 Eliminazione
103 Elina
2260 Elio
170 Eliodoro
2030 Elisa
6774 Elisabetta
324 Elise
306 Eliseo
104 Elisi
691 Ella
715 Elle
157 Elmo
143 Elogio
921 Elsa
309 Else
247 Elvetica
128 Elvio
708 Elvira
517 Emanuela
8422 Emanuele
103 Emendamento
144 Emergenza
156 Emerito
249 Emerso
240 Emi
162 Emidio
5649 Emilia
147 Emiliani
798 Emiliano
4820 Emilio
1108 Emirati
3809 Emma
110 Emmanuele
1153 Empire
870 Empoli
126 Emporio
121 Encelado
940 Enciclopedia
2265 End
429 Endurance
106 Enduro
1507 Enea
464 Eneide
490 Energia
180 Energie
923 Engineering
419 Enigma
1228 Enna
1475 Ennio
396 Enrica
698 Enrichetta
22323 Enrico
920 Ente
209 Enter
658 Enti
223 Entrate
179 Enza
4356 Enzo
152 Eocene
392 Eolie
202 Eolo
167 Epica
186 Epico
282 Epicuro
113 Epifania
229 Epifanio
752 Episcopale
362 Episodio
146 Epistola
123 Epistole
283 Epoca
292 Epsilon
432 Equatoriale
507 Equi
100 Equipe
2673 Era
1243 Eracle
411 Eraclea
904 Eraclio
196 Eraclito
182 Eraldo
665 Erasmo
170 Eratostene
561 Erba
241 Erbe
553 Ercolano
3119 Ercole
117 Ere
151 Ereditario
152 Eremitani
101 Eremiti
111 Eremo
152 Eri
536 Erica
593 Erika
929 Eritrea
1000 Ermanno
187 Ermenegildo
210 Ermengarda
452 Ermes
269 Ermete
226 Erminia
292 Erminio
3949 Ernesto
358 Ernie
171 Ero
1146 Erode
854 Erodoto
337 Eroe
807 Eroi
1200 Eros
109 Erotica
107 Erto
1841 Erzegovina
292 Es
134 Esaù
229 Escherichia
440 Eschilo
587 Esecutivo
2460 Esercito
139 Esercizi
106 Esercizio
183 Esino
386 Esiodo
147 Esiste
210 Esistono
315 Esmeralda
211 Esodo
195 Esopo
125 Esordienti
210 Espada
137 Esperantista
379 Esperanto
157 Esperanza
255 Esperia
109 Esperienze
106 Esploratore
222 Esploratori
743 Esposito
951 Esposizione
361 Esposizioni
114 Esposti
202 Espresso
122 Esprit
107 Essai
466 Essen
191 Esso
5422 Est
151 Estasi
889 Estate
773 Este
107 Estella
381 Estense
455 Estensi
549 Ester
120 Estere
2912 Esteri
108 Esterna
206 Esterne
237 Esterno
345 Estero
157 Estetica
186 Estone
1215 Estonia
281 Estrada
165 Estrella
562 Estremo
284 Et
255 Eta
221 Eterna
210 Eterni
405 Eterno
250 Etica
1482 Etiopia
378 Etna
183 Etnea
124 Etnografico
442 Etruria
106 Etrusca
1301 Etruschi
109 Etrusco
4339 Ettore
554 Età
106 Eucaristico
496 Euclide
212 Eufemia
274 Eufrate
273 Euganei
823 Eugenia
5174 Eugenio
132 Eulalia
649 Eulero
290 Eurasia
314 Eureka
499 Euridice
627 Euripide
3080 Euro
36969 Europa
6728 Europea
483 Europee
4427 Europei
3565 Europeo
103 Eurovisione
1037 Eusebio
375 Eustachio
3722 Eva
110 Evandro
308 Evangelica
1332 Evangelista
780 Evangelisti
195 Evaristo
120 Evelina
168 Eventi
107 Evento
193 Everest
118 Evergreen
219 Evita
669 Evo
189 Evoluzione
786 Ex
105 Exilles
599 Expo
238 Extended
637 Extra
335 Ezechiele
1943 Ezio
2293 FA
416 FAI
322 FANS
359 FAO
791 FIDE
4827 FIFA
613 FIMI
230 FOCA
942 Fa
1039 Fabbri
961 Fabbrica
113 Fabbriche
183 Fabia
140 Fabiana
342 Fabiano
5028 Fabio
141 Fabiola
765 Fabriano
221 Fabrice
4327 Fabrizio
152 Facce
124 Facchini
205 Faccia
109 Facciamo
111 Faccio
4609 Facoltà
1752 Faenza
139 Fagioli
339 Fahrenheit
136 Fai
107 Faina
211 Falange
108 Falce
399 Falchi
1385 Falco
215 Falconara
1040 Falcone
171 Falconi
129 Falconieri
182 Falla
202 Fallaci
127 Fallout
126 False
178 Falso
185 Fama
4397 Fame
4499 Famiglia
379 Famiglie
498 Fan
209 Fandango
567 Fanfani
1204 Fano
101 Fans
146 Fantascienza
529 Fantasia
687 Fantasma
132 Fantasmi
646 Fantastici
295 Fantastico
2154 Fantasy
185 Fante
1369 Fanteria
230 Fanti
169 Fantini
148 Fantino
974 Far
503 Fara
387 Faraone
236 Fargo
1236 Farina
161 Farinacci
166 Farinelli
228 Farmacia
263 Farnesina
590 Faro
473 Fasci
366 Fascia
449 Fascio
893 Fascismo
1149 Fascista
197 Fascisti
371 Fase
495 Fashion
1036 Faso
529 Fassa
716 Fast
202 Fasti
521 Fata
141 Fatale
867 Fate
518 Fatima
204 Fato
332 Fatti
162 Fattore
339 Fattori
250 Fattoria
253 Fauna
149 Fauno
142 Faure
933 Faust
121 Fausta
309 Faustina
644 Faustino
1902 Fausto
339 Fava
241 Favara
137 Favignana
121 Favole
251 Favorita
198 Favorite
127 Fax
668 Fazio
1138 Febbraio
289 Febbre
232 Febo
1364 Fede
605 Fedele
293 Fedeli
3222 Federale
285 Federali
145 Federalista
206 Federati
11294 Federazione
257 Federazioni
298 Federcalcio
152 Federconsorzi
1064 Federica
18241 Federico
342 Fedora
161 Fedra
217 Fedro
304 Feeling
435 Feldmaresciallo
5255 Felice
132 Felici
413 Feliciano
308 Felicita
144 Felicità
1212 Fellini
172 Feltri
144 Femmine
1042 Femminile
116 Femminili
776 Fender
127 Fendi
108 Fenestrelle
1775 Fenice
482 Fenici
328 Fenicia
152 Fenomeno
11160 Ferdinando
196 Ferentino
112 Feria
359 Fermat
711 Fermi
1813 Fermo
339 Fernanda
3918 Fernando
179 Ferragosto
186 Ferrando
974 Ferrante
128 Ferranti
7084 Ferrara
195 Ferrarese
206 Ferrata
355 Ferrate
157 Ferrea
891 Ferretti
1362 Ferri
177 Ferriere
2897 Ferro
169 Ferroni
2164 Ferrovia
757 Ferroviaria
244 Ferroviario
4531 Ferrovie
1312 Ferruccio
2747 Festa
241 Feste
24453 Festival
100 Feudi
220 Feudo
152 Fez
122 Fiabe
632 Fiamma
506 Fiamme
161 Fiammetta
173 Fiammingo
473 Fiandra
2782 Fiandre
310 Fibonacci
355 Fibra
117 Fibre
207 Fico
1180 Fiction
254 Ficus
459 Fide
311 Fidenza
161 Fidia
1871 Fiera
177 Fieramosca
452 Fiere
1176 Fiesole
108 Figari
712 Figaro
726 Figi
101 Figino
870 Figli
741 Figlie
1632 Figlio
249 Figura
261 Figure
167 Fiji
144 Fila
151 Filadelfo
149 Filarete
866 Filarmonica
120 Filarmonico
5036 File
116 Fili
889 Filiberto
5230 Filippine
327 Filippini
386 Filippino
18793 Filippo
171 Filistei
13680 Film
170 Filo
119 Filodrammatici
284 Filologia
255 Filomena
236 Filone
2505 Filosofia
180 Fin
2162 Finale
282 Finali
158 Finalmente
1298 Finanza
1532 Finanze
333 Finanziaria
102 Finanziario
1249 Fine
122 Finestra
204 Finger
829 Fini
158 Finlandese
6130 Finlandia
962 Finn
102 Fiocco
218 Fior
223 Fiorano
437 Fioravanti
165 Fiordaliso
2160 Fiore
600 Fiorella
553 Fiorello
4078 Fiorentina
695 Fiorentini
1453 Fiorentino
263 Fiorenza
468 Fiorenzo
121 Fioretti
1107 Fiori
184 Fiorini
201 Fiorino
109 Fiorita
135 Fiorito
111 Fioroni
31618 Firenze
1594 Fisica
112 Fisiche
183 Fisiologia
140 Fitness
292 Fiuggi
127 Fiumana
150 Fiumara
3542 Fiume
335 Fiumi
106 Fiumicello
533 Fiumicino
728 Flag
230 Flagellazione
342 Flagello
790 Flaminia
925 Flaminio
2656 Flash
258 Flaubert
185 Flauto
183 Flavi
1047 Flavia
317 Flaviano
2887 Flavio
231 Flegrei
123 Flipper
1357 Flora
119 Floriana
405 Floriano
6131 Florida
1735 Flotta
557 Flottiglia
551 Foca
476 Foce
510 Focus
212 Fogazzaro
3569 Foggia
348 Fogli
830 Foglia
146 Fogliano
277 Foglio
581 Folco
131 Folgaria
686 Folgore
1203 Foligno
624 Folk
157 Folklore
113 Folli
142 Follia
144 Follo
264 Follonica
418 Fonda
117 Fondaco
153 Fondatore
176 Fondatori
6148 Fondazione
140 Fonderia
534 Fondi
1683 Fondo
101 Font
3577 Fontana
508 Fontane
133 Fontanella
122 Fontanellato
218 Fontanelle
1591 Fonte
382 Fonti
9174 Football
174 Forca
6473 Force
373 Forcella
103 Forche
7214 Ford
1379 Foresta
471 Forestale
243 Forestali
374 Foreste
370 Forge
205 Fori
208 Forlimpopoli
3678 Forlì
935 Formazione
100 Formazza
408 Formia
222 Formica
356 Formosa
106 Formoso
10691 Formula
237 Fornace
205 Fornaci
312 Forni
326 Forno
217 Fornovo
2123 Foro
3101 Forte
1623 Fortezza
395 Forti
315 Fortini
110 Fortino
180 Fortore
134 Fortran
968 Fortuna
1239 Fortunato
518 Fortune
2007 Forum
5039 Forza
128 Forzano
2812 Forze
173 Fosca
176 Foschi
198 Fosco
642 Foscolo
115 Fosdinovo
665 Fossa
319 Fossano
628 Fossati
156 Fossato
418 Fosse
118 Fossi
603 Fosso
213 Fossombrone
103 Foti
261 Foto
308 Fotografia
975 Fra
220 Fragile
192 Frame
199 Frammenti
3365 Franca
6814 France
4623 Francesca
252 Francescane
641 Francescani
221 Francescano
42831 Francesco
2553 Francese
1299 Francesi
4159 Franchi
68689 Francia
10095 Francisco
12971 Franco
3127 Francoforte
944 Frascati
362 Frate
415 Fratellanza
2407 Fratelli
1086 Fratello
368 Fraternità
1386 Frati
260 Fratta
113 Frattamaggiore
174 Fratte
145 Frattura
216 Frazione
127 Frecce
1047 Freccia
748 Fredda
117 Freddi
370 Freddo
325 Frediano
2405 Free
155 Freetown
459 Freezer
106 Fregata
113 Freni
114 Fresco
1671 Freud
237 Frida
547 Frigia
111 Frigidaire
223 Frignano
699 Frisia
138 Frisone
4275 Friuli
271 Frizzi
602 Frodo
104 Frollo
171 Fronda
108 Fronde
777 Front
3481 Fronte
394 Frontiera
206 Frontiere
128 Frontone
1618 Frosinone
213 Frusciante
182 Fruttuoso
347 Fucecchio
124 Fucile
186 Fuciliere
128 Fucilieri
231 Fucino
797 Fuga
121 Fulgenzio
1007 Full
398 Fulmine
353 Fulvia
976 Fulvio
269 Fumagalli
201 Fumetto
249 Fumo
127 Funghi
109 Funicolare
123 Fuochi
2659 Fuoco
678 Fuori
339 Furia
223 Furie
800 Furio
217 Furioso
114 Furore
245 Furtado
408 Fusco
139 Fusi
109 Fuso
106 Futa
446 Futura
1101 Future
349 Futurismo
141 Futurista
576 Futuro
130 GAL
175 GIP
420 GNOME
1655 GNU
247 GO
967 GPL
887 GPS
518 GSM
298 Gabbana
129 Gabbiani
273 Gabbiano
886 Gabinetto
632 Gabon
4619 Gabriele
1052 Gabriella
120 Gadget
1676 Gaeta
204 Gaetani
5098 Gaetano
316 Gagliardi
234 Gai
711 Gaia
2729 Gaio
180 Gal
410 Gala
297 Galante
1496 Galassia
240 Galatea
383 Galatina
427 Galattica
359 Galattico
114 Galbiati
1545 Galeazzo
375 Galeno
233 Galeotto
153 Galgano
692 Galilea
1083 Galilei
2205 Galileo
220 Galimberti
2034 Galizia
501 Galla
553 Gallarate
143 Gallaratese
133 Gallardo
5735 Galleria
368 Gallerie
5640 Galles
155 Gallese
105 Gallesi
252 Galletti
2391 Galli
4196 Gallia
104 Galliani
209 Gallica
158 Gallicano
341 Gallico
255 Gallina
165 Gallio
996 Gallipoli
2861 Gallo
216 Gallone
672 Gallura
240 Galvani
203 Galvano
377 Gamba
158 Gambero
137 Gambetta
456 Gambia
125 Gambini
385 Gambino
4564 Game
963 Gamma
991 Gand
726 Gandhi
164 Gandini
173 Gandino
683 Gandolfo
1227 Gang
133 Gangi
135 Gangster
384 Ganimede
1378 Gara
260 Garage
157 Garante
110 Garanzia
378 Garbo
2294 Garda
111 Gardella
2589 Garden
635 Gardena
306 Gare
644 Garfagnana
113 Gargallo
212 Garganico
1007 Gargano
117 Gargiulo
208 Gargnano
7211 Garibaldi
203 Garza
482 Garzanti
713 Gas
1110 Gaspare
1162 Gastone
115 Gato
254 Gatta
755 Gatti
135 Gattinara
982 Gatto
150 Gattopardo
508 Gaudenzio
147 Gaudio
928 Gaulle
548 Gauss
242 Gavi
324 Gavino
222 Gavorrano
1151 Gay
1259 Gaza
2187 Gazzetta
216 Gazzettino
113 GeV
172 Gedda
175 Geiger
1048 Gela
168 Gelasio
147 Gelo
128 Gelone
279 Gemelle
982 Gemelli
225 Gemina
994 Gemini
173 Geminiano
105 Gemito
844 Gemma
112 Genazzano
216 Gendarmeria
1808 Gene
10585 Generale
1188 Generali
395 Generazione
104 Generico
138 Generoso
1242 Genesi
239 Genesio
115 Genetica
197 Genie
148 Geniere
1798 Genio
137 Genitori
1300 Gennaio
159 Gennargentu
2183 Gennaro
3808 Genoa
21052 Genova
117 Genoveffa
687 Genovese
680 Genovesi
648 Gente
1916 Gentile
230 Gentileschi
379 Gentili
106 Gentiluomo
161 Gentleman
400 Geo
453 Geografia
245 Geografica
255 Geografico
228 Geologia
173 Geologica
252 Geometria
336 Georgetown
4974 Georgia
203 Georgiana
257 Georgina
630 Geova
414 Gera
317 Geraci
217 Geraldine
1198 Gerardo
532 Geremia
220 Gerico
131 Germana
874 Germani
56223 Germania
215 Germanica
1079 Germanico
852 Germano
308 Germi
1243 Gerolamo
424 Geronimo
129 Geronzio
626 Gertrude
8396 Gerusalemme
504 Gervasio
248 Gesso
334 Gesta
716 Gestapo
629 Gestione
519 Gesualdo
102 Gesuati
1643 Gesuiti
17070 Gesù
108 Geti
123 Getsemani
1591 Ghana
564 Gherardo
107 Ghetti
407 Ghetto
402 Ghezzi
521 Ghiacciaio
887 Ghiaccio
312 Ghibellini
245 Ghibli
575 Ghirlandaio
248 Giacarta
148 Giacinta
1135 Giacinto
773 Giacobbe
228 Giacobini
119 Giacomini
136 Giacomino
15623 Giacomo
327 Giada
255 Giaffa
328 Gialla
201 Gialle
131 Gialli
1289 Giallo
1419 Giamaica
1001 Giambattista
646 Giampaolo
711 Giampiero
104 Giampietro
4115 Gian
167 Gianandrea
3098 Giancarlo
237 Giandomenico
267 Gianfrancesco
2453 Gianfranco
175 Giangiacomo
305 Gianicolo
1623 Gianluca
545 Gianluigi
211 Gianmarco
624 Gianna
6832 Gianni
296 Giannina
710 Giannini
210 Giannino
106 Giannizzeri
596 Giano
147 Gianpaolo
115 Gianpiero
105 Giapeto
26541 Giappone
983 Giapponese
450 Giapponesi
924 Giardini
1761 Giardino
345 Giarrettiera
589 Giasone
977 Giava
1635 Gibilterra
357 Gibuti
700 Gigante
596 Giganti
2202 Gigi
458 Gigli
704 Giglio
208 Gigliola
1133 Gilberto
788 Gilda
298 Gin
783 Gina
262 Ginestra
5503 Ginevra
503 Ginnasio
680 Ginnastica
3418 Gino
2130 Gioacchino
478 Gioachino
464 Giobbe
477 Gioberti
148 Gioca
151 Giocate
306 Giocatore
103 Giocattoli
18519 Giochi
733 Gioco
392 Gioconda
171 Giocondo
111 Gioele
1362 Gioia
109 Gioielli
254 Gioiosa
741 Giolitti
236 Giona
103 Gionata
313 Giordana
185 Giordane
411 Giordani
1242 Giordania
2961 Giordano
126 Giorgetto
924 Giorgia
22409 Giorgio
2160 Giornale
193 Giornalino
233 Giornalismo
269 Giornalisti
841 Giornata
395 Giornate
897 Giorni
1578 Giorno
202 Giostra
820 Giosuè
1292 Giotto
2638 Giovan
136 Giovanbattista
2303 Giovane
2071 Giovani
704 Giovanile
132 Giovanili
270 Giovanissimi
5186 Giovanna
68591 Giovanni
567 Giovannino
4228 Giove
246 Giovedì
322 Giovenale
1384 Gioventù
306 Giovi
117 Gioviano
239 Giovinazzo
297 Giovine
118 Giovinezza
218 Giovo
191 Gira
241 Giraffa
142 Girardengo
118 Girardi
132 Girasole
237 Giri
7407 Giro
4950 Girolamo
728 Gironda
131 Girondini
1732 Girone
153 Gisela
213 Gisella
103 Gita
241 Giuba
708 Giubileo
1585 Giuda
229 Giudaismo
808 Giudea
265 Giudecca
452 Giudei
223 Giudicarie
449 Giudicato
1513 Giudice
622 Giudici
696 Giuditta
135 Giudiziaria
946 Giudizio
1231 Giugno
190 Giugurta
6818 Giulia
977 Giuliana
758 Giuliani
5853 Giuliano
326 Giulie
1530 Giulietta
11620 Giulio
160 Giungla
306 Giunio
559 Giunone
2094 Giunta
248 Giunti
1156 Giura
181 Giuramento
1337 Giurassico
548 Giuria
363 Giurisdizione
1653 Giurisprudenza
187 Giuseppa
36212 Giuseppe
887 Giuseppina
244 Giussano
175 Giusta
785 Giusti
632 Giustina
1877 Giustiniano
1071 Giustino
4415 Giustizia
199 Giustiziere
1267 Giusto
161 Giù
121 Glabro
293 Glaciale
190 Gladio
139 Glamour
212 Glarona
2004 Glasgow
470 Glauco
5328 Gli
112 Globale
558 Globo
2671 Gloria
212 Gloriosa
239 Gnocchi
238 Gnome
2812 Go
2161 Goal
193 Gobbi
257 Gobbo
205 Gobi
1128 Goethe
3029 Goffredo
141 Gogol
818 Gol
323 Gola
137 Golasecca
941 Goldoni
188 Gole
246 Golem
827 Golf
5691 Golfo
116 Golgota
633 Golia
214 Gomorra
109 Gondola
241 Gonfalone
169 Gonfaloniere
631 Gong
393 Gonna
112 Gonzo
369 Gora
389 Gordiano
783 Gore
120 Gorge
166 Gorgia
144 Gorgone
200 Gorgonzola
334 Gorilla
2764 Gorizia
104 Goriziano
263 Gospel
2384 Goti
328 Gotica
358 Gotico
244 Gotta
834 Gottardo
272 Gotti
157 Gotto
909 Governatorato
2799 Governatore
162 Governatori
293 Governi
9994 Governo
179 Governolo
107 Govone
195 Gozzano
162 Gozzi
123 Gradi
445 Gradisca
926 Grado
190 Graduate
187 Graffiti
195 Grafica
114 Grafiche
278 Gragnano
423 Graie
226 Grammatica
994 Gramsci
36068 Gran
261 Grana
1461 Granada
366 Granata
115 Granatiere
321 Granatieri
106 Granchio
25303 Grande
3229 Grandi
1654 Granduca
103 Granducale
1841 Granducato
213 Granduchessa
257 Grange
115 Grani
163 Grano
1062 Grappa
324 Grasse
958 Grassi
493 Grasso
137 Grato
112 Grattacielo
109 Gratteri
409 Grave
759 Gravina
933 Graz
1696 Grazia
894 Graziani
1018 Graziano
2816 Grazie
215 Graziella
122 Graziosi
413 Greca
212 Grecale
2724 Greci
15175 Grecia
2616 Greco
189 Greggio
479 Gregoriana
372 Gregoriano
7265 Gregorio
283 Grenada
136 Grenadine
147 Greppi
598 Greta
296 Greve
136 Grido
189 Griffi
213 Grifo
406 Grifone
221 Grifoni
213 Grigi
199 Grigia
307 Grigio
108 Grill
121 Grilli
969 Grillo
103 Grizzly
2415 Groenlandia
107 Groppo
128 Grossa
130 Grosse
2917 Grosseto
439 Grossi
1320 Grosso
1638 Grotta
519 Grottaferrata
800 Grotte
200 Gru
125 Grugliasco
131 Grumello
101 Grumo
757 Gruppi
16479 Gruppo
136 Guadagni
212 Guadalquivir
504 Guadalupe
102 Guaita
207 Gualberto
535 Gualtiero
488 Guam
266 Guarda
156 Guardi
7035 Guardia
183 Guardiagrele
1141 Guardiani
726 Guardiano
952 Guardie
126 Guardiola
135 Guarigione
384 Guarino
632 Guascogna
497 Guastalla
2240 Guatemala
1084 Gubbio
134 Guelfa
462 Guelfi
207 Guelfo
21875 Guerra
3029 Guerre
673 Guerrieri
517 Guerriero
647 Guevara
104 Gufi
203 Gufo
431 Guglielmina
13005 Guglielmo
168 Guiana
1422 Guida
1177 Guide
923 Guidi
115 Guidizzolo
7860 Guido
108 Guidone
109 Guidoni
3668 Guinea
665 Guisa
173 Gulag
335 Guru
2123 Gustavo
955 Guyana
749 HIV
151 HM
253 HTTP
186 Habitat
352 Hai
645 Haifa
1333 Haiti
9268 Hall
122 Hamburger
1064 Hampshire
1913 Han
199 Handicap
476 Hanoi
677 Hansen
119 Harare
1607 Hard
137 Hardware
2547 Hawaii
251 Heisenberg
418 Help
1982 Helsinki
242 Hertz
523 Hidalgo
547 Hilbert
197 Himalaya
185 Hindi
765 Hiroshima
6722 Hitler
1595 Ho
894 Hobbit
142 Hobby
2913 Hockey
594 Holding
6276 Hollywood
1164 Homo
645 Honduras
3825 Hong
146 Honoris
889 Horn
650 Horror
3034 Hotel
802 Hubble
198 ICE
399 ID
120 IFA
86629 II
45347 III
151 IMI
114 INPS
161 IOR
1595 IP
186 IRA
225 ISA
1394 ISBN
156 ISDN
2217 ISO
167 ISP
403 ISTAT
134 ITALIA
101 ITC
32054 IV
262 IVA
11545 IX
456 Iacopo
142 Iberi
388 Iberica
110 Ibis
140 Ibla
547 Ibrahim
222 Icaro
1355 Ice
102 Iceberg
101 Id
1208 Ida
415 Idaho
365 Idea
238 Idee
144 Identità
150 Idi
130 Ido
128 Idra
142 Idro
246 Iene
136 Ieri
326 Ifigenia
203 Igiene
230 Igino
891 Iglesias
1813 Ignazio
130 Ignoto
1158 Igor
91018 Il
701 Ilaria
463 Ilario
121 Ilda
350 Ildebrando
260 Ildefonso
110 Ildegarda
110 Ileana
668 Iliade
134 Ilio
1364 Illinois
196 Illiri
129 Illiria
145 Illirico
285 Illuminati
117 Illustrazione
121 Imagna
316 Imam
109 Imbersago
216 Imenotteri
1072 Immacolata
168 Immacolato
2471 Immagine
151 Immagini
113 Immobiliare
114 Immortale
237 Immortali
1877 Imola
121 Impala
100 Impastato
2488 Imperatore
377 Imperatori
341 Imperatrice
410 Imperi
981 Imperia
3349 Imperiale
1059 Imperiali
7767 Impero
108 Impetuoso
111 Impianti
209 Impresa
290 Imprese
1553 Inca
238 Incantesimo
216 Incisa
374 Incontri
389 Incontro
113 Incoronata
491 Incoronazione
164 Incrociatori
153 Incurabili
110 Indagine
107 Indagini
9154 India
2083 Indiana
460 Indiani
1941 Indiano
118 Indicazione
265 Indice
2470 Indie
520 Indipendente
577 Indipendenti
430 Indipendenza
116 Indo
467 Indocina
1796 Indonesia
719 Indoor
106 Indovina
354 Indro
118 Induno
731 Industria
1081 Industriale
261 Industriali
425 Industrie
106 Indù
199 Ines
265 Infante
116 Infanzia
429 Inferi
1645 Inferiore
132 Infernale
1065 Inferno
216 Infine
283 Infinita
464 Infinite
199 Infinito
355 Informatica
213 Informazione
352 Informazioni
311 Infrastrutture
113 Infuocata
180 Ing
141 Inganni
163 Ingegnere
253 Ingegneri
1339 Ingegneria
19980 Inghilterra
1314 Inglese
704 Inglesi
103 Ingresso
541 Ingrid
203 Iniziativa
130 Inni
403 Inno
729 Innocenti
3247 Innocenzo
114 Innovazione
651 Inoltre
172 Inquisitore
220 Inquisizione
115 Insane
136 Insegno
395 Insetti
213 Insubri
111 Insula
303 Intanto
112 Integra
126 Integrale
178 Intelligenza
104 Intendente
1400 Inter
116 Interamericana
197 Intercity
1018 Intercontinentale
219 Interesse
473 Interna
14015 Internazionale
1578 Internazionali
5988 Internet
1115 Interni
625 Interno
103 Interpol
1212 Interregionale
102 Intervento
159 Intervista
493 Intesa
121 Inti
109 Intifada
335 Introduzione
399 Inuit
107 Invasione
215 Invernali
361 Inverno
110 Invisibile
3503 Io
260 Iolanda
244 Ionia
141 Ionica
227 Ionie
856 Ionio
194 Iorio
799 Iowa
131 Ipotesi
163 Ipparco
403 Ippocrate
435 Ippolita
1190 Ippolito
354 Ira
2570 Iran
2538 Iraq
2023 Irene
230 Ireneo
160 Iride
770 Irina
809 Iris
6406 Irlanda
296 Irlandese
236 Irlandesi
410 Irma
134 Irochesi
236 Irpinia
362 Irpino
427 Isa
5043 Isabella
967 Isacco
555 Isaia
221 Isarco
145 Iscariota
820 Ischia
405 Iseo
736 Isernia
544 Iside
574 Isidoro
122 Isili
640 Islam
376 Islamica
220 Islamico
1183 Islanda
179 Ismaele
107 Isocrate
2825 Isola
127 Isolde
7663 Isole
422 Isonzo
656 Isotta
115 Ispettorato
484 Ispettore
175 Ispica
7481 Israele
122 Israeliane
267 Israeliti
102 Issa
103 Isso
2723 Istanbul
643 Istituti
5208 Istituto
193 Istituzione
614 Istituzioni
102 Istoria
824 Istria
1225 Istruzione
323 Itaca
239 Itala
119285 Italia
16985 Italiana
1112 Italiane
3430 Italiani
10805 Italiano
280 Italica
178 Italici
541 Italico
1848 Italo
130 Itri
229 Ittiti
363 Iugoslavia
507 Iva
5029 Ivan
258 Ivana
648 Ivano
771 Ivo
1039 Ivrea
673 JR
12796 Jack
3874 Jacopo
2946 Janeiro
288 Jarno
3605 Jazz
358 Jeans
288 Jeep
4331 Jersey
809 Jesi
334 Jesolo
2099 Jessica
1039 Jet
1404 Johan
593 Jolly
211 Joule
1449 Joyce
4018 Jr
357 Judo
177 Jugoslava
5276 Jugoslavia
111 Jugoslavo
144 Jumbo
5120 Junior
6921 Juventus
191 KG
1679 KO
679 Kabul
433 Kafka
1031 Kaiser
134 Kamikaze
151 Kampala
2683 Kansas
1227 Kant
863 Karate
400 Karma
310 Kart
169 Kathmandu
464 Katia
437 Kaunas
101 Kayak
1429 Kazakistan
233 Kelvin
1477 Kentucky
2272 Kenya
371 Keplero
268 Kg
3558 Khan
251 Khartoum
2706 Kiev
1050 Killer
1163 Kingston
432 Kirghizistan
222 Kiribati
718 Kit
685 Km
1049 Know
5403 Kong
1865 Kosovo
307 Kuiper
381 Kurdistan
969 Kuwait
941 Kyoto
434 LAN
317 LATO
579 LCD
576 LED
251 LEGO
122 LGPL
111 LU
174 LX
114709 La
190 Labirinto
285 Labor
224 Laboratori
1034 Laboratorio
416 Labrador
564 Laburista
107 Laburisti
207 Lacrime
157 Lacrosse
137 Lacuna
988 Ladislao
192 Ladri
147 Ladro
100 Laerte
162 Lager
171 Laghetto
1058 Laghi
9100 Lago
1336 Laguna
402 Lai
137 Laici
106 Lainate
118 Laives
1588 Lama
317 Lambda
830 Lamberto
119 Lambretta
874 Lambro
129 Lambrusco
215 Lame
108 Lamento
164 Lamia
571 Lampedusa
202 Lampo
1036 Lana
1472 Lancaster
1067 Lance
3152 Lancia
715 Lanciano
126 Lanciere
219 Lancieri
404 Lancillotto
145 Lancio
146 Landa
325 Landau
133 Lande
305 Landolfo
2319 Lane
449 Lanfranco
175 Langravio
1289 Lanka
1403 Lanterna
1164 Lanterne
131 Lanusei
166 Lanuvio
212 Lanzi
161 Lanzichenecchi
506 Lanzo
106 Laocoonte
227 Laodicea
1242 Laos
102 Lapis
152 Lapo
359 Lapponia
1247 Lara
179 Larga
812 Largo
251 Lari
156 Lariano
641 Lario
144 Lascia
395 Laser
139 Lasse
119 Lasso
280 Lastra
170 Lata
583 Late
102 Latera
630 Lateranense
308 Lateranensi
937 Laterano
4376 Latina
944 Latini
1004 Latino
120 Latisana
1807 Lato
477 Latte
1637 Lattea
1239 Lauda
6849 Laura
718 Laurea
102 Laureato
129 Laurenziana
121 Lauretta
167 Lauri
865 Lauro
150 Lava
427 Lavagna
148 Lavello
689 Lavinia
102 Lavoratore
914 Lavoratori
921 Lavori
3150 Lavoro
659 Laziale
9954 Lazio
107 Lazise
197 Lazzaretto
1666 Lazzaro
30252 Le
557 Lea
547 Leader
142 Leadership
194 Leali
585 Leandro
142 Learco
4513 Lecce
2120 Lecco
1076 Led
310 Leda
108 Leffe
13957 Lega
186 Legale
258 Legato
217 Legazione
116 Legazioni
641 Legenda
5471 Legge
334 Leggenda
152 Leggendari
128 Leggendario
148 Leggende
427 Leggera
637 Leggi
257 Leghe
623 Legionari
107 Legionaria
160 Legionario
4457 Legione
240 Legioni
134 Legislativa
315 Legislativo
1251 Legislatura
329 Legnago
1976 Legnano
296 Legno
136 Lego
774 Lei
557 Leibniz
586 Leila
459 Lelio
216 Lella
267 Lello
135 Lemano
1065 Lena
100 Lenci
138 Lendinara
120 Lene
1489 Lenin
1253 Leningrado
555 Lentini
3991 Leo
201 Leoluca
7184 Leonardo
9989 Leone
106 Leonello
353 Leonessa
1038 Leoni
447 Leonida
322 Leonora
946 Leopardi
145 Leopolda
3967 Leopoldo
721 Lepanto
282 Lepido
270 Lepidotteri
252 Lepontine
166 Lepre
272 Lesbo
246 Lesina
285 Lesotho
598 Letizia
154 Letta
1244 Lettera
234 Letteraria
296 Letterario
1443 Letteratura
178 Letterature
3183 Lettere
144 Lettone
1723 Lettonia
131 Lettura
139 Leva
1710 Levante
1532 Levi
138 Leviatano
471 Levine
146 Levitico
317 Lezioni
2424 Li
450 Lia
142 Liana
289 Libanese
2908 Libano
145 Libeccio
1800 Libera
441 Liberal
1373 Liberale
556 Liberali
205 Liberata
113 Liberati
160 Liberatore
3129 Liberazione
118 Libere
522 Liberi
768 Liberia
150 Liberio
2309 Libero
1741 Liberty
4510 Libertà
3967 Libia
174 Liborio
312 Libra
397 Libre
452 Libreria
1034 Libri
4925 Libro
524 Licata
325 Licenza
3156 Liceo
737 Licia
119 Licinia
993 Licinio
234 Licio
885 Lidia
1302 Lido
973 Liechtenstein
1466 Liegi
184 Lignano
3575 Ligure
988 Liguri
4464 Liguria
101 Lilia
434 Liliana
654 Lilla
294 Lilli
2262 Lima
295 Limbo
461 Limerick
132 Limite
187 Limiti
394 Limoges
283 Limone
907 Limosino
952 Lina
144 Lince
1029 Lincei
2078 Linda
130 Lindo
3627 Linea
169 Lineare
308 Linee
241 Lingotto
1215 Lingua
364 Linguadoca
136 Linguaggio
589 Lingue
178 Linguistica
100 Linguistico
1092 Link
496 Linneo
1429 Lino
3397 Linux
3449 Lione
523 Lionello
542 Lipari
244 Lippe
2543 Lipsia
177 Liquigas
265 Lira
609 Lire
118 Lirica
260 Lirico
3359 Lisa
3307 Lisbona
177 Lise
203 Lisi
125 Lisimaco
425 Lissa
274 Lissone
1403 Lista
317 Lita
118 Lite
130 Litio
506 Litorale
244 Littoria
677 Littorio
125 Lituana
106 Lituani
2785 Lituania
293 Liturgia
269 Liv
446 Livello
101 Livermore
3948 Liverpool
841 Livia
208 Livigno
243 Livingstone
2136 Livio
6671 Livorno
6585 Lo
192 Loano
161 Lobby
434 Lobo
527 Locale
294 Locali
111 Locanda
837 Locarno
489 Loco
111 Locomotiva
223 Locomotive
423 Locri
109 Locuste
2083 Lodi
404 Lodigiani
206 Lodigiano
201 Lodo
772 Lodovico
172 Logge
1605 Loggia
200 Logica
104 Logistico
142 Logo
162 Logudoro
4588 Loira
1251 Lola
148 Lomazzo
976 Lombarda
122 Lombarde
1463 Lombardi
8479 Lombardia
2109 Lombardo
509 Lomellina
125 Lomello
112 Lomé
31670 Londra
310 Longa
126 Longarone
321 Longino
871 Longo
121 Longobarda
3189 Longobardi
159 Longobardo
114 Longone
183 Lontano
853 Look
205 Loop
8378 Lord
577 Loredana
237 Lorella
5033 Lorena
258 Lorenza
14346 Lorenzo
1615 Loreto
450 Loretta
631 Lori
501 Loris
17931 Los
1428 Losanna
301 Lotaringia
994 Lotario
364 Loto
1184 Lotta
204 Lotte
195 Lotteria
255 Lotti
713 Lotto
2118 Louisiana
832 Lourdes
532 Lovanio
11451 Love
168 Lovere
829 Lu
109 Luana
282 Luanda
1256 Lubiana
12075 Luca
113 Lucana
181 Lucane
247 Lucani
807 Lucania
516 Lucano
4962 Lucca
947 Lucchese
195 Lucchesi
158 Lucci
2113 Luce
830 Lucerna
141 Lucertola
663 Luchino
402 Luci
5777 Lucia
626 Luciana
5544 Luciano
108 Lucido
831 Lucifero
118 Lucilio
202 Lucilla
194 Lucina
266 Lucinda
6492 Lucio
1466 Lucrezia
291 Lucrezio
519 Lucullo
114 Ludmilla
331 Ludovica
5894 Ludovico
2366 Luftwaffe
143 Lugagnano
2407 Lugano
103 Lugli
1361 Luglio
859 Lui
32037 Luigi
555 Luigia
250 Luino
4001 Luisa
110 Luisella
282 Lula
146 Lumen
273 Lumezzane
8533 Luna
268 Lunar
130 Lunare
181 Lune
285 Lunedì
419 Lunga
179 Lungarno
218 Lunghezza
580 Lungo
186 Lungomare
671 Luni
873 Lunigiana
201 Luoghi
315 Luogo
725 Luogotenente
380 Lupa
126 Lupe
835 Lupi
112 Lupino
2313 Lupo
130 Lupus
115 Lusaka
224 Luserna
292 Lusitania
3356 Lussemburgo
100 Lussino
1193 Lutero
390 Lux
212 MAN
152 MAX
1075 MC
241 MD
312 ME
899 MG
523 MI
413 MIDI
115 ML
559 MM
222 MMX
148 MO
756 MS
600 MSI
616 MV
159 MX
589 Maastricht
608 Macao
458 Macario
692 Macbeth
183 Maccabei
839 Macchi
831 Macchia
324 Macchina
219 Macchine
159 Macedone
272 Macedoni
3841 Macedonia
125 Macedonica
115 Macellaio
1593 Macerata
163 Maceratese
1039 Mach
824 Machiavelli
136 Macho
224 Maciste
262 Macomer
145 Macrino
110 Macro
142 Macrobio
107 Macugnaga
2774 Madagascar
854 Madama
2022 Madame
4242 Maddalena
804 Made
315 Maderno
1848 Madison
26077 Madonna
241 Madonne
265 Madonnina
278 Madras
3929 Madre
190 Madri
11143 Madrid
319 Maestra
344 Maestrale
122 Maestre
1297 Maestri
8004 Maestro
1219 Maestà
267 Mafalda
190 Maffeo
708 Mafia
155 Maga
247 Magasa
2880 Magazine
216 Magazzini
322 Magda
696 Magdeburgo
602 Magellano
679 Magenta
496 Maggi
2746 Maggio
211 Maggiolino
698 Maggior
195 Maggioranza
114 Maggiordomo
9741 Maggiore
219 Maggiori
229 Maghi
1352 Magi
705 Magia
123 Magiari
292 Magica
106 Magiche
289 Magico
160 Magione
374 Magistero
277 Magistrale
348 Magistrato
372 Magistratura
264 Magli
260 Maglie
214 Magma
1794 Magna
119 Magnago
571 Magnani
122 Magnanimo
103 Magne
142 Magnesia
118 Magneti
572 Magni
212 Magnifica
217 Magnificat
1102 Magnifico
5261 Magno
257 Magnolia
648 Magnum
1190 Mago
165 Magone
1585 Magonza
591 Magra
128 Magri
179 Mahatma
1319 Mai
566 Mail
160 Mainardo
2214 Maine
1106 Maiorca
106 Maiori
503 Mal
216 Mala
271 Malacca
150 Malachia
434 Malaga
155 Malaparte
1184 Malaspina
1435 Malatesta
113 Malatestiana
144 Malattia
165 Malattie
102 Malavoglia
613 Malawi
604 Malaysia
106 Malco
284 Maldive
1090 Male
158 Maledizione
199 Malefica
159 Malerba
133 Malese
2067 Malesia
189 Malfatti
271 Malga
1864 Mali
106 Malia
158 Malnate
326 Malo
4735 Malta
363 Maltese
102 Malthus
151 Malvagio
296 Malvasia
103 Malvezzi
167 Mambo
326 Mameli
413 Mamelucchi
679 Mamma
196 Mammiferi
8549 Man
207 Mana
1782 Management
1070 Manager
128 Managua
100 Manama
114 Manasse
236 Manca
4881 Manchester
1145 Mancia
138 Manciano
1423 Mancini
206 Mancino
693 Manciuria
323 Manco
106 Mandamento
164 Mandarino
382 Mandato
449 Mandela
181 Mandelli
265 Mandello
120 Mandeville
217 Manduria
106 Mane
117 Manerbio
2015 Manfredi
424 Manfredo
629 Manfredonia
526 Manga
128 Manganelli
350 Mangano
162 Mangia
465 Mango
829 Mani
226 Mania
1854 Manica
151 Manierismo
112 Maniero
327 Manifattura
1426 Manifesto
778 Manila
196 Manio
426 Manitoba
887 Manlio
204 Manna
231 Mannelli
940 Mano
109 Manoppello
102 Manoscritti
179 Manoscritto
114 Manrico
303 Manta
6867 Mantova
145 Mantovana
343 Mantovani
410 Mantovano
299 Manu
696 Manuale
3538 Manuel
722 Manuela
1067 Manuele
112 Manutenzione
164 Manzi
1763 Manzoni
1288 Mao
1826 Maometto
278 Maori
214 Mappa
108 Maputo
10539 Mar
1119 Mara
466 Maranello
143 Marangoni
483 Maratona
1384 Marca
784 Marcantonio
543 Marcella
103 Marcellina
708 Marcellino
5016 Marcello
4371 Marche
248 Marchesa
595 Marchesato
2169 Marchese
1046 Marchesi
173 Marchesini
605 Marchetti
604 Marchi
223 Marchio
1109 Marcia
289 Marciana
205 Marcianise
535 Marciano
372 Marcio
24755 Marco
1673 Marconi
7227 Mare
125 Marea
973 Maremma
148 Maremmana
489 Marengo
1364 Maresciallo
7323 Margherita
107 Margraviato
220 Margravio
1173 Mari
66376 Maria
437 Mariana
257 Mariangela
575 Mariani
685 Marianna
1024 Marianne
2162 Mariano
275 Mariella
207 Marilù
16470 Marina
140 Marinai
2399 Marine
337 Marinella
1112 Marini
8001 Marino
20314 Mario
885 Marisa
104 Mariti
2646 Marittima
664 Marittime
547 Marittimo
742 Market
334 Marketing
269 Marmara
429 Marmi
165 Marmo
178 Marmolada
100 Marmore
133 Marmotte
2079 Marna
106 Marne
100 Maro
4223 Marocco
142 Marostica
326 Marra
295 Marrone
1128 Marsala
175 Marsciano
249 Marsica
3208 Marsiglia
104 Marsigliese
555 Marsilio
1804 Marta
3702 Marte
144 Martedì
764 Martelli
841 Martello
279 Martesana
11647 Martin
2246 Martina
554 Martinelli
503 Martinengo
106 Martinetti
440 Martinica
9029 Martino
923 Martire
909 Martiri
844 Martirio
583 Martirologio
2384 Marx
112 Marxista
1646 Maryland
145 Marzabotto
441 Marzano
120 Marzi
183 Marzia
446 Marziale
145 Marziali
137 Marziani
139 Marziano
949 Marzio
1347 Marzo
105 Marzocchi
142 Marzocco
152 Masai
358 Masaniello
377 Maschera
111 Maschere
128 Mascheroni
329 Maschile
230 Maschio
488 Masi
261 Maso
975 Mass
3454 Massa
3179 Massachusetts
386 Massacro
527 Massenzio
330 Masseria
188 Massese
156 Massi
768 Massiccio
188 Massima
115 Massimi
624 Massimiano
3078 Massimiliano
601 Massimino
10375 Massimo
273 Massive
453 Massoneria
120 Mastandrea
307 Mastella
3907 Master
104 Mastermind
113 Mastini
286 Mastino
109 Mastio
351 Mastro
604 Mastroianni
165 Matador
2571 Match
130 Mate
821 Matematica
159 Matematiche
848 Mater
1743 Matera
205 Materia
229 Materiale
180 Materiali
129 Maternità
144 Materno
662 Matilda
1904 Matilde
433 Matrice
304 Matrimonio
237 Matta
7379 Matteo
1153 Matteotti
156 Matti
1446 Mattia
216 Mattina
597 Mattino
287 Matto
334 Maura
683 Mauri
940 Mauritania
683 Mauritius
6972 Maurizio
4949 Mauro
432 Mausoleo
8782 Max
215 Maximum
2079 Maya
514 Mazara
851 Mazza
164 Mazzetti
150 Mazzi
1675 Mazzini
160 Mazzocchi
517 Mc
9350 Me
962 Mecca
515 Meccanica
399 Meccaniche
120 Meccano
198 Mecenate
336 Meda
3161 Medaglia
248 Medaglie
110 Medardo
714 Medea
291 Medi
3681 Media
473 Medica
227 Medicea
139 Mediceo
7234 Medici
2348 Medicina
591 Medicine
442 Medico
104 Medie
178 Medievale
1323 Medina
4096 Medio
7281 Medioevo
591 Mediterranea
10274 Mediterraneo
236 Medium
212 Medole
103 Medoro
942 Medusa
558 Meeting
212 Mefisto
253 Mefistofele
891 Mega
217 Meglio
610 Mela
179 Melania
151 Melato
2405 Melbourne
473 Melchiorre
117 Meldola
352 Mele
195 Melegnano
1207 Melfi
165 Meli
112 Melilli
518 Melina
1093 Melissa
388 Mella
235 Mello
464 Melo
237 Meloni
102 Melotti
100 Melzo
327 Membri
495 Membro
160 Memo
164 Memorandum
653 Memoria
235 Memoriale
915 Memorie
1655 Men
155 Mena
136 Menaggio
217 Menandro
142 Mende
352 Mendel
526 Menelao
303 Menfi
1062 Meno
226 Mensa
100 Mentale
307 Mente
137 Menti
100 Menzione
215 Mera
884 Merano
132 Merate
480 Meraviglie
252 Mercalli
117 Mercante
373 Mercanti
289 Mercantile
149 Mercati
1428 Mercato
196 Mercede
2181 Mercedes
192 Mercoledì
160 Mercuriale
1638 Mercurio
111 Merenda
115 Meri
188 Meridiana
119 Meridiani
116 Meridiano
3196 Meridionale
444 Meridionali
414 Meridione
107 Merina
728 Merito
230 Merli
1189 Merlino
335 Merlo
111 Merloni
164 Merlot
100 Mero
175 Merope
153 Merovingi
508 Mesa
189 Mesoamerica
166 Mesolitico
1809 Mesopotamia
248 Mesozoico
2044 Messa
782 Messaggero
143 Messaggio
190 Messale
122 Messalina
121 Messapica
400 Messe
149 Messenia
221 Messer
249 Messi
752 Messia
112 Messicana
152 Messicano
14725 Messico
8123 Messina
210 Mestieri
170 Mesto
1675 Mestre
461 Meta
168 Metafisica
3061 Metal
1126 Metallica
170 Metallifere
213 Metallo
395 Metamorfosi
264 Metaponto
341 Metastasio
396 Metello
179 Meteo
278 Meteorologia
133 Meteorologica
562 Meteorologico
232 Metodio
426 Metodo
1025 Metro
240 Metropolita
2178 Metropolitana
385 Metropolitano
360 Metternich
814 Mexico
226 Mezzaluna
145 Mezzana
203 Mezzano
361 Mezzanotte
1504 Mezzo
113 Mezzocorona
1651 Mezzogiorno
174 Mg
1863 Mi
1663 Mia
165 Micaela
236 Micca
167 Miceli
302 Micene
455 Michela
3934 Michelangelo
15070 Michele
147 Michelino
2524 Michigan
353 Micronesia
327 Midi
126 Mie
203 Miele
166 Mieli
999 Miglia
169 Migliacci
296 Miglio
3350 Miglior
733 Migliore
207 Migliori
119 Mignon
222 Mii
323 Mila
7134 Milan
1195 Milanese
258 Milanesi
57251 Milano
720 Milazzo
344 Milena
199 Milione
122 Militar
7822 Militare
343 Militari
106 Milito
787 Milizia
2718 Mille
330 Millennio
187 Millesimo
265 Milva
108 Milziade
452 Mimi
726 Mimmo
100 Mimo
2298 Mina
139 Minami
145 Minato
682 Mincio
653 Mine
1314 Minerva
147 Minervino
1269 Ming
940 Mini
809 Miniato
158 Miniera
148 Miniere
131 Minimi
230 Ministeri
285 Ministeriale
11326 Ministero
1054 Ministri
10071 Ministro
2420 Minnesota
747 Mino
1094 Minor
220 Minorca
2337 Minore
1205 Minori
311 Minosse
246 Minotauro
729 Minsk
139 Minturno
181 Minuetto
243 Minute
321 Minuti
517 Mio
996 Miocene
594 Mir
933 Mira
253 Mirabella
409 Miracle
480 Miracoli
591 Miracolo
257 Mirafiori
125 Mirai
1555 Miranda
489 Mirandola
253 Mirano
350 Mircea
119 Mirco
255 Mirella
809 Miriam
638 Mirko
223 Miro
138 Mirra
203 Mirò
185 Misa
322 Misano
134 Miserere
156 Miseria
1496 Misericordia
9476 Miss
313 Missa
104 Missaglia
269 Missile
145 Missili
331 Missionari
360 Missionarie
104 Missionario
971 Missione
286 Missioni
2563 Mississippi
2099 Missouri
1240 Mister
600 Misteri
340 Mistero
101 Mistica
100 Mistico
498 Misto
302 Mistral
137 Misura
169 Misurata
199 Miti
351 Mito
303 Mitra
138 Mitre
1199 Mitridate
711 Mix
117 Mixer
572 Mo
1818 Mobile
133 Mobili
232 Mobilità
450 Moda
158 Modalità
1200 Mode
2387 Model
155 Modella
823 Modello
7672 Modena
151 Modenese
1326 Moderna
256 Moderne
126 Moderni
349 Moderno
252 Modesto
787 Modica
126 Modigliana
530 Modigliani
213 Modulo
102 Moena
438 Mogadiscio
178 Moggi
727 Mogol
526 Mohamed
287 Moira
456 Mola
177 Moldava
3477 Moldavia
135 Moldova
480 Mole
598 Molfetta
115 Molgora
153 Molinella
489 Molino
1945 Molise
112 Molla
104 Mollica
292 Molo
273 Molotov
113 Molteno
111 Momenti
116 Monaca
265 Monache
260 Monaci
11968 Monaco
173 Monarca
466 Monarchia
146 Monarchico
2622 Monastero
132 Monastir
321 Moncenisio
467 Monde
571 Mondi
10024 Mondiale
8826 Mondiali
16072 Mondo
614 Mondovì
175 Mondragone
229 Moneta
142 Monetaria
334 Monetario
627 Monfalcone
2905 Monferrato
871 Mongoli
1871 Mongolia
108 Mongolo
2804 Monica
324 Monitor
132 Monna
350 Mono
711 Monopoli
573 Monreale
1602 Mons
274 Monselice
510 Monsignor
1831 Montagna
1364 Montagne
143 Montagnola
329 Montalcino
657 Montale
3050 Montana
197 Montanara
543 Montanari
335 Montano
26365 Monte
270 Montebelluna
1183 Montecarlo
173 Montecarotto
938 Montecassino
954 Montecatini
167 Montecchi
451 Montecchio
310 Montecitorio
334 Montecristo
879 Montefeltro
206 Montefiascone
109 Montefiorino
266 Montegranaro
341 Montello
2605 Montenegro
610 Montepulciano
149 Montereale
123 Monteriggioni
255 Monterosso
404 Monterotondo
130 Montescaglioso
233 Montesilvano
201 Montesquieu
190 Montessori
739 Montevarchi
582 Monteverdi
1760 Montevideo
1440 Montgomery
6864 Monti
322 Monticelli
277 Monticello
124 Montieri
101 Montignoso
404 Montmartre
531 Montone
111 Montopoli
2179 Montreal
411 Montserrat
401 Monumentale
329 Monumenti
1278 Monumento
368 Monviso
4929 Monza
277 Monzambano
198 Monzese
499 Mora
228 Morale
180 Morando
153 Morano
184 Morava
2015 Moravia
138 Morazzone
199 Morbegno
123 Morbo
1917 More
828 Morelli
364 Morello
315 Morena
1020 Moreno
100 Moretta
1527 Moretti
686 Moretto
783 Morgana
1617 Mori
327 Moria
113 Mormoni
3224 Moro
299 Morra
545 Morse
113 Morta
403 Mortara
3280 Morte
524 Morti
662 Morto
162 Mosaico
12359 Mosca
142 Moscati
289 Moscato
631 Moschea
144 Moschino
147 Moscova
290 Mosquito
152 Mosse
106 Mossi
282 Mosso
209 Mostar
221 Mosto
3039 Mostra
227 Mostri
297 Mostro
2132 Mosè
103 Mota
175 Motel
124 Moti
999 Moto
169 Motocross
318 Motori
1126 Motta
201 Motte
144 Motti
107 Motto
108 Motu
606 Mouse
107 Movimenti
4867 Movimento
1303 Mozambico
2794 Mozart
132 Mozzano
127 Mozzi
165 Mucchio
732 Mugello
184 Muggia
109 Muggiò
116 Mule
122 Mulinello
225 Mulini
659 Mulino
108 Mulo
115 Multi
266 Multimedia
100 Multipla
139 Multiple
110 Munda
347 Mundi
643 Municipale
556 Municipalità
1999 Municipio
1467 Mura
158 Muraglia
497 Murano
150 Murata
425 Muratori
171 Murena
373 Murge
1063 Muro
725 Musa
104 Musco
881 Muse
1209 Musei
18288 Museo
3910 Musica
1069 Musical
1745 Musicale
461 Musicali
133 Musiche
113 Musicisti
117 Musone
159 Mussi
373 Musso
5942 Mussolini
727 Mustang
503 Musulmani
182 Musulmano
178 Mutanti
125 Mute
714 Muti
145 Muto
137 Mutua
370 Mutuo
434 Muzio
501 Myanmar
3233 NASA
3506 NATO
127 NEO
512 NET
451 NO
195 Nabucodonosor
1152 Nadia
167 Nadir
529 Nagasaki
131 Naiadi
479 Nairobi
1238 Namibia
678 Nana
127 Nanda
430 Nando
750 Nani
1025 Nanni
319 Nano
1029 Naomi
279 Napalm
131 Napo
11335 Napoleone
123 Napoleonica
165 Napoleonico
463 Napoletana
135 Napoletani
210 Napoletano
39991 Napoli
152 Nappa
437 Narciso
520 Nardi
255 Nardo
412 Nardò
150 Narrativa
363 Nascita
209 Nasi
168 Naso
838 Nassau
233 Nastri
661 Nastro
181 Nata
7625 Natale
262 Natali
684 Natalia
239 Natalino
945 Nate
178 Nati
207 Native
393 Nativi
1484 Natività
477 Nato
140 Natoli
173 Natta
1439 Natura
907 Natural
1223 Naturale
538 Naturali
886 Nature
311 Nauru
221 Nautico
280 Nautilus
1526 Navale
344 Navali
2813 Navarra
572 Navarro
696 Nave
383 Navi
113 Navigatore
714 Navigazione
1004 Naviglio
234 Nazareno
466 Nazareth
320 Nazario
217 Nazca
108 Nazi
49306 Nazionale
1985 Nazionali
283 Nazionalista
123 Nazionalsocialista
1227 Nazione
8013 Nazioni
187 Nazismo
387 Nazista
156 Nazisti
223 Nazzaro
306 Ndrangheta
204 Neanderthal
391 Nebbia
101 Nebbie
118 Nebbiose
749 Nebraska
344 Nebula
984 Nebulosa
151 Necropoli
104 Nedo
217 Negative
232 Negra
825 Negri
147 Negrita
915 Negro
256 Negroni
154 Negus
812 Nello
3088 Nelson
215 Nembo
134 Nembro
101 Nemesi
224 Nemici
183 Nemico
290 Nenni
676 Neo
264 Neoclassicismo
926 Neolitico
341 Neon
107 Neopaganesimo
165 Neottolemo
1465 Nepal
224 Nepomuceno
4632 Nera
1050 Nere
352 Nereo
2694 Neri
108 Nerio
6569 Nero
1975 Nerone
298 Neruda
545 Nervi
150 Nerviano
138 Nesso
233 Nessun
149 Nessuna
611 Nessuno
128 Nesta
112 Nesti
274 Nestore
365 Net
315 Netscape
2157 Nettuno
3022 Network
503 Neustria
249 Neva
1826 Nevada
874 Neve
116 Nevi
247 Nevio
104 Nevoso
58622 New
2157 Newton
397 Niagara
105 Nibbio
133 Nibelunghi
123 Nibelungo
1298 Nicaragua
310 Nicchio
4821 Niccolò
991 Nicea
1421 Nico
251 Nicodemo
11130 Nicola
359 Nicoletta
105 Nicolino
236 Nicolosi
2647 Nicolò
816 Nicosia
216 Nido
334 Niente
1265 Nietzsche
226 Nievo
1356 Niger
2175 Nigeria
170 Nightingale
152 Nilde
177 Nilla
2474 Nilo
1899 Nina
291 Ninfa
149 Nini
121 Ninna
3169 Nino
141 Niobe
811 Nirvana
185 Nissa
563 Nitra
433 Nitro
207 Niue
109 Nives
2930 Nizza
6803 No
3605 Nobel
822 Nobile
772 Nobili
236 Nobiltà
534 Noce
156 Noceto
169 Noci
119 Nodo
571 Noemi
1011 Noi
357 Noir
1095 Nola
584 Noli
555 Nomadi
123 Nomenclatura
219 Nomi
5879 Non
440 Nona
221 Nonantola
127 None
331 Nonna
289 Nonno
330 Nono
374 Nonostante
359 Nonstop
115 Nor
970 Nora
332 Norberto
444 Norcia
28570 Nord
265 Nordest
390 Nordoccidentale
137 Nordorientale
191 Nordovest
1841 Norimberga
1064 Norma
1406 Normale
6107 Normandia
172 Normanna
2004 Normanni
243 Normanno
506 Norme
5360 North
190 Norvegese
7981 Norvegia
181 Nossa
105 Nostalgia
3264 Nostra
171 Nostradamus
618 Nostro
308 Nota
991 Note
290 Notes
143 Notizia
332 Notizie
881 Noto
1987 Notte
232 Notti
1000 Nottingham
276 Notturno
494 Nouveau
500 Nouvelle
2914 Nova
107 Novalis
997 Novanta
4739 Novara
269 Novarese
128 Novate
745 Nove
9123 Novecento
940 Novella
173 Novellara
189 Novelle
439 Novelli
185 Novellino
438 Novello
1610 Novembre
566 Novo
119 Novoli
321 Nozze
692 Noè
614 Nube
468 Nubia
310 Nucleare
174 Nuclei
507 Nucleo
107 Nuda
319 Nudo
227 Nulla
961 Nulle
130 Nullo
110 Numana
207 Numeri
2268 Numero
794 Numidia
118 Nunziata
115 Nunziatura
706 Nunzio
861 Nuoro
451 Nuoto
17439 Nuova
1429 Nuove
1198 Nuovi
9710 Nuovo
110 Nuraghe
124 Nurse
195 Nuvola
211 Nuvolari
227 Nuvole
150 OCSE
241 OGM
662 OH
269 OK
222 OMS
233 ON
783 ONU
111 OP
353 OR
212 OSI
214 Oasi
316 Oberto
108 Obiettivo
141 Oblate
146 Oblati
176 Oca
357 Occhi
518 Occhio
5141 Occidentale
1204 Occidentali
2524 Occidente
1153 Oceania
954 Oceano
134 Ocelot
216 Octopus
507 Oda
174 Oddo
185 Ode
569 Odeon
391 Oderzo
802 Odessa
194 Odette
190 Odi
942 Odino
121 Odio
448 Odissea
519 Odoacre
304 Odoardo
201 Ofelia
145 Offa
1851 Office
275 Officina
829 Officine
105 Offida
169 Oggetto
800 Oggi
1165 Ognissanti
984 Oh
2017 Ohio
135 Ohm
152 Ok
1165 Oklahoma
178 Ola
4816 Olanda
603 Olandese
674 Olandesi
733 Olbia
303 Oleg
1118 Olga
172 Olgiate
133 Oliena
1947 Olimpia
3851 Olimpiade
8380 Olimpiadi
393 Olimpica
1684 Olimpici
2620 Olimpico
132 Olimpio
307 Olimpo
103 Olindo
106 Olinto
137 Olio
709 Oliva
328 Olive
442 Oliveira
140 Olivetani
303 Oliveto
867 Olivetti
129 Olivi
1550 Olivia
1422 Olivier
309 Olivieri
456 Oliviero
135 Olivo
324 Olmi
289 Olmo
174 Oloferne
839 Olona
917 Oltre
252 Omaggio
409 Omaha
364 Oman
1262 Omar
401 Ombra
584 Ombre
104 Ombretta
159 Ombrone
1005 Omega
171 Omegna
1546 Omero
125 Omicidio
103 Omni
162 Omnia
255 Omnibus
4197 On
123 Onassis
441 Once
399 Onda
183 Onde
132 Onesti
682 Online
310 Onofrio
312 Onorario
525 Onorato
154 Onore
1504 Onorio
1151 Ontario
122 Oort
565 Op
11389 Open
224 OpenOffice
4296 Opera
221 Operai
368 Operaia
451 Operaio
138 Operativa
413 Operativo
1938 Operazione
374 Operazioni
768 Opere
183 Oppenheimer
119 Oppio
103 Opportunità
344 Opus
361 Or
829 Ora
129 Oracolo
168 Oradea
593 Oratorio
137 Orazi
2175 Orazio
129 Orazione
133 Orbassano
401 Orbetello
226 Orbiter
241 Orca
4004 Orchestra
154 Orchestre
453 Orchi
231 Orco
150 Orda
105 Ordinanza
278 Ordinario
3493 Ordine
518 Ordini
2214 Ore
937 Oregon
1304 Oreste
933 Orfeo
130 Organi
1003 Organizzazione
212 Organizzazioni
258 Organo
237 Orgoglio
133 Orgosolo
363 Ori
493 Oria
178 Oriana
101 Oriano
4697 Orientale
2163 Orientali
7081 Oriente
176 Orietta
181 Originale
279 Origine
133 Origini
220 Orio
187 Oriolo
1591 Orione
967 Oristano
145 Orizzonte
164 Orizzonti
3373 Orlando
2646 Orleans
234 Orme
831 Ornella
2182 Oro
311 Orobie
110 Orologi
192 Oronzo
178 Oropa
104 Orosio
311 Orsa
583 Orsi
2641 Orsini
726 Orso
299 Orsola
187 Orsoline
259 Orta
254 Orte
202 Ortensia
129 Ortensio
172 Orti
234 Ortisei
253 Orto
396 Ortodossa
116 Ortodossi
376 Ortolani
433 Ortona
1237 Orvieto
191 Orville
157 Orzinuovi
1790 Osaka
275 Osama
145 Osanna
668 Osborne
7791 Oscar
487 Oscura
270 Oscure
510 Oscuri
1469 Oscuro
509 Osimo
168 Osio
428 Osiride
2210 Oslo
299 Osoppo
1062 Ospedale
121 Ospedaletto
116 Ospedali
105 Ospizio
116 Ossa
271 Osservanti
225 Osservatore
224 Osservatori
420 Osservatorio
120 Osservazioni
127 Ossezia
142 Ossi
339 Ossola
224 Ostenda
180 Osteria
1137 Ostia
113 Ostiano
321 Ostiense
190 Ostiglia
119 Ostra
740 Ostrogoti
646 Osvaldo
907 Otello
506 Otis
124 Otone
820 Otranto
1279 Ottanta
119 Ottava
151 Ottavi
444 Ottavia
2012 Ottaviano
1307 Ottavio
686 Ottawa
3838 Otto
1118 Ottobre
2101 Ottocento
117 Ottomana
1074 Ottomani
1558 Ottomano
3097 Ottone
107 Ottoni
322 Ottorino
118 Ouagadougou
121 Oulx
3427 Out
228 Ovada
102 Overdrive
177 Overlord
4931 Ovest
982 Ovidio
432 Oviedo
4245 Oxford
104 PAN
3610 PC
3141 PCI
1270 PD
472 PDS
251 PI
1372 PIL
276 PN
166 PNL
163 PO
169 PRO
1728 PSI
4550 Pace
253 Pacelli
112 Pachino
126 Pacifica
6526 Pacifico
648 Pack
412 Paco
1295 Padana
144 Padano
296 Paderno
446 Padiglione
139 Padilla
12869 Padova
167 Padovani
144 Padovano
5163 Padre
1891 Padri
146 Padrino
167 Padrone
114 Padroni
314 Paesaggio
10706 Paese
14217 Paesi
133 Paganesimo
976 Pagani
123 Paganico
500 Paganini
601 Pagano
123 Paggi
184 Pagina
190 Pagine
578 Paglia
221 Pagliacci
199 Pago
2793 Pakistan
1135 Pala
195 Paladini
218 Paladino
322 Palasport
617 Palatina
847 Palatinato
965 Palatino
545 Palau
402 Palazzetto
512 Palazzi
271 Palazzina
22772 Palazzo
536 Palazzolo
104 Palco
416 Pale
285 Paleocene
735 Paleolitico
121 Paleontologia
273 Paleozoico
15497 Palermo
122 Palese
3676 Palestina
312 Palestinese
146 Palestinesi
258 Palestra
644 Palestrina
338 Palestro
165 Pali
154 Paliano
212 Palinuro
2780 Palio
202 Palizzi
397 Palla
2151 Pallacanestro
286 Pallade
1016 Palladio
231 Pallamano
151 Pallante
148 Pallanuoto
1210 Pallavolo
125 Palle
615 Pallone
2632 Palma
220 Palmanova
511 Palme
1686 Palmer
944 Palmi
392 Palmieri
404 Palmira
362 Palmiro
711 Palo
181 Paloma
155 Palombara
601 Palpatine
278 Palude
185 Paludi
863 Pamela
183 Pampa
617 Pamplona
1989 Pan
838 Panama
342 Panamericana
179 Panamericani
632 Pancrazio
545 Panda
201 Pandolfi
667 Pandolfo
722 Pandora
506 Pane
107 Panerai
156 Panfilo
164 Pangea
197 Pani
198 Panico
660 Panini
369 Pannella
1016 Pannonia
784 Panorama
172 Pansa
233 Pantaleo
209 Pantaleone
315 Pantani
386 Pantano
510 Pantelleria
987 Pantera
162 Pantere
778 Pantheon
158 Pantocratore
123 Panza
1319 Panzer
4379 Paola
1146 Paoli
627 Paolina
102 Paoline
486 Paolini
665 Paolino
39496 Paolo
13046 Papa
167 Papale
513 Papato
128 Papera
197 Paperina
2424 Paperino
735 Papi
123 Papillon
214 Papiro
229 Pappalardo
721 Papua
298 Papà
141 Par
176 Para
180 Parabellum
360 Parabiago
250 Paracadutisti
139 Paracelso
3069 Paradiso
2682 Paraguay
135 Parassita
291 Parchi
10711 Parco
385 Pardo
978 Pareggi
185 Parente
534 Parenti
308 Pareto
674 Pari
114 Paria
863 Paride
118 Parietti
40015 Parigi
351 Parini
243 Parioli
10099 Park
538 Parkinson
181 Parla
376 Parlamentare
116 Parlamentari
101 Parlamenti
10760 Parlamento
117 Parlante
11337 Parma
326 Parmenide
203 Parmense
227 Parnaso
163 Paro
583 Parodi
645 Parola
414 Parole
204 Parra
1210 Parrocchia
715 Parrocchiale
100 Parrocchie
202 Parroco
308 Parsifal
148 Partecipazioni
169 Partenopea
229 Partenza
1441 Parti
184 Partigiani
117 Partinico
253 Partita
1366 Partite
158 Partiti
25660 Partito
113 Partizione
148 Partner
114 Partnership
118 Parto
117 Partridge
2510 Party
1291 Pascal
904 Pascià
745 Pascoli
1528 Pasolini
2981 Pasqua
3610 Pasquale
278 Pasquali
136 Pasqualino
172 Pasquino
182 Passa
270 Passaggio
124 Passante
100 Passeggeri
108 Passeggiata
101 Passeri
133 Passerini
136 Passero
125 Passi
145 Passio
1769 Passione
5022 Passo
206 Pasta
486 Pasteur
374 Pastor
312 Pastorale
908 Pastore
150 Pastori
125 Pastrengo
609 Patagonia
215 Pater
172 Paterno
223 Patologia
2450 Patria
1411 Patriarca
832 Patriarcato
204 Patriarchi
198 Patricio
661 Patrimoni
1187 Patrimonio
221 Patriottica
101 Patriottico
228 Patrizi
863 Patrizia
110 Patriziato
1108 Patrizio
103 Patrocinio
281 Patroclo
260 Patrona
128 Patronato
257 Patroni
558 Patrono
1325 Patti
102 Pattinaggio
2083 Patto
522 Patton
131 Pattuglia
357 Pauli
408 Paura
664 Pausania
1051 Pavese
205 Pavesi
6395 Pavia
522 Pavone
250 Pax
255 Pazienza
150 Pazza
735 Pazzi
192 Pazzo
193 Peccato
4565 Pechino
334 Peck
136 Pecora
135 Pecorelli
183 Pedagogia
115 Pedemontana
4315 Pedro
109 Pegasi
755 Pegaso
317 Peggior
374 Pelagio
119 Peligni
240 Pelle
1037 Pellegrini
1398 Pellegrino
112 Pelli
113 Pellicano
220 Pellico
1303 Peloponneso
175 Peloritani
122 Peloro
150 Pelosi
173 Pena
561 Penale
237 Penda
652 Penelope
174 Penice
2396 Penisola
141 Penitenziaria
519 Penna
484 Penne
241 Pennetta
351 Pennine
129 Pennino
3659 Pennsylvania
919 Penny
133 Pensa
215 Pensieri
387 Pensiero
121 Pensionati
429 Pentagono
193 Pentapoli
201 Pentateuco
713 Pentecoste
1419 Pentium
747 Pepe
113 Pepi
1065 Peppino
342 Pepsi
312 Pera
351 Percentuale
497 Perché
482 Percorsi
791 Percorso
159 Perdono
125 Perduto
216 Pere
352 Perego
135 Perfetti
117 Perfetto
122 Perfezionamento
906 Performance
548 Pergamo
433 Pergola
263 Pergolesi
214 Peri
483 Pericle
103 Pericolo
726 Periodo
172 Perito
1143 Perla
125 Perle
586 Permanente
596 Permiano
285 Pero
235 Peroni
129 Perpetua
123 Perpetuo
1179 Perse
985 Perseo
2703 Persia
109 Persiana
1638 Persiani
309 Persiano
1062 Persico
251 Persona
287 Personale
104 Pertinace
6250 Perugia
118 Perugini
753 Perugino
5370 Perù
457 Pesa
152 Pesante
2784 Pesaro
284 Pesca
302 Pescaia
3586 Pescara
210 Pescarolo
106 Pescasseroli
187 Pescatore
133 Pescatori
576 Pesce
108 Pescheria
556 Peschiera
400 Pesci
590 Pescia
279 Pesi
141 Peso
102 Pessina
209 Peste
106 Pesto
985 Petra
1554 Petrarca
197 Petrella
322 Petrelli
173 Petrie
107 Petrone
201 Petronilla
773 Petronio
125 Pezza
193 Pezzi
163 Pezzo
226 Phobos
435 Pi
1581 Pia
445 Piacentini
197 Piacentino
5342 Piacenza
103 Piacere
1129 Pian
1804 Piana
233 Piane
113 Pianello
547 Pianeta
320 Pianeti
523 Piani
153 Pianificazione
4201 Piano
173 Pianoforte
147 Pianosa
149 Pianta
118 Piante
205 Pianto
1217 Pianura
265 Pianure
211 Piattaforma
138 Piatti
2220 Piave
10842 Piazza
471 Piazzale
276 Piazzetta
103 Piazzi
185 Pica
1239 Picasso
108 Piccardi
244 Picchi
136 Picchio
295 Piccioni
321 Picco
1805 Piccola
607 Piccole
1142 Piccoli
3303 Piccolo
172 Picena
272 Piceni
1403 Piceno
666 Pico
739 Pie
225 Piedi
153 Piedino
8143 Piemonte
448 Piemontese
173 Piemontesi
189 Pienza
3910 Pier
191 Piera
224 Pierangelo
280 Pierfrancesco
262 Piergiorgio
367 Pierino
867 Pierluigi
7256 Piero
310 Pierpaolo
289 Pierrot
1974 Pietra
399 Pietre
160 Pietrelcina
35082 Pietro
4695 Pietroburgo
1849 Pietà
3215 Pieve
115 Pievi
116 Pifferaio
236 Pigna
164 Pignone
234 Pila
140 Pilade
410 Pilar
130 Pilastri
145 Pilastro
672 Pilato
357 Pilo
116 Pilone
306 Pilota
273 Piloti
455 Pina
1460 Pinacoteca
202 Pindaro
704 Pinerolo
287 Pineta
148 Pineto
219 Ping
215 Pinguino
393 Pini
181 Pinna
3001 Pino
1216 Pinocchio
518 Pinochet
364 Pinot
252 Pinzano
12841 Pio
257 Pioggia
1002 Piombino
225 Piombo
282 Pionieri
145 Piovani
163 Piove
144 Piovra
101 Pipe
128 Piperno
1418 Pipino
216 Pipistrello
2458 Pippo
286 Pira
386 Piramide
146 Piramidi
1090 Pirandello
159 Piranesi
142 Piranha
238 Pirata
183 Pirate
507 Pirati
2732 Pirenei
130 Piro
449 Pironi
875 Pirro
11065 Pisa
239 Pisacane
309 Pisana
1124 Pisani
1017 Pisano
223 Piscina
116 Pisistrato
111 Pisogne
269 Pista
3062 Pistoia
1093 Pistoiese
584 Pitagora
318 Pitigliano
1057 Pitti
596 Pittore
134 Pittori
492 Pittura
150 Piva
774 Pizarro
102 Pizia
347 Pizza
170 Pizzetti
394 Pizzi
143 Pizzighettone
1216 Pizzo
128 Placca
147 Placebo
933 Placido
116 Plana
664 Planck
133 Plantageneti
335 Plantageneto
144 Plasma
142 Platani
187 Platea
309 Plateau
134 Platense
259 Platini
836 Platino
2313 Platone
440 Plauto
1866 Play
895 Playboy
289 Plebiscito
336 Pleiadi
866 Pleistocene
1896 Plinio
529 Pliocene
371 Plotino
1185 Plus
866 Plutarco
528 Pluto
773 Plutone
4870 Po
311 Pocket
850 Podestà
800 Poe
169 Poema
758 Poesia
447 Poesie
363 Poeta
282 Poeti
203 Poetica
467 Poggi
101 Poggiali
2316 Poggio
112 Poggiomarino
257 Poggioreale
185 Poiana
108 Pointer
1006 Poker
1627 Pola
328 Polacca
199 Polacchi
290 Polacco
357 Polare
153 Polaroid
219 Polenta
722 Polesine
646 Poli
408 Policlinico
244 Polidoro
239 Polifemo
123 Polignano
109 Poligono
106 Poligrafico
550 Polinesia
192 Polinice
139 Polis
792 Polisportiva
165 Polissena
357 Politeama
1899 Politecnico
845 Politica
1451 Politiche
145 Politici
397 Politico
537 Polittico
3649 Polizia
304 Poliziano
105 Polka
143 Polla
230 Pollaiolo
126 Pollina
208 Pollini
363 Pollino
137 Pollo
382 Polluce
3427 Polo
14592 Polonia
269 Polvere
108 Pomarance
102 Pombia
1635 Pomerania
203 Pomeriggio
331 Pomezia
171 Pomodoro
1426 Pompei
2792 Pompeo
212 Pompilio
291 Pomponio
121 Pomposa
282 Ponce
174 Ponchielli
881 Ponente
115 Pong
131 Ponsacco
122 Pontano
170 Pontassieve
6859 Ponte
135 Pontebba
1451 Pontefice
142 Pontefici
959 Ponti
188 Ponticelli
109 Pontida
127 Pontifici
1900 Pontificia
131 Pontificie
3015 Pontificio
180 Pontino
1217 Ponto
384 Pontormo
476 Pontremoli
472 Pony
342 Ponza
148 Ponzano
199 Ponzi
432 Ponzio
670 Pool
2326 Pop
668 Pope
5714 Popolare
467 Popolari
573 Popoli
4602 Popolo
365 Poppa
160 Poppi
173 Por
125 Porcari
191 Porcaro
131 Porcia
122 Porco
1312 Pordenone
278 Porfirio
122 Porno
110 Poro
210 Porpora
259 Porro
115 Porsenna
10445 Porta
391 Portale
811 Porte
143 Portella
157 Portello
458 Portici
262 Portico
216 Portiere
8880 Porto
260 Portoferraio
325 Portofino
10107 Portogallo
298 Portoghese
295 Portoghesi
531 Portogruaro
114 Portomaggiore
114 Portuale
756 Poseidone
499 Posillipo
1582 Post
325 Posta
189 Postal
196 Postale
1202 Poste
109 Posteriore
119 Postiglione
411 Postumia
305 Postumio
197 Postumo
2250 Potenza
509 Potenze
1075 Potere
288 Potito
170 Poule
602 Poveri
103 Povero
194 Pozza
200 Pozzetto
485 Pozzi
1792 Pozzo
758 Pozzuoli
190 Pozzuolo
5465 Praga
191 Praia
167 Prammatica
142 Prassede
605 Prati
267 Pratica
3977 Prato
102 Pratolini
625 Pravo
100 Pray
1440 Prealpi
179 Predappio
146 Predazzo
194 Predicatori
109 Prefazione
894 Prefetto
1307 Prefettura
262 Preghiera
188 Preistoria
220 Preludio
2311 Premi
308 Premiata
3333 Premier
27463 Premio
885 Preparatore
230 Presa
194 Present
492 Presentazione
261 Presepe
404 Preside
21688 Presidente
495 Presidenti
2210 Presidenza
175 Presidenziale
197 Presidio
145 Presolana
105 Presse
175 Presti
495 Prete
112 Pretestato
412 Preti
146 Pretore
392 Pretoria
358 Pretorio
133 Pretura
155 Prevenzione
199 Previdenza
110 Prevosto
271 Preziosi
112 Preziosissimo
644 Priamo
243 Prieto
143 Prigione
117 Prigioni
101 Prigionieri
107 Prigioniero
15903 Prima
111 Primario
123 Primate
185 Primati
2453 Primavera
1051 Prime
229 Primiero
10455 Primo
215 Primula
2230 Prince
171 Principati
2808 Principato
8265 Principe
2678 Principessa
130 Principesse
1301 Principi
163 Principia
265 Principio
336 Priolo
180 Priora
315 Priorato
479 Priore
353 Priori
122 Prisca
384 Priscilla
762 Prisco
117 Pristina
107 Privata
585 Private
332 Privato
104 Priverno
9852 Pro
119 Probe
265 Probo
120 Procacci
212 Procaccini
122 Procedura
237 Processione
705 Processo
121 Processor
422 Procida
364 Procione
290 Proconsolare
542 Procopio
1244 Procura
748 Procuratore
1711 Prodi
162 Prodotti
269 Prodotto
119 Produttive
153 Produttori
460 Produzione
136 Produzioni
1222 Prof
326 Professionale
209 Professione
204 Professionisti
1730 Professor
1111 Professore
1108 Profeta
561 Profeti
225 Profondo
197 Profumo
170 Progettazione
167 Progetti
2877 Progetto
1794 Programma
219 Programmazione
286 Progressista
164 Progressisti
347 Progressive
284 Progresso
196 Proibita
511 Proietti
452 Proletaria
125 Prologo
183 Promessa
271 Promessi
546 Prometeo
219 Promise
195 Promo
126 Promontorio
135 Promossa
146 Promotrice
3949 Promozione
326 Pronto
807 Propaganda
119 Proposta
213 Proposte
111 Prosa
111 Prosecco
251 Proserpina
224 Prosperi
841 Prospero
105 Prospettiva
218 Protasio
135 Proteo
220 Protestante
237 Protestantesimo
196 Protestanti
132 Protetta
246 Protettorato
264 Protettore
1036 Protezione
113 Proto
172 Protocolli
413 Protocollo
157 Prototipi
114 Prototipo
443 Proust
286 Prova
102 Provaci
119 Prove
2492 Provenza
161 Provider
1875 Province
17373 Provincia
1938 Provinciale
405 Provinciali
213 Provincie
180 Provveditore
713 Provvidenza
1366 Provvisoria
390 Provvisorio
101 Prudente
127 Prudenza
290 Prue
5658 Prussia
215 Psi
285 Psiche
157 Psichiatria
123 Psichiatrico
231 Psico
100 Psicoanalisi
809 Psicologia
124 Pub
2294 Pubblica
239 Pubbliche
921 Pubblici
157 Pubblicità
853 Pubblico
1584 Publio
1588 Puccini
579 Pueblo
197 Pugilato
5751 Puglia
631 Pugliese
118 Pugni
401 Pugno
110 Pula
159 Pulci
322 Pulcinella
103 Pulcini
131 Pulite
191 Pullman
432 Puma
303 Punch
110 Punica
191 Punitore
156 Punizione
1798 Punk
2801 Punta
115 Puntata
1185 Punti
966 Punto
428 Pupi
231 Pupo
162 Pur
198 Pura
339 Pure
155 Purga
1240 Purgatorio
103 Puri
166 Purificazione
163 Puritani
135 Puteolana
181 Putignano
100 Putti
172 Puzzle
1425 Qatar
350 Qua
539 Quaderni
154 Quadra
111 Quadrante
183 Quadrato
286 Quadri
457 Quadriennale
156 Quadrilatero
268 Quadro
101 Quadruplice
121 Quai
159 Qualcosa
167 Qualcuno
105 Qualificazione
139 Qualificazioni
296 Qualità
1521 Quando
299 Quantum
619 Quaranta
457 Quaresima
118 Quark
119 Quart
1516 Quarta
758 Quartetto
324 Quarti
460 Quartier
811 Quartiere
196 Quartieri
1427 Quarto
135 Quasar
195 Quaternario
3261 Quattro
112 Quattrocchi
3176 Quattrocento
643 Quebec
164 Quei
386 Quel
707 Quelli
504 Quercia
2078 Questa
180 Questione
