
\data\
ngram 1=45971
ngram 2=2236

\1-grams:
1 <unk>
1 <s>
1 </s>
1 <num>
199 A-elftal
110 A-junioren
249 A-kant
260 A-kern
110 A-ploeg
136 A-selectie
516 A3
821 A4
949 AA
172 AAA
770 AB
320 ABBA
1073 ABC
668 ABN
201 ABP
284 ABS
97 ACE
619 AD
130 ADAC
305 ADHD
1263 ADO
154 ADSL
118 AEX
140 AH
137 AI
190 AIVD
176 AK
374 AM
440 AMC
176 AMD
121 AMR
561 AMRO
275 AN
435 ANC
174 ANP
312 ANWB
215 AOW
183 AOW-leeftijd
265 API
148 AR
188 ARD
91 ARM
629 ARP
1776 AS
97 ASCII
150 ASO
463 AT
134 AT5
91 ATA
109 ATB
261 ATV
116 AU
1367 AVRO
129 AWBZ
1833 AZ
1724 Aa
485 Aad
142 Aalburg
463 Aalsmeer
1834 Aalst
492 Aalten
224 Aalter
123 Aaltje
148 Aanbidding
100 Aangelegenheden
134 Aar
6102 Aarde
249 Aardenburg
175 Aardse
91 Aarlanderveen
148 Aarle-Rixtel
383 Aarlen
722 Aaron
378 Aarschot
305 Aart
229 Aartsbisdom
113 Aartsbisschop
101 Aartselaar
233 Aartsen
93 Aartsengel
317 Aat
499 Ab
341 Abbas
1211 Abbey
228 Abby
412 Abchazië
364 Abcoude
409 Abd
100 Abdallah
153 Abdel
1514 Abdij
116 Abdoel
369 Abdul
334 Abdullah
527 Abe
197 Abeba
687 Abel
134 Abigail
214 Aboe
199 Aboriginal
133 Aboriginals
124 Aborigines
188 Abou
2602 Abraham
141 Abrahams
106 Abram
111 Abrams
370 Abruzzen
123 Absolute
262 Abt
1036 Abu
7366 Academie
104 Academiegebouw
280 Academisch
127 Academische
220 Accra
158 Acda
345 Ace
3920 Aceh
116 Acer
102 Aces
141 Achel
130 Achiel
249 Achille
766 Achilles
154 Achmea
380 Acht
296 Achter
1047 Achterberg
645 Achterhoek
109 Achterhoekse
127 Achterwerk
117 Achtkarspelen
249 Achtste
158 Acid
320 Acker
114 Ackermann
137 Acre
114 Acres
1554 Act
269 Acteur
402 Actie
150 Actiepartij
639 Actor
294 Actrice
104 Acts
1086 Ad
382 Ada
113 Adagio
3151 Adam
201 Adama
2047 Adams
117 Adder
219 Addis
561 Adel
183 Adela
525 Adelaar
790 Adelheid
135 Adema
299 Aden
95 Adi
103 Adil
103 Adinkerke
138 Administratie
472 Admiraal
667 Admiraliteit
352 Adobe
3581 Adolf
168 Adonis
156 Adri
2130 Adriaan
165 Adriaanse
93 Adriaansen
832 Adrian
560 Adriana
183 Adriano
787 Adrianus
702 Adriatische
167 Adrie
252 Adrien
195 Adrienne
315 Aduard
109 Adult
261 Advies
265 Advocaat
213 Advocaten
99 Aegon
401 Aeneas
129 Aerdenhout
396 Aerts
194 Afbeelding
728 Afdeling
214 Affligem
2094 Afgevaardigden
98 Afghaans
854 Afghaanse
165 Afghanen
2695 Afghanistan
178 Aflevering
114 Afrekening
32394 Afrika
1488 Afrikaans
5190 Afrikaanse
367 Afrikanen
129 Afrikaner
273 Afrikaners
553 Afro-Amerikaanse
232 Afro-Amerikanen
351 Afsluitdijk
332 Afstanden
95 Afwateringskanaal
200 Agamemnon
579 Agatha
891 Age
390 Agent
458 Agentschap
1194 Agnes
92 Agnetha
107 Agnus
198 Agrarische
138 Agreement
249 Agricola
366 Agt
116 Ah
522 Ahmad
553 Ahmed
163 Ahold
428 Ahoy
229 Ai
171 Aida
196 Aimé
5966 Air
743 Airbus
1846 Aires
91 Aissati
188 Ajaccio
5214 Ajax
125 Akaba
283 Akbar
2079 Aken
179 Akense
109 Aker
104 Aki
224 Akira
123 Akker
199 Akkerman
270 Akkoord
98 Akkrum
152 Akte
91 Akzo
3360 Al
1067 Alain
272 Alam
2437 Alan
259 Alarmschijf
576 Alba
184 Alban
503 Albanees
1020 Albanese
276 Albanezen
1802 Albanië
134 Albans
227 Albatros
135 Alberda
171 Albers
9249 Albert
781 Alberta
469 Alberti
179 Albertina
131 Albertine
440 Albertkanaal
1434 Alberto
460 Alberts
502 Albertus
107 Albino
483 Albion
184 Alblasserdam
205 Alblasserwaard
2221 Albrecht
1446 Album
374 Albums
273 Aldo
314 Alec
202 Aleid
175 Aleida
492 Alejandro
211 Aleksander
117 Alem
215 Aleoeten
355 Aleppo
185 Alert
646 Alessandro
156 Aletta
2780 Alex
9819 Alexander
177 Alexanders
1059 Alexandra
1003 Alexandre
1488 Alexandrië
96 Alexia
503 Alexis
1008 Alfa
197 Alfabet
1565 Alfons
559 Alfonso
4035 Alfred
492 Alfredo
172 Alfrink
1849 Algemeen
2939 Algemene
1842 Algerije
175 Algerijns
689 Algerijnse
602 Algiers
2640 Ali
104 Alias
2165 Alice
383 Alicia
339 Alida
354 Alien
142 Aliens
122 Alighieri
262 Alison
124 Alix
169 Alkemade
146 Alken
2521 Alkmaar
171 Alkmaarse
3187 All
299 Allah
831 Allan
464 Allard
470 Alle
265 Allee
269 Allegro
104 Allemaal
2669 Allen
177 Allende
140 Aller
109 Allerheiligen
93 Allerheiligenvloed
131 Allerheiligste
508 Alles
1054 Alliantie
119 Allianz
445 Allison
125 Allo
1065 Allround
132 Alm
576 Alma
159 Alma-Ata
347 Almeida
1762 Almelo
1857 Almere
100 Almkerk
805 Alonso
172 Aloysius
3686 Alpen
664 Alpha
1249 Alphen
152 Alphons
107 Alpiene
222 Alpine
147 Alps
180 Alt
460 Alta
274 Altaj
109 Altan
535 Altena
128 Altenburg
121 Alter
95 Alternatief
122 Alternatieve
153 Alting
139 Altman
679 Alto
665 Alva
240 Alvarez
125 Alvaro
227 Alves
193 Alvin
379 Alzheimer
868 Amadeus
577 Amalia
102 Amalie
161 Aman
622 Amanda
883 Amateur
166 Amateurliga
92 Amati
137 Amaury
380 Amazone
131 Amazonebekken
133 Amazonegebied
110 Amazonen
141 Amazoneregenwoud
122 Ambacht
102 Ambachten
112 Ambassade
111 Ambassadeur
363 Amber
387 Ambon
199 Ambrose
334 Ambrosius
281 Ambt
374 Ameland
238 Amelia
119 Amen
94 Amer
2502 America
6858 American
9893 Amerika
2285 Amerikaan
15375 Amerikaans
167 Amerikaans-Samoa
88788 Amerikaanse
4251 Amerikanen
396 Amerongen
3109 Amersfoort
172 Amersfoortse
187 Amigo
243 Amin
213 Amir
201 Amman
156 Ammerzoden
281 Amnesty
327 Amoer
481 Amon
213 Amor
251 Amos
1838 Amstel
123 Amsteldijk
170 Amstelland
240 Amstelstation
1188 Amstelveen
175 Amstelveenseweg
240 Amstenrade
45974 Amsterdam
395 Amsterdam-Noord
158 Amsterdam-Oost
260 Amsterdam-Rijnkanaal
183 Amsterdam-West
270 Amsterdam-Zuid
449 Amsterdammer
358 Amsterdammers
984 Amsterdams
7882 Amsterdamse
122 Amsterdamsestraatweg
107 Amu
964 Amy
198 Amélie
1763 An
653 Ana
125 Anadyr
392 Anakin
116 Anand
91 Anas
431 Anastasia
198 Anatolische
725 Anatolië
913 Ancien
120 Andalusische
1076 Andalusië
133 Andante
220 Andel
163 Ander
123 Anderen
3641 Anderlecht
884 Anders
531 Andersen
2279 Anderson
123 Andersons
364 Andersson
674 Andes
96 Andi
135 Andijk
691 Andorra
119 Andorrese
287 Andrade
1350 Andrea
91 Andreae
1779 Andreas
445 Andrei
586 Andrej
265 Andres
2122 Andrew
779 Andrews
814 Andries
449 Andriessen
4048 André
414 Andrés
2169 Andy
106 Ane
1230 Angel
881 Angela
186 Angelica
165 Angelina
143 Angelique
524 Angelo
756 Angels
167 Angelsaksen
95 Angelsaksisch
792 Angelsaksische
101 Angelus
172 Angie
673 Anglicaanse
1332 Angola
189 Angolese
109 Angst
140 Anguilla
285 Angus
174 Anholt
701 Anita
177 Anja
493 Ankara
137 Anke
382 Anker
163 Anloo
1731 Ann
7397 Anna
129 Annalen
3262 Anne
164 Anne-Marie
283 Anneke
142 Annelies
238 Annemarie
110 Annemie
115 Annemieke
107 Annet
486 Annette
1626 Annie
208 Anno
147 Anny
436 Anouk
249 Ans
256 Anschluss
93 Antananarivo
1029 Antarctica
242 Antarctisch
399 Antarctische
99 Ante
256 Anthonie
247 Anthonis
92 Anthonius
2290 Anthony
137 Antigone
325 Antigua
1664 Antillen
375 Antilliaanse
1072 Antiochië
150 Antipater
170 Antje
1515 Antoine
573 Antoinette
3901 Anton
390 Antoni
539 Antonia
268 Antonie
130 Antonin
3479 Antonio
1990 Antonius
302 Antony
679 Antoon
16020 Antwerpen
314 Antwerps
2897 Antwerpse
97 Anwar
283 Apache
96 Apartheid
2394 Apeldoorn
127 Apeldoornse
231 Apennijnen
465 Aphrodite
139 Apocalyps
1364 Apollo
97 Apollonia
108 Apostel
222 Apostelen
266 Apostolisch
552 Apostolische
145 Appalachen
500 Appel
109 Appelscha
208 Appie
551 Appingedam
1814 Apple
111 Apples
547 April
422 Apulië
149 Aquarium
2931 Aquitanië
232 Ar
273 Ara
167 Arab
117 Arabier
1445 Arabieren
3997 Arabisch
135 Arabisch-Israëlische
5968 Arabische
259 Arabië
268 Arafat
569 Aragon
98 Aralmeer
131 Aram
263 Aramees
91 Arameeërs
162 Aramese
149 Ararat
1573 Arbeid
349 Arbeiders
792 Arbeiderspartij
125 Arbeidspartij
185 Arbitrage
162 Arboretum
249 Arcade
147 Arcadia
288 Arcen
191 Archeologie
228 Archeologisch
338 Archibald
586 Archief
293 Archimedes
433 Archipel
93 Architect
235 Architecten
275 Architectuur
137 Arco
247 Arctische
129 Ard
145 Arden
1271 Ardennen
142 Ardennenoffensief
608 Ardennes
105 Ardooie
1078 Are
1376 Area
1478 Arena
617 Arend
125 Arendonk
198 Arent
279 Ares
314 Argentijn
105 Argentijnen
714 Argentijns
3137 Argentijnse
4452 Argentinië
290 Argus
244 Ari
122 Aria
128 Ariadne
240 Ariane
968 Arie
158 Aris
174 Arische
1102 Aristoteles
103 Ariël
94 Ariërs
299 Arjan
243 Arjen
602 Ark
1216 Arkansas
559 Arkel
194 Arm
312 Armada
162 Armageddon
191 Armagnac
666 Armand
291 Armando
93 Armani
107 Arme
145 Armee
618 Armeens
1403 Armeense
109 Armen
1753 Armenië
388 Armeniërs
321 Armin
1438 Armstrong
277 Arnaud
340 Arne
152 Arnemuiden
5682 Arnhem
458 Arnhemse
531 Arno
3053 Arnold
283 Arnoldus
145 Arnoud
203 Aron
1300 Arriva
107 Arron
308 Ars
186 Arsenaal
1220 Arsenal
148 Arslan
4674 Art
545 Artemis
346 Artesië
5346 Arthur
95 Arthurs
337 Arti
160 Artie
219 Artikel
116 Artikelen
359 Artillerie
347 Artis
3781 Arts
136 Artsen
1136 Aruba
212 Arubaanse
1257 As
178 Asch
94 Asem
181 Asen
94 Ashanti
143 Asher
516 Ashley
216 Ashton
749 Asia
102 Asjkenazische
231 Aslan
163 Asperen
154 Asperger
129 Asscher
288 Asse
238 Assebroek
268 Assemblee
2105 Assen
257 Assendelft
134 Assenede
167 Assepoester
229 Asser
358 Assisi
336 Associatie
658 Assyrische
300 Assyrië
321 Assyriërs
358 Astana
554 Asten
105 Aster
684 Aston
128 Astor
578 Astrid
102 Astronomische
460 Asturië
181 Asunción
493 At
171 Atalanta
282 Atelier
162 Ateliers
652 Atheense
602 Athena
5495 Athene
350 Atheners
435 Atheneum
7927 Atjeh
729 Atlantis
274 Atlantisch
4263 Atlantische
905 Atlas
93 Atlasgebergte
343 Atletiek
135 Atletiekunie
237 Attika
234 Attila
172 Attische
241 Au
586 Aude
1424 Audi
257 Audio
184 Auditorium
355 Audrey
3233 August
1196 Augusta
1134 Auguste
122 Augustijnen
315 Augustin
805 Augustinus
2229 Augustus
153 Auke
144 Aurelia
106 Aurelio
476 Aurelius
491 Aurora
1080 Auschwitz
132 Ausems
151 Austen
156 Austerlitz
1799 Austin
1301 Australisch
6639 Australische
12080 Australië
584 Australiër
335 Australiërs
113 Australopithecus
668 Auto
1246 Autonome
462 Autoriteit
253 Autosalon
1657 Auvergne
138 Ava
186 Avalon
192 Avant
293 Avatar
264 Ave
113 Avelgem
95 Avenhorn
1916 Avenue
207 Averbode
104 Avereest
100 Aves
175 Avon
216 Avondmaal
478 Avonds
94 Avonturen
342 Ax
1001 Axel
112 Ayaan
167 Ayers
153 Ayrton
210 Azerbeidzjaans
525 Azerbeidzjaanse
1485 Azerbeidzjan
130 Azerbeidzjanen
145 Aziaten
422 Aziatisch
3729 Aziatische
308 Aziz
5858 Azië
513 Azoren
181 Azov
422 Azteekse
455 Azteken
156 Aäron
101 B-52
123 B-elftal
180 B-films
192 B-groep
1051 B-kant
136 B-lijst
248 B12
265 BA
194 BAM
115 BASF
175 BASIC
3183 BBC
333 BE
229 BEF
142 BES
155 BG
744 BI
103 BIOS
92 BIS
189 BMC
2867 BMW
92 BMX
578 BNN
786 BRT
319 BS
458 BSC
1888 BV
587 BW
392 Ba
825 Baai
131 Baal
349 Baan
261 Baantjer
140 Baar
130 Baard
145 Baarle-Hertog
228 Baarle-Nassau
195 Baarlo
995 Baarn
113 Baarnse
142 Baars
293 Baas
125 Baasrode
102 Bab
865 Baba
143 Babe
301 Babel
94 Babette
140 Babs
1349 Baby
635 Babylonische
236 Babylonië
155 Bacchus
2471 Bach
1406 Bachelor
363 Bachs
1408 Back
265 Backer
355 Bacon
3627 Bad
1323 Baden
171 Badhoevedorp
234 Badminton
138 Baer
218 Baert
157 Baflo
794 Bagdad
115 Bahr
523 Bahrein
682 Bailey
259 Bakel
107 Bakema
1772 Baker
1517 Bakker
164 Bakkum
706 Bakoe
325 Bal
121 Balatonmeer
328 Balearen
209 Balen
1593 Bali
198 Balie
140 Balinese
104 Balinezen
157 Balk
1243 Balkan
127 Balkanoorlog
96 Balkanoorlogen
198 Balke
477 Balkenende
703 Ballet
149 Ballin
156 Ballon
132 Ballroom
473 Balthasar
101 Baltisch
1277 Baltische
154 Bam
119 Bamako
667 Ban
253 Banaat
4243 Band
1164 Banda
108 Bandar
130 Bands
655 Bang
1125 Bangkok
971 Bangladesh
4217 Bank
207 Banka
116 Banken
146 Banning
96 Bannink
1481 Bantam
150 Bao
522 Baptist
149 Baptista
383 Baptiste
786 Bar
175 Bara
441 Barack
107 Barak
414 Barbados
3129 Barbara
170 Barbarijse
100 Barbier
258 Barbuda
119 Bard
563 Barend
333 Barendrecht
105 Barentsz
150 Barentszzee
102 Barkas
354 Barker
91 Barman
106 Barmhartigheid
1120 Barnard
1158 Barnes
1025 Barneveld
181 Barok
1349 Baron
197 Baronie
241 Barre
96 Barrie
113 Barrier
254 Barron
112 Barroso
1478 Barry
2596 Bart
126 Bartel
165 Bartels
251 Barth
224 Bartholomeus
177 Baruch
1603 Bas
504 Base
387 Baseball
606 Basel
132 Bashir
329 Basic
192 Basil
352 Basilica
372 Basiliek
98 Basjkirostan
170 Basken
793 Baskenland
95 Basket
124 Basketbal
558 Baskisch
767 Baskische
466 Bass
358 Bassie
109 Bassin
165 Basso
99 Basta
498 Basten
261 Bastenaken
242 Bastiaan
154 Bastian
194 Bastion
187 Bat
195 Bataafs
1184 Bataafse
447 Bataljon
284 Bataven
2283 Batavia
281 Bate
260 Batenburg
575 Bath
140 Baton
1028 Battle
135 Baud
820 Bauer
245 Bauhaus
113 Baum
249 Baumann
98 Baur
117 Bauwens
241 Bavaria
189 Bavel
132 Bavo
120 Bax
290 Baxter
828 Bayer
127 Bazaar
1643 Bazel
180 Baäl
1681 Be
158 Bea
141 Beagle
162 Bears
617 Beat
2144 Beatles
456 Beatrice
107 Beatrijs
1882 Beatrix
98 Beats
328 Beau
618 Beaufort
522 Beaumont
411 Beauty
778 Beck
1601 Becker
130 Beckers
162 Beckman
111 Becky
202 Bed
165 Bedrijf
123 Bedrijfskunde
281 Bedum
137 Beeck
1852 Beek
113 Beekbergen
304 Beeld
166 Beelden
1342 Beeldende
240 Beeldenstorm
229 Beelen
107 Beemden
221 Beemster
350 Been
143 Beenhakker
1532 Beer
185 Beernem
223 Beers
227 Beerse
193 Beersel
132 Beerta
123 Beerze
104 Beesd
125 Beesel
254 Beest
1342 Beethoven
133 Beethovens
180 Beets
125 Beetsterzwaag
230 Begijnhof
242 Begin
630 Begraafplaats
402 Beheer
146 Behoud
127 Behr
109 Behrens
378 Beide
459 Beier
7075 Beieren
165 Beiers
1428 Beierse
101 Beijen
113 Beijer
426 Beijing
219 Beilen
563 Beiroet
167 Beke
185 Bekende
2041 Beker
149 Bekerwinnaars
295 Bekken
109 Bekker
360 Bel
723 Belang
177 Belangrijke
303 Belastingdienst
1051 Beleg
182 Beleid
230 Belfeld
648 Belfort
1685 Belg
263 Belgacom
1924 Belgen
12349 Belgisch
213 Belgisch-Nederlandse
36768 Belgische
36584 België
1549 Belgrado
107 Belinda
461 Belize
137 Belkin
2143 Bell
633 Bella
1231 Belle
97 Belles
93 Bellingwedde
111 Bellingwolde
225 Bello
189 Bells
220 Belt
213 Bemmel
4256 Ben
90 Benda
237 Bende
208 Bender
292 Beneden
345 Benedict
115 Benedictijnen
138 Benedictijner
1660 Benedictus
1439 Benelux
156 Bengaals
230 Bengaalse
513 Bengalen
135 Benghazi
588 Benin
577 Benito
2207 Benjamin
129 Bennebroek
275 Bennekom
192 Bennet
1040 Bennett
156 Bennie
120 Bennink
182 Benno
851 Benny
201 Benoist
638 Benoit
215 Benoît
135 Benschop
159 Bent
177 Benthem
300 Bentley
148 Bento
107 Bentveld
220 Benz
132 Bep
138 Berber
469 Berbers
291 Berberse
632 Berchem
170 Beren
365 Berend
3678 Berg
112 Bergambacht
404 Berge
261 Bergeijk
5110 Bergen
185 Bergen-Belsen
130 Bergense
747 Berger
275 Bergerac
1288 Bergh
103 Berghem
99 Berghmans
149 Bergkamp
135 Bergland
142 Bergmann
110 Bergschenhoek
113 Bergse
149 Bergsma
101 Bergum
419 Beringen
147 Beringstraat
128 Beringzee
212 Berk
463 Berkel
99 Berkel-Enschot
121 Berkelland
193 Berkhout
433 Berlage
123 Berlare
186 Berlicum
12629 Berlijn
120 Berlijns
2690 Berlijnse
246 Berlioz
432 Berlusconi
118 Berman
580 Bermuda
2366 Bern
189 Bernadette
3485 Bernard
436 Bernardo
464 Bernardus
246 Bernd
204 Berne
337 Berner
2209 Bernhard
92 Bernheze
254 Bernie
94 Bernisse
452 Beroep
1210 Berry
2294 Bert
507 Bertha
126 Berthe
147 Bertje
154 Bertram
681 Bertrand
303 Bertus
95 Bervoets
135 Beryl
260 Bes
262 Bescherming
3236 Besluit
141 Bess
175 Bessarabië
98 Besseling
2831 Best
1950 Bestand
3430 Beste
93 Besturend
1220 Bestuur
155 Bet
204 Beter
507 Bethlehem
123 Betrekkingen
237 Betsy
220 Bette
907 Betty
351 Betuwe
99 Betuwelijn
191 Betuweroute
90 Beumer
644 Beuningen
384 Beurs
108 Beursplein
207 Bever
100 Bevere
1058 Beveren
135 Beverlo
1256 Beverly
483 Beverwijk
645 Bevordering
388 Bevrijding
121 Bevrijdingsfront
171 Bevrijdingsleger
190 Bewaring
1482 Beweging
219 Bewind
150 Beyer
226 Beyoncé
215 Bezige
649 Bhutan
170 Bi
378 Bianca
242 Bianchi
96 Bibi
1124 Bibliotheek
294 Bicker
174 Biddinghuizen
518 Bie
195 Biegel
237 Biel
121 Bien
147 Bier
93 Bierbeek
118 Bierbrouwerij
169 Biervliet
427 Biesbosch
229 Biesen
115 Biesheuvel
4004 Big
339 Bigot
3475 Bijbel
331 Bijbelboek
173 Bijbels
941 Bijbelse
286 Bijbelvertaling
240 Bijenkorf
226 Bijl
234 Bijleveld
333 Bijlmer
235 Bijlmermeer
231 Bijrol
112 Bijstand
100 Bijvoet
104 Bijzonder
494 Bijzondere
640 Bilbao
94 Bilde
107 Bilderdijk
241 Bildt
3657 Bill
2058 Billboard
642 Billie
150 Billiton
2218 Billy
429 Bilt
364 Bilthoven
231 Bilzen
205 Bima
246 Bin
131 Binda
533 Bing
229 Binnen-Mongolië
398 Binnenhof
2460 Binnenlandse
98 Binnenmaas
214 Binnenstad
106 Biologie
92 Biologische
134 Birgit
654 Birma
161 Birmese
179 Bischoff
746 Bisdom
349 Biskaje
353 Bisschop
132 Bisschoppelijk
136 Bit
169 Bitter
519 Biënnale
111 Bjarne
93 Bjorn
398 Björn
159 Blaak
175 Blaauw
4956 Black
146 BlackBerry
197 Bladel
149 Blaeu
755 Blair
635 Blanc
467 Blanca
518 Blanche
315 Blanco
140 Blank
118 Blanken
364 Blankenberge
153 Blankenburg
346 Blaricum
347 Blauw
1456 Blauwe
97 Blazers
995 Bleeker
202 Bleiswijk
483 Blerick
164 Bleu
126 Blijde
233 Blijdorp
94 Blik
552 Blind
140 Blinde
157 Blitz
142 Blitzkrieg
126 Bloc
539 Block
361 Bloed
202 Bloedbad
177 Bloem
242 Bloemen
861 Bloemendaal
134 Bloemfontein
923 Blok
113 Blokhuis
194 Blokker
198 Blokland
149 Blokzijl
398 Blom
103 Blomberg
119 Blommaert
120 Blond
226 Blonde
272 Bloody
277 Bloom
139 Blow
3586 Blue
1514 Blues
158 Blum
110 Blume
970 Bo
298 Boa
965 Board
4719 Bob
220 Bobbie
1486 Bobby
103 Bobo
326 Bocholt
127 Bocholtz
248 Bocht
347 Bock
192 Bode
311 Bodegraven
179 Boden
174 Bodenmeer
100 Bodensee
499 Body
164 Boechout
2511 Boedapest
1184 Boeddha
140 Boeijen
1754 Boeing
1424 Boek
1704 Boekarest
240 Boekel
140 Boekelo
230 Boeken
107 Boekhandel
209 Boekje
153 Boekovina
148 Boelens
99 Boemel
139 Boeotië
2204 Boer
432 Boeren
160 Boerenbond
93 Boerenkrijg
306 Boerenoorlog
286 Boerenpartij
130 Boerhaave
110 Boerjatië
117 Boermans
102 Boersma
101 Boeters
93 Boezinge
160 Bogaert
99 Bogaerts
281 Bogota
157 Boheems
441 Boheemse
1867 Bohemen
225 Bohr
318 Boijmans
520 Bois
96 Bojan
172 Bok
91 Bokaal
107 Bokhoven
282 Bol
233 Bolhuis
131 Bolivar
1520 Bolivia
503 Boliviaanse
111 Bolkestein
108 Boll
134 Bolland
163 Bolle
128 Bollenstreek
104 Bollywood
178 Bolsjewieken
91 Bolsjewistische
116 Bolstraat
494 Bolsward
275 Bolt
436 Bom
426 Bomans
569 Bombay
169 Bomen
4616 Bommel
235 Bommelerwaard
219 Bommelsaga
651 Bon
571 Bonaire
1656 Bonaparte
5371 Bond
488 Bondsdag
121 Bondsdagverkiezingen
486 Bondsraad
1119 Bondsrepubliek
155 Bondsvergadering
235 Bone
118 Bongo
115 Bonheiden
207 Boni
138 Bonifacio
553 Bonifatius
119 Bonne
206 Bonnet
524 Bonnie
114 Bonnier
223 Bono
174 Bont
164 Bonte
111 Bontekoe
247 Boog
106 Boogerd
223 Boogie
153 Boogschutter
103 Booij
289 Booker
1168 Boom
94 Boompjes
95 Boomsma
594 Boon
371 Boone
418 Boonen
121 Boonstra
298 Boot
196 Boots
117 Booy
191 Bor
126 Bora
505 Borculo
1590 Bordeaux
102 Borden
222 Border
94 Borders
484 Borg
315 Borger
402 Borgerhout
163 Borgloon
250 Borgmeier
122 Borgworm
1386 Boris
150 Borkum
988 Born
270 Borne
251 Bornem
1449 Borneo
367 Borsato
144 Borsele
273 Borssele
159 Borst
2474 Bos
3771 Bosch
163 Boschma
102 Boschstraat
98 Bose
285 Boskoop
371 Bosmans
211 Bosnisch
970 Bosnische
2353 Bosnië
142 Bosnië-Herzegovina
279 Bosporus
309 Boss
874 Bossche
180 Bossen
3625 Boston
121 Boszhard
90 Botanicus
171 Botanische
122 Boterdiep
247 Both
91 Botlek
1010 Botnische
970 Botswana
1977 Boudewijn
95 Boudewijnstadion
110 Bougainville
499 Bouillon
288 Boulanger
987 Boulevard
475 Boulogne
136 Bouma
228 Bouman
1006 Bourbon
222 Bourbons
170 Bourdon
260 Bourgeois
286 Bourgogne
113 Bourgondisch
969 Bourgondische
4334 Bourgondië
329 Bourgondiërs
127 Bourtange
709 Bouterse
103 Boutersem
472 Bouvier
284 Bouw
212 Bouwen
112 Bouwfonds
99 Bouwkunde
234 Bouwkunst
257 Bouwmeester
355 Boven
133 Boven-Rijnse
97 Bovenkarspel
122 Bovenkerk
123 Bovenste
364 Bovenwindse
128 Bowen
550 Bowie
610 Bowl
128 Bowling
646 Box
563 Boxmeer
813 Boxtel
1985 Boy
364 Boyd
302 Boyle
2923 Boys
105 Boze
352 Braak
238 Braam
128 Brabanders
4600 Brabant
974 Brabants
2073 Brabantse
100 Bracke
642 Brad
167 Bradbury
890 Bradley
1350 Brady
251 Brahma
545 Brahms
284 Brain
173 Brains
466 Brakel
1305 Bram
307 Branco
761 Brand
125 Brandes
235 Brando
1042 Brandon
340 Brands
132 Brandsma
1040 Brandt
164 Brandts
124 Brandweer
155 Brant
106 Brard
151 Bras
141 Brasilia
99 Brassband
314 Brasschaat
349 Brasserie
720 Bratislava
337 Brauer
756 Braun
102 Brauns
151 Brava
161 Brave
436 Bravo
489 Braziliaan
1505 Braziliaans
9329 Braziliaanse
159 Brazilianen
7543 Brazilië
143 Brazzaville
401 Break
475 Brecht
6090 Breda
265 Bredase
126 Bredene
93 Bredero
596 Brederode
931 Bredevoort
558 Bree
110 Breed
137 Breendonk
114 Breestraat
125 Brehm
1998 Bremen
456 Bremer
596 Brenda
242 Brendan
131 Breng
183 Brennan
204 Brent
254 Breskens
600 Brest
233 Breton
222 Bretons
336 Bretonse
333 Brett
106 Breuer
219 Breugel
439 Breukelen
138 Brewster
2708 Brian
116 Brick
2235 Bridge
313 Bridget
100 Brie
294 Brief
251 Briel
334 Brielle
133 Brienen
178 Brieven
1093 Brigade
116 Brigades
303 Brigitte
110 Bril
1004 Brink
337 Brinkman
1079 Bristol
1036 Brit
346 Britney
121 Brito
6281 Brits
110 Brits-Amerikaanse
366 Brits-Columbia
130 Brits-Indische
35067 Britse
260 Britt
112 Britta
470 Brittannië
6556 Britten
406 Brock
105 Brocken
266 Brod
293 Broeck
196 Broeder
93 Broedergemeente
630 Broeders
519 Broederschap
1010 Broek
132 Broekhuizen
140 Broekpolder
95 Broers
118 Brok
122 Brokken
304 Brom
422 Bron
547 Bronckhorst
224 Bronkhorst
121 Brons
280 Bronstijd
400 Bronzen
411 Brood
1547 Brooklyn
862 Brooks
96 Broom
233 Broos
1189 Bros
586 Brother
712 Brouwer
1335 Brouwerij
387 Brouwers
142 Brouwershaven
4118 Brown
285 Browning
135 Browns
2694 Bruce
703 Brug
10721 Brugge
145 Bruggelingen
327 Bruggen
93 Brugmans
116 Brugs
1815 Brugse
129 Brugstraat
427 Bruijn
366 Bruin
162 Bruine
226 Bruins
233 Bruinsma
185 Brummen
177 Bruna
373 Brunei
144 Brunel
1444 Brunner
1818 Bruno
444 Brunssum
756 Brunswijk
123 Brus
187 Brusse
17036 Brussel
110 Brussel-Zuid
133 Brusselaars
1968 Brussels
2948 Brusselse
95 Bruto
509 Brutus
330 Bruyn
98 Bruynzeel
865 Bryan
600 Bryant
105 Bryce
140 Buch
276 Buchanan
131 Buchara
626 Buck
138 Bucks
559 Buddy
202 Budel
1784 Buenos
140 Bug
110 Buggenhout
115 Bugs
123 Buijs
139 Buiksloot
899 Building
91 Buis
443 Buiten
140 Buiten-Hebriden
181 Buitenhof
150 Buitenland
3435 Buitenlandse
101 Buitenpost
205 Buitenveldert
246 Buitenzorg
257 Bul
954 Bulgaars
1480 Bulgaarse
391 Bulgaren
2742 Bulgarije
635 Bulle
156 Bullet
235 Bulletin
107 Bult
300 Buma
144 Bunde
188 Bunker
252 Bunnik
234 Bunny
149 Bunschoten
307 Burcht
43689 Bureau
788 Buren
701 Burg
998 Burgemeester
419 Burgenland
474 Burger
627 Burgerlijk
327 Burgerlijke
2928 Burgeroorlog
182 Burgers
101 Burgerschool
166 Burgerwacht
94 Burgerweeshuis
94 Burggraaf
231 Burgh
120 Burgwal
571 Burke
543 Burkina
901 Burton
595 Burundi
740 Bus
108 Busby
395 Busch
1206 Bush
1458 Business
928 Bussum
262 Buster
231 But
3596 Butler
130 Butter
284 Butterfly
209 Butters
292 Button
126 Buunk
322 Buuren
113 Buurman
260 Buurt
90 Buurtspoorwegen
359 Buys
188 Buysse
97 Buyten
205 Bye
486 Byron
543 Byzantijnen
240 Byzantijns
2761 Byzantijnse
562 Byzantium
167 Böhm
114 Büch
646 CA
96 CAD
117 CAS
121 CBR
1241 CBS
317 CC
2565 CDA
167 CERN
1145 CIA
241 CIA-agent
185 CL
230 CM
257 CNN
223 CNV
301 CO
826 CO2
137 CO2-uitstoot
253 Caballero
339 Cabaret
286 Cadillac
212 Cadzand
106 Caecilia
3110 Caesar
351 Caesars
791 Café
229 Cai
91 Caicoseilanden
159 Cain
202 Caine
622 Calabrië
631 Calais
467 Calcutta
104 Caleb
246 Cali
505 Californische
9342 Californië
463 Caligula
476 Call
91 Callantsoog
834 Calvados
354 Calvijn
295 Calvin
151 Calypso
1006 Cambodja
175 Cambodjaanse
175 Cambrium
634 Cambuur
214 Camel
360 Camera
3133 Cameron
115 Camiel
156 Camilla
861 Camille
1068 Camp
169 Campagne
1299 Campbell
264 Campen
171 Campert
149 Campina
157 Camping
928 Campo
104 Camps
471 Campus
817 Can
10180 Canada
1643 Canadees
5659 Canadese
529 Canadezen
976 Canarische
280 Canberra
371 Candy
124 Canisius
631 Canon
250 Cantabrië
114 Canto
280 Canton
222 Cantor
458 Canvas
574 Canyon
566 Cao
283 Cap
824 Cape
130 Capella
646 Capelle
106 Capello
335 Capitool
134 Cappadocië
99 Caprice
1253 Captain
213 Cara
323 Caracas
208 Caravan
499 Caraïben
297 Caraïbisch
773 Caraïbische
166 Carbon
294 Carboon
258 Care
1215 Carel
389 Cargo
126 Cariben
537 Caribisch
798 Caribische
104 Carin
107 Carine
6133 Carl
490 Carla
113 Carlier
122 Carlin
2213 Carlo
3087 Carlos
413 Carly
134 Carmel
909 Carmen
110 Carmiggelt
243 Carnaval
230 Caro
920 Carol
200 Carola
131 Carole
3840 Carolina
1759 Caroline
649 Carolus
110 Carolyn
154 Caron
114 Carpentier
358 Carrie
138 Carrier
439 Carroll
294 Carry
447 Carré
487 Cars
94 Carsten
118 Carte
2104 Carter
269 Carthagers
110 Cartils
139 Carton
250 Cartoon
139 Cas
584 Casablanca
299 Casanova
153 Cascade
463 Case
1425 Casey
466 Cash
679 Casimir
712 Casino
482 Caspar
334 Casper
191 Cassandra
365 Cassatie
239 Cassidy
113 Cast
457 Castel
148 Castiliaans
181 Castiliaanse
2755 Castilië
308 Castillo
441 Castricum
1257 Castro
848 Catalaans
1325 Catalaanse
128 Catalanen
204 Catalina
1799 Catalonië
522 Catarina
144 Catechismus
262 Categorie
111 Categorieën
119 Caterina
2928 Catharina
154 Catherina
1133 Catherine
153 Cathy
361 Cato
504 Cats
95 Cauberg
265 Cavalerie
139 Cayenne
1209 Caïro
521 Cecil
92 Cecile
617 Cecilia
102 Cedric
1061 Cees
135 Ceintuurbaan
120 Cel
723 Celebes
135 Celebrity
181 Celeste
139 Celia
219 Celle
99 Celles
807 Celsius
41680 Census
419 Cent
288 Centaur
4006 Center
5196 Centraal
229 Centraal-Afrika
476 Centraal-Afrikaanse
1064 Centraal-Azië
457 Centraal-Europa
2282 Centrale
3804 Centrum
239 Centrumpartij
171 Ceram
335 Ceres
421 Cesar
215 Ceulemans
453 Ceylon
145 Chaam
93 Chabot
335 Chad
107 Chai
115 Chaim
159 Chalcedon
594 Chambers
458 Champagne
4431 Champions
787 Chan
333 Chance
252 Chandra
200 Chanel
609 Chang
103 Chanson
96 Chant
278 Chantal
374 Chaos
365 Chaplin
526 Chapman
162 Charity
420 Charkov
1819 Charleroi
11279 Charles
354 Charleston
237 Charley
2444 Charlie
148 Charlier
155 Charlois
2447 Charlotte
173 Charly
115 Charon
157 Charpentier
204 Charter
105 Chat
177 Chateau
94 Chateaubriand
156 Chau
256 Che
93 Checkpoint
452 Chef
1476 Chelsea
403 Chemie
142 Chemische
2810 Chen
387 Cheng
101 Cheops
542 Cher
442 Cherokee
337 Cherry
258 Cheryl
785 Chester
254 Chesterfield
114 Cheung
450 Chevrolet
159 Cheyenne
1017 Chi
509 Chiang
96 Chianti
101 Chiara
201 Chick
230 Chico
216 Chiefs
114 Chiel
236 Chihuahua
223 Chileens
1136 Chileense
3018 Chili
17091 China
3523 Chinees
183 Chinees-Japanse
13791 Chinese
2087 Chinezen
109 Ching
173 Chinook
183 Chip
211 Chirac
167 Chisinau
224 Chloe
207 Choi
447 Choice
108 Chong
120 Chongqing
455 Chopin
109 Chorus
274 Chou
116 Chow
4288 Chris
641 Christ
304 Christa
175 Christel
597 ChristenUnie
173 Christendemocratische
530 Christi
2131 Christiaan
4377 Christian
187 Christiane
401 Christie
1503 Christina
1012 Christine
712 Christoffel
1199 Christoph
513 Christophe
1686 Christopher
6764 Christus
152 Christus'
147 Christusfiguur
209 Christy
795 Chrysler
737 Chuck
223 Chun
195 Chung
863 Churchill
728 Cicero
94 Cinderella
441 Cindy
400 Cinema
977 Circuit
827 Circus
121 Cirkel
173 Cisco
108 Ciske
307 Citadel
106 Citroen
1220 Citroën
114 Citrus
17558 City
217 Cité
198 Civic
187 Civiele
157 Civilis
133 Cl
150 Claassen
665 Claes
98 Claesen
198 Claeys
104 Clair
891 Claire
385 Clan
1207 Clara
554 Clare
506 Clarence
2930 Clark
1348 Clarke
572 Class
1617 Classic
425 Classics
757 Claudia
448 Claudio
1217 Claudius
1579 Claus
134 Clausen
352 Clayton
114 Clean
1393 Clemens
414 Clement
208 Clemente
136 Clementine
156 Clements
97 Cleo
617 Cleopatra
352 Clerck
436 Clercq
575 Cliff
449 Clifford
186 Clifton
347 Clijsters
127 Clingendael
271 Clint
1086 Clinton
172 Clio
344 Close
212 Clown
12742 Club
159 Clubs
403 Clyde
262 Clément
283 Coach
233 Coalitie
252 Coalitieoorlog
112 Coaster
418 Cobra
497 Coburg
157 Coca
339 Coca-Cola
3065 Cock
137 Cockerill
180 Coco
125 Cocu
891 Code
1188 Codex
369 Cody
152 Coehoorn
679 Coen
92 Coene
238 Coenen
264 Coenraad
783 Coevorden
164 Coffee
181 Cognac
1302 Cohen
630 Col
487 Cola
301 Colbert
556 Cold
157 Colette
218 Colijn
1170 Colin
139 Collard
301 Collectie
115 Colleen
10173 College
129 Colleges
390 Collegium
133 Collette
235 Collier
438 Collin
1240 Collins
102 Colmschate
2755 Colombia
123 Colombiaan
321 Colombiaans
1923 Colombiaanse
343 Colombo
1979 Colorado
146 Colour
282 Colt
2163 Columbia
1121 Columbus
385 Combinatie
115 Combo
1450 Comedy
169 Comfort
221 Coming
3215 Comité
303 Commandant
596 Commandeur
111 Commandeurs
472 Commando
121 Commedia
243 Commerce
169 Commercial
228 Commewijne
139 Commissariaat
958 Commissaris
300 Commissarissen
4014 Commissie
1336 Commodore
483 Common
225 Commune
384 Communicatie
126 Communisten
96 Communistenbond
2068 Communistische
474 Community
109 Comomeer
252 Comoren
191 Compact
2709 Compagnie
106 Competitie
187 Complete
305 Complex
132 Composer
365 Composers
165 Compositie
178 Compostela
250 Compostella
611 Computer
91 Computers
198 Con
93 Conakry
566 Conan
201 Concept
927 Concert
682 Concertgebouw
436 Concertgebouworkest
283 Concerto
1555 Concilie
114 Conclaaf
122 Concordaat
569 Concordia
599 Concours
236 Condor
516 Confederatie
1110 Conference
606 Conferentie
244 Confucius
1922 Congo
280 Congo-Brazzaville
636 Congo-Kinshasa
559 Congolese
790 Congregatie
3508 Congres
180 Congrespartij
370 Coninck
1078 Connexxion
288 Connie
295 Connor
125 Connors
227 Conny
100 Conor
876 Conrad
418 Conservatieve
152 Conservatieven
3467 Conservatorium
167 Consortium
558 Constance
1019 Constant
1861 Constantijn
376 Constantin
138 Constitutionele
103 Consul
306 Contact
111 Content
257 Contest
244 Conti
192 Continentaal
179 Continentale
140 Contra
101 Contrareformatie
110 Controller
1484 Conus
157 Convent
818 Conventie
1348 Cook
265 Cooke
322 Cookeilanden
596 Cool
122 Coole
173 Coolen
203 Cools
161 Coomans
1534 Cooper
241 Copernicus
134 Copland
338 Coppens
1110 Cor
140 Cora
401 Cordillera
99 Corinna
98 Corinne
238 Corneille
873 Cornelia
4599 Cornelis
118 Cornelissen
1103 Cornelius
381 Corner
199 Cornet
118 Corolla
194 Corona
2084 Corps
395 Corpus
126 Corridor
140 Corrie
218 Corry
90 Corsa
1225 Corsica
90 Corsicaans
178 Corsicaanse
192 Corso
105 Corstius
330 Corte
114 Cortenbach
232 Cortes
131 Corus
92 Corver
124 Cosmo
103 Cosmopolitan
3802 Costa
374 Coster
102 Cotonou
108 Cotta
171 Cottage
148 Countdown
1468 Country
31887 County
92 Coup
622 Coupe
889 Couperus
102 Coupure
291 Coupé
123 Cour
125 Courage
1160 Courant
111 Cours
1129 Court
177 Courtney
236 Cove
103 Cover
193 Cowboy
137 Cowboys
636 Cox
94 Coöperatie
227 Coöperatieve
887 Craig
1116 Cramer
150 Cranendonck
235 Crash
1056 Crawford
559 Crazy
154 Credit
100 Credo
127 Creil
142 Cremer
95 Cremers
109 Creoolse
300 Crew
280 Cricket
293 Crime
307 Crisis
123 Cristian
157 Cristiano
249 Cristina
127 Croiset
447 Cromwell
122 Crooswijk
1929 Cross
261 Crossing
124 Crouwel
125 Croy
1013 Cruijff
394 Cruise
106 Cruiser
134 Cruises
98 Cruquius
90 Cruyff
1843 Cruz
182 Cruzeiro
820 Crystal
2646 Cuba
116 Cubaans
1081 Cubaanse
136 Cubanen
715 Cuijk
587 Culemborg
116 Cult
334 Culture
564 Cultureel
699 Culturele
1494 Cultuur
94 Cultuurfonds
105 Cultuurprijs
364 Cunningham
13570 Cup
129 Cupido
100 Cups
2069 Curaçao
160 Curaçaose
268 Cure
588 Curie
256 Curry
119 Curt
1235 Curtis
96 Custers
822 Cuypers
160 Cycladen
270 Cynthia
416 Cypriotische
2427 Cyprus
120 Cyrano
147 Cyrenaica
174 Cyriel
295 Cyril
94 Cyrille
135 Cyrillisch
104 Cyrillische
523 Cyrus
167 Cécile
153 Cédric
253 Céline
769 César
229 Cézanne
1039 D66
115 DA
129 DAB
757 DAF
1383 DB
151 DDT
110 DES
103 DHL
113 DIN
253 DM
2337 DNA
374 DNA-onderzoek
163 DNB
136 DNS
430 DOS
1204 DS
930 Da
90 Daal
126 Daalen
720 Daan
181 Daarnaast
505 Dachau
113 Dada
106 Daems
143 Daewoo
1199 Dag
1408 Dagblad
134 Dagboek
106 Dagelijks
376 Dagen
168 Dageraad
108 Dagmar
400 Daisy
489 Dakar
145 Dakar-rally
1704 Dakota
583 Dal
875 Dale
103 Dalem
339 Dalen
191 Dales
254 Dalfsen
97 Dali
158 Dalman
99 Dalmatische
311 Dalmatië
415 Dalton
186 Daltons
245 Daly
2466 Dam
793 Damascus
890 Dame
209 Damen
757 Dames
115 Damiaan
172 Damian
153 Damiano
214 Damien
824 Damme
332 Damon
228 Damrak
2078 Dan
1117 Dana
531 Dancing
162 Dane
113 Dang
334 Dani
3833 Daniel
251 Daniela
173 Daniele
214 Danielle
387 Daniels
173 Danilo
1491 Daniël
2105 Danny
379 Dans
131 Danse
102 Dansen
647 Dante
124 Dantumadeel
118 Dantzig
132 Dany
404 Daphne
109 Dapperheid
285 Dar
157 Dara
181 Darcy
131 Dardanellen
222 Dario
431 Darius
210 Darja
1520 Dark
347 Darren
170 Darryl
175 Dart
756 Darts
1076 Darwin
182 Darwins
107 Daryl
1169 Das
243 Dash
473 Data
173 Database
181 Date
200 Dauphin
307 Dautzenberg
2398 Dave
109 Davey
13335 David
141 Davide
519 Davids
312 Davidson
947 Davies
3621 Davis
366 Davy
602 Dawn
381 Dawson
312 Dax
3380 Day
120375 De
167 Deacon
322 Deal
1544 Dean
197 Dear
1555 Death
266 Debbie
104 Debby
127 Debian
308 Deborah
157 Debra
462 Debussy
379 Decca
218 Decembermoorden
125 Decibel
103 Deck
288 Decker
161 Deckers
148 Decleir
118 Deco
141 Decreet
230 Dedecker
252 Dedemsvaart
503 Dee
115 Deelen
227 Deelnemers
540 Deen
2202 Deens
11801 Deense
243 Deer
167 Deerlijk
2081 Defensie
150 Dehaene
494 Dei
93 Deinum
489 Deinze
155 Deken
1305 Dekker
201 Dekkers
825 Del
182 Delano
473 Delden
203 Delfland
282 Delfshaven
5348 Delft
137 Delfts
777 Delftse
1308 Delfzijl
219 Delgado
1141 Delhi
489 Deli
108 Delia
126 Deling
380 Dell
103 Delos
430 Delphi
1251 Delta
152 Deltawerken
103 Demi
98 Demo
220 Democraat
768 Democraten
491 Democratie
405 Democratisch
3855 Democratische
213 Demon
24812 Den
383 Dender
232 Denderleeuw
1016 Dendermonde
204 Denekamp
8053 Denemarken
752 Denen
329 Deng
1069 Denis
338 Denise
1909 Dennis
247 Denny
91 Dentergem
202 Deo
991 Departement
173 Depot
459 Depressie
2354 Der
561 Derby
5249 Derde
561 Derek
279 Derk
96 Derks
363 Derksen
195 Derrick
113 Dertig
706 Dertigjarige
574 Des
694 Descartes
321 Desi
197 Desiderius
1273 Design
90 Designer
106 Desktop
159 Desmet
256 Desmond
192 Desperate
251 Dessel
98 Destelbergen
220 Destiny
364 Detective
129 Deuce
139 Deum
1558 Deurne
116 Deurnese
105 Deursen
218 Deus
119 Deutekom
147 Deuteronomium
165 Deux
3022 Deventer
158 Devi
1110 Devon
221 Devoon
153 Devos
166 Devotie
213 Dex
634 Dexter
385 Dhabi
149 Dhaka
1075 Di
105 Dia
91 Dialoog
181 Diamant
236 Dian
1220 Diana
508 Diane
319 Dias
220 Diaz
124 Dibbets
100 Dichter
3075 Dick
312 Dickens
99 Didam
540 Didier
213 Dido
841 Diederik
2109 Diego
117 Diem
523 Diemen
108 Dien
1869 Dienst
192 Diensten
451 Diep
115 Diepen
172 Diepenbeek
176 Diepenheim
142 Diepenveen
597 Dieren
110 Dierenpark
146 Diergaarde
183 Dies
343 Diesel
91 Diessen
745 Diest
413 Dieter
524 Dietrich
235 Dietz
127 Diever
130 Different
108 Digitaal
198 Digitale
222 Dijck
1962 Dijk
108 Dijkhuizen
632 Dijkstra
335 Dik
355 Dikke
486 Diksmuide
174 Dilbeek
175 Dillen
152 Dillenburg
268 Dillon
555 Dimitri
139 Dina
368 Dinant
91 Dinara
263 Ding
152 Dinh
104 Dinkel
112 Dinkelland
423 Dino
140 Dinsdag
113 Dinteloord
123 Dinther
206 Dinxperlo
322 Dio
255 Diogenes
342 Dion
245 Dionysius
118 Dior
204 Direct
268 Directeur
224 Directie
160 Directoire
198 Director
3269 Dirk
110 Dirks
162 Dis
112 Disc
312 Disco
3135 Disney
151 Disneyfilm
556 Disneyland
108 Distel
1849 District
1849 Dit
112 Ditmar
144 Diva
190 Divine
1464 Divisie
118 Dix
314 Dizzy
244 Django
98 Djedda
251 Djibouti
117 Djinn
920 Dmitri
280 Dnjepr
111 Dnjepropetrovsk
1511 Do
162 Dobroedzja
109 Dochters
1349 Doctor
104 Doctors
138 Documentatie
350 Dode
104 Dodewaard
823 Dodge
518 Doe
101 Doeksen
383 Doel
219 Doelen
128 Doelpunten
190 Doema
91 Doenrade
338 Does
1508 Doesburg
123 Doesburgs
1003 Doetinchem
658 Dog
93 Doge
112 Doggersbank
397 Doha
94 Dok
667 Dokkum
126 Dokkumer
253 Dokter
269 Dol
113 Dolby
114 Dolce
339 Dolf
133 Dolfijn
142 Doll
244 Dollar
272 Dollard
209 Dolle
101 Dolleman
295 Dolls
417 Dolly
200 Dolomieten
255 Dolores
1439 Dom
350 Domburg
124 Domein
115 Domeinen
178 Domela
506 Domenico
627 Domingo
152 Domini
234 Dominic
251 Dominica
1046 Dominicaanse
290 Dominicanen
192 Dominicus
102 Dominik
216 Dominion
640 Dominique
365 Domino
163 Domkerk
707 Dommel
175 Dommelen
95 Domplein
118 Domtoren
166 Domus
4112 Don
102 Dona
2068 Donald
105 Donar
1648 Donau
133 Donck
117 Donderdag
399 Dong
557 Dongen
146 Dongeradeel
457 Donk
178 Donker
202 Donkere
380 Donkey
1423 Donna
331 Donner
95 Donny
369 Donovan
744 Dood
282 Dooddoeners
96 Doods
389 Doom
143 Doopsgezinde
102 Dooren
167 Doorman
624 Doorn
127 Doornbos
1318 Doornik
132 Doornikse
151 Doornroosje
319 Doors
110 Doortje
182 Doorvaart
139 Doorwerth
640 Doper
395 Dora
231 Dorado
3252 Dordrecht
320 Dordtse
134 Dorens
146 Dorestad
118 Dorian
375 Doris
327 Dorische
117 Dorn
636 Dorothea
624 Dorothy
682 Dorp
112 Dorpskerk
294 Dorpsstraat
100 Dorst
93 Dort
1286 Dortmund
137 Dorus
266 Dos
101 Dot
99 Douane
95 Doubt
2593 Douglas
410 Douwe
210 Douwes
195 Dove
486 Dover
217 Dowaai
1567 Down
114 Downing
171 Downs
438 Doyle
91 Doña
317 Draait
853 Draak
632 Drachten
597 Dracula
823 Dragon
309 Dragons
601 Drake
955 Drama
108 Draw
120 Dre
130 Drechterland
226 Drees
4015 Drenthe
507 Drents
1248 Drentse
2219 Dresden
1568 Drie
217 Drie-eenheid
301 Driebergen
147 Driedaagse
217 Driehoek
126 Driekoningen
190 Driel
392 Dries
205 Driessen
105 Drievuldigheid
227 Drift
199 Drimmelen
134 Drinker
668 Drive
188 Driver
194 Drongen
282 Dronten
91 Droogdok
175 Drop
199 Drost
162 Drug
105 Drugs
111 Drukkerij
375 Drum
297 Drummond
204 Drunen
136 Druten
99 Dré
1155 Du
114 Duane
229 Duarte
98 Dub
1339 Dubai
116 Dubbel
149 Dubbele
95 Dubbelmonarchie
2329 Dublin
385 Dubois
148 Duc
234 Dudok
171 Dudzele
123 Due
140 Duel
258 Duffel
221 Dufour
93 Duif
117 Duijn
562 Duin
425 Duinen
700 Duinkerke
219 Duinkerken
764 Duisburg
122 Duisenberg
455 Duistere
95 Duisternis
17504 Duits
2464 Duits-Britse
446 Duits-Deense
111 Duits-Nederlandse
76943 Duitse
1660 Duitser
10640 Duitsers
34864 Duitsland
171 Duitslands
282 Duitstalig
2024 Duitstalige
163 Duitstaligen
258 Duivel
769 Duivels
167 Duiven
263 Duivendrecht
98 Duivenvoorde
112 Duizend
102 Dujardin
1181 Duke
135 Dukenburg
182 Dukes
158 Dulfer
404 Dumas
285 Dumont
259 Dun
733 Duncan
165 Dungen
503 Dunlop
132 Dunne
247 Duo
109 Duong
231 Dupont
553 Dupuis
246 Duran
149 Durand
113 Durant
157 Duras
274 Dussen
177 Dustin
135 Dusty
341 Duurstede
109 Duurzame
125 Duvel
116 Duyn
164 Dvina
109 Dwars
200 Dwergen
148 Dwergkogelspinnen
401 Dwight
180 Dwingeloo
360 Dyck
1477 Dylan
105 Dylans
808 Dynamo
668 Dynastie
95 Dynastieën
102 Dzjoengarije
110 Dé
178 Désiré
1962 Düsseldorf
219 E-nummer
225 ECB
96 ED
114 EDS
322 EEG
300 EG
108 EHBO
5812 EK
317 EK-kwalificatiewedstrijd
795 EMI
449 EO
99 ERA
108 ERP
217 ES
357 ESA
94 ESP
284 ET
1886 EU
110 EU-landen
126 EU-lidstaten
216 EUR
118 EVA
809 Earl
501 Easy
105 Eau
96 Ebenezer
459 Eberhard
332 Ebert
127 Ecclesia
326 Echo
283 Echt
186 Echte
263 Echten
205 Eck
138 Eckhart
125 Ecologische
643 Economie
197 Economisch
2047 Economische
106 Economist
1731 Ecuador
162 Ecuadoraanse
1385 Ed
349 Edam
1949 Eddie
1459 Eddy
1282 Ede
176 Edegem
142 Edele
102 Edelen
736 Eden
90 Edens
1268 Edgar
130 Edgard
304 Edict
200 Edingen
880 Edison
219 Edisons
592 Edith
102 Editie
700 Edmond
971 Edmund
169 Edmunds
184 Edna
414 Edo
517 Edouard
2814 Eduard
487 Eduardo
4743 Edward
2587 Edwards
1513 Edwin
235 Ee
108 Eeckhout
105 Eed
124 Eede
160 Eedgenootschap
603 Eeklo
109 Eelco
370 Eelde
283 Eem
128 Eemien
215 Eemnes
414 Eems
168 Eemshaven
157 Eemsmond
1045 Eendracht
549 Eenheid
209 Eenhoorn
112 Eenrum
95 Eenvoudige
707 Eer
105 Eerd
206 Eerde
280 Eersel
25373 Eerste
95 Eervolle
791 Eeuw
93 Eeuwig
192 Eeuwige
127 Effect
734 Efteling
441 Egbert
146 Egberts
157 Eger
436 Egeïsche
95 Egidius
977 Egmond
118 Ego
215 Egon
7378 Egypte
718 Egyptenaren
468 Egyptisch
3309 Egyptische
246 Eibergen
145 Eiffel
298 Eiffeltoren
98 Eigenbrakel
138 Eijck
224 Eijk
107 Eijsbouts
330 Eijsden
256 Eik
274 Eikenkroon
648 Eiland
2395 Eilanden
171 Eileen
7493 Eindhoven
153 Eindhovens
488 Eindhovense
168 Eine
812 Einstein
109 Einsteins
196 Eisden
91 Eisen
316 Eisenhower
439 Ekeren
5673 El
284 Elaine
266 Elba
725 Elbe
293 Elburg
290 Eleanor
178 Electra
326 Elektra
115 Elektrische
133 Element
118 Elementen
693 Elena
587 Eleonora
127 Eleonore
303 Elf
357 Elfen
454 Elfstedentocht
346 Elftal
197 Elgin
352 Eli
299 Elia
738 Elias
117 Elie
92 Elijah
207 Eline
107 Elio
341 Eliot
290 Elisa
4482 Elisabeth
179 Elisabethwedstrijd
352 Elise
359 Elite
243 Eliza
4384 Elizabeth
180 Elk
200 Elke
505 Ella
223 Elle
1257 Ellen
265 Ellie
361 Elliot
429 Elliott
750 Ellis
254 Elly
165 Elmer
99 Elmina
108 Eloy
643 Els
206 Elsa
221 Else
162 Elsen
638 Elsene
690 Elsevier
92 Elshout
102 Elsje
222 Elsloo
127 Elsschot
745 Elst
92 Elster
396 Elton
195 Elvira
1051 Elvis
1893 Elzas
1216 Emanuel
227 Emerald
565 Emerson
302 Emiel
787 Emil
1291 Emile
424 Emilia
118 Emiliano
206 Emilie
545 Emilio
733 Emily
105 Emir
113 Emiraat
813 Emiraten
1935 Emma
766 Emmanuel
114 Emmanuelle
362 Emmeloord
1796 Emmen
103 Emmer
192 Emmerich
298 Emmerik
1483 Emmy
202 Empel
1079 Empire
142 Ename
204 Encyclopedie
1295 End
618 Ende
203 Endemol
115 Endstra
384 Ene
127 Eneco
471 Energie
359 Eng
676 Engel
26130 Engeland
250 Engelandvaarder
235 Engelandvaarders
440 Engelbert
175 Engelbrecht
380 Engelen
18625 Engels
347 Engels-Nederlandse
32085 Engelse
3080 Engelsen
751 Engelsman
414 Engelstalig
2360 Engelstalige
786 Engineering
195 Enigma
912 Enkhuizen
106 Enna
153 Ennis
127 Enno
185 Eno
490 Enrico
454 Enrique
2881 Enschede
215 Enschedese
1187 Ensemble
394 Entente
239 Enter
2567 Entertainment
158 Entre
127 Enver
179 Environment
255 Enzo
367 Eoceen
278 Epe
127 Epen
280 Epirus
290 Episode
98 Epping
179 Eppo
103 Epsilon
291 Equatoriaal-Guinea
815 Era
1467 Erasmus
104 Ere
92 Eredienst
2611 Eredivisie
116 Erekruis
113 Eremedaille
422 Ereteken
579 Erfgoed
3910 Eric
441 Erica
868 Erich
92 Erick
255 Ericsson
2816 Erik
223 Erika
233 Erin
575 Eritrea
94 Eritrese
363 Ermelo
99 Erna
1416 Ernest
90 Ernestine
331 Ernesto
346 Ernie
4178 Ernst
221 Eros
334 Erp
110 Erpe-Mere
96 Errol
159 Ertsgebergte
247 Erven
1320 Erwin
642 Es
291 Escape
313 Esch
287 Escher
172 Escort
119 Esen
175 Esmeralda
783 Esperanto
153 Esperanza
113 Essay
1103 Essen
266 Essent
124 Esser
159 Esso
350 Est
233 Esteban
120 Estella
260 Estelle
208 Esten
90 Ester
712 Esther
776 Estisch
865 Estische
2426 Estland
777 Estlandse
381 Estse
163 Et
244 Ethan
130 Ethiopisch
728 Ethiopische
1677 Ethiopië
168 Ethiopiër
507 Etienne
153 Etna
297 Etrusken
103 Etruskisch
549 Etruskische
200 Etten
224 Etten-Leur
274 Etterbeek
115 Etudes
101 Eucharistie
241 Euclides
388 Euclidische
357 Eufraat
717 Eugene
102 Eugenia
94 Eugenie
4743 Eugène
374 Euler
549 Eupen
237 Euraziatische
463 Eurazië
181 Euregio
248 Eureka
98 Eurlings
1008 Euro
247 Euronext
39656 Europa
1970 Europacup
93 Europarlementariër
404 Europeaan
1298 Europeanen
11220 Europees
37743 Europese
163 Europoort
112 Eurosport
126 Eurovisie
4919 Eurovisiesongfestival
135 Euwe
1806 Eva
321 Evan
756 Evangelie
102 Evangelisch
812 Evangelische
139 Evangelist
107 Evangeliën
2071 Evans
490 Eve
93 Evelien
305 Evelyn
178 Even
204 Evenhuis
284 Ever
119 Everdingen
164 Evere
268 Everest
182 Evergem
92 Evergreen
330 Everhard
430 Evers
1009 Evert
156 Everts
217 Evertsen
208 Every
106 Evi
203 Evita
166 Ewald
106 Ewijk
193 Ex
129 Excellence
1637 Excelsior
93 Exit
346 Exodus
375 Expeditie
143 Experiment
265 Exploitatie
544 Explorer
608 Expo
100 Export
99 Expres
100 Extended
137 Externe
230 Extra
381 Extreme
710 Eyck
529 Eye
147 Eygelshoven
163 Eys
101 Ezinge
275 Ezra
244 F-16
1023 FA
151 FIAT
1642 FIFA
391 FIFA-wereldranglijst
172 FINALE
351 FIS
3082 FM
356 FNV
208 FOX
100 FTP
265 Fa
104 Fabeltjeskrant
626 Faber
430 Fabian
128 Fabien
308 Fabio
184 Fabiola
90 Fabrice
304 Fabriek
143 Fabrizio
443 Face
462 Facebook
508 Factor
836 Faculteit
744 Faeröer
161 Faeröers
184 Faeröerse
114 Fagel
132 Fahrenheit
806 Fair
133 Faisal
423 Faith
199 Falco
137 Falk
218 Falklandeilanden
136 Fallon
1455 Family
261 Fan
552 Fanfare
698 Fanny
171 Fantasia
911 Fantasy
228 Faraday
102 Farah
106 Farao
116 Farina
95 Farley
606 Farm
211 Farmer
145 Farmsum
163 Faro
128 Fase
574 Faso
447 Fat
196 Fatah
197 Fatima
147 Fats
105 Fauna
483 Faust
131 Fausto
179 Faye
93 Features
92 Februaristaking
482 Federaal
922 Federale
2420 Federatie
184 Federatieve
364 Federico
91 Feenstra
191 Feest
196 Feesten
376 Feijenoord
119 Feith
158 Feldman
364 Felice
124 Felicia
626 Felipe
2390 Felix
402 Fellow
96 Fellows
383 Femke
109 Femme
454 Fender
297 Feng
223 Feniks
105 Fens
213 Fer
4953 Ferdinand
298 Ferenc
773 Fernand
317 Fernandes
293 Fernandez
1605 Fernando
1457 Ferrari
342 Ferreira
135 Ferrier
176 Ferries
110 Ferris
146 Ferro
796 Ferry
95 Ferwerderadeel
5850 Festival
91 Festivals
116 Few
2789 Feyenoord
307 Fez
1125 Fiat
397 Fiction
342 Fidel
1006 Field
249 Fien
122 Fiers
227 Fiesta
247 Figaro
628 Fiji
91 Fijnaart
616 File
279 Filharmonisch
724 Filip
4569 Filipijnen
1305 Filipijns
5194 Filipijnse
366 Filippo
173 Filippus
5399 Filips
262 Filistijnen
3692 Film
1056 Filmfestival
431 Films
242 Filosofie
467 Fin
1147 Finale
240 Financiële
2089 Financiën
859 Fine
146 Fink
5056 Finland
465 Finn
344 Finnen
1761 Fins
90 Fins-Oegrische
4663 Finse
157 Finsterwolde
313 Fiona
267 Firefox
177 Firma
2635 First
3293 Fischer
445 Fish
120 Fit
981 Five
332 Fjodor
150 Flair
126 Flamingo
665 Flash
138 Flat
190 Flavia
502 Fleming
165 Flensburg
291 Fleur
797 Flevoland
416 Flikken
91 Flink
307 Flint
524 Flip
113 Flipkens
138 Flo
289 Flodder
156 Flodders
367 Floor
222 Flor
1041 Flora
3066 Florence
207 Florent
297 Florentijnse
875 Flores
250 Florian
4622 Florida
1565 Floris
216 Flow
912 Floyd
118 Fluwelen
90 Flyer
95 Flyers
910 Flying
268 Flynn
471 Focus
102 Fokke
1078 Fokker
94 Folio
267 Folk
1488 Fonds
188 Fonetisch
95 Fong
439 Fons
277 Fonseca
127 Font
352 Fontaine
189 Fontein
3028 Football
167 Foppe
2833 Force
4195 Ford
1975 Forel
122 Form
745 Formatie
311 Formosa
7572 Formule
183 Forst
1472 Forster
4607 Fort
131 Forte
514 Fortis
146 Fortuin
1323 Fortuna
677 Fortuyn
1445 Forum
226 Foucault
2203 Foundation
2481 Fox
126 Frame
186 Fran
147 Franca
3526 France
477 Frances
358 Francesca
1475 Francesco
169 Francine
2727 Francis
284 Francisca
205 Franciscanen
175 Franciscanessen
5468 Francisco
1320 Franciscus
473 Franck
109 Francken
1641 Franco
153 Francois
782 Franeker
116 Franekeradeel
7775 Frank
154 Franka
148 Franke
1602 Franken
263 Frankenstein
99 Frankfort
3788 Frankfurt
458 Frankie
177 Frankisch
1761 Frankische
1736 Franklin
38861 Frankrijk
97 Frankrijks
131 Franks
376 Franky
23756 Frans
515 Frans-Duitse
474 Frans-Guyana
183 Frans-Polynesië
104 Frans-Spaanse
248 Frans-Vlaanderen
94731 Franse
6420 Fransen
1732 Fransman
232 Franssen
574 Franstalig
2242 Franstalige
407 Franstaligen
3180 Franz
832 Française
3928 François
463 Françoise
1030 Fraser
102 Freak
2722 Fred
689 Freddie
689 Freddy
339 Frederic
1741 Frederick
9654 Frederik
267 Frederika
182 Frederiks
96 Frederiksoord
287 Fredrik
1458 Free
320 Freek
216 Freetown
554 French
116 Frenkel
675 Freud
239 Freya
183 Fricke
174 Frida
104 Fried
172 Frieda
4621 Friedrich
2508 Fries
5580 Friese
6539 Friesland
149 Friestalige
991 Friezen
156 Frisia
411 Friso
1643 Frits
1243 Fritz
249 Froger
1951 Front
100 Frontale
223 Fruit
637 Frédéric
506 Fu
347 Fuchs
210 Fulco
416 Full
337 Fun
397 Funen
293 Funk
92 Funky
105 Furie
123 Fusion
574 Future
95 Futures
244 Fysiologie
119 Fé
652 Félix
725 GB
124 GBA
229 GE
159 GGD
152 GGZ
271 GHz
121 GIS
143 GMT
229 GNOME
141 GO
279 GPL
821 GVB
290 Ga
512 Gaal
171 Gaasbeek
120 Gaasterland
493 Gabon
1632 Gabriel
118 Gabriela
99 Gabriella
304 Gabrielle
456 Gabriël
106 Gaby
164 Gade
95 Gadget
119 Gaelic
194 Gaetano
324 Gaga
185 Gagarin
111 Gage
233 Gaia
156 Gail
135 Gaillard
111 Gaines
112 Gal
306 Gala
298 Galactische
176 Galapagoseilanden
587 Galen
667 Galerie
989 Galicië
300 Galilea
309 Galilei
340 Galileo
118 Galina
164 Gall
129 Galle
612 Gallen
100 Gallisch
739 Gallische
943 Gallië
404 Galliërs
410 Gallo-Romeinse
178 Galloway
167 Gamba
437 Gambia
1832 Game
1840 Games
216 Gamma
510 Gandhi
549 Gang
235 Ganges
136 Gans
567 Gap
175 Garage
873 Garcia
545 Gard
104 Gardameer
1221 Garde
2055 Garden
136 Garderen
368 Gare
118 Gareth
206 Garibaldi
153 Garnier
121 Garry
1488 Gary
319 Gas
222 Gaspard
211 Gasselte
130 Gasselternijveen
209 Gastel
395 Gasthuis
108 Gasthuisstraat
993 Gaston
92 Gasunie
525 Gat
596 Gate
480 Gates
113 Gateway
231 Gauguin
721 Gaulle
291 Gauss
171 Gautama
129 Gauthier
219 Gavere
262 Gavin
700 Gay
178 Gaye
352 Gaza
508 Gazastrook
214 Gazet
146 Ge
115 Gea
193 Geallieerde
206 Geallieerden
141 Gebarentaal
208 Gebergte
248 Gebieden
129 Geboorte
191 Gebouw
338 Gebroeders
124 Gedempte
532 Gedeputeerde
115 Gedichten
132 Geef
952 Geel
114 Geels
561 Geer
1572 Geert
100 Geertje
301 Geertruida
357 Geertruidenberg
308 Geerts
201 Gees
1303 Geest
156 Geestelijke
94 Geesteren
240 Geffen
157 Gegevens
217 Geheim
459 Geheime
203 Gein
135 Geld
93 Geldenaken
740 Gelder
3841 Gelderland
99 Gelderlander
337 Geldermalsen
289 Gelders
1836 Gelderse
121 Geldersen
95 Geldof
526 Geldrop
634 Gele
661 Geleen
134 Gelijk
103 Gelijke
183 Geloof
118 Geloofsleer
2152 Gelre
203 Geluid
167 Geluk
127 Geluwe
105 Gemaal
142 Gembloers
1776 Gemeenschap
117 Gemeenschappelijk
120 Gemeenschappelijke
203 Gemeenschappen
126 Gemeenschapscommissie
1725 Gemeente
139 Gemeentearchief
139 Gemeentebelangen
343 Gemeentelijk
576 Gemeentelijke
357 Gemeentemuseum
846 Gemeenten
96 Gemeenteraad
94 Gemeentetram
106 Gemeentewerken
150 Gemeentewet
2147 Gemenebest
736 Gemenebestspelen
160 Gemengd
440 Gemert
118 Gemert-Bakel
116 Gemiddelde
141 Gemma
150 Gen
148 Gendringen
372 Gendt
811 Gene
582 Geneeskunde
168 Geneeskundige
206 Genemuiden
1205 Generaal
671 Generale
118 Generatie
530 Generation
141 Generator
1163 Genesis
91 Geneva
239 Genie
121 Genius
1839 Genk
555 Gennep
118 Gennip
1551 Genootschap
12130 Gent
174 Gentbrugge
104 Gentenaar
143 Gentenaars
107 Gentleman
107 Gentlemen
161 Gents
2036 Gentse
1199 Genua
2873 Genève
657 Geoffrey
111 Geografie
105 Geografisch
2369 Georg
14070 George
2514 Georges
252 Georgetown
2510 Georgia
193 Georgina
133 Georgios
886 Georgisch
1078 Georgische
2292 Georgië
324 Georgiërs
353 Ger
281 Gera
495 Geraardsbergen
656 Gerald
134 Geraldine
4300 Gerard
109 Gerardo
164 Gerards
647 Gerardus
189 Gerben
143 Gerbrandy
288 Gerda
131 Gerecht
124 Gerechtelijk
142 Gerechtigheid
919 Gerechtshof
179 Gereformeerd
2567 Gereformeerde
801 Gerhard
114 Gerhardt
590 Gerlach
384 Germaans
2690 Germaanse
345 Germain
191 Germaine
646 Germanen
262 Gerona
117 Geronimo
149 Gerrie
2579 Gerrit
131 Gerrits
267 Gerritsen
117 Gerritsz
522 Gerry
666 Gers
903 Gert
107 Gert-Jan
309 Gertrude
183 Gertrudis
227 Gerwen
1505 Geschiedenis
160 Gesink
638 Gestapo
258 Gestel
553 Geul
135 Geulle
115 Geurts
205 Geus
368 Geuzen
135 Geuzenveld
91 Gevangenpoort
139 Gevers
104 Gevoelig
1480 Gewest
94 Gezag
264 Gezelle
201 Gezelschap
114 Gezicht
164 Gezin
215 Gezondheid
107 Gezondheidsraad
205 Gezondheidszorg
1208 Ghana
181 Ghanees
241 Ghanese
120 Ghislaine
700 Giacomo
231 Gian
118 Giancarlo
266 Gianni
241 Gibbons
323 Gibbs
843 Gibraltar
1153 Gibson
277 Gideon
683 Gids
196 Gidsen
225 Giel
127 Gielis
214 Gier
202 Giessen
221 Gieten
151 Giethoorn
115 Giffen
130 Gift
183 Gigi
91 Gij
105 Gijp
512 Gijs
382 Gijsbert
330 Gijsbrecht
121 Gijsen
687 Gil
2258 Gilbert
263 Gilberto
403 Gilde
559 Gill
783 Gilles
105 Gillian
396 Gillis
140 Gils
212 Gilze
95 Gin
728 Gina
240 Ginger
294 Ginneken
203 Ginny
244 Gino
121 Giordano
819 Giorgio
113 Giovanna
2621 Giovanni
756 Giro
220 Gisela
290 Gistel
399 Giulia
294 Giuliano
331 Giulio
1269 Giuseppe
134 Gizeh
215 Gladys
117 Glanerbrug
190 Glas
216 Glazen
313 Glee
705 Glen
872 Glenn
1408 Globe
261 Globes
952 Gloria
140 Glorie
2110 Go
10063 God
275 Godart
395 Goddelijke
201 Goden
289 Godfather
1226 Godfried
339 Godin
2033 Gods
125 Godwin
2746 Goede
132 Goedele
132 Goedereede
142 Goedhart
161 Goelag
106 Goeree
144 Goeroe
1538 Goes
379 Goethals
573 Goethe
1413 Gogh
194 Gohan
339 Goirle
97 Gol
104 Golanhoogten
1877 Gold
237 Goldberg
3671 Golden
332 Goldman
118 Goldstein
8309 Golf
563 Golfclub
441 Golfoorlog
121 Golfstroom
196 Goliath
329 Gomes
473 Gomez
485 Gong
268 Gonzalez
101 Goodwill
1511 Google
645 Gooi
179 Gooise
551 Goor
101 Goossen
483 Goossens
102 Goot
113 Goran
356 Gorbatsjov
204 Gordijn
2847 Gordon
378 Gore
114 Gorilla
879 Gorinchem
104 Gorp
127 Gorredijk
106 Gorssel
167 Gorter
210 Gospel
110 Gosse
115 Gossip
572 Goten
209 Gothic
144 Gotisch
385 Gotische
335 Goud
3457 Gouda
5408 Gouden
329 Goudkust
119 Goudriaan
709 Goudse
138 Goudsmit
91 Goudstikker
314 Goudvis
368 Gouvernement
413 Gouverneur
112 Gouverneur-generaal
247 Gouw
355 Gouwe
230 Govert
216 Goya
2623 Graaf
371 Graaff
168 Graafland
1661 Graafschap
207 Graal
1041 Grace
318 Gracht
104 Gracia
134 Grady
184 Graeme
965 Graf
116 Grafische
95 Grafschaft
2098 Graham
1674 Grammy
147 Gramsbergen
9164 Grand
3121 Grande
154 Grandes
488 Grands
2153 Grant
150 Grants
137 Grappa
156 Gras
90 Grasshoppers
850 Grave
243 Graven
209 Gravin
1545 Gray
98 Grazer
186 Grebbeberg
114 Grebbelinie
3836 Green
116 Greenberg
229 Greenpeace
226 Greet
971 Greg
304 Gregor
148 Gregoriaans
300 Gregoriaanse
1238 Gregorius
874 Gregory
243 Grenada
167 Grenadiers
167 Grenadines
251 Grenzen
323 Greta
125 Greve
124 Grevelingen
112 Grevenbicht
709 Grey
259 Griek
2749 Grieken
6313 Griekenland
7227 Grieks
156 Grieks-Romeinse
197 Grieks-orthodoxe
14000 Griekse
93 Griendtsveen
141 Griet
212 Grietje
237 Griffel
490 Griffin
305 Griffith
525 Griffiths
122 Grift
223 Grijpskerk
128 Grijpstra
294 Grijze
106 Grim
510 Grimbergen
90 Grimes
528 Grimm
127 Grinten
96 Groede
1025 Groen
1266 GroenLinks
1866 Groene
324 Groenen
188 Groenendaal
116 Groenendijk
191 Groeneveld
101 Groeneweg
143 Groenewold
224 Groenewoud
1118 Groenland
199 Groenlandse
494 Groenlo
97 Groenplaats
3645 Groep
348 Groesbeek
113 Groet
112 Groeve
303 Grol
158 Grolsch
113 Grond
1657 Grondwet
111 Grondwetgevende
107 Grondwetsherziening
168 Grondwettelijk
17885 Groningen
1964 Groninger
154 Groningers
735 Gronings
1467 Groningse
264 Gronsveld
3995 Groot
7132 Groot-Brittannië
1160 Groote
116 Grootebroek
154 Grootegast
204 Groothertog
571 Groothertogdom
161 Groothuizen
550 Grootkruis
194 Grootkruisen
514 Grootmeester
126 Grootofficier
106 Grootseminarie
281 Grootste
111 Grootvorstendom
114 Gros
203 Gross
112 Grosse
549 Grosso
159 Grot
19848 Grote
107 Grouw
810 Grove
123 Grover
104 Grubbenvorst
131 Grunsven
342 Guadeloupe
381 Guam
150 Guangzhou
1289 Guatemala
114 Guatemala-Stad
179 Guatemalteekse
208 Gucht
190 Guerre
264 Guevara
1268 Guido
1290 Guillaume
286 Guillermo
571 Guinee
250 Guinee-Bissau
90 Guinevere
890 Gulden
193 Guldensporenslag
243 Gulf
99 Gullegem
183 Gullit
275 Gulpen
141 Gulpen-Wittem
480 Gun
228 Gunnar
141 Gunter
306 Gunther
270 Gus
118 Gust
974 Gustaaf
1543 Gustav
848 Gustave
270 Gustavo
131 Gutenberg
858 Guus
94 Guusje
129 Guust
2387 Guy
791 Guyana
133 Guzman
451 Gwen
106 Gym
1161 Gymnasium
107 Gé
730 Gérard
143 HAL
371 HBO
902 HBS
738 HP
513 HTM
356 HTML
92 HTTP
177 Ha
161 Haacht
93 Haaften
19247 Haag
485 Haags
3651 Haagse
229 Haak
302 Haaksbergen
105 Haamstede
1377 Haan
144 Haanstra
114 Haard
345 Haaren
6947 Haarlem
97 Haarlemmer
678 Haarlemmermeer
91 Haarlemmermeerpolder
117 Haarlemmerweg
160 Haarlems
796 Haarlemse
853 Haas
208 Haase
199 Haastrecht
107 Habermehl
92 Habib
91 Habitatrichtlijn
764 Habsburgers
1037 Habsburgse
308 Hacker
133 Haddad
196 Hades
131 Hadith
603 Hadrianus
123 Haelen
92 Haen
92 Haenen
96 Hagar
121 Hage
127 Hageland
1345 Hagen
130 Hagenaars
432 Hahn
145 Haider
108 Haiderabad
416 Haifa
245 Haile
137 Haitink
532 Hal
274 Halberstadt
472 Hale
348 Halen
123 Halewijn
330 Haley
289 Half
90 Halfrond
185 Halfweg
5422 Hall
1508 Halle
114 Hallen
120 Haller
177 Hallo
363 Halloween
98 Halmstad
156 Halo
365 Hals
178 Halsema
153 Halsteren
343 Halve
1236 Ham
545 Hamas
4104 Hamburg
751 Hamburger
216 Hamburgse
339 Hamel
100 Hamelen
205 Hamer
150 Hamid
2033 Hamilton
389 Hamlet
336 Hamme
498 Hammer
155 Hamont
104 Hams
1639 Han
689 Hand
107 Handbal
122 Handboek
646 Handel
490 Handelingen
972 Handelsblad
96 Handicap
205 Hands
256 Handvest
144 Hanegem
124 Hang
92 Hanja
556 Hank
435 Hanna
701 Hannah
119 Hanne
103 Hanneke
125 Hannelore
351 Hannes
544 Hannibal
153 Hannie
2317 Hannover
136 Hannuit
369 Hanoi
7539 Hans
1113 Hansen
450 Hanson
93 Hanssen
411 Hanze
102 Hanzelijn
188 Hanzestad
169 Hanzesteden
120 Happel
795 Happy
671 Harald
117 Harare
783 Hard
261 Hardcore
117 Harde
742 Hardenberg
103 Harder
807 Harderwijk
132 Hardin
273 Harding
115 Hardinxveld-Giessendam
1303 Hardy
390 Hare
443 Harelbeke
789 Haren
151 Haring
204 Haringvliet
139 Hariri
94 Harkstede
270 Harley
901 Harlingen
478 Harm
91 Harman
172 Harmelen
154 Harmen
906 Harmonie
223 Harmonieorkest
159 Harmony
268 Harmsen
1610 Harold
222 Harp
227 Harrie
305 Harriet
1596 Harris
1398 Harrison
7239 Harry
2405 Hart
282 Hartbeeld
217 Harten
256 Hartig
710 Hartmann
341 Hartog
1114 Harvey
214 Has
206 Hasan
245 Haspengouw
600 Hassan
2616 Hasselt
169 Hasseltse
389 Hattem
164 Hauer
353 Haus
189 Hauser
173 Haute
557 Havana
672 Have
198 Havelaar
225 Havelte
1540 Haven
137 Havenbedrijf
153 Havengebied
120 Havenstraat
1914 Hawaï
96 Hawking
460 Hawkins
529 Hayat
233 Hayden
680 Haydn
186 Haye
611 Hayes
107 Haynes
868 Hayward
115 Hazard
114 Haze
142 Hazel
120 Hazelhoff
239 Hazes
105 Hazewinkel
1311 Haïti
346 Haïtiaanse
1403 He
391 Heat
335 Heather
680 Heaven
383 Heavy
2333 Hebreeuws
1534 Hebreeuwse
155 Hebreeën
199 Hebriden
134 Hebron
140 Hechtel
100 Heck
190 Hecke
615 Hector
172 Hedel
138 Hedendaagse
425 Hedwig
148 Hee
104 Heeg
166 Heek
371 Heel
109 Heem
250 Heemskerck
534 Heemskerk
642 Heemstede
170 Heemstra
99 Heenvliet
109 Heep
3250 Heer
223 Heerde
159 Heere
284 Heeren
2749 Heerenveen
322 Heerhugowaard
1737 Heerlen
351 Heerlijkheid
141 Heers
195 Hees
119 Heesch
262 Heeswijk
350 Heeze
1366 Heide
250 Heiden
251 Heidi
498 Heijden
143 Heijermans
434 Heijn
153 Heijningen
146 Heikant
149 Heike
124 Heil
2085 Heilig
8405 Heilige
292 Heiligen
194 Heiligerlee
129 Heiligheid
267 Heiloo
971 Hein
194 Heine
858 Heineken
153 Heino
4377 Heinrich
137 Heinsius
101 Heintje
657 Heinz
161 Heisenberg
157 Heist-op-den-Berg
183 Hek
195 Heks
310 Hel
512 Held
371 Helden
1579 Helder
108 Heldring
139 Heleen
1229 Helen
1558 Helena
99 Helenaveen
293 Helene
157 Helga
133 Helgoland
196 Helios
667 Hell
156 Hella
103 Helle
173 Hellen
291 Hellendoorn
342 Hellenistische
622 Heller
358 Hellevoetsluis
125 Helling
195 Helm
1753 Helmond
131 Helmondse
488 Helmut
321 Help
113 Helsen
2368 Helsinki
119 Helvoirt
301 Hemel
143 Hemelse
184 Hemelvaart
131 Hemelvaartsdag
323 Hemert
141 Hemiksem
199 Hemingway
150 Hemmen
103 Hempel
276 Hendel
962 Henderson
583 Hendrick
95 Hendricks
179 Hendrickx
129 Hendricus
14309 Hendrik
132 Hendrik-Ido-Ambacht
216 Hendrika
185 Hendrikkade
671 Hendriks
242 Hendrikus
456 Hendrix
2116 Henegouwen
196 Henegouwse
1341 Hengelo
3397 Henk
122 Henkie
233 Hennie
180 Henning
429 Henny
4411 Henri
511 Henricus
656 Henriette
429 Henrik
99 Henriëtta
607 Henriëtte
6609 Henry
107 Hensbroek
478 Her
326 Hera
776 Heracles
361 Herakles
93 Herbarium
3012 Herbert
1021 Hercules
273 Herder
611 Here
1045 Heren
586 Herengracht
118 Herent
444 Herentals
176 Hereweg
136 Herfst
1284 Hering
92 Herinnering
199 Herinneringsmedaille
123 Herk
145 Herk-de-Stad
98 Herkenbosch
103 Herlaar
5567 Herman
1976 Hermann
782 Hermans
292 Hermanus
564 Hermelien
895 Hermes
114 Hermine
292 Hermitage
173 Hernandez
199 Herne
617 Hero
297 Herodotus
203 Herpen
224 Herre
146 Herrezen
144 Herrmann
291 Hersteld
159 Hert
107 Herten
1799 Hertog
1105 Hertogdom
176 Hertogin
208 Hertz
164 Herve
115 Hervormd
1768 Hervormde
110 Hervormden
132 Hervorming
121 Hervé
139 Herwijnen
1884 Herzegovina
135 Herzele
315 Hess
379 Hesse
120 Hessel
107 Hesselink
2212 Hessen
216 Hester
24677 Het
113 Heteren
130 Hetty
102 Heukelom
156 Heukels
122 Heule
162 Heumen
918 Heusden
157 Heusden-Zolder
705 Heuvel
316 Heuvelland
452 Heuvelrug
90 Heuvels
102 Heuven
192 Heverlee
372 Hewitt
432 Heyden
112 Heylen
189 Heymans
131 Heythuysen
376 Hezbollah
121 Hg
373 Hidalgo
115 Hiddes
310 Hiddink
179 Hieke
112 Hiep
318 Hier
92 Hierbij
112 Hieronder
217 Hieronymus
3790 High
209 Hilary
256 Hilbert
94 Hilbrand
228 Hilda
355 Hilde
327 Hildebrand
175 Hildegard
4164 Hill
180 Hillary
269 Hille
279 Hillegom
520 Hilton
286 Hilvarenbeek
2969 Hilversum
186 Hilversumse
910 Himalaya
108 Hind
175 Hindeloopen
442 Hindi
98 Hindoe
235 Hindoestaanse
116 Hindoestanen
99 Hindoeïsme
91 Hindoeïstische
297 Hinds
96 Hinlopen
124 Hip
122 Hippocrates
149 Hirohito
539 Hiroshima
281 Hirsch
115 Hirschfeld
189 Hirsi
211 Historie
709 Historisch
412 Historische
1311 History
263 Hit
613 Hitchcock
4550 Hitler
165 Hitlerjugend
496 Hitlers
278 Hitparade
529 Hits
297 Hiëronymus
113 Hjalmar
1413 Ho
258 Hobbit
127 Hobbits
446 Hoboken
967 Hockey
126 Hockeyclub
190 Hocus
119 Hodge
401 Hodges
382 Hoe
104 Hoed
178 Hoef
219 Hoegaarden
468 Hoei
102 Hoeilaart
1258 Hoek
99 Hoeken
106 Hoekman
414 Hoekse
230 Hoekstra
278 Hoen
318 Hoensbroek
235 Hoes
91 Hoet
430 Hoeve
138 Hoevelaken
438 Hoeven
153 Hoewel
4915 Hof
330 Hoff
183 Hoffer
503 Hoffman
509 Hoffmann
177 Hofje
117 Hofkens
100 Hofland
121 Hofman
201 Hofmann
180 Hofplein
92 Hofstad
99 Hofstade
333 Hofstede
4217 Hoge
114 Hogendoorn
321 Hogendorp
715 Hoger
561 Hogere
296 Hogerhuis
113 Hogescholen
3265 Hogeschool
148 Hol
775 Holden
654 Holding
231 Holdings
353 Hole
150 Holendrecht
118 Holger
94 Holkema
10303 Holland
457 Hollander
563 Hollanders
519 Hollandia
1165 Hollands
806 Hollandsche
3420 Hollandse
145 Holle
178 Holleeder
571 Holly
3172 Hollywood
371 Holm
168 Holman
791 Holocaust
288 Holoceen
389 Holst
714 Holstein
386 Holt
259 Holten
196 Holthe
363 Holthuis
103 Holtz
113 Holwerd
114 Holwierde
177 Homan
228 Homburg
1677 Home
415 Homerus
741 Homo
101 Homs
486 Hond
1590 Honda
234 Honderd
359 Honderdjarige
167 Hondsrug
1539 Honduras
124 Hondurese
94 Honecker
909 Hong
318 Hongaar
4747 Hongaars
7755 Hongaarse
1219 Hongaren
6021 Hongarije
2343 Hongkong
401 Hongkongse
114 Honkbal
95 Honkbalweek
285 Hoof
405 Hoofd
544 Hoofddorp
310 Hoofdhaar
809 Hoofdklasse
91 Hoofdkwartier
130 Hoofdstad
824 Hoofdstedelijk
236 Hoofdstraat
127 Hoofdstuk
111 Hoofdvaart
216 Hoofdweg
94 Hooff
502 Hooft
571 Hoog
274 Hoogduits
176 Hoogduitse
410 Hooge
92 Hoogenband
104 Hoogendijk
112 Hoogendoorn
133 Hoogerheide
796 Hoogeveen
92 Hoogeveense
304 Hoogezand
166 Hoogezand-Sappemeer
774 Hooggerechtshof
440 Hoogheemraadschap
383 Hoogheid
170 Hoogkerk
601 Hoogland
302 Hooglanden
166 Hooglede
90 Hooglied
207 Hoogovens
194 Hoogste
389 Hoogstraat
463 Hoogstraten
198 Hoogte
182 Hoogvliet
115 Hoogwoud
192 Hool
1577 Hoop
343 Hooper
2591 Hoorn
151 Hoornse
237 Hop
1912 Hope
92 Hopman
91 Hoppe
474 Hopper
384 Hora
216 Horatio
190 Horatius
287 Horde
115 Hordijk
245 Horizon
1782 Horn
300 Horror
590 Horse
1503 Horst
304 Hortus
166 Hospitaal
242 Hoste
2471 Hot
3022 Hotel
193 Hotels
102 Hotze
231 Hou
159 Houben
109 Houbraken
109 Houdini
486 Hour
4275 House
606 Hout
110 Houtem
1237 Houten
179 Houthalen
134 Houthem
154 Houthulst
95 Houwer
590 Hove
152 Hoven
2555 Howard
175 Hsu
841 Hu
954 Huang
144 Hub
592 Huber
1433 Hubert
427 Hubertus
1147 Hudson
133 Huet
940 Hughes
4313 Hugo
191 Hui
199 Huib
9297 Huis
333 Huisman
363 Huisorde
207 Huissen
609 Huize
531 Huizen
119 Huizing
251 Huizinga
597 Hulk
332 Hulp
119 Hulsberg
93 Hulshoff
1402 Hulst
109 Hulten
96 Hum
947 Human
130 Humanistisch
92 Humanistische
146 Humberto
168 Hummel
354 Humphrey
183 Humphreys
98 Humsterland
155 Hung
484 Hunnen
729 Hunt
200 Huntelaar
993 Hunter
97 Hunters
726 Hunze
97 Hurk
146 Hus
112 Hussein
164 Hut
107 Hutu
433 Huub
823 Huygens
195 Huysmans
183 Huzaren
173 Hydra
269 Hyundai
1117 Hz
301 Hélène
892 IBM
408 IC
401 ICT
288 ID
102 IE
40684 II
18638 III
834 IJ
171 IJlst
753 IJmuiden
151 IJs
114 IJsbaan
3150 IJsland
134 IJslanders
538 IJslands
1192 IJslandse
2108 IJssel
541 IJsselmeer
98 IJsselmeerpolders
187 IJsselmeervogels
235 IJsselmonde
150 IJsselmuiden
432 IJsselstein
116 IJsselstreek
108 IJstijd
369 IJszee
476 IJzer
1397 IJzeren
307 IJzertijd
124 IK
123 IKEA
156 IKON
344 IMF
118 INA
110 IND
431 ING
886 IOC
296 IP
229 IP-adres
142 IP-adressen
97 IPCC
324 IQ
270 IRA
109 ISA
135 ISAF
633 ISBN
109 ISDN
875 ISO
131 ISO-naam
218 IT
97 ITU
10331 IV
2169 IX
170 Iain
1754 Ian
651 Iberisch
304 Iberische
372 Ibiza
582 Ibrahim
105 Ichtegem
731 Ida
118 Idee
139 Ideeën
111 Ido
349 Idols
118 Idool
135 Idris
553 Ie
100 Iedereen
1717 Ieper
207 Ier
350 Ieren
6131 Ierland
1445 Iers
5459 Ierse
192 Iggy
180 Iglesias
149 Ignace
352 Ignacio
419 Ignatius
978 Igor
221 Iguaçu
2204 Ik
261 Ike
351 Ilias
200 Ilja
107 Ilona
106 Ilpendam
380 Ilse
484 Image
97 Images
159 Imam
117 Imelda
268 Immanuel
125 Immateriële
251 Impact
91 Imperator
169 Imperia
193 Imperium
94 Imre
234 Ina
238 Inca
161 Inch
103 Incident
548 Independent
448 Index
10592 India
495 Indiaanse
359 Indiaas
1166 Indian
2237 Indiana
11492 Indiase
95 Indien
94 Indies
98 Indigo
101 Indira
531 Indisch
4792 Indische
2018 Indië
327 Indiërs
134 Indo-Europeanen
96 Indo-Europees
726 Indo-Europese
328 Indochina
844 Indonesisch
2675 Indonesische
51841 Indonesië
274 Indonesiërs
676 Indoor
131 Indra
202 Indus
592 Industrie
105 Industrieel
539 Industries
395 Industriële
707 Indy
145 Ineke
95 Inez
708 Infanterie
479 Infanteriedivisie
155 Inferno
192 Informatica
378 Informatie
221 Infrastructuur
522 Inge
232 Ingeborg
192 Ingelmunster
138 Ingen
99 Ingenieur
100 Ingenieurs
94 Inger
159 Ingmar
526 Ingrid
99 Inleiding
306 Inlichtingen
184 Inlichtingendienst
94 Innocent
159 Innovatie
368 Inquisitie
168 Inspecteur
304 Inspectie
93 Instant
282 Institutioneel
5944 Instituut
218 Integratie
627 Intel
776 Inter
121 Interbellum
224 Intercity
100 Interest
191 Interface
94 Interglaciaal
99 Interieur
2932 Internationaal
11185 International
5819 Internationale
110 Interne
1456 Internet
198 Interpol
103 Intifada
294 Inuit
175 Io
333 Ion
198 Iona
649 Ionische
104 Iqbal
178 Ira
131 Iraaks
809 Iraakse
224 Iraans
1417 Iraanse
3343 Irak
123 Irakese
101 Irakezen
105 Iraklion
203 Irakoorlog
3433 Iran
102 Iraniërs
153 Ireen
459 Ireland
1166 Irene
357 Irina
645 Iris
594 Irish
316 Irkoetsk
257 Irma
121 Irmgard
585 Irving
269 Isa
1471 Isaac
167 Isaak
565 Isabel
1983 Isabella
681 Isabelle
90 Isaäc
156 Isfahan
435 Isis
261 Ismail
123 Ismaël
286 Isolde
7731 Israël
465 Israëlieten
408 Israëlisch
3219 Israëlische
139 Israëlitische
147 Israëliërs
255 Israëls
1710 Istanboel
860 Istrië
1289 Italiaan
7702 Italiaans
28263 Italiaanse
97 Italiaanstalige
1431 Italianen
156 Italische
20084 Italië
128 Italo
97 Itterbeek
2097 Ivan
180 Ivar
100 Ivens
630 Ivo
1042 Ivoorkust
92 Ivoriaans
198 Ivoriaanse
331 Ivy
152 Iwan
140 Izaäk
296 Izegem
306 JAP
99 JVC
286 Ja
151 Jaak
1693 Jaap
1547 Jaar
160 Jaarbeurs
180 Jaarbeursstedenbeker
110 Jaarboek
123 Jabbeke
111 Jacco
111 Jacht
227 Jachthonden
5898 Jack
845 Jackie
148 Jacks
4045 Jackson
303 Jacksons
240 Jacky
6208 Jacob
845 Jacoba
424 Jacobi
1151 Jacobs
150 Jacobsen
202 Jacobson
188 Jacobsz
2947 Jacobus
547 Jacqueline
4187 Jacques
382 Jade
132 Jaeger
499 Jager
329 Jagers
236 Jago
467 Jaguar
90 Jahweh
292 Jaime
1262 Jakarta
675 Jake
1081 Jakob
197 Jakobus
251 Jakoetië
837 Jam
1510 Jamaica
112 Jamaicaans
604 Jamaicaanse
175 Jamal
11835 James
101 Jamestown
834 Jamie
30267 Jan
278 Jana
1828 Jane
1533 Janeiro
718 Janet
197 Jangtsekiang
129 Janice
546 Janine
140 Janis
121 Janmaat
125 Janne
138 Janneke
131 Jannes
669 Jans
613 Janse
1700 Jansen
214 Jansma
140 Janson
1276 Janssen
785 Janssens
488 Jansz
163 Janszoon
181 Jantje
94 Jantjes
373 Janus
115 Janzen
16829 Japan
451 Japanner
2514 Japanners
4934 Japans
14897 Japanse
95 Jara
258 Jardin
167 Jared
93 Jari
111 Jarre
251 Jarvis
1860 Jason
731 Jasper
161 Jaspers
3352 Java
229 Javaans
749 Javaanse
188 Javanen
103 Javastraat
147 Javazee
542 Javier
1088 Jaya
2221 Jazz
731 Je
7771 Jean
1006 Jean-Baptiste
288 Jean-Luc
115 Jean-Marc
194 Jean-Michel
477 Jean-Paul
663 Jean-Pierre
193 Jeanette
1529 Jeanne
100 Jeannette
147 Jeans
143 Jeep
1656 Jef
1528 Jeff
1054 Jefferson
542 Jeffrey
248 Jeffreys
93 Jekel
126 Jeker
481 Jelena
418 Jelle
149 Jelles
139 Jelly
683 Jemen
112 Jemenitische
116 Jen
175 Jenna
119 Jenner
1236 Jennifer
1019 Jenny
506 Jens
938 Jensen
182 Jenson
130 Jeremia
108 Jeremiah
627 Jeremy
562 Jericho
109 Jermaine
1664 Jeroen
1348 Jerom
373 Jerome
1486 Jerry
3205 Jersey
4359 Jeruzalem
125 Jeruzalemse
302 Jerzy
221 Jesaja
117 Jesper
177 Jess
995 Jesse
838 Jessica
231 Jessie
611 Jet
314 Jethro
227 Jets
243 Jette
117 Jeu
1078 Jeugd
93 Jeugdbond
271 Jeugdspelen
133 Jeugdwinterspelen
272 Jeugdzomerspelen
103 Jeugdzorg
158 Jeune
103 Jewel
5272 Jezus
267 Jezus'
458 Jezuïeten
369 Ji
145 Jia
569 Jiang
278 Jiddisch
112 Jiddische
170 Jie
130 Jihad
171 Jij
466 Jill
2795 Jim
92 Jimenez
311 Jimi
2286 Jimmy
518 Jin
217 Jing
100 Jive
1547 Jo
1233 Joachim
1758 Joan
417 Joanna
255 Joanne
586 Joannes
232 Joaquim
264 Joaquin
656 Job
185 Jobs
277 Jochem
5432 Joden
273 Jodendom
153 Jodenvervolging
110 Jodi
119 Jodie
172 Jody
3336 Joe
233 Joegoslavisch
1200 Joegoslavische
3336 Joegoslavië
692 Joel
330 Joep
453 Joeri
798 Joey
778 Jogjakarta
182 Joh
10777 Johan
4387 Johann
3193 Johanna
10795 Johannes
113 Johansen
28044 John
322 Johnnie
2968 Johnny
530 Johns
3636 Johnson
103 Johnsons
308 Joint
398 Joke
280 Joker
223 Jol
113 Jolanda
154 Jolie
248 Joling
1245 Jon
117 Jona
110 Jonah
841 Jonas
1795 Jonathan
172 Jonckheere
5039 Jones
4737 Jong
106 Jongbloed
1963 Jonge
127 Jongen
291 Jongens
387 Jongere
251 Jongeren
293 Jongh
115 Joni
356 Jonker
106 Jonkheer
143 Jonny
408 Jood
1025 Joods
6965 Joodse
1516 Joop
269 Joos
2322 Joost
180 Joosten
121 Jopie
101 Joppe
741 Jordaan
409 Jordaanoever
225 Jordaanse
112 Jordaens
2854 Jordan
1041 Jordanië
270 Jordi
842 Jorge
1160 Joris
94 Jorn
113 Jorritsma
2034 Jos
830 Jose
1379 Josef
8759 Joseph
214 Josepha
421 Josephine
781 Josephus
692 Josh
497 Joshua
123 Josina
163 Josip
120 Josse
4104 José
173 Joséphine
91 Jou
280 Joure
615 Journaal
350 Journalistiek
163 Jovi
663 Joy
709 Joyce
3793 Jozef
93 Jozias
295 Jozua
133 Joël
239 Ju
3860 Juan
171 Juana
215 Jubilee
572 Juda
619 Judas
498 Judea
940 Judith
112 Judo
446 Judy
230 Jugendstil
2364 Jules
1686 Julia
796 Julian
1470 Juliana
103 Julianakanaal
729 Julien
208 Juliet
247 Juliette
325 Julio
2606 Julius
103 July
191 Jumbo
305 Jun
403 June
429 Jung
130 Junge
423 Jungle
2555 Junior
232 Junioren
294 Juniors
360 Juno
464 Jupiler
1395 Jupiter
2026 Jura
256 Jurgen
187 Jurgens
92 Jurriaan
176 Jury
1076 Just
739 Justice
904 Justin
377 Justine
204 Justinus
3012 Justitie
422 Justus
446 Jutland
163 Jutphaas
111 Jutta
172 Juweeljuffers
247 Jérôme
463 Jürgen
127 KAS
538 KB
276 KDE
126 KG
318 KGB
1102 KLM
109 KLPD
162 KMA
169 KNAU
342 KNIL
236 KNMI
376 KNSB
2642 KNVB
120 KPMG
698 KPN
1287 KRO
151 KVK
203 Ka
162 Kaag
1736 Kaap
329 Kaapkolonie
279 Kaapse
874 Kaapstad
303 Kaapverdische
498 Kaapverdië
184 Kaart
209 Kaas
102 Kaat
270 Kabeljauwse
334 Kabinet
134 Kaboel
162 Kabouter
148 Kadaster
376 Kai
571 Kaiser
470 Kale
417 Kalf
154 Kali
131 Kalifaat
96 Kallo
179 Kalmthout
220 Kalverstraat
97 Kam
99 Kamal
246 Kameleon
364 Kamen
11240 Kamer
139 Kamercommissie
231 Kamerfractie
109 Kamerik
97 Kamerkoor
460 Kamerleden
1845 Kamerlid
167 Kamerlidmaatschap
92 Kamerling
1039 Kameroen
110 Kameroens
217 Kamerorkest
231 Kamers
1528 Kamerverkiezingen
143 Kamervoorzitter
165 Kamervragen
154 Kamiel
1258 Kamp
130 Kampala
1952 Kampen
101 Kamper
136 Kampf
103 Kamphuis
580 Kampioen
553 Kampioenen
1953 Kampioenschap
573 Kampioenschappen
245 Kampong
672 Kamtsjatka
1981 Kanaal
154 Kanaaleilanden
361 Kanaän
192 Kandahar
836 Kane
175 Kano
90 Kanselarij
262 Kanselier
844 Kant
686 Kanton
150 Kantonees
106 Kantons
143 Kap
682 Kapel
158 Kapelle
220 Kapellen
627 Kapitein
201 Kapittel
119 Kaplan
156 Kappa
294 Kara
182 Karaman
138 Karate
185 Karazee
238 Kardinaal
144 Kardinalen
14827 Karel
230 Karelië
280 Karels
826 Karen
121 Kari
238 Karim
710 Karin
712 Karinthië
3840 Karl
257 Karlsbad
142 Karma
292 Karo
167 Karol
617 Karolingische
382 Karpaten
124 Kars
126 Karst
114 Karsten
231 Kart
107 Kas
509 Kasjmir
191 Kaspar
205 Kasper
480 Kaspische
111 Kast
3157 Kasteel
108 Kasterlee
403 Kat
163 Katarina
1399 Kate
137 Katharen
282 Katharina
672 Kathedraal
486 Katherine
333 Kathleen
133 Kathmandu
577 Katholiek
5955 Katholieke
109 Katholieken
167 Kathryn
333 Kathy
529 Katie
263 Katja
345 Kato
247 Katrien
318 Katrina
116 Kats
109 Kattegat
1117 Katwijk
160 Katy
132 Katz
178 Kaufman
167 Kaukasische
1222 Kaukasus
222 Kaur
111 Kawai
94 Kaya
260 Kazachs
423 Kazachse
1282 Kazachstan
678 Kazan
131 Kazerne
99 Kaïn
95 Kea
228 Keane
175 Kee
164 Keen
310 Keep
130 Keeper
102 Keerbergen
2485 Kees
153 Kei
1352 Keith
2176 Keizer
224 Keizerin
185 Keizerlijk
925 Keizerlijke
2387 Keizerrijk
525 Keizersgracht
101 Keizerstraat
201 Kelder
481 Keller
141 Kelley
254 Kellner
2540 Kelly
336 Kelsey
504 Kelten
267 Keltisch
1585 Keltische
232 Kelvin
255 Kemal
439 Kemp
1201 Kempen
232 Kempens
193 Kempense
174 Kemper
153 Kempische
1022 Ken
134 Kendo
102 Kendrick
121 Kendricks
1508 Kenia
368 Keniaan
210 Keniaans
788 Keniaanse
1333 Kennedy
219 Kennel
170 Kennemer
209 Kennemerland
912 Kenneth
132 Kennis
1040 Kenny
1843 Kent
363 Kepler
265 Keppel
14873 Kerk
107 Kerkbuurt
404 Kerkelijke
1720 Kerken
386 Kerkhof
132 Kerkplein
1071 Kerkrade
490 Kerkstraat
90 Kermis
273 Kern
121 Kerstdag
144 Kersten
244 Kerstman
646 Kerstmis
602 Kessel
99 Kessel-Lo
236 Kessenich
323 Kessler
225 Kesteren
114 Ket
97 Ketel
90 Keten
94 Ketting
90 Keuken
4368 Keulen
389 Keulse
112 Keunen
138 Keuning
95 Keurvorst
210 Kever
2160 Kevin
657 Key
331 Keys
528 Keyser
170 Keyzer
101 Khaled
158 Khalid
121 Khalifa
3115 Khan
151 Khartoem
384 Khmer
172 Khomeini
131 Ki
148 Kia
196 Kick
906 Kid
960 Kids
563 Kiefer
202 Kieft
423 Kiekeboe
1090 Kiel
121 Kierkegaard
1814 Kiev
93 Kigali
244 Kijk
153 Kijkduin
163 Kiki
111 Kikker
129 Kil
103 Kilimanjaro
370 Killer
142 Killers
2920 Kim
141 Kimberley
251 Kimberly
141 Kimi
756 Kind
118 Kinderdijk
716 Kinderen
5386 King
123 Kingma
790 Kings
194 Kingsley
735 Kingston
316 Kink
120 Kinrooi
163 Kinsbergen
317 Kinshasa
564 Kioto
203 Kip
154 Kira
1039 Kirby
174 Kirchner
172 Kirgizische
451 Kirgizië
181 Kiribati
192 Kirsch
296 Kirsten
137 Kist
284 Kit
248 Kitts
540 Kitty
1082 Klaas
137 Klaassen
195 Klara
96 Klas
5827 Klasse
459 Klassiek
446 Klassieke
114 Klassieken
832 Klaus
129 Klaver
113 Klazienaveen
157 Klee
1371 Kleef
100 Kleijn
2337 Klein
845 Klein-Azië
3844 Kleine
148 Kleinkunst
99 Kleinkunstacademie
128 Kleiweg
278 Klerk
138 Kleve
91 Klijn
96 Klimmen
124 Klink
90 Kloetinge
158 Klok
130 Klokhuis
119 Klomp
178 Kloos
659 Klooster
94 Kloosterkerk
147 Kluis
242 Kluivert
135 Klundert
105 Kluwer
230 Knack
280 Knesset
90 Knevel
250 Knoet
440 Knokke
191 Knokke-Heist
92 Knokploegen
202 Knol
108 Knoop
392 Knooppunt
91 Knots
196 Knut
507 Ko
474 Kobe
1724 Koch
364 Kock
131 Kodak
193 Koe
91 Koedijk
736 Koehler
149 Koekelare
153 Koekelberg
104 Koekoek
164 Koelewijn
955 Koen
1092 Koenraad
406 Koerden
239 Koerdisch
535 Koerdische
223 Koerdistan
208 Koerilen
284 Koerland
107 Koers
117 Koerse
109 Koets
866 Koeweit
215 Kofi
350 Kohl
105 Kohnstamm
751 Kok
315 Koksijde
143 Kol
141 Kola
118 Kolff
303 Kolk
97 Koller
118 Kollum
130 Kollumerland
243 Kolonel
133 Koloniaal
266 Koloniale
120 Kolonie
443 Koloniën
308 Kom
145 Komedie
97 Kompas
137 Komrij
1620 Kong
117 Konijn
6074 Koning
636 Koningen
3667 Koningin
402 Koninginnedag
471 Konings
468 Koningsbergen
136 Koningsplein
7353 Koninklijk
10992 Koninklijke
15417 Koninkrijk
172 Koninkrijken
230 Koninkrijksrelaties
517 Konrad
375 Konstantin
286 Kontich
216 Koog
204 Kooi
106 Kooij
90 Kooijman
130 Kooistra
216 Kool
96 Koole
168 Koolhaas
177 Koolhoven
90 Koolkerke
509 Koophandel
290 Koopman
164 Koopmans
180 Koor
475 Koos
195 Koot
457 Kooten
107 Kootwijk
163 Kooy
375 Kop
3322 Kopenhagen
250 Koper
101 Koppel
105 Koppen
110 Kopspijkers
103 Koptisch
198 Koptische
1376 Koran
1868 Korea
495 Koreaans
1761 Koreaanse
191 Koreanen
173 Korfbal
158 Korfoe
384 Korinthe
318 Korinthische
132 Korn
94 Kornelis
1085 Korps
294 Kort
894 Korte
126 Kortemark
97 Kortenberg
95 Kortgene
2974 Kortrijk
303 Kortrijkse
105 Korver
229 Kos
120 Kosmos
153 Kosovaarse
1296 Kosovo
442 Koster
832 Kota
1283 Koude
176 Kousenband
127 Kowloon
332 Kozakken
194 Kraaijkamp
97 Kraainem
122 Kraan
90 Krabbe
236 Krabbé
555 Kracht
90 Krachten
221 Kraft
947 Kramer
196 Kranenburg
161 Krant
171 Kraton
243 Kraus
163 Krause
156 Krebs
191 Kreeft
189 Kreek
122 Kremer
341 Kremlin
1196 Kreta
109 Kretenzische
156 Krieger
147 Krijgsmacht
163 Krijgsschool
93 Krijn
1495 Krijt
629 Krim
272 Krimoorlog
499 Krimpen
150 Krimpenerwaard
481 Kring
629 Kris
650 Krishna
119 Kristel
631 Kristen
115 Kristian
167 Kristin
168 Kristina
178 Kristof
112 Kritiek
147 Kroaat
679 Kroaten
705 Kroatisch
6557 Kroatische
2943 Kroatië
255 Kroes
195 Krol
102 Krom
149 Kromhout
488 Kromme
145 Krommenie
108 Kronenburg
212 Kroniek
321 Kronieken
1666 Kroon
228 Kroonorde
228 Kruger
98 Kruibeke
110 Kruiningen
3563 Kruis
109 Kruisberg
96 Kruisheren
92 Kruispunt
131 Kruisstraat
795 Kruistocht
96 Kruistochten
153 Kruisweg
219 Krupp
157 Krzysztof
437 Kuala
342 Kuhn
820 Kuifje
131 Kuijken
160 Kuijpers
109 Kuinre
299 Kuip
348 Kuiper
373 Kuipers
115 Kult
182 Kultuurkamer
194 Kumar
207 Kun
2570 Kunst
412 Kunstacademie
3639 Kunsten
207 Kunstenaars
198 Kunstkring
94 Kunstliefde
122 Kunstmuseum
125 Kunstnijverheid
138 Kunstnijverheidsschool
92 Kunstrijden
230 Kunstschaatsen
125 Kunz
173 Kurhaus
119 Kursaal
1714 Kurt
228 Kust
132 Kusters
147 Kuurne
466 Kuyper
95 Kwaad
216 Kwak
118 Kwaremont
184 Kwartet
260 Kwartier
127 Kweekschool
200 Kwetsbaar
881 Kyle
175 Kylie
578 Köhler
105 L-vormige
358 LA
154 LAN
98 LE
223 LEGO
110 LET
247 LG
124 LINT
100 LNV
233 LO
329 LPF
184 LSD
19574 La
202 Laag
275 Laagland
124 Laagvlakte
257 Laak
1010 Laan
280 Laar
115 Laarbeek
92 Laarne
535 Laat
911 Laatste
182 Lab
175 Label
476 Laboratorium
165 Labrador
257 Labs
333 Lac
216 Lacroix
116 Lada
103 Ladder
318 Laden
108 Ladogameer
2410 Lady
102 Laetitia
214 Lafeber
1862 Lage
209 Lager
575 Lagerhuis
362 Lagos
202 Lai
4253 Lake
391 Laken
116 Lakenhal
333 Lakes
517 Lam
324 Lama
115 Lamar
1134 Lambert
471 Lambertus
128 Lambrecht
135 Lambrechts
376 Lammers
352 Lan
275 Lana
221 Lanaken
773 Lancaster
433 Lance
234 Lancelot
691 Lancia
5051 Land
118 Landauer
1061 Landbouw
155 Landbouwhogeschool
307 Landdag
263 Lande
395 Landelijk
586 Landelijke
1628 Landen
107 Landengte
344 Landgoed
323 Landgraaf
355 Landing
581 Landmacht
166 Lands
1094 Landschap
116 Landschappen
146 Landsmeer
1071 Lang
185 Langdurige
2583 Lange
176 Langedijk
104 Langemark
220 Langen
222 Langer
116 Langerak
115 Langerhans
149 Langestraat
150 Langeveld
244 Langs
146 Langstraat
1373 Lanka
127 Lans
230 Lanschot
111 Lansing
130 Lansingerland
873 Laos
91 Laotiaanse
463 Lapland
404 Lara
959 Laren
251 Large
285 Largo
115 Larissa
1140 Larry
689 Lars
392 Larsen
2485 Las
128 Laser
124 Lasse
112 Lassen
1633 Last
208 Lat
827 Late
6644 Latijn
100 Latijnen
604 Latijns
1139 Latijns-Amerika
550 Latijns-Amerikaanse
6251 Latijnse
397 Latin
120 Latino
186 Latour
233 Lau
1747 Laura
565 Lauren
472 Laurence
635 Laurens
1083 Laurent
290 Laurentius
341 Laurie
109 Laurus
311 Lauwers
116 Lauwersoog
113 Lava
1951 Law
275 Lawn
2118 Lawrence
283 Laws
107 Layla
160 Layton
247 Lazarus
12782 Le
956 Lea
180 Leader
12878 League
112 Leah
105 Lean
221 Leander
136 Lebbeke
118 Leblanc
337 Led
267 Lede
210 Ledoux
5839 Lee
1051 Leeds
333 Leefbaar
134 Leeflang
111 Leefmilieu
275 Leek
244 Leekens
229 Leemans
436 Leen
160 Leende
313 Leendert
220 Leens
580 Leer
442 Leerdam
139 Leers
138 Leersum
253 Lees
153 Leest
4486 Leeuw
4089 Leeuwarden
325 Leeuwarder
90 Leeuwarderadeel
98 Leeuwarderweg
906 Leeuwen
139 Leeuwenhart
114 Leeuwenhoek
581 Legend
110 Legende
4275 Leger
234 Legergroep
468 Legerkorps
284 Legio
1038 Legioen
302 Lehmann
230 Lei
122 Leia
10055 Leiden
133 Leider
301 Leiderdorp
286 Leids
328 Leidsche
412 Leidschendam
129 Leidschendam-Voorburg
1657 Leidse
198 Leidseplein
108 Leidsestraat
687 Leie
446 Leigh
95 Leila
95 Leimuiden
123 Lejeune
622 Lek
103 Lekker
105 Lekkerkerk
113 Lelie
210 Lely
812 Lelystad
91 Lem
596 Lemaire
315 Lemmens
280 Lemmer
125 Lemon
98 Lemsterland
135 Len
523 Lena
136 Lenaerts
771 Lenin
140 Lennart
426 Lennep
145 Lennik
1065 Lennon
184 Lennox
376 Lenny
572 Lens
143 Lenstra
193 Lent
388 Lente
155 Lenz
3782 Leo
1554 Leon
164 Leona
1325 Leonard
980 Leonardo
171 Leonardus
1103 Leone
224 Leonhard
123 Leoni
224 Leonidas
140 Leonie
167 Leonora
136 Leontien
3732 Leopold
220 Leopoldsburg
380 Leopoldsorde
215 Lerida
332 Leroy
5157 Les
141 Lesbos
113 Lesley
613 Leslie
313 Lesotho
112 Leste
463 Lester
745 Let
263 Leterme
1746 Letland
316 Lets
609 Letse
124 Letten
155 Letter
546 Letteren
522 Letterkunde
121 Letterkundig
357 Letters
180 Leur
304 Leusden
91 Leut
7357 Leuven
754 Leuvense
294 Lev
317 Levant
310 Level
916 Leven
191 Levende
153 Levens
161 Lever
1666 Levi
93 Leviathan
224 Levin
404 Levy
3389 Lewis
747 Lex
104 Lexicon
129 Lexmond
288 Ley
2281 León
2081 Li
122 Lia
314 Liam
112 Lian
569 Liang
144 Libanees
891 Libanese
2084 Libanon
138 Libby
121 Libelle
220 Liberaal
898 Liberale
304 Liberalen
790 Liberia
122 Liberiaanse
530 Libische
1425 Libië
98 Libreville
93 Libris
355 Lichaam
149 Lichamelijke
527 Licht
272 Lichte
313 Lichtenberg
274 Lichtenvoorde
300 Lichtervelde
280 Lie
211 Liebe
254 Liebherr
760 Liechtenstein
101 Liechtensteinse
381 Lied
104 Liedboek
133 Liedekerke
97 Liederen
881 Liefde
109 Lieke
151 Liemers
151 Liempde
176 Lien
157 Lienden
1321 Lier
125 Lierop
981 Lierse
458 Lies
270 Liesbeth
424 Lieshout
144 Liessel
1247 Lieve
270 Lieven
127 Lievens
443 Lig
2061 Liga
1415 Light
92 Ligthart
110 Ligurische
333 Ligurië
262 Lijfland
1461 Lijn
9890 Lijst
129 Lijsten
179 Lil
168 Lila
296 Lili
209 Lilian
131 Liliane
91 Lilith
920 Lille
149 Lillian
155 Lillo
209 Lilly
687 Lily
211 Lim
1208 Lima
99 Limasol
110 Limbricht
7677 Limburg
208 Limburger
141 Limburgers
1554 Limburgs
2280 Limburgse
201 Limerick
94 Limes
1020 Limit
111 Limmen
849 Limousin
800 Lin
196 Lina
1844 Lincoln
102 Lind
1476 Linda
114 Lindbergh
461 Linde
1399 Linden
90 Lindner
326 Lindsey
126 Lineair
358 Ling
425 Linge
263 Lingen
695 Linie
424 Link
123 Linke
100 Linkebeek
121 Linkeroever
583 Links
177 Linkse
126 Linn
2867 Linnaeus
115 Lino
93 Linotype
258 Linschoten
234 Lint
106 Linthorst
197 Linus
1328 Linux
147 Linuxdistributie
633 Lion
592 Lionel
329 Lions
223 Lippens
196 Lips
1566 Lisa
148 Lise
2039 Lissabon
346 Lisse
114 Lissewege
597 List
91 Listen
128 Lister
658 Liszt
159 Lita
92 Literair
131 Literaire
475 Literatuur
228 Literatuurprijs
237 Lith
2204 Litouwen
150 Litouwers
336 Litouws
983 Litouwse
168 Liturgie
1773 Liu
106 Liv
3254 Live
500 Lives
187 Livia
634 Living
191 Livingstone
327 Liz
200 Liza
199 Lizzy
140 Liégeois
814 Ljubljana
1655 Lloyd
532 Lo
152 Lobbes
140 Lobo
748 Loch
377 Lochem
114 Lochristi
110 Lock
109 Locus
199 Lode
11007 Lodewijk
158 Lodewijks
93 Loe
100 Loeff
137 Loek
120 Loeki
97 Loen
396 Loenen
165 Loes
166 Loevestein
96 Loewe
112 Lof
91 Log
653 Logan
346 Loge
125 Loges
100 Logistiek
168 Lohman
98 Lohmann
2328 Loire
242 Lois
193 Lok
113 Lokaal
228 Lokale
1001 Lokeren
415 Lola
100 Lolita
152 Lom
181 Loman
375 Lombard
2077 Lombardije
118 Lombardische
386 Lombok
636 Lommel
94 Lomé
21946 Londen
129 Londens
1988 Londense
182 Londerzeel
210 Lone
2679 Long
296 Longobarden
872 Loo
446 Look
1288 Loon
125 Loonse
344 Loop
234 Loos
156 Loosdrecht
277 Loosduinen
99 Loose
279 Lopes
590 Lopez
146 Lopik
114 Loppem
285 Loppersum
204 Lor
3005 Lord
306 Lords
194 Loren
139 Lorena
208 Lorentz
371 Lorenz
1285 Lorenzo
138 Loretta
165 Lori
263 Lorraine
9085 Los
112 Lose
192 Losser
1061 Lost
804 Lot
235 Loterij
221 Lothar
3844 Lotharingen
318 Lotte
101 Lotti
228 Lotto
939 Lotus
897 Lou
168 Louie
8657 Louis
505 Louisa
2790 Louise
145 Lounge
317 Lourdes
92 Lourdesgrot
736 Louvre
124 Louw
156 Louwerens
185 Lover
221 Lovers
197 Loves
381 Low
140 Lowie
713 Lu
209 Luanda
103 Lubbe
379 Lubbers
1748 Luc
553 Luca
4045 Lucas
393 Lucca
125 Luce
179 Lucht
1189 Luchthaven
117 Luchtlandingsdivisie
788 Luchtmacht
429 Luchtvaart
135 Luchtvaartdienst
938 Lucia
462 Luciano
254 Lucie
1714 Lucien
221 Lucifer
172 Lucille
118 Lucinda
1189 Lucius
143 Luck
805 Lucky
122 Lucretia
979 Lucy
176 Lucía
803 Ludo
123 Ludovic
148 Ludovicus
3380 Ludwig
142 Lues
210 Lufthansa
459 Lugano
117 Lugt
992 Luigi
7394 Luik
853 Luikse
2084 Luis
132 Luisa
288 Luiten
275 Luitenant
176 Luiz
150 Luk
240 Luka
260 Lukas
1486 Luke
95 Lula
162 Lulu
156 Lummen
370 Lumpur
723 Luna
94 Lunch
404 Lund
174 Lunetten
114 Luns
235 Lunteren
133 Luo
92 Lupus
163 Lust
1160 Luther
150 Luthers
592 Lutherse
256 Lutz
141 Luuk
179 Lux
6578 Luxemburg
106 Luxemburger
1023 Luxemburgs
1409 Luxemburgse
229 Luxor
101 Luyksgestel
147 Luz
159 Ly
1051 Lyceum
96 Lycklama
334 Lydia
110 Lyn
430 Lynch
198 Lyndon
102 Lynette
797 Lynn
138 Lynne
262 Lynx
2886 Lyon
189 Lyons
222 László
1250 Léon
174 Léonard
124 Löw
759 Lübeck
232 MA
119 MAG
363 MAN
216 MAX
561 MB
154 MBA
265 ME
106 MEP
306 MG
814 MHz
235 MI
180 MI6
130 MIDI
95 MKB
132 ML
98 MM
155 MO
107 MOL
143 MP3
150 MRI
654 MS
132 MSC
1510 MTV
107 MULO
599 MVV
570 MW
1421 Ma
1557 Maagd
450 Maagdenburg
404 Maagdeneilanden
157 Maaike
1236 Maan
154 Maandag
206 Maandblad
127 Maanen
124 Maarheeze
131 Maarn
302 Maarschalk
412 Maarssen
2870 Maarten
138 Maartensdijk
131 Maartje
5652 Maas
135 Maasbracht
112 Maasbree
96 Maasbrug
169 Maasdijk
124 Maasdriel
475 Maaseik
151 Maaskant
432 Maasland
170 Maaslandse
109 Maaslijn
222 Maasmechelen
148 Maasoever
126 Maaspoort
343 Maassen
433 Maassluis
7254 Maastricht
247 Maastrichtien
151 Maastrichts
520 Maastrichtse
145 Maasvallei
276 Maasvlakte
229 Maat
245 Maatschappelijk
128 Maatschappelijke
3632 Maatschappij
214 Mabel
1986 Mac
523 Macau
358 Macedonisch
690 Macedonische
1944 Macedonië
165 Macedoniërs
225 Mach
108 Machatsjkala
100 Machelen
1137 Machine
137 Machinefabriek
151 Machines
211 Macht
138 Machteld
312 Macintosh
330 Mack
394 Mackay
233 Mackenzie
140 Macy
1695 Madagaskar
269 Madam
833 Madame
588 Made
490 Madeira
457 Madeleine
104 Madeline
826 Madison
130 Madoera
1281 Madonna
278 Madras
264 Madre
6687 Madrid
138 Madrileense
116 Mads
192 Madsen
101 Maduro
415 Mae
154 Maertens
624 Maes
138 Maestro
99 Mag
1864 Magazine
279 Magda
1029 Magdalena
178 Magellaan
101 Magenta
530 Maggie
193 Maghreb
195 Magische
131 Magister
90 Magma
250 Magnolia
227 Magnum
1255 Magnus
173 Magyaren
177 Maha
148 Mahatma
111 Mahdi
107 Mahesh
581 Mahler
150 Mahmoud
161 Mahmud
385 Mai
114 Maia
138 Maier
372 Mail
2479 Main
1385 Mainz
128 Maja
150 Majella
243 Majesteit
255 Majoor
1292 Major
186 Majorca
157 Majors
203 Mak
274 Makassar
445 Make
222 Maker
168 Makkum
139 Mal
690 Malakka
532 Malawi
827 Malcolm
288 Maldegem
204 Malden
1268 Maldiven
525 Male
413 Maleis
337 Maleise
157 Maleisisch
688 Maleisische
2020 Maleisië
90 Maleisiërs
1538 Mali
124 Maliebaan
117 Malieveld
199 Malik
112 Malinese
313 Mall
151 Malle
147 Mallory
2266 Malta
163 Maltees
399 Maltese
267 Maltezer
473 Mama
118 Mamma
96 Mammoetwet
6851 Man
1263 Management
423 Manager
100 Managua
711 Manche
3388 Manchester
250 Mandarijn
415 Mandela
183 Mander
135 Manders
167 Mandy
146 Manen
533 Manfred
126 Manga
127 Mango
266 Mani
234 Manifest
1708 Manilla
1217 Mann
120 Manneke
97 Manneken
143 Mannelijke
1815 Mannen
94 Mannenkoor
572 Manning
234 Manon
1484 Mans
143 Mantsjoe
523 Mantsjoerije
230 Mantsjoes
463 Mantua
249 Manu
2213 Manuel
122 Manuela
143 Manus
345 Manx
785 Mao
265 Maori
102 Map
140 Maputo
332 Mara
1523 Marathon
3146 Marc
2545 Marcel
136 Marcella
417 Marcello
477 Marcellus
206 Marcelo
593 Marche
216 Marcia
93 Marcin
180 Marck
2273 Marco
1108 Marcos
3699 Marcus
1057 Mare
473 Marechaussee
316 Marek
98 Marengo
184 Marga
1178 Margaret
180 Margareta
2553 Margaretha
297 Margarita
160 Marge
158 Margo
339 Margot
229 Margraten
536 Margriet
407 Marguerite
504 Mari
19669 Maria
223 Mariabeeld
133 Mariah
193 Mariakapel
341 Mariakerk
163 Mariakerke
100 Mariam
263 Marian
153 Mariana
251 Marianen
1113 Marianne
380 Mariano
5565 Marie
92 Marie-Anne
189 Marie-Louise
283 Marieke
95 Mariette
385 Marijke
117 Marijn
115 Marijnissen
444 Marilyn
445 Marin
1011 Marina
3474 Marine
134 Marines
340 Mariniers
1052 Marino
605 Marinus
2991 Mario
1102 Marion
290 Maris
136 Mariska
118 Marissa
100 Marit
177 Maritiem
166 Maritieme
883 Marius
133 Mariënberg
124 Marja
182 Marjan
201 Marjolein
131 Marjorie
6665 Mark
141 Marke
195 Markelo
339 Marken
97 Marker
152 Markermeer
779 Market
243 Marketing
354 Markies
189 Marko
250 Marks
2520 Markt
121 Markten
130 Marktstraat
404 Markus
116 Marlboro
91 Marle
404 Marleen
219 Marlene
449 Marley
135 Marlies
235 Marlon
209 Marlène
98 Marmara
1120 Marne
295 Marnix
165 Marnixstraat
98 Marokkaan
290 Marokkaans
1580 Marokkaanse
223 Marokkanen
3365 Marokko
123 Marot
113 Marowijne
206 Marrakesh
244 Marrons
3171 Mars
2030 Marseille
1085 Marsh
1733 Marshall
143 Marshalleilanden
122 Marsman
285 Mart
259 Marta
327 Martel
177 Martelaren
631 Marten
1010 Martens
916 Martha
118 Marthe
123 Martien
788 Martijn
8330 Martin
553 Martina
94 Martinair
510 Martine
339 Martinez
359 Martini
375 Martinique
501 Martino
411 Martins
1112 Martinus
474 Marty
97 Martyn
253 Marum
508 Marvin
153 Marwijk
1104 Marx
4807 Mary
1412 María
332 Mas
877 Mason
393 Massa
262 Massacre
199 Massief
299 Massimo
96 Masson
109 Mast
141 Mastenbroek
2409 Master
136 Masterplan
2218 Masters
321 Mat
400 Mata
109 Matador
415 Mataram
411 Match
206 Matchplay
118 Maten
184 Mateo
386 Mater
222 Materieel
102 Mathematica
109 Mathew
423 Mathias
438 Mathieu
100 Mathijs
95 Mathijssen
1280 Mathilde
154 Mathis
120 Matilda
244 Matisse
284 Matrix
118 Mats
1711 Matt
351 Matteo
185 Matter
169 Matterhorn
91 Matters
603 Matteüs
274 Mattheus
1239 Matthew
562 Matthews
819 Matthias
113 Matthieu
546 Matthijs
95 Matti
251 Maud
230 Maureen
95 Maurer
2372 Maurice
152 Mauricio
148 Maurik
426 Mauritanië
582 Mauritius
2568 Maurits
131 Mauritshuis
167 Maurizio
331 Mauro
117 Mauser
113 Mausoleum
91 Mauve
4979 Max
138 Maxi
313 Maxim
129 Maxima
510 Maxime
1636 Maximiliaan
299 Maximilian
91 Maximum
540 Maximus
97 Maxine
659 Maxwell
1422 May
586 Maya
678 Mayer
357 Mayo
389 Mazda
91 Mb
292 McCain
1142 McCartney
4536 Me
101 Meadow
227 Meadows
4202 Mechelen
106 Mechels
373 Mechelse
1233 Mecklenburg-Voor-Pommeren
1230 Medaille
118 Medailles
591 Medemblik
124 Meden
2521 Media
921 Medici
740 Medina
694 Medisch
286 Medische
170 Mediterrane
135 Medium
219 Medusa
91 Meeden
166 Meek
100 Meent
2174 Meer
243 Meern
419 Meerssen
176 Meertens
294 Mees
220 Meest
1342 Meester
197 Meesters
129 Meesterwerken
208 Meet
308 Meeting
140 Meetjesland
215 Meeuwen
284 Meeuwis
135 Meeuws
232 Meg
1102 Mega
125 Megahit
209 Megan
178 Megen
377 Mehmet
373 Mei
114 Meiden
230 Meier
312 Meierij
226 Meij
132 Meijel
1229 Meijer
191 Meijers
172 Mein
152 Meindert
142 Meise
149 Meisje
275 Meisjes
108 Meister
667 Mekka
183 Mekong
592 Mel
586 Melanie
322 Melchior
148 Meldert
116 Melina
107 Melinda
170 Melis
406 Melissa
138 Melk
631 Melkweg
327 Melle
297 Melody
158 Melville
242 Melvin
126 Memel
263 Memory
1364 Men
94 Menaldumadeel
203 Mende
148 Mendel
316 Mendelssohn
375 Mendes
329 Meneer
458 Menen
111 Meng
347 Mengelberg
91 Mengele
93 Menke
93 Menken
484 Menno
969 Mens
352 Mensen
184 Mensenrechten
151 Mensheid
92 Menten
99 Menterwolde
114 Menzo
905 Meppel
136 Meppen
126 Mer
188 Mercator
798 Mercedes
825 Mercedes-Benz
151 Merchtem
441 Merckx
456 Mercurius
301 Mercy
130 Mere
182 Meredith
184 Merel
172 Merelbeke
294 Meren
117 Merian
118 Merijn
910 Merit
231 Merkel
383 Merksem
90 Merksplas
137 Merle
294 Merlijn
190 Merlin
315 Merovingische
460 Mertens
105 Mervyn
369 Merwede
177 Merwedekanaal
95 Meryl
96 Mes
186 Mesen
158 Mesopotamische
663 Mesopotamië
242 Mesozoïcum
249 Messias
452 Messina
304 Meta
829 Metal
115 Metalen
107 Meteorologisch
92 Meteren
114 Methodist
992 Metro
229 Metropolis
109 Mets
131 Metternich
1143 Metz
127 Meulebeke
303 Meulen
149 Meulenhoff
230 Meurs
296 Mevrouw
135 Mexicaan
1059 Mexicaans
180 Mexicaans-Amerikaanse
4461 Mexicaanse
339 Mexicanen
10896 Mexico
1833 Mexico-Stad
1243 Meyer
230 Meyers
123 Mg
91 Mheer
339 Mi
418 Mia
161 Micha
9695 Michael
513 Michaels
795 Michail
137 Michal
1053 Michaël
2844 Michel
611 Michelangelo
449 Michele
187 Michelin
258 Michelinster
97 Michelinsterren
854 Michelle
271 Michels
1300 Michiel
395 Michiels
92 Michèle
796 Mick
915 Mickey
149 Micro
153 Micronesia
113 Micronesië
2549 Microsoft
102 Microsofts
150 Midas
90 Middag
103 Middags
102 Middelaar
205 Middelbare
1918 Middelburg
96 Middelburgse
3170 Middeleeuwen
142 Middelharnis
159 Middelkerke
4316 Middellandse
263 Middelnederlands
289 Middelnederlandse
153 Middelstum
1440 Midden
806 Midden-Amerika
132 Midden-Amerikaanse
124 Midden-Delfland
537 Midden-Europa
157 Midden-Europese
8166 Midden-Java
156 Midden-Limburg
2373 Midden-Oosten
100 Middenweg
394 Middle
200 Midi
132 Midwolda
196 Mie
518 Mieke
93 Miekes
114 Miel
149 Mien
123 Miep
118 Mierde
514 Mierlo
306 Mies
1707 Miguel
182 Mij
189 Mijdrecht
775 Mijn
93 Mijnheer
181 Mik
246 Mika
138 Mikael
3830 Mike
172 Mikhail
145 Miki
137 Mil
4019 Milaan
1817 Milan
260 Milanese
352 Milano
1053 Miles
594 Milieu
100 Milieubeheer
622 Militair
5190 Militaire
759 Military
826 Mill
206 Mille
122 Millen
413 Millennium
2790 Miller
111 Millingen
758 Mills
143 Milly
279 Milo
102 Milt
754 Milton
233 Mimi
276 Min
308 Mina
203 Minden
256 Mindy
297 Mine
144 Mines
256 Ming
133 Mingus
230 Minh
673 Minhstad
553 Mini
168 Miniseries
2551 Minister
4547 Ministerie
134 Ministerraad
287 Ministers
95 Mink
135 Minne
478 Minor
599 Minsk
148 Mint
116 Minute
366 Mioceen
113 Miquel
237 Mir
222 Mira
866 Miranda
122 Mireille
226 Miriam
207 Mirjam
110 Mirko
183 Miroslav
259 Mirza
532 Mis
105 Mischa
212 Misjna
2373 Miss
112 Missie
148 Missing
107 Missionarissen
1709 Mississippi
2579 Missouri
92 Mist
111 Mistral
353 Mitch
1263 Mitchell
598 Mitsubishi
386 Mitte
231 Mix
218 Mixed
384 Mo
129 Mobiel
107 Mobiele
680 Mobile
93 Mobilisatiekruis
137 Mobiliteit
417 Mode
1154 Model
1231 Modern
773 Moderne
152 Modest
103 Module
178 Moe
143 Moed
1171 Moeder
94 Moedergodin
92 Moeders
136 Moekims
183 Moens
224 Moer
133 Moerbeke
383 Moerdijk
113 Moergestel
101 Moerkerke
233 Moermansk
106 Moers
508 Moeskroen
361 Moezel
173 Mogadishu
180 Mogols
306 Mohamed
212 Mohammad
2706 Mohammed
104 Mohammeds
149 Mohr
92 Moira
1534 Mol
151 Moldau
106 Moldavisch
372 Moldavische
1255 Moldavië
153 Molde
1523 Molen
277 Molenaar
404 Molenbeek
108 Molenberg
97 Molenhoek
138 Molens
225 Molenstraat
118 Molenweg
355 Molina
255 Molière
94 Molkenboer
199 Moll
466 Molly
621 Molukken
132 Molukkers
283 Molukse
123 Mom
373 Mon
352 Mona
2061 Monaco
302 Monde
96 Monden
477 Mondriaan
374 Monet
146 Monetair
107 Monetaire
932 Mongolen
1275 Mongolië
317 Mongools
1602 Mongoolse
890 Monica
116 Monika
551 Monique
148 Monitor
410 Monk
224 Monnickendam
190 Mono
140 Monotype
655 Monroe
90 Monrovia
603 Mons
125 Monsanto
140 Monseigneur
230 Monsieur
721 Monster
282 Monsters
1083 Mont
185 Montagne
1047 Montana
2976 Monte
132 Monteiro
166 Montenegrijns
236 Montenegrijnse
1625 Montenegro
154 Montes
150 Montessori
557 Montevideo
155 Montferland
464 Montfoort
455 Montfort
244 Montserrat
793 Monument
264 Monumenten
168 Monumentenzorg
268 Mooi
123 Mooie
265 Mook
1106 Moon
91 Moons
495 Moor
100 Moordrecht
4233 Moore
231 Moors
389 Moorse
254 Moorsel
189 Mor
298 Mora
93 Moravische
498 Moravië
1142 More
182 Morel
657 Moren
528 Moreno
276 Moret
1687 Morgan
132 Morgana
717 Morgen
101 Morgenstern
509 Moritz
1447 Morris
779 Morrison
155 Mors
371 Morse
103 Mort
140 Mortel
164 Morten
188 Mortier
284 Mortsel
368 Mos
336 Moser
376 Moses
155 Moshe
169 Moskee
8674 Moskou
377 Moskouse
140 Moslimbroederschap
105 Mossad
92 Mossel
142 Mosselman
722 Most
106 Mostar
108 Moszkowicz
90 Motel
408 Motion
1300 Moto
1961 Motor
127 Motoren
319 Motorola
1110 Motors
503 Motorsport
130 Motte
2312 Mount
106 Mourik
123 Moussa
125 Mouton
328 Mouvement
238 Move
917 Mozambique
1486 Mozart
206 Mozarts
826 Mozes
324 Mozilla
346 Ms
230 Mu
568 Muhammad
469 Muiden
135 Muiderberg
107 Muiswinkel
1007 Mulder
129 Mulier
313 Mulisch
869 Muller
281 Multatuli
95 Multiple
150 Munk
176 Munnik
326 Munster
374 Munt
110 Munte
93 Munter
121 Muntschouwburg
119 Muntz
322 Murat
258 Murdoch
92 Muren
122 Muriel
1081 Murphy
1404 Murray
259 Mus
288 Musa
99 Musch
366 Muse
305 Musea
11884 Museum
173 Museumplein
9069 Music
1246 Musical
129 Musselkanaal
1033 Mussolini
188 Must
309 Mustafa
246 Mustang
872 Musée
222 Mutant
1117 Muur
1519 Muziek
283 Muziekacademie
153 Muziekcentrum
207 Muziekkapel
202 Muziekschool
100 Muziekvereniging
97 MySQL
1118 Myanmar
161 Mycene
248 Myra
133 Myriam
94 Mysterie
107 Mysteries
311 Máxima
6645 München
1891 Münster
672 NAP
90 NAS
1053 NASA
124 NATO
1312 NAVO
180 NAVO-codenaam
278 NB
1027 NCRV
349 NEC
201 NEN
223 NES
456 NET
93 NG
151 NGO
1929 NK
572 NMBS
102 NMa
205 NO
1669 NOS
92 NOT
237 NOVA
512 NPS
977 NRC
2312 NS
153 NS-station
1014 NSB
137 NSB'er
161 NSB'ers
1171 NSDAP
393 NSF
1768 NV
1238 Na
346 Naaldwijk
135 Naamse
750 Naarden
90 Naardermeer
164 Naast
294 Nabije
104 Nablus
116 Nachitsjevan
780 Nacht
580 Nachts
129 Nachtwacht
473 Nadal
113 Nader
91 Nadere
253 Nadia
157 Nadine
122 Nadir
193 Nadja
130 Naga
390 Nagasaki
351 Nagel
310 Nagorno-Karabach
199 Nagy
353 Nairobi
1098 Nam
634 Name
2791 Namen
142 Namibische
1205 Namibië
293 Nan
174 Nana
1594 Nancy
282 Nanking
92 Nanning
103 Nanny
321 Naomi
2645 Napels
6044 Napoleon
436 Napoleons
402 Napoleontische
237 Napolitaanse
121 Nar
122 Nas
688 Nash
2307 Nassau
267 Nassaus
288 Nasser
286 Nat
415 Natalia
526 Natalie
143 Natalja
196 Natasha
142 Natasja
350 Nathalie
999 Nathan
237 Nathaniel
209 Natie
6121 Naties
7554 Nationaal
245 Nationaalsocialistische
9600 Nationale
168 Nationalistische
185 Native
446 Natura
624 Nature
790 Natuur
128 Natuurhistorisch
487 Natuurkunde
123 Natuurkundig
187 Natuurlijke
648 Natuurmonumenten
160 Natuurpark
214 Natuurpunt
277 Natuurreservaat
140 Natuurwetenschappen
126 Naumann
238 Nauru
160 Nauta
217 Nautilus
96 Nauw
129 Navajo
215 Navarro
97 Navigator
97 Nawijn
483 Nazareth
269 Neal
131 Nebukadnezar
146 Neck
90 Neder-Betuwe
153 Neder-Californië
855 Neder-Oostenrijk
380 Nederduits
182 Nederduitse
151 Nederhorst
94163 Nederland
10409 Nederlanden
3145 Nederlander
5617 Nederlanders
123 Nederlanderschap
50148 Nederlands
122 Nederlands-Duitse
130 Nederlands-Indisch
371 Nederlands-Indische
3618 Nederlands-Indië
138 Nederlands-hervormde
108922 Nederlandse
637 Nederlandstalig
3316 Nederlandstalige
208 Nederlandstaligen
2317 Nedersaksen
584 Nedersaksisch
242 Nedersaksische
210 Nederweert
117 Nederwetten
148 Nee
252 Neede
181 Neefs
128 Neeltje
193 Neer
103 Neerijnen
102 Neerlinter
93 Neeroeteren
311 Neerpelt
100 Neeskens
185 Negen
110 Negende
132 Negenjarige
1258 Neil
92 Neisse
304 Nel
119 Nelissen
148 Nelle
159 Nellie
422 Nelly
1808 Nelson
266 Nemo
124 Nena
164 Neo
261 Neolithicum
189 Neon
1545 Nepal
179 Nepalees
217 Nepalese
581 Neptunus
1643 Nero
474 Nes
194 Nest
115 Nestlé
281 Nestor
289 Net
354 Netwerk
3458 Network
126 Neuhaus
356 Neumann
1173 Neurenberg
156 Neva
222 Neve
145 Nevele
118 Neves
400 Neville
298 Nevis
38138 New
1282 Newton
911 Ng
439 Nguyen
117 Niagara
729 Nias
136 Nic
993 Nicaragua
96 Nicaraguaanse
939 Nicholas
2599 Nick
730 Nickelodeon
118 Nickerie
93 Nicki
135 Nicks
373 Nicky
1191 Nico
444 Nicola
3107 Nicolaas
299 Nicolaes
257 Nicolai
1838 Nicolas
745 Nicole
98 Nicolette
279 Nicosia
155 Niedorp
138 Niek
114 Niekerk
137 Niel
768 Niels
1015 Nielsen
200 Nienke
125 Niets
584 Nietzsche
2535 Nieuw
277 Nieuw-Amsterdam
466 Nieuw-Caledonië
2589 Nieuw-Guinea
98 Nieuw-Lekkerland
127 Nieuw-Vennep
4083 Nieuw-Zeeland
125 Nieuw-Zeelander
109 Nieuw-Zeelanders
225 Nieuw-Zeelands
856 Nieuw-Zeelandse
1148 Nieuw-Zuid-Wales
9948 Nieuwe
526 Nieuwegein
192 Nieuwendijk
291 Nieuwenhuis
251 Nieuwerkerk
324 Nieuweschans
157 Nieuwjaar
147 Nieuwkerk
295 Nieuwkoop
278 Nieuwland
146 Nieuwleusen
554 Nieuwpoort
852 Nieuws
810 Nieuwsblad
122 Nieuwsradio
93 Nieuwstadt
103 Nieuwvliet
447 Nigel
706 Niger
1589 Nigeria
213 Nigeriaans
480 Nigeriaanse
283 Nijenhuis
95 Nijeveen
228 Nijgh
220 Nijhoff
99 Nijholt
442 Nijkerk
678 Nijl
116 Nijland
121 Nijlen
100 Nijmeegs
703 Nijmeegse
6884 Nijmegen
116 Nijpels
358 Nijs
152 Nijssen
535 Nijvel
267 Nijverdal
197 Nijverheid
260 Nike
229 Niki
346 Nikita
312 Nikki
352 Niko
167 Nikola
100 Nikolaas
243 Nikolai
837 Nikolaj
155 Nikon
94 Nikos
340 Nils
1178 Nina
444 Nine
448 Ninja
166 Nino
366 Ninove
1827 Nintendo
345 Nirvana
167 Nispen
487 Nissan
93 Nistelrode
226 Nistelrooij
146 Niue
114 Nix
1462 Nixon
520 Nm
3525 No
93 Noa
311 Noach
762 Noah
115 Noam
302 Nobel
2140 Nobelprijs
426 Nobelprijswinnaar
