
\data\
ngram 1=46704
ngram 2=2019

\1-grams:
1 <unk>
1 <s>
1 </s>
1 <num>
360 AA
764 AB
2038 ABC
373 ABS
2288 AC
491 AD
210 AEG
1737 AG
231 AGD
430 AGH
804 AIDS
349 AJ
7422 AK
775 AL
289 ALP
883 AM
435 AMD
492 AN
265 AP
516 APG
368 API
203 ARIA
254 ARP
2548 AS
218 ASCII
1122 ASP
439 AT
4039 ATP
230 AU
810 AWF
633 AWS
374 AZ
2336 AZS
298 Aarhus
400 Aaron
398 Aarona
229 Abbas
220 Abbasydów
402 Abchazji
273 Abdul
340 Abdullah
318 Abel
644 Aberdeen
208 Aborygenów
892 Abraham
1040 Abrahama
341 Abruzja
1773 Abu
372 Abwehry
247 Acapulco
314 Access
300 Achillesa
294 Acid
1203 Act
293 Acta
618 Action
387 Ad
307 Ada
6099 Adam
5626 Adama
758 Adamem
217 Adamowi
1093 Adams
445 Adamsa
238 Adamów
294 Addis
853 Adelaide
244 Adelajdy
350 Adler
2859 Administracji
374 Administracyjnego
837 Admiralicji
214 Admirał
317 Adobe
1899 Adolf
2325 Adolfa
232 Adolfem
730 Adrian
502 Adriana
403 Adriatyku
628 Adwentystów
232 Adwokackiej
476 Adyga
388 Aeroklubu
330 Aerospace
389 Afganistan
1305 Afganistanie
926 Afganistanu
215 Afrika
292 Afroamerykanie
252 Afroamerykanów
6203 Afryce
604 Afryka
363 Afrykańskiej
12243 Afryki
300 Afryką
739 Afrykę
378 Agata
260 Agaty
666 Age
892 Agencja
1890 Agencji
418 Agencję
448 Agnes
1136 Agnieszka
800 Agnieszki
326 Agnieszką
249 Agnieszkę
492 Aguilera
526 Aguilery
318 Ahmad
518 Ahmed
261 Ahmeda
4728 Air
396 Airbus
5909 Aires
1729 Airlines
723 Airways
874 Aisne
278 Ajaccio
439 Ajaksu
474 Ajax
1877 Akademia
288 Akademicki
344 Akademickich
242 Akademickie
573 Akademickiego
646 Akademickiej
349 Akademickim
226 Akademie
26459 Akademii
445 Akademią
2626 Akademię
430 Akcja
1883 Akcji
326 Akcyjna
302 Akka
427 Akki
512 Akt
270 Aktora
208 Aktorskim
222 Aktorów
208 Aktu
444 Akwinu
2345 Akwitania
2629 Akwitanii
361 Akwizgranie
2453 Al
402 Ala
786 Alabama
262 Alabamie
205 Alabamy
348 Alain
219 Alaina
1011 Alan
644 Alana
222 Alandzkich
459 Alasce
511 Alaska
667 Alaski
380 Alba
267 Albania
2865 Albanii
217 Albanię
357 Albany
551 Albatros
341 Albańczyków
2938 Albert
2765 Alberta
293 Albertem
1264 Alberto
488 Albertville
260 Alberty
235 Albin
566 Albion
833 Albrecht
1117 Albrechta
1114 Album
242 Aldo
642 Alego
1151 Alegre
1326 Alei
313 Aleja
534 Alejandro
5685 Aleksander
1041 Aleksandr
9407 Aleksandra
1373 Aleksandrem
201 Aleksandria
1761 Aleksandrii
242 Aleksandrowa
369 Aleksandrowi
742 Aleksandrowicz
268 Aleksandrowie
531 Aleksandry
269 Aleksandryjskiej
446 Aleksandrów
229 Aleksandrą
244 Aleksandrę
856 Aleksego
551 Aleksiej
296 Aleksieja
273 Aleksiejem
891 Aleksy
724 Aleppo
576 Alessandro
1274 Alex
597 Alexa
1634 Alexander
1048 Alexandra
428 Alexandre
282 Alexis
806 Alfa
658 Alfons
958 Alfonsa
393 Alfonso
1666 Alfred
1839 Alfreda
210 Alfredem
402 Alfredo
279 Algieria
1905 Algierii
322 Algierią
366 Algierze
1914 Ali
425 Alicante
1636 Alice
521 Alicja
360 Alicji
268 Alina
230 Alison
309 Alkmaar
3261 All
280 Allah
231 Allaha
373 Allan
368 Allana
1138 Allen
581 Allena
275 Allende
319 Alma
270 Alojzego
391 Alojzy
913 Alonso
2366 Alp
2497 Alpach
237 Alpami
485 Alpha
1289 Alpy
645 Alt
321 Alta
626 Alto
207 Alves
949 Alzacja
701 Alzacji
296 Alzheimera
980 Am
264 Amadeusz
314 Amadeusza
280 Amanda
227 Amazon
203 Amazonii
379 Amazonki
291 Ambasady
223 Ambasadzie
630 Amber
301 Amelia
4905 American
8081 Ameryce
376 Ameryk
637 Ameryka
361 Amerykach
274 Amerykanami
1528 Amerykanie
1254 Amerykanin
688 Amerykanina
480 Amerykaninem
354 Amerykanka
220 Amerykanki
406 Amerykanom
2061 Amerykanów
248 Amerykańska
260 Amerykański
370 Amerykańskich
272 Amerykańskie
781 Amerykańskiego
654 Amerykańskiej
374 Amerykańskim
13916 Ameryki
264 Ameryką
707 Amerykę
384 Amiens
376 Amiga
286 Ammann
293 Amnesty
209 Amon
322 Amona
251 Amor
228 Amos
1281 Amsterdam
2678 Amsterdamie
651 Amsterdamu
699 Amy
712 An
436 Ana
206 Anaheim
222 Analiz
205 Anatol
575 Anatolii
378 Anatolij
254 Anatomii
1061 And
338 Andach
934 Andaluzji
283 Andegawenii
201 Andegawenów
251 Anderlecht
205 Anderlechtu
629 Anders
823 Andersa
350 Andersen
1042 Anderson
405 Andersona
330 Andersson
391 Andory
973 Andrea
1225 Andreas
497 Andreasa
232 Andreasem
325 Andrei
2034 Andrew
560 Andriej
342 Andrieja
219 Andrij
340 Android
408 Andromedy
8414 Andrzej
6410 Andrzeja
1045 Andrzejem
200 Andrzejewski
289 Andrzejowi
1423 André
1172 Andy
263 Andym
371 Andów
912 Angel
359 Angela
10266 Angeles
269 Angeli
636 Angelo
322 Angers
459 Angielskiej
1719 Anglia
868 Anglicy
32148 Anglii
509 Anglik
329 Anglika
240 Anglikami
232 Anglikom
1075 Anglików
1271 Anglią
987 Anglię
1061 Angoli
365 Ani
242 Ania
207 Aniela
203 Anieli
247 Anielskiej
287 Animal
274 Animals
560 Anioł
593 Anioła
269 Aniołów
254 Anita
208 Ankara
311 Ankarze
1025 Ann
5195 Anna
203 Annapolis
1278 Anne
928 Annie
4450 Anny
1531 Anną
1365 Annę
445 Antarktydy
239 Antarktydzie
1322 Anthony
1147 Antiochii
540 Antoine
1038 Anton
648 Antona
3965 Antoni
509 Antonia
3886 Antoniego
400 Antonim
519 Antonina
495 Antoniny
3568 Antonio
378 Antoniusza
211 Antropologii
252 Antwerpia
1910 Antwerpii
316 Antyli
311 Apache
208 Apelacyjnego
220 Apelacyjny
1521 Apertura
463 Apokalipsy
230 Apolla
265 Apollina
1467 Apollo
386 Apostolska
330 Apostolskich
273 Apostolskiego
1616 Apostolskiej
566 Apostolską
208 Apostolstwa
226 Apostoł
1274 Apostoła
1032 Apostołów
1138 Apple
321 Apulia
280 Ar
254 Arab
227 Arabami
289 Arabia
1393 Arabii
282 Arabią
737 Arabowie
261 Arabski
1045 Arabskich
469 Arabskiego
612 Arabskiej
264 Arabskim
1449 Arabów
1271 Aragonii
213 Arce
233 Arch
226 Archangielska
1532 Archanioła
261 Archeologicznego
456 Archeologii
526 Archidiecezji
429 Archipelagu
1710 Architektury
324 Architektów
1868 Archiwum
203 Ardenach
508 Ardeny
1713 Arena
225 Arezzo
382 Argentino
1200 Argentyna
2249 Argentynie
4730 Argentyny
1695 Argentyną
291 Argentynę
303 Argentyńczyk
210 Argentyńczyka
254 Argos
268 Ariel
916 Arizona
387 Arizonie
337 Arizony
299 Ark
314 Arka
207 Arkadii
431 Arkadiusz
811 Arkansas
329 Arki
220 Arktyki
474 Arles
211 Armand
313 Armenia
1916 Armenii
223 Armenię
3902 Armia
26136 Armii
495 Armijnego
327 Armijny
1472 Armią
2293 Armię
616 Armstrong
266 Armstronga
255 Arne
456 Arnhem
927 Arnold
678 Arnolda
491 Aron
262 Arras
263 Ars
644 Arsenal
301 Arsenalem
814 Arsenalu
269 Arsenał
287 Arsenału
3348 Art
1389 Arthur
1075 Arthura
561 Artis
1917 Artur
1267 Artura
251 Arturem
324 Arturo
5337 Artylerii
223 Artysta
293 Artysty
576 Artystycznego
379 Artystycznej
290 Artystycznych
1423 Artystów
256 Arystoteles
813 Arystotelesa
536 As
378 Ashley
311 Asia
207 Astana
799 Aston
339 Astra
245 Astronomicznego
207 Astronomiczną
275 Astronomii
431 Asturii
1267 Asunción
612 Asyrii
851 Asyżu
424 At
817 Atari
1727 Aten
3826 Atenach
518 Ateneum
1592 Ateny
389 Athos
1674 Atlancie
808 Atlanta
1022 Atlantic
307 Atlantis
510 Atlanty
258 Atlantycka
382 Atlantycki
585 Atlantyckie
808 Atlantyckiego
577 Atlantyckim
740 Atlantyk
224 Atlantykiem
1890 Atlantyku
941 Atlas
309 Atlasu
210 Atletico
250 Atletyki
223 Atomowej
202 Atos
884 Auckland
474 Aude
662 Audi
337 Audio
413 Augsburg
244 Augsburga
413 Augsburgu
3032 August
6078 Augusta
473 Auguste
333 Augustem
360 Augusto
245 Augustowa
278 Augustowi
300 Augustowie
235 Augustus
251 Augusty
542 Augustyn
563 Augustyna
272 Augustów
388 Aurora
1395 Auschwitz
883 Austin
1997 Australia
3038 Australian
12743 Australii
470 Australijczyk
304 Australijczyka
206 Australijczyków
214 Australijskiej
509 Australią
625 Australię
1875 Austria
426 Austriackiego
245 Austriackiej
651 Austriacy
427 Austriak
203 Austriaka
842 Austriaków
11726 Austrii
1509 Austrią
731 Austrię
740 Auto
648 Autokefalicznego
318 Automatyki
259 Autonomicznego
274 Autonomicznej
245 Autonomiczny
230 Autonomicznym
717 Autonomii
291 Autorów
408 Autosan
250 Autostrada
491 Auxerre
244 Ave
1224 Avenue
216 Avril
390 Awans
300 Awarów
398 Awinionie
794 Awiw
832 Awiwie
810 Awiwu
348 Axel
369 Azerbejdżan
568 Azerbejdżanie
937 Azerbejdżanu
515 Azja
280 Azjaci
345 Azjatyckich
265 Azjatyckiej
251 Azjatów
12387 Azji
253 Azją
772 Azję
452 Azteków
270 Ałtaju
300 BA
673 BAFTA
3323 BBC
578 BBWR
227 BC
369 BCh
1135 BK
240 BKS
208 BM
475 BMG
1839 BMW
600 BP
893 BRT
430 BSD
285 Ba
510 Baba
256 Babice
340 Babiej
229 Babilon
455 Babilonii
405 Babilonu
1106 Baby
742 Bach
684 Bacha
949 Back
3489 Bad
772 Badania
2859 Badań
309 Baden
251 Badenii
392 Bagdadu
377 Bagdadzie
276 Bagno
203 Bahamów
950 Bahia
368 Bahrajnu
201 Baja
200 Bajan
255 Bajt
687 Baker
1346 Baku
264 Bal
538 Baldwin
514 Baldwina
318 Bali
253 Ballet
218 Baltazara
1369 Baltimore
219 Balzaka
267 Bamako
386 Bambergu
281 Ban
503 Banacha
2127 Band
339 Banda
358 Bang
693 Bangkoku
650 Bangladeszu
205 Bani
223 Banja
3717 Bank
316 Banks
3282 Banku
222 Baptiste
462 Baptystów
717 Bar
226 Baran
223 Barana
246 Baranami
202 Baraniej
246 Baranowski
214 Baranów
2145 Barbara
357 Barbarossa
1244 Barbary
489 Barbarą
403 Barbarę
2193 Barcelona
3336 Barcelonie
1491 Barcelony
351 Barceloną
230 Bardzkich
222 Barentsa
643 Bari
225 Barnes
388 Baron
691 Barry
241 Bartolomeo
546 Bartosz
228 Bartosza
263 Bartoszyce
598 Bartłomiej
478 Bartłomieja
532 Base
580 Baseball
276 Basic
305 Basket
320 Basketball
690 Basków
330 Bass
347 Baszta
205 Bat
2708 Batalion
314 Batalionie
1879 Batalionu
642 Batalionów
586 Bath
397 Batman
211 Batmana
356 Bator
1763 Batorego
561 Batory
324 Battista
679 Battle
225 Batumi
346 Bauer
3481 Bawaria
2836 Bawarii
278 Bawarskiego
2542 Bay
373 Bayer
201 Bayerem
485 Bayern
342 Bayernem
393 Bayernu
238 Bayeru
475 Bayreuth
347 Baza
305 Bazy
376 Bazylego
1178 Bazylei
377 Bazyli
634 Bazylice
588 Bazyliki
790 Bałkanach
290 Bałkany
404 Bałkanów
208 Bałtyckie
1058 Bałtyckiego
606 Bałtyckiej
618 Bałtyckim
495 Bałtyk
293 Bałtykiem
1614 Bałtyku
310 Bańskiej
1524 Be
1848 Beach
487 Beat
521 Beata
1046 Beatles
228 Beatrice
364 Beatrycze
267 Beaufort
545 Beck
281 Becka
241 Becker
571 Bedford
279 Bee
214 Beethoven
600 Beethovena
506 Bejrucie
257 Bejrutu
238 Bela
355 Belfaście
368 Belg
989 Belgia
6944 Belgii
706 Belgią
411 Belgię
1145 Belgrad
580 Belgradu
1799 Belgradzie
302 Belgów
285 Beli
484 Belize
1288 Bell
653 Bella
370 Belle
1049 Belo
269 Belwederze
242 Bem
373 Bema
1986 Ben
644 Bena
231 Bene
1971 Benedykt
1517 Benedykta
248 Benfiki
344 Bengalu
235 Beniamin
208 Beniamina
295 Beninu
478 Benito
804 Benjamin
532 Benjamina
324 Bennett
262 Benny
357 Bereniki
230 Beretta
865 Berg
889 Bergamo
1019 Bergen
491 Berger
202 Bergera
245 Bergman
296 Beringa
1089 Berkeley
2978 Berlin
4138 Berlina
403 Berlinem
370 Berliner
12178 Berlinie
264 Berlusconiego
206 Berna
1600 Bernard
1404 Bernarda
223 Bernardem
472 Bernardo
207 Berneńskich
350 Bernhard
267 Bernharda
748 Bernie
297 Berno
370 Berry
243 Bertrand
337 Besarabii
673 Beskid
227 Beskidach
1496 Beskidu
1622 Beskidzie
259 Beskidów
2588 Best
497 Bet
284 Beta
452 Betlejem
554 Betty
674 Beverly
914 Beyoncé
607 Bez
5140 Bezpieczeństwa
224 Bełchatowie
896 Bełchatów
243 Bhutanu
315 Bhutto
2181 Biała
554 Białe
2494 Białego
867 Białegostoku
3095 Białej
215 Białki
267 Białogard
7553 Białorusi
238 Białorusini
516 Białorusinów
412 Białorusią
455 Białoruski
1070 Białoruskiego
1957 Białoruskiej
251 Białoruskim
1092 Białoruś
292 Białostocka
293 Białostockiej
496 Białowieskiej
284 Białowieży
1335 Biały
1077 Białych
889 Białym
3662 Białymstoku
1606 Białystok
680 Białą
664 Biblia
2890 Biblii
1481 Bibliotece
1769 Biblioteka
2592 Biblioteki
209 Biblioteką
406 Bibliotekę
413 Biblię
211 Biecz
227 Bieczu
957 Bieg
301 Biel
219 Bielanach
271 Bielany
276 Bielawy
364 Bielefeld
383 Bielsk
648 Bielska
276 Bielskich
229 Bielskiego
409 Bielsko
892 Bielsku
480 Biennale
242 Bierut
271 Bieruta
477 Bieszczadach
235 Bieszczadów
2540 Big
715 Bilbao
1654 Bill
1034 Billa
4053 Billboard
393 Billboardu
266 Billem
1079 Billy
208 Bin
673 Biologii
528 Bird
336 Birmie
1855 Birmingham
371 Birmy
500 Bischofshofen
236 Bishop
232 Biskup
932 Biskupa
221 Biskupi
287 Biskupice
853 Biskupów
392 Bismarck
644 Bismarcka
381 Bissau
856 Bitwa
441 Bitwie
480 Bitwy
282 Biuletyn
263 Biuletynu
3380 Biura
242 Biurem
1985 Biuro
1061 Biurze
2311 Bizancjum
436 Biznesu
314 Biłgoraj
4111 Black
722 Blackburn
312 Blade
282 Blair
537 Blake
518 Blanc
276 Blanco
310 Blind
471 Bliski
944 Bliskiego
1316 Bliskim
228 Bloch
350 Blois
424 Blok
847 Bloku
871 Blood
202 Bloom
2489 Blue
1845 Blues
249 Bluetooth
508 Bo
449 Boat
1413 Bob
1294 Boba
648 Bobby
248 Bobem
375 Boboli
263 Bobrowniki
246 Bobru
1524 Boca
659 Bochni
222 Bochnia
641 Bochum
390 Body
1376 Boeing
475 Boeinga
6322 Boga
1028 Bogdan
683 Bogdana
1162 Bogiem
390 Bogocie
237 Bogoria
1352 Bogu
245 Bogumił
329 Bogumiła
465 Bogurodzicy
1031 Bogusław
890 Bogusława
283 Bogusławskiego
356 Bohater
470 Bohatera
726 Bohaterów
570 Bohdan
550 Bohdana
237 Bojowego
487 Bojowej
500 Bolesnej
2650 Bolesław
3797 Bolesława
213 Bolesławcu
390 Bolesławem
226 Bolesławiec
250 Boliwia
1410 Boliwii
593 Boliwią
405 Bolka
288 Bolko
228 Bolonia
1454 Bolonii
311 Bolton
307 Bolzano
523 Bombaju
200 Bombardier
527 Bon
223 Bona
1179 Bonaparte
232 Bonapartego
454 Bond
431 Bonda
243 Bongo
328 Bonifacego
243 Bonifacy
1150 Bonn
301 Bonnie
270 Bono
261 Bony
815 Book
301 Boom
1495 Bordeaux
609 Borek
378 Boris
221 Borisa
387 Borki
207 Borkowski
204 Borku
508 Born
597 Borneo
224 Boromeusza
226 Borowe
301 Borowski
343 Borussia
809 Borussii
345 Borussią
264 Bory
735 Borys
726 Borysa
265 Borysem
679 Borów
331 Bosch
202 Bose
450 Boska
4176 Boskiej
347 Boską
230 Boss
1390 Boston
1287 Bostonie
640 Bostonu
290 Botanicznego
213 Botaniki
241 Botswanie
240 Botswany
236 Bournemouth
346 Bowie
643 Bowl
530 Box
319 Boxing
1496 Boy
250 Boyd
242 Boyle
1987 Boys
2249 Bośni
269 Bośnia
737 Boża
1397 Boże
3796 Bożego
9043 Bożej
213 Bożena
876 Boży
287 Bożych
494 Bożym
507 Bożą
263 Brabancji
1287 Braci
482 Bracia
901 Bractwa
585 Bractwo
274 Brad
497 Bradford
373 Bradley
264 Braga
203 Brain
948 Brama
216 Bramie
958 Bramy
510 Bramą
338 Bramę
278 Brand
213 Brandenburg
754 Brandenburgia
968 Brandenburgii
202 Brandon
233 Brandt
228 Branickich
236 Branickiego
267 Braniewie
360 Brasileiro
207 Brat
493 Bratysława
1106 Bratysławie
315 Bratysławy
413 Braun
209 Brauna
369 Bravo
1883 Brazylia
11830 Brazylii
468 Brazylijczyk
291 Brazylijczyka
1729 Brazylią
306 Brazylię
808 Brdy
335 Brdą
295 Break
226 Brechta
314 Breda
584 Brema
456 Bremie
365 Bremy
368 Brescia
484 Brescii
1339 Bretania
2049 Bretanii
229 Breton
1098 Brian
787 Briana
213 Brianem
1257 Bridge
405 Bridget
611 Brighton
254 Brindisi
767 Brisbane
1566 Bristol
466 Bristolu
2467 British
453 Britney
207 Brna
842 Brnie
321 Brno
295 Broadcasting
274 Broadway
729 Broadwayu
237 Brodatego
249 Brodnica
472 Brodnicy
405 Brody
673 Broni
1427 Bronisław
1319 Bronisława
214 Bronx
725 Brooklyn
638 Brooklynie
276 Brooks
984 Bros
347 Brother
393 Browar
2033 Brown
784 Browna
397 Browning
1204 Bruce
329 Brugii
345 Bruksela
2690 Brukseli
207 Bruna
301 Brunei
1368 Bruno
337 Brunona
329 Brunszwik
661 Brunszwiku
412 Bryan
244 Bryant
3001 Brygada
5577 Brygady
598 Brygadzie
463 Brygadą
817 Brygadę
3110 Brytania
21229 Brytanii
948 Brytanią
1067 Brytanię
1785 Brytyjczycy
553 Brytyjczyk
255 Brytyjczyka
416 Brytyjczykami
496 Brytyjczykom
2493 Brytyjczyków
491 Brytyjska
1022 Brytyjskich
454 Brytyjskie
1420 Brytyjskiego
2013 Brytyjskiej
253 Brytyjskim
200 Brytyjską
465 Brzeg
898 Brzegu
284 Brzeski
230 Brzesko
451 Brzeziny
234 Brzeziński
467 Brześcia
939 Brześciu
570 Brześć
315 Brzeźnica
262 Brzozowa
207 Brzozowie
225 Brzozowski
248 Bródnowskim
303 Brązowy
266 Brązowym
228 Buchenwald
222 Buchenwaldzie
323 Buckingham
3615 Budapeszcie
791 Budapeszt
750 Budapesztu
267 Budda
1216 Buddy
253 Budionnego
212 Budowlanego
224 Budowlanej
537 Budowlanych
1590 Budownictwa
1151 Budowy
641 Budy
201 Budzie
236 Budżetu
5889 Buenos
878 Buffalo
443 Bug
658 Bugiem
814 Bugu
465 Building
1468 Bukareszcie
1115 Bukareszt
341 Bukaresztu
329 Bukowa
254 Bukowej
277 Bukowiec
280 Bukowina
342 Bukowinie
416 Bukowiny
201 Bukowski
994 Bull
254 Bund
2137 Bundeslidze
1264 Bundesligi
538 Bundestagu
208 Bundu
591 Burbon
322 Burbona
472 Burbonów
211 Burgas
655 Burgos
2109 Burgundia
2897 Burgundii
508 Burke
876 Burkina
349 Burnett
360 Burns
368 Burton
421 Burundi
238 Bury
867 Burza
210 Burów
340 Bus
448 Bush
297 Busha
930 Business
234 But
502 Butler
232 Butterfly
332 Buzka
648 Bułgaria
6968 Bułgarii
658 Bułgarią
373 Bułgarię
257 Bułgarskiego
275 Bułgarskiej
371 Bułgarzy
606 Bułgarów
433 By
318 Bydgoski
730 Bydgoskiego
359 Bydgoskiej
323 Bydgoskim
3188 Bydgoszcz
11982 Bydgoszczy
285 Bydgoszczą
211 Byron
200 Byrona
344 Bystrej
559 Bystrzyca
207 Bystrzyckich
867 Bystrzycy
1147 Bytom
628 Bytomia
1253 Bytomiu
201 Bytowskim
227 Byłych
217 Bzury
370 Bzurą
2666 Bóg
482 Bór
228 Bąk
228 Będzin
226 Będzina
426 Będzinie
392 Błonie
319 Błota
304 Błyskawica
369 CA
257 CAF
224 CART
206 CB
267 CC
206 CCC
5899 CD
681 CDU
277 CE
1380 CF
272 CH
1436 CIA
232 CK
277 CM
1827 CONCACAF
426 CP
347 CR
685 CS
1327 CSKA
379 CSS
524 CSU
244 CV
314 Ca
454 Caen
356 Café
307 Cage
513 Cagliari
226 Caicos
238 Calabria
287 Calais
876 Calgary
598 Cali
507 Call
715 Calvados
209 Calvina
249 Cambrai
3000 Cambridge
252 Camel
203 Camera
491 Cameron
281 Camerona
276 Camille
839 Camp
791 Campbell
308 Campbella
405 Campinas
725 Campo
390 Campos
734 Can
940 Canadian
242 Canberze
1321 Cannes
298 Canon
281 Cantal
1003 Canterbury
299 Canyon
350 Cao
241 Cap
544 Cape
413 Capital
397 Capitol
1169 Car
619 Caracas
299 Caravaggia
764 Cardiff
812 Carey
413 Cargo
485 Carioca
386 Caritas
1827 Carl
1678 Carla
221 Carlem
757 Carlisle
1768 Carlo
2344 Carlos
1356 Carlosa
384 Carlosem
616 Carmen
494 Carnegie
318 Carol
535 Carolina
783 Caroline
315 Carroll
271 Carson
882 Carter
397 Cartera
355 Cartoon
310 Casablanca
297 Casablance
219 Case
317 Cash
477 Casino
782 Cassino
209 Castel
1015 Castro
354 Cat
758 Catherine
288 Cave
200 Cała
234 Cecil
231 Celebes
406 Celsjusza
503 Celtic
201 Celticu
275 Celtów
227 Centaura
219 Centauri
3258 Center
2634 Central
388 Centrali
518 Centralna
342 Centralne
5012 Centralnego
2186 Centralnej
1146 Centralny
556 Centralnych
3441 Centralnym
354 Centralną
1930 Centre
485 Centro
11427 Centrum
713 Cerkiew
1768 Cerkwi
694 Cerro
318 Cesare
233 Cesarskiego
1083 Cesarskiej
3511 Cesarstwa
375 Cesarstwem
522 Cesarstwie
679 Cesarstwo
463 Cesarza
773 Cezar
1406 Cezara
215 Cezarego
542 Cezarei
477 Cezary
363 Ch
718 ChRL
228 Chaco
246 Chad
1283 Challenge
705 Challenger
319 Chamonix
378 Champion
663 Chan
354 Chana
242 Chanel
1754 Channel
271 Chaos
221 Chaosu
312 Chapman
300 Charkowa
1572 Charkowie
895 Charków
308 Charleroi
3745 Charles
2388 Charlesa
332 Charlesem
477 Charleston
942 Charlie
473 Charliego
1198 Charlotte
227 Charlton
1473 Chart
349 Chartres
304 Che
1632 Chelsea
330 Chemicznego
272 Chemicznej
274 Chemicznych
1328 Chemii
518 Chemnitz
444 Chen
218 Chengdu
515 Cher
283 Cherry
804 Chester
339 Chevrolet
749 Chełm
416 Chełma
844 Chełmie
219 Chełmna
491 Chełmnie
210 Chełmno
279 Chełmży
333 Chi
500 Chiapas
6491 Chicago
483 Chichester
229 Chief
5679 Chile
391 Chili
5910 Chin
875 China
6307 Chinach
935 Chinami
2009 Chiny
303 Chirurgii
446 Chińczycy
554 Chińczyków
209 Chińska
209 Chińskiego
1464 Chińskiej
208 Chmielewski
358 Chmielnicki
649 Chmielnickiego
247 Chochołowskiej
254 Chojnic
351 Chojnicach
423 Chojnice
481 Chopin
2035 Chopina
336 Chorwaci
463 Chorwacja
3683 Chorwacji
362 Chorwacją
220 Chorwację
276 Chorwackiego
214 Chorwackiej
565 Chorwatów
412 Chorych
254 Chorzowa
1132 Chorzowie
1169 Chorzów
494 Chorób
712 Chorągwi
1584 Chris
859 Chrisa
329 Chrisem
354 Christi
1930 Christian
1203 Christiana
221 Christianem
412 Christie
402 Christina
475 Christine
315 Christiny
417 Christo
444 Christoph
789 Christopher
565 Christophera
1095 Chrobrego
429 Chrobry
612 Chronionego
304 Chruszczowa
332 Chrysler
342 Chrystian
484 Chrystiana
1411 Chrystus
7879 Chrystusa
436 Chrystusem
391 Chrystusie
224 Chryzostoma
395 Chrzanowie
220 Chrzanowski
263 Chrzanów
272 Chrzciciel
2257 Chrzciciela
1117 Chrześcijan
432 Chrześcijańskich
239 Chrześcijańskiego
958 Chrześcijańskiej
349 Chuck
233 Chucka
622 Churchill
511 Churchilla
560 Chór
271 Chóru
219 Chórów
265 Chłopska
627 Chłopskich
286 Chłopskiej
248 Ci
850 Ciała
224 Ciało
241 Cichej
378 Ciebie
452 Ciechanowie
253 Ciechanów
245 Ciemności
484 Cieszyn
674 Cieszyna
1610 Cieszynie
206 Cieszyński
919 Cieszyńskiego
668 Cieszyńskim
230 Cieślak
270 Cieśninie
424 Cieśniny
294 Cieśninę
855 Cincinnati
206 Cindy
343 Cinema
337 Circus
377 Cisy
420 Citroën
212 Citroëna
10476 City
742 Ciudad
240 Civic
239 Civitas
233 Cię
564 Ciężkiej
292 Cl
204 Clairvaux
213 Clapton
392 Clara
260 Clarence
1067 Clark
441 Clarka
459 Clarke
241 Clarkson
480 Class
765 Claude
240 Claudia
394 Claudio
282 Clay
237 Clayton
258 Clermont
1270 Cleveland
202 Cliff
286 Clijsters
629 Clinton
312 Clintona
209 Cloud
7905 Club
354 Clubu
207 Cluny
955 Cmentarz
477 Cmentarza
5199 Cmentarzu
2177 Co
1058 Coast
392 Cohen
242 Cohena
206 Coimbra
579 Cole
302 Coleman
462 Colin
302 Colina
7302 College
1430 Collegium
770 Collins
296 Collinsa
500 Colo
900 Colorado
245 Colt
2023 Columbia
574 Columbus
272 Colón
680 Come
227 Comes
344 Commander
476 Commodore
461 Common
215 Commons
284 Commonwealth
382 Community
550 Como
4141 Company
365 Compostela
218 Compton
373 Conan
241 Concordia
1172 Connecticut
440 Conrad
346 Conrada
249 Conti
424 Continental
825 Control
540 Cook
803 Cooka
309 Cool
783 Cooper
365 Coopera
7098 Copa
378 Core
477 Cork
304 Corleone
362 Cornell
225 Corner
261 Corp
2417 Corporation
690 Corps
290 Corpus
208 Cortés
915 Costa
269 Costello
226 Cottbus
1104 Council
707 Country
3030 County
640 Court
202 Courtenay
201 Cove
785 Coventry
342 Cox
314 Cracovia
555 Cracovii
461 Craig
334 Craiga
398 Crawford
334 Creative
977 Creek
237 Cricket
340 Crimson
299 Cristal
207 Cristina
232 Cromwell
268 Cromwella
1174 Cross
280 Crown
2214 Cruz
675 Cruzeiro
229 Cudzoziemskiej
325 Cumberland
4441 Cup
300 Curie
478 Curling
287 Curlingu
398 Curtis
203 Curtisa
342 Cuzco
289 Cycerona
231 Cyganów
268 Cylicji
683 Cypr
225 Cyprian
246 Cypriana
1523 Cypru
1327 Cyprze
206 Cyrankiewicza
415 Cyrus
222 Cyrusa
388 Cyryl
628 Cyryla
253 Cystersów
648 Cytadeli
803 Cywilnego
311 Cywilnej
252 Czad
420 Czadu
251 Czadzie
201 Czajka
232 Czajkowski
357 Czajkowskiego
276 Czang
1413 Czarna
1011 Czarne
241 Czarnecki
2358 Czarnego
1394 Czarnej
361 Czarni
247 Czarniecki
529 Czarnieckiego
242 Czarnogóra
1128 Czarnogóry
440 Czarnogórze
299 Czarnomorskiej
1299 Czarny
711 Czarnych
1039 Czarnym
490 Czarną
296 Czartoryski
754 Czartoryskich
387 Czartoryskiego
834 Czas
346 Czasu
6085 Czech
361 Czecha
5767 Czechach
1072 Czechami
436 Czechosłowacja
4971 Czechosłowacji
584 Czechosłowacją
376 Czechosłowację
202 Czechosłowackiego
280 Czechosłowackiej
230 Czechowa
1483 Czechy
623 Czechów
430 Czeczenii
208 Czeladzi
333 Czerniowcach
215 Czerniowce
319 Czersk
1321 Czerwona
664 Czerwone
2260 Czerwonego
7278 Czerwonej
997 Czerwony
576 Czerwonych
769 Czerwonym
2043 Czerwoną
450 Czesi
360 Czeskich
393 Czeskiego
708 Czeskiej
323 Czeskim
1214 Czesław
1078 Czesława
726 Czołgów
1447 Czterech
330 Czteroletni
205 Czteroletniego
348 Cztery
356 Czuby
379 Czy
264 Czynnej
263 Czytelni
244 Czytelnik
1268 Częstochowa
2788 Częstochowie
1301 Częstochowskiej
1164 Częstochowy
272 Członek
785 Człowiek
1736 Człowieka
388 César
505 Córdoba
208 DA
355 DB
1275 DC
370 DH
2063 DJ
276 DK
2929 DNA
232 DNS
203 DOK
374 DOS
760 DS
4531 DVD
574 Da
2234 Dachau
292 Daewoo
704 Daily
257 Daisy
331 Dakar
240 Dakarze
208 Dakocie
760 Dakota
408 Dale
289 Daleki
627 Dalekiego
641 Dalekim
1359 Dallas
516 Dalmacji
244 Dama
245 Damaszek
1040 Damaszku
519 Dame
455 Damian
368 Damiana
205 Damon
1024 Dan
708 Dana
1472 Dance
320 Dancing
972 Dania
2750 Daniel
2030 Daniela
472 Danielem
7318 Danii
835 Danią
357 Danię
721 Danny
293 Dante
300 Dantego
480 Danuta
452 Danych
364 Dar
222 Dario
1278 Dariusz
675 Dariusza
1175 Dark
698 Darmstadt
564 Darwin
452 Darwina
221 Daszyńskiego
588 Data
1223 Dave
298 Davenport
4863 David
3487 Davida
906 Davidem
373 Davies
1423 Davis
2327 Davisa
312 Davos
1128 Dawid
1563 Dawida
212 Dawidem
213 Dawnych
208 Dawson
2278 Day
237 Dayton
202 Daytona
5135 De
652 Dean
251 Deana
1450 Death
217 Debreczynie
1053 Deep
815 Dei
418 Dekanat
394 Dekanatu
459 Deklaracji
705 Del
509 Delaware
337 Delegatury
501 Delegatów
238 Delfino
344 Delft
227 Delgado
935 Delhi
211 Della
1014 Delta
265 Delty
209 Demetriusza
449 Demokraci
304 Demokracja
1284 Demokracji
782 Demokratyczna
216 Demokratyczne
1152 Demokratycznego
5298 Demokratycznej
232 Demokratyczny
289 Demokratycznych
231 Demokratycznym
964 Demokratyczną
1313 Demokratów
583 Den
384 Denis
528 Dennis
288 Dennisa
763 Denver
862 Departamencie
869 Departament
2761 Departamentu
391 Depeche
1840 Deportivo
1178 Deputowanych
1324 Der
1130 Derby
379 Derek
354 Des
715 Design
204 Dessau
2038 Detroit
206 Deus
1489 Deutsche
899 Devon
516 Dharmy
949 Di
937 Dialogi
238 Dialogu
254 Diamentowej
561 Diana
360 Diany
200 Diaz
545 Dick
257 Dicka
242 Dickinson
2509 Die
262 Diecezja
625 Diecezji
2322 Diego
491 Diesla
216 Dieter
397 Dietrich
984 Digital
438 Dijon
379 Dino
278 Dioklecjana
470 Dion
309 Dionizego
266 Dionizosa
289 Dionizy
343 Dirty
314 Disco
808 Discovery
1710 Disney
585 Disneya
522 Dmitrij
272 Dmitrija
246 Dmowskiego
1142 Dni
1741 Dnia
340 Dniach
289 Dniepr
246 Dnieprem
508 Dniepropetrowsk
528 Dniepru
200 Dniestr
233 Dniestrem
341 Dniestru
640 Dobra
393 Dobre
706 Dobrego
779 Dobrej
333 Dobroczynności
537 Dobry
384 Doctor
341 Dodge
510 Dog
280 Dogg
314 Dojazdowej
458 Doktor
369 Doktora
314 Dokumentacji
2143 Dolina
2442 Dolinie
301 Dolinki
6209 Doliny
1040 Doliną
1009 Dolinę
230 Dolly
5524 Dolna
1251 Dolne
1241 Dolnego
4047 Dolnej
259 Dolnośląskiego
1846 Dolny
498 Dolnych
1698 Dolnym
339 Dolną
3889 Dom
372 Domem
348 Domenico
716 Domingo
616 Dominik
635 Dominika
235 Dominikanie
341 Dominikany
344 Dominikanów
261 Dominique
3903 Domu
2297 Don
527 Dona
821 Donald
827 Donalda
232 Doncaster
788 Donem
262 Dong
1065 Donieck
289 Doniecku
251 Donna
231 Doo
264 Dookoła
226 Doom
304 Doors
611 Dordogne
205 Doris
214 Dornier
788 Dorota
531 Doroty
382 Dorpacie
723 Dorset
769 Dortmund
399 Dortmundzie
316 Doskonalenia
238 Dostojewskiego
365 Double
239 Doug
1700 Douglas
486 Douglasa
433 Dover
1397 Down
275 Dowodzenia
332 Dowódca
778 Dowódcy
1905 Dowództwa
586 Dowództwie
851 Dowództwo
223 Doyle
212 Doły
252 Dońskiego
289 Doświadczalnej
1622 Dr
671 Dragon
211 Dragonów
367 Drake
369 Drama
292 Dramatycznego
402 Dramatycznym
230 Drawsko
1107 Dream
327 Drew
653 Drezna
712 Drezno
1698 Dreźnie
508 Drive
372 Drodze
1581 Droga
1750 Drogi
356 Drogą
207 Drogę
289 Drohobyczu
449 Druga
551 Drugi
389 Drugie
232 Drugiego
1725 Drugiej
342 Drużyn
435 Drużyna
207 Drużynowe
299 Drużynowych
750 Drużyny
260 Drzewa
390 Drzewnego
220 Drzewo
574 Dróg
413 Du
692 Dubaju
493 Dublin
443 Dublina
1184 Dublinie
311 Dubois
492 Duch
2047 Ducha
461 Duchowne
1005 Duchownego
1027 Duchownej
977 Duchownym
232 Duchowną
260 Duchu
280 Dudek
224 Dudley
332 Duff
287 Duisburg
216 Duisburgu
533 Duke
306 Dukla
570 Dukli
516 Dumy
583 Dunaj
733 Dunajca
384 Dunajcem
378 Dunajec
545 Dunajem
1622 Dunaju
360 Duncan
721 Dundee
241 Dunlop
267 Duo
267 Duran
216 Durango
293 Duńczycy
242 Duńczyk
378 Duńczyków
494 Duża
1048 Duże
811 Duży
539 Dwa
215 Dwie
644 Dworca
534 Dworu
374 Dworze
872 Dworzec
275 Dwunastu
1495 Dwór
1028 Dylan
1179 Dylana
483 Dymitr
679 Dymitra
1451 Dynama
274 Dynamem
207 Dynamie
985 Dynamo
379 Dynastia
255 Dynastii
246 Dyrekcja
1002 Dyrekcji
429 Dyrektor
477 Dyrektora
261 Dysku
1886 Dystrykcie
240 Dystrykt
408 Dystryktu
3401 Dywizja
10082 Dywizji
1100 Dywizjon
270 Dywizjonie
1320 Dywizjonu
630 Dywizją
1005 Dywizję
939 Dz
490 Dział
340 Działacz
219 Działdowie
493 Działu
1771 Dzieci
488 Dzieciątka
1327 Dzieciątkiem
615 Dziecka
1376 Dziedzictwa
216 Dziejach
592 Dzieje
506 Dziejów
1016 Dzielnicy
490 Dziennej
865 Dziennik
874 Dziennika
613 Dziennikarstwa
815 Dziennikarzy
657 Dzienniku
227 Dzierzgoń
262 Dzierżyńskiego
275 Dziewczyna
252 Dziewicy
288 Dziewiczych
228 Dzieł
1769 Dzień
208 Dziki
245 Dzikiej
408 Dzong
469 Düsseldorf
786 Düsseldorfie
366 Dąb
481 Dąbie
1868 Dąbrowa
824 Dąbrowie
260 Dąbrowska
853 Dąbrowski
1481 Dąbrowskiego
201 Dąbrowskiej
309 Dąbrowskim
496 Dąbrowy
260 Dąbrówce
1006 Dąbrówka
242 Dąbrówki
313 Dębica
443 Dębicy
224 Dębina
575 Dęblinie
372 Dębno
244 Dębowa
257 Długa
269 Długi
323 Długie
392 Długiej
866 Długosz
1048 Długosza
202 Dźwiny
804 Dźwięk
201 Dżakarcie
354 Dżibuti
293 EA
215 EB
260 EBU
637 EC
819 EMI
319 EN
1299 EP
264 ER
251 ES
288 ESP
297 EURO
288 EWG
428 Eagles
362 Earl
3894 East
450 Eastern
281 Easy
632 Echo
651 Eddie
318 Eddiego
204 Eddy
540 Eden
460 Edgar
468 Edgara
223 Edison
400 Edith
660 Edmonton
1070 Edmund
860 Edmunda
451 Edo
453 Eduard
366 Eduarda
609 Eduardo
2860 Edukacji
4470 Edward
4390 Edwarda
431 Edwardem
495 Edwards
386 Edwin
339 Edwina
377 Edynburga
1041 Edynburgu
284 Edyta
207 Edyty
215 Effect
362 Egejskiego
267 Egejskim
3251 Egipcie
464 Egipcjan
341 Egipcjanie
1443 Egipt
862 Egiptem
4972 Egiptu
303 Egmont
286 Egzarchatu
200 Einar
810 Eindhoven
271 Einstein
433 Einsteina
213 Eintrachtem
266 Eintrachtu
207 Ekologii
553 Ekonomicznego
1182 Ekonomicznej
547 Ekonomicznych
271 Ekonomicznym
668 Ekonomii
288 Ekonomiki
741 Ekstraklasie
1075 Ekstraklasy
230 Ekwador
654 Ekwadorem
774 Ekwadoru
499 Ekwadorze
4404 El
657 Elbląg
488 Elbląga
1027 Elblągu
304 Eleanor
1366 Electric
425 Elektroniki
414 Elektrotechniki
451 Elektrowni
300 Elektrownia
275 Elektrycznych
231 Elektrycznym
283 Elena
312 Eleonora
391 Eleonory
235 Eli
272 Eliasz
419 Eliasza
604 Elisabeth
212 Eliza
1861 Elizabeth
220 Elizy
567 Ellen
231 Elton
265 Eltona
401 Elvis
514 Elvisa
2295 Elżbieta
2374 Elżbiety
557 Elżbietą
695 Elżbietę
569 Emanuel
556 Emanuela
273 Emerson
296 Emigracji
926 Emil
827 Emila
520 Emilia
420 Emilii
330 Emilio
200 Eminem
201 Eminema
329 Emiratach
515 Emiratów
418 Emma
320 Emmanuel
1310 Emmy
630 Empire
352 En
306 Encyklopedia
536 Encyklopedii
1333 End
270 Enemy
462 Energetyki
254 Energia
256 Energie
557 Energii
404 Energy
264 Engelbergu
330 Engine
696 Engineering
665 English
219 Enigmy
374 Enrico
582 Enrique
234 Enschede
268 Ensemble
409 Ententy
439 Epiru
1045 Episkopatu
335 Era
222 Erazm
308 Erazma
299 Erfurcie
1211 Eric
872 Erica
559 Erich
357 Ericha
603 Ericsson
301 Erie
530 Erik
376 Erika
330 Erikiem
213 Eriksson
940 Ernest
1005 Ernesta
373 Ernesto
1433 Ernst
782 Ernsta
350 Erwin
234 Erwina
881 Ery
286 Erydana
413 Eryk
505 Eryka
337 Erytrei
328 Erywaniu
325 Erywań
214 Escape
408 Eska
695 Eskadra
992 Eskadry
272 Eskadrę
243 Espanyolu
780 Essen
1169 Essex
244 Este
502 Estonia
6111 Estonii
240 Estonią
202 Estońskiej
213 Etapowych
247 Ethernet
1502 Etiopii
270 Etyki
488 Eucharystii
200 Eufratu
653 Euganejska
278 Eugenia
1175 Eugeniusz
977 Eugeniusza
282 Eulera
433 Eurazji
4112 Euro
1978 Europa
1362 Europe
220 Europejczycy
663 Europejczyków
1138 Europejska
886 Europejski
1014 Europejskich
331 Europejskie
6542 Europejskiego
7920 Europejskiej
1136 Europejskim
1295 Europejską
19923 Europie
44357 Europy
692 Europą
1367 Europę
2453 Eurowizji
201 Eustachego
373 Euzebiusza
430 Eva
670 Evans
288 Evansa
215 Everton
231 Evertonu
306 Evo
1649 Ewa
281 Ewangelia
257 Ewangelickiego
242 Ewangelicznych
2399 Ewangelii
489 Ewangelisty
247 Ewangelię
990 Ewy
311 Ewą
342 Ewę
225 Ex
446 Exchange
539 Exeter
537 Explorer
308 Expo
1418 Express
208 Extra
445 Eye
506 Ełk
536 Ełku
719 FA
933 FBI
15828 FC
301 FDP
721 FF
661 FIA
1294 FIDE
1672 FIFA
263 FILM
1485 FIS
1433 FM
265 FN
315 FOX
200 FR
221 FS
305 FSO
245 Fabian
337 Fabio
625 Fabryce
948 Fabryka
662 Fabryki
276 Fabrykę
394 Fabularnych
364 Face
240 Facebook
548 Factory
483 Fair
458 Faith
202 Fakty
722 Fall
611 Falun
203 Fan
685 Fantasy
301 Far
301 Farm
972 Faso
220 Fast
259 Fatimskiej
247 Fatry
213 Faust
980 Fe
1233 Federacja
5422 Federacji
741 Federację
267 Federacyjnej
449 Federalnego
1050 Federalnej
231 Federalny
299 Federer
211 Federerem
394 Federico
1101 Feliks
1252 Feliksa
514 Felipe
570 Felix
298 Felixa
206 Fender
270 Feniksa
593 Ferdinand
409 Ferdinanda
1216 Ferdynand
1903 Ferdynanda
248 Ferenc
349 Ferguson
218 Fernanda
1671 Fernando
1633 Ferrari
370 Ferrary
330 Ferrarze
268 Ferro
344 Ferry
212 Fest
2433 Festiwal
5991 Festiwalu
378 Feyenoordu
1210 Fiat
613 Fiata
458 Fiction
792 Fidżi
962 Field
583 Fiemme
428 Fighter
2044 Filadelfii
397 File
258 Filharmonia
1484 Filharmonii
2325 Filip
3224 Filipa
389 Filipem
740 Filipin
1053 Filipinach
526 Filipiny
269 Filipowi
331 Filippo
2558 Film
222 Filmowa
708 Filmowego
1491 Filmowej
445 Filmowy
610 Filmowych
801 Filmowym
334 Filmu
1071 Filmów
217 Filologicznego
938 Filologii
295 Filozoficznego
440 Filozoficznym
1208 Filozofii
612 Fin
231 Fina
252 Finale
272 Financial
240 Finansowego
1224 Finansów
328 Finał
708 Finału
488 Fine
990 Finlandia
6304 Finlandii
531 Finlandią
295 Finlandię
258 Finn
346 Finowie
416 Finów
349 Fiodor
473 Fiodora
230 Fiorentiny
210 Firefox
216 Firlej
203 Firma
1744 First
249 Firth
581 Fischer
282 Fischera
397 Fish
489 Fisher
263 Fishera
257 Fitzgerald
482 Fizjograficznych
236 Fizjologii
1342 Fizycznego
801 Fizycznej
1455 Fizyki
276 Fińskiej
313 Flag
303 Flames
1111 Flandrii
513 Flash
209 Flawiusz
910 Fleet
241 Fleming
234 Fletcher
296 Flocie
381 Flora
370 Florence
265 Florencja
2352 Florencji
403 Flores
508 Florian
522 Floriana
756 Floryda
472 Florydy
1364 Florydzie
215 Florydę
280 Flota
2491 Floty
952 Flotylli
540 Flow
806 Floyd
623 Flying
251 Focus
581 Fokker
263 Folk
245 Folwark
215 Fonograficznej
239 Fontainebleau
261 Fontana
233 Food
427 Foot
2947 Football
1198 For
391 Forbes
3047 Force
314 Forcie
2079 Ford
1297 Forda
234 Fordem
356 Foreign
1411 Forest
273 Form
358 Formula
3324 Formule
319 Formuła
4987 Formuły
201 Forster
2641 Fort
626 Fortu
290 Fortuna
288 Fortuny
1843 Forum
564 Foster
325 Fotografii
259 Fouriera
1571 Fox
445 Fr
2806 France
379 Francesca
1304 Francesco
1213 Francis
760 Francisa
337 Francisca
4910 Francisco
4513 Franciszek
5385 Franciszka
369 Franciszkanów
435 Franciszki
417 Franciszkiem
242 Franciszkowi
3703 Francja
73992 Francji
2860 Francją
1931 Francję
1261 Franco
376 Francuska
218 Francuskich
441 Francuskiego
2505 Francuskiej
247 Francuską
1212 Francuz
570 Francuza
506 Francuzami
335 Francuzem
1971 Francuzi
433 Francuzom
2568 Francuzów
2394 Frank
1728 Franka
2139 Frankfurcie
1143 Frankfurt
716 Frankfurtu
366 Frankiem
898 Franklin
401 Franklina
1003 Frankonia
241 Frankonii
928 Franków
1525 Franz
1217 Franza
280 Fraser
666 Fred
485 Freda
276 Freddie
666 Frederick
364 Fredericka
204 Fredrik
208 Fredro
389 Fredry
960 Free
251 FreeBSD
250 Freeman
293 Freiherr
333 Freud
453 Freuda
2293 Friedrich
1596 Friedricha
642 Fritz
387 Fritza
220 Friuli
208 Fromborku
420 Froncie
1782 Front
225 Frontem
3456 Frontu
263 Frost
517 Fryburg
786 Fryburgu
3196 Fryderyk
5999 Fryderyka
484 Fryderykiem
307 Fryderykowi
252 Fryzji
444 Fu
485 Fulham
372 Full
292 Fund
1242 Fundacja
3712 Fundacji
260 Fundacją
886 Fundację
386 Fundlandii
638 Fundusz
1131 Funduszu
246 Fury
205 Futbolu
397 Future
236 GA
736 GB
374 GG
521 GHz
1075 GKS
803 GL
475 GM
230 GNOME
1137 GNU
385 GOP
1979 GP
469 GPL
628 GPS
217 GPU
322 GRU
465 GS
796 GSM
768 GT
394 GUS
748 Gabi
298 Gabinetu
277 Gabonie
401 Gabonu
1295 Gabriel
1428 Gabriela
216 Gabriele
419 Gabrielle
241 Gaga
373 Gaj
417 Galaktyki
220 Galapagos
590 Galaxy
1112 Galeria
1969 Galerii
239 Galerię
567 Galicja
5044 Galicji
761 Galii
1278 Galilei
229 Galileusza
312 Galla
432 Gallipoli
213 Galów
753 Gama
388 Gambii
328 Gan
383 Gandawie
405 Gandhi
234 Gandhiego
447 Gang
227 Gansu
401 Garcia
409 Gard
1161 Garden
279 Gardner
218 Garibaldi
449 Garland
825 Garonna
334 Garros
392 Garrosa
771 Gary
479 Gate
288 Gates
488 Gatunków
312 Gaulle
204 Gaussa
416 Gay
747 Gazecie
1017 Gazeta
1599 Gazety
203 Gazetą
231 Gazetę
1169 Gazy
4021 Gdańsk
3934 Gdańska
916 Gdański
405 Gdańskie
1389 Gdańskiego
1791 Gdańskiej
434 Gdańskiem
1007 Gdańskim
8384 Gdańsku
230 Gdańską
352 Gdy
4818 Gdyni
1962 Gdynia
293 Gear
386 Gelsenkirchen
433 Gemini
335 Gene
2415 General
223 Generalna
256 Generalne
5387 Generalnego
667 Generalnej
864 Generalny
243 Generalnych
1321 Generalnym
320 Generation
349 Generał
268 Generała
522 Genesis
294 Genewa
1777 Genewie
351 Genewy
441 Genua
1237 Genui
475 Geodezji
340 Geograficznego
476 Geografii
309 Geographic
308 Geologicznego
372 Geologii
1436 Georg
1012 Georga
5336 George
688 Georges
301 Georgetown
268 Georgi
1328 Georgia
482 Georgii
1422 Gerais
296 Gerald
226 Geralda
505 Gerard
365 Gerarda
410 Gerhard
280 Gerharda
436 German
251 Germania
238 Germanów
1890 Gestapo
246 Getafe
202 Getta
728 Getyndze
215 Ghana
455 Ghanie
798 Ghany
275 Ghaną
484 Giacomo
256 Gibraltar
579 Gibraltaru
262 Gibraltarze
531 Gibson
215 Gibsona
205 Giedymina
246 Gier
228 Giełdy
474 Giełdzie
514 Gil
493 Gilbert
440 Gilberta
211 Gilberto
252 Gildii
259 Gilead
223 Gilles
299 Gimnastycznego
5927 Gimnazjum
665 Giorgio
1628 Giovanni
785 Giovanniego
1361 Girl
931 Girls
648 Giro
313 Giulio
1364 Giuseppe
216 Giżycku
1982 Glasgow
361 Glass
458 Glen
404 Glenn
239 Glinki
481 Gliwic
1628 Gliwicach
987 Gliwice
288 Glob
852 Globu
563 Globy
946 Gloria
735 Gloucester
944 GmbH
3225 Gmin
2424 Gmina
371 Gminie
202 Gminnego
333 Gminnej
201 Gminny
2513 Gminy
200 Gniew
503 Gniezna
628 Gniezno
1242 Gnieźnie
1417 Go
336 Goa
301 Goes
312 Goethe
549 Goethego
705 Gogh
703 Gogha
231 Gogol
560 Goi
301 Golan
1152 Gold
1146 Golden
922 Gole
286 Goleniów
349 Golf
238 Gollob
297 Gombrowicza
207 Gong
220 Gonna
276 Gonzaga
238 Goodbye
1135 Google
281 Gorcach
1095 Gordon
619 Gordona
290 Gore
211 Gorkiego
252 Gorlicach
401 Gorzowa
959 Gorzowie
208 Gorzyce
1075 Gorzów
215 Gospel
625 Gospodarczego
1025 Gospodarczej
276 Gospodarczych
2220 Gospodarki
917 Gospodarstwa
491 Gospodarstwo
236 Gospodyń
620 Got
218 Gotha
263 Gottlieb
473 Gotów
542 Goya
217 Gończych
342 Gra
213 Grabowiec
265 Grabowo
627 Grabowski
262 Grabowskiego
238 Grabskiego
292 Grabów
1050 Grace
246 Grad
663 Graf
445 Grafika
444 Grafiki
872 Graham
595 Grahama
1986 Grammy
804 Gran
12165 Grand
2346 Grande
665 Grani
205 Granica
826 Granicznej
682 Grant
385 Granta
218 Grass
244 Grave
625 Gray
203 Graya
305 Graz
614 Grazu
396 Grażyna
885 Grecja
7460 Grecji
498 Grecją
531 Grecję
578 Greco
654 Grecy
2615 Green
231 Greena
305 Greene
458 Greenwich
461 Greg
233 Grega
272 Gregor
411 Gregoriańskim
576 Gregory
216 Greifswaldzie
1503 Greków
287 Grenada
1144 Grenadierów
309 Grenady
205 Grenadzie
843 Grenlandii
843 Grenoble
578 Grey
266 Grigorij
305 Grigorija
609 Grimaldi
212 Grimm
276 Grobie
458 Grobu
561 Grodna
936 Grodnie
424 Grodno
238 Grodziec
725 Grodzisk
348 Grodziska
277 Grodzisko
496 Grodzisku
292 Grom
349 Gromada
902 Groningen
410 Gross
499 Grosso
3184 Group
418 Grove
269 Groń
251 Groźnego
613 Grudziądz
466 Grudziądza
1331 Grudziądzu
362 Grunwald
566 Grunwaldem
518 Grunwaldu
304 Grup
3736 Grupa
1029 Grupie
5350 Grupy
490 Grupą
650 Grupę
212 Gruzinów
289 Gruzja
2654 Gruzji
210 Gruzją
215 Gruzję
359 Gry
566 Gryf
313 Gryficach
364 Gryfice
242 Gryzonia
236 Grzbiecie
413 Grzbiet
813 Grzbietu
3263 Grzegorz
2401 Grzegorza
396 Grzegorzem
203 Grzymała
411 Gródek
253 Gródku
905 Guadalajara
386 Guadalajarze
316 Guadalcanal
404 Guam
265 Guangdong
313 Guarani
344 Guardian
326 Guayaquil
960 Gubernatorstwa
557 Gubernatorstwie
224 Guernsey
298 Guide
452 Guido
441 Guillaume
398 Guillermo
337 Guinnessa
310 Gujanie
374 Gujany
327 Gurion
390 Guru
624 Gustav
479 Gustava
200 Gustave
1279 Gustaw
1586 Gustawa
576 Gwardia
2960 Gwardii
231 Gwatemala
1284 Gwatemali
1300 Gwiazd
635 Gwiazda
1476 Gwiazdy
842 Gwiazdą
291 Gwiezdne
543 Gwiezdnych
360 Gwinea
2670 Gwinei
221 Gwineą
207 Gwineę
389 Gómez
4664 Gór
6269 Góra
2947 Górach
613 Górami
380 Górce
703 Górka
616 Górki
6214 Górna
1475 Górne
2327 Górnego
3457 Górnej
335 Górniak
524 Górnictwa
288 Górnicza
248 Górniczego
1066 Górniczej
697 Górnik
850 Górnika
349 Górnikiem
259 Górniku
454 Górnośląskiego
310 Górnośląskiej
307 Górnoślązaków
2180 Górny
589 Górnych
2014 Górnym
372 Górną
238 Górska
587 Górski
238 Górskich
684 Górskiego
599 Górskiej
6130 Góry
4473 Górze
994 Górą
936 Górę
286 Göring
218 Göringa
445 Görlitz
576 Göteborg
951 Göteborgu
244 Günther
221 Gąsienicowej
434 Głogowa
611 Głogowie
462 Głogów
848 Głos
418 Głosu
233 Głowa
236 Głowacki
217 Głowackiego
1021 Główna
565 Główne
4527 Głównego
3618 Głównej
2024 Główny
1293 Głównym
479 Główną
289 Głębokie
318 HB
621 HBO
1279 HD
674 HIV
3625 HMS
365 HP
553 HS
634 HTML
222 HTTP
295 Ha
229 Haarlem
1104 Habsburg
980 Habsburga
214 Habsburgami
222 Habsburgowie
1805 Habsburgów
358 Hadriana
1044 Hadze
338 Hagen
258 Hagi
277 Hahn
290 Hai
1403 Haiti
241 Hajduk
256 Hajduka
356 Hajfa
349 Hajfie
435 Hajfy
261 Hajnówka
477 Hala
221 Hale
1219 Hali
286 Halickiej
332 Halifax
606 Halina
328 Haliny
3965 Hall
304 Halla
1182 Halle
287 Haller
531 Hallera
344 Halloween
300 Halowych
841 Hamburg
816 Hamburga
428 Hamburger
2335 Hamburgu
1263 Hamilton
415 Hamiltona
215 Hamlet
225 Hamleta
459 Hammer
1487 Hampshire
434 Hampton
1064 Han
214 Hana
321 Hancock
281 Hand
246 Handlowa
208 Handlowe
281 Handlowego
1287 Handlowej
208 Handlowy
240 Handlową
1821 Handlu
201 Hands
233 Hanka
725 Hanna
544 Hannah
215 Hannibala
228 Hannover
493 Hanny
300 Hanoi
204 Hanower
419 Hanoweru
664 Hanowerze
2110 Hans
1885 Hansa
255 Hansem
421 Hansen
213 Hanzy
314 Hapoel
263 Hapoelu
465 Happy
308 Harald
272 Haralda
230 Harbinie
972 Harbor
300 Harcerek
213 Harcerskiego
483 Harcerskiej
1131 Harcerstwa
754 Harcerzy
636 Hard
267 Hardy
231 Hari
508 Harold
511 Harolda
296 Harper
259 Harrachovie
206 Harriet
866 Harris
303 Harrisa
577 Harrison
318 Harrisona
1970 Harry
393 Harrym
609 Hart
794 Harvard
596 Harvarda
282 Harvardzie
480 Harvey
245 Harz
369 Hassan
451 Hastings
234 Hat
445 Haven
357 Havilland
735 Hawajach
453 Hawaje
356 Hawajów
567 Hawanie
366 Hawk
225 Hawkins
260 Hawks
353 Hayes
1158 He
843 Head
467 Heat
435 Heath
386 Heavy
324 Hebei
347 Heerenveen
238 Hegla
1844 Heidelbergu
270 Heinkel
1871 Heinrich
1193 Heinricha
397 Hel
783 Helen
1380 Helena
1522 Heleny
518 Heleną
382 Helenę
304 Hello
302 Helmut
215 Helmuta
522 Helsinek
2582 Helsinkach
563 Helsinki
480 Helu
361 Henderson
213 Hendriksa
414 Hendrix
207 Henin
1124 Henri
346 Henriego
232 Henrik
3016 Henry
6609 Henryk
9241 Henryka
1074 Henrykiem
577 Henrykowi
393 Her
297 Heraklesa
279 Herald
461 Herb
968 Herbert
965 Herberta
264 Herby
243 Hercegowina
556 Hercegowinie
1047 Hercegowiny
271 Hercules
298 Hereford
232 Herkules
510 Herkulesa
827 Herman
859 Hermana
1077 Hermann
734 Hermanna
223 Hermes
440 Hero
558 Heroda
248 Herodota
289 Herrera
3603 Herschel
529 Herschela
216 Hertz
257 Herzog
661 Hesja
617 Hesji
241 Hewitt
440 Hey
284 Hezbollahu
280 Hidalgo
696 Hieronim
911 Hieronima
287 Higgins
3215 High
623 Highway
239 Higieny
202 Hilarego
368 Hilary
326 Hilberta
2886 Hill
392 Hilla
1350 Hills
416 Hilton
383 Himalajach
383 Himalajów
302 Himmler
382 Himmlera
366 Hims
724 Hindustańskiej
231 Hindusów
203 Hingis
223 Hioba
211 Hipolit
259 Hipolita
334 His
1659 Historia
5343 Historii
342 Historyczne
1226 Historycznego
336 Historycznej
263 Historyczny
471 Historycznych
616 Historycznym
213 Historyków
716 Hiszpan
361 Hiszpana
225 Hiszpanami
216 Hiszpanem
1941 Hiszpania
940 Hiszpanie
19264 Hiszpanii
1455 Hiszpanią
670 Hiszpanię
222 Hiszpanom
1107 Hiszpanów
441 Hiszpańskiej
433 Hit
210 Hitchcocka
1406 Hitler
3190 Hitlera
273 Hitlerem
237 Hitlerjugend
247 Hitlerowi
394 Ho
321 Hobart
611 Hockey
329 Hodowli
336 Hoffman
249 Hoffmana
321 Hoffmann
215 Hoffmanna
512 Hohenzollern
314 Hohenzollerna
420 Hohenzollernów
298 Hokkaido
1555 Holandia
10287 Holandii
1006 Holandią
576 Holandię
256 Hold
335 Holding
372 Hole
528 Holender
480 Holenderskich
251 Holendra
592 Holendrzy
587 Holendrów
280 Holiday
798 Holland
376 Holly
2299 Hollywood
299 Hollywoodzkiej
466 Holmes
280 Holmesa
435 Holocaustu
208 Holokaustu
1666 Home
540 Homera
669 Homo
725 Honda
209 Honduras
360 Hondurasem
266 Hondurasie
617 Hondurasu
494 Hondy
470 Hong
306 Hongkong
1663 Hongkongu
369 Honolulu
439 Honor
227 Honoriusz
360 Honoriusza
751 Honorowego
778 Honorowej
376 Honorowy
302 Honorowym
800 Honorową
298 Honoru
327 Honsiu
445 Hood
244 Hooda
205 Hook
426 Hopkins
224 Hopkinsa
223 Horacego
1044 Horizonte
476 Horn
541 Horse
272 Horst
3597 Hot
1596 Hotel
596 Hotelu
283 Hour
2747 House
1862 Houston
540 How
1048 Howard
714 Howarda
277 Hrabia
329 Hrabiowie
327 Hrabstwa
243 Hrabstwie
363 Hrabstwo
351 Hradec
228 Hrubieszowie
240 Hrubieszów
273 Hu
328 Huang
323 Huber
572 Hubert
420 Huberta
866 Hucie
640 Hudson
462 Hudsona
207 Huelva
447 Hufca
837 Hugh
586 Hughes
215 Hughesa
2206 Hugo
537 Hugona
881 Hull
693 Human
289 Humanistycznego
260 Humanistycznych
453 Humanistycznym
277 Humboldta
452 Hunt
269 Hunta
848 Hunter
207 Huntera
385 Hunów
349 Hurricane
206 Husajn
342 Husajna
1503 Huta
237 Hutu
866 Huty
234 Huzarów
330 Hyde
266 Hydry
214 Hymn
299 Hyundai
608 Hz
713 IAAF
2552 IATA
1095 IBM
223 ID
350 IEEE
205 IG
134595 II
48561 III
286 IL
235 ILS
247 INTERNATIONAL
3500 IO
997 IP
640 IPN
228 IQ
546 IRA
334 IRC
228 IS
228 ISAF
2119 ISBN
1173 ISO
508 ISS
339 IT
26559 IV
7784 IX
722 Ian
471 Iana
315 Iberyjskiego
380 Iberyjskim
1203 Ibn
403 Ibrahim
240 Ibrahima
256 Icchak
457 Ida
480 Idaho
432 Idol
249 Idy
2350 Ignacego
2066 Ignacy
252 Ignacym
757 Igor
490 Igora
257 Igorem
6799 Igrzysk
1528 Igrzyska
11517 Igrzyskach
206 Ikarus
702 Ikony
906 Il
252 Ila
2375 Illinois
490 Image
279 Imienia
217 Imperatora
400 Imperial
6808 Imperium
3227 In
1580 Inc
230 Independence
493 Independent
612 Index
5467 Indiach
440 Indiami
4299 Indian
1095 Indiana
484 Indianami
983 Indianapolis
875 Indianie
1832 Indie
5505 Indii
302 Indonezja
1773 Indonezji
296 Industrial
261 Indusu
230 Indy
489 Indyjski
840 Indyjskiego
714 Indyjskim
316 Indywidualne
522 Indywidualnych
341 Inflant
276 Inflantach
210 Inflanty
426 Info
1545 Informacji
214 Informacyjnego
867 Informatyki
317 Infrastruktury
386 Ingolstadt
280 Ingrid
254 Inicjatyw
390 Inków
554 Inn
340 Inne
816 Innocentego
568 Innocenty
325 Innsbruck
1494 Innsbrucku
462 Inowrocław
273 Inowrocławia
656 Inowrocławiu
211 Inspekcji
238 Inspektor
367 Inspektora
227 Inspektorat
757 Inspektoratu
564 Institut
2917 Institute
297 Institution
8538 Instytucie
5397 Instytut
884 Instytutem
11597 Instytutu
319 Integracji
834 Intel
315 Inteligencji
423 Intelligence
602 Inter
250 Intercity
328 Interem
272 Interkontynentalny
7089 International
1235 Internecie
1527 Internet
1323 Internetu
711 Interu
227 Interze
316 Inwalidów
1320 Inżynierii
409 Inżynierskiej
537 Inżynierów
2464 Iowa
988 Ipswich
334 Ir
769 Irak
291 Irakiem
2937 Iraku
801 Iran
398 Iranem
1154 Iranie
1575 Iranu
914 Irena
242 Irene
395 Ireneusz
206 Ireneusza
539 Ireny
226 Ireną
226 Irenę
213 Iris
324 Irkucku
275 Irlandczyków
792 Irlandia
7773 Irlandii
712 Irlandią
319 Irlandię
1134 Iron
2079 Is
376 Isaac
292 Isaaca
333 Isabel
399 Iskra
272 Iskry
231 Islam
3597 Island
293 Islandia
2231 Islandii
210 Islandię
2632 It
676 Italia
1962 Italii
562 Ivan
325 Ivana
220 Ivanem
267 Iveco
1914 Iwan
2076 Iwana
283 Iwanem
337 Iwanow
763 Iwanowicz
203 Iwaszkiewicza
343 Iwo
314 Iwona
334 Izaak
502 Izaaka
731 Izabela
933 Izabeli
204 Izabelin
221 Izabelę
276 Izajasza
885 Izba
215 Izbica
3548 Izbie
6694 Izby
391 Izbę
391 Izerskich
2193 Izrael
6771 Izraela
579 Izraelczycy
365 Izraelczyków
792 Izraelem
320 Izraelitów
345 Izraelskiego
3973 Izraelu
217 Izydor
234 Izydora
266 Iława
1413 JPG
247 JR
387 JW
769 Ja
284 Jabłonna
412 Jabłoński
2923 Jacek
2033 Jack
3117 Jacka
713 Jackiem
2066 Jackson
1388 Jacksona
213 Jacksonville
764 Jacob
492 Jacoba
274 Jacobs
324 Jacqueline
1027 Jacques
1135 Jadwiga
1624 Jadwigi
391 Jadwigą
367 Jadwigę
307 Jagiellonii
322 Jagiellonów
498 Jagiellończyk
936 Jagiellończyka
322 Jagielloński
2934 Jagiellońskiego
364 Jagiellońskiej
2508 Jagiellońskim
729 Jagiełło
1110 Jagiełły
230 Jagiełłę
402 Jaguar
490 Jahwe
316 Jaime
1096 Jak
442 Jakob
262 Jakoba
3061 Jakub
3865 Jakuba
352 Jakubem
241 Jakubowi
211 Jakubowski
282 Jakucji
736 Jam
482 Jamajce
651 Jamajki
207 Jamboree
4791 James
3613 Jamesa
603 Jamesem
534 Jamie
22706 Jan
29174 Jana
1597 Jane
4379 Janeiro
2530 Janem
382 Janet
313 Jangcy
424 Janie
758 Janina
382 Janiny
243 Janka
483 Jankowski
218 Jankowskiego
316 Janne
244 Janowa
1427 Janowi
250 Janowice
282 Janowickich
385 Janowie
202 Janowiec
209 Janowo
277 Janowski
287 Jantar
3039 Janusz
2230 Janusza
407 Januszem
777 Janów
1540 Japonia
11878 Japonii
1038 Japonią
811 Japonię
909 Japończycy
360 Japończyk
248 Japończyka
1113 Japończyków
374 Japońskiej
286 Jar
337 Jaracza
309 Jarocin
486 Jarocinie
2280 Jarosław
1376 Jarosława
216 Jarosławem
482 Jarosławia
1129 Jarosławiu
218 Jaruzelski
281 Jaruzelskiego
238 Jasienica
265 Jasień
347 Jasiński
266 Jasińskiego
286 Jaskini
437 Jaskinia
525 Jasnej
220 Jasną
929 Jason
514 Jasona
225 Jastrząb
311 Jastrzębia
377 Jastrzębie
436 Jastrzębiec
244 Jasła
344 Jasło
242 Jaunde
673 Java
220 JavaScript
401 Javier
263 Javiera
209 Jawa
258 Jawie
323 Jaworowej
330 Jaworski
226 Jaworze
328 Jaworznie
402 Jaworzno
205 Jaworzyna
348 Jaworzyny
234 Jawy
356 Jaya
715 Jazdy
2301 Jazz
262 Jazzu
441 Jaśle
2517 Jean
1163 Jeana
204 Jeanem
391 Jeden
240 Jedna
244 Jednostka
316 Jednostki
1099 Jedności
374 Jedność
590 Jeff
383 Jeffa
609 Jefferson
234 Jeffersona
264 Jeffrey
2112 Jego
2374 Jehowy
782 Jej
205 Jekaterynburg
213 Jekaterynburga
361 Jekaterynburgu
660 Jelcz
252 Jelena
460 Jelenia
1097 Jeleniej
277 Jeleną
266 Jeleń
257 Jelita
267 Jemenie
530 Jemenu
476 Jenie
242 Jenkins
941 Jennifer
472 Jenny
261 Jens
306 Jensen
215 Jeremiasza
358 Jeremy
272 Jerome
445 Jerozolima
2165 Jerozolimie
291 Jerozolimskiego
229 Jerozolimskiej
3015 Jerozolimy
217 Jerozolimą
358 Jerozolimę
684 Jerry
2894 Jersey
210 Jeruzalem
8257 Jerzego
350 Jerzemu
7809 Jerzy
1076 Jerzym
218 Jesieni
301 Jesień
350 Jesse
310 Jessica
383 Jestem
244 Jeszcze
312 Jet
325 Jewgienij
271 Jewgienijem
554 Jezior
2384 Jeziora
1246 Jeziorem
2577 Jezioro
415 Jeziorze
356 Jezuitów
2147 Jezus
6556 Jezusa
249 Jezusem
858 Jezusowego
312 Jeśli
273 Jeżeli
292 Jiang
1145 Jim
803 Jima
1056 Jimmy
447 Jin
403 Jo
883 Joachim
872 Joachima
696 Joan
1577 Joanna
960 Joanny
321 Joanną
334 Joannę
2467 Joe
295 Joego
357 Joel
280 Joela
647 Johan
414 Johana
2072 Johann
1973 Johanna
914 Johannes
495 Johannesa
201 Johannesburga
476 Johannesburgu
317 Johansson
11708 John
7986 Johna
1425 Johnem
1013 Johnny
233 Johnowi
1758 Johnson
775 Johnsona
255 Johnston
260 Joint
381 Jolanta
274 Jom
708 Jon
344 Jona
497 Jonas
672 Jonathan
427 Jonathana
2439 Jones
819 Jonesa
224 Jonesem
1350 Jordan
700 Jordana
866 Jordanii
396 Jordanu
1033 Jorge
2967 Jork
14024 Jorku
1172 Jose
1226 Josef
704 Josefa
3128 Joseph
1990 Josepha
230 Josephem
395 Josh
296 Joshua
4297 José
1260 Journal
305 Jovi
273 Jowisz
1666 Jowisza
272 Joyce
2175 Jr
667 Ju
2422 Juan
1075 Juana
343 Juanem
829 Judei
968 Judy
444 Jugosławia
4772 Jugosławii
554 Jugosławią
448 Jugosławię
1245 Julia
1420 Julian
1340 Juliana
203 Julianem
901 Julie
915 Julii
281 Julijska
637 Julio
1295 Juliusz
2120 Juliusza
295 Julią
303 Julię
542 Jung
316 Junga
1499 Junior
1836 Juniors
1720 Juniorów
415 Junkers
322 Juno
232 Jupiter
787 Jura
753 Jurij
400 Jurija
227 Jurijem
537 Jury
304 Jurze
699 Just
479 Justin
311 Justina
277 Justine
551 Justyna
383 Justyniana
242 Jutlandii
465 Juventus
269 Juventusem
516 Juventusu
10087 Józef
12906 Józefa
1061 Józefem
489 Józefowi
410 Józefy
542 Józefów
236 Jędrzej
304 Jędrzeja
231 Jędrzejowie
2233 Język
773 Języka
787 Języki
341 Języków
203 KA
388 KB
3080 KC
369 KDE
789 KG
1201 KGB
293 KK
1434 KL
7690 KM
512 KO
1019 KOP
429 KOR
593 KP
429 KPN
1582 KPP
839 KPZR
491 KRLD
352 KRN
1487 KS
263 KSW
414 KSZO
893 KUL
493 KV
672 KW
441 KWK
261 KZMP
204 Ka
393 Kabulu
261 Kacper
225 Kaczawskich
314 Kaczmarek
350 Kaczmarski
221 Kaczor
705 Kaczyński
1318 Kaczyńskiego
862 Kaddafiego
608 Kadetów
316 Kadr
303 Kadry
285 Kai
366 Kair
442 Kairu
1059 Kairze
361 Kaiser
652 Kaiserslautern
239 Kajetan
251 Kajetana
461 Kalabria
338 Kalabrii
401 Kaledonii
3032 Kalifornia
4536 Kalifornii
222 Kalifornijskiego
405 Kalifornijskim
213 Kalinowski
219 Kalinowskiego
358 Kaliska
249 Kaliskiej
723 Kalisz
749 Kalisza
1856 Kaliszu
284 Kalkucie
354 Kalwaria
669 Kalwarii
730 Kambodży
249 Kameralnej
287 Kamerun
466 Kamerunem
515 Kamerunie
687 Kamerunu
424 Kamienia
590 Kamienica
367 Kamienicy
411 Kamieniec
337 Kamieniu
390 Kamienna
349 Kamiennego
642 Kamiennej
237 Kamiennych
1153 Kamień
288 Kamieńca
471 Kamieńcu
715 Kamil
549 Kamila
690 Kamionka
218 Kamionki
640 Kamiński
360 Kamińskiego
731 Kampania
384 Kampanii
304 Kampinoskiej
1617 Kanada
5806 Kanady
208 Kanadyjczycy
271 Kanadyjczyk
211 Kanadyjczyków
237 Kanadyjskiej
7034 Kanadzie
597 Kanadą
460 Kanadę
411 Kanale
423 Kanaryjskich
208 Kanaryjskie
1599 Kanał
817 Kanałem
1750 Kanału
948 Kancelarii
201 Kanclerz
327 Kanclerza
248 Kanclerzem
240 Kania
230 Kanonicznego
1546 Kansas
201 Kant
342 Kanta
260 Kantonie
205 Kanuta
300 Kapadocji
294 Kapitan
726 Kapituły
322 Kaplica
572 Kaplicy
271 Kapsztadzie
412 Kara
228 Karabachu
234 Karaczi
475 Karaibach
278 Karaibskiego
311 Karaibskim
1024 Karaibów
286 Karakorum
410 Karate
223 Karczma
494 Kardynała
286 Karel
610 Karelii
849 Karen
227 Karin
333 Karkonoskiego
509 Karkonoszach
509 Karkonoszy
2180 Karl
1923 Karla
236 Karlem
1073 Karlsruhe
250 Karlsruher
201 Karma
369 Karmel
449 Karnego
6872 Karol
10363 Karola
950 Karolem
1486 Karolina
512 Karolinie
937 Karoliny
646 Karolowi
380 Karpackich
202 Karpaczu
1456 Karpat
1272 Karpatach
787 Karpaty
250 Karpiński
284 Karta
357 Kartaginy
216 Kartezjusza
299 Kartografii
218 Kartuskiej
281 Kartuzy
564 Karty
405 Karyntii
260 Kasa
285 Kasia
473 Kask
254 Kasper
350 Kaspijskiego
214 Kaspra
299 Kasprowicza
677 Kassel
1501 Kastylii
543 Kasy
480 Kaszub
316 Kaszubach
574 Kaszubskiego
410 Kaszubskim
253 Kaszubów
2334 Katalonii
364 Kataru
232 Katarze
2322 Katarzyna
228 Katarzynie
2308 Katarzyny
646 Katarzyną
675 Katarzynę
1028 Kate
847 Katedra
3028 Katedry
2361 Katedrze
653 Katedrą
470 Katedrę
759 Katherine
474 Katie
211 Katmandu
242 Katolicka
518 Katolicki
398 Katolickich
217 Katolickie
2102 Katolickiego
1436 Katolickiej
1272 Katolickim
1423 Katowic
6624 Katowicach
2998 Katowice
253 Katy
630 Katyniu
375 Katyń
239 Katyńskiej
531 Kaukaz
804 Kaukazie
972 Kaukazu
3393 Kawalerii
352 Kawalerski
2370 Kawalerskim
215 Kawalerów
393 Kawasaki
223 Kawęczyn
250 Kayah
417 Kazachstan
921 Kazachstanie
1279 Kazachstanu
254 Kazania
594 Kazaniu
443 Kazań
282 Kazańskiej
6462 Kazimierz
8465 Kazimierza
747 Kazimierzem
411 Kazimierzowi
556 Kazimierzu
331 Kedywu
238 Keep
557 Keith
268 Keitha
219 Keller
1436 Kelly
428 Ken
319 Kena
208 Kenia
1230 Kenii
736 Kennedy
402 Kenneth
234 Kennetha
351 Kenny
267 Kensington
1366 Kent
295 Kentu
1119 Kentucky
217 Keplera
270 Kern
291 Kerry
875 Kevin
615 Kevina
217 Kevinem
441 Key
213 Keynes
313 Keys
885 Khan
236 Khana
252 Ki
257 Kibuców
507 Kids
241 Kiedy
994 Kielc
3402 Kielcach
1836 Kielce
211 Kierowca
252 Kierownictwa
942 Kierownictwo
404 Kierownik
1541 Kijowa
3592 Kijowie
545 Kijowskiego
590 Kijowskiej
224 Kijowskim
2793 Kijów
371 Kilińskiego
308 Killer
753 Kilonii
2517 Kim
202 Kina
2878 King
822 Kinga
971 Kingston
471 Kino
785 Kioto
261 Kippur
336 Kirgistanie
398 Kirgistanu
252 Kiribati
230 Kirk
651 Kiss
312 Kiszyniowie
322 Kiszyniów
226 Kitty
268 Kiusiu
242 Klan
261 Klary
209 Klasa
438 Klasie
447 Klasy
696 Klasycznym
200 Klasztor
290 Klaudiusz
447 Klaudiusza
458 Klaus
284 Klausa
584 Klein
233 Kleina
1039 Klemens
1385 Klemensa
244 Kleopatry
226 Klingenthal
470 Klinice
491 Kliniki
3633 Klub
255 Klubem
652 Klubie
444 Klubowych
3601 Klubu
268 Kluczbork
207 Kluczborku
213 Kmita
218 Knesetu
268 Knicks
531 Know
1034 Knowles
465 Koalicji
311 Kobe
2030 Kobiet
325 Kobieta
1831 Kobiety
515 Koch
272 Kochanowski
850 Kochanowskiego
246 Kocioł
880 Kodeks
203 Kodeksem
328 Kodeksie
1145 Kodeksu
218 Kolarstwie
265 Kolbe
351 Kolbego
571 Kole
2593 Kolegium
3141 Kolei
992 Kolej
248 Kolejarz
555 Koleje
207 Kolejka
223 Kolejowe
386 Kolejowego
274 Kolejowej
294 Kolejowych
284 Kolno
202 Kolombo
1448 Kolonia
2915 Kolonii
1068 Kolorado
468 Kolumba
705 Kolumbia
3041 Kolumbii
674 Kolumbią
232 Komandorski
1689 Komandorskim
312 Kombatantów
349 Komedia
276 Komedii
391 Komenda
282 Komendant
480 Komendanta
1696 Komendy
465 Komendzie
350 Kominternu
276 Komisariat
498 Komisariatu
267 Komisarz
361 Komisarza
315 Komisarzy
2249 Komisja
213 Komisjach
17228 Komisji
431 Komisją
1743 Komisję
1563 Komitecie
4169 Komitet
494 Komitetem
262 Komitetowi
14236 Komitetu
648 Komorowski
560 Komorowskiego
273 Komorów
685 Kompania
1277 Kompanii
280 Kompanię
381 Kompozytorów
257 Komsomołu
387 Komunalnej
342 Komunalnym
306 Komunii
1431 Komunikacji
230 Komunikacyjne
240 Komunikacyjnego
441 Komunistyczna
2912 Komunistycznej
409 Komunistyczną
208 Komunistów
326 Komuny
294 Konarskiego
486 Koncert
300 Kondrackiego
312 Konfederacja
2501 Konfederacji
267 Konfederację
353 Konferencja
2157 Konferencji
537 Kong
1935 Konga
721 Kongo
224 Kongregacja
1438 Kongregacji
1606 Kongres
1183 Kongresie
592 Kongresowego
225 Kongresowej
262 Kongresowym
2929 Kongresu
201 Kongu
349 Koni
270 Koniec
538 Konin
286 Konina
481 Koninie
913 Konkurs
1640 Konkursie
1572 Konkursu
535 Konnej
483 Konnych
459 Konopnickiej
1627 Konrad
1602 Konrada
260 Konradem
225 Konserwacji
209 Konserwatora
1399 Konserwatorium
950 Konserwatywnej
317 Konstancja
821 Konstancji
1180 Konstantego
335 Konstantin
213 Konstantina
962 Konstanty
541 Konstantyn
1085 Konstantyna
419 Konstantynopol
2451 Konstantynopola
1094 Konstantynopolu
229 Konstrukcji
343 Konstytucja
2254 Konstytucji
243 Konstytucją
260 Konstytucję
802 Konstytucyjnego
296 Konstytucyjnej
325 Konstytucyjny
209 Konsumentów
1066 Kontroli
1243 Kontynentalnego
372 Kontynentalnym
756 Kontynentu
624 Konwencji
208 Konwent
360 Konwentu
381 Kopa
359 Kopalni
243 Kopalnia
1949 Kopenhadze
469 Kopenhaga
511 Kopenhagi
378 Kopernik
2475 Kopernika
642 Kopy
301 Kopą
322 Kor
201 Koran
412 Koranu
354 Korczak
264 Korczaka
1005 Korea
274 Koreańskiej
5990 Korei
565 Koreą
262 Koreę
265 Korfantego
296 Korfu
215 Korn
1179 Kornwalii
490 Korona
418 Koronie
270 Koronnego
259 Koronnej
2243 Korony
321 Koroną
513 Korporacji
2669 Korpus
442 Korpusem
684 Korpusie
6825 Korpusu
777 Korsyka
301 Korsyki
236 Korwin
263 Korwina
200 Koryntian
241 Kos
505 Kosmicznej
252 Kosmicznych
251 Kosmos
907 Kosowa
698 Kosowie
238 Kosowo
320 Kostaryce
629 Kostaryki
398 Kostaryką
310 Kostka
705 Kostki
245 Kostrzyn
203 Kostrzynie
618 Koszalin
363 Koszalina
1158 Koszalinie
204 Koszyc
344 Koszycach
297 Koszyce
512 Koszykówki
519 Kot
251 Kota
387 Kotlina
710 Kotlinie
1570 Kotliny
302 Kotliną
405 Kotlinę
203 Kotła
304 Kowal
206 Kowala
663 Kowalczyk
243 Kowale
230 Kowalewski
307 Kowalska
858 Kowalski
440 Kowalskiego
211 Kowalskiej
339 Kowna
1124 Kownie
335 Kowno
250 Kozackiego
430 Kozacy
246 Kozak
216 Kozakami
1709 Kozaków
208 Kozienice
591 Kozłowski
287 Kozłowskiego
1956 Koła
1541 Koło
712 Kołobrzeg
1070 Kołobrzegu
332 Kołomyi
236 Kołłątaja
244 Końskich
229 Końskie
1488 Kości
206 Kościanie
3978 Kościele
291 Kościeliskiej
467 Kościelna
682 Kościelne
388 Kościelnego
814 Kościelnej
585 Kościelny
298 Kościelnym
323 Kościerzyna
250 Kościerzynie
26503 Kościoła
258 Kościołach
202 Kościołami
1717 Kościołem
838 Kościołowi
468 Kościoły
1506 Kościołów
1997 Kościuszki
430 Kościuszko
7379 Kościół
213 Koźle
331 Krainie
509 Krainy
2531 Kraj
263 Krajewski
256 Krajeńskie
2443 Krajobrazowego
580 Krajobrazowy
325 Krajobrazowym
641 Krajobrazu
606 Krajowa
2059 Krajowego
6585 Krajowej
676 Krajowy
445 Krajowych
599 Krajowym
475 Krajową
4642 Kraju
333 Krajów
7918 Krakowa
606 Krakowem
27096 Krakowie
493 Krakowska
306 Krakowski
393 Krakowskie
913 Krakowskiego
2437 Krakowskiej
585 Krakowskim
312 Krakowską
7210 Kraków
223 Kramer
328 Krasickiego
229 Krasiński
276 Krasińskich
444 Krasińskiego
286 Krasne
253 Krasnodar
357 Kraszewskiego
342 Krawczyk
254 Kraśnik
397 Krecie
207 Kredytowego
261 Kremla
207 Kremlu
317 Kresach
504 Kresów
371 Krety
200 Kretę
320 Krokwi
337 Kronice
221 Kronik
546 Kronika
716 Kroniki
210 Kronsztadzie
472 Krosna
586 Krosno
240 Krotoszyn
912 Krośnie
254 Kruk
216 Krupp
209 Kruppa
292 Krwi
504 Krym
959 Krymie
204 Krymskim
874 Krymu
278 Krynica
377 Krynicy
245 Krystian
1240 Krystyna
608 Krystyny
231 Krystyną
207 Krystynę
287 Kryszny
243 Krzemieńcu
209 Krzeszowicach
236 Krzeszowice
4693 Krzysztof
3073 Krzysztofa
632 Krzysztofem
613 Krzywoustego
485 Krzywy
3010 Krzyż
4987 Krzyża
471 Krzyżacy
373 Krzyżakami
831 Krzyżaków
217 Krzyżanowski
11247 Krzyżem
383 Krzyżowej
273 Krzyżu
257 Krzyży
1331 Król
2486 Króla
238 Królem
271 Królestw
10507 Królestwa
541 Królestwem
2314 Królestwie
1769 Królestwo
423 Królewca
1103 Królewcu
211 Królewiec
812 Królewska
709 Królewski
1066 Królewskich
581 Królewskie
1572 Królewskiego
2790 Królewskiej
822 Królewskim
363 Królewską
468 Króli
517 Królowa
2105 Królowej
261 Królową
356 Królów
211 Krótki
213 Krąg
374 Krążowników
219 Kręgu
466 Ks
513 Ksawerego
470 Ksawery
260 Książ
217 Książek
418 Książka
756 Książki
270 Książąt
648 Książę
210 Książęcej
296 Książęcych
1096 Księcia
1561 Księdze
1307 Księga
2290 Księgi
342 Księgę
4691 Księstwa
380 Księstwem
932 Księstwie
1144 Księstwo
200 Księżniczka
526 Księży
892 Księżyc
2188 Księżyca
557 Księżycu
459 Kształcenia
312 Kto
385 Ku
362 Kuala
728 Kuba
273 Kubica
1021 Kubie
1325 Kuby
284 Kubą
461 Kubę
503 Kujaw
396 Kujawach
618 Kujawski
218 Kujawskiego
382 Kujawskim
302 Kujawy
217 Kula
221 Kult
240 Kultur
726 Kultura
214 Kulturalnego
212 Kulturowego
10287 Kultury
774 Kulturze
234 Kumar
490 Kumbrii
274 Kuomintangu
371 Kuopio
220 Kupców
266 Kuratorium
245 Kurdystanu
483 Kurier
523 Kuriera
276 Kurierze
901 Kurii
493 Kurlandii
452 Kurs
409 Kursu
295 Kursów
819 Kurt
535 Kurta
203 Kurytyba
238 Kurów
256 Kutna
335 Kutnie
350 Kutno
226 Kuwejcie
203 Kuwejt
414 Kuwejtu
206 Kuźnia
476 Kuźnica
223 Kuźnicy
293 Kwatery
287 Kwaterze
398 Kwaśniewski
518 Kwaśniewskiego
442 Kwiatkowski
235 Kwiatkowskiego
259 Kwidzyn
303 Kwidzynie
258 Kylie
248 Kółek
438 Kąty
551 Kępa
259 Kępie
305 Kępy
252 Kętrzyn
273 Kętrzynie
209 Kłajpedy
228 Kłajpedzie
1050 Kłodzka
914 Kłodzkiej
492 Kłodzko
893 Kłodzku
273 LA
388 LCD
309 LED
224 LG
445 LKS
311 LM
991 LO
376 LOT
743 LP
335 LPR
234 LR
286 LSD
390 LZS
13989 La
723 Laboratorium
628 Lacjum
683 Ladies
1788 Lady
250 Lafayette
432 Lagos
460 Laguna
1276 Lahti
3201 Lake
543 Lakers
267 Lalek
224 Lam
465 Lambert
236 Lamberta
306 Lamborghini
654 Lancashire
641 Lancaster
625 Lance
229 Lancia
1237 Land
255 Landau
378 Landsberg
396 Landshut
212 Landtagu
404 Landy
1173 Lane
422 Lang
444 Lange
205 Langwedocji
246 Lanka
412 Lanki
240 Laosie
261 Laosu
272 Lara
589 Larry
368 Lars
226 Larsa
4167 Las
271 Lasek
236 Lasem
254 Laski
1052 Last
857 Lasu
309 Lasy
991 Lasów
425 Lata
260 Late
290 Latin
331 Lato
261 Latynosi
600 Laura
360 Lauren
227 Laurence
360 Laurent
255 Laurenta
366 Laury
878 Law
252 Lawn
845 Lawrence
672 Lazio
6183 Le
236 Lear
465 Lecce
1877 Lech
2375 Lecha
476 Lechem
314 Lechia
490 Lechii
237 Lechu
536 Led
3906 Lee
1572 Leeds
386 Leg
476 Legend
392 Legenda
744 Legia
2782 Legii
779 Legion
441 Legionach
228 Legionowie
1076 Legionu
3363 Legionów
691 Legią
246 Legię
521 Legnica
1400 Legnicy
1050 Leicester
329 Leigh
420 Lejdzie
221 Lekarski
668 Lekarskiego
312 Lekarskiej
559 Lekarskim
272 Lekarzy
1035 Lekkiej
1402 Lekkoatletyce
445 Lektor
210 Lelewela
299 Lema
208 Lena
311 Lenin
1261 Lenina
351 Leningrad
539 Leningradu
1171 Leningradzie
240 Leningradzkiego
348 Lennon
344 Lennona
543 Lens
1241 Leo
2363 Leon
2491 Leona
695 Leonard
1300 Leonarda
704 Leonardo
990 Leone
253 Leonem
332 Leonid
297 Leonida
1204 Leopold
1483 Leopolda
2025 Les
838 Lesie
495 Leslie
350 Lesotho
414 Leszczyński
755 Leszczyńskiego
1631 Leszek
1270 Leszka
283 Leszkiem
340 Leszna
859 Lesznie
919 Leszno
7366 Letnich
329 Letnie
431 Letniego
514 Letniej
223 Levante
556 Leverkusen
927 Lew
474 Lewandowski
440 Lewica
1919 Lewicy
210 Lewin
1754 Lewis
686 Lewisa
225 Lewskiego
269 Leyte
1731 León
227 Leónu
599 Leśna
308 Leśne
292 Leśnego
762 Leśnej
218 Leśnica
812 Leśnictwa
295 Leśny
213 Leśnym
1166 Li
235 Liang
232 Liaoning
402 Liban
207 Libanem
997 Libanie
1319 Libanu
1388 Liber
220 Liberalna
852 Liberalnej
450 Liberałów
593 Libercu
200 Liberec
528 Liberii
1713 Libertadores
589 Liberty
223 Libia
1686 Libii
205 Libreville
6419 Liceum
621 Liczba
272 Lidia
284 Lidzbark
264 Lidzbarku
3810 Lidze
265 Liechtenstein
412 Liechtensteinu
2853 Life
292 Lig
3069 Liga
1265 Light
9489 Ligi
282 Ligota
312 Liguria
261 Ligą
993 Ligę
300 Lil
1050 Lille
842 Lillehammer
392 Lily
874 Lima
280 Limanowej
352 Limassol
217 Limerick
598 Limie
532 Limited
208 Limoges
1545 Limousin
252 Limy
258 Lin
1560 Lincoln
443 Lincolna
421 Linda
207 Linden
418 Lindsay
387 Lindsey
2019 Line
257 Lines
560 Linia
357 Linie
645 Linii
442 Link
227 Linneusza
575 Linuksa
1566 Linux
399 Linz
395 Linzu
359 Lion
336 Lions
236 Lipa
256 Lipie
298 Lipiny
293 Lipiński
264 Lipnica
209 Lipnicy
260 Lipnik
233 Lipno
639 Lipsk
456 Lipska
211 Lipski
202 Lipskiego
256 Lipskiem
2290 Lipsku
477 Lis
625 Lisa
735 List
3052 Lista
396 Listopada
523 Listu
818 Listy
225 Listów
382 Listę
211 Lisy
220 Liszta
330 Literacki
355 Literackich
391 Literackie
568 Literackiego
442 Literackiej
321 Literackim
317 Literatura
1269 Literatury
682 Literatów
255 Litewski
210 Litewskie
1592 Litewskiego
1555 Litewskiej
608 Litewskim
2004 Little
222 Liturgii
723 Litwa
3924 Litwie
348 Litwini
624 Litwinów
4130 Litwy
605 Litwą
1143 Litwę
748 Liu
3291 Live
993 Liverpool
319 Liverpoolem
1425 Liverpoolu
395 Living
378 Livorno
542 Lizbona
1127 Lizbonie
505 Lizbony
643 Liście
691 Lloyd
358 Lloyda
243 Lo
1442 Loara
3235 Loary
564 Loch
238 Locke
753 Lockheed
257 Lodomerii
396 Logan
290 Lokalnej
303 Lola
275 Lombard
1796 Lombardia
496 Lombardii
3146 London
1868 Londyn
322 Londynem
17137 Londynie
17717 Londynu
1958 Long
277 Longobardów
337 Look
456 Lopez
1273 Lord
1084 Lorda
682 Lordem
1363 Lordów
207 Lorentza
1336 Lorenzo
228 Loreto
304 Lorient
11265 Los
717 Lost
635 Lot
2405 Lotaryngia
2937 Lotaryngii
3321 Lotnictwa
346 Lotnicza
296 Lotnicze
1036 Lotniczego
1014 Lotniczej
640 Lotniczy
1010 Lotniczych
381 Lotniczym
233 Lotniczą
219 Lotnisko
964 Lotus
354 Lotusa
477 Lou
3084 Louis
1182 Louisa
680 Louise
317 Louisville
385 Lourdes
5361 Love
335 Low
580 Lozannie
1506 Ltd
781 Lu
311 Lubece
252 Lubeki
643 Lubelski
277 Lubelskie
1244 Lubelskiego
721 Lubelskiej
1219 Lubelskim
296 Lubelszczyzny
564 Lubelszczyźnie
348 Lubicz
207 Lubień
844 Lubin
207 Lubina
283 Lubinie
240 Lublana
491 Lublanie
2538 Lublin
1920 Lublina
6460 Lublinie
206 Lubliniec
232 Lublińcu
445 Lubomirski
424 Lubomirskich
618 Lubomirskiego
212 Lubuskiego
220 Lubuskiej
476 Luca
634 Lucas
399 Lucasa
235 Lucernie
449 Lucia
523 Luciano
445 Lucjan
424 Lucjana
205 Lucjusz
326 Lucjusza
341 Lucky
594 Lucy
205 Ludmiła
1248 Ludowa
485 Ludowe
3796 Ludowego
10701 Ludowej
1326 Ludowy
1048 Ludowych
868 Ludowym
746 Ludową
1075 Ludu
1211 Ludwig
1067 Ludwiga
4269 Ludwik
6842 Ludwika
600 Ludwiki
582 Ludwikiem
370 Ludwikowi
353 Ludzi
388 Ludzie
834 Ludów
1612 Luftwaffe
395 Lugano
646 Luigi
206 Luigiego
1644 Luis
915 Luisa
215 Luiz
299 Luiza
376 Luizjana
216 Luizjanie
291 Luizjany
243 Luizy
478 Luke
764 Luksemburg
1135 Luksemburga
223 Luksemburgiem
1222 Luksemburgu
324 Luksemburski
527 Luksemburskiego
345 Lumpur
368 Luna
508 Lund
296 Luter
208 Luther
232 Luton
902 Lutra
261 Luwru
278 Luwrze
282 Lux
1589 Lwa
219 Lwem
4582 Lwowa
392 Lwowem
10493 Lwowie
263 Lwowskich
838 Lwowskiego
1231 Lwowskiej
742 Lwowskim
2735 Lwów
231 Lynch
881 Lyon
919 Lyonie
490 Lyonu
291 Lądowej
795 Lądowych
202 Lęborku
250 MAC
502 MAN
1331 MB
261 MBA
565 MBP
1126 ME
209 MF
498 MG
333 MGM
1610 MHz
355 MIT
440 MK
219 MKOl
858 MKS
769 MMA
1043 MO
1127 MON
242 MOS
618 MP
882 MPK
1104 MS
225 MSI
949 MSW
250 MSWiA
962 MSZ
420 MT
2734 MTV
711 MVP
1274 MW
577 MZK
902 Ma
459 Maastricht
1183 Mac
398 Macedonia
2805 Macedonii
216 Macedonią
257 Macedonię
209 Macedończyków
283 Macedońskiego
242 Macha
3016 Maciej
2022 Macieja
379 Maciejem
394 Macierzy
304 Macintosh
247 Mackenzie
316 Mad
391 Madagaskar
602 Madagaskaru
569 Madagaskarze
617 Madame
321 Made
221 Madeleine
774 Madison
212 Madness
1052 Madonna
1250 Madonny
210 Madonnę
3348 Madrycie
2714 Madryt
1059 Madrytu
282 Mafia
384 Magazyn
318 Magda
1293 Magdalena
1813 Magdaleny
310 Magdaleną
270 Magdalenę
240 Magdeburg
313 Magdeburga
380 Magdeburgu
329 Magellana
250 Maggiore
205 Maghrebu
292 Magii
270 Magna
240 Magnum
542 Magnus
496 Magnusa
321 Magury
206 Mahmud
210 Mahomet
515 Mahometa
430 Mai
317 Mail
803 Main
1060 Maine
244 Mainstream
223 Maj
1875 Maja
433 Majdan
318 Majdanku
593 Majewski
325 Majewskiego
1104 Major
557 Majów
676 Makau
396 Make
242 Makowski
282 Makowskiego
263 Maksa
822 Maksymilian
1227 Maksymiliana
211 Maków
858 Malarstwa
607 Malawi
292 Malbork
314 Malborka
487 Malborku
587 Malcie
308 Malcolm
288 Malcolma
302 Malczewskiego
1315 Malezji
1389 Mali
201 Malibu
229 Malik
366 Malinowski
248 Malinowskiego
225 Maliny
233 Mall
484 Mallorca
962 Malmö
502 Malta
861 Malty
537 Maltę
282 Mama
2777 Man
214 Mana
843 Management
252 Manager
803 Mancha
1306 Manche
1863 Manchester
560 Manchesterem
998 Manchesteru
947 Manchesterze
991 Mandacie
485 Mandatu
552 Mandżurii
314 Manfred
222 Manfreda
729 Manhattan
514 Manhattanie
214 Manhattanu
216 Manifest
524 Manili
261 Manitoba
511 Mann
348 Manna
601 Mannheim
1023 Mans
507 Mantui
1320 Manuel
1066 Manuela
217 Manuelem
552 Mao
252 Maputo
932 Mar
356 Marburgu
628 Marc
749 Marca
577 Marcel
431 Marcela
323 Marcello
333 Marcelo
448 Marche
818 Marchii
3230 Marcin
2476 Marcina
396 Marcinem
287 Marcinkowskiego
1446 Marco
242 Marconi
217 Marconiego
329 Marcos
614 Marcus
293 Marcusa
746 Mare
3991 Marek
1242 Margaret
456 Mari
10499 Maria
221 Mariacki
290 Mariackiego
292 Mariackim
486 Mariah
2459 Marian
1583 Mariana
239 Marianem
350 Marianna
222 Marianne
525 Marianny
363 Marianów
764 Mariawitów
1874 Marie
11679 Marii
461 Marilyn
204 Marin
689 Marina
965 Marine
426 Marines
1632 Marino
1768 Mario
595 Marion
234 Mariupol
1248 Mariusz
624 Mariusza
2124 Marią
2349 Marię
3140 Mark
4504 Marka
413 Market
1073 Markiem
207 Markiewicz
300 Marko
239 Markowski
282 Marks
630 Marksa
214 Markt
263 Markus
229 Marlborough
310 Marley
227 Marleya
1605 Marna
1397 Maroka
359 Marokiem
690 Maroko
864 Maroku
1020 Mars
1629 Marsa
685 Marshall
668 Marshalla
364 Marsie
625 Marsylia
1046 Marsylii
310 Marsz
510 Marszałek
784 Marszałka
326 Marszu
851 Marta
536 Marth
269 Martha
3940 Martin
2133 Martina
515 Martinem
229 Martinez
217 Martini
211 Martwego
565 Marty
245 Martyrologium
215 Martą
3352 Mary
5361 Maryi
680 Maryja
256 Maryję
1798 Maryland
719 Marynarce
354 Marynarka
4250 Marynarki
409 Mason
292 Mass
2312 Massachusetts
1227 Master
1792 Masters
217 Masyw
305 Masywie
513 Masywu
1038 Maszyn
323 Mata
310 Matce
599 Matejki
826 Matematyki
403 Mater
313 Materiałów
999 Mateusz
1086 Mateusza
259 Mathieu
975 Matka
11635 Matki
284 Matką
469 Matkę
494 Mato
290 Matrix
632 Matt
361 Matta
1173 Matthew
300 Matthews
248 Matthias
243 Matti
305 Matylda
449 Matyldy
385 Mauretanii
725 Maurice
507 Maurycego
448 Maurycy
221 Maurów
270 Mauser
575 Mauthausen
202 Mauzoleum
1631 Max
1298 Maxa
214 Maxem
276 Maxim
210 Maxwell
265 Maxwella
701 May
424 Maya
455 Mayer
367 Mayo
244 Mazda
425 Mazowiecka
1238 Mazowiecki
482 Mazowieckie
1242 Mazowieckiego
904 Mazowieckiej
1322 Mazowieckim
1026 Mazowsza
747 Mazowsze
733 Mazowszu
206 Mazu
1052 Mazur
245 Mazura
609 Mazurach
268 Mazurskiego
299 Mazury
221 Mazurów
2218 Mała
205 Małachowski
231 Małachowskiego
3010 Małe
1465 Małego
2042 Małej
1609 Małgorzata
1331 Małgorzaty
374 Małgorzatą
378 Małgorzatę
920 Małopolsce
286 Małopolska
1207 Małopolski
284 Małopolskiego
310 Małopolskiej
2539 Mały
1017 Małych
985 Małym
524 Małysz
710 Małą
234 Mb
220 McCarthy
395 McCartney
242 McCartneya
233 McDonald
472 McLaren
415 McLarena
4577 Me
222 Mechaniczne
266 Mechanicznego
236 Mechanicznych
314 Mechanicznym
357 Mechaniki
443 Mecz
279 Mecze
406 Meczu
2377 Medal
2768 Medalem
351 Medalu
1978 Media
360 Medici
227 Medina
1333 Mediolan
2591 Mediolanie
1374 Mediolanu
342 Mediów
822 Medycyny
597 Medycznego
1902 Medycznej
245 Medyczny
202 Medycznych
293 Medycznym
223 Megiddo
239 Mehmeda
259 Meir
275 Mekki
299 Meklemburgii
2438 Meksyk
499 Meksykańskiej
1060 Meksykiem
9243 Meksyku
204 Mela
277 Melanie
3136 Melbourne
227 Melchior
212 Melchiora
426 Memoriał
768 Memphis
616 Men
313 Mendoza
1451 Menem
589 Mercedes
330 Mercedesa
206 Mercji
810 Mercury
430 Meredith
205 Merkel
363 Merkurego
288 Merkury
363 Merlin
350 Mesa
206 Mesjasza
269 Messerschmitt
1551 Metal
515 Metallica
456 Metodego
562 Metro
288 Metropolii
655 Metropolitan
712 Metz
215 Metzu
505 Meyer
241 Meyera
899 Mezopotamii
298 Mi
2263 Miami
800 Miast
9144 Miasta
325 Miasteczko
406 Miastem
202 Miastko
3743 Miasto
4514 Michael
3109 Michaela
906 Michaelem
813 Michaił
963 Michaiła
351 Michaiłem
386 Michajłowicz
301 Michalski
5491 Michał
5494 Michała
766 Michałem
309 Michałowi
224 Michałów
900 Michel
549 Michela
404 Michele
201 Michelin
600 Michelle
1833 Michigan
246 Mick
475 Mickiewicz
3865 Mickiewicza
2946 Microsoft
308 Microsoftu
282 Middle
510 Middlesbrough
444 Midway
248 Miecz
480 Mieczami
1741 Mieczysław
1216 Mieczysława
223 Mieczysławem
632 Miejscowości
1231 Miejska
1362 Miejski
330 Miejskich
553 Miejskie
2210 Miejskiego
3641 Miejskiej
1232 Miejskim
501 Miejską
365 Mielcu
665 Mielec
1113 Mieszka
469 Mieszkaniowej
545 Mieszko
2001 Mieście
980 Miguel
414 Miguela
318 Mika
1979 Mike
322 Miki
292 Mikiem
3467 Mikołaj
6245 Mikołaja
372 Mikołajem
394 Mikołajowi
331 Mikołajów
236 Mikołowie
239 Mikronezji
1012 Milan
227 Milana
296 Milanem
498 Milanu
217 Milanówku
457 Miles
308 Milesa
698 Milicji
2633 Militari
222 Milk
563 Mill
200 Millenium
291 Millennium
1134 Miller
715 Millera
376 Mills
508 Milton
682 Milwaukee
1999 Minas
547 Ming
224 Minh
460 Mini
1232 Minister
4978 Ministerstwa
236 Ministerstwem
3656 Ministerstwie
2234 Ministerstwo
310 Ministerstwu
3882 Ministra
3499 Ministrów
468 Minneapolis
220 Minnesocie
1028 Minnesota
217 Minogue
276 Minor
395 Mir
234 Mira
368 Miranda
254 Miriam
921 Mirosław
519 Mirosława
202 Mirror
339 Misja
705 Misji
352 Misjonarzy
1558 Miss
1261 Missisipi
1667 Missouri
1199 Mistrz
1805 Mistrza
823 Mistrzem
12812 Mistrzostw
7699 Mistrzostwa
10645 Mistrzostwach
1498 Mistrzostwo
5844 Mistrzów
623 Mitchell
263 Mitrydatesa
1171 Mitsubishi
216 Międzychód
820 Międzynarodowa
674 Międzynarodowe
3263 Międzynarodowego
3810 Międzynarodowej
1748 Międzynarodowy
1568 Międzynarodowych
1969 Międzynarodowym
1216 Międzynarodową
751 Międzynarodówki
227 Międzyrzecz
242 Międzyrzeczu
1306 Miłosierdzia
287 Miłosz
295 Miłosza
494 Miłości
1171 Miłośników
579 Miłość
1225 Mińsk
919 Mińska
2410 Mińsku
319 Miśni
2775 Mk
565 Mlecznej
300 Mnie
1301 Mniejszej
298 Mniejszości
491 Mniejszych
249 Mo
720 Mobile
206 Moc
285 Mocnego
386 Mocy
214 Mod
266 Moda
533 Mode
1242 Model
235 Modena
243 Modenie
319 Modeny
812 Modern
605 Modlin
302 Modlina
345 Modlinie
203 Modlitwy
283 Mogadiszu
851 Moguncji
414 Mohamed
270 Mohammad
284 Mohammed
327 Mohylewie
389 Moja
389 Moje
355 Mojżesz
606 Mojżesza
413 Mokotowie
388 Mokotów
331 Mokre
213 Moliera
253 Molina
286 Molly
215 Moment
8618 Monachium
826 Monaco
1785 Monako
586 Monasteru
352 Monasterze
216 Monde
355 Mongolia
1409 Mongolii
268 Mongołowie
728 Mongołów
600 Monica
557 Monika
250 Moniki
526 Moniuszki
209 Monk
204 Mono
479 Monroe
434 Mons
337 Monster
746 Mont
708 Montana
346 Montaż
2657 Monte
200 Montelupich
718 Monterrey
2509 Montevideo
651 Montgomery
221 Montmartre
758 Montpellier
610 Montreal
2569 Montrealu
258 Montreux
244 Monty
239 Monument
416 Monza
886 Moon
1200 Moore
315 Mora
240 Morales
929 Moraw
625 Morawach
324 Morawski
209 Morawskiego
491 Morawy
925 More
220 Moreau
514 Moreno
838 Morgan
307 Morgana
232 Morgenstern
702 Moritz
235 Moro
612 Morris
244 Morrisa
368 Morrison
205 Morrisona
340 Morska
496 Morski
481 Morskich
435 Morskie
1059 Morskiego
1438 Morskiej
391 Morskim
282 Morton
7545 Morza
2734 Morze
2274 Morzem
3650 Morzu
239 Morąg
249 Moskiewski
1478 Moskiewskiego
553 Moskiewskiej
768 Moskiewskim
3847 Moskwa
10969 Moskwie
4443 Moskwy
687 Moskwą
542 Moskwę
363 Moss
1473 Most
568 Mostu
255 Mosty
233 Mostów
1298 Motor
283 Motorola
903 Motors
1489 Mount
564 Movie
548 Moza
697 Mozambiku
342 Mozart
749 Mozarta
765 Mozela
297 Mozilla
241 Mołdawia
2116 Mołdawii
201 Mołdawię
218 Mołotowa
426 Mości
415 Mościcki
371 Mościckiego
204 Moście
1066 Mr
222 Mróz
240 Mrągowo
247 Msza
301 Mszana
545 Mszy
226 Mszę
587 Mt
819 Muhammad
610 Muhammada
258 Mundial
1706 Mundialu
236 Mur
236 Murnau
219 Murowana
645 Murphy
747 Murray
215 Muru
264 Musa
6607 Music
361 Musical
274 Musik
299 Mussolini
527 Mussoliniego
284 Mustafa
316 Mustang
337 Muza
14772 Muzeum
257 Muzeów
542 Muzyczna
439 Muzyczne
1002 Muzycznego
2865 Muzycznej
447 Muzyczny
395 Muzycznych
960 Muzycznym
466 Muzyczną
682 Muzyka
1717 Muzyki
4376 My
278 MySpace
312 Mykoła
231 Mysłowic
400 Mysłowicach
256 Mysłowice
483 Myśli
218 Myślibórz
780 Myśliwskiego
268 Myśliwskiej
475 Mój
507 Mönchengladbach
728 Müller
304 Müllera
689 Münster
287 Mądrego
285 Mądrości
484 Męczennika
436 Męczenników
364 Męczeństwa
335 Męki
208 Męskie
200 Męskiego
501 Mężczyzn
924 Mężczyźni
210 Mławie
248 Młoda
347 Młodego
803 Młodej
383 Młodszego
405 Młodszy
316 Młody
1734 Młodych
253 Młodzi
455 Młodzieżowe
563 Młodzieżowych
4514 Młodzieży
654 Młyn
212 Młyńskiej
4996 MŚ
1587 NASA
3979 NATO
3043 NBA
1410 NBC
360 NBP
287 NEC
397 NET
644 NFL
2093 NHL
201 NIK
4515 NKWD
2880 NMP
241 NOW
4026 NRD
202 NSA
1869 NSDAP
1023 NSZ
1657 NSZZ
657 NT
220 NZS
363 Nacjonalistów
2288 Naczelnego
1608 Naczelnej
207 Naczelnik
411 Naczelnika
517 Naczelny
325 Naczelnym
594 Nad
215 Nadal
665 Nadleśnictwa
325 Nadleśnictwo
209 Nadmorskie
773 Nadrenia
714 Nadrenii
415 Nadziei
527 Nadzorczej
436 Nadzoru
496 Nadzwyczajnej
716 Nagano
357 Nagasaki
331 Nagrania
1299 Nagroda
4309 Nagrody
1154 Nagrodą
3281 Nagrodę
305 Nagród
309 Nairobi
533 Najlepsza
218 Najlepsze
354 Najlepszego
985 Najlepszy
328 Najwyższa
1895 Najwyższego
2571 Najwyższej
1219 Najwyższy
363 Najwyższym
1873 Najświętszego
4931 Najświętszej
222 Należy
361 Nam
668 Namibii
207 Namiestnikiem
245 Namur
1190 Nancy
822 Nantes
295 Naomi
214 Napalm
1318 Napoleon
3074 Napoleona
285 Napoleonem
227 Napoleonowi
564 Napoli
266 Naprzód
361 Narajani
200 Narciarskich
700 Narciarstwie
473 Narew
341 Narnii
1617 Narodowa
1711 Narodowe
12415 Narodowego
13027 Narodowej
4037 Narodowy
934 Narodowych
3523 Narodowym
1087 Narodową
1206 Narodu
2385 Narodzenia
584 Narodzenie
9554 Narodów
405 Narutowicza
669 Narwi
298 Nash
587 Nashville
534 Nassau
353 Nasz
638 Nasza
240 Nasze
210 Naszej
229 Natal
552 Natalia
340 Natalie
335 Natalii
314 Nathan
7031 National
511 Nationale
559 Nations
759 Natura
432 Naturalnej
331 Naturalnych
474 Nature
279 Natury
393 Nauczycieli
233 Nauczycielskie
264 Nauczycielskiego
296 Nauczycielskim
349 Nauczycielstwa
10654 Nauk
244 Nauka
2885 Nauki
627 Naukowe
2069 Naukowego
1189 Naukowej
948 Naukowych
230 Naukowym
753 Nauru
260 Navarro
644 Nawarry
397 Nawiedzenia
385 Nazaretu
676 Nazw
243 Nazwa
479 Nałęcz
413 Neapol
2767 Neapolu
418 Nebraska
232 Neckar
338 Negro
284 Nehru
494 Neil
405 Neila
263 Nelly
841 Nelson
465 Nelsona
240 Neo
269 Nepal
4933 Nepalu
228 Nepomucen
645 Nepomucena
217 Neptun
562 Neptuna
337 Nerona
220 Ness
235 Nestor
236 Nestora
1463 Network
246 Neumann
208 Neumanna
685 Neustadt
889 Nevada
325 Nevis
12724 New
1773 Newcastle
290 Newman
1025 Newport
1414 News
715 Newskiego
631 Newton
510 Newtona
288 Niagara
516 Nice
1036 Nicei
400 Nicholas
246 Nicholasa
1026 Nick
643 Nicka
209 Nickelback
440 Nickelodeon
212 Nickiem
286 Nico
250 Nicola
255 Nicolae
718 Nicolas
509 Nicolasa
684 Nicole
467 Niderlandach
250 Niderlandy
838 Niderlandów
270 Nieba
386 Niech
357 Niedźwiedzia
563 Niedźwiedzicy
237 Niedźwiedź
563 Nielsen
649 Niemca
4548 Niemcami
392 Niemcem
1514 Niemcom
12195 Niemcy
29227 Niemczech
10133 Niemców
368 Niemen
20714 Niemiec
321 Niemiecka
332 Niemiecki
350 Niemieckich
389 Niemieckie
1542 Niemieckiego
2174 Niemieckiej
344 Niemieckim
394 Niemiecką
262 Niemka
220 Niemki
341 Niemna
224 Niemnem
287 Niepodległej
2021 Niepodległości
452 Niepodległość
292 Niepodległych
946 Niepokalanego
347 Niepokalanej
220 Nieruchomości
263 Nietzschego
991 Nieustającej
385 Niezależnego
433 Niezależnej
375 Niezależnych
435 Nieznanego
234 Nieświeżu
235 Nigdy
258 Nigel
326 Niger
337 Nigeria
1781 Nigerii
389 Nigerią
2055 Night
457 Nigru
210 Nigrze
332 Nijmegen
666 Nikaragui
437 Nike
236 Nikita
236 Nikodem
209 Nikodema
265 Nikon
288 Nikona
412 Nikozja
235 Nikozji
944 Nikołaj
835 Nikołaja
208 Nikołajem
548 Nikołajewicz
223 Nil
865 Nilu
409 Nina
210 Ninja
233 Nino
899 Nintendo
200 Niro
202 Nirvana
292 Niskiego
264 Niskim
399 Nissan
390 Niszczycieli
209 Niwa
220 Nixon
264 Nixona
298 Nizina
1247 Nizinie
1394 Niziny
312 Nizinę
235 Niżnych
361 Niżnym
596 Nm
2989 No
2830 Nobla
249 Noble
518 Noc
451 Nocy
319 Noego
312 Noise
600 Nokia
236 Non
305 Norbert
1363 Nord
2020 Norfolk
568 Norman
373 Normana
3301 Normandia
4424 Normandii
339 Normanów
204 Norris
4631 North
337 Norton
496 Norweg
952 Norwegia
6993 Norwegii
541 Norwegią
440 Norwegię
300 Norwegowie
312 Norwegów
1202 Norwich
309 Norwida
811 Norymberdze
262 Norymberga
479 Norymbergi
845 Not
208 Note
382 Noteci
286 Notecią
407 Notre
1020 Nottingham
1097 Nova
278 Novi
231 Novo
278 Novum
6162 Nowa
1194 Nowak
397 Nowaka
306 Nowakowski
4085 Nowe
9834 Nowego
12194 Nowej
426 Nowicki
222 Nowickiego
404 Nowiny
451 Nowogrodu
590 Nowogrodzie
549 Nowogród
218 Nowogródek
221 Nowogródku
313 Nowosybirsku
238 Nowowiejskiego
9602 Nowy
687 Nowych
16767 Nowym
1732 Nową
2437 Nożnej
6124 Nr
227 Nubii
316 Number
206 Numer
307 Nur
552 Nysa
773 Nysie
1022 Nysy
246 Nysą
291 OBWE
218 OECD
454 OFM
216 OM
859 ON
5373 ONZ
269 OO
575 OP
270 OPL
1395 ORP
1354 OS
999 OSP
251 OWP
443 Oakland
269 Obama
216 Obamy
330 Obcych
327 Obczyźnie
310 Obecnie
233 Oberhausen
1104 Oberstdorfie
527 Obiektów
407 Objawienia
947 Obojga
215 Oborniki
512 Obozu
216 Obraz
684 Obronnych
6991 Obrony
476 Obrońców
1840 Obserwatorium
338 Obszar
866 Obszaru
264 Obwodowego
200 Obwodowej
1115 Obwodu
238 Obwodzie
349 Obwód
288 Obywatel
602 Obywatela
246 Obywatelska
269 Obywatelski
469 Obywatelskich
1025 Obywatelskiego
1968 Obywatelskiej
250 Obywatelską
308 Obóz
288 Ocalenia
1393 Ocean
668 Oceanem
1287 Oceanie
1228 Oceanii
2491 Oceanu
255 Ochota
598 Ochotnicza
243 Ochotniczego
1304 Ochotniczej
205 Ochotniczą
267 Ochronnego
4757 Ochrony
564 Odbudowy
440 Odcinek
873 Oddziale
2432 Oddział
245 Oddziałem
4797 Oddziału
252 Oddziałów
406 Odense
987 Odessa
1177 Odessie
516 Odessy
330 Odległość
265 Odnowy
993 Odra
5626 Odrodzenia
257 Odrodzenie
340 Odrowąż
3162 Odry
719 Odrze
2078 Odrą
454 Odrę
302 Odznaka
869 Odznaką
401 Odznakę
931 Odzyskanych
2042 Of
491 Off
311 Offenbach
1131 Office
524 Ofiar
256 Oficerski
1231 Oficerskiej
1573 Oficerskim
437 Oficerską
665 Oficerów
278 Oflagu
352 Ognia
591 Ogrodu
302 Ogrody
348 Ogrodzie
706 Ogród
458 Ogólne
747 Ogólnego
355 Ogólnej
1914 Ogólnokształcące
1182 Ogólnokształcącego
267 Ogólnokształcących
675 Ogólnokształcącym
324 Ogólnopolski
681 Ogólnopolskiego
225 Ogólnopolskiej
472 Ogólnopolskim
2800 Ohio
259 Oil
764 Oise
1145 Ojca
844 Ojciec
370 Ojczyzna
994 Ojczyzny
342 Ojczyźnianej
748 Ojców
343 Oka
855 Oklahoma
564 Oko
464 Okopowej
496 Okrągłego
1027 Okręg
204 Okręgowe
1260 Okręgowego
736 Okręgowej
649 Okręgowy
482 Okręgowym
7293 Okręgu
700 Okrętów
528 Oksfordu
1010 Oksfordzie
395 Oksfordzkim
377 Oktawiana
241 Okęcie
340 Olaf
276 Olafa
285 Olbrachta
1781 Old
275 Oldenburg
216 Oldham
428 Ole
205 Olecko
319 Oleg
313 Oleśnica
357 Oleśnicy
667 Olga
408 Olgi
631 Olimpia
455 Olimpiady
276 Olimpiadzie
674 Olimpii
651 Olimpijski
14438 Olimpijskich
1154 Olimpijskie
638 Olimpijskiego
406 Olimpijskim
348 Oliveira
768 Oliver
538 Olivera
313 Olivier
237 Oliviera
254 Oliwie
232 Olkuszu
245 Olsen
332 Olszewski
322 Olszewskiego
1356 Olsztyn
860 Olsztyna
3039 Olsztynie
1381 Olympique
214 Olzy
293 Omaha
231 Omanu
385 Omar
311 Omara
428 Omega
234 Omsku
2104 On
3893 One
354 Online
201 Ono
2241 Ontario
470 Opatrzności
206 Opatów
253 Opawie
346 Opel
8994 Open
1333 Opera
587 Operacja
1228 Operacji
306 Operację
607 Operacyjnego
573 Operacyjnej
1156 Opery
678 Operze
1862 Opieki
238 Opla
248 Opoczno
880 Opola
1461 Opole
312 Opolski
593 Opolskiego
394 Opolskiej
309 Opolskim
3114 Opolu
450 Oporu
562 Opowieści
218 Opowieść
272 Opozycji
241 Opracowanie
525 Opus
240 Or
300 Oracle
1212 Orange
282 Orawy
214 Orańskiego
1102 Orchestra
2227 Order
4749 Orderem
9646 Orderu
351 Ordy
283 Ordynacji
810 Oregon
1270 Organizacja
5357 Organizacji
221 Organizacją
486 Organizację
363 Organizacyjnego
276 Orient
201 Oriente
303 Orion
275 Oriona
206 Orkana
689 Orkiestra
700 Orkiestry
485 Orkiestrą
208 Orla
922 Orlando
344 Orle
205 Orlean
610 Orleanie
271 Orleans
638 Orleanu
248 Orlen
315 Orlik
672 Ormian
249 Ormianie
549 Orne
221 Orson
231 Orsona
224 Orzeszkowej
878 Orzeł
1796 Orła
266 Orłem
388 Os
478 Osace
207 Osada
308 Osaka
243 Osaki
705 Oscar
3189 Oscara
410 Oscarem
451 Oscarów
355 Osetii
558 Osi
272 Osieckiej
532 Osiedla
1180 Osiedle
277 Osiedlu
682 Osiek
543 Oskar
667 Oskara
4038 Oslo
223 Osmanów
338 Osmańskiego
308 Osnabrück
207 Osowa
206 Osowiec
313 Ossolineum
220 Ossoliński
201 Ossolińskich
225 Ossolińskiego
437 Ostatni
402 Ostatnia
287 Ostatnich
202 Ostatnie
220 Ostatniej
481 Ostoja
205 Ostra
338 Ostrawa
464 Ostrawie
347 Ostrawy
720 Ostrowa
248 Ostrowca
457 Ostrowcu
324 Ostrowi
1065 Ostrowie
492 Ostrowiec
547 Ostrowski
508 Ostrowskiego
215 Ostrowy
400 Ostrołęce
262 Ostrołęka
226 Ostrołęki
219 Ostry
226 Ostróda
239 Ostródzie
1493 Ostrów
306 Ostrówek
250 Oswald
245 Oswalda
294 Oszczędności
271 Ottawa
400 Ottawie
2605 Otto
346 Otton
1445 Ottona
246 Otwock
412 Otwocku
1391 Out
695 Over
347 Oviedo
228 Owcze
1268 Owczych
563 Owen
298 Owena
1343 Owernia
1484 Owernii
235 Owidiusza
810 Oxford
359 Oxfordzie
323 Oz
314 Oława
253 Oławy
365 Ołomuniec
447 Ołomuńcu
222 Ołtarz
234 Ołtarza
2501 Ośrodek
1877 Ośrodka
229 Ośrodkiem
842 Ośrodku
1321 Oświaty
847 Oświecenia
525 Oświęcim
352 Oświęcimia
859 Oświęcimiu
271 Ożarów
200 PA
288 PAL
4408 PAN
534 PAU
234 PAX
1636 PC
235 PCI
350 PCK
352 PD
1284 PE
332 PEN
248 PESA
263 PGE
998 PGR
351 PHP
952 PKB
326 PKO
3065 PKP
1607 PKS
354 PKW
409 PKWN
497 PL
332 PLK
256 PLL
359 PLN
359 POLSKA
799 POW
800 PP
2061 PPR
3809 PPS
620 PR
352 PRIDE
7636 PRL
507 PS
210 PSD
1697 PSL
330 PSP
792 PSV
245 PSZ
264 PTK
1955 PTTK
289 PU
556 PWN
990 PWST
242 PWSZ
784 PZPN
4680 PZPR
207 PZU
217 Pabianic
454 Pabianicach
286 Pabianice
911 Pablo
1009 Pacific
467 Pacyfik
3643 Pacyfiku
289 Paderborn
506 Paderewskiego
357 Padewskiego
706 Padwie
402 Padwy
318 Pafos
650 Page
664 Pakistan
202 Pakistanem
829 Pakistanie
1106 Pakistanu
211 Paktu
201 Palacio
380 Palatynat
468 Palatynatu
333 Palau
424 Palazzo
235 Paleologa
1469 Palermo
294 Palestyna
1853 Palestynie
4033 Palestyny
256 Palestynę
328 Palestyńczyków
597 Palestyńskiej
420 Palm
460 Palma
247 Palmach
349 Palmas
306 Pamiątce
1696 Pamięci
248 Pamiętamy
325 Pamiętnik
453 Pamięć
2048 Pan
2971 Pana
326 Panama
441 Panamerykańskich
458 Panamie
660 Panamy
896 Pancerna
510 Pancernego
2432 Pancernej
494 Pancerny
765 Pancernych
460 Pancerną
875 Pani
375 Panie
258 Pank
265 Panna
6194 Panny
336 Panorama
319 Panu
277 Panów
208 Paola
786 Paolo
308 Papa
796 Papierów
512 Papieskiego
908 Papieskiej
909 Papieskim
254 Papieża
466 Par
224 Parabellum
1039 Parafia
810 Parafii
562 Paragwaj
973 Paragwajem
1655 Paragwaju
278 Paramount
228 Parana
560 Paraolimpijskich
257 Parasol
208 Pardubicach
1950 Paris
9302 Park
822 Parker
331 Parkera
408 Parkiem
262 Parkinsona
8016 Parku
231 Parków
631 Parlamencie
593 Parlament
537 Parlamentarnego
5849 Parlamentu
349 Parma
358 Parmie
602 Parmy
220 Parsęty
492 Part
4720 Partia
19553 Partii
208 Partizana
1795 Partią
1830 Partię
1422 Party
252 Partyjnej
209 Partyzantów
245 Partów
220 Paryskiego
411 Paryskiej
217 Paryskim
1808 Paryż
6523 Paryża
423 Paryżem
18643 Paryżu
213 Pas
548 Pascal
277 Pascala
680 Pasma
383 Pasmo
250 Paso
261 Pass
296 Pasterza
363 Pasza
318 Paszy
567 Pat
223 Patria
1277 Patriarchatu
571 Patriarchy
1196 Patrick
531 Patricka
281 Patriotycznego
247 Patrol
206 Patton
228 Patty
321 Pau
5218 Paul
3809 Paula
756 Paulem
202 Pauli
447 Paulina
250 Pauliny
747 Paulista
5746 Paulo
218 Pavel
7952 Paweł
322 Pawia
211 Pawiaka
436 Pawiaku
362 Pawii
281 Pawlak
11636 Pawła
748 Pawłem
340 Pawłowi
224 Pawłowice
259 Pawłowicz
434 Pawłowski
260 Pax
771 Paz
1448 Pałac
281 Pałacem
2298 Pałacu
210 Pańskie
3096 Pańskiego
810 Pańskiej
983 Państw
6274 Państwa
342 Państwie
1019 Państwo
572 Państwowa
1648 Państwowe
2864 Państwowego
4749 Państwowej
902 Państwowy
1694 Państwowych
1919 Państwowym
960 Państwową
437 Paśmie
470 Peace
487 Peak
1196 Pearl
450 Pedagogicznego
1188 Pedagogicznej
208 Pedagogiczny
220 Pedagogicznych
433 Pedagogicznym
541 Pedagogiki
1802 Pedro
200 Pegasus
480 Pegaza
227 Pekao
462 Pekin
4238 Pekinie
1110 Pekinu
208 Peloponezie
480 Pelplinie
236 Penn
288 Penny
1033 Pensylwania
855 Pensylwanii
372 Pentium
736 People
380 Peppers
370 Per
240 Percy
500 Perfect
500 Performance
663 Period
211 Perkins
278 Pernambuco
946 Perry
291 Pers
244 Perseusza
1097 Persji
878 Perskiej
232 Persowie
509 Persów
944 Perth
4550 Peru
420 Perugii
252 Pesaro
207 Petach
485 Pete
3596 Peter
2399 Petera
684 Peterem
214 Peters
747 Petersburg
1371 Petersburga
5069 Petersburgu
267 Petersburskiej
221 Peterson
273 Petit
365 Petra
531 Peugeot
235 Peugeota
564 Phil
384 Phila
644 Philip
496 Philipa
324 Philipp
612 Philippe
370 Philips
469 Phillips
1300 Phoenix
1079 PiS
229 Piacenzy
221 Piano
218 Piasecki
212 Piaseckiego
222 Piasecznie
313 Piaseczno
238 Piasek
797 Piaski
713 Piast
392 Piasta
1296 Piastów
356 Piazza
252 Picasso
260 Pico
828 Pictures
14779 Piechoty
229 Pieczęci
238 Piekarach
334 Piekary
1485 Piemont
234 Piemontu
325 Pienin
418 Pieninach
210 Pieniny
305 Pierce
1787 Pierre
650 Pierwsza
535 Pierwsze
745 Pierwszego
1470 Pierwszej
999 Pierwszy
359 Pierwszym
602 Pierścieni
350 Pierścienia
499 Pierścień
230 Pietrowicz
208 Pietrzak
1053 Pieśni
477 Pieśń
2307 Pikardia
2372 Pikardii
283 Pilawa
556 Pile
520 Pilicy
321 Pilicą
226 Pilotów
301 Pilzno
1079 Pink
314 Pinto
360 Pio
305 Pioneer
328 Piosenka
3767 Piosenki
7979 Piotr
8157 Piotra
1060 Piotrem
428 Piotrkowa
1191 Piotrkowie
319 Piotrkowskiej
539 Piotrków
352 Piotrogrodzie
423 Piotrowi
453 Piotrowski
211 Piotrowskiego
353 Pirenejach
1528 Pireneje
230 Pirenejów
326 Pireus
1039 Pisarzy
1145 Pisma
391 Pismo
223 Pistols
220 Pistons
218 Pisz
279 Pitt
229 Pitta
433 Pittsburgh
360 Pittsburghu
1492 Pius
2156 Piusa
211 Piwnicy
251 Pizarro
380 Pizie
211 Pizy
578 Piątek
919 Pięciu
252 Piękna
232 Pięknej
5367 Pięknych
864 Piła
1103 Piłce
208 Piłkarski
512 Piłkarskiej
236 Piłkarzem
2515 Piłki
1069 Piłsudski
3421 Piłsudskiego
210 Piłsudskim
331 Piły
232 Pińczowie
307 Pińsku
276 Pjongjangu
659 Pkt
969 Plac
860 Place
567 Placid
1885 Placu
614 Plan
375 Plancka
585 Planet
239 Planeta
582 Planicy
1031 Planowania
308 Plant
389 Planu
910 Plastycznych
562 Plastyków
1019 Plata
260 Plater
1173 Platformy
273 Platon
623 Platona
776 Play
1304 PlayStation
220 Playboy
375 Player
669 Plaza
4481 Plik
1003 Plus
287 Pluton
224 Plutona
807 Plymouth
232 Pniewy
2061 Po
435 Pobożnego
200 Pobożny
254 Pocieszenia
542 Poczdamie
254 Poczta
534 Poczty
270 Początek
839 Poczęcia
2077 Pod
1590 Podchorążych
395 Podgórze
206 Podgórzu
387 Podhala
460 Podhalańskich
333 Podhale
295 Podhalu
235 Podiebradów
246 Podkarpaciu
473 Podlasia
280 Podlasie
518 Podlasiu
508 Podlaska
828 Podlaski
365 Podlaskiego
819 Podlaskiej
750 Podlaskim
274 Podlesie
294 Podola
340 Podole
229 Podolski
230 Podolskiego
367 Podolskim
599 Podolu
310 Podróż
1187 Podstawowa
1237 Podstawowej
293 Podstawową
268 Podwiązki
330 Podwodnych
765 Podwyższenia
244 Podziemnego
453 Poe
209 Poego
216 Poetów
296 Poezji
882 Pogoni
228 Pogonią
350 Pogotowia
725 Pogoń
1019 Pogranicza
1155 Pogórza
411 Pogórze
843 Pogórzu
1371 Point
203 Poirot
471 Poitiers
1485 Pojezierza
425 Pojezierze
1487 Pojezierzu
201 Pokemon
202 Poker
230 Pokojowej
1502 Pokoju
518 Pokój
347 Pol
711 Pola
3425 Polacy
1561 Polak
946 Polaka
238 Polakach
757 Polakami
553 Polakiem
739 Polakom
10293 Polaków
301 Polan
578 Polana
1552 Poland
354 Polanie
507 Polany
456 Polaris
240 Polańskiego
936 Pole
203 Polek
242 Polesia
532 Polesie
340 Polesiu
942 Police
2207 Policji
270 Policy
390 Polinezji
2528 Politechnice
532 Politechnika
5778 Politechniki
239 Politechniką
381 Politechnikę
1148 Politycznego
662 Politycznej
1620 Politycznych
208 Politycznym
463 Polityka
1655 Polityki
457 Polka
311 Polki
339 Polkowice
236 Polką
504 Polo
548 Pologne
2678 Polonia
2450 Polonii
483 Polonią
260 Polowego
741 Polowej
1466 Polsat
237 Polsatu
127108 Polsce
11518 Polska
77950 Polski
11342 Polskich
4155 Polskie
34350 Polskiego
23445 Polskiej
354 Polskiemu
6341 Polskim
368 Polskokatolickiego
5020 Polską
5686 Polskę
494 Polu
236 Pomian
809 Pomnik
365 Pomnika
203 Pomoc
2478 Pomocy
379 Pomorska
925 Pomorski
225 Pomorskich
627 Pomorskie
1252 Pomorskiego
1201 Pomorskiej
575 Pomorskim
221 Pomorską
2506 Pomorza
1630 Pomorze
1885 Pomorzu
424 Pompejusza
593 Poniatowski
1757 Poniatowskiego
285 Pont
370 Ponte
348 Pontu
882 Pop
246 Pope
257 Popiełuszki
202 Poprad
351 Popradu
229 Popular
260 Poraj
666 Porażki
296 Porcie
898 Porozumienia
358 Porozumienie
953 Porsche
3824 Port
373 Porta
470 Porter
975 Portland
2762 Porto
720 Portoryko
528 Portret
1036 Portsmouth
582 Portu
203 Portugal
334 Portugalczycy
362 Portugalczyków
696 Portugalia
5576 Portugalii
541 Portugalią
272 Portugalię
397 Poręba
325 Porębie
338 Poręby
246 Posejdona
213 Poselskiego
719 Post
498 Postępu
880 Potocki
494 Potockich
950 Potockiego
2007 Potok
323 Potokiem
2056 Potoku
671 Potter
291 Pottera
202 Pour
349 Powell
1410 Power
524 Powiat
710 Powiatowego
951 Powiatowej
237 Powiatowy
216 Powiatowym
692 Powiatu
551 Powietrzne
900 Powietrznej
1963 Powietrznych
274 Powiślu
479 Powrót
1436 Powstania
257 Powstanie
475 Powstaniu
248 Powstańczej
739 Powstańców
253 Powszechna
853 Powszechnego
855 Powszechnej
353 Powszechny
677 Powszechnym
1574 Powązkach
878 Powązkowskim
4271 Poznania
371 Poznaniem
15818 Poznaniu
5662 Poznań
245 Poznańska
385 Poznański
309 Poznańskich
315 Poznańskie
1802 Poznańskiego
871 Poznańskiej
827 Poznańskim
233 Połocku
417 Połtawa
219 Połtawie
724 Południa
1168 Południe
2854 Południowa
498 Południowe
1368 Południowego
15437 Południowej
1201 Południowy
545 Południowych
1185 Południowym
1126 Południową
228 Połączonych
200 Pośredniej
211 Poświętne
675 Pożarna
1188 Pożarnej
275 Praca
779 Pracowni
223 Pracownia
674 Pracowników
228 Pracownię
350 Pracujących
6730 Pracy
437 Prado
5579 Pradze
1813 Praga
1904 Pragi
323 Pragę
443 Prasy
525 Pratt
2098 Praw
6371 Prawa
322 Prawda
385 Prawdy
376 Prawicy
295 Prawnych
1229 Prawo
4578 Prawosławnego
409 Prawosławnej
953 Prawosławny
419 Prawosławnym
3483 Premier
321 Premiera
205 Premio
201 Premium
271 Presley
436 Presleya
1187 Press
569 Preston
223 Pretorii
533 Prezes
1237 Prezesa
278 Prezesem
1556 Prezydent
3685 Prezydenta
2260 Prezydium
3283 Primera
867 Prince
320 Princess
732 Princeton
202 Prisztinie
10591 Prix
1735 Pro
286 Problemów
379 Produkcja
407 Produkcji
224 Prodziekan
1043 Program
381 Programie
355 Programowej
1469 Programu
1062 Project
676 Projekt
254 Projektowania
268 Projektu
352 Projektów
208 Prokuratora
436 Prokuratury
323 Promocji
548 Propagandy
212 Proroka
224 Prosto
252 Protektoratu
642 Prowansji
368 Prowincja
2058 Prowincji
5208 Prus
478 Prusa
1626 Prusach
226 Prusacy
268 Prusaków
585 Prusami
388 Pruskiego
314 Pruskiej
208 Prusom
1526 Prusy
304 Pruszcz
207 Pruszkowa
624 Pruszkowie
340 Pruszków
329 Prusów
206 Przasnysz
470 Przasnyszu
394 Przebojów
231 Przechód
258 Przeciw
799 Przeciwlotniczej
295 Przedmieścia
568 Przedmieście
458 Przedmieściu
1159 Przednie
346 Przedsiębiorczości
657 Przedsiębiorstwa
384 Przedsiębiorstwie
974 Przedsiębiorstwo
971 Przegląd
1179 Przeglądu
603 Przeglądzie
1086 Przemienienia
396 Przemysł
657 Przemysła
785 Przemysław
580 Przemysława
650 Przemysłowego
412 Przemysłowej
238 Przemysłowy
3539 Przemysłu
772 Przemyśl
779 Przemyśla
266 Przemyślidów
1858 Przemyślu
536 Przenajświętszej
201 Przestrzennej
479 Przewodniczącego
416 Przewodniczący
338 Przewodniczącym
204 Przeworska
446 Przeworsku
230 Przewozy
251 Przewozów
223 Przeznaczenia
219 Przełączka
1942 Przełęcz
1495 Przełęczy
698 Przełęczą
203 Przybylski
207 Przyfrontowych
378 Przygody
205 Przyjaciel
226 Przyjaciele
2918 Przyjaciół
684 Przyjaźni
217 Przylądek
862 Przylądka
404 Przylądkowej
421 Przymierza
296 Przyrodniczego
1005 Przyrody
351 Przysposobienia
230 Przyszłość
234 Prószyński
204 Prąd
269 Psalmów
207 Psary
802 Psychologii
325 Pszczynie
279 Psów
271 Ptolemeusz
759 Ptolemeusza
873 Public
594 Publiczna
1816 Publicznego
1223 Publicznej
532 Publicznych
343 Publishing
16052 Puchar
18615 Pucharu
490 Puchary
12277 Pucharze
1504 Pucharów
231 Puck
228 Pucku
362 Puebla
746 Puerto
299 Pulitzera
466 Puls
220 Punk
260 Punkt
231 Punta
212 Pustelni
343 Pustyni
663 Puszcza
3217 Puszczy
217 Puszczę
326 Puszkina
203 Putin
233 Putina
331 Pułaskiego
214 Puław
653 Puławach
380 Puławy
6487 Pułk
620 Pułkiem
10407 Pułku
401 Pułtusku
309 Python
1265 Północ
2176 Północna
803 Północne
2002 Północnego
12792 Północnej
886 Północny
519 Północnych
2021 Północnym
1247 Północną
749 Północy
835 Półwysep
1324 Półwyspie
1672 Półwyspu
512 Płaskowyżu
878 Płock
666 Płocka
1742 Płocku
229 Płomień
455 Płowdiw
202 Płyta
233 Płyty
1045 PŚ
489 Qin
443 Qing
1031 Quebec
823 Quebecu
1791 Queen
840 Queens
799 Queensland
221 Quest
221 Quilmes
231 Quinn
614 Quito
223 Qumran
302 Quo
1708 RAF
652 RAM
205 RAN
263 RAW
401 RB
905 RC
567 RFC
3550 RFN
268 RKS
576 RMF
807 RNA
445 ROA
244 ROM
13850 RP
3380 RPA
377 RPG
263 RTL
225 Ra
208 Rabce
201 Rabin
263 Raby
767 Race
686 Rachel
550 Raciborza
786 Raciborzu
499 Racibórz
2939 Racing
384 Racingu
670 Rad
5320 Rada
4985 Radia
534 Radiem
4007 Radio
250 Radiofonii
205 Radiowej
957 Radiu
1042 Radom
891 Radomia
2384 Radomiu
215 Radomska
281 Radomsko
300 Radomsku
616 Radosław
310 Radosława
231 Radwan
28111 Rady
3492 Radzie
348 Radziecka
1191 Radziecki
635 Radzieckich
4864 Radzieckiego
1728 Radzieckiej
1347 Radzieckim
251 Radziecką
266 Radziejowej
685 Radziwiłł
800 Radziwiłła
550 Radziwiłłów
217 Radzyń
521 Radą
2710 Radę
202 Raf
763 Rafael
722 Rafaela
212 Rafaelem
1427 Rafał
767 Rafała
316 Rai
402 Raj
283 Raja
567 Rajd
528 Rajdowych
666 Rajdu
1476 Rajdzie
297 Rajmund
331 Rajmunda
267 Raju
261 Raka
219 Rakietowych
377 Rakoczego
616 Rakowickim
272 Raków
622 Rally
519 Ralph
307 Ralpha
371 Ram
223 Rama
211 Ramon
378 Ramzesa
343 Randy
378 Range
259 Ranger
1692 Rangers
309 Rap
312 Rapids
233 Raport
437 Ras
305 Ratusz
235 Ratusza
350 Ratyzbona
310 Ratyzbonie
220 Ratyzbony
453 Ravensbrück
414 Rawa
216 Rawenny
503 Rawicz
257 Rawiczu
255 Rawie
1172 Ray
588 Raya
655 Raymond
389 Raymonda
314 Razem
253 Rdz
457 Re
775 Reading
227 Reagan
348 Reagana
2235 Real
704 Realem
333 Realnej
1802 Realu
561 Recife
3918 Red
267 Redakcji
213 Redakcyjnego
371 Reed
205 Referatu
406 Reform
242 Reformacji
309 Reggae
605 Reggio
362 Regi
692 Regiment
245 Regimentu
421 Regina
467 Region
510 Regionalne
928 Regionalnego
672 Regionalnej
288 Regionalny
478 Regionalnych
2230 Regionie
3145 Regionu
383 Regionów
213 Rehabilitacji
257 Rei
364 Reich
630 Reichstagu
303 Reid
827 Reims
236 Reinhard
331 Reja
412 Rejestru
417 Rejon
562 Rejonowego
211 Rejonowej
386 Rejonowy
559 Rejonu
444 Rekreacji
224 Rektora
449 Religijnych
458 Rembertowie
415 Rembrandta
375 Remo
1371 Ren
288 Renata
248 Renato
2848 Renault
354 Renem
536 Rennes
299 Reno
899 Renu
1009 René
253 Report
637 Reprezentacja
418 Reprezentacji
2893 Reprezentantów
3611 Republice
484 Republik
2354 Republika
1004 Republikańskiej
214 Republikańską
13126 Republiki
1079 Republiką
1095 Republikę
265 Requiem
203 Res
241 Resko
214 Resort
265 Restituta
328 Return
210 Reunion
284 Revue
355 Rewizyjnej
952 Rewolucji
239 Rewolucyjnego
457 Rewolucyjnej
381 Rex
540 Rey
328 Reymonta
237 Reynolds
591 Rezerwat
250 Rezerwowej
848 Rezerwy
247 Rezolucja
215 Reżyser
1195 Reżyseria
305 Reżyserii
477 Rhode
236 Riazaniu
903 Ricardo
402 Rice
373 Rich
3135 Richard
2482 Richarda
488 Richardem
316 Richards
406 Richardson
406 Richelieu
840 Richmond
253 Richter
386 Richtera
649 Rick
440 Ricka
222 Ricky
410 Rico
344 Ride
242 Rider
840 Ridge
242 Riemanna
529 Right
368 Rights
264 Rihanna
243 Rihanny
207 Rijece
219 Rijeka
201 Riksdagu
359 Rimini
735 Ring
7130 Rio
479 Rioja
317 Rita
219 Ritchie
3160 River
285 Rivera
1976 Road
264 Roads
483 Rob
267 Robbie
6556 Robert
5451 Roberta
1105 Robertem
1178 Roberto
215 Robertowi
566 Roberts
379 Robertson
1045 Robin
323 Robina
733 Robinson
311 Robinsona
411 Robotnicza
