
\data\
ngram 1=44476
ngram 2=579

\1-grams:
1 <unk>
1 <s>
1 </s>
1 <num>
257 АБА
363 АГ
310 АД
290 АЗ
291 АЗС
10298 АН
6625 АО
516 АР
8404 АССР
448 АТС
517 АТФ
310 АУ
262 АХ
3110 АЭС
406 Абакан
450 Абдул
364 Абдулла
276 Абердин
272 Абрам
334 Абрамов
652 Абрамович
1883 Абу
2768 Абхазии
861 Абхазия
965 Авангард
2157 Август
3010 Августа
264 Августе
582 Августом
271 Августу
302 Авеню
268 Авиакомпания
416 Авила
251 Авиньон
269 Авиньона
814 Аврора
250 Авроры
291 Австралией
13531 Австралии
306 Австралийского
377 Австралийской
1639 Австралию
3131 Австралия
1050 Австрией
10030 Австрии
463 Австрийская
328 Австрийского
1320 Австрийской
1144 Австрию
3061 Австрия
334 Автомобилист
984 Автономной
360 Автор
341 Ага
329 Агата
411 Агаты
614 Агентства
483 Агентство
560 Агломерация
336 Ад
583 Ада
2015 Адам
1692 Адама
478 Адамом
428 Аделаида
395 Аделаиды
348 Адель
512 Адлер
1596 Администрации
361 Администрация
948 Адмирал
693 Адмиралтейства
305 Адмиралтейство
276 Адрес
819 Адриан
989 Адриана
368 Адриатического
551 Адыгея
2040 Азербайджан
6609 Азербайджана
1935 Азербайджане
374 Азербайджаном
473 Азербайджанская
338 Азербайджанский
559 Азербайджанского
2903 Азербайджанской
787 Азиатских
280 Азиатской
373 Азией
16577 Азии
2415 Азию
1611 Азия
454 Азов
425 Азова
882 Азовского
267 Азовской
264 Азорские
286 Аида
631 Ай
1178 Айдахо
692 Айова
615 Академией
18929 Академии
264 Академик
518 Академика
312 Академический
400 Академического
268 Академической
3131 Академию
1784 Академия
482 Аквариум
285 Аквариума
298 Аки
715 Акт
407 Акта
691 Алабама
1547 Алан
873 Алана
401 Аланом
439 Алатау
436 Алатырь
2328 Албании
306 Албанию
607 Албания
290 Алей
1908 Алекс
3624 Алекса
24982 Александр
22850 Александра
1019 Александре
1460 Александрии
464 Александрийский
424 Александрийского
308 Александрийской
538 Александрию
520 Александрия
751 Александров
419 Александрова
6590 Александрович
2024 Александровича
377 Александровичем
418 Александровичу
1660 Александровна
581 Александровны
288 Александрой
4574 Александром
2952 Александру
1077 Александры
1156 Алексе
905 Алексеев
600 Алексеева
3186 Алексеевич
1035 Алексеевича
884 Алексеевна
439 Алексеевны
1459 Алексеем
8564 Алексей
831 Алексею
5305 Алексея
410 Алексием
1047 Алексий
1217 Алексия
329 Алексом
710 Ален
561 Алена
1003 Алжир
1280 Алжира
973 Алжире
4321 Али
616 Алиев
602 Алиева
337 Аликанте
1281 Алиса
732 Алисы
714 Алла
306 Аллах
538 Аллаха
622 Аллее
1183 Аллен
607 Аллена
497 Аллы
367 Алмаз
639 Алтае
1891 Алтай
505 Алтайский
1694 Алтайского
1114 Алтайском
780 Алтая
650 Аль
1938 Альберт
2073 Альберта
459 Альбертом
311 Альберты
476 Альбион
551 Альбом
250 Альбукерке
663 Альп
689 Альпах
1163 Альпы
787 Альфа
501 Альфонс
522 Альфонса
1433 Альфред
1361 Альфреда
419 Альфредом
627 Альянс
670 Альянса
750 Аляска
587 Аляске
915 Аляски
362 Амазонки
258 Амалия
323 Амвросий
319 Амвросия
2266 Америка
583 Американская
763 Американский
1447 Американского
2527 Американской
321 Американском
11779 Америке
15090 Америки
428 Америкой
3346 Америку
255 Амин
343 Амина
1338 Амстердам
720 Амстердама
1675 Амстердаме
831 Амур
792 Амура
343 Амурского
1058 Амурской
323 Ан
672 Анастасии
1498 Анастасия
521 Анатолием
715 Анатолии
3612 Анатолий
419 Анатолию
1744 Анатолия
1016 Анатольевич
280 Анатольевна
261 Анатомия
360 Ангара
300 Ангары
744 Ангел
569 Ангела
342 Ангелов
367 Ангелы
1425 Англией
24498 Англии
315 Английский
273 Английского
528 Английской
4895 Англию
5213 Англия
320 Ангола
358 Анголе
607 Анголы
495 Анд
286 Андалусии
853 Андалусия
282 Андах
511 Андорры
3374 Андре
850 Андреев
2836 Андреевич
904 Андреевича
615 Андреевна
375 Андреевский
283 Андреевской
1495 Андреем
9191 Андрей
714 Андрею
6063 Андрея
302 Андромеды
408 Анжу
275 Анжуйский
385 Анжуйского
472 Ани
275 Анкаре
6009 Анна
1457 Анне
996 Анной
606 Анну
5288 Анны
2462 Анри
1273 Антанты
374 Антарктиде
635 Антарктиды
272 Антарктике
287 Антарктики
533 Антверпен
299 Антверпена
655 Антверпене
366 Антильских
2385 Антон
1481 Антона
660 Антонина
3478 Антонио
503 Антонов
339 Антонова
707 Антонович
435 Антоном
647 Антуан
442 Антуана
925 Аполлон
657 Аполлона
355 Апостол
293 Апостола
448 Апостолов
370 Апостольский
546 Апостольской
336 Арабских
435 Арабского
342 Арабской
2013 Аравии
379 Аравийского
276 Аравию
577 Аравия
1131 Арагон
868 Арагона
538 Арарат
266 Арбат
1584 Аргентина
1998 Аргентине
304 Аргентиной
734 Аргентину
4191 Аргентины
257 Аргун
316 Арденны
628 Арена
1083 Аризона
256 Аризоне
423 Аризоны
365 Аристотель
960 Аристотеля
347 Ариэль
439 Ария
274 Арка
897 Аркадий
852 Аркадия
305 Аркадьевич
965 Арканзас
359 Арктике
642 Арктики
414 Арменией
9008 Армении
919 Армению
1772 Армения
804 Армией
15513 Армии
3365 Армию
1268 Армия
601 Армянская
448 Армянского
1804 Армянской
954 Арнольд
663 Арнольда
1628 Арсенал
1003 Арсенала
700 Арсений
380 Арсения
413 Арт
2353 Артур
2051 Артура
583 Артуром
755 Архангела
1177 Архангельск
850 Архангельска
357 Архангельская
724 Архангельске
450 Архангельский
705 Архангельского
285 Архангельское
3100 Архангельской
395 Архангельском
295 Архив
304 Архиепископ
487 Архиерейского
271 Архиерейском
252 Архистратига
302 Ассамблее
265 Ассамблеей
1054 Ассамблеи
477 Ассамблея
622 Ассирии
517 Ассоциацией
3516 Ассоциации
463 Ассоциацию
1325 Ассоциация
1387 Астрахани
269 Астраханский
543 Астраханского
1189 Астраханской
1096 Астрахань
684 Атланта
1302 Атланте
783 Атлантике
669 Атлантики
454 Атлантику
614 Атлантический
1548 Атлантического
501 Атлантическом
400 Атланты
533 Атлас
939 Атлетик
341 Аугсбург
265 Аугсбурга
333 Аугсбурге
689 Афанасий
574 Афанасия
403 Афанасьев
539 Афанасьевич
1539 Афганистан
1781 Афганистана
2192 Афганистане
278 Афганской
1174 Афин
2945 Афинах
362 Афинского
263 Афинской
1835 Афины
394 Афон
266 Афоне
1539 Африка
427 Африканского
6406 Африке
7923 Африки
1716 Африку
284 Ахеменидов
299 Ахматовой
1078 Ахмед
515 Ахмеда
371 Ашхабад
327 Ашхабаде
1228 Аэропорт
271 Аэрофлот
483 БТР
908 Ба
502 Баба
250 Баварией
2639 Баварии
537 Баварию
2594 Бавария
406 Баварского
489 Баварской
302 Багамских
549 Багдад
596 Багдада
505 Багдаде
384 Багратион
302 Баден
601 Базеле
513 Базель
251 Базеля
826 Байкал
409 Байкала
273 Байковом
556 Байконур
332 Байрон
398 Байрона
318 Бак
256 Бакинский
549 Бакинского
369 Бакинской
6105 Баку
291 Балашиха
389 Бали
404 Балка
438 Балкан
976 Балканах
326 Балканских
411 Балканского
451 Балканской
525 Балканы
700 Балтийский
333 Балтийским
4326 Балтийского
426 Балтийское
414 Балтийской
1209 Балтийском
1890 Балтийскому
276 Балтика
471 Балтике
406 Балтики
261 Балтику
547 Балтимор
330 Балтиморе
287 Бангкок
374 Бангкоке
2528 Бангладеш
273 Бани
1769 Банк
1451 Банка
321 Банком
503 Бар
302 Бара
439 Барак
480 Барака
343 Баранов
319 Барановичи
404 Баренцева
328 Баренцево
926 Барнаул
602 Барнаула
570 Барнауле
270 Барон
289 Барс
1658 Барселона
2098 Барселоне
676 Барселону
1582 Барселоны
664 Басков
255 Бассейн
475 Бассейны
320 Батиста
591 Батуми
497 Бах
1212 Баха
324 Бахрейна
954 Башкирии
316 Башкирская
265 Башкирский
780 Башкирского
1067 Башкирской
284 Башни
511 Башня
468 Беатрис
725 Без
1313 Безопасности
300 Бей
259 Бейрут
261 Бейрута
327 Бейруте
549 Бек
288 Бека
456 Бела
3041 Белая
633 Белгород
353 Белгорода
267 Белгороде
362 Белгородского
1220 Белгородской
1114 Белград
605 Белграда
1368 Белграде
335 Белинского
802 Белл
595 Белла
495 Белов
3292 Белого
1094 Белое
321 Белозерска
3173 Белой
694 Белом
328 Белоруссией
8545 Белоруссии
706 Белоруссию
1276 Белоруссия
646 Белорусская
1534 Белорусский
3804 Белорусского
2364 Белорусской
1106 Белорусском
273 Белосток
314 Белую
250 Белфаст
251 Белфасте
353 Белы
579 Белые
2034 Белый
291 Белым
370 Белых
290 Бельгией
6698 Бельгии
857 Бельгию
1950 Бельгия
275 Бельцы
468 Беляев
304 Беляева
403 Бендер
423 Бендеры
1065 Бенедикт
670 Бенедикта
323 Бенедиктом
380 Бергамо
295 Берген
834 Берег
318 Берега
267 Береговой
645 Березники
360 Березовский
344 Березовского
1423 Беркли
5367 Берлин
3697 Берлина
8493 Берлине
308 Берлином
636 Берлинский
1075 Берлинского
1736 Берлинской
990 Берлинском
627 Берн
270 Берна
502 Берне
256 Бернулли
288 Берроуза
403 Берта
1422 Бессарабии
346 Бессарабию
317 Бессарабия
704 Бессарабской
313 Бет
271 Бетховен
1189 Бетховена
2686 Библии
797 Библиотека
429 Библиотеке
577 Библиотеки
365 Библию
471 Библия
253 Бизнес
1603 Билл
1023 Билла
2232 Билли
445 Биллом
588 Бильбао
400 Бирме
630 Бирмингем
381 Бирмингема
474 Бирмингеме
532 Бирмы
472 Бисмарк
497 Бисмарка
1145 Битва
713 Битве
573 Битвы
552 Битлз
368 Бич
540 Благовещения
315 Благовещенский
391 Благовещенского
294 Благовещенском
312 Благочестивого
1263 Ближнего
1325 Ближнем
541 Ближний
683 Блок
587 Блока
562 Блуа
505 Блюз
1755 Боб
1180 Боба
1491 Бобби
507 Бобом
741 Бобруйск
421 Бобруйского
2377 Бог
3718 Бога
886 Богдан
1199 Богдана
445 Богданов
348 Богданович
255 Боге
855 Богемии
304 Богемской
1178 Богом
1285 Богоматери
279 Богоматерь
252 Богородица
4467 Богородицы
283 Богородского
705 Богослова
297 Богоявления
255 Богоявленского
1407 Богу
431 Боевой
311 Боже
457 Божественной
3139 Божией
668 Божий
711 Божия
313 Божьего
899 Божьей
424 Боинг
326 Бой
329 Бойко
519 Бока
404 Болгарией
12397 Болгарии
1228 Болгарию
1988 Болгария
1353 Болгарская
295 Болгарский
420 Болгарского
291 Болгарское
666 Болгарской
1450 Боливии
414 Боливия
275 Бологое
627 Болонье
385 Болоньи
500 Болонья
251 Больцано
4914 Большая
546 Большевик
1025 Большие
606 Большим
358 Больших
7782 Большого
2776 Большое
11559 Большой
1678 Большом
321 Большому
685 Большую
438 Бон
480 Бонапарт
560 Бонапарта
362 Бонд
300 Бонн
562 Бонне
1022 Бор
687 Бора
377 Борджиа
1594 Бордо
709 Бори
5886 Борис
4456 Бориса
770 Борисов
1504 Борисович
404 Борисовича
378 Борисовна
1084 Борисом
524 Борису
292 Борна
528 Борнео
266 Боровичи
434 Боровичского
411 Бородино
252 Бородинского
343 Борьба
2463 Боснии
280 Боснию
682 Босния
1799 Бостон
762 Бостона
1069 Бостоне
338 Ботанический
460 Ботанического
503 Браво
766 Брага
305 Браге
331 Бразилией
15649 Бразилии
1014 Бразилию
2414 Бразилия
276 Брайтон
713 Бранденбург
476 Бранденбурга
264 Брат
280 Братислава
448 Братиславе
534 Братства
418 Братство
689 Братья
287 Брауншвейг
327 Брежнева
362 Бремен
384 Бремене
805 Брест
534 Бреста
426 Бресте
447 Брестского
826 Брестской
1098 Бретани
596 Бретань
268 Бри
260 Бридж
487 Бристоль
3352 Британии
678 Британию
701 Британия
1223 Британская
250 Британские
505 Британский
735 Британских
1229 Британского
4528 Британской
433 Британском
789 Брно
285 Бродский
357 Бродского
259 Брунея
1711 Бруно
696 Брюгге
1769 Брюсселе
954 Брюссель
460 Брюсселя
846 Брянск
464 Брянска
320 Брянске
473 Брянский
1208 Брянского
1840 Брянской
726 Брянском
708 Буг
424 Буга
1213 Будапешт
695 Будапешта
1428 Будапеште
260 Будапештской
316 Будда
959 Будды
260 Булл
292 Бун
275 Буран
495 Бурбон
636 Бурбонов
552 Бургос
1238 Бургундии
397 Бургундия
300 Бургундского
578 Буревестник
359 Бурунди
556 Буря
793 Бурятии
486 Бурятия
274 Бурятского
292 Бут
351 Бутан
838 Бутана
409 Бутане
326 Бутырской
443 Буффало
403 Бухаре
714 Бухарест
321 Бухареста
894 Бухаресте
260 Бухару
427 Бухары
449 Быков
261 Быково
5942 Бюро
537 ВАК
2705 ВВП
10890 ВВС
592 ВДВ
731 ВДНХ
709 ВИЧ
2051 ВЛКСМ
4614 ВМФ
830 ВОВ
580 ВОЗ
278 ВУЗ
425 ВЦСПС
338 Вавилова
511 Вавилон
482 Вавилона
464 Вага
539 Ваганьковском
712 Вагнер
990 Вагнера
1491 Вадим
721 Вадима
255 Вадимом
600 Вайоминг
600 Вал
251 Валдайской
534 Вале
1074 Валенсии
281 Валенсию
1310 Валенсия
1582 Валентин
1933 Валентина
332 Валентинович
373 Валентины
460 Валерием
3025 Валерий
1806 Валерия
312 Валерьевич
1155 Вальтер
876 Вальтера
273 Вальтером
543 Вам
4536 Ван
260 Ванесса
972 Ванкувер
348 Ванкувера
2118 Ванкувере
289 Ваня
613 Варвара
479 Варвары
250 Варны
1811 Варшава
3722 Варшаве
429 Варшавский
2038 Варшавского
579 Варшавской
585 Варшавском
1190 Варшаву
1859 Варшавы
620 Вас
1761 Васи
1263 Василием
251 Василии
7736 Василий
1018 Василию
6166 Василия
1444 Васильев
882 Васильева
6264 Васильевич
2205 Васильевича
353 Васильевичем
542 Васильевичу
1293 Васильевна
320 Васильевны
385 Ватерлоо
480 Ватикан
824 Ватикана
436 Ватикане
380 Ватиканского
254 Ваше
3931 Вашингтон
1444 Вашингтона
2180 Вашингтоне
453 Введение
253 Введения
409 Вебер
399 Вебера
630 Вега
2406 Ведомости
304 Веймар
346 Веймаре
513 Веймарской
289 Век
2737 Великая
1446 Великие
5074 Великий
1792 Великим
1544 Великих
1385 Великобританией
24944 Великобритании
1970 Великобританию
5901 Великобритания
11030 Великого
1100 Великое
38965 Великой
391 Великолукском
1635 Великом
808 Великому
1225 Великую
2201 Величества
415 Веллингтон
287 Веллингтона
1734 Вена
521 Венгерского
892 Венгерской
621 Венгрией
8090 Венгрии
1334 Венгрию
2032 Венгрия
4972 Вене
693 Венера
264 Венере
1334 Венеры
718 Венесуэла
724 Венесуэле
1228 Венесуэлы
294 Венецианского
742 Венецианской
344 Венецией
3270 Венеции
717 Венецию
1099 Венеция
512 Вениамин
302 Вениамина
421 Венский
871 Венского
1074 Венской
618 Венском
1425 Вену
1527 Вены
1985 Вера
320 Вере
424 Вермахта
324 Вермонт
312 Верна
263 Верой
314 Верона
287 Вероне
554 Вероника
571 Вероники
333 Версале
259 Версаль
345 Версальского
260 Версаля
2065 Верхневолжскому
886 Верхнего
460 Верхнее
3194 Верхней
395 Верхнем
376 Верхние
1739 Верхний
288 Верхнюю
7934 Верхняя
21745 Верховного
1502 Верховной
505 Верховном
273 Верховную
2692 Верховный
1051 Верховным
986 Веры
723 Весна
1357 Вест
572 Вести
1281 Вестник
426 Вестнике
339 Вестфалии
563 Вестфалия
319 Ветер
335 Ветеран
696 Ветлуга
598 Ветхого
323 Вечер
370 Вечерний
356 Вечный
359 Взгляд
879 Вид
468 Видео
627 Византией
2775 Византии
852 Византийской
373 Византию
399 Византия
321 Вик
305 Вики
291 Викинг
7104 Виктор
4227 Виктора
287 Викторией
2187 Виктории
2699 Виктория
1252 Викторович
342 Викторовна
1146 Виктором
545 Виктору
627 Вилла
288 Вилле
414 Виллы
4285 Вильгельм
4684 Вильгельма
981 Вильгельмом
557 Вильгельму
881 Вильнюс
549 Вильнюса
1002 Вильнюсе
393 Вильнюсского
327 Вильсон
373 Вильсона
266 Вин
319 Винни
321 Виннипег
270 Винница
287 Виннице
1472 Винницкая
727 Винницкой
478 Виноградов
573 Виргинии
1107 Виргиния
551 Вирджинии
774 Вирджиния
752 Висконсин
570 Висла
374 Вислу
709 Вислы
428 Вита
284 Виталием
1790 Виталий
818 Виталия
2305 Витебск
520 Витебска
298 Витебская
636 Витебске
366 Витебского
1611 Витебской
274 Витебском
325 Вито
497 Витязь
497 Виши
1479 Владивосток
1072 Владивостока
1142 Владивостоке
456 Владикавказ
405 Владикавказе
15391 Владимир
9900 Владимира
695 Владимире
3414 Владимирович
725 Владимировича
1014 Владимировна
2463 Владимиром
505 Владимирская
772 Владимирский
675 Владимирского
2714 Владимирской
1214 Владимиру
1748 Владислав
1531 Владислава
357 Владиславом
347 Власов
279 Власова
343 Властелин
310 Власть
334 Внуково
651 Внутренней
456 Внутренних
328 Внутренняя
1952 Во
254 Водской
508 Воды
585 Военная
2505 Военного
302 Военное
3070 Военной
406 Военном
1856 Военную
1036 Военный
319 Военным
873 Возвращение
682 Вознесения
386 Вознесенский
378 Вознесенского
607 Возрождение
2082 Возрождения
1200 Война
533 Войне
2295 Войны
315 Войск
2314 Войска
524 Вокзал
389 Вокруг
5622 Волга
1677 Волге
4091 Волги
760 Волгоград
628 Волгограда
479 Волгограде
369 Волгоградского
1581 Волгоградской
372 Волгой
1432 Волгу
367 Волжский
397 Волжского
490 Волжской
491 Волк
1040 Волков
325 Волна
585 Вологда
820 Вологде
348 Вологду
1577 Вологды
317 Вологодская
303 Вологодский
628 Вологодского
4900 Вологодской
350 Волоколамска
387 Волоколамского
376 Волоколамском
320 Волопас
399 Волосы
1294 Волхов
376 Волхова
548 Волховского
1281 Волынская
335 Волынский
417 Волынского
1070 Волынской
566 Волынь
356 Вольного
253 Вольта
251 Вольтер
386 Вольтера
398 Воля
317 Вон
1732 Вооруженных
660 Вопросы
253 Ворон
400 Ворона
1833 Воронеж
1122 Воронежа
1337 Воронеже
392 Воронежская
701 Воронежский
1798 Воронежского
2902 Воронежской
697 Воронежском
260 Воронов
308 Воронцов
372 Воронцова
436 Ворота
328 Ворошилова
273 Воскресение
788 Воскресения
555 Воскресенский
769 Воскресенского
298 Воскресенской
447 Воспоминания
281 Восстание
366 Восстания
4158 Восток
5528 Востока
4632 Востоке
308 Востоком
404 Востоку
1841 Восточная
2913 Восточного
473 Восточное
10759 Восточной
2408 Восточном
1248 Восточную
285 Восточные
2555 Восточный
293 Восточным
499 Восточных
459 Восход
322 Вот
319 Впервые
787 Врангеля
269 Врата
491 Времени
1972 Временного
812 Временное
292 Временный
360 Временным
319 Вроцлав
261 Вроцлаве
1445 Все
954 Всеволод
806 Всеволода
293 Всеволодович
311 Всеволодовича
314 Всеволожского
538 Всего
920 Вселенная
2127 Вселенной
316 Вселенского
543 Всемирная
3862 Всемирного
2778 Всемирной
396 Всемирном
267 Всемирную
911 Всемирный
467 Всемирных
266 Всеобщей
377 Всероссийская
1016 Всероссийский
309 Всероссийских
2364 Всероссийского
5124 Всероссийской
672 Всероссийском
2233 Всесоюзного
2530 Всесоюзной
778 Всесоюзном
785 Всесоюзный
286 Всесоюзных
384 Всеукраинского
1088 Всех
312 Встреча
322 Вся
735 Всё
1136 Вт
1355 Вторая
2150 Второго
394 Второе
23996 Второй
886 Втором
993 Вторую
264 Вулкан
409 Входит
1246 Вы
441 Выбор
714 Выборг
424 Выборга
423 Выборге
580 Выборгского
892 Выборгской
385 Выборгском
310 Высокий
293 Высокого
336 Высокое
946 Высокопреосвященство
318 Высота
393 Высоцкий
429 Высоцкого
721 Высочайше
408 Высочайшего
301 Высочайшее
422 Высочайшему
387 Высочайшим
379 Высочества
251 Выставка
534 Выстрел
638 Высшая
1399 Высшего
735 Высшее
5218 Высшей
541 Высшем
1137 Высшие
739 Высший
784 Высших
1902 Высшую
317 Выход
2177 Вычегда
450 Вычегды
273 Вышневолоцкого
1519 Вьетнам
2268 Вьетнама
2173 Вьетнаме
582 Вьетнамской
279 Вяземский
319 Вяземского
402 Вяземском
1745 Вязьма
552 Вязьмы
1625 Вятка
294 Вятке
461 Вятки
281 Вятского
1003 Вятской
2006 Вячеслав
851 Вячеслава
250 Вячеславович
316 Вячеславом
321 ГА
441 ГАЗ
891 ГГц
4821 ГДР
567 ГЕРБ
1511 ГОСТ
821 ГПУ
1023 ГРЭС
254 ГУЛАГ
298 ГУЛАГа
6306 ГЭС
588 Га
250 Гаага
727 Гааге
336 Габона
834 Гавайи
443 Гавайских
314 Гавайях
343 Гаване
261 Гавань
688 Гавриил
462 Гавриила
542 Гаврилович
596 Гага
596 Гагарин
1420 Гагарина
993 Газа
258 Газе
500 Газета
1151 Газпром
329 Газпрома
487 Газы
1323 Гаити
1171 Гай
261 Гайдара
491 Галактики
254 Галерее
540 Галерея
261 Галилей
427 Галилея
1122 Галина
361 Галины
444 Галисии
423 Галисия
273 Галифакс
478 Галич
907 Галле
1118 Галлии
430 Галлию
498 Гама
287 Гамбии
1322 Гамбург
850 Гамбурга
1666 Гамбурге
878 Гамильтон
425 Гамильтона
351 Гамлет
284 Гамлета
304 Ган
499 Гана
614 Ганди
298 Гане
314 Ганнибал
328 Ганнибала
649 Ганновер
404 Ганновера
510 Ганновере
883 Ганс
805 Ганса
292 Гансом
755 Ганы
401 Гарварде
377 Гарвардский
616 Гарвардского
626 Гарвардском
660 Гари
533 Гарибальди
3646 Гарри
291 Гатчина
301 Гатчине
361 Гатчинского
289 Гаусса
815 Гая
477 Гвадалахара
252 Гвардейский
390 Гвардейского
282 Гвардейской
498 Гвардии
258 Гвардия
437 Гватемала
393 Гватемале
648 Гватемалы
733 Гвинее
1489 Гвинеи
958 Гвинея
256 Гданьск
353 Гейне
258 Гейтс
427 Генерал
482 Генеральная
5518 Генерального
1557 Генеральной
597 Генеральном
416 Генеральному
1568 Генеральный
634 Генеральным
274 Геннадием
1708 Геннадий
766 Геннадия
270 Геннадьевич
5957 Генри
5581 Генрих
7082 Генриха
256 Генрихе
1416 Генрихом
904 Генриху
441 Генуе
509 Генуи
311 Генуя
1451 Генштаба
422 Географического
1960 Георг
2130 Георга
307 Георге
345 Георги
457 Георгиев
1192 Георгиевич
263 Георгиевна
372 Георгиевский
474 Георгиевским
369 Георгиевского
254 Георгиевской
635 Георгием
4284 Георгий
342 Георгию
4566 Георгия
515 Георгом
301 Гера
344 Геракла
377 Герасимов
563 Герб
272 Гербовник
292 Гербовника
471 Геркулес
1949 Герман
1482 Германа
3516 Германией
44566 Германии
5686 Германию
9591 Германия
462 Германом
474 Германская
512 Германского
1524 Германской
250 Геродот
364 Геродота
1371 Героев
707 Герои
8846 Герой
9756 Героя
633 Герцеговина
469 Герцеговине
1303 Герцеговины
255 Герцог
1073 Гессен
549 Гибралтар
472 Гибралтара
349 Гидра
774 Гильдии
369 Гималаев
320 Гималаях
259 Гирей
1768 Гитлер
2541 Гитлера
502 Гитлером
349 Гитлеру
845 Глава
417 Главная
5743 Главного
1067 Главное
1552 Главной
566 Главнокомандования
1042 Главнокомандующего
276 Главнокомандующий
781 Главном
357 Главному
1374 Главный
578 Главным
447 Главой
702 Главы
1937 Глазго
660 Глеб
756 Глеба
291 Глебов
358 Глинка
350 Глинки
432 Глобус
291 Глостер
1098 Го
299 Гоголь
903 Гоголя
353 Гойя
561 Голицын
592 Голицына
2862 Голландии
665 Голландию
861 Голландия
513 Голландской
897 Голливуд
753 Голливуда
1259 Голливуде
400 Голливудской
290 Голова
1144 Голос
295 Голоса
312 Голубая
563 Голубой
380 Гомеле
2722 Гомель
1415 Гомельского
1527 Гомельской
2928 Гомеля
874 Гомер
1066 Гомера
422 Гоминьдана
365 Гондурас
596 Гондураса
991 Гонконг
1163 Гонконга
1323 Гонконге
452 Гонолулу
327 Гончаров
251 Гончие
504 Гор
1666 Гора
259 Горация
1376 Гордон
797 Гордона
521 Горе
398 Гори
863 Горка
596 Горки
285 Горн
459 Горного
285 Горном
537 Горный
2486 Город
576 Городище
367 Городка
540 Городок
433 Городская
603 Городского
1325 Городской
921 Горы
853 Горький
279 Горьковский
820 Горьковского
324 Горьковское
704 Горьковской
1811 Горького
388 Горьком
316 Госбанка
384 Госдуму
939 Госдумы
802 Господа
1600 Господня
309 Господу
737 Господь
310 Государств
658 Государства
1183 Государственная
8269 Государственного
686 Государственное
10864 Государственной
2380 Государственном
1751 Государственную
6831 Государственный
895 Государственным
488 Государственных
473 Государство
272 Государь
467 Государя
292 Гота
298 Гофман
351 Гофмана
271 Град
439 Граждане
669 Гражданская
367 Гражданский
626 Гражданского
6067 Гражданской
295 Гражданскую
419 Гран
406 Гранада
288 Гранады
514 Гранд
1074 Грант
645 Гранта
903 Граф
291 Грац
272 Граце
1059 Грей
1198 Гренландии
313 Гренобле
645 Гренобля
537 Грецией
9506 Греции
1515 Грецию
2103 Греция
547 Греческой
484 Грея
316 Грибоедова
814 Григорием
4306 Григорий
462 Григорию
3155 Григория
2714 Григорьевич
662 Григорьевича
448 Григорьевна
1345 Грин
583 Грина
255 Гринвичу
260 Гроба
939 Гродненской
1400 Гродно
1958 Грозного
690 Грозном
1514 Грозный
272 Грозным
278 Громов
271 Громова
284 Гросс
627 Грузией
9359 Грузии
555 Грузинская
305 Грузинского
1566 Грузинской
1064 Грузию
1559 Грузия
1451 Группа
413 Группе
338 Группу
1442 Группы
252 Гуам
765 Гуанчжоу
475 Губернатора
412 Гудзонова
322 Гуру
444 Гусев
266 Гусева
1534 Густав
1453 Густава
390 Густавом
1104 Гц
494 ДДТ
3610 ДНК
379 ДОСААФ
358 ДТП
1311 Да
2770 Давид
2428 Давида
324 Давидович
588 Давидом
272 Давиду
542 Давыдов
404 Давыдова
1451 Дагестан
2163 Дагестана
1021 Дагестане
302 Дагестанского
588 Дагестанской
324 Дай
357 Дакар
597 Дакота
324 Дал
484 Дали
1081 Даллас
350 Далласа
413 Далласе
280 Даль
1005 Дальневосточного
669 Дальневосточной
308 Дальневосточный
1823 Дальнего
2220 Дальнем
1366 Дальний
453 Дамаск
384 Дамаска
352 Дамаске
458 Дан
422 Дана
425 Дани
509 Данией
5905 Дании
959 Даниил
1037 Даниила
306 Данила
480 Данилов
355 Данилова
577 Данилович
261 Даниловича
717 Данию
1525 Дания
1002 Данте
488 Дарвин
628 Дарвина
370 Дария
359 Дармштадт
261 Дармштадте
583 Дарья
328 Дата
315 Датской
418 Даугавпилс
255 Даугавы
923 Два
265 Двадцать
535 Две
294 Двенадцать
2078 Движение
1056 Движения
3214 Двина
266 Двине
1203 Двины
418 Двор
511 Двора
1692 Дворец
1296 Дворца
1023 Дворце
349 Дворцовой
280 Дворянского
3261 Де
467 Дебюсси
1094 Дева
306 Девон
503 Девушка
1953 Девы
250 Декабристов
631 Декларации
405 Декларацию
348 Декларация
348 Дел
349 Делавэр
1203 Дели
760 Дело
586 Дельта
331 Дельфин
883 Демократическая
335 Демократический
2629 Демократической
285 Демократическую
410 Денвер
264 Денвере
1316 Денис
527 Дениса
341 Денисов
4318 День
250 Деньги
703 Департамент
1855 Департамента
317 Департаменте
363 Дербент
271 Дербента
1119 Дерби
634 Деревня
338 Десна
357 Десны
332 Десять
929 Дети
1131 Детройт
445 Детройта
667 Детройте
556 Детская
616 Детский
5411 Дж
443 Джаз
274 Джакарте
419 Джанкой
5845 Джеймс
3849 Джеймса
1578 Джеймсом
426 Джеймсу
2652 Джек
1679 Джека
1027 Джеки
637 Джеком
302 Джеку
353 Джерси
1485 Джим
804 Джима
462 Джимом
1113 Джин
484 Джина
4320 Джо
1861 Джозеф
1196 Джозефа
487 Джозефом
13175 Джон
9936 Джона
779 Джонатан
433 Джонатана
2229 Джонни
4171 Джоном
1044 Джону
4453 Джордж
3892 Джорджа
1227 Джорджем
597 Джорджии
1295 Джорджия
345 Джорджу
1487 Джузеппе
362 Джулии
571 Джулия
541 Джульетта
348 Дзержинский
840 Дзержинского
321 Диалог
868 Диана
482 Дианы
324 Дивизион
1549 Диего
800 Дик
461 Дика
264 Диккенса
305 Дикого
316 Диком
476 Диксон
273 Дима
452 Димитрий
791 Димитрия
1298 Дин
858 Дина
10882 Динамо
464 Дион
279 Диониса
421 Дионисий
255 Дирака
321 Директор
430 Директории
259 Диск
603 Дисней
688 Диснея
283 Дитя
474 Длина
480 Дмитриев
2531 Дмитриевич
782 Дмитриевича
530 Дмитриевна
1564 Дмитрием
8425 Дмитрий
772 Дмитрию
4820 Дмитрия
266 Дмитров
327 Дмитровский
443 Дмитровского
425 Дневник
251 Дней
4474 Днепр
3096 Днепра
408 Днепре
818 Днепропетровск
407 Днепропетровска
1733 Днепропетровская
607 Днепропетровске
331 Днепропетровский
390 Днепропетровского
941 Днепропетровской
554 Днепру
818 Днестр
742 Днестра
569 Дни
307 Дно
466 Дню
1177 Дня
1093 Добровольческой
355 Доброго
486 Доброй
439 Добрый
687 Договор
564 Договора
260 Дождь
315 Док
2025 Доктор
1127 Доктора
813 Долина
263 Долине
5613 Дом
3395 Дома
251 Домашний
1678 Доме
253 Доминиканская
508 Доминиканской
449 Домодедово
289 Домом
4582 Дон
2467 Дона
627 Донбасс
744 Донбасса
361 Донбассе
853 Донец
919 Донецк
519 Донецка
1338 Донецкая
714 Донецке
394 Донецкий
798 Донецкого
1832 Донецкой
264 Донна
402 Доном
2601 Донского
1725 Донской
590 Донском
758 Донскому
916 Дону
620 Донца
810 Дорога
340 Дороги
267 Дортмунд
290 Достоевский
685 Достоевского
299 Доусон
405 Дочь
580 Дракон
384 Дракона
266 Дракула
1504 Древнего
1377 Древней
820 Древнем
277 Древний
1071 Дрезден
493 Дрездена
1197 Дрездене
300 Другая
339 Другой
1095 Дружба
1137 Дружбы
363 Друзья
336 Дубае
385 Дубай
632 Дублин
494 Дублина
773 Дублине
404 Дубовыми
349 Дубровка
748 Дума
734 Думе
354 Думой
1072 Думу
4979 Думы
677 Дунае
1456 Дунай
514 Дунайской
269 Дунаю
1698 Дуная
495 Дух
863 Духа
835 Духовной
421 Духовную
804 Душанбе
535 Дюма
273 Дюны
464 Дюссельдорф
455 Дюссельдорфа
662 Дюссельдорфе
261 Дядя
899 ЕЭС
864 Ева
873 Евангелие
262 Евангелии
844 Евангелия
877 Евгением
564 Евгении
5453 Евгений
455 Евгению
3638 Евгения
788 Евгеньевич
461 Евдокии
473 Евдокия
271 Евклида
426 Евпатории
533 Евпаторийский
1176 Евпаторийского
585 Евпаторийском
325 Евпаторийскому
295 Евпатория
1201 Евразии
279 Евразия
387 Еврейский
682 Еврейского
436 Еврейской
259 Еврейском
535 Евро
2134 Европа
277 Европарламент
357 Европарламента
23250 Европе
521 Европейская
1494 Европейский
456 Европейским
456 Европейских
2867 Европейского
273 Европейское
3003 Европейской
721 Европейском
288 Европейскую
670 Европой
4766 Европу
36845 Европы
283 Евросоюз
800 Евросоюза
282 Евфрат
344 Евфрата
499 Евы
3481 Египет
4858 Египта
3167 Египте
681 Египтом
335 Египту
4516 Его
813 Егор
427 Егора
427 Егоров
333 Егорова
461 Егорович
1916 Единая
1283 Единой
494 Единство
283 Единый
714 Ежи
3990 Екатерина
1638 Екатеринбург
1359 Екатеринбурга
1547 Екатеринбурге
371 Екатеринбургского
286 Екатеринбургской
1247 Екатерине
1204 Екатериной
375 Екатерину
5076 Екатерины
4370 Елена
535 Елене
744 Еленой
411 Елену
2242 Елены
377 Елец
335 Елецкого
2535 Елизавета
753 Елизавете
530 Елизаветой
293 Елизавету
3044 Елизаветы
488 Ельцин
846 Ельцина
852 Енисей
456 Енисейской
661 Енисея
709 Епархия
1425 Ереван
452 Еревана
958 Ереване
295 Ереванского
335 Есенина
1353 Если
416 Ефим
659 Ефимович
500 Ефремов
405 Ефремова
1290 Жак
1104 Жака
344 Жаком
2875 Жан
2202 Жана
957 Жанна
702 Жанны
752 Жаном
274 Жану
315 Железная
734 Железного
398 Железнодорожный
361 Железной
641 Железный
498 Железным
437 Женева
1578 Женеве
281 Женевском
260 Женеву
345 Женевы
495 Женщина
401 Женщины
320 Живой
525 Жизни
2271 Жизнь
301 Жиль
271 Житие
423 Житомир
292 Житомире
1731 Житомирская
1510 Житомирской
853 Жорж
678 Жоржа
292 Жук
628 Жуков
653 Жукова
523 Жуковский
488 Жуковского
284 Жуковском
831 Журнал
304 Журнала
421 Журнале
4023 ЗАО
382 ЗАТО
14251 За
655 Забайкалье
738 Забайкальского
452 Забайкальской
432 Забайкалья
404 Завет
1186 Завета
313 Завете
1063 Завод
259 Завода
337 Завоевателя
703 Загреб
533 Загреба
869 Загребе
550 Зайцев
420 Зайцева
409 Зак
584 Закавказского
1540 Закавказье
796 Закавказья
523 Закарпатской
567 Закарпатье
408 Закарпатья
2458 Закон
1839 Закона
1138 Законодательного
418 Законодательное
1121 Законом
1325 Закону
1690 Зал
488 Зала
433 Зале
443 Зальцбург
276 Зальцбурга
339 Зальцбурге
561 Замбии
290 Заместитель
622 Замок
251 Занзибара
1792 Запад
1958 Запада
2399 Западе
2693 Западная
4076 Западного
475 Западное
12531 Западной
2874 Западном
1719 Западную
2707 Западный
350 Западным
409 Западных
351 Западом
322 Записках
905 Записки
1216 Запорожская
251 Запорожский
741 Запорожского
960 Запорожской
1226 Запорожье
327 Запорожья
439 Заречье
293 Зари
1200 Заря
456 Заслуженного
3718 Заслуженный
279 Захария
445 Захаров
280 Захарович
323 Защита
5673 Звезда
304 Звезду
3311 Звезды
397 Здание
656 Здесь
597 Зевса
4601 Зеландии
613 Зеландию
1354 Зеландия
3868 Земле
425 Земледельческий
9789 Земли
2956 Землю
2993 Земля
277 Земского
1344 Зенит
809 Зенита
255 Зенона
300 Зеркало
288 Зима
996 Зимбабве
518 Зимнего
532 Зимней
252 Зимнем
373 Зимний
1344 Зимних
362 Зинаида
303 Зиновьев
376 Златоуст
459 Златоуста
1656 Знак
5019 Знамени
1278 Знамя
461 Знание
456 Зои
5668 Золотая
1291 Золотого
557 Золотое
7522 Золотой
640 Золотую
533 Золотые
430 Золотым
260 Золушка
252 Золя
258 Зона
433 Зоя
777 Зубцов
263 ИК
308 ИРА
649 Ибрагим
392 Ибрагима
523 Ив
2965 Ива
14027 Иван
10647 Ивана
531 Иване
2544 Иванов
1517 Иванова
11720 Иванович
3648 Ивановича
613 Ивановичем
860 Ивановичу
1979 Ивановна
348 Ивановне
581 Ивановны
345 Ивановская
555 Ивановский
460 Ивановского
449 Ивановское
1388 Ивановской
2188 Иваном
1749 Ивану
356 Ивуара
489 Игнатий
423 Игнатия
301 Игнатьевич
333 Игоревич
843 Игорем
4970 Игорь
308 Игорю
2538 Игоря
1780 Игр
749 Игра
2465 Играх
250 Игрок
966 Игры
326 Ида
339 Идальго
258 Иды
2102 Иерусалим
1915 Иерусалима
2209 Иерусалиме
316 Иерусалимский
749 Иерусалимского
455 Ижевск
699 Ижевска
367 Ижевске
805 Изабелла
286 Изабелле
896 Изабеллы
253 Известий
1379 Известия
377 Издательство
351 Измаил
308 Измаила
346 Измайловского
3512 Изображение
3380 Израиле
1026 Израилем
5396 Израиль
384 Израилю
8564 Израиля
1070 Иисус
3085 Иисуса
252 Иисусом
1004 Икс
1720 Иллинойс
322 Иллинойса
1619 Ильи
377 Ильин
295 Ильина
349 Ильинский
1169 Ильич
1158 Ильича
300 Ильмень
2214 Илья
966 Император
1449 Императора
494 Императорский
388 Императорских
3295 Императорского
338 Императорское
2269 Императорской
498 Императорском
380 Императорскую
250 Императрица
426 Императрицы
2937 Империи
636 Империя
371 Имперского
284 Имя
420 Индекс
1022 Индиана
287 Индианаполисе
308 Индианы
819 Индией
13347 Индии
611 Индийский
955 Индийского
274 Индийской
694 Индийском
2231 Индию
2744 Индия
321 Индокитае
389 Индокитая
3357 Индонезии
869 Индонезия
419 Инна
748 Иннокентий
589 Иннокентия
276 Инсбрук
559 Инсбруке
5814 Институт
10645 Института
5030 Институте
905 Институтом
275 Интернационал
621 Интернационала
326 Интернационале
3119 Интернет
1075 Интернета
1654 Интернете
328 Интернету
737 Ио
5300 Иоанн
6893 Иоанна
260 Иоанне
1681 Иоанном
609 Иоанну
1969 Иоганн
2164 Иоганна
675 Иоганном
505 Иона
635 Иордан
940 Иордании
271 Иордания
2605 Иосиф
2581 Иосифа
716 Иосифович
536 Иосифом
255 Иосифу
553 Ир
1420 Ирак
2050 Ирака
1749 Ираке
428 Ираклий
385 Ираклия
256 Ираком
2380 Иран
3693 Ирана
2096 Иране
592 Ираном
2405 Ирина
261 Ирине
391 Ириной
891 Ирины
1325 Иркутск
784 Иркутска
379 Иркутская
1193 Иркутске
362 Иркутский
981 Иркутского
2415 Иркутской
284 Иркутском
260 Ирландией
7891 Ирландии
844 Ирландию
1853 Ирландия
290 Ирландской
3008 Иртыш
6982 Иртыша
1538 Иртышскому
769 Исаак
716 Исаака
877 Искра
276 Искры
696 Искусств
439 Искусства
1056 Искусство
355 Ислам
455 Исламской
2125 Исландии
268 Исландию
484 Исландия
1009 Испанией
25790 Испании
2606 Испанию
4272 Испания
735 Испанской
581 Исполкома
934 Исполнительного
353 Исполнительный
385 Исследование
294 Исследования
266 Ист
1997 Истории
437 Исторический
376 Исторического
389 Историю
3869 История
368 Источник
292 Истринского
984 Италией
24281 Италии
4614 Италию
6527 Италия
404 Итальянского
925 Итальянской
409 Иудеи
401 Ишим
329 Ишима
433 Йемен
569 Йемена
307 Йемене
339 Йене
763 Йорк
397 Йорка
502 Йоркшир
1208 КА
363 КАМАЗ
2289 КБ
466 КВ
1354 КВН
3048 КГБ
1990 КНДР
4196 КНР
672 КПД
13045 КПСС
268 КР
1055 Ка
436 Кабинет
1143 Кабинета
275 Кабул
256 Кабуле
2567 Кавказ
3598 Кавказа
3807 Кавказе
342 Кавказская
648 Кавказский
366 Кавказских
1739 Кавказского
1895 Кавказской
361 Кавказском
302 Казаков
4694 Казани
438 Казанская
1286 Казанский
294 Казанским
3256 Казанского
407 Казанское
2778 Казанской
935 Казанском
430 Казанскую
2866 Казань
721 Казахская
318 Казахский
569 Казахского
1869 Казахской
6500 Казахстан
8030 Казахстана
2804 Казахстане
305 Казахстаном
838 Казимир
1002 Казимира
521 Каир
401 Каира
791 Каире
276 Кайзер
615 Кайл
350 Кайла
295 Кайли
472 Калашникова
1424 Калгари
491 Кале
326 Каледонии
463 Кали
631 Калинин
907 Калинина
700 Калининград
433 Калининграда
544 Калининграде
1212 Калининградской
371 Калининский
917 Калининского
976 Калининской
646 Калининском
4112 Калифорнии
420 Калифорнийский
651 Калифорнийского
814 Калифорнийском
689 Калифорнию
6499 Калифорния
641 Калмыкии
415 Калмыкия
376 Калмыцкой
838 Калуга
539 Калуге
305 Калуги
341 Калужская
326 Калужского
2173 Калужской
360 Калькутте
254 Калькутты
291 Кам
4070 Кама
399 Камбодже
544 Камбоджи
268 Каме
910 Каменка
453 Каменный
578 Камень
1173 Камеральном
484 Камерун
792 Камеруна
260 Камилла
252 Кампании
449 Камского
2605 Камскому
698 Камчатка
457 Камчатке
609 Камчатки
588 Камчатского
339 Камчатской
1639 Камы
606 Кана
4338 Канада
6413 Канаде
343 Канадой
358 Канадского
546 Канадской
1637 Канаду
8663 Канады
277 Канал
303 Канала
304 Канарские
398 Канарских
537 Канзас
462 Каннах
669 Каннского
501 Каннском
440 Канта
289 Кантабрия
370 Канцелярии
266 Капитал
696 Капитан
342 Капитана
662 Кара
511 Карабах
680 Карабаха
409 Карабахе
274 Караганда
344 Карагандинской
465 Карачи
311 Карел
2244 Карелии
1669 Карелия
371 Карельский
755 Карельского
360 Карельской
560 Карельском
1077 Карибского
409 Карибском
361 Карин
9153 Карл
11559 Карла
376 Карле
1404 Карло
648 Карлович
2886 Карлом
1326 Карлсруэ
1382 Карлу
772 Кармен
520 Карнеги
287 Карно
1872 Каролина
611 Каролине
1169 Каролины
810 Карпат
483 Карпатах
793 Карпаты
408 Карпов
342 Карпова
302 Карри
863 Картер
477 Картера
291 Карфаген
387 Карфагена
574 Каспий
1248 Каспийского
308 Каспийское
1180 Кастилии
3356 Кастилия
1250 Каталонии
1106 Каталония
370 Катар
423 Катара
434 Катерина
288 Кати
298 Катовице
293 Католическая
1953 Католической
1261 Катунь
486 Катя
477 Каунас
462 Каунасе
340 Кауфман
444 Кашмир
293 Кашмира
1492 Квебек
1341 Квебека
763 Квебеке
287 Квинт
1302 Кевин
596 Кевина
361 Кевином
571 Кембридж
252 Кембриджа
826 Кембридже
513 Кембриджского
383 Кембриджском
782 Кемерово
1483 Кемеровской
1157 Кении
444 Кения
405 Кентербери
1092 Кентукки
575 Керченский
715 Керченского
489 Керчи
493 Керчь
8036 Киев
4262 Киева
8210 Киеве
444 Киевом
1054 Киевская
2543 Киевский
480 Киевским
4977 Киевского
583 Киевское
5229 Киевской
1444 Киевском
778 Киевскую
253 Кизляр
444 Киле
406 Киль
355 Киля
420 Кимберли
280 Кингстон
740 Кино
1016 Киото
1228 Кипр
1315 Кипра
808 Кипре
318 Кир
713 Кира
1751 Киргизии
325 Киргизия
844 Киргизской
1978 Кирилл
1437 Кирилла
344 Кириллович
447 Кириллом
1008 Киров
1311 Кирова
308 Кирове
495 Кировоградской
261 Кировская
774 Кировский
1138 Кировского
2495 Кировской
520 Кировском
1019 Кит
484 Кита
7954 Китае
1570 Китаем
6975 Китай
457 Китайская
323 Китайский
1921 Китайской
613 Китаю
9642 Китая
542 Клавдий
779 Клавдия
539 Клара
1758 Кларк
930 Кларка
369 Клары
343 Клеопатра
257 Клеопатры
485 Клер
714 Кливленд
337 Кливленда
328 Кливленде
543 Климат
381 Клин
859 Клод
710 Клода
1245 Клуб
787 Клуба
427 Ключ
272 Клязьма
297 Кнессет
292 Кнессета
1652 Книга
891 Книге
1129 Книги
943 Книгу
328 Княжества
799 Князь
555 Князя
1808 Ко
258 Ковальчук
468 Ковентри
254 Ковчег
1075 Когда
7693 Код
464 Кодекс
637 Кодекса
694 Козлов
459 Козлова
405 Кокс
316 Кола
320 Колец
704 Колин
292 Колина
388 Количество
1074 Коллегии
823 Колледж
348 Колледжа
548 Колледже
261 Коллеж
559 Коломбо
449 Коломенский
591 Коломенского
372 Коломенском
366 Коломна
515 Коломне
351 Коломны
253 Колон
325 Колонна
2081 Колорадо
272 Колос
298 Колпино
256 Колумб
415 Колумба
2956 Колумбии
267 Колумбийский
373 Колумбийского
547 Колумбийском
258 Колумбию
2528 Колумбия
387 Колчак
849 Колчака
280 Колымы
258 Коль
263 Кольский
1148 Кольского
271 Кольском
388 Кольца
553 Кольцо
287 Коля
453 Команда
410 Командования
372 Комаров
3901 Коми
758 Комиссаров
332 Комиссией
3414 Комиссии
420 Комиссию
818 Комиссия
2289 Комитет
6154 Комитета
463 Комитете
520 Комитетом
257 Коммунар
627 Коммунистическая
282 Коммунистического
2570 Коммунистической
565 Коммунистическую
356 Коммуны
740 Компании
887 Компания
1132 Компартии
252 Комсомола
458 Комсомолец
809 Комсомольская
288 Комсомольский
271 Комсомольского
482 Комсомольской
251 Кон
1042 Конвенции
2383 Конго
924 Конгрегации
1338 Конгресс
1812 Конгресса
630 Конгрессе
446 Конгрессом
281 Кондома
581 Конец
1125 Коннектикут
464 Конной
1359 Конрад
1121 Конрада
306 Конрадом
296 Консервативной
650 Консерватории
5265 Константин
4305 Константина
1686 Константинович
559 Константиновича
318 Константиновна
1011 Константином
1872 Константинополе
2356 Константинополь
371 Константинопольский
752 Константинопольского
355 Константинопольской
1740 Константинополя
559 Константину
616 Конституцией
4540 Конституции
846 Конституционного
534 Конституционный
756 Конституцию
910 Конституция
439 Континентальной
1514 Конфедерации
1112 Конференции
429 Конференция
286 Конфуция
557 Концерт
320 Координационного
1013 Копенгаген
566 Копенгагена
1242 Копенгагене
395 Коперника
377 Корабль
341 Коран
742 Корана
255 Коране
2911 Корее
333 Кореей
3540 Кореи
357 Корейского
921 Корейской
879 Корею
2568 Корея
554 Кори
757 Королева
523 Королевская
268 Королевские
1181 Королевский
392 Королевским
866 Королевских
3011 Королевского
310 Королевское
2459 Королевской
920 Королевском
549 Королевскую
2219 Королевства
622 Королевстве
1498 Королевство
274 Королевством
684 Королевы
1490 Король
1063 Короля
319 Корона
454 Короны
350 Корпорация
566 Корпус
1060 Корпуса
303 Корсика
519 Корфу
308 Космонавтов
537 Космос
1477 Косово
587 Коста
284 Кости
916 Кострома
546 Костроме
263 Костромская
395 Костромского
2339 Костромской
449 Костромы
487 Кот
363 Кох
277 Кошта
387 Кравченко
314 Крайнего
1148 Краков
674 Кракова
1526 Кракове
3698 Красная
448 Красногвардейского
8211 Красного
923 Краснодар
535 Краснодара
669 Краснодаре
714 Краснодарский
1941 Краснодарского
547 Краснодарском
1817 Красное
311 Краснознаменного
351 Краснознаменной
17360 Красной
805 Красном
1017 Красноярск
735 Красноярска
1083 Красноярске
1296 Красноярский
2038 Красноярского
303 Красноярской
726 Красноярском
5338 Красную
954 Красные
4996 Красный
571 Красным
569 Красных
856 Кремле
608 Кремль
1800 Кремля
299 Крепость
1008 Крест
2635 Креста
652 Крестителя
389 Крестом
293 Крестьянской
272 Крещения
532 Кривой
482 Крик
2616 Крис
1195 Криса
725 Крисом
472 Кристалл
605 Кристин
1293 Кристина
749 Кристины
896 Крит
465 Крита
417 Крите
661 Кришна
1132 Кришны
261 Кровь
323 Кромвеля
479 Кроме
1080 Кронштадт
722 Кронштадта
615 Кронштадте
490 Кронштадтского
282 Кросс
428 Круг
278 Крузейро
392 Крылов
351 Крылова
496 Крыльев
1441 Крылья
3615 Крым
8735 Крыма
374 Крымская
451 Крымский
416 Крымских
2128 Крымского
5022 Крымской
259 Крымском
3259 Крыму
416 Ксении
711 Ксения
1465 Кто
463 Ку
1052 Куба
1929 Кубани
268 Кубанский
624 Кубанского
593 Кубанской
1765 Кубань
1293 Кубе
22916 Кубка
8795 Кубке
599 Кубков
9229 Кубок
250 Кубрика
654 Кубу
1533 Кубы
404 Кувейт
469 Кувейта
330 Кузнецкий
373 Кузнецкого
1292 Кузнецов
343 Кузьмич
538 Куйбышев
469 Куйбышева
327 Куйбышеве
348 Куйбышевский
3750 Куйбышевского
572 Куйбышевской
286 Куликовской
998 Культура
264 Культурной
905 Культуры
385 Кун
265 Кура
623 Курган
284 Кургана
278 Кургане
720 Курганской
383 Курильских
304 Курс
956 Курск
481 Курска
496 Курская
497 Курске
323 Курский
750 Курского
3878 Курской
253 Курском
266 Курсы
258 Куры
275 Кут
510 Кутаиси
259 Кутузов
984 Кутузова
278 Кюри
534 Кюсю
1048 ЛГУ
686 ЛДПР
366 ЛСД
345 ЛЭП
651 Лаборатории
324 Лаборатория
424 Лав
348 Лавин
279 Лавра
371 Лавре
283 Лаврентий
631 Лаврентия
359 Лавров
861 Лавры
380 Лагранжа
319 Лада
258 Ладога
1888 Ладожского
382 Лазарь
510 Лазаря
373 Лазурный
262 Лан
501 Ландау
339 Ланкастер
360 Лаос
555 Лаоса
389 Лаосе
255 Лапласа
754 Лариса
258 Ларисы
253 Лас
252 Латвией
7032 Латвии
271 Латвийская
504 Латвийского
1802 Латвийской
491 Латвию
1332 Латвия
2359 Латинской
346 Лаура
537 Лауреат
737 Лебедев
621 Лебедева
406 Лебедь
284 Лебедя
4058 Лев
390 Левин
292 Левина
331 Левобережной
269 Левый
433 Легенда
281 Легенды
340 Легион
308 Легиона
893 Леди
508 Ледовитого
293 Ледовитый
264 Лейбница
334 Лейбористской
279 Лейдене
1190 Лейпциг
391 Лейпцига
1694 Лейпциге
404 Лейпцигом
301 Лейпцигской
302 Лейпцигском
815 Лена
1541 Ленин
12515 Ленина
6538 Ленинград
4185 Ленинграда
6462 Ленинграде
480 Ленинградом
755 Ленинградская
2623 Ленинградский
435 Ленинградским
6177 Ленинградского
671 Ленинградское
6388 Ленинградской
2506 Ленинградском
758 Ленинградскую
312 Ленинграду
285 Ленинская
913 Ленинский
1460 Ленинского
996 Ленинской
587 Ленинском
476 Ленину
435 Лениным
550 Лены
2940 Леонид
1861 Леонида
624 Леонидович
546 Леонидом
275 Леонов
311 Леонтий
254 Леонтьевич
1007 Леопольд
1216 Леопольда
539 Лермонтова
505 Лес
626 Лесная
259 Лесного
728 Лесной
299 Лесото
294 Летние
2753 Летних
589 Лето
377 Лех
10124 Ли
537 Либеральной
447 Либерии
285 Либерти
802 Ливан
1196 Ливана
928 Ливане
521 Ливерпуле
255 Ливерпулем
1561 Ливерпуль
1247 Ливерпуля
2261 Ливии
333 Ливию
735 Ливия
331 Ливонского
400 Ливонской
1198 Лига
3433 Лиге
7078 Лиги
1437 Лигу
329 Лидер
499 Лидии
865 Лидия
781 Лидс
369 Лидса
324 Лиз
1021 Лиза
453 Лизы
733 Лили
458 Лилль
406 Лилля
540 Лима
263 Лиман
301 Лиме
261 Лимы
336 Линии
513 Линия
731 Линкольн
608 Линкольна
484 Линь
776 Лион
1121 Лиона
732 Лионе
479 Липецк
941 Липецка
476 Липецке
423 Липецкого
1425 Липецкой
279 Лира
1459 Лиссабон
419 Лиссабона
605 Лиссабоне
266 Лиссабонский
311 Лист
574 Листа
1296 Литва
2330 Литве
513 Литвой
1085 Литву
5414 Литвы
317 Литература
606 Литературная
326 Литературного
663 Литературной
309 Литературном
704 Литературный
322 Литовская
398 Литовский
348 Литовским
2835 Литовского
351 Литовское
1779 Литовской
607 Литовском
420 Лихтенштейн
541 Лихтенштейна
312 Лицей
260 Лог
628 Лодзи
429 Лодзь
479 Лозанне
2253 Локомотив
1009 Локомотива
263 Локомотивом
344 Ломбардии
297 Ломбардия
303 Ломоносов
647 Ломоносова
7317 Лондон
3809 Лондона
12816 Лондоне
258 Лондоном
446 Лондонский
1463 Лондонского
839 Лондонской
534 Лондонском
358 Лора
461 Лорд
257 Лорда
288 Лос
272 Луара
386 Луары
265 Лувра
318 Лувре
518 Луга
388 Луганск
256 Луганская
807 Луганской
256 Лужниках
322 Лужники
3991 Луи
1133 Луиза
283 Луизе
689 Луизиана
358 Луизианы
835 Луизы
473 Лук
797 Лука
1823 Луки
964 Луна
1110 Луне
906 Луну
3165 Луны
368 Луцк
541 Луч
2535 Лучшая
872 Лучшее
620 Лучшие
4019 Лучший
257 Лучшим
252 Лысого
3110 Льва
2713 Львов
1658 Львова
2500 Львове
804 Львович
460 Львовская
499 Львовский
930 Львовского
1368 Львовской
361 Львовском
695 Львом
284 Льву
424 Льеж
274 Льежа
262 Любви
260 Люберцы
288 Люблин
258 Люблине
325 Люблинское
334 Люблинской
291 Любляне
1969 Любовь
1792 Людвиг
1816 Людвига
417 Людвигом
321 Людей
886 Люди
1519 Людмила
461 Людмилы
2576 Людовик
4893 Людовика
267 Людовике
721 Людовиком
547 Людовику
573 Люк
459 Люка
1253 Люксембург
1090 Люксембурга
540 Люксембурге
955 Люси
310 Ля
5351 МВД
3741 МВт
7709 МГУ
2386 МГц
2272 МИД
712 МКАД
1906 МКС
449 МКФ
927 МОК
464 МПС
610 МПа
466 МС
1021 МХАТ
320 МХАТа
849 МЧС
386 Маврикий
360 Маврикия
381 Мавритании
365 Магаданской
391 Магдалины
269 Магдебург
281 Магнитогорск
591 Мадагаскар
667 Мадагаскара
520 Мадагаскаре
379 Мадам
330 Мадейра
1072 Мадонна
901 Мадонны
2419 Мадрид
708 Мадрида
1635 Мадриде
412 Май
1883 Майами
660 Майер
250 Майера
1153 Майка
4455 Майкл
2873 Майкла
1184 Майклом
324 Майклу
328 Майнц
400 Майнца
294 Майнце
543 Майя
472 Мак
296 Мака
760 Макао
626 Макаров
2490 Македонии
466 Македонию
1053 Македония
597 Македонского
489 Маккензи
1869 Макс
1492 Макса
340 Максвелл
434 Максвелла
283 Макси
2867 Максим
1905 Максима
706 Максимилиан
820 Максимилиана
311 Максимов
577 Максимович
519 Максимом
648 Максом
315 Малага
1758 Малайзии
492 Малайзия
2721 Малая
330 Маленькая
507 Маленький
1162 Мали
1942 Малого
896 Малое
4424 Малой
667 Малом
798 Малую
794 Малые
2477 Малый
250 Малым
392 Малых
308 Малыш
495 Мальта
533 Мальте
502 Мальту
947 Мальты
323 Мальчик
333 Мама
307 Мани
345 Манитоба
360 Манифест
292 Манифеста
343 Манн
279 Манна
875 Мануэль
558 Мануэля
4021 Манчестер
460 Манчестера
655 Манчестере
960 Маньчжурии
321 Маньчжурию
264 Маньчжурия
347 Мар
362 Мара
585 Марат
265 Марата
1485 Маргарита
325 Маргарите
276 Маргаритой
1030 Маргариты
319 Марго
361 Маре
2374 Мари
331 Марианна
1607 Марией
11028 Марии
1059 Марий
673 Марин
1624 Марина
270 Мариной
627 Марины
298 Мариуполе
424 Мариуполь
285 Мариуполя
1075 Марию
10231 Мария
4727 Марк
3764 Марка
268 Марке
1852 Марко
368 Марков
408 Маркович
1408 Марком
651 Маркс
1696 Маркса
467 Марку
365 Марли
3249 Марокко
1214 Марс
1859 Марса
572 Марсе
568 Марселе
1253 Марсель
776 Марселя
954 Марта
1240 Марти
287 Мартини
325 Марты
280 Мартынов
617 Марш
263 Марша
649 Маршал
858 Маршала
383 Марьино
282 Маска
276 Маслов
399 Масса
1841 Массачусетс
305 Массачусетского
332 Массачусетском
1252 Мастер
654 Мастера
361 Матвеев
607 Матвеевич
662 Матвей
439 Матвея
3790 Матери
351 Материалы
577 Матильда
725 Матильды
480 Матч
551 Мать
289 Маха
364 Махачкала
253 Махачкале
265 Махачкалы
586 Махмуд
402 Махмуда
396 Махно
440 Маша
399 Машина
870 Мая
780 Маяк
595 Маяковского
796 Медаль
713 Медведица
309 Медведицы
359 Медведь
393 Медиа
280 Медина
261 Медицинский
1742 Международная
6818 Международного
426 Международное
6694 Международной
2331 Международном
271 Международному
695 Международную
297 Международные
4326 Международный
1305 Международным
479 Международных
987 Мезень
323 Мекку
1657 Мексика
408 Мексиканского
271 Мексиканской
3752 Мексике
4153 Мексики
339 Мексикой
920 Мексику
284 Мелитополь
281 Мелитополя
770 Мелодия
567 Мельбурн
437 Мельбурна
936 Мельбурне
377 Мельников
694 Мемориал
440 Мемфис
335 Мемфисе
264 Менделеева
353 Мендельсона
272 Менеджмент
326 Меня
771 Меркурий
612 Меркурия
587 Мерседес
954 Месопотамии
274 Месопотамию
579 Металлист
1346 Металлург
567 Металлурга
383 Метро
422 Метрополитен
305 Мефодий
495 Мефодия
2441 Мехико
306 Мец
761 Меца
342 Меч
595 Ми
290 Миасс
518 Мидлсбро
817 Микеланджело
2447 Милан
1631 Милана
1743 Милане
335 Миланом
568 Милуоки
1140 Мин
396 Мина
281 Минеральные
273 Минздрава
10402 Министерства
1809 Министерстве
3396 Министерство
1591 Министерством
760 Министерству
855 Министр
1709 Министра
5145 Министров
353 Министром
250 Миннеаполис
3592 Миннесота
372 Миннесоты
4158 Минск
1373 Минска
393 Минская
2615 Минске
518 Минский
1460 Минского
2771 Минской
521 Минском
3309 Мир
4248 Мира
348 Мираж
296 Миранда
269 Мире
476 Мирза
430 Мирный
511 Миро
263 Мировая
815 Мирового
2359 Мировой
388 Миронов
306 Миру
2489 Мисс
313 Миссии
1512 Миссисипи
312 Миссия
1787 Миссури
780 Мистер
313 Митрополит
280 Митрополита
264 Митрофан
12493 Михаил
9804 Михаила
278 Михаиле
1983 Михаилом
1286 Михаилу
873 Михайлов
462 Михайлова
6127 Михайлович
2586 Михайловича
394 Михайловичем
534 Михайловичу
1205 Михайловна
334 Михайловны
1299 Мичиган
325 Миша
265 Мишелем
1951 Мишель
590 Мишеля
511 Младшего
658 Младший
269 Млечного
379 Мне
357 Могила
465 Могилевской
360 Моголов
378 Мод
336 Модель
383 Можайского
290 Мозамбик
355 Мозамбика
1081 Мозель
339 Мои
409 Моисеевич
532 Моисей
561 Моисея
1063 Мой
481 Мокша
991 Мокши
4331 Молдавии
469 Молдавию
559 Молдавия
363 Молдавская
438 Молдавского
1512 Молдавской
311 Молния
1027 Молодая
1077 Молодой
381 Молодые
604 Молот
327 Молотов
393 Молотова
2052 Монако
279 Монастырь
3654 Монголии
609 Монголию
797 Монголия
513 Монгольской
274 Моне
297 Моника
791 Монпелье
1498 Монреале
1246 Монреаль
547 Монреаля
721 Монтана
915 Монтгомери
427 Монте
1345 Монтевидео
388 Мор
362 Мора
867 Моравии
429 Моргана
550 Мордовии
966 Мордовия
553 Море
504 Морено
449 Мори
356 Мороз
740 Морозов
379 Морская
336 Морских
1178 Морского
268 Морское
1750 Морской
371 Морском
262 Моря
27317 Москва
42972 Москве
2158 Москвой
14806 Москву
23185 Москвы
2953 Московская
557 Московские
8861 Московский
1520 Московским
591 Московских
18666 Московского
1715 Московское
19230 Московской
6231 Московском
1027 Московскому
2338 Московскую
907 Мост
792 Мосфильм
289 Мотор
501 Моцарт
1328 Моцарта
1124 Моя
504 Мстислав
525 Мстислава
456 Мудрого
269 Мужества
1630 Музее
3054 Музей
1835 Музея
758 Музыка
287 Музыкальная
351 Музыкального
250 Музыкальное
364 Музыкальной
464 Музыкальный
273 Музыки
377 Муниципальное
1553 Мур
836 Мура
682 Мурманск
487 Мурманска
396 Мурманске
318 Мурманского
1594 Мурманской
608 Муром
264 Муромского
538 Муса
1119 Муссолини
713 Мустафа
253 Мустафы
401 Мусы
1187 Мухаммед
1139 Мухаммеда
1646 Мы
374 Мыс
325 Мытищи
391 МэВ
1495 Мэн
874 Мэриленд
282 Мюнстер
1893 Мюнхен
875 Мюнхена
3455 Мюнхене
290 Мюнхенского
316 Мюнхенской
286 Мюнхенском
2622 НАСА
3835 НАТО
272 НДС
3045 НИИ
5951 НКВД
618 НЛО
254 НОК
1129 НПО
1691 НТВ
346 Набережная
265 Набережные
251 Набокова
556 Наварра
872 Наварры
661 Нагасаки
372 Нагорного
303 Нагорный
1801 Надежда
936 Надежды
538 Надым
251 Назаров
266 Наиболее
308 Найроби
295 Нальчик
282 Нам
740 Намибии
280 Нанкин
1184 Нанси
302 Нант
286 Нанта
2099 Наполеон
4080 Наполеона
611 Наполеоновских
1002 Наполеоном
403 Наполеону
594 Наполи
344 Нара
839 Нарва
297 Нарве
419 Нарвы
687 Наркомата
1660 Народная
3505 Народного
578 Народное
3420 Народной
396 Народном
372 Народную
2545 Народный
313 Народным
868 Народных
285 Народов
11167 Население
487 Нассау
337 Настя
285 Наталии
530 Наталия
302 Наталье
451 Натальей
956 Натальи
2554 Наталья
458 Наташа
320 Натюрморт
1587 Наук
911 Наука
296 Наумов
580 Научного
495 Находка
1993 Наций
1800 Национальная
7257 Национального
1455 Национальное
8445 Национальной
1888 Национальном
274 Национальному
297 Национальностей
1044 Национальную
4760 Национальный
1270 Национальным
471 Начало
265 Начальник
291 Начальника
941 Наш
1030 Наша
430 Наше
515 Наши
1102 Неаполе
1070 Неаполь
936 Неаполя
317 Небо
482 Небраска
1718 Нева
675 Невада
462 Неве
910 Невский
2894 Невского
354 Невской
416 Невском
319 Неву
1020 Невы
265 Неделя
418 Независимой
527 Независимости
410 Независимых
393 Некоторые
258 Некрасов
390 Некрасова
707 Неман
260 Немана
336 Немецкая
490 Немецкий
640 Немецкого
679 Немецкой
394 Ненецком
384 Непал
593 Непала
504 Непале
252 Непорочного
369 Нептун
531 Нептуна
375 Несмотря
356 Нестор
344 Нестора
488 Нет
718 Нефтеюганск
356 Нефтяник
605 Ни
676 Нива
442 Нигер
457 Нигера
1692 Нигерии
602 Нигерия
353 Нидерландами
2978 Нидерландах
6041 Нидерландов
309 Нидерландской
3408 Нидерланды
405 Нижегородская
565 Нижегородский
823 Нижегородского
3770 Нижегородской
1978 Нижнего
405 Нижнее
1722 Нижней
2237 Нижнем
352 Нижние
3533 Нижний
275 Нижнюю
3852 Нижняя
533 Низами
1197 Ник
1094 Ника
1397 Никарагуа
781 Ники
1632 Никита
549 Никитин
323 Никитина
578 Никитич
266 Никитича
841 Никиты
393 Никифор
308 Никифора
259 Никифорович
256 Никодим
3373 Никола
597 Николае
1411 Николаев
934 Николаева
715 Николаеве
6627 Николаевич
1850 Николаевича
306 Николаевичем
396 Николаевичу
1758 Николаевна
256 Николаевне
514 Николаевны
473 Николаевская
598 Николаевский
785 Николаевского
288 Николаевское
1424 Николаевской
356 Николаевском
632 Николаевскую
2279 Николаем
14753 Николай
1767 Николаю
12864 Николая
673 Николы
491 Никольская
765 Никольский
805 Никольского
735 Никольское
493 Никольской
371 Никольском
323 Ником
343 Никон
403 Никона
1687 Нил
1953 Нила
342 Нилом
258 Ним
1460 Нина
497 Нины
391 Ницца
539 Ницце
383 Ниццы
511 Ницше
322 Нм
1414 Но
1925 Нобелевской
667 Нобелевскую
470 Нова
6890 Новая
3899 Новгород
2787 Новгорода
2871 Новгороде
373 Новгородом
539 Новгородская
583 Новгородский
1158 Новгородского
4535 Новгородской
257 Новгородском
287 Новик
623 Новиков
4687 Нового
294 Новодевичьего
1318 Новодевичьем
1955 Новое
10495 Новой
671 Новокузнецк
2048 Новом
641 Новороссийск
558 Новороссийска
284 Новороссийске
444 Новороссийского
1343 Новороссийской
1398 Новосибирск
887 Новосибирска
1518 Новосибирске
455 Новосибирский
1058 Новосибирского
1735 Новосибирской
331 Новосибирском
945 Новости
269 Новочеркасск
371 Новочеркасске
1342 Новую
1939 Новые
6548 Новый
442 Новым
633 Новых
251 Ной
858 Нор
257 Нора
377 Норвегией
7028 Норвегии
856 Норвегию
1832 Норвегия
268 Норильский
1833 Нормандии
346 Нормандию
472 Нормандия
536 Норфолк
398 Нос
324 Ночи
433 Ночной
878 Ночь
371 Ну
582 Нью
913 Ньюкасл
404 Ньюкасла
251 Ньюпорте
754 Ньютон
790 Ньютона
364 Ньюфаундленд
250 Ньюфаундленда
588 Нюрнберг
346 Нюрнберга
541 Нюрнберге
12955 ОАО
689 ОЗУ
1293 ОКБ
8708 ООН
5911 ООО
721 ОРТ
2380 ОС
5144 Об
3089 Оби
593 Обладатель
347 Областной
1139 Обороны
421 Образование
458 Общая
1449 Общего
5815 Общества
394 Обществе
426 Общественного
559 Общественной
2736 Общество
448 Обществом
495 Общий
441 Объединение
552 Объединения
311 Объединенной
586 Объединенных
568 Объект
8299 Обь
258 Овчинников
2512 Огайо
256 Огни
261 Огонь
313 Ода
599 Одер
402 Одера
2130 Одесса
3473 Одессе
458 Одесская
852 Одесский
1598 Одесского
1925 Одесской
640 Одесском
280 Одесскую
1156 Одессу
1913 Одессы
900 Один
316 Одиссея
407 Одна
289 Однажды
741 Однако
250 Оды
618 Озеро
2053 Ока
321 Оке
413 Океан
1196 Океании
5182 Оки
616 Оклахома
466 Окленд
390 Окленде
252 Окончил
418 Округ
278 Округа
471 Оксана
1127 Окскому
585 Оксфорд
338 Оксфорда
873 Оксфорде
264 Оксфордский
544 Оксфордского
405 Оксфордском
1418 Октябрь
628 Октябрьская
1143 Октябрьский
1015 Октябрьского
285 Октябрьское
5593 Октябрьской
499 Октябрьском
1535 Октября
334 Оку
575 Олбани
416 Оле
4192 Олег
2061 Олега
698 Олегом
260 Олегу
852 Оливье
418 Олимп
786 Олимпиад
292 Олимпиада
596 Олимпиадах
3298 Олимпиаде
630 Олимпиаду
2623 Олимпиады
447 Олимпии
2174 Олимпийские
1447 Олимпийский
618 Олимпийским
21611 Олимпийских
804 Олимпийского
331 Олимпийской
561 Олимпийском
658 Олимпия
3402 Ольга
407 Ольге
1475 Ольги
486 Ольгой
253 Ольгу
288 Ом
498 Омар
341 Омара
1112 Омск
650 Омска
1138 Омске
447 Омский
669 Омского
1489 Омской
255 Омском
726 Она
1949 Онежского
581 Они
478 Оно
2499 Онтарио
503 Опера
542 Операция
410 Оперы
406 Описание
1187 Описании
382 Опыт
1814 Организации
669 Организация
301 Орда
390 Орде
1815 Орден
3430 Ордена
1777 Орденом
1017 Орджоникидзе
375 Орду
1358 Орды
893 Орегон
279 Орел
717 Оренбург
471 Оренбурга
594 Оренбурге
320 Оренбургская
389 Оренбургский
775 Оренбургского
2339 Оренбургской
334 Орион
339 Ориона
330 Оркестр
1214 Орла
1059 Орландо
497 Орле
529 Орлеан
804 Орлеана
563 Орлеане
251 Орлеанский
445 Орлеанского
840 Орлов
671 Орлова
371 Орловская
495 Орловский
608 Орловского
2383 Орловской
270 Орск
281 Оружейной
369 Орфей
275 Орша
349 Осака
451 Освенцим
363 Освободительной
268 Освобождение
261 Освобождения
2791 Осетии
744 Осетия
367 Оси
368 Осип
267 Осипа
252 Осипов
489 Осипович
5248 Оскар
1359 Оскара
319 Оскаром
576 Оскол
1916 Осло
278 Осман
626 Османская
4489 Османской
795 Основано
281 Основная
342 Основной
415 Основные
920 Основы
1001 Особого
398 Особой
366 Особый
698 Останкино
373 Остаться
1039 Остин
298 Остина
363 Остине
2193 Остров
1220 Острова
1055 Островов
822 Островского
699 Отдел
1040 Отдела
277 Отделе
338 Отделение
296 Отделению
793 Отделения
375 Отделом
398 Отдельного
348 Отдельной
405 Отелло
345 Отель
642 Отец
741 Отечества
684 Отечественная
36974 Отечественной
901 Отечественную
256 Отечественные
279 Отечественных
438 Отечество
668 Отечеством
372 Открытие
1407 Открытого
513 Открытое
1376 Открытом
696 Открытый
310 Отличник
594 Оттава
454 Оттаве
510 Оттавы
322 Отца
380 Официальный
343 Охота
387 Охотского
421 Очерки
292 Оша
3619 ПВО
361 ПДК
517 ПЗУ
820 ПЛ
458 ПРО
256 ПС
399 ПТУ
1662 Па
8469 Павел
7104 Павла
345 Павле
667 Павлов
728 Павлова
2862 Павлович
1120 Павловича
298 Павловичу
669 Павловна
365 Павловны
252 Павловск
499 Павловский
1065 Павловских
749 Павловского
299 Павловское
265 Павлодарской
2195 Павлом
735 Павлу
341 Паганини
288 Падуе
296 Пажеский
641 Пак
1120 Пакистан
2013 Пакистана
1001 Пакистане
307 Пакистаном
449 Палата
889 Палате
686 Палату
1892 Палаты
295 Палаццо
1478 Палермо
479 Палестина
1402 Палестине
386 Палестинской
1338 Палестину
1504 Палестины
263 Памир
529 Памяти
1027 Памятник
3402 Памятной
624 Память
382 Пан
405 Панама
333 Панаме
310 Панамериканских
503 Панамы
340 Пантера
1172 Папа
901 Папой
460 Папского
495 Папской
373 Папском
681 Папуа
1043 Папы
490 Пара
315 Парагвае
581 Парагвай
883 Парагвая
495 Пари
11293 Париж
6340 Парижа
16049 Париже
484 Парижем
378 Парижский
884 Парижского
2363 Парижской
685 Парижском
404 Парижскую
3075 Парк
471 Парка
360 Парке
612 Парламент
1274 Парламента
371 Парма
314 Пармы
445 Партизан
2574 Партии
488 Партию
1331 Партия
468 Паскаль
296 Паскаля
272 Пастернака
856 Пасхи
428 Пасху
1363 Патриарх
1772 Патриарха
1090 Патриархата
645 Патриархии
787 Патриархом
261 Патриарху
404 Патриаршего
260 Паули
273 Паша
566 Пе
495 Пегас
252 Педагогического
1458 Пекин
842 Пекина
2805 Пекине
368 Пелопоннес
452 Пен
364 Пенджаб
476 Пенза
546 Пензе
250 Пензенская
267 Пензенский
553 Пензенского
2377 Пензенской
350 Пензы
254 Пенни
664 Пенсильвании
1620 Пенсильвания
490 Пер
255 Пера
2092 Первая
3596 Первого
801 Первое
661 Первозванного
17002 Первой
2202 Первом
294 Первомайская
562 Первомайский
434 Первомайского
1793 Первую
497 Первые
4214 Первый
663 Первым
339 Перед
402 Передней
449 Передняя
669 Перекопский
1008 Перекопского
381 Перекопском
335 Перекопскому
285 Перечень
2082 Перми
343 Пермская
624 Пермский
1750 Пермского
1536 Пермской
1629 Пермском
1278 Пермь
780 Перси
864 Персидского
590 Персидском
421 Персией
1704 Персии
625 Персию
264 Перт
4645 Перу
275 Пески
988 Песни
553 Песнь
1166 Песня
4044 Петербург
2380 Петербурга
5646 Петербурге
869 Петербургский
1977 Петербургского
1989 Петербургской
708 Петербургском
329 Петербургскую
3054 Петр
12466 Петра
883 Петре
260 Петренко
296 Петри
1667 Петров
1095 Петрова
5092 Петрович
1576 Петровича
252 Петровичем
380 Петровичу
349 Петровка
1249 Петровна
323 Петровне
863 Петровны
763 Петровский
661 Петровского
427 Петровское
570 Петровской
329 Петровском
1502 Петроград
827 Петрограда
2140 Петрограде
364 Петроградский
1145 Петроградского
643 Петроградской
334 Петроградском
599 Петрозаводск
445 Петрозаводска
524 Петрозаводске
2133 Петром
370 Петропавловск
316 Петропавловский
295 Петропавловского
753 Петропавловской
258 Петропавловскую
1549 Петру
2772 Печора
1483 Печоры
577 Пи
283 Пизе
400 Пик
679 Пикассо
281 Пике
300 Пила
379 Пионер
323 Пионерская
399 Пиренеи
477 Пиренейского
730 Пирс
290 Пирса
572 Писания
304 Писателей
573 Письма
527 Письмо
809 Пит
394 Пита
3476 Питер
2296 Питера
980 Питером
284 Питеру
565 Питтсбург
734 План
384 Планета
552 Планка
283 Плато
566 Платон
919 Платона
343 Платформа
301 Плимут
271 Пловдивской
414 Площади
1453 Площадь
303 Плутон
365 Плутона
331 Плюс
6691 По
274 Побег
1105 Победа
382 Победитель
477 Победоносца
3948 Победы
524 Повести
498 Повесть
904 Поволжье
1288 Поволжья
367 Погост
662 Подмосковье
435 Подмосковья
361 Подолье
260 Подольск
352 Подольска
300 Подольский
642 Подольского
795 Подольской
707 Познани
397 Познань
250 Пока
1025 Покрова
437 Покровская
803 Покровский
804 Покровского
421 Покровское
586 Покровской
342 Покровском
4014 Пол
2713 Пола
873 Поле
329 Полем
441 Полесье
441 Полина
356 Полинезии
268 Полины
1853 Политбюро
264 Политехнический
368 Политехнического
259 Политехнической
286 Политехническом
393 Полк
601 Полномочный
348 Поло
999 Положение
250 Положением
275 Положению
600 Положения
1224 Полом
583 Полоцк
472 Полоцка
408 Полоцке
279 Полоцкий
413 Полоцкого
338 Полоцкой
255 Полоцком
621 Полтава
549 Полтаве
1008 Полтавская
365 Полтавский
342 Полтавского
1857 Полтавской
291 Полтавы
304 Полу
1099 Поль
588 Польская
326 Польский
2750 Польского
480 Польское
1852 Польской
637 Польском
4829 Польша
10196 Польше
1407 Польшей
11666 Польши
2924 Польшу
1186 Поля
367 Поляков
670 Поляна
454 Поляны
307 Полярная
269 Полярный
306 Поместного
369 Поп
1413 Попов
950 Попова
495 Порт
264 Порта
290 Портер
601 Портленд
310 Портленде
1510 Портрет
487 Портсмут
267 Портсмута
392 Портсмуте
1837 Порту
353 Португалией
10388 Португалии
734 Португалию
1429 Португалия
366 Португальской
474 Посад
252 Посейдона
328 Послание
2452 После
258 Последнее
355 Последние
1007 Последний
431 Последняя
608 Посол
302 Посольства
363 Пост
768 Постановление
1480 Постановлением
611 Постановлению
466 Постановления
269 Постоянного
310 Поти
262 Потсдам
346 Потсдаме
654 Почета
312 Почетного
285 Почетной
613 Почетный
550 Починок
354 Почта
689 Почтовая
310 Почтовый
309 Поэзия
1573 Правда
383 Правды
453 Правила
5034 Правительства
584 Правительстве
1090 Правительство
680 Правительством
620 Правительствующего
1159 Правления
393 Право
556 Правобережной
255 Православия
516 Православная
262 Православного
4692 Православной
1297 Прага
3071 Праге
1187 Праги
780 Прагу
343 Пражского
663 Пражской
457 Праздник
359 Праздники
430 Прайс
276 Прасковья
1156 Председателем
1830 Председатель
2596 Председателя
675 Предтечи
2540 Президент
10228 Президента
1586 Президенте
1682 Президентом
437 Президенту
952 Президиум
14141 Президиума
269 Президиумом
1305 Премии
575 Премию
799 Премия
307 Премьер
700 Преображения
644 Преображенский
807 Преображенского
283 Преображенской
367 Преображенском
3399 Пресвятой
305 Пресс
873 Престол
775 Престола
406 Престолом
264 Престолу
399 Прибалтийский
1092 Прибалтийского
403 Прибалтийском
768 Прибалтике
894 Прибалтики
398 Приволжского
382 Приволжской
458 Приднестровской
372 Приднестровье
491 Приднестровья
570 Приз
298 Призрак
381 Приказ
521 Приказом
952 Приключения
349 Приложение
557 Примере
250 Примеру
339 Примеры
355 Приморская
721 Приморский
1548 Приморского
778 Приморской
600 Приморском
542 Приморье
406 Приморья
863 Принц
673 Принца
462 Принцесса
501 Припять
262 Природа
338 Причерноморье
354 Причерноморья
539 Про
517 Проблемы
699 Прованс
509 Прованса
444 Программа
500 Программы
870 Прогресс
727 Проект
255 Происхождение
490 Прокофьева
331 Прометей
403 Пророка
796 Просвещения
594 Проспект
274 Профессиональной
313 Профессор
336 Прохоров
718 Пруссией
4333 Пруссии
664 Пруссию
1030 Пруссия
266 Прусского
327 Прусской
446 Прут
1227 Псков
1444 Пскова
691 Пскове
316 Псковская
324 Псковский
709 Псковского
4188 Псковской
270 Псы
375 Пуанкаре
250 Публичной
463 Пусть
771 Путешествие
643 Пути
1526 Путин
1619 Путина
1392 Путь
1232 Пушкин
2542 Пушкина
291 Пушкино
275 Пушкинский
328 Пушкинского
451 Пушкинской
300 Пушкину
258 Пушкиным
276 Пьемонт
1880 Пьер
1470 Пьера
631 Пьеро
519 Пьером
320 Пярну
253 Пяти
252 Пятигорск
317 Пятигорске
269 Пятница
362 Пятой
340 Пятый
524 Пять
7681 РАН
1127 РАО
1517 РЛС
1146 РНК
23709 РСФСР
567 РТ
23687 РФ
375 Рабочая
465 Рабочей
518 Рабочий
514 Рада
323 Раде
2452 Радио
706 Радонежского
293 Радость
412 Раду
581 Радуга
1273 Рады
472 Развитие
413 Разина
272 Раиса
435 Рай
371 Район
353 Рака
630 Ралли
263 Рам
343 Рама
348 Расположена
371 Распутина
263 Распятие
517 Рассвет
278 Рассказы
490 Расстояние
621 Рауль
484 Рауля
925 Рафаэль
759 Рафаэля
348 Рахманинова
450 Рашид
405 Ре
1814 Реал
631 Реала
301 Реввоенсовета
2190 Революции
436 Революционного
293 Революционной
299 Революционный
353 Революция
927 Ред
886 Рей
272 Реймс
366 Реймса
319 Реймсе
1611 Рейн
1294 Рейна
422 Рейне
273 Рейнской
485 Рейха
295 Рейхстага
619 Река
316 Реквием
335 Рембрандта
711 Ренессанса
1312 Рено
315 Репина
336 Республик
5499 Республика
266 Республиканская
373 Республиканского
984 Республиканской
12029 Республике
31095 Республики
1608 Республикой
1059 Республику
328 Реставрации
866 Реформации
3638 Речи
257 Речка
535 Речь
357 Речью
528 Решением
346 Рея
827 Ржев
462 Ржева
317 Ржевского
1985 Рига
2650 Риге
1670 Риги
950 Ригу
565 Рижский
1213 Рижского
861 Рижской
330 Рижском
5959 Рим
4647 Рима
281 Римана
7817 Риме
355 Римини
879 Римом
532 Римская
3659 Римский
769 Римским
926 Римского
6336 Римской
306 Римскую
471 Риму
915 Рио
498 Рис
296 Рита
567 Рихард
798 Рихарда
4126 Ричард
3400 Ричарда
1148 Ричардом
381 Ричарду
427 Ричмонд
255 Ричмонда
300 Ришелье
736 Ро
613 Роб
331 Роба
6360 Роберт
5744 Роберта
1989 Робертом
640 Роберту
507 Ровно
767 Рог
274 Рога
394 Род
290 Рода
327 Родезии
1480 Роджер
1025 Роджера
407 Роджером
1440 Родившиеся
1117 Родился
1199 Родина
827 Родине
823 Родину
915 Родины
416 Родни
367 Родос
252 Роем
2761 Рождества
259 Рождественская
411 Рождественский
267 Рождественского
1269 Рождество
894 Роже
1075 Роза
256 Розе
317 Розен
706 Розы
1141 Рой
749 Рок
333 Рока
670 Рома
2869 Роман
1696 Романа
715 Романов
706 Романова
598 Романович
283 Романовича
1237 Романовых
457 Романом
869 Ромео
292 Ромы
643 Рон
688 Рона
1313 Росс
790 Росса
4660 Россией
186232 России
5138 Российская
458 Российские
1414 Российский
313 Российским
800 Российских
3973 Российского
488 Российское
49763 Российской
569 Российском
839 Российскую
10219 Россию
16551 Россия
512 Ростислав
364 Ростислава
961 Ростов
661 Ростова
526 Ростове
420 Ростовская
693 Ростовский
1108 Ростовского
2681 Ростовской
299 Ростовском
250 Росток
427 Рот
340 Рота
317 Роттердам
471 Роттердаме
279 Роща
582 Роя
360 Рубен
250 Рубенс
326 Рубенса
341 Руби
1089 Рубин
455 Рубина
262 Рубинштейн
292 Рубинштейна
1314 Рудольф
1243 Рудольфа
365 Рудольфом
347 Руководство
549 Румынией
6238 Румынии
786 Румынию
1901 Румыния
336 Румынской
7265 Руси
932 Руслан
339 Руслана
407 Русса
2372 Русская
1035 Русские
3338 Русский
394 Русским
514 Русских
4612 Русского
1328 Русское
10238 Русской
1522 Русском
251 Русскому
399 Русскую
269 Руссы
2067 Русь
651 Рут
463 Рыба
412 Рыбинск
320 Рыбинска
299 Рыбинске
1916 Рыбинского
427 Рыбы
303 Рынок
592 Рыцарским
258 Рыцарского
366 Рыцарскому
290 Рыцарь
274 Рядом
1057 Рязани
348 Рязанская
472 Рязанский
897 Рязанского
2879 Рязанской
1122 Рязань
368 СВ
541 СИ
308 СИЗО
873 СМ
6684 СМИ
5289 СНГ
1206 СО
282 СПИД
437 СПИДа
348 СПИДом
135178 СССР
250 СТО
687 СУБД
135464 США
277 СЭВ
414 Савва
413 Саввы
323 Сага
586 Сад
296 Сада
445 Садовая
454 Садовой
274 Сайт
487 Сакраменто
1591 Саксонии
264 Саксонию
1554 Саксония
292 Саксонской
450 Саламанка
454 Салерно
521 Салехард
258 Салоне
425 Салониках
439 Салоники
460 Сальвадор
674 Сальвадора
351 Салют
288 Сам
1383 Самара
1186 Самаре
252 Самарии
530 Самарканд
326 Самарканда
408 Самарканде
360 Самарская
343 Самарский
495 Самарского
2088 Самарской
367 Самару
843 Самары
267 Самая
811 Самоа
382 Самуил
363 Самуила
484 Самый
2019 Сан
285 Сандра
346 Санкт
967 Санта
1547 Сантьяго
406 Саппоро
1396 Сара
584 Сарагоса
306 Сарагосы
944 Сараево
288 Саранск
1443 Саратов
810 Саратова
1288 Саратове
381 Саратовская
496 Саратовский
1060 Саратовского
3122 Саратовской
369 Саратовском
573 Сардинии
262 Сардиния
369 Саровского
300 Сарой
801 Сары
427 Сасанидов
260 Сатаны
420 Сати
1125 Сатурн
1077 Сатурна
463 Саудовская
1743 Саудовской
582 Саха
865 Сахалин
485 Сахалина
368 Сахалине
769 Сахалинской
776 Сахары
763 Саша
281 Саши
448 Сбербанка
408 Сборная
507 Сборник
274 Сборной
7319 Св
369 Свадьба
910 Свердловск
290 Свердловска
430 Свердловская
815 Свердловске
396 Свердловский
690 Свердловского
3397 Свердловской
250 Свердловском
747 Свет
1006 Света
423 Свете
1544 Светлана
473 Светланы
269 Светлый
277 Свидетелей
1255 Свобода
558 Свободная
398 Свободного
304 Свободное
392 Свободной
501 Свободный
1353 Свободы
568 Святая
1157 Святейшего
367 Святейший
621 Святителя
12660 Святого
7066 Святой
362 Святому
658 Святослав
727 Святослава
486 Святую
311 Святые
743 Святым
1608 Святых
280 Священная
2319 Священного
3324 Священной
474 Священный
631 Се
328 Сев
262 Севан
955 Севастополе
1706 Севастополь
355 Севастопольского
284 Севастопольской
1828 Севастополя
2293 Север
2249 Севера
705 Севере
9405 Северная
7626 Северного
1108 Северное
21891 Северной
3812 Северном
533 Северному
2456 Северную
304 Северные
7487 Северный
737 Северным
396 Северных
410 Севилье
448 Севильи
489 Севилья
287 Сеговия
670 Сегодня
255 Седьмой
383 Сезон
559 Сейм
842 Сейма
415 Секретариата
264 Секретарь
273 Секретаря
335 Секс
259 Сектор
416 Села
555 Селе
279 Селим
1962 Село
604 Сельское
309 Сельскохозяйственный
549 Семен
360 Семена
519 Семенович
261 Семи
748 Семилетней
264 Семинарии
749 Семь
444 Семья
302 Сен
631 Сена
1473 Сенат
2505 Сената
794 Сенате
331 Сенатом
403 Сенегал
569 Сенегала
271 Сенна
319 Сент
432 Сены
494 Серафим
646 Серафима
365 Сербией
5477 Сербии
623 Сербию
1207 Сербия
312 Сербская
1424 Сербской
370 Сергеев
2623 Сергеевич
719 Сергеевича
693 Сергеевна
1928 Сергеем
12386 Сергей
805 Сергею
6196 Сергея
299 Сергием
908 Сергий
1509 Сергия
475 Сердца
690 Сердце
285 Серебряная
480 Серебряного
809 Серебряный
287 Серж
2149 Серии
670 Серию
448 Серия
536 Серп
392 Серпухов
274 Серпухове
255 Сестра
303 Сет
559 Сети
465 Сеул
384 Сеула
1113 Сеуле
381 Сечи
264 Сечь
2179 Си
258 Сибелиуса
8259 Сибири
369 Сибирская
255 Сибирские
1034 Сибирский
2173 Сибирского
1133 Сибирской
348 Сибирском
4033 Сибирь
821 Сигизмунд
1144 Сигизмунда
323 Сигизмундом
1621 Сиднее
882 Сидней
580 Сиднея
756 Сидни
333 Сиена
339 Сиене
350 Сиены
2778 Сил
414 Сила
260 Силами
624 Силах
616 Силы
308 Сильвии
448 Сильвия
265 Сим
530 Симферополе
881 Симферополь
372 Симферопольский
962 Симферопольского
483 Симферопольском
438 Симферополя
255 Симфонический
332 Симфония
971 Сингапур
989 Сингапура
1102 Сингапуре
341 Синий
1051 Синод
3304 Синода
301 Синоде
448 Синодом
416 Синяя
313 Сирией
3508 Сирии
266 Сирийской
909 Сирию
783 Сирия
748 Система
515 Системы
4644 Сити
2162 Сицилии
289 Сицилийского
661 Сицилию
509 Сицилия
659 Сиэтл
364 Сиэтла
578 Сиэтле
326 Сказание
421 Сказка
380 Сказки
881 Скала
432 Скалистых
1229 Скандинавии
544 Скопье
255 Скорпиона
2861 Скотт
1759 Скотта
506 Скоттом
368 Скрябина
837 Слава
3037 Славы
442 Славянский
281 Славянского
449 Следственного
768 Слобода
313 Слободка
298 Слободской
606 Слова
2971 Словакии
742 Словакия
321 Словарь
1673 Словении
565 Словения
1075 Слово
381 Служба
852 Службы
2518 См
486 Смена
620 Смерти
1189 Смерть
1070 Смирнов
648 Смирнова
4493 Смоленск
1635 Смоленска
529 Смоленская
1001 Смоленске
493 Смоленский
1035 Смоленского
7870 Смоленской
1466 Смоленском
265 Смутного
825 Со
1658 Собор
1888 Собора
1180 Соборе
367 Соборной
268 Собором
965 Собрание
264 Собрании
2941 Собрания
467 События
7804 Совет
39151 Совета
2348 Совете
4787 Советов
1885 Советом
2858 Советская
3010 Советский
810 Советским
638 Советских
22580 Советского
550 Советское
10397 Советской
2100 Советском
645 Советскому
936 Советскую
610 Совету
582 Советы
615 Совнаркома
356 Современная
610 Современник
286 Современные
304 Современный
1013 Согласно
455 Соглашение
325 Соглашения
1654 Содружества
300 Содружество
529 Соединенные
2046 Соединенных
1133 Сокол
616 Сокола
955 Соколов
325 Сокольники
294 Солженицына
354 Солидарность
254 Солнечная
1503 Солнечной
333 Солнечный
5014 Солнца
1875 Солнце
342 Солнцем
463 Солнцу
255 Соловецкого
624 Соломон
863 Соломона
566 Соломоновых
1632 Сомали
1088 Сон
327 Соня
259 Сообщества
1258 Сопротивления
260 Сормово
337 Сосновка
2848 Софии
488 Софийского
576 Софийской
298 Софию
1895 София
298 Софокла
708 Софьи
920 Софья
930 Социалистическая
2914 Социалистического
1923 Социалистической
331 Социалистическую
2389 Сочи
9092 Союз
36639 Союза
2431 Союзе
583 Союзников
291 Союзного
1287 Союзом
827 Союзу
378 Спарта
3829 Спартак
1855 Спартака
364 Спартаке
507 Спартакиады
451 Спартаком
277 Спарте
299 Спарту
544 Спарты
705 Спаса
1322 Спасителя
320 Спасская
481 Спасский
462 Спасского
460 Спасской
567 Спенсер
287 Спенсера
262 Специального
326 Специальный
1200 Списке
1603 Списку
2552 Список
728 Спорт
286 Спорта
255 Спортивная
271 Спортивный
519 Справедливая
334 Справедливости
312 Спрингфилд
450 Спутник
383 Среди
1077 Средиземного
767 Средиземное
1057 Средиземном
789 Средиземноморье
681 Средиземноморья
281 Среднеазиатского
563 Средневековье
1122 Средневековья
1118 Среднего
258 Среднее
3976 Средней
572 Среднем
1540 Средние
782 Средний
314 Средних
1161 Среднюю
1153 Средняя
257 Ст
397 Ста
417 Ставка
1344 Ставки
318 Ставрополе
600 Ставрополь
798 Ставропольский
1710 Ставропольского
511 Ставропольской
364 Ставропольском
289 Ставрополя
355 Стад
374 Стадион
1771 Сталин
3263 Сталина
598 Сталинград
864 Сталинграда
303 Сталинграде
619 Сталинградом
517 Сталинградского
1124 Сталинградской
394 Сталинградском
449 Сталинских
1958 Сталинской
648 Сталину
506 Сталиным
446 Сталь
1038 Стамбул
531 Стамбула
1331 Стамбуле
1744 Станислав
2020 Станислава
335 Станиславом
537 Станция
560 Стар
2072 Старая
1512 Старого
674 Старое
1542 Старой
823 Старом
305 Старт
274 Старую
624 Старшего
769 Старший
648 Старые
2443 Старый
1053 Статистическом
318 Статистическому
588 Статья
259 Стелла
262 Стена
422 Степа
1504 Степан
1023 Степана
478 Степанов
1391 Степанова
1516 Степанович
341 Степановича
262 Степановна
539 Степного
423 Степной
383 Стихи
458 Сто
429 Сток
1152 Стокгольм
572 Стокгольма
2040 Стокгольме
517 Столетней
256 Столица
251 Стоянов
356 Стравинского
937 Страна
424 Стране
511 Страны
250 Страстей
318 Страсти
272 Стрела
425 Строитель
296 Строительство
415 Студии
433 Студия
678 Су
575 Суворов
1898 Суворова
938 Суд
1828 Суда
635 Судан
1189 Судана
548 Судане
277 Суде
284 Судного
252 Судьба
294 Суздальского
655 Султан
308 Султана
314 Суматра
298 Сумерки
369 Сумская
785 Сумской
347 Сумы
687 Сунь
748 Супер
322 Супермена
1008 Сура
736 Суры
327 Сухая
341 Сухиничи
271 Сухого
483 Сухой
437 Сухопутных
382 Сухуми
337 Суэцкого
501 Съезд
591 Съезда
344 Съезде
262 Сызрань
977 Сыктывкар
864 Сын
299 Сына
1413 Сэм
901 Сэма
339 ТАСС
1243 ТЭЦ
413 Та
305 Таврического
9289 Таврической
294 Таганке
642 Таганрог
486 Таганрога
645 Таганроге
354 Таганрогского
615 Тагил
892 Таджикистан
1343 Таджикистана
628 Таджикистане
581 Таджикской
1184 Таз
1044 Таиланд
1198 Таиланда
1062 Таиланде
551 Таити
276 Тай
828 Тайване
1135 Тайвань
902 Тайваня
292 Таймыр
471 Тайна
259 Тайная
381 Тайного
294 Тайной
413 Тайны
290 Тайный
1033 Так
372 Таким
1039 Таллин
702 Таллина
990 Таллине
298 Талмуда
437 Там
716 Тамара
317 Тамары
567 Тамбов
383 Тамбове
267 Тамбовская
431 Тамбовского
2140 Тамбовской
259 Танец
827 Танзании
342 Танцы
393 Таня
342 Тара
448 Тарас
679 Тараса
339 Тарасов
820 Тарту
570 Тасмании
336 Тасмания
290 Татарский
433 Татарского
635 Татарской
2678 Татьяна
376 Татьяной
907 Татьяны
1402 Ташкент
668 Ташкента
1610 Ташкенте
409 Ташкентского
364 Ташкентской
3806 Тбилиси
397 Тбилисского
1518 Твери
533 Тверская
818 Тверского
4982 Тверской
1152 Тверь
484 Те
2140 Театр
1933 Театра
340 Театральная
285 Театрального
318 Театральное
418 Театральной
287 Театральный
1630 Театре
761 Тевтонского
444 Тегеран
681 Тегерана
556 Тегеране
1394 Тейлор
668 Тейлора
267 Темзы
359 Тенерифе
266 Тени
1160 Теннесси
260 Тень
1100 Теодор
950 Теодора
279 Теодором
764 Теория
738 Тереза
519 Терезы
775 Терек
637 Терека
287 Терминал
764 Тернопольская
367 Тернопольской
406 Территория
304 Терского
334 Терской
3317 Техас
1437 Техаса
717 Техасе
266 Технический
366 Технического
273 Технологии
269 Технологический
297 Технология
420 Тиберия
837 Тибет
1010 Тибета
652 Тибете
712 Тигр
432 Тигра
258 Тимор
268 Тимора
258 Тимофеев
678 Тимофеевич
661 Тимофей
362 Тимофея
565 Тимур
631 Тимура
388 Тина
1109 Тип
290 Тира
383 Тирасполь
439 Тироль
269 Тироля
343 Титан
363 Титана
413 Титаник
358 Титаника
661 Тифлис
920 Тифлисе
292 Тихая
326 Тихвинской
1023 Тихий
2682 Тихого
1262 Тихом
606 Тихон
592 Тихона
335 Тихонов
293 Тихоокеанский
1024 Тихоокеанского
479 Тихоокеанской
357 Тихоокеанском
890 То
1568 Тобол
425 Тобола
439 Тобольск
336 Тобольске
368 Тобольского
605 Тобольской
522 Товарищества
322 Товарищество
265 Тогда
256 Токийского
4346 Токио
1019 Толедо
1374 Толстого
912 Толстой
1461 Тольятти
2696 Том
1923 Тома
4811 Томас
3348 Томаса
1195 Томасом
341 Томасу
1007 Томи
630 Томом
838 Томск
606 Томска
880 Томске
520 Томский
954 Томского
2347 Томской
359 Томском
4347 Тони
375 Топ
479 Топографической
425 Тор
405 Тора
297 Торговой
306 Торговый
296 Торжка
354 Торжок
276 Тори
3353 Торонто
2104 Торпедо
542 Торы
311 Тот
323 Точка
353 Трактор
437 Транссибирской
253 Трансформеры
1305 Третий
1952 Третьего
1037 Третьей
465 Третьем
467 Третья
1985 Три
623 Тридцатилетней
316 Триест
268 Триесте
495 Тринидад
313 Тринидада
1088 Триполи
337 Триумф
264 Трои
455 Троицкая
958 Троицкий
952 Троицкого
374 Троицкое
644 Троицкой
599 Троицком
1610 Троицы
257 Тролль
814 Троцкий
932 Троцкого
821 Труд
3446 Труда
251 Трудовая
2219 Трудового
487 Трудовой
312 Труды
267 Ту
580 Туапсе
274 Тувы
902 Тула
1150 Туле
400 Тулу
263 Тулуза
448 Тулузе
725 Тулузы
698 Тулы
374 Тульская
328 Тульский
470 Тульского
2412 Тульской
936 Тунис
842 Туниса
670 Тунисе
293 Тупик
1450 Тур
1260 Тура
314 Тургенева
641 Туре
586 Турецкой
633 Турин
355 Турина
1797 Турине
424 Туркестан
560 Туркестана
360 Туркестане
804 Туркестанского
484 Туркестанской
1082 Туркмении
308 Туркменистан
1433 Туркменистана
287 Туркменистане
591 Туркменской
824 Турку
262 Турне
1504 Турцией
8601 Турции
2295 Турцию
2233 Турция
970 Ты
278 Тьмы
755 Тюмени
308 Тюменского
1576 Тюменской
747 Тюмень
479 УВД
2801 УК
293 УКВ
301 УКРАИНСКОГО
1908 Уайт
313 Убийство
272 Уганде
540 Уганды
263 Угличского
805 Уголовного
1025 Удмуртии
503 Удмуртия
607 Удмуртской
293 Ужгород
1238 Узбекистан
2338 Узбекистана
786 Узбекистане
754 Узбекской
4618 Уильям
3956 Уильяма
1321 Уильямом
370 Уильяму
272 Уимблдон
354 Уимблдона
543 Уимблдоне
350 Уимблдонского
312 Уимблдонском
1088 Указ
604 Указа
4415 Указом
395 Указу
7700 Украина
11045 Украине
288 Украинки
968 Украиной
1609 Украинская
1644 Украинский
552 Украинских
4270 Украинского
5223 Украинской
1066 Украинском
309 Украинскую
2430 Украину
44695 Украины
1300 Улица
418 Ульяновск
331 Ульяновске
289 Ульяновского
1156 Ульяновской
1655 Умершие
314 Универсиаде
422 Универсиады
4019 Университет
5270 Университета
4771 Университете
335 Университетом
269 Унион
405 Уолта
1999 Управление
393 Управлением
537 Управлении
3876 Управления
410 Ура
2882 Урал
2093 Урала
1494 Урале
270 Уральская
934 Уральский
1612 Уральского
928 Уральской
378 Уральском
439 Уральскому
328 Уран
544 Урана
456 Уругвае
891 Уругвай
2231 Уругвая
754 Уса
1214 Успения
394 Успенская
929 Успенский
1126 Успенского
392 Успенской
644 Успенском
344 Уссури
844 Устав
853 Устава
305 Уставом
279 Уставу
397 Устье
323 Устья
1207 Усы
376 Утрехт
328 Утрехта
256 Утрехте
397 Утро
1495 Уфа
1376 Уфе
381 Уфимский
664 Уфимского
791 Уфимской
284 Уфимском
461 Уфу
1073 Уфы
262 Ученого
461 Училище
396 Учитель
710 Учредительного
425 Учредительное
1396 Уэльс
2530 Уэльса
1209 Уэльсе
388 Уэльского
1304 ФБР
1911 ФИФА
4413 ФРГ
1376 ФСБ
395 Фабрика
12444 Файл
480 Факел
306 Факультет
585 Фарерских
269 Фе
1702 Февральской
463 Федеральная
2891 Федерального
577 Федеральное
1892 Федеральной
319 Федеральном
823 Федеральный
1542 Федеральным
558 Федеративной
814 Федерацией
35900 Федерации
499 Федерацию
2076 Федерация
945 Федор
682 Федора
1012 Федорович
485 Федоровича
336 Федоровна
297 Федоровны
1297 Феликс
940 Феликса
254 Феликсом
770 Феникс
297 Феникса
471 Феодор
740 Феодора
629 Феодосии
617 Феодосий
621 Феодосийский
1007 Феодосийского
312 Феодосийском
302 Феодосийскому
1306 Феодосия
290 Феофан
301 Феофана
406 Ферганской
395 Ферма
374 Ферми
768 Феррари
360 Фестивале
669 Фестиваль
405 Фестиваля
269 Фи
317 Фив
270 Фивы
435 Фигаро
1119 Фиджи
281 Физика
751 Фил
502 Фила
1728 Филадельфии
324 Филадельфию
964 Филадельфия
507 Филарет
474 Филарета
367 Фили
3674 Филипп
3935 Филиппа
1147 Филиппин
978 Филиппинах
917 Филиппины
279 Филиппов
435 Филиппович
1052 Филиппом
591 Филиппу
305 Философия
524 Фильм
510 Финал
261 Финалист
567 Финикс
763 Финляндией
10516 Финляндии
1134 Финляндию
2919 Финляндия
285 Финляндский
660 Финляндского
255 Финляндской
267 Финн
325 Финский
1114 Финского
382 Финском
618 Флаг
1368 Фландрии
281 Фландрию
338 Фландрия
536 Флора
2477 Флоренции
503 Флоренцию
710 Флоренция
2703 Флорида
811 Флориде
332 Флориду
875 Флориды
306 Флот
1302 Флота
436 Фома
334 Фомин
614 Фомы
342 Фон
1688 Фонд
2658 Фонда
434 Фондом
278 Фонтана
300 Фонтенбло
1228 Форд
749 Форда
313 Формула
291 Формулы
814 Форт
483 Форум
352 Форума
497 Фрайбург
1059 Франк
766 Франка
2161 Франко
301 Франкского
448 Франкфурт
263 Франкфурта
648 Франкфурте
2851 Франсуа
1984 Франц
3163 Францией
44899 Франции
667 Франциск
1185 Франциска
259 Франциско
6455 Францию
9216 Франция
689 Французская
527 Французский
859 Французского
3238 Французской
254 Французскому
736 Фред
448 Фреда
4438 Фридрих
4752 Фридриха
1077 Фридрихом
552 Фридриху
608 Фриц
412 Фрица
623 Фронт
562 Фронта
1202 Фрунзе
530 Фу
549 Фурье
332 Футбольная
2289 Футбольной
620 Ха
710 Хабаровск
410 Хабаровска
572 Хабаровске
336 Хабаровский
1190 Хабаровского
362 Хабаровском
405 Хаджи
361 Хайле
312 Хайфа
342 Хайфе
328 Хайфы
507 Хакасии
372 Хакасия
258 Халле
1367 Хан
606 Хана
258 Ханчжоу
419 Хаоса
417 Харбин
539 Харбине
922 Харви
259 Хартии
3165 Харьков
1826 Харькова
2804 Харькове
1236 Харьковская
1333 Харьковский
2430 Харьковского
254 Харьковское
2520 Харьковской
979 Харьковском
886 Хасан
321 Хасана
339 Хау
261 Хе
3017 Хельсинки
557 Херсон
300 Херсоне
296 Херсонская
1085 Херсонской
388 Хи
441 Химик
644 Химки
344 Хиросима
256 Хиросимы
780 Хит
648 Хмельницкий
1423 Хмельницкого
377 Хмельницкой
891 Хо
305 Ходжа
707 Хоккайдо
857 Холл
389 Холла
577 Холм
663 Холмс
527 Холмса
302 Холодной
962 Холокоста
751 Хонсю
412 Хор
4596 Хорватии
317 Хорватию
1193 Хорватия
3101 Хосе
1655 Храм
1289 Храма
404 Храме
5191 Христа
341 Христе
565 Христиан
1459 Христова
318 Христом
1403 Христос
310 Христу
436 Хроника
324 Хронике
576 Хроники
2139 Хуан
1387 Хуана
385 Хуаном
302 Худ
333 Худа
643 Художеств
253 Художественная
563 Художественного
283 Художественном
442 Художественный
266 Художник
286 Художников
498 Хулио
637 Хусейн
798 Хусейна
1287 Хьюстон
504 Хьюстона
675 Хьюстоне
2138 ЦИК
15028 ЦК
1596 ЦРУ
4204 ЦСКА
291 Царского
357 Царское
494 Царском
373 Царскосельского
1257 Царства
396 Царстве
445 Царство
696 Царь
438 Царя
421 Цветы
325 Цезарем
981 Цезарь
1357 Цезаря
254 Цейлон
382 Цельсия
297 Центавр
342 Центавра
5367 Центр
3162 Центра
611 Центральна
1909 Центральная
6102 Центрального
504 Центральное
8078 Центральной
2826 Центральном
327 Центральному
895 Центральную
4399 Центральный
630 Центральным
396 Центральных
1238 Центре
434 Центром
483 Церквей
11218 Церкви
3870 Церковь
946 Церковью
736 Цинциннати
401 Цицерона
296 Цхинвали
811 Цюрих
486 Цюриха
1105 Цюрихе
900 ЧК
465 ЧМ
424 Чад
470 Чада
587 Чайка
459 Чайковский
1162 Чайковского
1362 Чан
322 Чао
2386 Чарли
2690 Чарльз
2030 Чарльза
803 Чарльзом
302 Час
1650 Часть
281 Чебоксарах
460 Чебоксарского
510 Чебоксары
356 Челны
1825 Человек
1186 Челябинск
666 Челябинска
292 Челябинская
763 Челябинске
328 Челябинский
596 Челябинского
2080 Челябинской
671 Чемпион
473 Чемпиона
3101 Чемпионат
2980 Чемпионата
263 Чемпионатах
2592 Чемпионате
250 Чемпионату
1322 Чемпионов
320 Чемпионом
600 Через
352 Череповец
683 Череповца
414 Черкасский
327 Черкасского
614 Черкасской
312 Черкассы
300 Черная
751 Чернигов
322 Чернигова
417 Чернигове
1669 Черниговская
457 Черниговский
862 Черниговского
3039 Черниговской
1146 Чернобыльской
309 Чернов
269 Черновицкой
335 Черновцы
583 Черного
2185 Черногории
568 Черногория
586 Черноморец
473 Черноморский
285 Черноморским
2468 Черноморского
254 Черноморское
333 Черноморской
517 Черноморском
290 Черноморца
423 Черный
328 Черных
255 Чернышевского
512 Черчилль
352 Черчилля
463 Честер
269 Четвертого
260 Четвертьфинал
621 Четыре
5075 Чехии
477 Чехию
1143 Чехия
394 Чехов
846 Чехова
4354 Чехословакии
642 Чехословакию
1241 Чехословакия
256 Чехословацкого
317 Чехословацкой
1413 Чеченской
1227 Чечне
1281 Чечни
399 Чечню
686 Чешской
5614 Чикаго
302 Чикагского
395 Чикагском
4822 Чили
293 Численность
532 Чита
360 Чите
427 Читинской
375 Читы
580 Член
761 Чрезвычайный
849 Чувашии
286 Чувашского
1629 Чувашской
1581 Чудотворца
361 Чукотского
251 Ша
362 Шамиль
591 Шамиля
1197 Шанхае
1137 Шанхай
512 Шанхая
345 Шарлем
338 Шарлотт
747 Шарлотта
598 Шарлотты
1137 Шарль
1117 Шарля
712 Шах
292 Шаха
285 Шахты
303 Шведского
649 Шведской
286 Швейцарией
7951 Швейцарии
1409 Швейцарию
2926 Швейцария
353 Швейцарской
1166 Швецией
10309 Швеции
1353 Швецию
2829 Швеция
271 Шевалье
302 Шейх
365 Шекспир
1635 Шекспира
528 Шелли
309 Шереметьево
319 Шерлока
391 Шестидневной
272 Шестой
273 Шесть
766 Шеффилд
333 Шивы
476 Шиллера
284 Шинник
1481 Школа
1409 Школе
972 Школу
978 Школы
313 Школьная
540 Шопена
283 Шоссе
271 Шотландией
7527 Шотландии
900 Шотландию
1644 Шотландия
259 Шотландской
1936 Шоу
339 Шпицберген
698 Шри
326 Шрусбери
287 Штаб
906 Штаба
337 Штатам
357 Штатами
2069 Штатах
3054 Штатов
1502 Штаты
341 Штраус
542 Штрауса
306 Штурм
982 Штутгарт
354 Штутгарта
751 Штутгарте
460 Шу
427 Шуберта
309 Шуйский
774 Шуйского
286 Щелкунчик
290 Щит
1141 ЭВМ
262 ЭДС
251 Эвелин
312 Эверест
459 Эгейского
269 Эгейском
600 Эдгар
772 Эдгара
537 Эдинбург
418 Эдинбурга
690 Эдинбурге
2943 Эдуард
3094 Эдуарда
655 Эдуардом
388 Эдуарду
358 Эй
439 Эйлера
371 Эйнштейн
646 Эйнштейна
510 Эквадор
869 Эквадора
371 Эквадоре
342 Экваториальной
497 Экономика
324 Экономического
279 Экран
319 Эксперт
429 Экспресс
434 Электроника
464 Элеонора
374 Элеоноры
673 Эли
851 Эль
260 Эльба
449 Эльбы
319 Эльзас
311 Эльзаса
289 Эльзасе
1026 Эмили
336 Эмилия
974 Эмиль
708 Эмиля
692 Эмма
382 Эммануил
317 Эммануила
313 Эммы
370 Энгельс
602 Энгельса
262 Энд
2370 Эндрю
678 Энергия
515 Энрико
254 Энтузиастов
612 Энциклопедии
412 Энциклопедия
345 Эпохи
297 Эри
364 Эридан
310 Эрл
476 Эрмитаж
616 Эрмитажа
437 Эрмитаже
588 Эрнест
511 Эрнеста
270 Эссен
523 Эсте
323 Эстонией
6162 Эстонии
494 Эстонию
1296 Эстония
261 Эстонского
1265 Эстонской
574 Эта
338 Эти
2040 Это
568 Этот
1992 Эфиопии
306 Эфиопию
407 Эфиопия
780 Эхо
3876 ЮАР
257 ЮНА
3601 ЮНЕСКО
1174 Юань
449 Юбилейный
2364 Юг
1465 Юга
673 Юге
6343 Югославии
622 Югославию
1516 Югославия
4577 Южная
5593 Южного
612 Южное
18350 Южной
3068 Южном
474 Южному
1968 Южную
269 Южные
4314 Южный
487 Южным
454 Южных
419 Юкатан
280 Юкатана
363 Юкон
290 Юкона
528 Юлиан
620 Юлиана
255 Юлием
1033 Юлии
863 Юлий
2363 Юлия
272 Юн
285 Юнга
284 Юнион
1004 Юность
281 Юный
587 Юпитер
1937 Юпитера
401 Юра
1280 Юрием
7261 Юрий
556 Юрию
4376 Юрия
383 Юрьев
281 Юрьева
1358 Юрьевич
448 Юрьевича
305 Юрьевна
948 Юта
285 Юты
559 Яблоко
532 Ява
292 Яве
256 Явы
259 Яд
777 Якоб
625 Якоба
350 Якоби
2269 Яков
2092 Якова
2042 Яковлевич
550 Яковлевича
378 Яковлевна
383 Яковом
262 Якову
1206 Якутии
642 Якутия
381 Якутск
260 Якутска
259 Якутске
398 Якутской
379 Ялта
512 Ялте
300 Ялты
350 Ямайка
315 Ямайке
541 Ямайки
316 Ямамото
4209 Ян
2948 Яна
751 Яном
350 Яну
591 Янцзы
1565 Японией
20968 Японии
2386 Японию
3808 Япония
518 Японского
621 Японской
1022 Яр
1142 Ярослав
1316 Ярослава
1465 Ярославле
1350 Ярославль
1116 Ярославля
265 Ярославом
374 Ярославская
703 Ярославский
1257 Ярославского
3187 Ярославской
434 Ярославском
367 Яссы
515 аббат
463 аббата
383 аббатом
1202 аббатства
689 аббатстве
983 аббатство
1024 аббревиатура
293 аббревиатурой
324 аббревиатуры
324 абонента
750 абонентов
732 аборигенов
253 аборигены
281 аборт
379 абортов
262 абсолютизма
476 абсолютная
3150 абсолютно
636 абсолютного
641 абсолютное
1078 абсолютной
339 абсолютном
295 абсолютную
974 абсолютный
648 абсолютным
261 абсолютных
725 авангард
833 авангарда
345 авангарде
352 авангардом
3037 аварии
455 аварий
471 аварийного
318 аварийной
275 аварийном
303 аварийных
944 аварию
504 авария
3583 август
103938 августа
24145 августе
486 августу
875 авеню
504 аверсе
285 авиабаза
635 авиабазе
257 авиабазу
414 авиабазы
580 авиакатастрофе
679 авиакомпанией
3448 авиакомпании
979 авиакомпаний
2425 авиакомпания
263 авиакомпаниями
365 авиалинии
265 авиалиний
933 авианосец
879 авианосца
808 авианосцев
417 авианосцы
350 авиаполк
918 авиаполка
1249 авиацией
9669 авиации
1079 авиационная
4058 авиационного
932 авиационное
3717 авиационной
683 авиационном
1127 авиационную
565 авиационные
2545 авиационный
407 авиационным
1579 авиационных
664 авиацию
1777 авиация
573 австралийская
442 австралийские
1259 австралийский
306 австралийским
1106 австралийских
943 австралийского
971 австралийской
419 австралийском
280 австралийцев
584 австрийская
635 австрийские
2369 австрийский
791 австрийским
385 австрийскими
1074 австрийских
1745 австрийского
364 австрийское
1836 австрийской
555 австрийском
316 австрийскую
280 австрийцами
856 австрийцев
550 австрийцы
563 авто
739 автобиографии
325 автобиографической
400 автобиографию
2404 автобус
1689 автобуса
574 автобусами
400 автобусах
709 автобусе
250 автобусная
349 автобусного
678 автобусное
639 автобусные
569 автобусный
435 автобусным
806 автобусных
3000 автобусов
346 автобусом
2281 автобусы
416 автовокзал
349 автовокзала
1179 автогонкам
815 автогонщик
452 автодорог
1777 автодорога
8183 автодороге
6109 автодороги
377 автодорогой
390 автодроме
253 автозавода
583 автокатастрофе
818 автомагистрали
717 автомагистраль
1147 автомат
1382 автомата
1276 автоматизации
310 автоматизированного
305 автоматизированной
390 автоматизированных
690 автоматики
849 автоматическая
3390 автоматически
435 автоматические
638 автоматический
372 автоматическим
622 автоматических
1296 автоматического
479 автоматическое
1372 автоматической
352 автоматическом
348 автоматическую
1285 автоматов
318 автоматом
509 автоматчиков
581 автоматы
1163 автомашин
400 автомашины
1545 автомобиле
9009 автомобилей
1080 автомобилем
3384 автомобили
7317 автомобиль
2359 автомобильная
1391 автомобильного
363 автомобильное
4332 автомобильной
381 автомобильном
422 автомобильную
862 автомобильные
1251 автомобильный
696 автомобильным
2036 автомобильных
252 автомобилю
6142 автомобиля
273 автомобилям
512 автомобилями
1150 автомобилях
2178 автономии
966 автономию
421 автономия
627 автономная
9890 автономного
1110 автономное
1748 автономной
698 автономном
333 автономные
948 автономный
326 автономным
917 автономных
18830 автор
7789 автора
613 авторам
1794 авторами
1639 авторитет
659 авторитета
279 авторитетным
725 авторитетных
919 авторитетом
7641 авторов
9300 автором
250 авторская
697 авторские
531 авторский
354 авторским
253 авторскими
1779 авторских
750 авторского
355 авторское
816 авторской
343 авторском
294 авторскую
769 авторства
1038 авторство
332 авторством
1074 автору
4016 авторы
792 автосалоне
636 автотранспорта
255 автотрассы
2027 агент
2470 агента
606 агентами
1439 агентов
1661 агентом
625 агентств
3347 агентства
511 агентстве
2714 агентство
1489 агентством
801 агенты
956 агитации
539 агитацию
2884 агломерации
264 агломерацию
363 агломерация
366 аграрного
670 аграрной
361 аграрный
577 агрегат
446 агрегата
966 агрегатов
590 агрегаты
309 агрессивно
355 агрессивной
273 агрессивный
271 агрессивным
305 агрессивных
1070 агрессии
259 агрессию
313 агроном
252 агропромышленного
646 ад
540 ада
265 адаптацией
1110 адаптации
438 адаптация
1492 адвокат
1376 адвоката
888 адвокатов
977 адвокатом
456 адвокатской
272 адвокаты
3711 административная
1652 административно
9606 административного
1164 административное
2141 административной
2801 административном
10229 административному
623 административную
1611 административные
5980 административный
4000 административным
373 административными
4196 административных
655 администратор
495 администратора
619 администратором
1406 администрацией
9609 администрации
324 администраций
907 администрацию
2836 администрация
436 администрирования
2097 адмирал
3173 адмирала
496 адмиралом
273 адмиралу
5033 адрес
1241 адреса
264 адресации
558 адресов
3618 адресу
695 адъютант
657 адъютанта
1570 адъютантом
298 азербайджанская
297 азербайджанские
1402 азербайджанский
599 азербайджанских
889 азербайджанского
858 азербайджанской
389 азербайджанском
687 азербайджанцев
525 азербайджанцы
2280 азиатов
259 азиатские
792 азиатских
443 азиатского
471 азиатской
473 азиаты
405 азот
1597 азота
384 азотной
328 айкидо
653 аймака
782 академией
25792 академии
752 академий
4704 академик
2868 академика
321 академики
501 академиков
1246 академиком
569 академические
1035 академический
816 академических
1717 академического
1516 академической
607 академическом
273 академическую
8859 академию
3314 академия
377 акварели
330 аквариуме
876 акватории
359 аккомпанемент
499 аккредитации
250 аккредитацию
298 аккумулятор
353 аккумулятора
469 аккумуляторов
266 аккумуляторы
340 аккуратно
603 акров
407 аксессуаров
318 аксессуары
2824 акт
1614 акта
399 актами
645 актах
676 акте
1342 актер
772 актера
665 актеров
423 актером
414 актеры
284 актив
437 активами
857 активации
571 активе
439 активен
352 активизации
293 активирует
518 активист
346 активистами
1360 активистов
336 активистом
861 активисты
1310 активная
276 активнее
17265 активно
2188 активного
6361 активное
3373 активной
875 активном
332 активному
6566 активности
3579 активность
937 активностью
3035 активную
615 активны
1637 активные
1833 активный
2647 активным
3390 активными
5689 активных
1315 активов
943 активы
2015 актов
798 актом
624 актрис
12288 актриса
1574 актрисе
2321 актрисой
600 актрису
3463 актрисы
284 акту
298 актуальной
363 актуальность
345 актуальные
408 актуальным
352 актуальных
1332 акты
2070 акул
895 акула
1837 акулы
322 акустическая
383 акустические
357 акустический
487 акустических
252 акустического
517 акустической
1188 акцент
479 акцентом
4706 акции
7315 акций
315 акционерами
839 акционерного
1550 акционерное
255 акционерным
319 акционерных
936 акционеров
476 акционером
288 акционеры
933 акцию
1255 акция
392 акциями
622 акциях
327 албанского
397 албанцев
250 албанцы
251 алгебра
269 алгебраических
254 алгебраической
308 алгебре
645 алгебры
2150 алгоритм
1602 алгоритма
1029 алгоритмов
734 алгоритмы
310 алкалоидов
293 алкалоиды
595 алкоголем
350 алкоголизма
487 алкоголь
312 алкогольного
335 алкогольной
306 алкогольных
1162 алкоголя
614 аллегорий
333 аллегорически
629 аллее
601 аллеи
688 аллея
340 алмаз
317 алмазами
576 алмазов
469 алтаре
343 алтарной
1198 алтарь
1067 алтаря
1494 алфавит
2401 алфавита
668 алфавите
607 алфавитном
284 алфавитов
276 алфавитом
279 алфавиту
270 аль
538 альбедо
51707 альбом
40503 альбома
444 альбомами
1056 альбомах
6897 альбоме
8288 альбомов
5813 альбомом
1796 альбому
3136 альбомы
560 альманах
646 альманаха
527 альманахе
251 альпийские
299 альпийских
349 альпинистов
316 альта
544 альтернатива
429 альтернативная
746 альтернативного
301 альтернативное
1362 альтернативной
304 альтернативную
606 альтернативные
787 альтернативный
815 альтернативных
379 альтернативой
338 альтернативу
674 альтернативы
259 альфа
1006 альянс
837 альянса
353 алюминиевого
286 алюминиевой
281 алюминиевый
426 алюминиевых
445 алюминий
1380 алюминия
312 амбиции
556 амбулатория
884 американец
259 американка
7760 американская
3580 американские
20291 американский
3910 американским
1937 американскими
8919 американских
9712 американского
1257 американское
11033 американской
3378 американском
971 американскому
1005 американскую
727 американца
465 американцам
712 американцами
4201 американцев
450 американцем
1682 американцы
892 аминокислот
407 аминокислоты
551 аммиака
443 аммония
898 амнистии
335 амнистию
316 амнистия
370 амплитуда
354 амплитуды
889 амплуа
261 амстердамского
358 амфибий
4431 анализ
5581 анализа
1175 анализе
256 анализировать
317 анализирует
492 анализом
1001 анализу
300 аналитики
252 аналитиков
319 аналитические
424 аналитических
301 аналитического
778 аналитической
1926 аналог
414 аналога
277 аналогами
588 аналоги
1698 аналогии
474 аналогичен
496 аналогична
546 аналогичная
1370 аналогично
715 аналогичного
575 аналогичное
818 аналогичной
252 аналогичном
658 аналогичную
402 аналогичны
1471 аналогичные
1267 аналогичный
903 аналогичным
509 аналогичными
1173 аналогичных
1041 аналогов
333 аналоговых
846 аналогом
368 анального
266 анархизма
311 анархии
548 анархистов
251 анархисты
1535 анатомии
260 ангар
676 ангел
612 ангела
708 ангелов
393 ангелы
7887 англ
2088 английская
2096 английские
11729 английский
3292 английским
993 английскими
3645 английских
8707 английского
1019 английское
5541 английской
6897 английском
1055 английскому
794 английскую
322 англиканской
2773 англичан
695 англичанам
1433 англичанами
2123 англичане
523 англичанин
309 англичанина
259 англоязычная
698 англоязычной
374 англоязычный
737 англоязычных
268 анемия
313 анестезии
1169 анимации
392 анимационного
701 анимационный
454 анимационных
275 анимацию
371 анимация
258 анналов
426 анналы
522 аннексии
279 аннулирован
365 аномалии
387 анонимно
294 анонимный
547 анонсировала
518 анонсирован
442 анонсирована
884 ансамбле
666 ансамблей
598 ансамблем
333 ансамбли
3637 ансамбль
3028 ансамбля
298 антарктической
537 антенн
462 антенна
348 антенной
267 антенну
1189 антенны
343 антибиотиков
287 антигитлеровской
409 антисемитизма
608 антисоветской
271 антисоветскую
484 антител
293 антитела
291 антифашистского
610 античного
1114 античной
1106 античности
513 античные
278 античный
1125 античных
657 антологии
348 антологию
359 антрополог
1211 антропологии
299 аорты
425 апартеида
319 апелляции
304 апелляцию
393 апогея
551 апостол
1317 апостола
1204 апостолов
306 апостольская
1729 апостольский
366 апостольским
791 апостольского
727 апостольской
625 апостольскую
4269 аппарат
4989 аппарата
472 аппаратами
359 аппаратах
1259 аппарате
432 аппаратного
384 аппаратной
399 аппаратных
2935 аппаратов
814 аппаратом
664 аппаратура
404 аппаратурой
362 аппаратуру
1507 аппаратуры
1267 аппараты
21979 апреле
3377 апрель
519 апрелю
96271 апреля
325 апсиды
743 аптека
390 аптеки
468 араб
769 арабами
1638 арабов
282 арабская
799 арабские
1223 арабский
681 арабским
493 арабскими
2321 арабских
2408 арабского
485 арабское
1035 арабской
982 арабском
1003 арабы
251 аранжировке
669 аранжировки
276 аранжировок
402 аранжировщик
721 арбитр
396 арбитра
261 арбитражный
345 арбитром
1425 аргентинский
276 аргентинских
559 аргентинского
493 аргентинской
503 аргумент
318 аргумента
597 аргументов
324 аргументом
580 аргументы
1876 ареал
1826 ареала
1056 арена
258 аренда
848 аренде
295 арендовал
483 арендован
4549 аренду
3365 аренды
2833 арене
1158 ареной
579 арену
1206 арены
1693 арест
2934 ареста
275 арестам
642 аресте
387 арестов
414 арестовал
1303 арестовали
11983 арестован
1071 арестована
250 арестованного
863 арестованных
498 арестовано
2310 арестованы
775 арестовать
279 арестовывался
390 арестовывают
957 арестом
591 аресту
674 аресты
276 арии
318 аристократ
1322 аристократии
298 аристократических
293 аристократического
498 аристократической
279 аристократия
555 аристократов
308 арифметики
576 арка
359 арками
1079 арки
340 аркой
438 арктических
253 арктического
404 армейская
602 армейские
1448 армейский
598 армейским
922 армейских
2636 армейского
1667 армейской
370 армейскую
321 армейцев
251 армейцы
11105 армией
79449 армии
6709 армий
14394 армию
22370 армия
265 армиям
1060 армиями
481 армиях
3122 армян
427 армянами
1614 армяне
856 армянская
864 армянские
2280 армянский
494 армянским
329 армянскими
1716 армянских
2311 армянского
457 армянское
1932 армянской
557 армянском
457 арок
518 аромат
313 ароматических
333 ароматом
589 арсенал
339 арсенала
316 арсенале
287 арт
662 артели
608 артель
500 артериального
276 артериальной
663 артерии
422 артерий
536 артефактов
526 артефакты
1783 артиллерией
8373 артиллерии
1006 артиллерийская
1165 артиллерийские
2296 артиллерийский
1095 артиллерийским
351 артиллерийскими
2444 артиллерийских
3371 артиллерийского
1067 артиллерийское
3157 артиллерийской
550 артиллерийском
1137 артиллерийскую
278 артиллеристов
312 артиллеристы
1222 артиллерию
1608 артиллерия
7015 артист
1901 артиста
635 артистами
2495 артистка
508 артистки
2509 артистов
702 артистом
1297 артисты
775 арх
1202 археолог
271 археолога
947 археологами
591 археологи
2474 археологии
623 археологическая
1571 археологические
726 археологический
458 археологическим
288 археологическими
2051 археологических
579 археологического
723 археологической
591 археологов
335 археологом
2165 архив
1786 архива
877 архивах
1361 архиве
261 архивного
265 архивной
410 архивные
291 архивным
781 архивных
844 архивов
265 архивом
576 архивы
5665 архиепископ
4491 архиепископа
279 архиепископов
2865 архиепископом
510 архиепископу
274 архиепископы
570 архиереев
275 архиереем
390 архиерей
252 архиерейского
419 архиерея
1451 архимандрит
2353 архимандрита
563 архимандритом
1046 архипелаг
2712 архипелага
873 архипелаге
7056 архитектор
6626 архитектора
542 архитекторами
2363 архитекторов
3747 архитектором
478 архитектору
1284 архитекторы
1322 архитектура
2348 архитектуре
1170 архитектурного
503 архитектурное
804 архитектурной
569 архитектурном
276 архитектурную
829 архитектурные
1306 архитектурный
474 архитектурным
258 архитектурными
1488 архитектурных
