
\data\
ngram 1=47508
ngram 2=1610

\1-grams:
1 <unk>
1 <s>
1 </s>
1 <num>
58 -album
98 -bil
118 -bilar
56 -bit
386 -bitars
199 -cylindrig
101 -cylindriga
77 -diabetes
73 -dimensionella
178 -dörrars
170 -examen
69 -film
76 -filmen
171 -filmerna
62 -flygplan
59 -föraren
92 -förlust
169 -gruppen
65 -håls
63 -kilosklassen
449 -klass
520 -klassen
63 -klassens
111 -klubben
87 -lag
121 -laget
93 -lista
258 -listan
235 -liters
88 -litersmotor
62 -litersmotorn
78 -ljud
188 -lopp
66 -manna
62 -meters
251 -modellen
79 -motorn
86 -målet
5375 -område
61 -orkan
65 -procentig
55 -robotar
151 -seger
68 -segern
165 -serie
675 -serien
76 -serierna
56 -sidig
72 -singel
80 -spel
204 -stall
167 -stallet
59 -system
109 -systemet
144 -takt
5499 -tal
4883 -talen
158 -talens
133002 -talet
10307 -talets
420 -tals
57 -talskyrkan
64 -talsstil
184 -tiden
660 -timmars
126 -turnén
90 -versionen
117 -vinst
74 -vinyl
151 -väg
109 -växlad
1049 -årig
1361 -åriga
1048 -årige
134 -årigt
2318 -åring
168 -åringar
175 -åringen
602 -årsdag
194 -årsdagen
304 -årsjubileet
1103 -årsjubileum
124 -årskontrakt
180 -årsminnet
71 -årsperiod
671 -årsåldern
70 A-League
118 A-VM
153 A-gruppen
63 A-klubben
529 A-lag
583 A-laget
76 A-lagsdebut
313 A-landskamper
77 A-landslag
207 A-landslaget
88 A-sida
432 A1
140 A3
201 A4
112 A6
91 AAA
17211 AB
232 ABB
471 ABBA
614 ABC
218 ABF
1008 AC
226 AD
173 ADHD
187 AF
109 AGA
376 AHL
211 AI
217 AIDS
4159 AIK
129 AIS
122 AJ
93 AN
218 ANC
95 AP
773 AS
245 ASEA
59 ASP
187 AT
360 ATP
270 ATP-touren
263 AU
155 Aalto
99 Abba
178 Abbas
85 Abborrtjärnen
103 Abbot
349 Abchazien
313 Abdullah
145 Abeba
968 Abel
284 Aberdeen
107 Abessinien
75 Abigail
122 Abisko
2000 Abraham
137 Abrahams
223 Abrahamsson
86 Absolut
89 Absolute
528 Abu
58 Accept
215 Access
56 Ack
78 Acke
236 Acta
446 Action
155 Ad
171 Ada
2915 Adam
1614 Adams
71 Adams-Ray
58 Adamsson
193 Addis
759 Addison
95 Adele
88 Adelsohn
122 Adidas
233 Administration
224 Adobe
7428 Adolf
1167 Adolfs
86 Adolfsson
73 Adonis
1372 Adrian
58 Adriana
373 Adriatiska
63 Advent
365 Aero
103 Affärer
1815 Afghanistan
157 Afghanistans
5721 Afrika
443 Afrikanska
719 Afrikas
1296 Aftonbladet
310 Aftonbladets
84 Aga
103 Agaton
119 Agda
73 Agenda
390 Agent
62 Agfa
80 Agne
842 Agnes
511 Agneta
71 Agrarförbundet
82 Ah
217 Ahl
247 Ahlberg
149 Ahlgren
128 Ahlin
60 Ahlqvist
210 Ahlström
531 Ahmed
151 Aida
100 Aina
2620 Air
382 Airbus
425 Akademi
1907 Akademien
513 Akademiens
157 Akademin
468 Akademiska
85 Akalla
132 Akropolis
238 Aktiebolag
268 Aktiebolaget
189 Aktion
307 Aktuellt
1606 Al
1165 Alabama
69 Alabamas
339 Alain
87 Alarm
1523 Alaska
104 Alaskas
267 Alba
131 Alban
1560 Albanien
422 Albaniens
89 Albans
70 Albatross
6521 Albert
192 Albertina
95 Alberts
646 Albin
165 Albino
649 Albrekt
59 Albrekts
510 Album
445 Albums
178 Alby
83 Albysjön
593 Ale
133 Ales
1422 Alex
17660 Alexander
280 Alexanders
138 Alexandersson
644 Alexandra
982 Alexandria
320 Alexis
818 Alf
799 Alfa
550 Alfons
4817 Alfred
104 Alfredsson
235 Alger
1720 Algeriet
132 Algeriets
190 Algot
86 Algotsson
1526 Ali
94 Alias
1770 Alice
186 Alicia
993 Alingsås
145 Alis
2673 All
747 Alla
184 Allah
1154 Allan
68 Alle
396 Allehanda
2104 Allen
88 Allens
124 Allians
249 Alliansen
57 Alliansmissionen
217 Allison
74 Allmän
932 Allmänna
115 Allsvenska
3226 Allsvenskan
64 Allsvenskans
207 Allsång
373 Allt
60 Alltinget
60 Allé
100 Allén
152 Alm
350 Alma
65 Almedalsveckan
253 Almgren
558 Almqvist
98 Almqvists
92 Almunge
725 Alperna
56 Alpernas
108 Alpina
87 Alpine
100 Als
102 Alt
73 Alten
67 Alter
71 Alternativ
128 Alternative
229 Alva
220 Alvar
401 Alvesta
239 Alvik
82 Alviks
172 Alvin
152 Alzheimers
380 Amadeus
521 Amalia
591 Amanda
169 Amazon
456 Amazonas
188 Ambrosius
170 Amelia
122 Amelie
2751 Amerika
943 Amerikanska
639 Amerikas
57 Amiral
127 Amman
190 Amnesty
2033 Amsterdam
98 Amsterdamfördraget
98 Amsterdams
114 Amundsen
481 Amy
651 An
373 Ana
99 Anas
758 And
203 Andalusien
366 Ande
148 Anden
67 Andens
135 Anderberg
768 Anderna
72 Andernas
8469 Anders
909 Andersen
59 Andersens
1586 Anderson
153 Andersons
6266 Andersson
457 Anderssons
229 Andes
266 Andorra
56 Andorras
2454 Andra
379 Andre
1846 Andrea
3171 Andreas
149 Andreasson
118 Andres
1787 Andrew
407 Andrews
271 Android
1975 André
150 Andrée
87 Andrées
157 Andrén
150 Andrés
1448 Andy
264 Aneby
198 Anette
449 Angela
6318 Angeles
117 Angelina
489 Angels
91 Anger
74 Anglikanska
1240 Angola
83 Angolas
76 Anhalt
306 Animal
208 Animation
559 Anita
855 Anka
225 Ankara
255 Ankas
110 Ankeborg
1019 Ann
84 Ann-Louise
73 Ann-Marie
7193 Anna
77 Anna-Greta
114 Anna-Lena
94 Anna-Lisa
116 Annan
249 Annas
2892 Anne
123 Anne-Marie
114 Anneli
76 Annes
126 Annette
640 Annie
672 Annika
125 Anno
1152 Anomala
194 Anomis
56 Anonyma
116 Ansgar
75 Ansgars
67 Anstalten
956 Antarktis
55 Antarktisexpeditionen
152 Antarktiska
101 Ante
103 Anteckningar
1584 Anthony
173 Antiblemma
60 Antikens
131 Antikvitets
2481 Anton
222 Antonia
2447 Antonio
111 Antonov
79 Antonsson
960 Antwerpen
55 Antwerpens
161 Apache
65 Apart
73 Apenninska
165 Apostlagärningarna
133 Apoteket
68 App
71 Appelgren
961 Apple
241 Apples
447 April
70 Ar
85 Arab
295 Arabemiraten
66 Arabförbundet
555 Arabiska
68 Aralsjön
60 Arbetarbladet
117 Arbetaren
71 Arbetarnas
180 Arbetarpartiet
109 Arbete
189 Arbetet
85 Arbetets
56 Arbetsdomstolen
68 Arbetsförmedlingen
689 Arboga
79 Ardennerna
468 Area
62 Areas
2075 Arena
115 Arenas
3349 Argentina
383 Argentinas
100 Arias
684 Aristoteles
1437 Arizona
166 Arjeplog
1049 Arjeplogs
261 Ark
901 Arkansas
217 Arkitekter
156 Arkitektkontor
93 Arkitektur
219 Arkiv
272 Arktis
148 Arla
533 Arlanda
132 Arlöv
78 Arm
1027 Armenien
163 Armeniens
92 Armeniska
294 Arms
137 Armégrupp
202 Armén
313 Arméns
1629 Arne
2149 Arnold
92 Arnolds
344 Aron
116 Aronsson
105 Ars
1106 Arsenal
142 Arsenals
2135 Art
5232 Arthur
104 Arthurs
61 Artikel
59 Artilleri
255 Artist
179 Artists
1287 Arts
498 Artur
316 Arturs
1293 Arvid
264 Arvidsjaur
1265 Arvidsjaurs
314 Arvidsson
1186 Arvika
62 Arvikafestivalen
71 Arvingarna
319 As
186 Asiatiska
4838 Asien
233 Asiens
279 Ask
142 Aska
151 Askersund
488 Askersunds
63 Asklund
102 Askungen
125 Asp
171 Aspen
135 Aspergers
422 Asplund
79 Asplunds
76 Aspudden
122 Assar
189 Assists
2806 Association
97 Associations
222 Assyriska
133 Asta
280 Asterix
760 Aston
242 Astra
1060 Astrid
72 Astronomiska
3190 Aten
247 Atens
1985 Atlanta
2231 Atlanten
90 Atlantens
471 Atlantis
61 Atlantiska
125 Atlantkusten
487 Atlas
62 Atlasbergen
83 Atom
63 Atomaria
278 Attack
159 Atterbom
82 Au
521 Audi
61 Auditorium
59 Augsburgska
6178 August
904 Augusta
183 Augustpriset
115 Augusts
66 Augustsson
3128 Augustus
128 Aura
401 Aurora
500 Auschwitz
1270 Austin
7885 Australien
861 Australiens
627 Australiska
78 Avatar
135 Avenyn
685 Avesta
69 Avis
295 Aviv
60 Avsnitt
456 Away
199 Ax
5228 Axel
499 Axelsson
58 Axfood
89 Axén
895 Azerbajdzjan
119 Azerbajdzjans
257 Azorerna
111 B-VM
257 B-gruppen
105 B-lag
55 B-laget
189 B-lista
129 B-listan
96 B-låt
394 B-sida
137 B-sidan
99 B-sidor
146 B-sångerskan
64 BAR
93 BB
1928 BBC
107 BET
57 BH
62 BIOS
68 BIS
1168 BMW
680 BNP
214 BP
120 Babel
1001 Baby
492 Babylon
557 Bach
71 Bachman
174 Bachs
948 Back
216 Backa
119 Backe
58 Backen
113 Backlund
203 Backman
134 Backström
254 Bacon
1625 Bad
724 Baden
140 Baden-Baden
91 Bagarmossen
546 Bagdad
453 Bagge
466 Bahamas
192 Bahr
287 Bahrain
181 Baja
88 Bajkalsjön
63 Bak
71 Bakom
448 Baku
55 Bal
98 Bale
75 Balearerna
64 Balettakademien
150 Baletten
177 Bali
807 Balkan
195 Balkanhalvön
77 Balkankriget
1003 Ball
94 Ballad
76 Balladen
70 Ballader
69 Balrog
608 Baltikum
210 Baltiska
83 Balzac
195 Bamse
140 Ban
66 Bana
60 Banan
1883 Band
73 Banda
99 Bandet
109 Bandit
91 Bands
356 Bandy
72 Bandyförbundet
657 Bang
285 Bangkok
536 Bangladesh
79 Bangs
1592 Bank
126 Banken
78 Bankeryd
2322 Banks
120 Banner
58 Bantamvikt
130 Bantorget
222 Banverket
356 Baptist
104 Baptistsamfundet
387 Bar
391 Bara
326 Barack
298 Barbados
903 Barbara
100 Barberaren
91 Barbie
494 Barbro
3382 Barcelona
295 Barcelonas
175 Bard
122 Bark
103 Barken
326 Barks
315 Barn
178 Barnen
214 Barnens
277 Barnet
125 Barnkanalen
96 Barnsley
390 Baron
256 Barr
106 Barros
158 Barroso
79 Bars
100 Barsebäck
64 Barsebäcks
1399 Bart
233 Barton
198 Bas
493 Baseball
838 Basel
308 Basket
316 Baskien
437 Bauer
2741 Bayern
185 Bayerns
95 Bayerska
1283 Be
1556 Beach
68 Beagle
374 Beat
428 Beata
1737 Beatles
425 Beatrice
79 Beats
114 Bebop
782 Beck
2457 Becker
198 Beckman
101 Beckmans
70 Bed
5803 Beethoven
176 Beethovens
161 Beijer
353 Beijing
508 Beirut
163 Bel
429 Belfast
4285 Belgien
458 Belgiens
153 Belgiska
977 Belgrad
70 Belgrads
304 Belize
1157 Bell
391 Bella
132 Bellamy
88 Bellas
418 Bellman
166 Bellmans
174 Bells
1617 Ben
59 Ben-dov
85 Benetton
240 Benfica
150 Bengal
221 Bengalen
107 Bengaliska
2822 Bengt
69 Bengtsdotter
675 Bengtsfors
121 Bengtson
1233 Bengtsson
75 Bengtssons
283 Benin
1605 Benjamin
729 Benny
57 Bens
284 Bentley
151 Benton
142 Benz
154 Benzelius
105 Beowulf
134 Beppe
2213 Berg
444 Berga
61 Bergdahl
1497 Bergen
75 Bergendahl
59 Bergendal
57 Bergenhus
210 Bergens
503 Berger
114 Berget
448 Berggren
423 Bergh
180 Berghagen
63 Berghs
106 Bergkvist
90 Bergling
695 Berglund
1707 Bergman
478 Bergmans
56 Bergmark
101 Bergquist
393 Bergqvist
1136 Bergs
56 Bergsgatan
128 Bergshamra
144 Bergsjö
138 Bergsjön
204 Bergskollegium
547 Bergslagen
121 Bergslagens
85 Bergslagernas
170 Bergslags
63 Bergsskolan
170 Bergstedt
117 Bergsten
129 Bergstrand
811 Bergström
83 Bergsunds
78 Bergvall
163 Berit
940 Berkeley
11772 Berlin
79 Berlingske
180 Berlinmuren
121 Berlinmurens
1507 Berlins
91 Berlusconi
1135 Bern
559 Bernadotte
93 Bernadottes
241 Berndt
167 Berner
1515 Bernhard
65 Bernhards
75 Bernoulli
285 Berns
314 Bernt
1039 Bert
174 Berta
212 Bertha
91 Bertie
1437 Bertil
75 Bertilsson
342 Berts
109 Berwald
102 Berättelsen
86 Berättelser
267 Beskow
1747 Best
187 Beta
192 Betlehem
593 Betty
260 Bhutan
106 Bi
185 Bianca
179 Bibel
1641 Bibeln
333 Bibelns
120 Bibliotek
104 Biblioteket
213 Bidrag
61 Bien
86 Bil
903 Bild
103 Bilder
409 Bildt
2704 Bill
55 Billerud
108 Bills
79 Billström
1455 Billy
96 Bin
122 Binda
178 Bingolotto
279 Bio
128 Biografteaterns
1873 Birger
67 Birgers
175 Birgersson
439 Birgit
1245 Birgitta
189 Birgittas
316 Birka
79 Birkaland
993 Birmingham
113 Biskop
82 Biskopsgården
94 Bit
72 Bitch
71 Biton
84 Bitter
140 Bjarne
80 Bjurholm
356 Bjurholms
63 Bjurström
93 Bjuv
111 Bjuvs
79 Bjärred
240 Björck
506 Björk
81 Björken
78 Björkhagen
415 Björklund
277 Björklöven
560 Björkman
223 Björkö
294 Björling
2929 Björn
80 Björne
90 Björnen
86 Björnram
88 Björns
93 Björnsson
60 Björnstrand
3875 Black
99 Blackeberg
94 Blacks
57 Blad
91 Bladh
68 Bladhs
404 Blair
64 Blairs
183 Blanco
95 Blank
110 Blanka
156 Blast
3139 Blekinge
120 Blekinges
238 Blind
145 Blix
147 Blixt
316 Block
513 Blom
387 Blomberg
60 Blomdahl
80 Blomgren
112 Blomkvist
56 Blomquist
282 Blomqvist
99 Bloms
134 Blonde
94 Blu-ray
1327 Blues
82 Bluetooth
60 Bluff
853 Blå
2324 Bo
520 Board
3021 Bob
349 Boberg
168 Bobergs
371 Bock
203 Boda
616 Boden
1150 Bodens
70 Bodensjön
153 Bodil
185 Bodin
79 Bodström
875 Boeing
565 Bofors
89 Bogart
208 Bohlin
217 Bohman
100 Bohr
2424 Bohuslän
423 Bohusläns
175 Bok
153 Boken
140 Bokförlag
155 Bokförlaget
125 Boklotteriet
56 Boklund
60 Bolaget
55 Bolagsverket
186 Boliden
194 Bolin
69 Bolinder
62 Bolinders
2130 Bolivia
137 Bolivias
110 Boll
75 Bollebygd
256 Bollebygds
155 Bollhuset
84 Bollman
1097 Bollnäs
824 Bologna
88 Bom
173 Boman
97 Bomb
416 Bombay
118 Bommen
556 Bon
92 Bona
513 Bonaparte
80 Bonapartes
1150 Bond
159 Bond-filmen
728 Bonde
217 Bondeförbundet
95 Bondfilmen
55 Bondfilmerna
168 Bonds
915 Bonn
956 Bonnier
765 Bonniers
75 Bonns
232 Boom
91 Boots
82 Bor
146 Bordat
587 Bordeaux
81 Boren
961 Borg
112 Borgen
163 Borgholm
292 Borgholms
165 Borgs
59 Borgsjö
57 Borgstena
206 Borgström
2647 Boris
991 Borlänge
429 Bornholm
78 Bornholms
74 Borta
65 Bortom
2565 Borås
104 Bos
1647 Bosnien
353 Bosnien-Hercegovina
92 Bosnienkriget
95 Bosniens
193 Boss
418 Bosse
2439 Boston
95 Bostons
410 Boström
95 Boströms
81 Bostäder
121 Botaniska
644 Botkyrka
146 Botniabanan
784 Botswana
175 Bottenhavet
229 Bottenviken
98 Bottniska
281 Boulevard
439 Bourbon
2246 Bourgogne
60 Boverket
99 Bowling
367 Box
162 Boxer
94 Boxholm
320 Boxholms
177 Bra
171 Brahms
326 Brand
139 Brands
1092 Brandt
102 Brandts
636 Brandy
241 Brandys
65 Brann
68 Brant
5310 Brasilien
535 Brasiliens
69 Brass
64 Brasse
299 Bratislava
409 Bratt
259 Bravo
61 Brawn
206 Break
195 Breda
100 Bredäng
87 Breivik
1132 Bremen
88 Bremens
111 Bres
344 Brett
77 Brev
80 Brezjnev
2019 Brian
811 Bridge
85 Bridgeport
194 Bridges
225 Briggs
363 Brighton
158 Brink
882 Brita
2944 British
273 Britney
325 Britt
297 Britta
71 Britten
64 Brittisk
1725 Brittiska
497 Bro
826 Broadway
210 Broberg
195 Broder
84 Brodin
178 Brolin
236 Broman
1549 Bromma
234 Brommapojkarna
172 Bromölla
85 Bron
952 Brooklyn
589 Bror
767 Bros
147 Broström
83 Brott
84 Brottsbalken
3285 Brown
253 Browns
2133 Bruce
431 Bruk
210 Bruks
191 Brun
305 Brundin
125 Brunn
145 Brunnsparken
1020 Bruno
288 Bryggeri
112 Bryggerier
73 Bryggeriet
76 Bryn
65 Brynolf
1833 Bryssel
68 Bryssels
89 Bräck
1147 Bräcke
299 Brännkyrka
115 Brännström
551 Bröderna
67 Brödraskapet
68 Bröllopet
118 Bu
65 Bubbla
121 Bud
66 Buda
1660 Budapest
74 Budapests
316 Buddha
101 Buddhas
90 Buick
508 Bukarest
56 Bukowski
73 Bukowskis
2282 Bulgarien
303 Bulgariens
63 Bulgariska
645 Bull
84 Bullen
105 Bulletin
101 Bullock
227 Bulls
59 Bunker
94 Buren
494 Burke
270 Burkina
120 Burks
66 Burlöv
90 Burlövs
2116 Burma
265 Burman
74 Burmas
179 Burr
60 Burs
788 Burton
100 Burträsk
286 Burundi
56 Burundis
145 Bus
803 Bush
66 Bushs
683 Business
80 Buss
4393 Butler
156 Button
556 By
76 Bygg
141 Byggnads
131 Byggnadsstyrelsen
64 Bylund
61 Byn
325 Bysantinska
133 Byström
185 Bäck
204 Bäckman
290 Bäckström
130 Bägge
1716 Bästa
126 Bålsta
342 Båstad
169 Båstads
143 Böcker
168 Böckers
72 Böhm
538 Börje
209 Börjesson
112 Börs
65 Börsen
168 C-1
237 C-2
82 C-VM
126 C-dur
113 C-gruppen
75 C-vitamin
168 CA
2284 CD
67 CD-ROM
89 CD-singel
99 CD-skiva
213 CD-skivor
105 CD-utgåvan
97 CE
147 CET
60 CFC
488 CIA
78 CM
230 CNN
176 CP
137 CPU
55 CSN
97 CSS
183 CV
102 Ca
202 Cadillac
913 Caesar
293 Caesars
555 Café
57 Cajsa
739 Calvados
1558 Cambridge
3042 Cameron
55 Camerons
354 Camilla
75 Camping
278 Campus
729 Canal
109 Cancer
634 Cannes
499 Cape
88 Capone
69 Cappella
84 Cardigans
321 Carin
273 Carina
20928 Carl
123 Carl-Axel
61 Carl-Erik
227 Carl-Gustaf
101 Carl-Johan
374 Carlberg
71 Carlbergs
396 Carlgren
1624 Carlos
85 Carls
327 Carlson
2085 Carlsson
141 Carlssons
66 Carlström
75 Carlén
422 Carmen
461 Carnegie
76 Carnot
442 Carola
3485 Carolina
178 Carolinas
814 Caroline
118 Carolus
1407 Carter
69 Carters
421 Cash
232 Casper
104 Cassandra
899 Catharina
58 Caymanöarna
1294 Cecilia
84 Cederberg
87 Cedergren
303 Cederström
71 Celine
122 Cell
494 Celsius
305 Celtic
179 Celtics
82 Cement
62 Cementgjuteriet
109 Cent
2464 Center
120 Centern
518 Centerpartiet
188 Centerpartiets
99 Centers
1830 Central
322 Centrala
310 Centralafrikanska
583 Centralamerika
61 Centralbron
62 Centralbyrån
79 Centrale
462 Centraleuropa
105 Centralorganisation
115 Centralstationen
762 Centrum
162 Cessna
200 Ceylon
1177 Chalmers
227 Champagne
363 Champion
2002 Champions
1090 Channel
2530 Chapman
65 Chapmans
12236 Charles
216 Charleston
1278 Charlie
66 Charlies
1139 Charlotta
1686 Charlotte
76 Charter
66 Chateaubriand
117 Chef
1053 Chelsea
77 Chelseas
363 Chevrolet
66 Chic
3671 Chicago
116 Chicagos
4449 Chile
372 Chiles
216 Chili
551 China
158 Chip
98 Chips
127 Chopin
2125 Chris
439 Christensen
1184 Christer
9262 Christian
66 Christians
1906 Christina
585 Christine
169 Christofer
603 Christoffer
2274 Christoph
1990 Christopher
94 Chrome
338 Chrysler
500 Cirkus
321 Citroën
73 Citrus
9144 City
110 Cityakuten
94 Citybanan
256 Citys
88 Citytunneln
295 Civil
78 Civildepartementet
83 Cl
1285 Claes
246 Claesson
546 Clara
55 Clarion
311 Clas
199 Claudia
1413 Clinton
85 Clintons
107 Clown
121 Coach
130 Coca
184 Coca-Cola
582 Cohen
63 Cohens
179 Cola
4558 College
65 Collier
868 Collin
702 Collins
2931 Colombia
200 Colombias
1857 Colorado
62 Colosseum
2411 Columbia
59 Columbias
290 Community
1920 Connecticut
245 Connecticuts
250 Conny
956 Conrad
251 Cool
294 Coop
96 Copco
139 Cornelia
623 Cornelis
80 Corvette
4045 Costa
815 Country
101 Cowboy
107 Cowboys
716 Cox
421 Crazy
67 Credit
138 Cricket
666 Cross
162 Cuba
97 Cullberg
5134 Cup
127 Cup-final
76 Cup-finalen
345 Cup-lag
459 Cup-laget
65 Cup-pokalen
78 Cup-slutspelet
286 Cupen
279 Cupvinnarcupen
92 Curry
461 Curt
1392 Cypern
208 Cyperns
79 Cypress
105 Céline
85 D-dur
55 D-grafik
75 DAB
128 DAF
120 DB
86 DDT
124 DIF
176 DIN
1148 DJ
131 DM
359 DN
1010 DNA
220 DOS
331 DR
562 DS
142 DSB
2082 DVD
57 DVD-skivor
77 Daewoo
880 Dag
95 Daga
213 Dagars
416 Dagblad
1386 Dagbladet
361 Dagbladets
250 Dagen
1868 Dagens
88 Dagerman
58 Dagestan
126 Dagligt
221 Dagmar
127 Dagny
107 Dagsverke
912 Dahl
393 Dahlberg
468 Dahlgren
174 Dahlin
98 Dahlman
162 Dahlqvist
70 Dahls
215 Dahlström
138 Dahlén
102 Dahléns
475 Daily
170 Daimler
127 Daimler-Benz
179 Daisy
1046 Dakota
300 Dal
148 Dala
80 Dalagatan
7743 Dalarna
808 Dalarnas
138 Dalen
83 Dalens
60 Dalhem
67 Dalhems
1095 Dallas
234 Dalman
123 Dalmas
114 Dalregementet
215 Dals
502 Dals-Eds
1934 Dalsland
117 Dalslands
353 Dalton
277 Dam
246 Damallsvenskan
63 Damen
134 Damer
1632 Damernas
132 Damm
59 Dammen
97 Dammsjön
2066 Dan
657 Dana
409 Danderyd
421 Danderyds
6759 Daniel
105 Daniela
388 Daniels
901 Danielsson
112 Danielssons
14499 Danmark
144 Danmark-Norge
2380 Danmarks
189 Dans
246 Dansbandskampen
653 Dansk
408 Danska
579 Danske
195 Dar
140 Darfur
85 Dart
406 Darwin
162 Darwins
315 Data
1333 Dave
10503 David
283 Davids
83 Davidsson
12307 De
232 Deal
150 Debatt
87 Debian
59 Decibel
620 Degerfors
429 Del
437 Delhi
191 Dell
484 Delta
103 Demokraterna
55 Demokraternas
128 Demokrati
75 Demokratisk
816 Demokratiska
99 Demon
134 Demoner
8798 Den
126 Denise
1207 Dennis
156 Depeche
555 Derby
645 Design
129 Desperate
65 Dessutom
100 Destination
6092 Det
1610 Detroit
607 Detta
558 Di
97 Dia
632 Diana
68 Dianas
249 Dias
964 Dick
160 Diesel
308 Dieter
144 Dig
686 Digital
111 Dikter
164 Dimension
71 Dimmiga
212 Din
111 Dina
262 Ding
88 Dinosaur
56 Dinosaurs
86 Diogenes
59 Diplomatarium
117 Diplomatstaden
113 Direkt
188 Disco
2118 Disney
358 Disneys
76 Distribution
388 Div
4622 Division
116 Dixie
71 Dj
189 Djibouti
76 Djungelboken
88 Djurens
1721 Djurgården
1226 Djurgårdens
81 Djurgårdsstaden
69 Djurgårdsteatern
467 Djursholm
245 Djursholms
183 Djävulen
64 Djävulens
312 Dmitrij
497 Dog
387 Doktor
139 Doktorn
158 Dollar
322 Dom
182 Domedagsboken
513 Dominikanska
73 Dominion
125 Domino
71 Domkyrkan
85 Domnarvets
133 Domsjö
118 Domstolen
64 Domänverket
2110 Don
1634 Donald
596 Donau
66 Donaus
327 Donna
145 Dora
344 Doris
594 Dorotea
111 Dos
2362 Douglas
2230 Dr
271 Draft
408 Dragon
241 Dragons
135 Drakar
597 Drake
240 Draken
116 Drakens
63 Drakes
290 Drama
1171 Dramaten
472 Dramatens
577 Dramatiska
1631 Dresden
62 Dresdens
59 Drift
93 Drifters
455 Drive
127 Driver
619 Drottning
69 Drottningen
75 Drottningens
641 Drottninggatan
270 Drottningholm
422 Drottningholms
80 Drottningholmsteatern
94 Drottningholmsvägen
87 Drottningtorget
86 Drängar
69 Dråparen
1180 Du
360 Dubai
1295 Dublin
80 Dum
56 Dun
148 Duo
118 Dust
78 Duvbo
996 Dylan
443 Dynamo
79 Désirée
152 Döda
180 Döden
107 Dödens
62 Dödsstjärnan
88 Döparen
56 Döparens
982 Düsseldorf
156 E-nummer
376 E18
507 E20
246 E22
1096 E4
291 E45
672 E6
70 E65
86 ECB
147 EEG
87 EES
87 EF
369 EG
56 EL
3469 EM
81 EM-brons
351 EM-guld
57 EM-kvalet
99 EM-silver
65 EM-slutspel
121 EM-slutspelet
124 EMU
104 EP-skiva
174 EP-skivan
133 EP-skivor
83 EPA
78 ER
186 ERA
56 ESK
56 EST
106 ETC
3611 EU
91 EU-direktiv
123 EU-kommissionen
126 EU-kommissionär
205 EU-länder
122 EU-medlemskap
106 EU-nämnden
65 EU-parlamentet
66 EV
94 EVA
277 Eagle
264 Eagles
516 Earl
1777 East
880 Ebba
298 Ebbe
104 Ebbes
66 Eco
2282 Ecuador
94 Ecuadors
868 Ed
159 Edberg
178 Edda
151 Eddan
1108 Eddie
370 Eden
69 Edens
61 Eder
138 Edet
289 Edets
1969 Edgar
83 Edin
77 Edit
409 Edith
477 Edition
221 Edlund
157 Edman
1275 Edmund
138 Edmunds
175 Eds
149 Edsbyn
122 Edsbyns
229 Edström
2793 Edvard
162 Edvards
386 Edvin
9242 Edward
3879 Edwards
288 Egeiska
292 Egentliga
78 Egg
285 Egon
5233 Egypten
729 Egyptens
112 Egyptiska
55 Ehn
103 Eiffeltornet
1136 Einar
57 Einarsson
345 Einstein
168 Einsteins
74 Ej
323 Ek
83 Eka
190 Ekberg
126 Ekdahl
72 Ekdal
228 Ekelund
520 Ekerö
206 Ekholm
616 Eklund
1463 Ekman
169 Ekmans
96 Eko
79 Ekomuseum
83 Ekonomi
74 Ekonomiska
73 Ekot
811 Eksjö
82 Ekstrand
399 Ekström
2830 El
85 Eld
134 Eldkvarn
94 Eldorado
100 Eldslandet
178 Electrolux
62 Elefanten
154 Elektriska
75 Element
70 Elementa
73 Elementarskolan
78 Elements
1321 Eleonora
117 Eleonoras
177 Eleven
743 Elfenbenskusten
64 Elfenbenskustens
519 Elfsborg
124 Elfsborgs
74 Elfström
70 Elfving
1835 Elias
266 Eliasson
668 Elin
78 Elina
291 Elis
1990 Elisabet
2792 Elisabeth
253 Elisabets
254 Elise
128 Elit
2389 Elitserien
84 Elitseriens
1577 Elizabeth
255 Ella
1024 Ellen
87 Ellie
58 Ellinor
481 Elliot
178 Elm
113 Elmer
216 Elof
131 Elofsson
780 Elsa
135 Elsie
358 Elton
205 Elvira
1125 Emanuel
143 Emelie
3043 Emil
459 Emilia
376 Emily
79 Emir
1231 Emma
331 Emmaboda
62 Emmas
615 Emmy
437 Empire
84 Enade
102 Enare
84 Ende
238 Energi
67 Eneroth
363 Engberg
119 Engbergs
144 Engdahl
223 Engelbrekt
165 Engelbrekts
77 Engelsk
949 Engelska
58 Engkvist
19181 England
1449 Englands
79 Englandslistan
278 Englund
98 Engman
647 Engström
59 Engströms
63 Enhet
63 Enhörning
636 Enköping
602 Enköpings
213 Enligt
77 Ensam
80 Ensamma
162 Ensemble
443 Enskede
316 Enskilda
112 Enso
65 Episkopalkyrkan
82 Epsilon
169 Er
112 Era
135 Erhard
2771 Eric
128 Erica
708 Ericson
77 Ericsons
1612 Ericsson
249 Ericssons
10891 Erik
216 Erika
449 Eriks
169 Eriksberg
98 Eriksbergs
140 Eriksgatan
3529 Eriksson
356 Erikssons
486 Eritrea
126 Erixon
403 Erland
292 Erlander
148 Erlandsson
210 Erling
5097 Ernst
55 Ernst-Hugo
144 Eros
62 Ers
131 Ersta
129 Erövraren
278 Esaias
117 Esbjörn
344 Eskil
69 Eskilsson
1938 Eskilstuna
420 Eslöv
465 Eslövs
106 Esmeralda
82 Esplanaden
234 Esprit
62 Ess-dur
55 Essay
89 Essays
63 Esse
67 Esselte
574 Essen
185 Essingeleden
163 Essunga
58 Est
346 Ester
2253 Estland
396 Estlands
104 Estniska
86 Estonia
166 Et
1887 Etiopien
145 Etiopiens
67 Ettan
2823 Eugen
421 Eugenia
110 Eugens
148 Euklides
144 Euler
97 Eulers
361 Eurasien
338 Euro
77 Eurocup
19836 Europa
492 Europacupen
88 Europadomstolen
64 Europafilm
99 Europakonventionen
162 Europamästare
85 Europamästerskap
175 Europamästerskapen
443 Europamästerskapet
140 Europaparlamentariker
1417 Europaparlamentet
230 Europaparlamentets
56 Europaparlamentsval
426 Europaparlamentsvalet
239 Europarådet
131 Europarådets
2894 Europas
103 Europatouren
160 Europaturné
435 Europaväg
72 Europeisk
4834 Europeiska
77 Euroseries
146 Eurosport
3475 Eurovision
140 Eurovisionen
55 Ev
2496 Eva
62 Eva-Lotta
211 Evald
185 Evangelisk-lutherska
370 Evangeliska
91 Evas
156 Event
107 Evergreen
980 Evert
403 Everton
165 Evolution
179 Ewa
248 Ewald
97 Ex
89 Excel
318 Exchange
84 Exodus
206 Expedition
87 Experiment
74 Expert
254 Expo
56 Export
68 Exposition
712 Express
955 Expressen
157 Expressens
228 Extra
73 Extraliga
154 Extreme
89 F-16
68 F-6
68 F-9
108 F-dur
96 F-m
382 F1
82 FAO
388 FBI
62 FBI-agenten
547 FIA
676 FIFA
179 FIS
111 FIS-hemsida
534 FM
154 FM-ligan
154 FMV
2367 FN
70 FN-ambassadör
55 FN-organet
78 FP
190 FRA
92 FRA-lagen
433 Fabian
90 Fabrik
73 Fabriker
104 Fabriks
344 Facebook
85 Facit
410 Fader
217 Fadern
59 Faderns
465 Fagersta
69 Fahlström
61 Fahrenheit
99 Fakir
131 Fakta
275 Falck
657 Falk
87 Falken
799 Falkenberg
970 Falkenbergs
57 Falks
563 Falköping
615 Falköpings
1142 Fall
540 Fallen
71 Fallet
446 Falls
255 Falsterbo
961 Falu
1716 Falun
236 Faluns
185 Familjebok
58 Familjebostäder
558 Fan
413 Fanny
82 Fans
467 Fantasy
366 Fantomen
273 Far
168 Farbror
73 Fares
263 Farm
120 Farmer
75 Farmor
71 Fars
430 Farsta
71 Farväl
260 Faso
266 Fast
64 Fasta
169 Fastigheter
106 Fastighets
56 Fastighetsverk
274 Fat
100 Fatima
57 Fats
64 Fauna
58 Favoriter
357 Fe
367 Federal
726 Federation
161 Federationen
275 Federer
68 Federley
131 Feeling
98 Felicia
1998 Felix
239 Fem
70 Feministiskt
96 Femte
224 Fender
4454 Ferdinand
102 Ferdinands
504 Ferguson
66 Ferm
963 Fernando
1341 Ferrari
216 Ferraris
181 Fest
58 Festen
1646 Festival
618 Fiat
72 Fiats
349 Fiction
58 Fiesta
214 Fifa
221 Fight
279 Fighter
126 Fighters
397 Fil
114 Filharmoniska
2113 Filip
188 Filippa
5555 Filippinerna
118 Filippinernas
140 Filips
264 Filipstad
679 Filipstads
1829 Film
74 Filmfestival
340 Filmfestivalen
238 Filmindustri
170 Filminstitutet
68 Filminstitutets
302 Films
401 Filmstaden
72 Filosofiska
762 Final
55 Finans
213 Finansdepartementet
99 Finansinspektionen
333 Fine
59 Finger
81 Fingers
68 Fink
19349 Finland
4579 Finlands
378 Finn
96 Finnkampen
67 Finsk
1370 Finska
306 Finspång
536 Finspångs
90 Fiona
152 Firefox
55 Firma
2633 Fischer
84 Fisk
63 Fiskars
73 Fiske
64 Fiskeby
150 Fittja
61 Fjord
67 Fjäderholmarna
58 Fjädervikt
132 Fjällbacka
57 Fjällgatan
81 Fjällsjö
277 Fjärde
72 Fjäre
180 Fjärran
72 Flack
77 Flamman
315 Flash
63 Flashback
80 Fleischer
100 Flemingsberg
205 Flen
363 Flens
80 Flicka
173 Flickan
64 Flickorna
490 Flight
81 Flink
157 Flint
62 Flinta
108 Flor
402 Flora
199 Flores
135 Florian
3613 Florida
152 Floridas
60 Florin
64 Flottan
128 Flottans
127 Flow
264 Fly
604 Flyers
86 Flyg
58 Flygande
128 Flygare
77 Flygklubb
67 Flygplats
63 Flygvapenmuseum
508 Flygvapnet
204 Flygvapnets
63 Flykten
236 Flyttar
79 Fock
90 Fokus
293 Folk
107 Folkblad
838 Folke
207 Folket
649 Folketinget
109 Folketingets
1283 Folkets
124 Folkhögskola
98 Folkmängd
157 Folkoperan
797 Folkpartiet
243 Folkpartiets
855 Folkrepubliken
253 Folkteatern
59 Folkungaätten
64 Folkuniversitetet
63 Fond
1079 For
522 Forbes
2261 Ford
233 Fords
264 Form
64 Format
81 Formation
973 Formel
92 Forntida
271 Fors
221 Forsa
108 Forsbacka
742 Forsberg
207 Forsell
68 Forsgren
196 Forshaga
83 Forskning
78 Forslund
199 Forsman
142 Forsmark
76 Forsmarks
85 Forsskål
1622 Fort
84 Fortifikationen
74 Fortum
138 Fortuna
1123 Forum
176 Forward
527 Foster
59 Fosterlandsstiftelsen
330 Fotboll
184 Fotbollförbundet
63 Fotbolls
62 Fotbolls-EM
197 Fotbolls-VM
134 Fotbollsallsvenskan
55 Fotbollsgalan
56 Fotografiska
116 Foucault
96 Framstegspartiet
90 Framtid
57 Framtiden
63 Framåt
102 Franc
2852 France
787 Francesco
9857 Francis
2715 Francisco
88 Franciscos
4187 Frank
80 Franke
1794 Frankfurt
64 Frankfurtparlamentet
88 Frankfurts
1228 Franklin
108 Franklins
59431 Frankrike
2653 Frankrikes
1990 Frans
67 Fransk
2571 Franska
163 Fransson
4738 Franz
306 Franzén
3360 François
918 Fraser
94 Freak
1325 Fred
441 Freddie
283 Freden
157 Frederic
4573 Frederick
10008 Fredrik
708 Fredrika
699 Fredriks
389 Fredriksson
64 Freds
99 Fredsgatan
55 Freestyle
342 Freja
130 Frescati
71 Fresk
354 Freud
125 Freuds
106 Fri
508 Fria
255 Friberg
398 Frida
71 Fridhemsplan
181 Fridolf
80 Fridolin
11020 Friedrich
123 Frihamnen
152 Frihet
70 Frihetens
112 Frikyrkan
64 Friluftsfrämjandet
74 Frimurare
405 Frisinnade
229 Frisk
62 Friska
63 Fristad
59 Fristads
56 Fristaten
198 Fritiof
75 Fritt
1499 Fritz
660 From
646 Front
121 Fronten
376 Frost
228 Frosta
371 Fru
62 Fruängen
70 Fryshuset
77 Frälsarens
398 Frälsningsarmén
386 Frälsningsarméns
234 Främre
83 Fråga
58 Frö
345 Fröken
930 Frölunda
62 Fudge
160 Fuji
336 Full
810 Fuller
158 Funck
133 Funk
102 Fur
110 Fylke
202 Fyra
309 Fysiografiska
66 Fält
139 Fältskog
91 Fänrik
75 Färg
338 Färgelanda
336 Färjestad
116 Färjestaden
316 Färjestads
173 Färs
1245 Färöarna
302 Färöarnas
108 Fässbergs
94 Fågel
80 Fångarna
165 Fårö
90 Fårösund
60 Förbifart
87 Förbjudna
291 Förbund
433 Förbundet
65 Förbundets
67 Förbundsdagen
199 Förbundskapten
209 Förbundsrepubliken
56 Förbundsrådet
1076 Förenade
259 Förening
1541 Föreningen
97 Föreningens
1133 Förenta
58 Företaget
69 Författarförbund
115 Förgrening
73 Förhäxad
248 Förintelsen
577 Förlag
79 Förlags
542 Förlorade
476 Förluster
99 Förordning
180 Församlingen
1925 Första
57 Förste
377 Försvarets
101 Försvarsdepartementet
120 Försvarshögskolan
1048 Försvarsmakten
396 Försvarsmaktens
83 Försvarsstaben
106 Försäkringskassan
98 Försök
67 Förteckning
59 Förvaltnings
78 Förvaltningsrätten
73 G-Man
302 GAIS
316 GB
125 GE
155 GHz
673 GM
498 GNU
971 GP
231 GPS
71 GPS-mottagare
137 GSM
690 Gabon
2840 Gabriel
168 Gabriella
273 Gabrielsson
93 Gadd
225 Gaddafi
64 Gaddafis
67 Gage
81 Gagnef
336 Gagnefs
953 Gahan
394 Gais
70 Gal
85 Galen
94 Gallen
320 Galleri
77 Galleria
57 Galten
215 Gambia
1443 Game
1145 Games
4154 Gamla
144 Gamle
140 Gamleby
133 Gamma
218 Gap
69 Garage
530 Gard
135 Garde
136 Gardell
759 Garden
275 Gardens
189 Gardiner
127 Garner
169 Garnet
145 Gas
301 Gaston
84 Gata
61 Gatan
329 Gate
366 Gates
154 Gauss
326 Gay
401 Gaza
176 Gazaremsan
170 Ge
400 Gefle
59 Geist
1829 General
196 Generalguvernementet
113 Generalstaben
59 Generalstabens
404 Generation
65 Genie
67 Genius
55 Genomsnitt
361 Gent
55 Gentleman
1190 Genève
75 Genèvekonventionen
59 Genèvesjön
102 Geologiska
7353 Georg
16864 George
1911 Georgia
93 Georgias
1366 Georgien
454 Georgiens
131 Georgiska
81 Georgs
315 Gerald
274 Gerd
299 Gerda
1149 Gerhard
111 Gerhards
174 German
57 Germund
304 Gert
378 Gertrud
791 Get
81 Getinge
67 Gets
980 Ghana
106 Ghanas
58 Ghetto
202 Gibbons
303 Gibbs
107 Gift
3043 Gilbert
444 Gill
154 Gille
247 Gilles
269 Gillet
55 Gin
1996 Giovanni
853 Giro
66 Girona
81 Gisela
144 Gislaved
545 Gislaveds
84 Gitarr
289 Give
80 Given
775 Gjorda
66 Glad
129 Glada
72 Gladiator
64 Glamour
90 Glans
229 Glas
838 Glasgow
353 Glass
698 Glenn
70 Glimåkra
408 Global
616 Globen
304 Gloria
60 Glyptoteket
498 GmbH
453 Gnesta
280 Gnosjö
1048 Go
969 God
71 Goda
123 Goding
200 Gods
416 Goethe
272 Goethes
152 Gogh
253 Goldman
742 Golf
78 Golfklubb
62 Golfströmmen
56 Goliat
203 Gonzalez
696 Google
88 Googles
198 Gorbatjov
3012 Gordon
85 Gordons
56 Gorilla
133 Gospel
178 Gosse
72 Gosskör
497 Got
3717 Gotland
2324 Gotlands
142 Gott
65 Gotta
301 Gottfrid
172 Gotthard
57 Gottorp
62 Gottröra
70 Graaf
112 Grabb
577 Grace
82 Grad
1741 Graf
77 Grafiska
146 Grahn
121 Gram
118 Grammatik
302 Grammis
73 Grammofon
517 Gran
84 Granath
212 Granberg
6585 Grand
110 Granlund
56 Granskning
73 Granskningsnämnden
72 Granström
882 Grant
148 Grave
2525 Green
77 Greenpeace
90 Greens
130 Greger
63 Gregers
186 Grekiska
4899 Grekland
579 Greklands
168 Gren
157 Grenada
608 Greta
224 Greve
99 Greven
124 Grevie
182 Grill
338 Grip
313 Gripen
112 Gripenberg
56 Gris
105 Grisslehamn
71 Grogg
218 Groningen
104 Groove
154 Gross
443 Grove
298 Grums
57 Grundström
824 Grupp
410 Gruppen
76 Gry
74 Gryt
78 Gryta
118 Gryts
302 Gränna
62 Grästorp
148 Grästorps
118 Grå
350 Grön
760 Gröna
1411 Grönland
284 Grönlands
65 Grönlunds
170 Grönvall
205 Guangdong
299 Guardian
69 Guardians
1180 Guatemala
79 Guatemalas
87 Gubben
66 Gubbängen
5639 Gud
70 Guden
116 Gudfadern
123 Gudmund
298 Gudrun
2690 Guds
468 Guide
242 Guillou
100 Guillous
2051 Guinea
143 Guinea-Bissau
134 Guineas
336 Guinness
111 Gul
343 Gula
262 Guld
363 Guldbagge
57 Guldberg
57 Guldbjörnen
72 Guldbollen
55 Guldklaven
83 Guldkusten
58 Guldmasken
128 Guldpalmen
65 Guldspaden
74 Gull
164 Gullberg
122 Gullbergs
86 Gullmarsplan
59 Gullspång
89 Gullspångs
468 Gun
55 Gunborg
249 Gunder
170 Gunhild
568 Gunilla
3711 Gunnar
293 Gunnarsson
256 Gunnel
404 Guns
96 Gunvor
94 Guru
9738 Gustaf
317 Gustafs
280 Gustafson
1347 Gustafsson
84 Gustafssons
10762 Gustav
515 Gustavs
187 Gustavsberg
131 Gustavsbergs
437 Gustavsson
60 Gute
1350 Guyana
106 Guyanas
598 Gyllene
83 Gylling
75 Gymnasiet
343 Gymnasium
101 Gymnastik
77 Gymnastiska
1917 Gällivare
221 Gärdet
151 Gärds
1169 Gästrikland
134 Gästriklands
2998 Gävle
126 Gävleborg
1036 Gävleborgs
78 Gå
254 Gård
430 Göinge
2279 Göran
148 Görans
387 Göransson
2127 Gösta
2594 Göta
2077 Götaland
1295 Götalands
176 Götalandsregionen
101 Götaplatsen
194 Götaverken
179 Göte
20353 Göteborg
9116 Göteborgs
252 Göteborgs-Posten
75 Göteborgsområdet
218 Göteborgsoperan
57 Göteborgsregionen
58 Göteborgsregionens
356 Götene
101 Götiska
102 HAL
170 HBO
632 HD
89 HDTV
254 HIV
79 HM
209 HP
91 HQ
254 HSB
182 HTML
78 HTTP
434 HV71
1129 Haag
257 Habo
109 Habsburgska
68 Hack
71 Hacker
164 Hades
955 Haga
94 Hagar
175 Hagberg
117 Hage
61 Hagelin
985 Hagen
625 Hagfors
218 Haglund
203 Hagman
419 Hagström
71 Hagströmer
61 Hagströms
85 Hagsätra
697 Haiti
90 Haitis
133 Hajen
151 Hakon
234 Hal
4516 Hall
2549 Halland
1674 Hallands
95 Hallandsåsen
340 Hallberg
72 Hallen
99 Hallgren
130 Hallin
58 Halling
60 Hallonbergen
119 Halloween
147 Halls
229 Hallsberg
255 Hallsbergs
110 Hallstahammar
111 Hallstahammars
79 Hallstavik
298 Hallström
56 Hallströms
2023 Halmstad
1068 Halmstads
210 Halo
65 Hals
91 Halvan
104 Halvdan
62 Halvor
193 Hamar
2773 Hamburg
62 Hamburg-Bremen
284 Hamburgs
2640 Hamilton
126 Hamiltons
396 Hammar
124 Hammarberg
1884 Hammarby
142 Hammarbyhamnen
107 Hammarbyhöjden
122 Hammarbys
68 Hammarkinds
79 Hammarkullen
105 Hammarlund
136 Hammars
269 Hammarskjöld
126 Hammarskjölds
76 Hammarsköld
56 Hammarstrand
121 Hammarström
135 Hammarö
79 Hammerdal
60 Hammerdals
86 Hamn
82 Hamnen
548 Hamngatan
118 Hamnkanalen
1249 Hampshire
104 Hampus
119 Hamra
305 Hand
124 Handbok
67 Handboll
113 Handel
264 Handels
223 Handelsbanken
802 Handelshögskolan
94 Handelshögskolans
85 Handelskammaren
125 Handen
131 Handlingar
173 Hands
489 Haninge
782 Hanna
331 Hannah
57 Hannas
110 Hanne
238 Hannes
59 Hanns
15188 Hans
190 Hans-Georg
70 Hans-Joachim
1370 Hansen
72 Hansens
1630 Hansson
167 Hanssons
96 Hantverkargatan
583 Haparanda
1912 Harald
109 Haralds
139 Haraldsson
63 Harare
156 Hardcore
122 Hare
56 Harman
445 Harriet
61 Harrisburg
1289 Harrison
118 Harrisons
4701 Harry
222 Harrys
707 Hart
1299 Harvard
111 Has
270 Hassan
738 Hasse
73 Hassel
55 Hasselbacken
79 Hasselberg
176 Hasselblad
139 Hat
63 Hatt
338 Havanna
415 Haven
55 Havets
323 Havre
1188 Hawaii
92 Hawaiis
512 Heat
70 Hebreiska
324 Heby
61 Hed
364 Hedberg
65 Hedbergs
140 Hedda
814 Hedemora
203 Heden
109 Hederslegionen
522 Hedin
83 Hedins
479 Hedlund
184 Hedman
187 Hedmark
153 Hedström
1270 Hedvig
233 Hegel
116 Hegels
141 Heidi
110 Heinemann
166 Hej
79 Hel
94 Helan
746 Helen
2467 Helena
262 Helene
346 Helga
883 Helge
140 Helgeandsholmen
66 Helgesson
80 Helgonet
1016 Heliga
323 Helige
57 Helikopterflottiljen
263 Hellberg
663 Heller
154 Hellman
130 Hells
576 Hellström
87 Hellströms
250 Helmer
3802 Helsingborg
2171 Helsingborgs
7694 Helsingfors
384 Helsingör
58 Helsingörs
441 Hem
76 Hemberg
103 Hembygdsförening
104 Hemliga
74 Hemligheternas
87 Hemma
66 Hemmet
116 Hemmets
68 Hemsjön
99 Hemvärnet
58 Hemvärnets
234 Hennes
661 Henning
262 Henrietta
8358 Henrik
376 Henriks
417 Henriksson
12749 Henry
73 Henrys
1430 Herbert
928 Hercegovina
130 Hercegovinas
1864 Herman
272 Hermansson
162 Hermelin
92 Herning
209 Herodes
540 Herr
69 Herrar
2295 Herrarnas
679 Herre
481 Herren
287 Herrens
88 Herrgård
418 Herrljunga
263 Hertig
61 Hertigdömet
178 Hertz
193 Het
326 Hilda
329 Hilding
138 Hillary
112 Hilma
403 Himalaya
93 Himlen
97 Himmel
141 Himmelska
58 Hin
90 Hinds
65 Hindu
526 Hippa
261 Hiroshima
632 Hisingen
441 Historia
121 Historien
143 Historisk
370 Historiska
238 Hit
276 Hitchcock
112 Hitchcocks
2261 Hitler
89 Hitlerjugend
822 Hitlers
449 Hits
1984 Hjalmar
61 Hjalmarson
171 Hjelm
352 Hjo
212 Hjort
114 Hjorthagen
243 Hjortstam
77 Hjulsjö
88 Hjulsta
62 Hjulström
89 Hjördis
350 Ho
76 Hoa
71 Hobby
3044 Hockey
288 Hockeyallsvenskan
304 Hodgson
369 Hoffmann
461 Hofors
62 Holbrook
558 Holger
123 Holgersson
60 Holgerssons
2655 Holland
94 Hollands
1939 Hollywood
189 Hollywoods
145 Holländska
1425 Holm
729 Holmberg
192 Holmen
136 Holmens
644 Holmes
1011 Holmgren
213 Holmqvist
245 Holms
248 Holmström
867 Holstein
324 Holstein-Gottorp
239 Holt
513 Homo
562 Honda
66 Hondas
692 Honduras
694 Hongkong
99 Hongkongs
169 Honor
427 Hood
108 Hop
69 Hopp
152 Hora
1884 Horn
143 Hornet
237 Horns
119 Hornstull
368 Horst
700 Hospital
2778 Hot
521 Hotell
71 Hotmail
2601 House
68 Houses
1065 Houston
67 Houstons
128 Hov
118 Hovet
202 Hovkapellet
89 Hovrätt
212 Hovrätten
75 Hovs
1643 Howard
602 Hu
936 Hubert
1269 Huddinge
62 Huddinges
85 Huddingevägen
490 Hudiksvall
909 Hudiksvalls
60 Hufvudstaden
599 Hugh
3542 Hugo
96 Hugos
128 Hulda
1130 Hull
235 Hult
82 Hultgren
150 Hultman
65 Hults
208 Hultsfred
521 Hultsfreds
202 Hultsfredsfestivalen
107 Hultén
712 Human
56 Humanisterna
173 Humanistiska
125 Humlegården
144 Hund
60 Hundra
96 Hunger
273 Hur
748 Hus
65 Husberg
400 Husby
481 Huset
430 Huskvarna
301 Husqvarna
397 Hussein
116 Husseins
87 Huston
119 Huvudsta
56 Hybrid
92 Hydra
100 Hyland
102 Hylander
108 Hylands
424 Hylte
118 Hymn
121 Hyundai
355 Hz
304 Häcken
195 Hägg
199 Hägglund
132 Hägglunds
63 Häggström
645 Hällefors
62 Hälsa
4583 Hälsingland
364 Hälsinglands
375 Här
95 Härads
1849 Härjedalen
1526 Härjedalens
851 Härnösand
1082 Härnösands
332 Härryda
119 Härskarringen
434 Hässelby
449 Hässleholm
403 Hässleholms
249 Hästen
55 Hästhagen
82 Hästholmen
71 Hästveda
264 Häxan
93 Häxmästaren
167 Håbo
1608 Håkan
458 Håkansson
95 Håll
214 Hård
88 Hårfager
56 Hårsfjärden
81 Hög
327 Höga
503 Höganäs
136 Högberg
91 Högdalen
146 Högerpartiet
63 Högfors
62 Höghet
78 Högkvarteret
418 Höglund
527 Högre
349 Högsby
71 Högsjö
214 Högskola
993 Högskolan
58 Högskolans
59 Högskoleverket
966 Högsta
64 Högström
100 Höjer
93 Hökarängen
59 Höks
99 Höllviken
73 Hör
102 Hörberg
421 Hörby
197 Hötorget
184 Höör
215 Höörs
60 IAEA
478 IB
785 IBM
265 ICA
151 ID
9924 IF
3745 IFK
16926 II
10315 III
3710 IK
109 IKEA
184 IL
155 ILO
168 IMF
428 IOK
83 IOS
1034 IP
96 IP-adress
84 IP-adresser
73 IP-telefoni
259 IQ
399 IRA
1223 IS
70 ISAF
790 ISBN
817 ISO
470 IT
65 IT-företag
76 ITU
214 ITV
4872 IV
1254 IX
2944 Ian
341 Iberiska
319 Ibrahim
164 Ica
590 Ida
71 Idiot
830 Idol
105 Idols
138 Idre
65 Idrott
74 Idrottens
58 Idrottsförbund
157 Idrottsförening
61 Idrottsgalan
195 Idun
490 If
147 Ikea
620 Il
194 Iliaden
2692 Illinois
79 Illusion
95 Illustrated
76 Illustrerad
348 Image
65 Imam
169 Imma
370 Immanuel
81 Imperieorden
140 Imperiet
2705 In
358 Independent
214 Index
454 Indian
1607 Indiana
124 Indianas
195 Indians
6892 Indien
765 Indiens
1423 Indiska
225 Indokina
1336 Indonesien
130 Indonesiens
86 Indra
276 Industri
108 Industrier
498 Indy
74 Inez
118 Inferno
372 Information
75 Inför
473 Inga
381 Inge
823 Ingeborg
185 Ingegerd
76 Ingegärd
197 Ingela
89 Ingelstad
154 Ingelstads
655 Ingemar
216 Ingen
843 Ingenjörsvetenskapsakademien
55 Ingenjörsvetenskapsakademiens
63 Ingenting
511 Inger
723 Ingmar
70 Ingo
1058 Ingrid
905 Ingvar
63 Ingvars
59 Ingå
111 Inkariket
148 Inlands
207 Inlandsbanan
3866 Inloppet
68 Innebandy
133 Inner
83 Innerstaden
92 Innovation
534 Inre
65 Inrikes
306 Insjöar
87 Insjön
864 Insläppta
584 Institut
1247 Institutet
130 Institutets
188 Institution
319 Institutionen
57 Instrument
155 Instruments
354 Intel
78 Intels
91 Interface
6049 International
134 Internationalen
74 Internationals
84 Internationell
2127 Internationella
2209 Internet
68 Internets
70 Interpol
112 Intima
79 Invasion
118 Invest
95 Investor
1136 Iowa
84 Iowas
98 Ipad
216 Iphone
186 Ipod
2188 Irak
65 Irak-kriget
60 Irakiska
287 Irakkriget
263 Iraks
3357 Iran
411 Irans
66 Iranska
374 Irene
282 Iris
4226 Irland
589 Irlands
229 Irländska
241 Irma
1779 Is
859 Isaac
67 Isaacs
91 Isaak
265 Isabel
814 Isabella
88 Isabellas
149 Isabelle
77 Isacsson
558 Isak
325 Isaksson
69 Isberg
55 Ishall
743 Ishavet
100 Ishockey
61 Ishockeyförbundet
313 Islam
203 Islamiska
6912 Island
1340 Islands
4588 Israel
953 Israels
789 Istanbul
2368 It
14577 Italien
1241 Italiens
63 Italiensk
482 Italienska
326 Itunes
1682 Ivan
1553 Ivar
57 Ivars
125 Ivarsson
71 Iver
66 JA
70 JAN
167 JAS
144 JK
108 JO
196 Ja
3003 Jack
59 Jacket
216 Jackets
2301 Jackson
359 Jacksons
2928 Jacob
335 Jacobs
252 Jacobson
489 Jacobsson
132 Jade
1918 Jag
342 Jaguar
2967 Jakob
373 Jakobs
103 Jakobsberg
247 Jakobsson
147 Jakten
476 Jam
1600 Jamaica
148 Jamaicas
12294 James
5250 Jan
151 Jan-Erik
56 Jan-Olof
1424 Jane
722 Janeiro
86 Janes
898 Janne
1078 Jansson
150 Janssons
10847 Japan
1081 Japans
61 Japansk
334 Japanska
469 Jarl
80 Jarls
58 Jasmine
835 Java
61 JavaScript
201 Javier
661 Jazz
8191 Jean
136 Jean-François
123 Jean-Louis
113 Jean-Luc
101 Jean-Marie
395 Jean-Paul
193 Jean-Pierre
236 Jeanette
94 Jeans
63 Jeep
69 Jehova
169 Jehovas
141 Jeltsin
394 Jemen
786 Jennifer
934 Jenny
1302 Jens
1138 Jensen
65 Jensens
58 Jenson
119 Jeppe
421 Jeremy
161 Jerevan
2881 Jersey
142 Jerseys
2015 Jerusalem
248 Jerusalems
672 Jesper
388 Jesse
619 Jessica
1877 Jesu
4317 Jesus
117 Jesusbarnet
242 Jet
352 Jets
58 Jihad
120 Jimmie
1533 Jimmy
284 Jo
801 Joachim
1258 Joakim
95 Joakims
145 Joanna
165 Joaquin
653 Joel
16613 Johan
8140 Johann
57 Johann-Wolfgang
1319 Johanna
62 Johannelunds
6258 Johannes
147 Johanneshov
57 Johanneshovs
115 Johannesson
573 Johans
4958 Johansson
236 Johanssons
26100 John
1627 Johnny
423 Johns
3391 Johnson
282 Johnsons
352 Johnsson
131 Joint
92 Joker
117 Jokern
259 Jokkmokk
1656 Jokkmokks
1309 Jon
3002 Jonas
131 Jonasson
117 Jonatan
1111 Jonathan
3221 Jones
123 Joniska
98 Jonna
166 Jonny
1477 Jonsson
137 Jonssons
90 Jord
548 Jordanien
66 Jordaniens
91 Jordbro
62 Jordbruksdepartementet
75 Jordbruksverket
70 Jordbävningen
979 Jorden
235 Jordens
2780 Josef
143 Josefin
268 Josefina
109 Josefine
135 Josefs
151 Josefsson
217 Josephine
1980 José
865 Journal
71 Journalisthögskolan
81 Journalistpriset
332 Joyce
214 Ju
2220 Juan
56 Jubileumsutställningen
127 Jude
123 Judiska
61 Judit
321 Judith
69 Jugend
2409 Jugoslavien
270 Jugoslaviens
128 Jugoslaviska
168 Jukkasjärvi
247 Jul
1262 Julia
466 Julian
470 Julianska
664 Julie
108 Juliette
4802 Julius
63 Jumper
423 Jungfru
162 Jungfrun
227 Jungfruöarna
56 Junilistan
933 Junior
85 Junior-VM
178 Juniors
198 Junkers
758 Jupiter
393 Jupiters
85 Juridiska
78 Jury
757 Just
200 Justitiedepartementet
752 Jylland
85 Jyllands
7433 Jämtland
1761 Jämtlands
72 Järegård
439 Järfälla
121 Järnkorset
218 Järntorget
100 Järnverk
1796 Järnväg
689 Järnvägar
127 Järnvägars
114 Järnvägs
121 Järnvägsaktiebolag
95 Järnvägsgatan
70 Järrel
76 Järva
84 Järvafältet
98 Jöback
2281 Jönköping
2773 Jönköpings
992 Jönsson
68 Jönssons
709 Jörgen
64 Jörgens
106 Jösse
377 K-1
258 K-2
215 K-4
57 K-märkt
139 K-punkt
219 KB
81 KBT
278 KF
204 KFUM
78 KG
214 KGB
68 KI
195 KISS
108 KO
67 KR
1240 KTH
261 Kabul
64 Kadett
126 Kafka
58 Kafé
81 Kain
973 Kairo
73 Kairos
211 Kaj
320 Kajsa
81 Kal
9072 Kalifornien
203 Kaliforniens
747 Kalix
104 Kalkyl
68 Kall
278 Kalla
1712 Kalle
158 Kalles
57 Kalls
5126 Kalmar
77 Kalmarkriget
70 Kalmars
137 Kalmarsund
142 Kalmarunionen
68 Kalven
558 Kambodja
61 Kambodjas
1233 Kamerun
86 Kameruns
85 Kammarkollegiet
72 Kammarkollegium
98 Kammarkör
155 Kammarrätten
76 Kamp
154 Kampen
89 Kamprad
58 Kamraterna
57 Kamratposten
173 Kanaan
7420 Kanada
879 Kanadas
66 Kanadensiska
1173 Kanal
73 Kanalen
61 Kanalöarna
1143 Kanarieöarna
1430 Kansas
57 Kanslikollegium
360 Kant
146 Kanton
151 Kants
96 Kantvilas
66 Kaos
776 Kap
69 Kapellskär
64 Kapitalet
103 Kaplan
350 Kapstaden
437 Kapten
138 Kar
99 Karate
229 Karelska
440 Karen
288 Karg
204 Kari
389 Karibien
406 Karibiska
1807 Karin
143 Karis
21425 Karl
176 Karl-Erik
229 Karl-Johan
82 Karlaplan
58 Karlavagnen
309 Karlberg
137 Karlbergs
137 Karlfeldt
570 Karls
289 Karlsborg
263 Karlsborgs
451 Karlshamn
428 Karlshamns
845 Karlskoga
2674 Karlskrona
104 Karlskronavarvet
2523 Karlsson
187 Karlssons
1841 Karlstad
1104 Karlstads
83 Karlström
72 Karlsö
58 Karma
317 Karolina
79 Karoline
87 Karolinerna
1505 Karolinska
84 Kart
78 Karta
267 Kashmir
83 Kask
234 Kasper
120 Kastrup
462 Katalonien
2809 Katarina
206 Katarinas
185 Katedralskolan
73 Kategori
113 Katja
522 Katolska
70 Katrin
177 Katrina
423 Katrineholm
413 Katrineholms
79 Katt
358 Kattegatt
89 Katten
190 Kaukasien
629 Kaukasus
1751 Kazakstan
64 Kazakstans
283 Kejsardömet
57 Kejsare
65 Kejsaren
120 Kejserliga
128 Kellgren
981 Kelly
99 Kelvin
266 Kemi
262 Kempe
884 Kennedy
99 Kennedys
183 Kennel
88 Kennelklubben
70 Kennet
768 Kenneth
520 Kenny
1454 Kent
103 Kents
1580 Kentucky
116 Kentuckys
2968 Kenya
218 Kenyas
809 Kerstin
1230 Kevin
78 Kia
115 Kick
437 Kid
457 Kids
131 Kierkegaard
1144 Kiev
91 Kievs
147 Kil
111 Kila
208 Killing
230 Kils
1940 Kim
12258 Kina
1971 Kinas
210 Kind
662 Kinda
226 Kinds
330 Kinesiska
125 Kinna
98 Kinnevik
103 Kinshasa
261 Kirgizistan
2506 Kiruna
150 Kisa
864 Kiss
303 Kista
166 Kit
58 Kitt
92 Kitts
62 Kivik
62 Kiviks
1062 Kjell
299 Kjellberg
84 Kjellvander
168 Klan
91 Klang
911 Klara
55 Klart
571 Klas
150 Klass
67 Klasson
437 Klein
73 Klerk
63 Klimpen
136 Kling
135 Klint
233 Klippan
198 Klippans
199 Klippiga
73 Klockan
81 Klockrike
170 Kloster
125 Klosters
64 Kloten
166 Klubb
136 Klubben
74 Klüft
72 Knapp
74 Knattarna
282 Knivsta
59 Knock
270 Knull
2054 Knut
112 Knutby
68 Knutpunkten
145 Knuts
810 Knutsson
121 Knutssons
122 Knös
93 Ko
275 Kock
277 Kockums
125 Kodak
77 Koenigsegg
58 Kok
66 Kol
87 Kolbäck
66 Kolla
140 Kollar
127 Kolmården
128 Kolmårdens
61 Komedi
78 Kommendör
187 Kommerskollegium
97 Kommissarie
145 Kommissionen
78 Kommitté
211 Kommittén
57 Kommunala
127 Kommuner
298 Kommunistiska
296 Kommunreformen
370 Kompaniet
71 Kompaniets
202 Kon
2791 Kongo
505 Kongo-Kinshasa
96 Kongofloden
104 Kongos
68 Kongostaten
63 Kongress
61 Kongressen
217 Kongresspartiet
630 Konrad
83 Konsert
77 Konserthus
112 Konserthuset
128 Konservativa
200 Konservative
141 Konst
974 Konstakademien
94 Konstakademiens
142 Konstakademin
867 Konstantin
1370 Konstantinopel
117 Konstantinopels
79 Konstantins
56 Konsten
516 Konstfack
191 Konsthall
566 Konsthögskolan
55 Konstindustriella
94 Konstitutionsutskottet
192 Konstmuseum
76 Konstnärernas
56 Konstnärsförbundet
73 Konstnärsförbundets
60 Konstnärshuset
57 Konstskolan
124 Konsum
76 Konsumentverket
241 Konung
122 Konungariket
77 Konungarnas
132 Konungen
184 Konungens
255 Kooperativa
180 Kopparberg
98 Kopparberget
884 Kopparbergs
62 Koppel
71 Kor
146 Koralbok
767 Koranen
81 Koranens
1014 Korea
56 Koreahalvön
285 Koreakriget
71 Koreanska
127 Koreas
74 Koren
59 Korint
86 Korn
99 Korpen
328 Korset
146 Korsets
86 Korsvägen
110 Kort
122 Kortedala
117 Kosmos
1012 Kosovo
59 Kosovokriget
206 Kosovos
180 Kosta
93 Koster
12252 Kr
373 Kraft
77 Kraften
802 Kramfors
84 Kramp
230 Krantz
155 Kreml
134 Krig
121 Kriget
139 Krigshögskolan
89 Krigskollegium
107 Krigsmakten
57 Krigsskolan
321 Krigsvetenskapsakademien
197 Kris
156 Kristallen
328 Kristdemokraterna
66 Kristdemokraternas
130 Kristdemokratiska
216 Kristen
431 Krister
1507 Kristi
2579 Kristian
1369 Kristiania
82 Kristians
62 Kristiansson
1420 Kristianstad
1443 Kristianstads
236 Kristin
2207 Kristina
410 Kristinas
97 Kristineberg
63 Kristinebergs
474 Kristinehamn
244 Kristinehamns
56 Kristinestad
82 Kristliga
156 Kristna
327 Kristoffer
1852 Kristus
125 Kritik
235 Kritiker
2867 Kroatien
416 Kroatiens
114 Kroatiska
165 Krog
61 Krok
89 Krokom
1196 Krokoms
316 Kronan
98 Kronans
64 Kronberg
69 Kronborg
129 Kronoberg
1261 Kronobergs
61 Kronofogdemyndigheten
525 Kronor
82 Kronprinsens
117 Kronprinsessan
149 Krook
85 Kropp
219 Krupp
2449 Kuba
60 Kubakrisen
178 Kubas
124 Kulla
90 Kullberg
126 Kulle
102 Kullen
60 Kullens
415 Kultur
63 Kulturdepartementet
115 Kulturen
72 Kulturfront
206 Kulturhuset
72 Kulturrevolutionen
594 Kumla
1287 Kung
73 Kungadömet
62 Kungahälla
601 Kungariket
182 Kungen
185 Kungens
1041 Kungl
287 Kunglig
8665 Kungliga
819 Kungsbacka
590 Kungsgatan
124 Kungsgården
82 Kungshamn
843 Kungsholmen
125 Kungsholmens
83 Kungsladugård
70 Kungstorget
317 Kungsträdgården
77 Kungsträdgårdsgatan
69 Kungsvägen
133 Kungsängen
101 Kungsör
122 Kungsörs
409 Kungälv
357 Kungälvs
74 Kunskapskanalen
384 Kurdistan
57 Kuriren
1359 Kurt
65 Kust
59 Kustartilleriet
60 Kustbevakningen
394 Kuwait
104 Kuwaitkriget
204 Kvalserien
112 Kvarken
300 Kvarn
83 Kvarnberget
167 Kvarteret
90 Kvinna
71 Kvinnan
108 Kvinnliga
118 Kvinnor
72 Kvällens
100 Kvällsposten
68 Kvällstoppen
336 Kyoto
388 Kyrka
541 Kyrkan
273 Kyrkans
165 Kyrkogatan
64 Kyrkornas
209 Kyrkostaten
109 Kyrksjön
109 Kyrkslätt
172 Källa
124 Källström
66 Känn
226 Kärlek
93 Kärleken
137 Kärlekens
85 Kärna
153 Kärnan
69 Kärra
68 Kärrtorp
376 Kävlinge
150 Kållands
55 Kållered
82 Kåre
564 Köhler
67 Kölen
1415 Köln
126 Kölns
7692 Köpenhamn
1370 Köpenhamns
513 Köping
357 Köpings
67 Köpmannen
236 Körberg
79 Körslaget
156 LA
55 LAS
55 LCD
129 LG
185 LKAB
579 LO
1495 LP
82 LP-skiva
140 LP-skivor
178 LPGA-touren
73 LRF
129 LSD
65 LSS
87 LTH
57 LUF
12204 La
102 Laboratories
582 Labour
125 Labourpartiet
66 Labourpolitiker
76 Labours
275 Labrador
136 Lada
71 Ladugårdsgärdet
60 Ladugårdslandet
247 Ladulås
1335 Lady
338 Lag
91 Lage
236 Lagen
57 Lagens
73 Lager
98 Lagerberg
121 Lagergren
162 Lagerkvist
399 Lagerlöf
147 Lagerlöfs
98 Lagerström
177 Lago
205 Lagos
58 Lagtinget
198 Laholm
359 Laholms
193 Laila
2127 Lake
141 Lakes
102 Lam
329 Lama
124 Lamas
129 Lamborghini
246 Lamm
274 Lancia
1241 Land
89 Landa
161 Landet
125 Landgren
70 Landin
110 Landis
66 Lands
65 Landsarkivet
107 Landsberg
77 Landsbygdens
1755 Landskrona
106 Landsorganisationen
119 Landsort
129 Landsting
249 Landstinget
165 Landvetter
2336 Lanka
144 Lankas
65 Lansen
488 Lantbruksakademien
60 Lantbrukshögskolan
67 Lantmännen
120 Lantmäteriet
182 Lantz
1429 Laos
10855 Lappland
179 Lapplands
94 Lappmarken
85 Largo
67 Larmgatan
795 Larry
6664 Lars
226 Lars-Erik
107 Lars-Göran
60 Lars-Olof
69 Lars-Åke
4113 Larsson
334 Larssons
1182 Las
81 Laser
1931 Lasse
105 Lassen
1020 Last
322 Late
424 Latin
648 Latinamerika
65 Latinamerikas
62 Latins
64 Latinska
661 Laura
243 Laurence
355 Lausanne
367 Laval
56 Lavals
65 Laxsjö
59 Laxsjön
358 Laxå
471 Lazio
9263 Le
561 Lea
8309 League
58 League-finalen
165 League-klubben
58 League-laget
210 Leagues
555 Leander
165 Lear
470 Led
269 Ledin
67 Legal
326 Legend
73 Legenden
123 Legends
127 Legion
260 Leia
1499 Leif
82 Leijonborg
92 Leila
2169 Leipzig
189 Leipzigs
287 Lejon
204 Lejonet
131 Lejonhjärta
77 Lejonkungen
200 Lekebergs
490 Leksand
905 Leksands
85 Len
1611 Lena
510 Lenin
493 Leningrad
65 Leningrads
182 Lenins
2020 Lennart
133 Lennartsson
2117 Leo
2503 Leon
2739 Leonard
720 Leone
122 Leones
100 Leonora
189 Leopard
1554 Leopold
96 Leopolds
59 Leos
165 Lerum
336 Lerums
75 Less
246 Lessebo
96 Letter
228 Letters
73 Lettiska
1385 Lettland
267 Lettlands
334 Lev
184 Leva
169 Levande
55 Levanger
71 Lever
2779 Lewis
200 Lex
71 Lexikon
2055 Li
195 Liam
76 Lian
1224 Libanon
150 Libanons
311 Liberal
703 Liberala
92 Liberaldemokraterna
56 Liberalerna
444 Liberia
82 Liberias
1058 Libyen
307 Libyens
170 Lichtenstein
83 Lida
99 Liden
2065 Lidingö
112 Lidingöbanan
101 Lidingöbron
116 Lidingös
58 Lidingövägen
605 Lidköping
437 Lidköpings
178 Lidman
96 Lidström
105 Lidén
233 Lie
403 Liechtenstein
91 Lien
158 Lies
83 Liftarens
832 Liga
197 Ligacupen
874 Light
113 Ligurien
83 Lika
1046 Like
111 Lila
156 Lilian
168 Lilja
70 Liljedahl
72 Liljegren
226 Liljeholmen
91 Liljeholmens
66 Liljeroth
3651 Lilla
55 Lillan
706 Lille
371 Lillehammer
90 Lillemor
217 Lilliehöök
163 Lilly
78 Lim
963 Lima
197 Limerick
245 Limhamn
127 Limhamns
60 Limit
821 Limousin
590 Lin
546 Lina
959 Lincoln
85 Lincolns
740 Lind
1101 Linda
236 Lindahl
1499 Lindberg
190 Lindbergs
264 Lindblad
363 Lindblom
57 Lindbäck
391 Linde
145 Lindeberg
221 Lindegren
106 Lindell
57 Lindeman
235 Linden
464 Linder
61 Lindes
248 Lindesberg
450 Lindesbergs
241 Lindfors
1147 Lindgren
427 Lindgrens
389 Lindh
271 Lindhagen
84 Lindhagens
337 Lindholm
234 Lindholmen
119 Lindholmens
86 Lindhs
79 Lindkvist
230 Lindman
105 Lindmark
120 Lindquist
763 Lindqvist
82 Lindqvists
65 Lindros
71 Linds
118 Lindskog
182 Lindstedt
1061 Lindström
103 Lindströms
86 Lindvall
130 Lindén
155 Linje
3221 Linköping
2876 Linköpings
122 Linn
135 Linnea
1111 Linné
138 Linnéa
115 Linnégatan
393 Linnés
136 Linnéuniversitetet
102 Linton
292 Linus
979 Linux
62 Lira
86 Lis
2060 Lisa
130 Lisas
107 Lisbet
123 Lisbeth
451 Liseberg
98 Lisebergs
150 Lisebergsteatern
744 Lissabon
233 Lissabonfördraget
251 List
406 Lista
65 Listen
82 Lister
97 Listers
68 Lit
1479 Litauen
268 Litauens
76 Litauiska
135 Lite
107 Liten
106 Litteratur
56 Litteraturfrämjandets
72 Littorin
566 Liv
1999 Live
2030 Liverpool
188 Liverpools
300 Livet
251 Livets
57 Livgarde
289 Livgardet
105 Livgardets
58 Livgrenadjärregementet
83 Livia
259 Livkompaniet
574 Livland
111 Livregementet
554 Livregementets
79 Livs
85 Livsmedelsverket
511 Ljubljana
59 Ljud
398 Ljung
125 Ljunga
302 Ljungberg
1008 Ljungby
155 Ljungbyhed
282 Ljunggren
132 Ljungman
145 Ljungqvist
79 Ljungs
237 Ljungskile
238 Ljungström
74 Ljus
262 Ljusdal
1503 Ljusdals
240 Ljusnarsbergs
59 Ljustorps
169 Llosa
58 Lloyds
205 Lo
83 Lo-Johansson
58 Lo-Johanssons
60 Lock
74 Locket
72 Loeb
328 Lok
75 Lokal
73 Lokala
182 Lokaltrafik
234 Loke
70 Loket
211 Lokomotiv
220 Lomma
96 Lon
16956 London
692 Londons
313 Look
531 Loomis
73 Loop
1729 Lord
212 Lords
6971 Los
935 Lotta
102 Lotten
204 Lotto
489 Lotus
13172 Louis
1631 Louise
1145 Louisiana
119 Louisianas
81 Lounge
321 Louvren
73 Lova
5185 Love
172 Loves
1006 Lovisa
3524 Lucas
486 Lucia
148 Luciano
4439 Ludvig
131 Ludvigs
1276 Ludvika
5941 Ludwig
88 Luft
83 Luftfartsverket
394 Luftwaffe
94 Luftwaffes
71 Lugn
63 Lugna
132 Lugnet
480 Lukas
3160 Luleå
8392 Lund
141 Lundagård
63 Lundahl
64 Lundakarnevalen
197 Lundbeck
937 Lundberg
138 Lundbergs
142 Lundblad
94 Lundborg
433 Lundby
301 Lundell
59 Lundells
65 Lunden
741 Lundgren
84 Lundgrens
176 Lundh
82 Lundholm
475 Lundin
309 Lundkvist
161 Lundmark
227 Lundquist
585 Lundqvist
6196 Lunds
116 Lundstedt
572 Lundström
117 Lupin
80 Lust
62 Lustans
1010 Luther
175 Lutheran
430 Luthers
122 Lutherska
106 Lux
1376 Luxemburg
105 Luxemburgs
110 Luxor
56 Lyckan
64 Lyckans
69 Lyckliga
1486 Lycksele
177 Lydia
113 Lykke
190 Lyndon
106 Lynne
62 Lyran
547 Lysandra
286 Lysekil
174 Lysekils
66 Lysings
70 Lytta
118 Läderlappen
120 Läkare
109 Läkemedelsverket
55 Längd
197 Läns
103 Länsmuseet
101 Länsrätten
296 Länsstyrelsen
62 Länstidningen
92 Länstrafiken
277 Länsväg
95 Lärarhögskolan
58 Lärarnas
135 Lärobok
61 Läroverket
241 Lätt
69 Lättvikt
171 Långa
126 Långben
129 Långbro
82 Långe
95 Långgatan
225 Långholmen
107 Långholmens
88 Långsele
242 Långsjön
205 Långstrump
94 Långtjärnen
56 Långvattnet
226 Låt
289 Löfgren
76 Lönnberg
141 Lönneberga
139 Lövgren
64 Lövsjön
62 Lövånger
297 MB
279 MC
121 MD
135 MFF
298 MG
697 MHz
59 MKB
154 ML
65 MM
65 MMS
65 MOS
192 MP
85 MP3
290 MS
203 MS-DOS
1194 MTV
86 MUF
426 MW
109 Maastricht
1238 Mac
85 Mach
181 Mack
68 Mackan
406 Mad
4646 Madagaskar
94 Madagaskars
55 Madam
422 Madeira
464 Madeleine
77 Mademoiselle
71 Madicken
540 Madonna
57 Madonnan
119 Madonnas
3312 Madrid
244 Madrids
108 Mads
171 Magasin
86 Magasinet
101 Magda
1196 Magdalena
98 Magellan
56 Magellans
87 Maggio
57 Magister
89 Magnolia
6066 Magnus
1249 Magnusson
114 Magnussons
104 Mahatma
137 Mahler
66 Mahlers
94 Mahmoud
98 Mainstream
359 Maj
58 Maj-Britt
352 Maja
253 Majestät
137 Majestäts
729 Major
61 Majors
313 Make
1443 Makedonien
143 Makedoniens
76 Mal
560 Malawi
839 Malaysia
102 Malaysias
150 Maldiverna
114 Malena
506 Malin
150 Mall
381 Mallorca
373 Malm
130 Malmbanan
353 Malmberg
146 Malmberget
104 Malmborg
124 Malmen
200 Malmgren
181 Malmkvist
77 Malmqvist
84 Malmros
105 Malms
93 Malmskillnadsgatan
243 Malmström
13780 Malmö
1275 Malmöhus
342 Malmös
877 Malta
140 Maltas
170 Malte
214 Malung
720 Malung-Sälens
125 Malungs
443 Malå
220 Mamma
56 Mammas
3139 Man
78 Mana
574 Management
201 Manager
2364 Manchester
353 Manchuriet
66 Mandel
254 Mandela
56 Mandelas
64 Manet
768 Manfred
81 Manga
76 Mangold
883 Manhattan
66 Manhattanprojektet
291 Mani
231 Manila
136 Mankell
445 Mannen
1156 Mans
94 Manual
926 Manuel
90 Manus
629 Mao
144 Maos
146 Mara
61 Maraton
1645 Marcus
2865 Margareta
150 Margaretas
338 Margaretha
333 Margit
174 Margot
11463 Maria
817 Marianne
444 Marias
62 Mariatorget
4163 Marie
130 Marie-Louise
269 Mariefred
67 Mariefreds
541 Mariestad
244 Mariestads
150 Marika
241 Marin
366 Marina
118 Marinen
150 Marinens
96 Mariner
63 Mariners
582 Marino
176 Marinos
3123 Mario
204 Marit
92 Marita
2999 Mark
132 Markaryd
158 Markaryds
254 Market
65 Marketing
189 Marklund
868 Marks
778 Markus
130 Marlene
1719 Marocko
139 Marockos
1858 Mars
734 Marseille
312 Marstrand
56 Marstrands
201 Marta
9455 Martin
344 Martina
162 Martinique
1985 Martins
127 Martinsson
989 Marx
68 Marxist
4782 Mary
1326 Maryland
111 Marylands
111 Marys
70 Mas
242 Maserati
102 Mask
59 Maskin
400 Massa
2598 Massachusetts
61 Massive
770 Master
860 Masters
137 Mat
85 Mata
88 Matador
342 Match
146 Matcher
71 Matfors
480 Mathias
292 Mathilda
420 Matilda
61 Matos
1906 Mats
1153 Matt
66 Matta
303 Matteus
980 Mattias
506 Mattsson
357 Maud
248 Mauretanien
112 Mauricio
408 Mauritius
656 Maurits
635 Mauritz
55 Mauser
5831 Max
161 Maxim
993 Maximilian
55 Maximum
214 Maxwell
83 Maxwells
158 Maya
100 Mazarin
279 Mazda
133 Mbit
62 Mc
215 McDonald
137 Mecka
63 Medborgarhuset
81 Medborgarplatsen
1770 Medelhavet
119 Medelhavets
281 Medelhavsområdet
1736 Medelpad
182 Medelpads
64 Medelstads
64 Medeltida
1342 Media
75 Medicin
219 Medicine
152 Medicinska
60 Medium
216 Medvedev
57 Mees
537 Mekaniska
1083 Melander
177 Melanie
962 Melbourne
331 Melin
148 Melissa
88 Melker
204 Mellaneuropa
213 Mellansverige
80 Mellanvikt
88 Mellanvästern
1251 Mellanöstern
536 Mellersta
109 Mellerud
254 Melleruds
191 Melodi
2230 Melodifestivalen
81 Melodifestivalens
73 Melvin
107 Mental
87 Mera
486 Mercedes
563 Mercedes-Benz
56 Meridian
105 Merit
161 Merkel
386 Merkurius
161 Messerschmitt
337 Messias
110 Meta
108 Metall
73 Meteor
108 Metodistkyrkan
500 Metro
76 Metropol
965 Mexikanska
3769 Mexiko
322 Mexikos
510 Mia
861 Miami
7732 Michael
211 Michaels
102 Michelin
411 Michelle
1841 Michigan
59 Michigans
638 Mick
1670 Microsoft
254 Microsofts
92 Midsommarkransen
88 Migrationsverket
744 Miguel
277 Mika
2328 Mikael
72 Mikaela
146 Mikaels
2111 Mike
76 Mil
1010 Milan
1696 Milano
77 Milanos
66 Milans
99 Militärhögskolan
131 Miljö
441 Miljöpartiet
99 Miljöpartiets
70 Milla
161 Millennium
1795 Miller
145 Millers
163 Million
263 Milo
55 Milos
63 Milou
507 Milton
86 Mimas
134 Mimmi
754 Min
231 Mina
412 Minas
818 Mindre
76 Mining
199 Minister
68 Ministeriet
85 Minna
79 Minne
126 Minnen
1855 Minnesota
65 Minns
215 Minor
433 Minsk
58 Minus
154 Mio
169 Mira
392 Miranda
1058 Miss
387 Mission
175 Missionsförbundet
171 Missionsförbundets
209 Missionskyrkan
1004 Mississippi
56 Mississippis
1330 Missouri
65 Mist
87 Mister
61 Mistral
59 Mitra
203 Mitsubishi
502 Mitt
359 Mix
56 Mixed
569 Mjölby
625 Mo
131 Moa
457 Moberg
109 Mobergs
78 Mobil
432 Mobile
67 Mod
311 Mode
385 Modena
214 Moder
392 Moderata
412 Moderaterna
94 Moderaternas
710 Modern
597 Moderna
109 Moderne
74 Modest
81 Modig
67 Modin
370 Mohammed
276 Molander
555 Moldavien
89 Moldaviens
268 Molin
77 Molins
98 Moll
348 Molly
114 Molotov
133 Moment
119 Mon
477 Mona
960 Monaco
141 Monacos
82 Monark
1607 Mongoliet
78 Mongoliets
1307 Monica
113 Monicas
147 Monika
105 Monitor
87 Mono
287 Mons
88 Monsieur
257 Monster
147 Monsters
922 Montenegro
121 Montenegros
1180 Montreal
127 Monument
222 Monza
174 Mor
1727 Mora
92 Moral
113 Moran
58 Morbid
94 Mord
61 Morden
73 Mordet
89 Morel
2077 Morgan
67 Morgan-Jones
59 Morgans
81 Morgon
79 Morgonpasset
88 Mormons
984 Morris
86 Mors
366 Morse
165 Morten
304 Mos
257 Mose
206 Mosebacke
212 Moseboken
62 Moseböckerna
530 Moses
5477 Moskva
471 Moskvas
73 Moskvauniversitetet
103 Mosley
87 Mosul
2129 Motala
192 Motion
860 Motor
178 Motorola
565 Motors
260 Motorsport
125 Motorsports
93 Mourinho
538 Mozart
337 Mozarts
141 Mozilla
448 Moçambique
100 Ms
94 Mu
106 Muammar
99 Mugabe
888 Muhammed
279 Muhammeds
57 Mulan
79 Mullen
297 Muller
200 Mullsjö
70 Mumma
136 Munch
122 Munk
80 Munkedal
327 Munkedals
208 Munkfors
61 Munktell
72 Munting
57 Mur
61 Mura
94 Murad
118 Murat
109 Murdoch
155 Murmansk
1019 Murray
92 Mus
155 Musa
406 Museet
61 Museets
2463 Museum
86 Museums
684 Musik
1075 Musikaliska
59 Musikens
962 Musikhögskolan
163 Musikkonservatoriet
106 Musikkonservatorium
59 Musikkår
57 Musikteater
96 Muslim
129 Muslimska
206 Must
159 Mustang
338 Mutant
56 Mutter
3690 My
132 Myndigheten
7292 Mynnar
90 Myra
329 Myrdal
67 Myrdals
57 Mysteriet
67 Mälarbanan
292 Mälardalen
104 Mälardalens
1343 Mälaren
169 Mälarens
94 Mälarhöjden
169 Mälarstrand
99 Män
56 Människan
103 Människor
215 Märsta
564 Märta
79 Mässan
106 Mästare
88 Mästaren
69 Mästarnas
296 Mäster
84 Mästerskapen
112 Mästerskapsserien
277 Mål
127 Målilla
670 Målskillnad
108 Månen
634 Måns
499 Månsson
570 Mårten
278 Mårtensson
61 Mårtenssons
56 Måsen
722 Möller
441 Mölndal
382 Mölndals
189 Mölnlycke
312 Mönsterås
115 Mörby
326 Mörbylånga
64 Mörk
68 Mörka
106 Mörkrets
1957 Müller
95 Müllers
4972 München
369 Münchens
90 NASDAQ
396 NATO
144 NATO-rapporteringsnamn
542 NBA
70 NBA-titel
508 NBC
4145 NHL
63 NHL-debut
190 NHL-draft
419 NHL-draften
76 NHL-karriär
63 NHL-klubben
61 NHL-lag
94 NHL-lagen
233 NHL-laget
62 NHL-lockouten
58 NHL-match
87 NHL-matcher
63 NHL-spelare
87 NJA
93 NO
96 NP
258 NRK
85 NV
1225 Nacka
163 Nadal
121 Nadja
130 Nagorno-Karabach
217 Nalle
358 Namn
826 Nancy
297 Nantes
66 Napalm
2391 Napoleon
411 Napoleonkrigen
569 Napoleons
200 Napp
160 Natalia
245 Natalie
136 Nathalie
596 Nation
86 Nationaldemokraterna
148 Nationalencyklopedin
83 Nationalförsamlingen
62 Nationalgalleriet
103 Nationalistpartiet
81 Nationalliga
104 Nationalmuseet
1041 Nationalmuseum
61 Nationalmuseums
58 Nationalsocialistisk
239 Nationalsocialistiska
89 Nationalstadion
128 Nationalteatern
76 Nationell
819 Nationella
60 Nationellt
121 Nationerna
559 Nationernas
538 Nations
368 Nato
155 Natos
300 Natt
93 Natten
120 Nattens
67 Nattvarden
258 Natur
5551 Natura
267 Naturhistoriska
89 Naturskyddsföreningen
63 Naturvetenskapliga
192 Naturvårdsverket
56 Navigation
1065 Nazityskland
446 Nazitysklands
1349 Neapel
68 Neapels
293 Ned
6509 Nederländerna
508 Nederländernas
397 Nederländska
165 Nedlagd
1531 Nedre
903 Neil
100 Nej
60 Nellie
202 Nelly
81 Nemesis
104 Neo
132 Neon
1700 Nepal
84 Nepals
408 Neptunus
131 Nestor
29280 New
1057 News
625 Newton
260 Newtons
181 Ni
520 Nicaragua
71 Nicaraguas
636 Nice
1106 Nick
162 Nicklas
60 Nicks
474 Niclas
335 Nicole
141 Nicosia
591 Niels
1439 Nielsen
75 Nielsens
67 Niemi
277 Nietzsche
87 Nietzsches
344 Niger
1841 Nigeria
215 Nigerias
206 Nikita
883 Niklas
66 Niklasson
464 Nikolaus
141 Nikon
460 Nilen
169 Nilens
5183 Nils
4794 Nilsson
286 Nilssons
66 Nimbus
908 Nina
1465 Nintendo
196 Nintendos
99 Nio
446 Nirvana
140 Nirvanas
481 Nissan
62 Nissans
277 Nisse
93 Nissen
1302 Nixon
93 Nixons
146 Noah
424 Nobel
72 Nobelkommitté
105 Nobelkommittén
100 Nobelpris
984 Nobelpriset
65 Nobelpristagare
60 Nobelpristagaren
592 Nobels
74 Nobelstiftelsen
198 Noble
210 Noel
392 Nokia
82 Nokias
55 Nollor
55 Nomads
1103 Nora
533 Norberg
335 Norbergs
1868 Nord
1077 Nordafrika
178 Nordahl
4288 Nordamerika
119 Nordamerikanska
277 Nordamerikas
283 Nordanstigs
202 Nordatlanten
61 Nordbanken
138 Nordberg
93 Nordea
3159 Norden
933 Nordens
219 Nordeuropa
111 Nordgren
507 Nordin
1147 Nordirland
126 Nordirlands
1069 Nordisk
1799 Nordiska
82 Nordiskt
72 Nordkalotten
826 Nordkorea
119 Nordkoreas
304 Nordland
136 Nordlander
144 Nordlund
112 Nordmaling
365 Nordmalings
58 Nordman
94 Nordmark
102 Nordmarks
167 Nordnorge
190 Nordpolen
127 Nordqvist
120 Nordsjö
81 Nordsjökusten
891 Nordsjön
71 Nordstaden
66 Nordstan
362 Nordstjärneorden
56 Nordstrand
536 Nordström
126 Nordströms
79 Nordterritoriet
122 Nordtyska
135 Nordvietnam
173 Nordvästra
72 Nordöstra
119 Norell
16535 Norge
2547 Norges
73 Norgren
63 Norin
80 Norlin
103 Norling
111 Normal
71 Normale
2764 Norman
55 Normand
319 Norr
7129 Norra
4079 Norrbotten
1400 Norrbottens
69 Norrbottensteatern
3506 Norrköping
1459 Norrköpings
2336 Norrland
818 Norrlands
131 Norrlandskusten
71 Norrlandsoperan
77 Norrländska
705 Norrmalm
57 Norrmalms
201 Norrmalmsregleringen
121 Norrmalmstorg
93 Norrman
80 Norrtull
952 Norrtälje
104 Norsborg
76 Norsborgs
611 Norsjö
615 Norsk
408 Norska
494 Norske
92 Norstedt
275 Norstedts
131 Norström
410 Norton
264 Norén
77 Noréns
819 Not
489 Nottingham
972 Nova
87 Novell
322 Nr
492 Nu
70 Nummer
128 Nusvenska
1021 Ny
11390 Nya
410 Nyberg
552 Nybro
64 Nybrogatan
57 Nybrokajen
60 Nybroplan
55 Nyckel
232 Nye
203 Nygren
1474 Nyheter
69 Nyheterna
236 Nyheters
206 Nyhetsmorgon
75 Nykvarn
70 Nykvarns
105 Nykvist
1056 Nyköping
936 Nyköpings
99 Nyköpingshus
469 Nyland
914 Nylander
254 Nylands
98 Nylund
76 Nylén
319 Nyman
365 Nynäshamn
171 Nynäshamns
84 Nyqvist
172 Nystad
636 Nyström
114 Nytt
62 Nämnden
878 När
101 Näringsdepartementet
217 Näringsliv
59 Näringslivets
56 Näringsutskottet
1534 Närke
236 Närkes
446 Näs
72 Näset
242 Näslund
798 Nässjö
61 Nätverket
146 Nås
85 Nöjesguiden
69 Nöjesteatern
141 OECD
216 OH
319 OK
146 OMX
6141 OS
2659 OS-brons
58 OS-finalen
2580 OS-guld
60 OS-guldet
79 OS-medalj
55 OS-medaljer
2250 OS-silver
159 OSS
94 OSSE
821 Oavgjorda
80 Ob
514 Obama
132 Obamas
167 Oberoende
73 Obs
85 Occidental
315 Ocean
123 Oceanen
479 Ockelbo
62 Ode
80 Odell
533 Oden
76 Odenplan
157 Odens
567 Odense
66 Odjuret
141 Odysséen
62 Oeuvres
90 Ofelia
121 Offerdal
269 Offerdals
137 Officer
65 Officiell
2198 Ohio
105 Ohios
404 Ohlsson
72 Ohm
77 Oka
876 Oklahoma
1161 Ola
577 Olaus
83 Olausson
899 Olav
121 Olavs
489 Olga
262 Olin
2104 Oliver
290 Olivia
80 Oljelund
1501 Olle
5510 Olof
224 Olofs
775 Olofsson
115 Olofström
326 Olofströms
353 Olov
487 Olsen
3160 Olsson
230 Olssons
85 Olympiakos
284 Olympiastadion
4168 Olympiska
2445 Om
276 Omaha
373 Oman
199 Omega
80 Omgång
180 Onkel
289 Online
425 Ono
97 Onsala
526 Opel
57 Opels
921 Opera
128 Operahögskolan
908 Operan
115 Operans
1549 Operation
140 Operations
59 Opinion
125 Opus
109 Or
93 Oracle
59 Oral
685 Orange
336 Ord
380 Orden
61 Ordens
588 Order
156 Ordet
139 Ordfront
101 Ordförande
67 Ords
1138 Oregon
80 Oregons
257 Organisation
117 Organisationen
206 Oriental
416 Orienten
309 Original
135 Orkanen
120 Orkester
65 Orkestern
896 Orleans
149 Orm
94 Ormen
84 Oro
206 Orrefors
646 Orsa
65 Orten
94 Ortodoxa
249 Orust
202 Orusts
73 Orvar
92 Orwell
156 Os
411 Osby
5184 Oscar
506 Oscars
440 Oscarsgalan
123 Oscarsnominerad
123 Oscarsson
360 Oscarsteatern
1590 Oskar
64 Oskars
589 Oskarshamn
655 Oskarshamns
4866 Oslo
112 Oslofjorden
123 Oslos
100 Osman
1323 Osmanska
1015 Ossian
108 Ost
739 Osten
518 Ostindiska
96 Osvald
7167 Otto
77 Ottos
96 Ottosson
274 Outstanding
3800 Ovan
549 Ovanåkers
499 Ove
170 Owe
566 Owen
218 Owens
211 Oxelösund
94 Oxelösunds
58 Oxen
817 Oxenstierna
117 Oxenstiernas
1666 Oxford
205 Oxfords
758 P1
233 P2
1094 P3
527 P4
63 PBL
787 PC
69 PC-datorer
65 PCB
92 PDF
93 PETERS
391 PGA
284 PGA-touren
66 PKK
227 PLO
145 PM
128 PPP
160 PR
65 PRO
197 PS
61 PSA
56 PTS
70 PVC
594 Pablo
248 Pack
555 Page
71 Pages
1031 Pajala
1586 Pakistan
155 Pakistans
1092 Palestina
85 Palestinas
84 Palestinska
146 Palladium
467 Pallas
672 Palm
987 Palme
76 Palmemordet
556 Palmer
92 Palmers
251 Palmes
117 Palmgren
86 Palmqvist
70 Palms
59 Pampas
623 Panama
120 Panamakanalen
77 Panamas
62 Panamerikanska
99 Panda
114 Pang
80 Panorama
508 Paolo
1058 Papp
77 Pappa
793 Papua
96 Papyrus
144 Par
165 Parade
72 Paradis
138 Paradiset
67 Paradox
1635 Paraguay
110 Paraguays
544 Pardosa
17782 Paris
131 Paris-Nice
66 Parisfreden
88 Pariskommunen
60 Parissalongen
4502 Park
135 Parken
979 Parker
82 Parkers
171 Parkinsons
252 Parks
78 Parlamentet
286 Part
355 Parti
297 Partiet
399 Partille
106 Partner
178 Partners
371 Parton
92 Partons
2318 Party
59 Partys
301 Pascal
206 Pascha
209 Pass
57 Passage
84 Passat
146 Passion
91 Pastor
206 Patent
1911 Patrick
860 Patrik
102 Patriotiska
12692 Paul
626 Paula
421 Pauli
122 Paulina
146 Pauls
59 Pauls-katedralen
158 Paulsson
1322 Paulus
106 Paus
59 Peab
988 Peder
424 Pedersen
968 Pedro
740 Pehr
57 Pehrson
130 Pehrsson
2629 Peking
185 Pekings
871 Pelle
304 Peng
74 Pennington
2404 Pennsylvania
80 Pennsylvanias
347 Penny
97 Pentagon
5565 Per
97 Per-Erik
101 Per-Olof
355 Performance
115 Period
328 Pernilla
123 Perrelli
291 Pers
119 Persbrandt
61 Perserriket
806 Persien
378 Persiska
153 Person
122 Personal
93 Personvagnar
2979 Persson
301 Perssons
96 Perstorp
83 Perstorps
4650 Peru
247 Perus
162 Pest
74 Petar
644 Pete
12968 Peter
1279 Peters
2495 Petersburg
208 Petersburgs
524 Petersen
56 Petersens
591 Peterson
69 Peterson-Berger
490 Petersson
352 Petra
124 Petroleum
60 Petronella
1619 Petter
62 Petters
1464 Pettersson
113 Petterssons
334 Peugeot
928 Phil
1969 Philadelphia
2571 Philip
382 Philips
202 Philipsson
71 Pi
283 Pia
132 Piano
244 Piazza
265 Picasso
78 Picassos
85 Pick
5107 Pierre
231 Pigg
60 Piggs
124 Pihl
78 Pilar
134 Pilatus
78 Pilgrim
82 Pilot
69 Pilots
200 Pimpla
73 Pin
112 Pingströrelsen
513 Piper
69 Pipers
339 Pippi
264 Pippin
72 Piraten
116 Piratpartiet
334 Pisa
166 Pistols
1835 Piteå
345 Pitt
71 Pitts
64 Pizza
74 Placering
433 Plan
430 Planet
285 Plant
418 Platon
248 Platons
60 Platt
69 Playa
148 Playboy
126 Playboys
110 Playoff
1061 Playstation
75 Pling
473 Plus
301 Pluto
83 Plutos
302 Plymouth
176 Pocket
64 Podgorica
109 Poems
76 Pojken
261 Poker
154 Pol
173 Polar
91 Polaris
55 Polarpriset
7455 Polen
91 Polen-Litauen
930 Polens
133 Policy
124 Polisen
122 Politik
151 Politiken
205 Polo
229 Polska
61 Polymera
58 Polyteknisk
61 Polytekniska
59 Pommerska
101 Pontiac
67 Pontius
615 Pontus
105 Pool
785 Pop
293 Poppe
138 Pops
110 Por
966 Porsche
99 Porsches
69 Porslinsfabrik
1030 Port
153 Porta
121 Portal
86 Porten
1490 Porter
634 Portland
60 Portman
572 Porto
3635 Portugal
498 Portugals
128 Portugisiska
188 Posen
485 Position
822 Post
124 Postal
316 Posten
67 Postens
98 Postverket
1228 Potter
63 Potter-böckerna
101 Potters
112 Potts
351 Povel
1051 Poäng
97 Prada
2068 Prag
113 Prags
63 Prat
114 Precis
211 Predators
2058 Premier
57 Premium
73 Presbyterian
57 Present
55 Presents
300 President
782 Press
88 Pressens
2242 Preussen
442 Preussens
81 Preussiska
59 Prevention
106 Prima
101 Primus
71 Principal
792 Prins
83 Prinsen
308 Prinsessan
117 Pris
79 Prisma
185 Private
802 Pro
83 Problem
60 Problems
57 Process
168 Produktion
473 Professor
306 Program
234 Progress
91 Progressiva
119 Progressive
357 Projekt
177 Prost
76 Proust
202 Provins
107 Provisoriska
75 Prästgatan
63 Prästgården
66 Psalm
141 Psalmer
126 Psaltaren
667 Public
92 Publicistklubben
97 Puck
63 Puff
145 Puh
88 Pula
103 Puma
156 Punk
55 Puss
279 Putin
77 Putins
129 Pyongyang
137 Pythagoras
458 Pär
68 Pärson
151 Pålsson
84 Påskön
422 Qatar
61 Qatars
160 Qin
96 Quisling
193 RAM
55 REM-sömn
159 RF
139 RFSL
76 ROM
66 RTL
681 Race
66 Racer
58 Racers
64 Races
1479 Racing
81 Radar
304 Radikale
4475 Radio
97 Radio-TV
56 Radiokören
649 Radios
56 Radiosporten
113 Radioteatern
175 Radiotjänst
63 Radiumhemmet
946 Rafael
64 Rafaels
1222 Ragnar
148 Ragnarök
198 Ragnhild
531 Ragunda
72 Rai
85 Raiders
57 Rakel
353 Ralf
154 Rally
76 Rally-VM
141 Ram
178 Rama
305 Ramaria
105 Ramberg
265 Ramlösa
113 Ramsele
56 Ramsjö
134 Ranch
237 Rand
60 Rands
351 Raoul
99 Rap
160 Rapid
160 Rapp
125 Rappe
324 Rapport
99 Rare
127 Ras
88 Rask
865 Rasmus
56 Rasmusson
66 Ratos
1457 Ray
133 Rays
87 Rea
354 Reagan
101 Reagans
2411 Real
364 Rebecca
187 Rebecka
2881 Red
266 Rederi
120 Rederiet
61 Reds
113 Reform
76 Reformerta
62 Regent
393 Regeringen
171 Regeringsgatan
130 Regeringskansliet
67 Regeringsrätten
96 Reggae
73 Regi
487 Regina
812 Region
242 Regional
115 Regis
134 Register
1218 Rehn
134 Reine
319 Reinfeldt
735 Reinhold
117 Rekord
128 Rekordbok
97 Relations
103 Release
93 Relief
226 Religion
145 Remix
295 Ren
82 Rena
1067 Renault
63 Renberg
58 Renström
80 Rent
92 Republik
105 Republikanerna
257 Republikanska
1637 Republiken
76 Republikens
97 Resa
104 Resan
964 Research
142 Resident
66 Resolution
55 Rest
187 Restaurang
68 Resumé
83 Reuters
321 Revolution
98 Revolutionära
117 Revolver
501 Reykjavik
658 Rhen
55 Rhenförbundet
83 Rhenlandet
62 Rhens
2943 Rica
109 Ricas
6999 Richard
1416 Richards
121 Richterskalan
406 Rickard
137 Riddare
166 Riddarfjärden
294 Riddarholmen
79 Riddarhus
532 Riddarhuset
67 Riddarhyttan
175 Riddarkorset
212 Rider
72 Riesling
1126 Riga
94 Rigas
80 Riggs
81 Rigmor
67 Rik
742 Rikard
73 Rikards
156 Riket
161 Rikets
285 Riksantikvarieämbetet
78 Riksantikvarieämbetets
382 Riksarkivet
234 Riksbanken
149 Riksbankens
134 Riksbanks
63 Riksbyggen
299 Riksdagen
162 Riksdagens
137 Riksdagshuset
423 Riksförbund
214 Riksförbundet
83 Riksföreningen
87 Riksgäldskontoret
224 Riksidrottsförbundet
56 Riksidrottsförbundets
89 Rikskonserter
55 Riksmuseet
121 Rikspolisstyrelsen
133 Riksserien
467 Riksteatern
56 Riksteaterns
67 Rikstrafiken
544 Riksväg
789 Ring
287 Ringen
137 Ringens
69 Ringhals
144 Rings
97 Ringsjön
239 Ringvägen
141 Rinkeby
677 Rinner
1531 Rio
183 Rioja
421 Ris
66 Risk
57 Rissne
381 Rita
300 Ritter
58 Ritual
141 Riva
64 Rival
82 Rivas
1810 River
80 Rivieran
57 Roa
1449 Road
60 Roadracing
85 Roadracing-VM
81 Roar
11246 Robert
697 Roberto
1104 Roberts
375 Robertsfors
1687 Robin
214 Robins
177 Robot
3146 Rock
80 Rockbjörnen
420 Rocks
58 Rodeo
2995 Roger
605 Rogers
168 Rojas
1236 Roland
56 Rolands
2046 Rolf
77 Rolfs
765 Roll
81 Roller
69 Rollins
301 Rolls-Royce
8780 Rom
850 Roman
91 Romandiet
89 Romani
61 Romans
75 Romarbrevet
322 Romarriket
125 Romarrikets
1041 Romeo
61 Romeos
492 Romersk-katolska
434 Romerska
71 Romney
682 Roms
944 Ron
2191 Ronald
239 Ronaldo
91 Rondo
185 Rondon
113 Ronja
1008 Ronneby
537 Ronnie
208 Ronny
99 Rookie
496 Roos
181 Ropsten
74 Ros
1122 Rosa
108 Rosas
109 Rosberg
705 Rosen
70 Rosenbad
448 Rosenberg
89 Rosenbergs
62 Rosenblad
181 Rosengren
218 Rosengård
76 Rosens
600 Roskilde
63 Roskildefestivalen
280 Roslagen
112 Roslagens
228 Roslags
90 Rosor
100 Rosornas
411 Rosén
87 Rota
75 Rotary
221 Rouge
324 Rousseau
72 Rousseaus
102 Rowling
1614 Roy
77 Royce
300 Ruben
254 Rubens
58 Rubenson
202 Rubin
74 Rudberg
2588 Rudolf
224 Rugby
80 Ruin
117 Rum
2632 Rumänien
319 Rumäniens
58 Rumänska
73 Runar
722 Rune
75 Runsten
64 Runstens
161 Runt
59 Rural
63 Rus
311 Rush
99 Russ
929 Russell
75 Russell-Smith
84 Russells
136 Rut
105 Ruter
219 Rutger
67 Rutgers
445 Ruth
112 Rutland
631 Rwanda
69 Rwandas
60 Rya
1061 Ryan
124 Ryanair
221 Ryd
541 Rydberg
109 Rydbergs
198 Ryds
125 Rydén
69 Rylander
99 Rymdimperiet
1055 Ryska
12385 Ryssland
1353 Rysslands
253 Rädda
66 Räddningsprocent
74 Rätt
300 Rättvik
587 Rättviks
61 Rättvisans
85 Råcksta
117 Råd
258 Råda
139 Rådet
116 Rådhuset
60 Rågsved
91 Råneå
633 Råsunda
72 Råsundastadion
229 Röd
3277 Röda
159 Röde
70 Rödluvan
112 Rönninge
104 Rörelsen
71 Röst
77 Röster
73 Röstånga
465 SA
232 SAAB
144 SAC
64 SACO
178 SAF
60 SAOL
611 SAS
430 SCB
288 SD
187 SE
148 SEAT
157 SEB
148 SED
71 SES
515 SF
69 SFI
296 SFS
70 SI
71 SI-enheten
66 SI-systemet
122 SIS
1307 SJ
573 SL
170 SLU
1845 SM
167 SM-final
128 SM-finalen
1850 SM-guld
133 SM-guldet
58 SM-medaljer
131 SM-silver
153 SM-slutspel
130 SM-slutspelet
118 SM-tecken
68 SM-titlar
30871 SMHI
98 SMITH
240 SMS
76 SNS
102 SO
164 SOS
234 SOU
57 SPÖ
79 SQL
658 SR
129 SSAB
96 SSRI
365 SSU
231 ST
59 STIM
84 SUV
4159 SVT
65 SVT-programmet
368 SVT1
258 SVT2
112 SVT24
73 Sa
1359 Saab
135 Saabs
157 Sabina
400 Sachs
284 Saddam
111 Sade
136 Safari
394 Saga
866 Sagan
81 Sagor
711 Sahara
56 Saharaöknen
214 Sahlberg
371 Sahlin
2248 Saint
99 Saint-Girons
80 Saint-Louis
87 Saint-Pierre
76 Saint-Simon
93 Sal
882 Sala
152 Salamis
55 Salander
73 Salas
414 Salem
184 Salems
395 Sally
387 Salomon
729 Salt
56 Saltholmen
78 Saltkråkan
327 Saltsjöbaden
77 Saltsjöbadens
271 Saltsjön
995 Salvador
1702 Sam
105 Same
70 Samernas
114 Sametinget
413 Samfundet
81 Samhälle
55 Samisk
141 Samlade
185 Samling
162 Samlingspartiet
106 Sampras
139 Samsung
60 Samtal
3495 Samuel
349 Samuels
412 Samuelsson
156 Samväldet
8163 San
243 Sand
93 Sanda
732 Sandberg
209 Sandell
70 Sander
271 Sanders
94 Sandgren
163 Sandhamn
69 Sandin
89 Sandman
321 Sandra
167 Sands
130 Sandsjö
78 Sandsjön
522 Sandström
170 Sandvik
459 Sandviken
592 Sandvikens
75 Sandviks
5841 Sankt
591 Sankta
331 Sanna
62 Sanne
55 Sanningen
63 Sans
55 Sanskrit
204 Sant
1648 Santiago
61 Santiagos
1205 Sara
1025 Sarah
580 Sarajevo
107 Sarkozy
160 Sarpsborg
1364 Sars
416 Satan
71 Satans
551 Saturnus
843 Saudiarabien
62 Saudiarabiens
77 Sauvignon
168 Sax
271 Scania
78 Scania-Vabis
88 Scenskolan
96 Schengenområdet
67 Schengenregelverket
136 Schengensamarbetet
58 Schilling
2771 Schmidt
453 Schröder
228 Schubert
94 Schuberts
847 Schultz
1056 Schumacher
56 Schumachers
145 Schwarzenegger
103 Schwarzwald
7479 Schweiz
140 Schweiziska
87 Schyman
1137 Science
142 Scorsese
67 Scorseses
3249 Scott
214 Scotts
266 Scout
58 Scoutförbund
127 Scouts
89 Scratch
480 Se
997 Sebastian
362 Second
71 Securitas
486 Sega
102 Segelsällskap
126 Segeltorp
93 Seger
85 Segers
135 Segerstad
60 Segerström
60 Segersäll
625 Selma
57 Seminarium
212 Sen
56 Sena
70 Senaten
70 Senator
613 Senators
918 Senegal
90 Senegals
395 Senior
1193 Seoul
101 Sepia
87 Sepsis
246 September
86 Serafimerorden
55 Serbernas
2266 Serbien
310 Serbiens
147 Serbiska
149 Serena
90 Sergeant
169 Sergel
253 Sergels
1703 Serie
69 Seriefrämjandet
60 Serieförlaget
95 Serien
109 Serier
2182 Series
275 Server
1127 Service
314 Services
76 Sesam
74 Session
135 Sessions
308 Set
542 Sex
55 Sexdagarskriget
721 Seychellerna
429 Shah
136 Shake
727 Shakespeare
607 Shakespeares
895 Shanghai
67 Shanghais
803 Sheffield
107 Sheriff
61 Sherry
169 Shiva
266 Shop
65 Shopping
1847 Show
173 Si
134 Sibelius
55 Sibelius-Akademin
1378 Sibirien
86 Sibiriens
230 Sibylla
1287 Sicilien
73 Siciliens
178 Sickla
234 Sid
420 Sida
75 Sidensjö
84 Sidenvägen
254 Siegfried
441 Siemens
1187 Sierra
172 Sievert
820 Sigfrid
105 Sigfrids
270 Sigge
77 Signal
346 Signe
548 Sigrid
839 Sigtuna
888 Sigurd
170 Sigvard
99 Silas
61 Silen
55 Sill
825 Silver
94 Silverman
270 Silvia
154 Sim
6641 Simon
310 Simone
235 Simons
228 Simonsson
197 Simple
1083 Simpson
1263 Simpsons
315 Simrishamn
306 Simrishamns
244 Sims
57 Simsällskap
87 Simulator
468 Sinclair
1144 Singapore
132 Singapores
89 Singel
76 Singlar
101 Sioux
1474 Sir
181 Siri
83 Sissela
530 Sista
144 Siv
168 Siw
260 Sixten
155 Sju
69 Sjuan
56 Sjuhundra
86 Sjunde
75 Sjung
59 Sjätte
718 Sjöberg
98 Sjöbergs
115 Sjöblom
378 Sjöbo
192 Sjödin
130 Sjöfartstidning
192 Sjöfartsverket
663 Sjögren
86 Sjögrens
123 Sjöhistoriska
164 Sjöholm
93 Sjökrigsskolan
115 Sjöman
101 Sjön
58 Sjöstad
501 Sjöstedt
116 Sjöstrand
421 Sjöström
77 Sjöströms
56 Sjövall
177 Skagerrak
262 Skandia
2075 Skandinavien
458 Skandinaviens
79 Skandinavisk
427 Skandinaviska
800 Skansen
90 Skansens
151 Skanska
111 Skanstull
207 Skanör
2502 Skara
151 Skaraborg
1532 Skaraborgs
93 Skarpnäck
98 Skarpnäcks
167 Skarsgård
262 Skatteverket
61 Skelleftehamn
3273 Skellefteå
417 Skeppsbron
283 Skeppsholmen
74 Skidförbundet
121 Skin
100 Skinnskatteberg
321 Skinnskattebergs
55 Skiva
61 Sko
197 Skog
79 Skogen
243 Skoglund
183 Skogs
64 Skogsberg
103 Skogshögskolan
67 Skogsinstitutet
209 Skogskyrkogården
57 Skogsstyrelsen
89 Skokloster
77 Skoklosters
98 Skola
168 Skolan
83 Skolgatan
91 Skolverket
82 Skolöverstyrelsen
157 Skopje
150 Skotska
3795 Skottland
419 Skottlands
95 Skrifter
116 Skuggan
89 Skull
99 Skurup
208 Skurups
644 Sky
289 Skytte
164 Skytts
402 Skänninge
58 Skärgårdsstiftelsen
192 Skärholmen
77 Skärholmens
7664 Skåne
59 Skåneland
919 Skånes
100 Skånetrafiken
55 Skånetrafikens
111 Skånings
1346 Skånska
277 Sköld
91 Skölds
83 Sköna
81 Skönheten
1680 Skövde
1076 Slaget
70 Slaka
335 Slam
64 Slam-titel
74 Slam-titlar
61 Slam-turnering
166 Slam-turneringar
58 Slam-turneringarna
67 Slam-turneringen
120 Slash
99 Slick
137 Slipknot
119 Slott
252 Slottet
113 Slottsbacken
63 Slottsgatan
114 Slottsskogen
1237 Slovakien
122 Slovakiens
1512 Slovenien
163 Sloveniens
66 Slovenska
553 Slussen
266 Sly
73 Slöjdföreningen
110 Slöjdföreningens
300 Small
207 Smart
192 Smash
61 Smedberg
110 Smedjebacken
438 Smedjebackens
121 Smetana
94 Smiley
172 Smit
8092 Smith
493 Smiths
104 Smitt
55 Smoking
274 Små
8038 Småland
835 Smålands
95 Snooker
139 Snorres
169 Snövit
578 So
564 Social
69 Social-Demokraten
62 Socialdemokraten
873 Socialdemokraterna
153 Socialdemokraternas
264 Socialdemokratiska
110 Socialdepartementet
167 Socialist
72 Socialistinternationalen
96 Socialistisk
285 Socialistiska
300 Socialstyrelsen
93 Socialstyrelsens
65 Sockerfabriks
80 Sofi
2606 Sofia
102 Sofias
269 Sofie
132 Soft
105 Sohlman
276 Sokrates
339 Sol
96 Solar
127 Solberg
287 Solberga
199 Solen
84 Solens
142 Solid
97 Solidaritet
1638 Sollefteå
801 Sollentuna
1859 Solna
214 Solo
83 Solsidan
111 Solutions
82 Solvalla
126 Solveig
824 Somalia
99 Somalias
354 Sommar
65 Sommar-OS
81 Sommaren
71 Sommarkrysset
815 Son
83 Sonata
176 Sonen
128 Sonera
386 Sonja
216 Sons
1065 Sony
87 Sonys
555 Sophia
877 Sophie
126 Sophus
941 Sorsele
197 Sotenäs
740 Soul
124 Souls
914 Sound
288 Sounds
145 Soundtrack
4625 South
858 Sovjet
152 Sovjetiska
241 Sovjets
88 Sovjettiden
6699 Sovjetunionen
1554 Sovjetunionens
159 Spa
60 Spader
10333 Spanien
1015 Spaniens
706 Spanska
212 Sparbank
165 Sparbanken
189 Sparks
1007 Sparre
63 Sparres
619 Special
82 Specials
126 Species
125 Spector
272 Speed
556 Speedway
115 Spegel
105 Spegeln
170 Spel
1064 Spelade
62 Spelet
64 Spelman
250 Spetsbergen
334 Spindelmannen
64 Spira
348 Split
873 Sport
83 Sportklubb
923 Sports
137 Spotify
61 Spray
736 Spring
249 Springer
473 Springs
125 Sprint
79 Sprit
72 Språkrådet
139 Spy
57 Spår
71 Spårväg
106 Spårvägar
83 Spårvägens
58 Spårvägssällskapet
2525 Sri
5505 St
257 Stad
217 Staden
524 Stadion
1239 Stadium
137 Stads
63 Stadsbiblioteket
76 Stadsgården
78 Stadshagen
129 Stadsholmen
56 Stadshotellet
107 Stadshuset
64 Stadsmuseum
93 Stadsparken
714 Stadsteater
91 Stadsteatern
829 Staffan
153 Staffanstorp
165 Staffanstorps
70 Stake
85 Stakes
870 Stalin
216 Stalingrad
460 Stalins
193 Stambanan
94 Stampen
606 Stan
585 Standard
137 Standards
3220 Stanley
655 Stark
80 Starke
294 Starr
144 Start
62 Startracks
282 Staten
3021 Statens
192 Staterna
73 Staternas
728 Station
90 Statistik
268 Statistiska
76 Statoil
83 Statskontoret
81 Statsrådsberedningen
151 Status
67 Stavsnäs
328 Steen
10708 Stefan
482 Stefano
60 Stefans
218 Stekhoven
266 Stella
264 Stellan
1839 Sten
60 Sten-Åke
278 Stena
134 Stenbeck
326 Stenberg
501 Stenbock
68 Stenbocks
152 Stenborg
89 Stenborgs
323 Stenhammar
93 Stenkyrka
75 Stenlund
99 Stenmark
75 Stensele
132 Stensjön
105 Stenström
209 Stenungsund
265 Stenungsunds
160 Stephanie
2049 Stephen
726 Stephens
91 Stereo
217 Sterling
963 Steven
585 Stevens
118 Stick
62 Sticks
57 Stiernstedt
127 Stiftelse
854 Stiftelsen
1445 Stig
312 Still
2529 Stilla
58 Stillahavskriget
59 Stillahavsmandatet
70 Stim
450 Stina
159 Sting
68 Stipendier
58 Stipendium
94 Stjärnan
63 Stjärnorna
251 Stjärnornas
59 Stjärnsund
574 Stock
55809 Stockholm
83 Stockholm-Arlanda
20502 Stockholms
161 Stockholms-Tidningen
220 Stockholmsbörsen
70 Stockholmsförorten
239 Stockholmsområdet
209 Stockholmsoperan
81 Stockholmsregionen
134 Stockholmstrakten
243 Stockholmsutställningen
136 Stockman
60 Stockport
178 Stocksund
87 Stockton
154 Stolpe
323 Stop
72 Stoppa
476 Stor
7523 Stora
15534 Storbritannien
1705 Storbritanniens
122 Storbäcken
639 Store
80 Stores
221 Storfors
109 Storfurstendömet
498 Storgatan
55 Storhertigdömet
252 Storkyrkan
65 Storkyrkoförsamlingen
92 Storlien
583 Storm
58 Stormare
101 Stormen
62 Storsjö
499 Storsjön
61 Storsjöns
124 Storstockholm
170 Storstockholms
386 Stortinget
72 Stortingets
72 Stortjärnen
420 Stortorget
67 Storträsket
136 Storuman
788 Storumans
740 Story
178 Straight
4392 Strand
290 Strandberg
77 Strandgatan
236 Strandvägen
435 Strasbourg
2548 Street
150 Streets
80 Stretch
77 Strid
86 Stridsvagn
130 Strike
1022 Strindberg
574 Strindbergs
71 String
221 Strong
100 Sträng
1715 Strängnäs
146 Strö
734 Ström
360 Strömberg
63 Strömblad
85 Strömma
68 Strömmen
250 Ströms
399 Strömstad
233 Strömstads
167 Strömsund
1865 Strömsunds
1146 Stuart
80 Stuarts
118 Student
74 Studenter
105 Studenternas
91 Studentförbundet
186 Studentkår
99 Studentkåren
68 Studentkårer
80 Students
88 Studieförbundet
220 Studien
235 Studier
436 Studies
1586 Studio
1632 Studios
58 Stuff
1345 Sture
68 Stureby
214 Stureplan
92 Stures
1417 Stuttgart
76 Styrbjörn
106 Styrelsen
110 Ståhl
1295 Stål
252 Stålmannen
90 Ståls
91 Subaru
150 Subba
1264 Sudan
146 Sudans
190 Suezkanalen
78 Suezkrisen
269 Sugar
197 Sultan
80 Summa
516 Summer
119 Summers
92 Summit
195 Sund
356 Sundberg
90 Sundblad
530 Sundbyberg
268 Sundbybergs
69 Sundell
240 Sundin
84 Sundquist
149 Sundqvist
84 Sunds
435 Sundström
2366 Sundsvall
1389 Sundsvalls
98 Sundvall
600 Sune
76 Sunes
783 Sunne
1963 Super
72 Supercupen
898 Superettan
138 Superligan
145 Superman
73 Superserien
62 Supersport
123 Support
394 Sur
71 Sura
89 Surahammar
192 Surahammars
337 Surinam
124 Susa
333 Susanna
341 Susanne
339 Suzanne
649 Suzuki
123 SvD
434 Svalbard
124 Svalöv
231 Svalövs
146 Svan
175 Svanberg
109 Svanen
97 Svansjön
74 Svanslös
691 Svante
245 Svart
1393 Svarta
109 Svartbäcken
184 Svarte
78 Svartlösa
107 Svartsjö
1843 Svea
1168 Svealand
335 Sveavägen
352 Svedala
207 Svedberg
200 Sveg
85 Svegs
4316 Sven
91 Sven-Bertil
116 Sven-Erik
85 Sven-Göran
152 Sven-Ingvars
111 Sven-Olof
528 Svenljunga
88 Svenne
2156 Svensk
18835 Svenska
62 Svenske
101 Svensksund
667 Svenskt
1526 Svensktoppen
2518 Svensson
157 Svenssons
118865 Sverige
60 Sverige-Norge
394 Sverigedemokraterna
159 Sverigedemokraternas
438 Sverigepremiär
25291 Sveriges
236 Sverigetopplistan
58 Sverigeturné
307 Sverker
205 Sverre
115 Svit
104 Svärd
55 Svärdet
106 Svärdsjö
198 Svärdsorden
64 Svärta
197 Swaziland
248 Swedbank
1299 Sweden
1051 Swedish
178 Swing
1311 Syd
3295 Sydafrika
112 Sydafrikanska
409 Sydafrikas
2648 Sydamerika
94 Sydamerikanska
241 Sydamerikas
245 Sydeuropa
96 Sydkinesiska
1557 Sydkorea
67 Sydkoreanska
182 Sydkoreas
2742 Sydney
91 Sydneys
765 Sydostasien
500 Sydow
90 Sydpolen
332 Sydsvenska
233 Sydsvenskan
100 Sydsverige
80 Sydvästra
99 Sydöstra
228 Sylvester
441 Sylvia
101 Symbian
82 Symfoni
176 Symfoniorkester
187 Syrianska
1623 Syrien
145 Syriens
55 Syrén
1529 System
179 Systembolaget
58 Systembolagets
707 Systems
98 Syster
71 SÄPO
221 Säby
599 Säffle
60 Säg
100 Säkerhetspolisen
137 Sälen
92 Sällskap
732 Sällskapet
79 Sällskapets
144 Säpo
65 Särskilda
103 Särö
77 Säsong
162 Säter
344 Säters
239 Sätra
613 Sävsjö
661 Så
66 Sågbäcken
134 Sång
228 Sången
309 Sånger
572 Söder
905 Söderberg
164 Söderbergs
283 Söderblom
149 Söderfors
117 Södergatan
82 Södergren
698 Söderhamn
646 Söderhamns
70 Söderhavet
68 Söderholm
343 Söderköping
227 Söderköpings
105 Söderling
211 Söderlund
1577 Södermalm
155 Södermalms
73 Södermalmstorg
113 Söderman
2369 Södermanland
1513 Södermanlands
73 Södern
100 Söderqvist
91 Södersjukhuset
191 Söderslätt
125 Söderstadion
365 Söderström
2723 Södertälje
72 Södertäljes
168 Södertäljevägen
254 Södertörn
362 Södertörns
7595 Södra
64 Sölve
221 Sölvesborg
216 Sölvesborgs
55 Söndag
182 Söner
489 Sören
175 Sörmland
73 Sörmlands
66 T-26
169 T-34
77 T-72
82 T-Mobile
89 T-bana
70 T-celler
144 TCO
63 THE
362 TT
60 TU
6088 TV
97 TV-apparater
194 TV-bolag
191 TV-bolaget
60 TV-debut
371 TV-film
159 TV-filmen
99 TV-filmer
73 TV-huset
320 TV-kanal
377 TV-kanalen
215 TV-kanaler
58 TV-kanalerna
70 TV-mottagare
99 TV-personlighet
196 TV-producent
61 TV-producenten
67 TV-produktion
381 TV-produktioner
1092 TV-program
72 TV-programledare
81 TV-programmen
1072 TV-programmet
68 TV-pucken
75 TV-reklam
2156 TV-serie
4143 TV-serien
1174 TV-serier
296 TV-serierna
104 TV-show
67 TV-showen
66 TV-shower
351 TV-spel
102 TV-spelet
75 TV-sända
133 TV-sändningar
89 TV-teatern
88 TV-tittare
83 TV-tittarna
105 TV1
269 TV2
837 TV3
2765 TV4
117 TV4-gruppen
73 TV4-nyheterna
205 TV6
141 TV8
185 Ta
88 Tack
372 Tadzjikistan
176 Taft
156 Tag
736 Tage
72 Tagen
72 Tages
213 Tahiti
145 Taipei
3795 Taiwan
116 Taiwans
503 Take
83 Tal
103 Talang
295 Talk
113 Tall
707 Tallinn
106 Talmud
59 Tam
345 Tamil
650 Tammerfors
84 Tanganyika
113 Tango
119 Tank
80 Tankar
160 Tant
94 Tanum
458 Tanums
1889 Tanzania
117 Tanzanias
97 Tapes
71 Tapper
106 Tarantino
191 Tarzan
84 Tata
89 Tattoo
819 Taube
168 Taubes
145 Taxi
2582 Taylor
153 Taylors
646 Tbilisi
83 Tbilisis
502 Tchad
111 Tchads
55 Tchadsjön
183 Te
162 Tea
2312 Team
1688 Teater
531 Teaterhögskolan
1296 Teatern
105 Teaterns
105 Teaters
99 Teaterskola
997 Ted
244 Teddy
76 Tegel
119 Tegelbacken
499 Tegnér
150 Tegnérs
486 Teheran
59 Tekla
142 Teknik
62 Teknikens
169 Teknisk
2390 Tekniska
55 Tekniske
87 Teknologföreningen
186 Teknologiska
340 Tel
137 Tele2
108 Telecom
77 Telefon
64 Telefonplan
71 Telegrafverket
79 Telegrambyrå
125 Telegraph
73 Telekom
116 Telenor
223 Televerket
87 Televerkets
2428 Television
304 Televisions
329 Telia
58 Tema
97 Tempel
93 Tempelman
86 Templet
104 Tempo
286 Ten
1546 Tennessee
69 Tennessees
758 Tennis
259 Tensta
1507 Teodor
101 Teologiska
167 Teresia
98 Terje
193 Terminal
160 Terminator
102 Terrier
219 Terror
140 Test
921 Testamentet
185 Testamentets
4520 Texas
140 Text
129 Thai
2418 Thailand
122 Thailands
47413 The
84 Thea
201 Theo
3345 Theodor
234 Therese
321 Thierry
13781 Thomas
1242 Thorell
71 Thorleif
167 Thorleifs
83 Thorsson
186 Thorén
55 Thriller
295 Thulin
69 Thulins
531 Thunberg
202 Tian
115 Tibble
1088 Tibet
87 Tibets
148 Tibro
88 Ticket
289 Tid
172 Tidaholm
272 Tidaholms
98 Tidende
122 Tidens
195 Tider
879 Tidning
233 Tidningar
92 Tidningarnas
203 Tidningen
65 Tidnings
335 Tidskrift
88 Tidskrifter
167 Tierp
305 Tierps
572 Tiger
327 Tigers
61 Tikar
183 Tilden
1422 Tim
64 Timandra
139 Timbro
145 Timbuktu
1483 Times
768 Timrå
373 Tina
109 Tingsryd
403 Tingsryds
731 Tintin
83 Tintins
276 Tio
81 Tipsligan
353 Tirana
215 Titan
345 Titanic
72 Titanics
138 Titans
57 Titta
229 Tivoli
82 Tjajkovskij
2083 Tjeckien
165 Tjeckiens
75 Tjeckiska
1658 Tjeckoslovakien
159 Tjeckoslovakiens
56 Tjernobyl
147 Tjetjenien
234 Tjörn
193 Tjörns
297 Tobago
1223 Tobias
297 Togo
57 Tok
2115 Tokyo
187 Tokyos
236 Tolkien
196 Tolkiens
192 Tolstoj
81 Tolstojs
3508 Tom
1437 Tomas
421 Tomelilla
61 Tommarp
60 Tommarps
1762 Tommy
188 Toms
60 Tomten
152 Ton
465 Toni
2495 Tony
81 Tonys
140 Topp
61 Tops
1039 Tor
421 Torbjörn
1534 Tord
608 Tore
71 Torell
240 Torg
185 Torget
352 Torgny
158 Torkel
131 Torn
206 Torna
74 Tornado
340 Torne
105 Tornet
302 Torneå
66 Torns
1960 Toronto
66 Torontos
279 Torp
95 Torps
473 Torre
304 Torres
152 Tors
1016 Torsby
257 Torshälla
226 Torslanda
63 Torso
1438 Torsten
179 Torstensson
279 Torsås
79 Torvald
57 Torvalds
340 Torymus
314 Total
62 Totalförsvarets
321 Touch
4603 Tour
154 Tour-du-Pin
434 Tours
331 Tove
475 Toyota
60 Toyotas
81 Trading
151 Trafik
127 Trafikplats
391 Trafikverket
110 Trafikverkets
63 Trance
347 Tranemo
97 Trans
98 Transfer
70 Transformers
120 Transit
389 Transport
62 Transporter
124 Transportstyrelsen
338 Transsylvanien
84 Tranströmer
502 Tranås
120 Trapp
71 Travemünde
1408 Tre
901 Tredje
64 Treenigheten
124 Trefaldighets
125 Trehörningen
66 Trekanten
698 Trelleborg
695 Trelleborgs
110 Trettioåriga
63 Trettondagsafton
101 Triangeln
71 Triathlon
59 Trick
253 Trier
62 Trimma
493 Trinidad
379 Trio
267 Tripoli
84 Tripolis
104 Tro
63 Trojan
61 Troll
81 Trollet
153 Trollflöjten
932 Trollhättan
330 Trollhättans
158 Trollkarlen
67 Tron
363 Trosa
101 Trots
198 Trotskij
115 Trotzig
65 Trubaduren
103 Truck
89 Trucks
379 Trust
62 Trygg
67 Trädgård
55 Trädgårdsföreningen
129 Trädgårdsgatan
66 Träskända
67 Tsar
114 Tu
128 Tull
98 Tullberg
55 Tullgarns
236 Tullgren
76 Tullverket
57 Tung
61 Tunge
56 Tungvikt
893 Tunisien
86 Tunisiens
72 Tunnan
71 Tunnel
280 Turbo
557 Ture
151 Turesson
55 Turid
74 Turistföreningen
143 Turk
4170 Turkiet
345 Turkiets
96 Turkiska
758 Turkmenistan
55 Turkmenistans
77 Turks
435 Tusen
853 Tutt
75 Tutu
84 Tuva
174 Twist
185 Twitter
62 Ty
348 Typ
67 Tyr
117 Tyra
527 Tyresö
308 Tysk-romerska
100 Tysk-österrikiska
1851 Tyska
25350 Tyskland
3276 Tysklands
1044 Täby
62 Tänk
122 Tärna
72 Tåg
78 Tåget
68 Tåkern
305 Töreboda
165 Törne
115 Törnell
68 Törngren
152 Törnqvist
89 Törnrosens
64 U-21
103 U21
241 U21-landslag
188 U21-landslaget
728 UD
1015 UEFA
578 UEFA-cupen
169 UFO
60 UNESCO
59 UNHCR
78 UNICEF
61 UNIX
2037 US
201 US-dollar
53728 USA
110 USA-dollar
86 USA-marknaden
125 USA-turné
157 USB
55 UV-ljus
58 UV-strålning
151 Ubuntu
1320 Uddevalla
221 Uefa
106 Uefacupen
1658 Uganda
138 Ugandas
559 Uggla
219 Ugglas
3209 Ukraina
311 Ukrainas
331 Ukrainska
2085 Ulf
786 Ulla
340 Ullevi
172 Ulrica
303 Ulricehamn
415 Ulricehamns
532 Ulrik
1210 Ulrika
88 Ulrikas
289 Ulster
333 Ultimate
167 Ultra
93 Ulv
57 Umbar
286 Umeälven
64 Umeälvens
5014 Umeå
124 Umeås
310 Underground
101 Underlandet
107 Undén
360 Unesco
307 Ung
469 Unga
577 Ungdom
72 Ungdomens
78 Ungdoms
168 Ungdomsförbund
146 Ungdomsförbundet
56 Ungdomsstyrelsen
136 Unge
4924 Ungern
89 Ungernrevolten
542 Ungerns
131 Ungerska
1599 Union
277 Unionen
71 Unionist
67 Unions
10427 United
168 Uniteds
894 Universal
82 Universella
742 Universitet
670 Universitetet
136 Universitets
176 Universitetssjukhuset
11280 University
193 Universum
251 Unix
60 Unix-liknande
476 Uno
215 Uppdrag
130 Uppenbarelseboken
2530 Uppland
1075 Upplands
139 Upplands-Bro
20071 Uppsala
268 Uppsalas
382 Uppvidinge
433 Ur
316 Uranus
891 Urban
199 Ursula
1292 Uruguay
263 Uruguays
1034 Utah
96 Utbildning
107 Utbildningsdepartementet
84 Utbildningsradion
63 Ute
14434 Utloppet
442 Utrikesdepartementet
74 Utrikespolitiska
302 Uttar
61 Utvandrarna
755 Uzbekistan
78 Uzbekistans
59 V-motor
171 V6
373 V8
161 V8-motor
61 VA
2804 VD
62 VD-posten
263 VHS
2038 VI
1528 VII
1384 VIII
97 VIK
12102 VM
229 VM-brons
55 VM-debut
70 VM-final
165 VM-finalen
960 VM-guld
83 VM-guldet
105 VM-kvalet
84 VM-medaljer
82 VM-sammanhang
267 VM-silver
134 VM-slutspel
220 VM-slutspelet
82 VM-tabellen
201 VM-titel
194 VM-titeln
108 VM-titlar
64 VM-trupp
76 VM-truppen
63 VM-turnering
117 VM-turneringar
78 VM-turneringen
271 VU
57 VVS
204 VW
370 Vad
194 Vader
1217 Vadstena
60 Vag
68 Vaggeryd
273 Vaggeryds
57 Vagn
85 Vagnhärad
58 Vakna
570 Val
132 Valborg
57 Valborgsmässoafton
1003 Valdemar
149 Valdemars
96 Valdemarsvik
196 Valdemarsviks
251 Vale
75 Valens
85 Valfrid
119 Valhall
70 Valkyrian
69 Vall
300 Valla
462 Vallentuna
163 Vallgraven
56 Valmyndigheten
120 Valter
6136 Van
1588 Vancouver
381 Vanda
356 Vandel
277 Vanessa
62 Vanja
569 Vansbro
541 Vara
1220 Varberg
1149 Varbergs
123 Varför
165 Varg
418 Vargas
99 Vargen
57 Vari
109 Varna
57 Varuhuset
156 Varv
96 Varvet
257 Vasaloppet
293 Vasaorden
304 Vatikanen
84 Vatikanens
116 Vatikankonciliet
217 Vatikanstaten
179 Vatten
241 Vattenfall
144 Vauxhall
356 Vaxholm
315 Vaxholms
224 Veckans
401 Vega
895 Vegas
294 Vellinge
372 Vem
159 Ven
83 Vendela
152 Vendetta
1950 Venedig
92 Venedigbiennalen
210 Venedigs
2698 Venezuela
237 Venezuelas
987 Venus
440 Vera
345 Verde
86 Verdes
535 Verkstad
167 Verkstads
81 Verkstäder
919 Vermont
343 Verner
302 Veronica
214 Version
58 Vet
106 Vetenskap
306 Vetenskaps
93 Vetenskaps-Societeten
2890 Vetenskapsakademien
319 Vetenskapsakademiens
100 Vetenskapsakademin
91 Vetenskapsrådet
348 Vetenskapssocieteten
1095 Vetlanda
91 Vettel
1258 Vi
521 Via
336 Viasat
62 Viasats
63 Vibeke
169 Vice
106 Vichyregimen
3833 Victor
2318 Victoria
233 Victorias
110 Vida
88 Vidar
615 Video
2341 Vietnam
659 Vietnamkriget
214 Vietnams
113 Vig
192 Viggen
192 Viggo
168 Vik
139 Vika
247 Viken
597 Viking
182 Vikingarna
148 Vikings
85 Vikström
1922 Viktor
511 Viktoria
83 Viktorias
337 Vila
115 Vilda
86 Vildanden
84 Vilgot
3342 Vilhelm
1130 Vilhelmina
212 Vilhelms
64 Viljor
2009 Villa
57 Villas
64 Villastaden
389 Ville
336 Vilnius
820 Vimmerby
210 Vin
1080 Vincent
229 Vinci
63 Vinci-koden
69 Vind
68 Vindeln
759 Vindelns
62 Vinge
143 Vingåker
204 Vingåkers
78 Vink
67 Vinland
99 Vinnare
59 Vinst
451 Vinster
88 Vinstprocent
69 Vinter
80 Vinter-OS
371 Vintergatan
109 Vintergatans
92 Vinterkriget
69 Vinterpalatset
83 Vinyl
230 Viola
3120 Virginia
252 Virginias
68 Vis
143 Visa
1919 Visby
63 Visbys
182 Visingsö
309 Vision
81 Visions
170 Viskan
90 Visor
425 Vista
100 Vit
1641 Vita
84 Vitryska
1090 Vitryssland
111 Vitrysslands
228 Vitterhets
199 Vitterhetsakademien
172 Vitterhetssamhället
102 Vivaldi
86 Viveca
69 Viveka
2073 Vladimir
83 Vodka
715 Volkswagen
58 Volkswagens
267 Volta
272 Voltaire
79 Voltaires
2292 Volvo
262 Volvos
115 Volym
395 Von
60 Voodoo
69 Vredens
80 Vuitton
539 Vunna
68 Vuollerim
88 Vä
349 Väg
303 Vägen
249 Vägverket
62 Vägverkets
66 Väktare
110 Välkommen
282 Vällingby
584 Vänern
86 Vänerns
671 Vänersborg
333 Vänersborgs
508 Vänner
309 Vännäs
130 Vänster
473 Vänsterpartiet
72 Vänsterpartiets
144 Värld
201 Världen
331 Världens
185 Världsbanken
175 Världscupen
122 Världskriget
274 Världsmästerskapen
326 Världsmästerskapet
61 Världsnaturfonden
97 Världsutställningen
556 Värmdö
5808 Värmland
1612 Värmlands
59 Värmlandsoperan
57 Värmlänningarna
799 Värnamo
682 Väsby
71 Väsen
482 Väst
468 Västafrika
281 Västbanken
211 Västbengalen
113 Västberga
161 Väster
3880 Västerbotten
1415 Västerbottens
93 Västerbron
5715 Västergötland
192 Västergötlands
56 Västerhavet
64 Västerlandet
74 Västern
194 Västernorrland
1026 Västernorrlands
192 Västerort
669 Västervik
928 Västerviks
4284 Västerås
836 Västeuropa
63 Västeuropas
93 Västgötalagen
904 Västindien
111 Västindiska
166 Västkustbanan
94 Västkusten
64 Västkuststiftelsen
56 Västlänken
2547 Västmanland
1271 Västmanlands
6715 Västra
155 Västsahara
192 Västsverige
138 Västtrafik
2051 Västtyskland
204 Västtysklands
65 Västvärlden
572 Vättern
72 Vätterns
3637 Växjö
59 Vågen
533 Vår
210 Våra
56 Vårberg
395 Vårby
393 Vårgårda
225 Vårt
205 WHO
114 WTO
432 Wachtmeister
332 Wahlberg
428 Wahlgren
270 Wahlström
61 Wahlströms
170 Waldemarsudde
3614 Wales
660 Wall
88 Wallberg
719 Wallenberg
222 Wallenbergs
57 Wallenstam
58 Wallgren
718 Wallin
69 Wallins
81 Wallmark
63 Wallström
172 Wallén
3530 Walter
142 Walters
130 Warhol
1423 Warszawa
100 Warszawapakten
151 Warszawas
4936 Washington
153 Washingtons
1089 Watson
149 Watt
406 Watts
624 Webb
64 Wedin
121 Weekend
174 Weibull
79 Weltervikt
94 Wennberg
69 Wennerström
2100 Werner
55 Werners
114 Wessel
4364 West
113 Westberg
387 Westerberg
78 Westergren
58 Westerholm
200 Westerlund
1745 Western
115 Westfaliska
154 Westin
357 Westman
210 Wiberg
72 Widegren
5477 Wien
177 Wienkongressen
455 Wiens
71 Wikileaks
1439 Wikipedia
193 Wikipedias
214 Wiklund
465 Wikström
109 Wilander
14390 Wilhelm
24412 William
72 William-Olsson
3181 Williams
916 Willy
83 Willys
95 Wilma
81 Wilmer
471 Wimbledon
576 Wimbledonmästerskapen
93 Winberg
337 Winchester
2987 Windows
170 Winnerbäck
97 Wire
1252 Wirth
1169 Wisconsin
677 Wolf
1719 Wolfgang
173 Wolgers
447 Woods
102 Woolwich
113 Workshop
6684 World
198 Wrestling
147 Wulff
144 X-Men
94 X2000
78 XHTML
1372 XI
1953 XII
735 XIII
1763 XIV
76 XIX
127 XML
741 XV
922 XVI
74 XVII
160 XVIII
144 XX
67 Xerox
295 Xinjiang
65 Yacht
116 Yahoo
420 Yamaha
78 Yankee
185 Yankees
141 Yard
395 Ydre
78 Yen
168 Ylva
70 Yngre
642 Yngve
89 Yoga
57 Yogi
151 Yoko
18146 York
627 Yorks
111 YouTube
679 Youtube
979 Ystad
468 Ystads
89 Yttersta
359 Yttre
287 Yvonne
103 Zachrisson
934 Zagreb
184 Zagrebs
329 Zaire
544 Zambia
62 Zambias
108 Zander
309 Zanzibar
245 Zappa
3412 Zeeland
365 Zeelands
73 Zen
156 Zenit
216 Zetterberg
212 Zetterlund
121 Zetterström
526 Zeus
1282 Zimbabwe
78 Zimbabwes
172 Zlatan
104 Zombie
311 Zoo
62 Zoom
305 Zorn
86 Zorns
73 Zulu
79 Zwickau
1164 Zürich
80 a-lag
112 a-laget
328 abbedissa
76 abbedissan
3171 abborre
229 abborrfiskar
253 abbot
117 abboten
86 abbé
151 abchaziska
155 abdikation
214 abdikera
315 abdikerade
123 abonnemang
156 abonnenter
80 aboriginer
490 abort
120 aborter
222 abrupt
166 abrupta
366 absid
202 absiden
55 absint
1753 absolut
893 absoluta
148 absorbera
70 absorberade
184 absorberar
178 absorberas
86 absorption
479 abstrakt
515 abstrakta
69 abstraktion
69 absurd
166 absurda
60 absurt
235 acceleration
83 accelerationen
110 accelerera
81 accelererade
60 accelererande
97 accelererar
85 accelereras
252 accent
96 acceptabel
107 acceptabelt
66 acceptabla
166 acceptans
1078 acceptera
401 accepterad
1278 accepterade
331 accepterades
541 accepterar
345 accepteras
473 accepterat
88 accepterats
76 access
118 accessoarer
87 aceton
107 ackompanjatör
179 ackompanjemang
87 ackompanjerad
103 ackompanjerade
84 ackompanjeras
356 ackord
66 ackordet
