
\data\
ngram 1=51618
ngram 2=2649

\1-grams:
1 <unk>
1 <s>
1 </s>
1 <num>
89 AA
810 AB
75 ABA
11898 ABD
47 ABDULLAH
79 AD
196 ADI
58 ADINI
126 AHMET
266 AIDS
268 AK
45 AKM
185 AKP
35 AKTAŞ
35 ALEVİ
44 ALLAH
47 ALMIŞTIR
60 ALT
226 ALİ
83 AMA
58 AN
52 ANADOLU
173 ANAP
61 ANKARA
42 ANSI
208 AP
61 ARASINDA
62 ARP
58 ARSLAN
465 AS
47 ASA
47 ASALA
70 ASLAN
47 AST
123 AT
75 ATA
56 ATATÜRK
70 ATM
95 AVŞAR
88 AYDIN
40 AYNI
98 AYRICA
113 AZ
45 Abadan
37 Abana
36 Abay
218 Abaza
66 Abazalar
541 Abbas
356 Abbasi
129 Abbasiler
45 Abbasilerin
109 Abd
316 Abdal
282 Abdi
1769 Abdullah
423 Abdurrahman
367 Abdülaziz
36 Abdülbaki
67 Abdülhak
123 Abdülhamid
132 Abdülhamit
173 Abdülkadir
125 Abdülkerim
39 Abdüllatif
111 Abdülmecid
176 Abdülmecit
86 Abdülmelik
178 Abidin
59 Abla
298 Abu
185 Acar
179 Acara
111 Acem
46 Acemi
48 Acer
165 Acil
77 Acun
144 Acı
115 Acıpayam
99 Ad
404 Ada
79 Adaklı
153 Adalar
1367 Adaları
59 Adalarına
93 Adalarında
39 Adalarından
39 Adalarını
94 Adalarının
1454 Adalet
85 Adalı
1649 Adam
86 Adamlar
88 Adamları
171 Adamı
56 Adamın
2992 Adana
52 Adanalı
42 Adanır
416 Adapazarı
41 Adar
1370 Adası
108 Adasına
168 Adasında
78 Adasındaki
127 Adasının
72 Aday
81 Adayı
282 Adem
160 Adet
67 Adi
275 Adil
86 Adilcevaz
90 Adile
43 Adları
121 Adler
167 Adli
206 Adliye
927 Adnan
57 Adres
75 Adrese
50 Adresi
505 Adı
141 Adım
110 Adını
844 Adıyaman
116 Af
121 Afet
35 Affan
247 Afgan
724 Afganistan
108 Afife
5125 Afrika
401 Afrikalı
37 Afrikalıların
544 Afyon
287 Afşar
35 Afşarlar
261 Afşin
54 Agah
47 Agora
201 Ah
171 Ahi
235 Ahit
49 Ahlak
174 Ahlat
1571 Ahmed
63 Ahmer
5373 Ahmet
63 Ahmetler
82 Ahmetli
44 Ahu
45 Ahududu
41 Ahır
41 Ahşap
500 Aile
44 Aileler
36 Ailenin
407 Ailesi
62 Ailesinin
44 Aişe
141 Ajan
43 Ajans
395 Ajansı
43 Ajanı
255 Ajda
519 Ak
63 Aka
53 Akabe
117 Akad
1479 Akademi
195 Akademik
57 Akademileri
1743 Akademisi
72 Akademisinde
45 Akademisinden
96 Akademisine
42 Akademisini
45 Akademisinin
51 Akademisyen
118 Akalın
144 Akan
86 Akar
113 Akarsu
46 Akasya
93 Akay
115 Akbaba
114 Akbaş
230 Akdağmadeni
36 Akdemir
6816 Akdeniz
68 Akdoğan
46 Akgül
106 Akgün
510 Akhisar
308 Akif
35 Akkor
76 Akkuş
60 Akman
247 Akpınar
89 Akrep
52 Aksa
557 Aksaray
179 Akseki
66 Aksiyon
243 Aksoy
699 Aksu
165 Aktaş
82 Aktif
113 Aktris
196 Aktör
53 Aktüel
43 Akustik
68 Akyaka
208 Akyazı
106 Akyol
68 Akyurt
38 Akyıldız
84 Akça
342 Akçaabat
169 Akçadağ
56 Akçakale
164 Akçakoca
109 Akçıl
51 Akören
130 Akıl
99 Akıllı
40 Akım
89 Akımı
366 Akın
96 Akıncı
152 Akıncılar
339 Akşam
229 Akşehir
41 Akşemseddin
39 Akşit
1001 Al
120 Ala
132 Alaaddin
66 Alabalık
62 Alabora
366 Alaca
35 Alacakaya
123 Aladağ
905 Alan
61 Alanlar
46 Alanları
406 Alanya
318 Alanı
45 Alanında
116 Alaplı
37 Alarm
44 Alaturka
275 Alay
59 Alayları
360 Alayı
41 Alayına
174 Alaçam
284 Alaşehir
786 Albay
46 Albayı
440 Albüm
38 Albümde
42 Albümler
50 Albümleri
412 Albümü
107 Albümün
127 Alem
250 Alemdar
115 Alev
784 Alevi
36 Alevidir
65 Aleviler
41 Alevilik
39 Aleviliği
200 Alfa
127 Alfabesi
69 Algan
9475 Ali
138 Aliağa
44 Alican
393 Alice
48 Alim
163 Aliye
50 Alişan
85 Alkan
38 Alla
1213 Allah
271 Allan
163 Alma
13781 Alman
2603 Almanca
45 Almancada
45 Almancası
37 Almancaya
604 Almanlar
140 Almanlara
46 Almanlardan
46 Almanlarla
71 Almanları
405 Almanların
7782 Almanya
57 Almatı
140 Almus
650 Alp
196 Alparslan
85 Alpaslan
117 Alpay
263 Alper
70 Alptekin
82 Alpu
213 Alt
43 Alta
326 Altan
1261 Altay
157 Alternatif
124 Alto
119 Altuğ
84 Altyapı
1346 Altı
117 Altılık
3243 Altın
64 Altına
132 Altıncı
190 Altında
37 Altındaki
104 Altındağ
47 Altınoluk
48 Altınova
82 Altıntaş
62 Altıntop
62 Altınyayla
52 Altıparmak
193 Alucra
71 Alçak
36 Alüminyum
47 Alıcı
158 Alışveriş
132 Alışık
729 Ama
112 Aman
118 Amanda
63 Amasra
1232 Amasya
660 Amatör
311 Amazon
54 Amber
75 Amca
8473 Amerika
3495 Amerikalı
190 Amerikalılar
38 Amerikalılara
145 Amerikalıların
7720 Amerikan
62 Amerikanın
58 Amin
84 Amir
435 Amiral
36 Amirali
58 Amire
53 Amiri
90 Amirliği
55 Amman
52 Amme
86 Amr
261 An
1472 Ana
10303 Anadolu
54 Anahtar
36 Analitik
77 Analiz
100 Analizi
89 Anamur
37 Ananda
40 Anaokulu
36 Anası
814 Anayasa
35 Anayasal
40 Anayasanın
417 Anayasası
52 Anayasasının
1381 Ancak
170 Andırın
180 Anglikan
90 Anglosakson
330 Angola
89 Ani
145 Animasyon
47 Anime
152 Anka
11796 Ankara
38 Ankaralı
38 Anlam
54 Anlamı
52 Anlamıyor
37 Anlat
41 Anlaşma
367 Anlaşması
111 Anma
684 Anne
79 Annem
166 Annesi
206 Anonim
190 Ansiklopedisi
68 Ant
477 Antakya
45 Antakyalı
2689 Antalya
169 Antarktika
222 Antep
1447 Antik
49 Antlaşma
1630 Antlaşması
54 Antlaşmasına
90 Antlaşmasını
49 Antlaşmasının
95 Antlaşmasıyla
40 Antolojisi
235 Antrenör
39 Antrenörü
80 Antropoloji
73 Anıl
55 Anılar
62 Anıları
82 Anıt
57 Anıtkabir
64 Anıtlar
328 Anıtı
42 Apak
61 Apartmanı
40 Apaydın
53 Apayrı
409 Apple
172 Ar
268 Ara
80 Araba
66 Arabacı
43 Araban
44 Arabesk
97 Arabi
718 Arabistan
53 Arabistanlı
104 Aracı
43 Araf
150 Arafat
179 Araklı
179 Aral
13486 Aralık
52 Aralıkta
97 Aram
113 Arama
36 Aramca
117 Aramice
42 Aran
4727 Arap
38 Arapkir
629 Araplar
117 Araplara
149 Araplardan
54 Araplarla
66 Arapları
360 Arapların
3625 Arapça
61 Arapçada
41 Arapçadaki
73 Arapçadan
70 Arapçası
57 Arar
167 Arası
62 Arat
125 Arazi
61 Arazisi
398 Araç
37 Araçlar
1512 Araştırma
54 Araştırmacı
282 Araştırmalar
412 Araştırmaları
79 Araştırması
212 Arda
750 Ardahan
184 Ardanuç
154 Ardeşen
65 Ardında
183 Ardından
95 Ardıç
59 Arel
426 Arena
39 Argun
47 Arguvan
138 Arhavi
65 Ari
44 Aria
639 Arif
64 Aris
1216 Arjantin
351 Arjantinli
65 Ark
165 Arka
113 Arkadaş
55 Arkadaşları
46 Arkadaşım
42 Arkaik
42 Arkan
42 Arkası
534 Arkeoloji
85 Arkeolojik
36 Arkeolojisi
141 Arktik
107 Arkın
57 Armada
71 Arman
145 Armağan
90 Armağanı
79 Armut
86 Armutlu
700 Arnavut
157 Arnavutlar
74 Arnavutların
809 Arnavutluk
248 Arnavutça
38 Aroma
135 Arp
169 Arpa
80 Arpaçay
67 Arsin
816 Arslan
621 Art
106 Artist
669 Artistik
36 Artuk
42 Artuklu
924 Artvin
37 Artı
203 Artık
66 Arya
97 Aryan
37 Arz
119 Arzu
129 Arı
75 Arıcılık
79 Arık
91 Arıkan
38 Arınç
35 Arş
63 Arşidük
58 Arşidükü
77 Arşiv
174 Arşivi
43 Arşivleri
224 As
55 Asa
110 Asaf
45 Asal
91 Asamblesi
92 Asar
95 Asarcık
64 Asayiş
57 Asena
192 Asi
83 Asil
48 Asit
40 Asiye
226 Asker
1474 Askeri
74 Askerler
47 Askerleri
71 Askerlik
70 Asla
1188 Aslan
38 Aslanı
48 Aslen
49 Asliye
213 Aslı
35 Aslım
159 Aslında
54 Asma
55 Asmalı
55 Asri
66 Asteğmen
166 Astronomi
170 Astsubay
50 Asuman
3953 Asya
195 Asyalı
162 Asıl
244 Asım
87 Asır
379 At
444 Ata
39 Atabek
70 Atabey
36 Atabeyi
44 Atak
48 Atakan
48 Atalar
121 Atalay
130 Ataman
74 Atari
99 Atasoy
2869 Atatürk
74 Atatürkçü
35 Atatürkçülük
124 Atay
61 Ataç
556 Ateş
118 Ateşi
123 Ateşkes
48 Ateşli
44 Ati
107 Atik
312 Atilla
37 Atkaracalar
35 Atlama
985 Atlas
35 Atlası
952 Atletizm
125 Atlı
35 Atlılar
48 Atmaca
231 Atom
152 Atsız
138 Attila
60 Attığı
147 Atölyesi
43 Atı
225 Atıf
39 Atılgan
45 Atış
205 Av
40 Ava
138 Avam
79 Avanos
163 Avar
146 Avarlar
42 Avarların
397 Avcı
119 Avcılar
67 Avcıları
39 Avcısı
47 Avdan
37 Averaj
419 Avni
300 Avrasya
176 Avro
18768 Avrupa
929 Avrupalı
205 Avrupalılar
43 Avrupalılarca
148 Avrupalıların
123 Avukat
295 Avukatlık
35 Avukatlığı
2505 Avustralya
495 Avustralyalı
3541 Avusturya
516 Avusturyalı
91 Avusturyalılar
40 Avusturyalıların
35 Avuç
942 Avşar
83 Avşarlar
54 Avşarları
60 Avşarların
1068 Ay
257 Aya
60 Ayak
85 Ayakkabı
308 Ayaklanması
114 Ayan
203 Ayancık
39 Ayar
62 Ayas
84 Ayaz
39 Ayazma
136 Ayaş
62 Aybastı
38 Ayda
73 Aydan
160 Aydemir
82 Aydoğdu
2544 Aydın
137 Aydıncık
134 Aydınlanma
100 Aydınlar
49 Aydınlatma
41 Aydınlı
204 Aydınlık
64 Aydıntepe
129 Ayetullah
53 Ayfer
67 Aygün
408 Ayhan
187 Aykut
109 Ayla
121 Aylin
58 Aylık
51 Ayman
101 Ayn
130 Ayna
41 Aynalı
58 Aynur
766 Aynı
74 Ayran
45 Ayrı
2872 Ayrıca
80 Ayrılık
122 Aysel
102 Aytaç
47 Aytekin
101 Ayten
37 Ayva
260 Ayvacık
37 Ayvalı
175 Ayvalık
70 Ayvaz
58 Ayça
69 Ayçiçeği
785 Ayı
79 Ayın
597 Ayşe
111 Ayşegül
139 Az
61 Azad
86 Azalığı
73 Azam
126 Azdavay
3371 Azerbaycan
132 Azerbaycanlı
810 Azeri
485 Azerice
134 Azeriler
42 Azerilerin
1468 Aziz
82 Azize
167 Aziziye
52 Azizler
59 Azmi
45 Azra
45 Azınlık
36 Aç
55 Açe
58 Açlık
983 Açık
76 AĞA
155 Ağ
1767 Ağa
137 Ağacı
44 Ağalar
75 Ağanın
46 Ağar
137 Ağası
174 Ağaç
36 Ağaçlar
48 Ağaçları
52 Ağaçlı
82 Ağaçören
70 Ağca
56 Ağlama
36 Ağlayan
36 Ağlı
1039 Ağrı
14773 Ağustos
52 Ağustosta
46 Ağustosunda
61 Ağzı
117 Ağı
39 Ağıl
80 Ağın
266 Ağır
60 Ağırlık
54 Ağırlıklı
42 Ağıt
42 Ağız
78 AİLESİ
44 AİT
165 AŞ
50 AŞI
38 AŞİRETİ
36 Aş
1335 Aşağı
39 Aşağıda
74 Aşağıdaki
38 Aşil
97 Aşiret
412 Aşireti
59 Aşiretinden
87 Aşiretine
97 Aşiretinin
958 Aşk
58 Aşka
198 Aşkale
94 Aşkı
72 Aşkım
272 Aşkın
48 Aşure
86 Aşı
424 Aşık
58 Aşıklar
90 Aşırı
47 BABA
44 BABASI
65 BAL
40 BAYINDIR
62 BAYRAM
93 BAĞLI
696 BBC
49 BDT
77 BET
78 BEY
654 BM
112 BULUNMAKTADIR
36 BURSA
1778 Baba
49 Babacan
135 Babaeski
85 Babalar
79 Babam
35 Babamın
42 Babanın
292 Babası
59 Babasının
156 Babür
53 Babıali
55 Bacı
48 Badem
47 Bademli
94 Baden
361 Bafra
89 Baha
251 Bahadır
46 Bahaeddin
45 Bahai
47 Bahama
42 Bahamalar
323 Bahar
54 Baharat
37 Bahariye
53 Baharı
64 Bahattin
40 Bahir
127 Bahri
238 Bahriye
73 Bahtiyar
175 Bahçe
55 Bahçeleri
104 Bahçeli
186 Bahçelievler
95 Bahçesaray
288 Bahçesi
92 Bak
37 Bakacak
206 Bakan
700 Bakanlar
66 Bakanları
123 Bakanlık
133 Bakanlıkları
4470 Bakanlığı
227 Bakanlığına
66 Bakanlığınca
111 Bakanlığında
36 Bakanlığından
218 Bakanlığının
2780 Bakanı
37 Bakara
87 Baki
55 Bakire
109 Bakkal
41 Baklava
39 Baku
105 Bakım
38 Bakınız
182 Bakır
382 Bakırköy
95 Bakış
106 Bal
239 Bala
130 Balaban
71 Balat
74 Balcı
241 Bale
258 Balesi
140 Bali
457 Balina
1897 Balkan
505 Balkanlar
144 Balkanlara
211 Balkanlarda
100 Balkanlardaki
145 Balkanlardan
46 Balkanları
59 Balkanların
59 Balkar
35 Balkarlar
36 Ballı
56 Balta
79 Baltacı
663 Baltık
130 Balya
73 Balyan
47 Balyoz
41 Balçova
36 Balı
244 Balık
2105 Balıkesir
350 Balıklar
76 Balıklı
58 Balıkçı
38 Balıkçılık
61 Balığı
69 Balışeyh
58 Bam
55 Ban
288 Bana
189 Banaz
48 Banda
318 Bandırma
176 Bangladeş
679 Bank
103 Banka
114 Bankacılık
49 Bankalar
1500 Bankası
36 Bankasının
113 Banu
275 Bar
263 Baraj
909 Barajı
46 Barajının
247 Barak
91 Baran
44 Barbar
313 Barbara
347 Barbaros
68 Barca
56 Bardakçı
147 Bari
88 Barlas
49 Baro
222 Barok
97 Barolar
264 Baron
114 Barosu
367 Bartın
73 Barut
1811 Barış
134 Barışı
117 Bas
77 Basil
81 Basit
263 Bask
102 Basket
2852 Basketbol
175 Baskil
49 Baskça
102 Baskı
36 Baskın
95 Baskını
35 Basmacı
105 Basri
46 Basım
530 Basın
43 Bat
55 Batarya
39 Bati
898 Batman
141 Battal
40 Battalgazi
137 Batu
51 Batuhan
143 Batur
7705 Batı
120 Batıda
448 Batılı
344 Batısında
51 Batıya
36 Bavul
592 Bavyera
873 Bay
613 Bayan
454 Bayanlar
279 Bayar
475 Bayat
37 Bayağı
133 Baybars
529 Bayburt
79 Baydar
331 Bayer
36 Bayezit
267 Baykal
46 Baykuş
263 Bayrak
61 Bayraklı
124 Bayraktar
541 Bayram
39 Bayramlar
109 Bayramlarda
120 Bayrampaşa
70 Bayramören
476 Bayramı
138 Bayrağı
85 Baysal
71 Baytar
247 Bayındır
220 Bayındırlık
78 Bayır
91 Bayırı
37 Baz
102 Bazen
60 Bazilikası
427 Bazı
39 Bazıları
97 Bağ
106 Bağcılar
742 Bağdat
77 Bağlama
37 Bağlantı
44 Bağlar
51 Bağları
41 Bağlıca
442 Bağımsız
444 Bağımsızlık
35 Bağış
451 Baş
398 Başak
114 Başar
117 Başaran
209 Başarı
123 Başarılı
1147 Başbakan
689 Başbakanlık
39 Başbakanlığa
51 Başbakanlığı
765 Başbakanı
41 Başbakanıdır
39 Başer
191 Başka
166 Başkale
1837 Başkan
89 Başkanları
376 Başkanlık
73 Başkanlıkları
48 Başkanlığa
4462 Başkanlığı
409 Başkanlığına
68 Başkanlığında
241 Başkanlığını
4651 Başkanı
144 Başkanıdır
36 Başkatipliği
236 Başkent
138 Başkenti
56 Başkomutan
41 Başkomutanlık
54 Başkomutanı
65 Başkonsolosluğu
39 Başkonsolosu
37 Başkurt
57 Başlangıç
39 Başlangıçta
100 Başlıca
80 Başlıyor
44 Başmakçı
75 Başmüfettişliği
36 Başpiskopos
111 Başpiskoposu
40 Başsavcı
63 Başsavcılığı
55 Başsavcısı
97 Başta
64 Baştan
66 Başçavuş
125 Başı
68 Başına
599 Be
237 Bebek
42 Bedel
297 Beden
75 Bedevi
42 Bedia
98 Bedir
85 Bedirhan
46 Bedreddin
139 Bedri
51 Begüm
87 Behiç
40 Behlül
74 Behram
183 Behçet
46 Bek
730 Bekir
58 Beklerken
283 Bektaş
239 Bektaşi
36 Bekçi
70 Bel
101 Bela
175 Belde
50 Beldede
54 Beldenin
418 Beldesi
68 Beldesinde
69 Beldesine
43 Beldesinin
35 Bele
2957 Belediye
64 Belediyeler
2364 Belediyesi
81 Belediyesine
61 Belediyesinin
41 Belek
109 Belen
98 Belge
151 Belgesel
106 Belgesi
37 Belgin
36 Beli
35 Belirli
69 Belki
92 Belkıs
131 Belle
90 Belli
48 Bellini
1807 Belçika
377 Belçikalı
1726 Ben
69 Bende
80 Benden
139 Bender
36 Benderli
46 Bene
48 Bengi
101 Bengü
539 Beni
409 Benim
59 Benimle
123 Benin
38 Benli
50 Benzer
72 Beraberlik
65 Berat
96 Berber
171 Berberi
81 Bereket
66 Bereketli
71 Beren
350 Bergama
139 Berk
86 Berkay
116 Berke
40 Berker
65 Bermuda
41 Berna
63 Bert
83 Besim
37 Beslenme
228 Besni
139 Beste
73 Bet
194 Beta
56 Bette
41 Betül
7385 Bey
1844 Beyaz
101 Beyazlar
379 Beyazıt
39 Beye
39 Beyhan
290 Beyi
235 Beyin
280 Beykoz
139 Beyler
380 Beylerbeyi
87 Beyleri
38 Beylik
53 Beylikler
62 Beylikleri
49 Beylikova
518 Beyliği
40 Beyliğine
78 Beyliğinin
550 Beyoğlu
293 Beypazarı
88 Beytüşşebap
172 Beyşehir
418 Beş
35 Beşik
121 Beşikdüzü
2686 Beşiktaş
52 Beşiktaşlı
218 Beşinci
114 Beşir
45 Beşparmak
77 Biber
54 Bidayet
473 Biga
211 Bigadiç
213 Bilal
88 Bildirgesi
37 Bildirileri
68 Bildirisi
44 Bile
680 Bilecik
37 Bilen
392 Bilge
38 Bilgen
920 Bilgi
1123 Bilgiler
53 Bilgileri
170 Bilgin
517 Bilgisayar
158 Bilgisi
69 Bilgiç
1122 Bilim
342 Bilimi
1628 Bilimler
716 Bilimleri
244 Bilimsel
37 Bilindiği
66 Bilinen
36 Bilir
214 Bilişim
506 Bin
72 Bina
512 Binası
365 Binbaşı
656 Bingöl
35 Binicilik
5538 Bir
46 Bira
82 Biraz
49 Birde
46 Birden
182 Birecik
101 Bireysel
131 Biri
45 Birikim
46 Birim
164 Birimi
2230 Birinci
47 Birincilik
45 Birinciliği
90 Birkaç
8978 Birleşik
39 Birleşme
1613 Birleşmiş
912 Birlik
42 Birlikler
160 Birlikleri
6680 Birliği
47 Birliğin
80 Birliğinde
177 Birliğine
55 Birliğini
251 Birliğinin
102 Birol
71 Birsel
157 Birçok
650 Bisiklet
270 Bismil
81 Bit
138 Bitki
556 Bitlis
41 Bitmez
47 Bitti
59 Biyokimya
157 Biyoloji
50 Biyolojik
357 Biz
4677 Bizans
137 Bizanslı
438 Bizanslılar
83 Bizanslılara
48 Bizanslılardan
35 Bizanslılarla
36 Bizanslıları
119 Bizanslıların
54 Bize
79 Bizi
303 Bizim
43 Bizimkiler
37 Biçer
56 Biçim
36 Biçimi
45 Bişkek
45 Blender
87 Blok
115 Bloku
120 Boca
332 Bodrum
443 Boks
57 Bol
334 Bolivya
1222 Bolu
145 Bolvadin
553 Bolşevik
227 Bolşevikler
118 Bolşeviklere
155 Bolşeviklerin
35 Bolşeviklerle
55 Bomba
51 Boncuk
47 Bone
43 Bono
132 Bor
208 Bora
72 Boran
253 Bornova
59 Borsa
58 Borsalar
157 Borsası
93 Boru
179 Borçka
796 Bosna
105 Bosnalı
51 Bostan
153 Bostancı
79 Botanik
576 Boy
40 Boya
217 Boyabat
53 Boyalı
47 Boyları
256 Boyu
60 Boyundan
57 Boyut
193 Boz
37 Bozan
73 Bozcaada
185 Bozdoğan
316 Bozkurt
96 Bozkır
120 Bozova
73 Boztepe
178 Bozüyük
161 Boğa
284 Boğaz
713 Boğaziçi
50 Boğazkale
97 Boğazköy
106 Boğazlar
47 Boğazları
109 Boğazlıyan
683 Boğazı
37 Boğazına
86 Boş
331 Boşnak
120 Boşnaklar
94 Boşnakça
59 Brahma
41 Brahman
72 Bravo
1942 Brezilya
644 Brezilyalı
54 Briç
225 Bronz
328 Brüksel
8653 Bu
162 Buca
306 Bucak
102 Bucağı
407 Buda
74 Budak
558 Budist
40 Budistler
480 Budizm
387 Bugün
79 Bugüne
149 Bugünkü
235 Buhara
51 Buhran
48 Bulak
183 Bulancak
196 Bulanık
68 Buldan
1647 Bulgar
416 Bulgarca
1996 Bulgaristan
325 Bulgarlar
78 Bulgarlara
74 Bulgarları
145 Bulgarların
139 Bulgur
267 Bulut
185 Bulutsusu
54 Bulutsuzluk
66 Bulutu
35 Buluşma
35 Buluşması
218 Bulvarı
36 Bumin
304 Buna
42 Bunalım
43 Bunalımı
227 Bundan
381 Bunlar
169 Bunlardan
177 Bunların
180 Bunu
755 Bunun
152 Bununla
567 Burada
61 Buradaki
72 Buradan
538 Burak
60 Burası
62 Buraya
166 Burcu
580 Burdur
343 Burhan
113 Burhaneddin
95 Burhaniye
118 Burma
296 Burnu
3617 Bursa
72 Bursalı
58 Bursu
115 Burun
79 Burundi
46 Burç
58 Burçin
74 But
434 Buz
89 Buzul
102 Buzulu
255 Buğday
135 Buğra
35 BÖLÜMÜ
35 Böbrek
75 Böcek
45 Böke
973 Bölge
107 Bölgede
36 Bölgeler
70 Bölgeleri
75 Bölgenin
503 Bölgesel
2406 Bölgesi
514 Bölgesinde
61 Bölgesindeki
98 Bölgesinden
179 Bölgesine
356 Bölgesinin
98 Bölük
562 Bölüm
55 Bölümleri
2064 Bölümü
333 Bölümünde
178 Bölümünden
100 Bölümüne
202 Bölümünü
55 Bölümünün
94 Bölüğü
38 Börek
97 Böreği
242 Böyle
261 Böylece
41 Böylelikle
100 Bülbül
1015 Bülent
63 Bülteni
52 Bünyamin
114 Bünyan
71 Büro
282 Bürosu
134 Bütçe
344 Bütün
62 Büyücü
44 Büyücülük
8601 Büyük
87 Büyükbaş
101 Büyükler
102 Büyükorhan
41 BİLGİ
44 BİLİNEN
769 BİR
54 Bırak
64 Bıyıklı
67 Bıçak
41 CAM
60 CAN
1067 CD
863 CHP
330 CIA
94 CM
38 Cabbar
64 Cabir
50 Cadde
1008 Caddesi
36 Caddesinde
175 Cadı
92 Cadılar
335 Cafer
41 Caferi
42 Cali
158 Cam
603 Cami
88 Camili
72 Caminin
251 Camisi
1324 Can
96 Canal
107 Canan
85 Canavar
57 Canavarı
129 Candan
39 Candemir
98 Caner
104 Canlı
50 Cansever
64 Cansu
68 Canım
153 Car
47 Carla
38 Carta
77 Casino
187 Cavit
226 Caz
151 Cebeci
49 Cebel
92 Cebrail
47 Cedit
173 Cehennem
538 Celal
163 Celaleddin
130 Celali
59 Celil
56 Celile
52 Celine
1113 Cem
56 Cemaat
160 Cemaati
937 Cemal
36 Cemalettin
521 Cemil
112 Cemile
1296 Cemiyeti
46 Cemiyetinin
63 Cemiyetleri
36 Cemşid
52 Cenap
94 Cenaze
192 Ceneviz
36 Cenevizli
81 Cenevizliler
846 Cengiz
204 Cenk
200 Cennet
59 Cenneti
53 Cennetin
123 Cep
238 Cephe
1472 Cephesi
194 Cephesinde
38 Cephesindeki
49 Cephesine
66 Ceren
42 Cerit
540 Cermen
51 Cerrah
151 Cerrahi
112 Cerrahisi
44 Cesaret
83 Cesur
83 Cevahir
278 Cevat
481 Cevdet
55 Cevher
118 Ceviz
79 Cevizli
44 Ceyda
487 Ceyhan
136 Ceyhun
244 Ceylan
943 Ceza
95 Cezaevi
702 Cezayir
141 Cezayirli
88 Cezire
63 Cezmi
62 Cezzar
226 Cide
373 Cihan
93 Cihanbeyli
125 Cihangir
101 Cihat
71 Cilalı
167 Cilt
94 Cin
81 Cinayet
44 Cinayeti
37 Cindoruk
56 Cine
44 Cini
45 Cinsel
42 Cirit
166 Cizre
76 Cizvit
360 Copa
139 Coğrafi
414 Coğrafya
47 Coğrafyası
278 Coşkun
47 Cudi
873 Cuma
45 Cumalı
476 Cumartesi
62 Cumayeri
91 Cumhur
872 Cumhurbaşkanlığı
1563 Cumhurbaşkanı
40 Cumhurbaşkanınca
55 Cumhurbaşkanının
3595 Cumhuriyet
6821 Cumhuriyeti
378 Cumhuriyetin
150 Cumhuriyetinde
64 Cumhuriyetine
55 Cumhuriyetini
282 Cumhuriyetinin
133 Cumhuriyetler
84 Cumhuriyetleri
58 Cumhuriyetten
515 Cumhuriyetçi
69 Cumhuriyetçiler
49 Cumhuriyetçilerin
864 Cup
51 Cömert
119 Cüce
47 Cüceler
86 Cüneyd
299 Cüneyt
38 DAĞI
58 DEDE
105 DEMİR
49 DEMİRCİ
45 DERE
40 DERNEĞİ
37 DGM
57 DIR
58 DM
58 DOLAYI
62 DOĞAN
61 DPT
73 DRAM
158 DSİ
79 DTCF
39 DURUMU
48 Dada
152 Daday
1679 Daha
166 Dahiliye
49 Daima
260 Daimi
71 Daimler
168 Dair
412 Daire
790 Dairesi
42 Dairesinde
102 Dakika
57 Dal
105 Dalaman
133 Dalga
40 Dalokay
509 Dalı
158 Dalında
65 Dam
51 Damal
65 Damar
485 Damat
57 Damla
543 Dan
117 Dana
226 Danca
1379 Danimarka
362 Danimarkalı
391 Dans
104 Dansı
41 Danyal
308 Danışma
50 Danışman
69 Danışmanlık
100 Danışmanlığı
116 Danışmanı
92 Dar
44 Dara
50 Darbe
230 Darbesi
88 Darende
88 Dargeçit
35 Darphane
175 Darülfünun
37 Darülfünunu
81 Darıca
71 Datça
104 Dava
121 Davası
201 Davud
107 Davul
242 Davut
35 Davutlar
108 Dayalı
36 Dayan
345 Dayanışma
105 Dayı
47 Dazkırı
500 Dağ
67 Dağcılık
162 Dağlar
1495 Dağları
53 Dağların
86 Dağlarına
147 Dağlarında
84 Dağlarından
321 Dağlarının
70 Dağlı
332 Dağlık
2122 Dağı
43 Dağın
51 Dağına
69 Dağında
40 Dağından
148 Dağının
245 Dağıstan
42 Dağıstanlı
77 Dağıtım
1374 De
99 Debian
1015 Dede
113 Dedektif
53 Dedeler
49 Dedesi
178 Def
91 Defans
52 Define
95 Defne
38 Defterdar
207 Defteri
44 Defterleri
56 Dekan
88 Dekanlığı
61 Dekanı
35 Deklarasyonu
261 Del
186 Delhi
518 Deli
163 Delice
72 Deliler
110 Deliorman
42 Delirdim
173 Delta
86 Deltası
209 Demet
60 Demi
1432 Demir
77 Demirağ
62 Demirbaş
533 Demirci
88 Demirciler
456 Demirel
60 Demirer
55 Demirhan
64 Demirkan
65 Demirkapı
59 Demirköy
85 Demirözü
473 Demokrasi
1455 Demokrat
1388 Demokratik
112 Demokratlar
36 Demokratların
78 Den
103 Dene
156 Deneme
87 Denetim
142 Denetleme
51 Deneysel
3475 Deniz
44 Denizaltı
56 Denizci
36 Denizciler
236 Denizcilik
41 Denizden
43 Denize
1840 Denizi
41 Denizin
79 Denizinde
36 Denizindeki
116 Denizine
82 Denizinin
37 Denizler
1142 Denizli
76 Denktaş
86 Departmanı
70 Deplasmanlı
35 Deposu
91 Deprem
152 Depremi
385 Der
129 Derbent
342 Dere
57 Derece
190 Dereli
785 Deresi
38 Deresinin
44 Dergahı
130 Dergi
941 Dergisi
67 Dergisinde
38 Dergisinin
245 Deri
177 Derik
130 Derin
62 Derince
59 Derleme
87 Dernek
101 Dernekleri
43 Dernekpazarı
2937 Derneği
74 Derneğinin
54 Ders
252 Dersim
71 Dersleri
427 Derviş
374 Derya
48 Destan
243 Destanı
136 Destek
58 Destekleme
40 Destekli
169 Dev
71 Deve
74 Deveci
267 Develi
43 Devin
44 Devir
6866 Devlet
3789 Devleti
110 Devletin
72 Devletinde
181 Devletine
94 Devletini
392 Devletinin
841 Devletler
2140 Devletleri
67 Devletlerin
165 Devletlerinde
144 Devletlerine
106 Devletlerinin
48 Devre
281 Devrek
133 Devrekani
276 Devri
544 Devrim
500 Devrimci
1043 Devrimi
87 Devriminden
38 Devrimine
149 Devriminin
44 Devrimleri
45 Devrinde
102 Değer
92 Değerlendirme
91 Değerli
117 Değil
130 Değirmen
38 Değirmenci
43 Değirmeni
73 Değişiklik
37 Değişikliği
106 Değişim
44 Dibi
477 Dicle
64 Didem
53 Didim
41 Digor
156 Dijital
41 Dik
45 Dikili
44 Dikkat
224 Dikmen
1373 Dil
57 Dilaver
60 Dilber
91 Dilde
178 Dilek
1160 Dili
54 Dilimi
173 Diller
198 Dilleri
81 Dilmen
311 Din
449 Dinamo
302 Dinar
210 Dini
69 Dink
47 Dinle
65 Dinler
90 Dinç
134 Dinçer
62 Diploması
60 Diplomatik
441 Direktör
51 Direktörlüğü
167 Direktörü
89 Direniş
48 Direnişi
62 Diriliş
75 Disiplin
113 Disk
399 Divan
366 Divanı
414 Divriği
151 Diyadin
36 Diyalog
224 Diyanet
2163 Diyarbakır
51 Diyarı
49 Diyarında
61 Dizdar
88 Dizel
173 Dizi
52 Dizilerinde
67 Dizinin
187 Dizisi
638 Diğer
107 Diğerleri
225 Diş
44 Dişi
437 Do
187 Dodurga
588 Doktor
237 Doktora
41 Doktorasını
53 Doktorlar
102 Doktoru
69 Doktrini
399 Dokuz
69 Dokuzuncu
35 Dokümantasyon
48 Dol
36 Dolap
121 Dolar
235 Doları
57 Dolayısıyla
47 Dolma
90 Dolması
54 Dolu
38 Dolunay
106 Dom
121 Domaniç
95 Domates
38 Domino
56 Domuz
43 Domuzlar
1171 Don
328 Donanma
710 Donanması
56 Donanmasına
35 Donanmasında
60 Donanmasının
44 Donanım
45 Done
91 Doruk
159 Dost
154 Dostlar
53 Dostları
285 Dostluk
39 Dostum
5089 Dosya
48 Dosyası
259 Doçent
51 Doçenti
312 Doğa
298 Doğal
1260 Doğan
40 Doğanlar
63 Doğanyurt
92 Doğanşar
57 Doğramacı
348 Doğru
9991 Doğu
198 Doğubayazıt
93 Doğuda
284 Doğulu
285 Doğum
38 Doğumu
38 Doğusu
257 Doğusunda
215 Doğuş
61 Doğuşu
186 Dragon
64 Dram
470 Drama
91 Dramatik
48 Dua
48 Duası
39 Dul
79 Duma
183 Duman
118 Dumanlı
147 Dumlupınar
46 Dumrul
48 Duo
47 Dur
101 Durak
182 Duran
152 Durağan
42 Durağı
55 Durmaz
141 Durmuş
288 Dursun
285 Dursunbey
213 Duru
138 Durum
129 Durumu
55 Dut
58 Duvar
132 Duvarı
113 Duygu
41 Duymasın
38 DÜĞÜN
40 Dökümü
54 Dön
987 Dönem
619 Dönemi
67 Dönemin
221 Döneminde
62 Dönemine
35 Döneminin
45 Döner
70 Dönmez
58 Dönüyor
155 Dönüş
75 Dönüşü
60 Dönüşüm
370 Dördüncü
586 Dört
82 Dörtdivan
137 Dörtlü
42 Dörtlüsü
58 Dörtyol
41 Dövüş
40 Düden
52 Düet
151 Dük
36 Dükkanı
594 Dükü
51 Dün
170 Dündar
45 Dünden
14573 Dünya
53 Dünyaca
180 Dünyada
59 Dünyadaki
36 Dünyalar
536 Dünyanın
294 Dünyası
37 Dünyasında
36 Dünyasının
82 Dünyaya
75 Dünyayı
110 Dürbün
51 Dürzi
121 Düz
669 Düzce
67 Düzen
67 Düzeni
156 Düzenleme
64 Düzenli
62 Düziçi
65 Düzköy
35 Düzmece
304 Düğün
102 Düğünler
165 Düğünlerde
65 Düğünleri
63 Düğünü
84 Düş
62 Düşesi
51 Düşler
76 Düşman
55 Düşük
197 Düşünce
51 Düşünceler
62 DİSK
53 DİYE
45 DİĞER
652 Dış
94 Dışı
67 EBU
36 EKG
38 EKMEK
38 ELBEYLİ
108 ER
38 ERZURUM
60 ES
167 ESKİ
42 ET
54 EV
81 Ebe
56 Eber
179 Ebru
1376 Ebu
124 Ebubekir
197 Ece
75 Eceabat
169 Eczacılık
76 Eda
44 Edebali
36 Edebi
1743 Edebiyat
50 Edebiyatçılar
1070 Edebiyatı
36 Edebiyatında
42 Edebiyatının
188 Eden
51 Edhem
342 Edip
1433 Edirne
42 Editör
54 Ediz
88 Edna
265 Edremit
536 Efe
52 Efekt
46 Efeler
3032 Efendi
87 Efendinin
271 Efendisi
54 Efkar
300 Eflak
192 Eflani
74 Eflatun
73 Efsane
137 Efsanesi
2344 Ege
108 Egemen
65 Egemenlik
37 Ego
37 Eh
54 Ehli
72 Ejder
485 Ejderha
133 Ek
138 Ekber
47 Eki
78 Ekibi
14607 Ekim
71 Ekimde
84 Ekin
77 Ekinci
56 Ekinözü
202 Ekmek
72 Ekmeği
39 Ekoloji
894 Ekonomi
702 Ekonomik
144 Ekonomisi
434 Ekrem
87 Ekspres
105 Ekspresi
148 Ekvator
126 Ekşi
35 Ekşili
2352 El
91 Ela
41 Elam
1524 Elazığ
142 Elbeyli
402 Elbistan
54 Elburz
45 Eldem
54 Eldivan
660 Elektrik
41 Elektrikli
35 Elektro
422 Elektronik
105 Eleme
42 Elemeleri
43 Element
156 Eleşkirt
58 Eleştiri
125 Eleştirmenleri
147 Eli
260 Elif
73 Elite
67 Elle
211 Ellen
41 Eller
38 Elli
212 Elma
74 Elmadağ
313 Elmalı
175 Elmas
42 Else
58 Elvan
65 Elveda
68 Elçi
57 Elçiliği
88 Elçisi
88 Em
236 Emek
206 Emekli
37 Emekçileri
189 Emel
39 Emeç
198 Emil
107 Emile
833 Emin
221 Emine
137 Eminönü
951 Emir
273 Emirdağ
40 Emirler
178 Emirlikleri
110 Emirliği
145 Emlak
36 Emmi
634 Emniyet
167 Emrah
783 Emre
38 Emri
47 Emrullah
7804 En
53 Encümen
158 Encümeni
217 Endeksi
97 Ender
41 Enderun
565 Endonezya
42 Endonezyalı
632 Endülüs
381 Endüstri
132 Endüstrisi
84 Endüstriyel
447 Enerji
116 Enerjisi
64 Enes
78 Enez
79 Enformasyon
57 Engel
53 Engelli
103 Engelliler
532 Engin
76 Engine
92 Enis
79 Enstitü
52 Enstitüleri
2394 Enstitüsü
144 Enstitüsünde
45 Enstitüsüne
63 Enstitüsünün
96 Enstrümantal
40 Entegre
213 Enternasyonal
543 Enver
42 Epsilon
234 Er
295 Erbaa
226 Erboğa
258 Ercan
200 Erciyes
237 Erciş
113 Ercüment
310 Erdal
128 Erdek
457 Erdem
60 Erdemir
97 Erdemli
91 Erden
69 Erdinç
813 Erdoğan
40 Erduran
286 Eren
87 Erenler
59 Eretna
492 Ereğli
108 Erfelek
250 Ergani
119 Ergen
132 Ergene
183 Ergin
125 Ergun
151 Ergün
243 Erhan
71 Eri
221 Erik
58 Erikli
84 Erim
64 Erin
62 Erinç
52 Eriş
65 Erişim
61 Erişte
49 Erkal
283 Erkan
1896 Erkek
957 Erkekler
36 Erkekli
798 Erken
192 Erkin
36 Erkoç
36 Erksan
44 Erlik
137 Erman
110 Ermenek
3628 Ermeni
591 Ermenice
734 Ermeniler
133 Ermenilerden
142 Ermenilere
160 Ermenileri
451 Ermenilerin
62 Ermenilerle
669 Erol
56 Eros
71 Ersan
59 Ersen
95 Ersin
45 Ersöz
69 Ertan
67 Ertaş
143 Ertem
63 Erten
67 Ertesi
36 Ertuğ
726 Ertuğrul
36 Eruh
46 Erzin
1067 Erzincan
3160 Erzurum
63 Erzurumlu
80 Erçetin
79 Es
133 Esad
43 Esas
36 Esasi
45 Esasları
194 Esed
136 Esen
65 Esenboğa
68 Esenler
124 Eser
49 Eseri
99 Eserler
183 Eserleri
132 Esin
51 Esir
79 Esirgeme
3765 Eski
224 Eskiden
399 Eskimo
61 Eskimolar
36 Eskimoları
36 Eskimoların
149 Eskipazar
1869 Eskişehir
41 Eskrim
99 Esma
36 Esme
57 Esnaf
149 Esperanto
91 Espiye
77 Esra
99 Essen
125 Ester
41 Estetik
239 Et
272 Ethem
78 Eti
94 Etik
67 Etiler
323 Etiyopya
53 Etiyopyalı
56 Etkili
41 Etkinlikleri
76 Etkisi
63 Etli
45 Etme
56 Etnik
76 Etnografya
36 Etrafı
306 Ev
60 Evci
41 Evciler
50 Evde
196 Eve
125 Ever
112 Evet
40 Evgin
701 Evi
81 Evin
45 Evinde
122 Evkaf
63 Evler
107 Evleri
102 Evli
53 Evlilik
280 Evliya
77 Evra
47 Evrak
300 Evren
40 Evrenin
209 Evrensel
123 Evrim
53 Evvel
138 Ey
466 Eyalet
765 Eyaleti
55 Eyaletinde
49 Eyaletine
61 Eyaletinin
120 Eye
150 Eylem
16099 Eylül
43 Eylülde
59 Eynesil
57 Eyvah
507 Eyüp
54 Ezel
66 Ezgi
36 Ezgisi
180 Ezine
122 Ezra
63 EĞİTİM
405 Eğer
72 Eğil
71 Eğilmez
55 Eğin
95 Eğirdir
4016 Eğitim
530 Eğitimi
92 Eğlence
80 Eğri
53 Eş
54 Eşek
39 Eşi
79 Eşitlik
35 Eşkıya
219 Eşme
251 Eşref
551 FA
214 FBI
3442 FIFA
67 FKÖ
82 Fa
60 Faaliyetleri
50 Fabrika
93 Fabrikaları
463 Fabrikası
51 Faciası
36 Fadime
60 Fahir
64 Fahreddin
320 Fahri
446 Faik
944 Fakat
76 Fakih
60 Fakir
145 Fakülte
77 Fakülteleri
5593 Fakültesi
261 Fakültesinde
116 Fakültesinden
126 Fakültesine
170 Fakültesini
52 Fakültesinin
43 Falih
90 Fan
86 Fantastik
53 Fantezi
170 Far
80 Farabi
54 Fare
38 Fark
709 Fars
38 Farslar
3571 Farsça
36 Farsçada
545 Faruk
559 Fas
81 Faslı
120 Fasulye
2219 Fatih
44 Fatiha
43 Fatihi
55 Fatin
496 Fatma
40 Fatoş
283 Fatsa
80 Fatıma
53 Favori
73 Fay
106 Faysal
87 Fazilet
38 Fazlı
485 Fazıl
157 Faşist
56 Fecri
1263 Federal
286 Federasyon
106 Federasyonları
2280 Federasyonu
73 Federasyonuna
35 Federasyonunda
52 Federasyonunun
64 Federatif
59 Federe
48 Fehim
199 Fehmi
117 Feke
79 Felek
64 Felemenk
202 Felemenkçe
653 Felsefe
136 Felsefesi
42 Felsefi
36 Feminist
970 Fen
160 Fener
93 Feneri
57 Fenerli
173 Fenike
64 Fenikeliler
124 Ferah
36 Ferda
441 Ferdi
77 Ferhan
254 Ferhat
48 Ferhunde
62 Ferid
60 Feride
147 Feridun
37 Feriha
79 Ferik
416 Ferit
49 Ferizli
47 Ferman
100 Fermanı
57 Ferruh
413 Festival
1797 Festivali
181 Festivalinde
41 Festivaline
349 Fethi
396 Fethiye
89 Fethullah
159 Fetih
70 Fetret
89 Fettah
393 Fevzi
45 Fevziye
72 Feyyaz
56 Feyzi
112 Feyzullah
84 Fidan
108 Fikir
538 Fikret
124 Fikri
88 Fil
215 Filarmoni
295 Fildişi
351 File
293 Filipinler
39 Filipinli
1216 Filistin
273 Filistinli
69 Filistinliler
75 Filistinlilerin
181 Filiz
4778 Film
79 Filmde
242 Filmi
143 Filmin
42 Filmler
129 Filmleri
76 Filo
46 Filoloji
53 Filolojisi
267 Filosu
38 Filozof
475 Fin
560 Final
110 Finalde
62 Finale
515 Finali
72 Finalinde
89 Finaline
83 Finalleri
175 Finans
80 Finansal
192 Fince
108 Finike
997 Finlandiya
111 Finlandiyalı
45 Finli
83 Firavun
424 Fire
100 Firefox
38 Firma
42 Firması
90 Firuz
51 Firuze
37 Fiyat
739 Fizik
46 Fiziki
66 Fiziksel
277 Fizyoloji
159 Flaman
66 Flora
531 Floransa
66 Flüt
80 Folk
85 Folklor
79 Fon
66 Fonda
198 Fonu
50 Form
251 Forum
134 Forumu
107 Forvet
63 Foto
192 Fotoğraf
78 Fotoğrafları
102 Foça
1489 Frank
81 Franklar
38 Frankların
7807 Fransa
9690 Fransız
3246 Fransızca
56 Fransızcada
68 Fransızcadan
61 Fransızcaya
466 Fransızlar
136 Fransızlara
49 Fransızlarla
76 Fransızları
303 Fransızların
50 Frekans
58 Frenk
38 Friz
168 Fuad
104 Fuar
173 Fuarı
653 Fuat
67 Fuller
45 Fulya
94 Funda
81 Furkan
6739 Futbol
149 Futbolcu
256 Futbolcusu
73 Futbolu
70 Futsal
68 Füg
78 Füsun
73 Füze
40 Fıkıh
201 Fındık
176 Fındıklı
747 Fırat
62 Fırka
333 Fırkası
261 Fırtına
87 Fırtınası
65 Fırıldak
44 Fırın
62 GAP
222 GB
35 GELENEKLERİ
40 GELMEKTEDİR
41 GELİR
62 GNOME
107 Gabon
433 Gaga
66 Gagavuz
47 Gala
37 Galaksisi
343 Galata
3160 Galatasaray
56 Galatasaraylı
36 Galatlar
103 Galeri
313 Galerisi
36 Gali
80 Galibiyet
357 Galip
473 Galipleri
136 Gama
44 Gamze
267 Gana
53 Ganalı
35 Gangster
69 Gani
127 Garanti
213 Garip
38 Garnizon
59 Garp
142 Garı
137 Gauss
85 Gavur
60 Gaye
49 Gayri
134 Gaz
50 Gazali
66 Gazan
52 Gazanfer
323 Gazete
108 Gazeteci
326 Gazeteciler
46 Gazetecileri
289 Gazetecilik
182 Gazetede
36 Gazeteleri
1020 Gazetesi
109 Gazetesinde
2295 Gazi
1142 Gaziantep
53 Gaziler
36 Gazinin
39 Gazinosu
144 Gazipaşa
238 Gebze
604 Gece
81 Geceler
61 Geceleri
58 Gecenin
305 Gecesi
123 Gedik
57 Gedikli
202 Gediz
157 Gel
48 Geldi
120 Gelecek
43 Geleceğe
42 Geleceğin
195 Gelen
99 Gelenek
323 Geleneksel
460 Gelibolu
295 Gelin
37 Gelincik
90 Gelir
47 Gelirler
43 Geliyor
129 Gelişim
66 Gelişimi
131 Gelişme
53 Gelişmiş
290 Geliştirme
148 Gemerek
230 Gemi
39 Gemici
54 Gemini
109 Gemisi
160 Gemlik
61 Gen
144 Gence
113 Gencer
171 Gene
14640 Genel
169 Genelde
771 Genelkurmay
236 Genellikle
3011 General
105 Generali
61 Genetik
166 Geniş
37 Genişletilmiş
1941 Genç
1021 Gençler
1353 Gençlik
67 Gençliği
39 Gercüş
326 Gerede
73 Gerek
135 Gerger
176 Geri
267 Germen
85 Germencik
136 Gerze
435 Gerçek
51 Gerçekten
58 Gerçekçilik
106 Gestapo
86 Gevaş
70 Geyik
55 Geyikli
198 Geyve
42 Gezegen
154 Gezen
43 Gezgin
194 Gezi
35 Gezisi
99 Gezmiş
587 Geç
75 Geçen
85 Geçer
381 Geçici
487 Geçidi
51 Geçim
55 Geçit
155 Geçiş
85 Geçmiş
42 Geçmişte
70 Geçti
65 Giden
414 Gine
94 Ginesi
472 Giray
1264 Giresun
64 Girik
508 Girit
85 Giritli
169 Giriş
50 Girişim
56 Girişimi
82 Git
176 Gitar
53 Gitme
84 Giyim
57 Gizem
321 Gizli
222 Global
242 Gol
468 Golden
303 Golf
41 Golü
268 Got
180 Gotik
92 Gotlar
37 Gotların
145 Grafik
48 Gram
916 Grek
47 Grekler
96 Grekoromen
127 Grekçe
111 Gri
2672 Grubu
130 Grubun
54 Grubuna
78 Grubunda
40 Grubunu
92 Grubunun
1328 Grup
137 Grupları
212 Guatemala
50 Gurbet
45 Gurur
104 GÖÇ
37 GÜNEŞ
82 GÜZEL
368 Gök
199 Gökalp
49 Gökkuşağı
78 Gökmen
101 Göksel
169 Göksu
214 Göksun
54 Göktepe
322 Göktürk
88 Göktürkler
43 Göktürklerin
55 Gökyüzü
203 Gökçe
70 Gökçeada
46 Gökçebey
52 Gökçek
40 Gökçeli
117 Gökçen
240 Göl
266 Gölbaşı
278 Gölcük
206 Göle
41 Gölet
80 Göleti
138 Gölge
68 Gölgeler
51 Gölgesi
70 Gölhisar
55 Gölköy
198 Göller
53 Gölleri
51 Gölmarmara
99 Gölova
131 Gölpazarı
63 Gölyaka
2057 Gölü
89 Gölüne
139 Gölünün
76 Gömlek
40 Gönderen
193 Gönen
59 Gönlüm
296 Gönül
117 Gönüllü
84 Gönüllüleri
49 Gör
197 Gördes
63 Gördüm
215 Görele
54 Gören
109 Görev
46 Görevi
38 Görevleri
35 Görevlileri
174 Görevlisi
37 Görme
138 Görsel
38 Görünmez
138 Görüntü
82 Görüş
36 Görüşü
188 Gösteri
83 Göynücek
255 Göynük
158 Göz
40 Gözde
51 Gözlem
43 Gözleme
51 Gözler
56 Gözleri
46 Gözlü
51 Gözyaşları
43 Gözyaşı
68 Gözü
211 Göç
47 Göçebe
59 Göçer
97 Göçmen
36 Göçü
101 Göğüs
42 Güce
255 Gücü
109 Güdül
662 Gül
47 Gülay
42 Gülbahar
37 Gülden
75 Güle
141 Gülen
215 Güler
46 Güleç
142 Gülistan
56 Güller
97 Güllü
60 Gülnar
50 Gülriz
45 Gülse
71 Gülsüm
94 Gültekin
49 Gülten
40 Gülçin
71 Gülü
44 Gülüm
43 Gülşehir
105 Gülşen
278 Gümrük
378 Gümüş
131 Gümüşhacıköy
725 Gümüşhane
57 Gümüşova
786 Gün
70 Günah
127 Günay
212 Günaydın
63 Güncel
59 Güncelleme
112 Gündem
85 Gündoğmuş
305 Gündüz
40 Güne
9254 Güney
292 Güneybatı
36 Güneybatısında
111 Güneyde
35 Güneyden
1018 Güneydoğu
37 Güneydoğusunda
37 Güneyi
337 Güneyinde
52 Güneyli
72 Güneysu
2061 Güneş
77 Güneşi
90 Güneşin
49 Güneşli
160 Güngören
121 Günler
206 Günleri
94 Günlük
61 Günlükleri
122 Günlüğü
59 Günyüzü
947 Günü
86 Günümüz
298 Günümüzde
56 Günümüze
50 Günün
77 Gür
81 Gürbüz
1379 Gürcistan
1175 Gürcü
388 Gürcüce
183 Gürcüler
84 Gürcülerin
162 Gürel
388 Güreş
62 Gürgen
47 Gürhan
109 Gürkan
47 Gürler
62 Güroymak
239 Gürpınar
173 Gürsel
112 Gürsu
265 Gürün
373 Güven
42 Güvenli
1379 Güvenlik
126 Güvenliği
106 Güvenç
106 Güvercin
42 Güvercinlik
80 Güz
1975 Güzel
41 Güzelce
134 Güzeli
45 Güzelleştirme
133 Güzellik
154 Güzelyurt
46 Güzin
282 Güç
37 Güçlendirme
83 Güçler
72 Güçleri
149 Güçlü
72 Güçlükonak
106 GİBİ
283 Gıda
82 Gırgır
61 Gırnata
68 Gıyaseddin
105 HACI
47 HAKKINDA
40 HALEN
45 HALK
92 HALKI
57 HALİL
77 HANE
44 HAS
109 HASAN
66 HAYVANCILIK
91 Ha
640 Haber
92 Haberler
41 Haberleri
84 Haberleşme
52 Habeş
43 Habeşistan
74 Habib
45 Habil
42 Habip
109 Hac
69 Hacer
64 Hacivat
2573 Hacı
117 Hacıbektaş
169 Hacılar
54 Had
150 Hadi
68 Hadim
76 Hadis
57 Hadise
87 Hadım
160 Hafif
258 Hafik
46 Hafsa
109 Hafta
53 Haftalık
166 Haftası
334 Hafız
52 Haham
191 Hak
826 Hakan
49 Hakas
71 Hakem
80 Hakikat
130 Hakim
54 Hakimi
39 Hakimiyet
74 Hakimler
108 Hakimliği
202 Hakkari
745 Hakkı
398 Hakkında
49 Hakkındaki
79 Haklar
718 Hakları
179 Hal
165 Hala
43 Halay
43 Halaç
364 Haldun
141 Hale
225 Halen
832 Halep
68 Halet
79 Halfeti
58 Hali
174 Halid
164 Halide
412 Halife
142 Halifesi
1616 Halil
145 Halim
125 Halis
462 Halit
286 Haliç
4067 Halk
82 Halka
71 Halkalı
45 Halkapınar
173 Halkla
36 Halklar
47 Halkları
146 Halkçı
189 Halkı
307 Halkın
95 Halkının
86 Halle
42 Haller
266 Halter
309 Haluk
57 Halı
227 Ham
99 Hama
92 Hamam
43 Hamamözü
148 Hamamı
39 Haman
151 Hamburger
603 Hamdi
92 Hamdullah
60 Hami
137 Hamid
304 Hamit
216 Hamlet
47 Hamsi
153 Hamur
48 Hamursuz
355 Hamza
3632 Han
41 Hana
117 Hanak
93 Handan
284 Hande
195 Hane
89 Hanedan
193 Hanedanlığı
930 Hanedanı
54 Hanedanına
68 Hanedanından
38 Hanedanını
127 Hanedanının
166 Hanefi
47 Hangi
177 Hani
83 Hanife
39 Hanlar
36 Hanları
463 Hanlığı
124 Hanna
110 Hansa
50 Hanönü
355 Hanı
1361 Hanım
38 Hanımefendi
43 Hanımlar
57 Hanımın
71 Hanın
58 Hapishanesi
39 Hara
39 Haram
492 Harbi
49 Harbin
59 Harbinde
50 Harbinden
458 Harbiye
38 Hare
166 Harekat
174 Harekatı
416 Hareket
590 Hareketi
39 Hareketinin
41 Hareketleri
87 Harem
83 Harf
41 Harici
243 Hariciye
74 Harika
68 Harikalar
53 Haris
91 Harita
97 Haritası
107 Harman
96 Harmancık
43 Harmandalı
1095 Harp
119 Harran
200 Hart
388 Harun
333 Has
3739 Hasan
67 Hasankeyf
65 Hasanlar
107 Haseki
129 Hasköy
49 Hasret
89 Hassa
79 Hassan
78 Hasta
58 Hastalık
36 Hastalıklar
324 Hastalıkları
90 Hastalığı
69 Hastane
850 Hastanesi
100 Hastanesinde
168 Hat
55 Hata
622 Hatay
228 Hatice
248 Hatip
44 Hatlar
38 Hatları
196 Hatta
36 Hattat
291 Hattı
546 Hatun
39 Hatırla
2603 Hava
350 Havacılık
74 Havadis
109 Havana
45 Havası
44 Havran
71 Havsa
39 Havutçu
40 Havuz
66 Havuzu
115 Havva
304 Havza
157 Havzası
38 Havzasında
60 Hay
127 Hayal
159 Hayalet
57 Hayali
653 Hayat
37 Hayata
78 Hayati
186 Hayatı
62 Hayatın
533 Haydar
237 Haydarpaşa
51 Haydi
76 Hayfa
305 Haymana
219 Hayrabolu
61 Hayrat
219 Hayreddin
189 Hayrettin
201 Hayri
134 Hayriye
38 Hayrola
63 Hayrullah
218 Hayvan
173 Hayvanat
286 Hayvancılık
36 Hayvancılıkta
51 Hayvanlar
64 Hayyam
147 Hayır
48 Hazal
911 Hazar
143 Hazarlar
44 Hazarlara
84 Hazarların
271 Hazine
40 Hazinesi
15281 Haziran
62 Haziranda
48 Haziranında
98 Hazreti
74 Hazretleri
39 Hazretlerinin
77 Hazro
44 Hazım
45 Hazır
60 Hazırlayan
163 Hazırlık
207 Haç
1708 Haçlı
302 Haçlılar
95 Haçlılara
39 Haçlıları
157 Haçlıların
87 Haçı
166 Haşim
35 Haşimi
57 Haşmet
54 Haşıl
198 He
44 Hece
70 Hedef
40 Hediye
65 Hekim
172 Hekimhan
35 Hekimi
171 Hekimliği
396 Helen
53 Helene
340 Helenistik
42 Helva
57 Helvası
117 Hemen
142 Hemşin
40 Hemşinliler
56 Hemşire
87 Hemşirelik
269 Hendek
39 Henin
209 Hentbol
52 Henüz
83 Hep
102 Hepsi
1262 Her
181 Here
65 Herhangi
139 Herkes
329 Hersek
54 Hertz
72 Hesap
180 Hey
84 Heyet
458 Heyeti
283 Heykel
75 Heykeli
47 Heykeltıraş
35 Heysem
254 Hicaz
298 Hicri
138 Hidayet
55 Hidroelektrik
52 Hidrojen
62 Hikaye
39 Hikayeler
57 Hikayeleri
169 Hikayesi
696 Hikmet
157 Hilal
432 Hilmi
40 Himmet
63 Hind
68 Hindi
2113 Hindistan
327 Hindu
125 Hinduizm
46 Hindular
1578 Hint
250 Hintli
42 Hintliler
151 Hintçe
40 Hiram
157 His
256 Hisar
45 Hisarcık
87 Hisarı
1045 Hitit
264 Hititler
41 Hititlere
99 Hititlerin
36 Hititçe
56 Hizan
110 Hizbullah
391 Hizmet
171 Hizmeti
104 Hizmetler
302 Hizmetleri
178 Hiç
85 Hiçbir
51 Hişam
897 Hoca
62 Hocalar
56 Hocalı
39 Hocası
82 Hokeyi
126 Holden
777 Holding
72 Hole
2758 Hollanda
72 Hollandaca
719 Hollandalı
89 Hollandalılar
51 Honaz
149 Honduras
128 Hop
183 Hopa
1016 Horasan
52 Horon
44 Horoz
100 Hozat
70 Hoş
1160 Hristiyan
187 Hristiyanlar
57 Hristiyanlara
57 Hristiyanları
99 Hristiyanların
191 Hristiyanlık
101 Hristiyanlığa
135 Hristiyanlığı
113 Hristiyanlığın
64 Hu
3091 Hukuk
465 Hukuku
74 Hulki
159 Hulusi
221 Humus
349 Hun
144 Hunlar
45 Hunların
85 Hurt
41 Hurşid
75 Huzur
99 HÜSEYİN
410 Höyük
357 Höyüğü
37 Höşmerim
56 Hücre
56 Hücum
71 Hüdavendigar
127 Hükmünde
54 Hüküm
143 Hükümdarı
245 Hülya
194 Hümayun
68 Hünkar
140 Hür
99 Hürmüz
216 Hürrem
734 Hürriyet
36 Hüsameddin
3021 Hüseyin
58 Hüseyni
414 Hüsnü
378 Hüsrev
53 Hüyük
35 Hüzün
72 Hıdrellez
98 Hıdır
37 Hıfzı
225 Hınıs
51 Hırsız
567 Hırvat
774 Hırvatistan
107 Hırvatlar
145 Hırvatça
58 Hız
190 Hızlı
267 Hızır
91 IMF
115 IOC
55 IRA
55 IS
64 ISA
43 Ihlamur
354 Ilgaz
125 Ilgın
213 Ilıca
36 Ilıcak
53 Ilıcalı
360 Ilıman
2332 Irak
129 Iraklı
100 Iran
63 Irk
358 Irmak
600 Irmağı
43 Irmağına
119 Irmağının
692 Is
74 Isla
39 Islahat
580 Isparta
35 Isırgan
530 Iğdır
543 Işık
147 Işıklar
96 Işıklı
71 Işıl
151 Işın
57 Işığı
36 Işığında
127 JEL
114 Jaguar
128 Jale
661 Jandarma
3751 Japon
845 Japonca
178 Japonlar
63 Japonlara
158 Japonların
2372 Japonya
347 Java
65 Jeofizik
144 Jeoloji
178 Jet
240 Jimnastik
149 Joker
37 Jokey
65 Judo
138 Jön
247 Jüpiter
175 Jüri
99 KARA
37 KARADENİZ
105 KARAKEÇİLİ
45 KARAKEÇİLİLER
120 KAYA
48 KAYI
46 KAYNAK
83 KB
126 KDE
36 KESKİN
71 KEŞKEK
94 KGB
67 KILIÇ
37 KIZ
309 KKTC
37 KOCA
35 KOYUN
43 KURT
147 Kaan
61 Kaba
121 Kabak
85 Kabakçı
37 Kabala
70 Kabare
182 Kabataş
44 Kabe
163 Kabil
51 Kabile
61 Kabilesi
46 Kabine
120 Kablo
41 Kabus
83 Kadastro
43 Kadehi
109 Kader
42 Kadife
99 Kadim
606 Kadir
37 Kadiri
134 Kadirli
270 Kadri
87 Kadro
42 Kadrosu
346 Kadı
690 Kadıköy
2225 Kadın
1006 Kadınlar
86 Kadınları
52 Kadınların
102 Kadını
75 Kadının
51 Kadırga
58 Kadısı
78 Kadışehri
45 Kafa
40 Kafatası
1020 Kafkas
114 Kafkaslar
52 Kafkaslarda
53 Kafkaslardan
905 Kafkasya
38 Kafkasyalı
463 Kahire
376 Kahraman
57 Kahramanlar
1029 Kahramanmaraş
134 Kahramanı
227 Kahta
42 Kahve
56 Kahveci
44 Kahverengi
45 Kahvesi
101 Kahya
59 Kaide
94 Kal
49 Kalamış
191 Kalan
54 Kalbi
41 Kalbim
50 Kaldı
43 Kaldırım
615 Kale
82 Kaleci
282 Kalecik
171 Kalem
113 Kalemi
44 Kalemler
83 Kalender
52 Kalenin
1155 Kalesi
36 Kalesinde
41 Kalesine
77 Kalesini
52 Kalesinin
49 Kalfa
214 Kalite
87 Kalkan
65 Kalkandere
40 Kalkanı
432 Kalkolitik
59 Kalkındırma
801 Kalkınma
199 Kalp
49 Kalın
64 Kam
58 Kama
102 Kaman
93 Kamarası
40 Kamber
39 Kambriyen
92 Kamer
52 Kamera
243 Kamerun
70 Kamerunlu
379 Kamil
55 Kamp
56 Kampanyası
51 Kampüs
184 Kampüsü
46 Kampüsünde
100 Kampı
791 Kamu
84 Kamuran
41 Kamyon
45 Kamışlı
276 Kan
2579 Kanada
721 Kanadalı
1105 Kanal
224 Kanalizasyon
41 Kanalları
385 Kanalı
206 Kanarya
104 Kanat
39 Kanatlı
55 Kandemir
35 Kandil
106 Kandilli
264 Kandıra
399 Kangal
40 Kani
161 Kanlı
74 Kanlıca
54 Kano
79 Kanser
141 Kansu
145 Kant
39 Kanto
50 Kanton
45 Kantonu
532 Kanun
535 Kanuni
74 Kanunla
57 Kanunları
1004 Kanunu
84 Kanunun
40 Kanununa
55 Kanununda
153 Kanununun
51 Kanyon
78 Kanyonu
50 Kanık
100 Kaos
37 Kap
51 Kapak
71 Kapaklı
190 Kapalı
40 Kapital
257 Kaplan
514 Kaptan
64 Kaptanı
250 Kapı
367 Kapısı
276 Kar
3616 Kara
206 Karaağaç
91 Karaburun
486 Karabük
639 Karaca
227 Karacabey
44 Karacalar
47 Karacan
99 Karacasu
679 Karadağ
57 Karadağlı
11602 Karadeniz
37 Karadenizli
295 Karagöz
78 Karahallı
112 Karahan
112 Karahanlı
98 Karahanlılar
183 Karaisalı
485 Karakeçili
189 Karakeçililer
107 Karakol
75 Karakolu
182 Karakoyunlu
62 Karakoyunlular
234 Karakoçan
37 Karakter
60 Karakuş
68 Karalar
797 Karaman
141 Karamanlı
113 Karamürsel
62 Karan
63 Karanfil
356 Karanlık
41 Karapürçek
160 Karapınar
95 Karar
54 Karargahı
57 Kararları
107 Kararname
61 Kararnamesi
119 Kararı
2163 Karasal
308 Karasu
64 Karatay
333 Karataş
113 Karate
99 Karay
187 Karayazı
48 Karayılan
58 Karaçam
86 Karaçay
52 Karaçoban
72 Karbon
136 Kardeş
63 Kardeşi
47 Kardeşim
386 Kardeşler
39 Kardeşleri
37 Kardeşlerin
49 Kardeşlik
57 Kardeşliği
176 Kardinal
38 Kare
162 Karen
233 Karesi
66 Karga
82 Kargo
198 Kargı
65 Kargın
37 Kari
58 Karikatür
69 Karin
98 Karina
102 Karkamış
57 Karluk
52 Karlı
237 Karma
51 Karması
35 Karo
81 Karpuz
56 Karpuzlu
1159 Kars
120 Kart
823 Kartal
36 Kartezyen
80 Kartı
39 Karun
47 Karınca
63 Karısı
36 Karışık
425 Karşı
52 Karşılaştırmalı
44 Karşıtı
632 Karşıyaka
146 Kasaba
61 Kasabanın
439 Kasabası
39 Kasabasına
68 Kasabasında
61 Kasabasının
88 Kasap
107 Kasrı
2000 Kastamonu
13532 Kasım
50 Kasımda
35 Kasımında
39 Kasırga
37 Kasırgası
86 Kat
47 Kataloğu
228 Katar
434 Kate
109 Katedral
397 Katedrali
124 Kategori
55 Kategorisi
55 Katil
120 Katip
129 Katipliği
39 Katkı
297 Katliamı
48 Katmer
1893 Katolik
98 Katolikler
43 Katolikleri
67 Katoliklerin
38 Katoliklik
41 Katolikliği
46 Katı
454 Kavak
75 Kavaklı
69 Kavaklıdere
98 Kavala
45 Kavga
38 Kavlak
45 Kavun
45 Kavurma
64 Kavurması
171 Kay
905 Kaya
42 Kayacık
112 Kayak
117 Kayalar
36 Kayalı
67 Kayalık
108 Kayası
138 Kaydı
90 Kayhan
38 Kaymak
268 Kaymakam
87 Kaymakamlık
227 Kaymakamlıkları
205 Kaymakamlığı
130 Kaymakamı
44 Kaymaklı
552 Kaynak
166 Kaynaklar
120 Kaynakları
254 Kaynarca
69 Kaynağı
2253 Kayseri
38 Kayserili
519 Kayı
35 Kayıhan
38 Kayılar
46 Kayın
220 Kayıp
41 Kayısı
204 Kayıt
41 Kayıtbay
176 Kaz
56 Kaza
511 Kazak
653 Kazakistan
105 Kazaklar
56 Kazakları
45 Kazakların
116 Kazakça
609 Kazan
40 Kazaskeri
290 Kazası
47 Kazasına
37 Kazı
40 Kazıklı
501 Kazım
76 Kaç
55 Kaçak
211 Kaçar
49 Kaçış
514 Kağan
35 Kağanı
67 Kağıt
130 Kağıthane
70 Kağızman
236 Kaş
36 Kaşık
61 Kebabı
220 Keban
112 Kebir
226 Kedi
50 Kefe
49 Keklik
188 Kel
188 Kelebek
136 Keles
45 Keleş
51 Kelime
378 Kelkit
44 Kelle
92 Keller
43 Keloğlan
173 Kemah
4030 Kemal
86 Kemalettin
43 Kemali
59 Kemalist
113 Kemaliye
182 Kemalpaşa
140 Keman
45 Kemancı
41 Kemençe
246 Kemer
83 Kemeri
47 Kemik
694 Kenan
207 Kendi
75 Kendine
78 Kendini
121 Kendisi
38 Kendisine
589 Kent
92 Kenter
173 Kenti
38 Kentin
48 Kentsel
257 Kenya
40 Kenyalı
109 Kepez
93 Kepler
60 Kepsut
317 Kerem
349 Kerim
39 Kertenkele
95 Kervan
38 Keser
421 Keskin
93 Kesme
56 Kestane
115 Kestel
56 Kete
67 Kethüda
106 Keyhüsrev
73 Keykavus
115 Keykubad
92 Keys
37 Keçeli
74 Keçi
67 Keçiören
233 Keşan
132 Keşap
93 Keşif
66 Keşiş
209 Keşkek
111 Keşmir
44 Kg
114 Ki
90 Kibar
39 Kilimli
278 Kilis
451 Kilise
43 Kiliseler
63 Kiliseleri
41 Kilisenin
1629 Kilisesi
63 Kilisesine
91 Kilisesinin
94 Killer
61 Killik
828 Kim
148 Kimi
36 Kimin
90 Kimlik
62 Kimse
691 Kimya
99 Kimyasal
76 Kira
35 Kiralama
38 Kiralık
173 Kiraz
45 Kirazlı
38 Kiremitçi
37 Kireç
56 Kirli
181 Kirman
88 Kirmanşah
95 Kirpi
118 Kit
190 Kitabevi
665 Kitabı
624 Kitap
103 Kitaplar
95 Kitapları
76 Kitaplığı
57 Kitle
39 Kiğı
213 Kişi
62 Kişilik
89 Kişisel
37 Klan
776 Klasik
62 Klasman
39 Klavsen
35 Klavye
49 Klibi
80 Klinik
58 Kliniği
74 Klip
73 Klon
2156 Km
116 Koalisyon
39 Koalisyonu
677 Koca
104 Kocaali
37 Kocabaş
1001 Kocaeli
36 Kocaköy
69 Kocaman
127 Kocasinan
86 Kod
210 Kodu
49 Kofçaz
43 Kokusu
78 Kol
47 Kolay
202 Kolej
769 Koleji
49 Kolejinde
52 Kolejliler
80 Koleksiyonu
40 Kolera
64 Kolları
51 Koloni
51 Kolonileri
55 Kolonisi
240 Kolordu
658 Kolordusu
51 Koltuk
162 Kolu
124 Kolçak
70 Komando
260 Komedi
39 Komedya
112 Komiser
128 Komiseri
85 Komiserliği
99 Komisyon
1090 Komisyonu
172 Komite
40 Komiteleri
1366 Komitesi
40 Komitesine
60 Komitesinin
142 Kompleksi
67 Kompozisyon
68 Komuta
204 Komutan
1564 Komutanlığı
169 Komutanlığına
35 Komutanlığının
1058 Komutanı
1827 Komünist
59 Komünistler
49 Komünizm
128 Komşu
36 Kon
332 Konak
252 Konağı
306 Konfederasyon
73 Konfederasyonlar
328 Konfederasyonu
114 Konferans
598 Konferansı
58 Konferansında
491 Kongo
597 Kongre
842 Kongresi
145 Kongresinde
37 Kongresine
124 Konser
44 Konseri
480 Konservatuvarı
235 Konsey
1676 Konseyi
52 Konseyinde
47 Konseyinin
40 Konsolosluğu
183 Konsül
417 Kont
80 Kontes
55 Kontluk
291 Kontluğu
277 Kontrol
57 Kontrolü
354 Kontu
54 Konu
107 Konuk
40 Konur
59 Konuralp
36 Konusu
95 Konut
38 Konuşan
77 Konuşma
55 Konvansiyonu
2362 Konya
42 Konçerto
123 Konçertosu
62 Kooperatif
280 Kooperatifi
41 Kooperatifleri
104 Koordinasyon
53 Koordinatörlüğü
80 Koordinatörü
53 Kop
60 Kor
46 Koral
40 Koramiral
172 Koray
2305 Kore
181 Korece
313 Koreli
37 Koreliler
79 Korgan
223 Korgeneral
51 Korgeneralliğe
43 Korgun
51 Korhan
219 Korkmaz
77 Korku
68 Korkunç
36 Korkusu
288 Korkut
177 Korkuteli
88 Koro
166 Korosu
69 Korsan
43 Korsanları
113 Koru
665 Koruma
51 Korunma
57 Korunması
71 Korusu
38 Koruyucu
46 Kostüm
59 Kova
175 Kovancılar
54 Koy
274 Koyu
141 Koyulhisar
172 Koyun
46 Koyuncu
49 Koyunlu
150 Koza
36 Kozak
61 Kozaklı
498 Kozan
54 Kozlu
45 Kozluca
37 Kozluk
666 Koç
136 Koçak
111 Koçarlı
61 Koçhisar
48 Koçu
66 Koşu
52 Koşusu
2768 Kral
1379 Kraliyet
748 Kraliçe
399 Kraliçesi
104 Krallar
52 Kralları
2556 Krallık
59 Krallıkta
42 Krallığa
2076 Krallığı
88 Krallığın
116 Krallığına
44 Krallığında
93 Krallığını
168 Krallığının
2752 Kralı
118 Kralın
52 Kralının
466 Kredi
58 Kremlin
88 Kretase
47 Kriket
167 Kristal
37 Kriz
159 Krizi
42 Kros
36 Kruvazör
40 Kubat
149 Kubilay
110 Kudret
1199 Kudüs
68 Kukla
104 Kul
217 Kula
76 Kulak
115 Kule
41 Kuleleri
150 Kuleli
524 Kulesi
48 Kullanıcı
58 Kullanımı
147 Kulp
159 Kulu
35 Kulvar
1898 Kulübü
42 Kulübün
38 Kulübünde
48 Kulübünün
147 Kulüp
723 Kulüpler
49 Kulüpleri
191 Kum
120 Kuman
65 Kumandanlığı
66 Kumandanı
68 Kumanlar
39 Kumar
120 Kumluca
47 Kumpanya
71 Kumpanyası
35 Kumru
35 Kunduz
851 Kupa
48 Kupaları
64 Kupalarında
7711 Kupası
62 Kupasına
171 Kupasında
138 Kupasını
309 Kur
86 Kura
68 Kural
60 Kuralları
36 Kuralı
96 Kuramı
273 Kuran
289 Kurban
50 Kurbağa
49 Kureyş
40 Kurgan
117 Kurgu
625 Kurmay
38 Kursları
145 Kursu
873 Kurt
103 Kurtalan
40 Kurtaran
102 Kurtarma
38 Kurtarıcı
218 Kurtlar
49 Kurtulmuş
1898 Kurtuluş
58 Kurtuluşu
159 Kuru
715 Kurucu
68 Kuruculuğu
56 Kurucusu
300 Kurul
42 Kurultay
76 Kurultayı
3604 Kurulu
57 Kuruluna
69 Kurulunca
82 Kurulunda
153 Kurulunun
161 Kuruluş
46 Kuruluşları
111 Kuruluşu
55 Kurum
139 Kurumları
90 Kurumsal
1436 Kurumu
36 Kurumunun
38 Kuruş
97 Kurşun
210 Kurşunlu
89 Kut
94 Kutbu
153 Kutlu
53 Kutluay
40 Kutluk
1570 Kutsal
63 Kutsi
217 Kutup
304 Kuveyt
96 Kuvvet
66 Kuvveti
274 Kuvvetler
2615 Kuvvetleri
108 Kuvvetlerinde
178 Kuvvetlerine
200 Kuvvetlerinin
40 Kuymak
90 Kuyu
102 Kuyucak
102 Kuyucu
40 Kuyusu
36 Kuz
10074 Kuzey
403 Kuzeybatı
36 Kuzeybatısı
42 Kuzeybatısında
121 Kuzeyde
41 Kuzeyden
228 Kuzeydoğu
44 Kuzeydoğusunda
35 Kuzeyi
342 Kuzeyinde
48 Kuzgun
65 Kuzguncuk
97 Kuzu
181 Kuğu
234 Kuş
150 Kuşadası
53 Kuşak
254 Kuşatması
104 Kuşağı
35 Kuşburnu
38 Kuşdili
79 Kuşlar
49 Kuşları
121 Kuşu
81 Kuşçu
538 KÖY
212 KÖYDE
35 KÖYDEN
92 KÖYE
670 KÖYÜ
60 KÖYÜDÜR
58 KÖYÜMÜZ
54 KÖYÜMÜZDE
77 KÖYÜMÜZÜN
362 KÖYÜN
41 KÖYÜNDE
37 KÖYÜNDEN
46 KÖYÜNE
85 KÖYÜNÜN
56 KÜLTÜR
46 KÜLTÜRÜ
58 KÜRT
148 Köfte
72 Kök
80 Kökeni
41 Köle
162 Kömür
225 Köpek
70 Köpekleri
38 Köpekli
46 Köpeği
175 Köprü
166 Köprübaşı
103 Köprüköy
293 Köprülü
690 Köprüsü
171 Kör
379 Körfez
915 Körfezi
57 Körfezinde
82 Körfezine
55 Körfezinin
187 Köroğlu
393 Köse
153 Köseler
78 Kösem
214 Kötü
4107 Köy
89 Köyceğiz
2360 Köyde
154 Köydeki
165 Köyden
960 Köye
73 Köyler
35 Köylere
309 Köyleri
40 Köylerinden
233 Köylü
115 Köylüler
53 Köylülerin
7610 Köyü
112 Köyüdür
431 Köyümüz
350 Köyümüzde
97 Köyümüze
386 Köyümüzün
4168 Köyün
538 Köyünde
48 Köyündeki
272 Köyünden
367 Köyüne
86 Köyünü
557 Köyünün
63 Köşe
192 Köşk
228 Köşkü
934 Küba
190 Kübalı
157 Kül
47 Külkedisi
120 Külliyesi
3308 Kültür
178 Kültürel
428 Kültürü
41 Kültürünü
67 Kümbet
100 Küme
77 Kümesi
74 Küpeli
38 Küpü
78 Kür
873 Küre
119 Kürek
182 Küresel
40 Kürklü
44 Kürkçü
124 Kürsüsü
2117 Kürt
363 Kürtler
63 Kürtlerden
52 Kürtlere
82 Kürtleri
173 Kürtlerin
52 Kürttür
908 Kürtçe
40 Kürtçenin
122 Kürtün
58 Kürşat
894 Kütahya
168 Kütüphane
714 Kütüphanesi
41 Kütüphanesinde
2425 Küçük
61 Küçükbaş
39 Küçükler
40 KİŞİ
3343 Kıbrıs
359 Kıbrıslı
116 Kıdemli
52 Kılavuzu
40 Kılıcı
571 Kılıç
41 Kılıçlar
54 Kılıçlı
70 Kına
39 Kınalı
53 Kınay
244 Kınık
41 Kıpti
502 Kıpçak
101 Kıpçaklar
41 Kıpçakların
100 Kır
61 Kıralı
96 Kıran
125 Kıraç
137 Kırca
81 Kırda
94 Kırdar
312 Kırgız
134 Kırgızca
316 Kırgızistan
62 Kırgızlar
123 Kırk
38 Kırka
107 Kırkağaç
49 Kırklar
569 Kırklareli
119 Kırkpınar
633 Kırmızı
58 Kırsal
157 Kırık
35 Kırıkhan
498 Kırıkkale
1635 Kırım
51 Kırımlı
562 Kırşehir
500 Kısa
63 Kısaca
124 Kısım
202 Kısıtlamaları
266 Kıta
82 Kıvanç
88 Kıyamet
76 Kıymetler
115 Kıyı
68 Kıyısı
1253 Kız
213 Kızlar
58 Kızları
254 Kızı
179 Kızık
2258 Kızıl
224 Kızılay
101 Kızılbaş
80 Kızılca
311 Kızılcahamam
45 Kızılcık
982 Kızılderili
155 Kızılderililer
38 Kızılderililere
429 Kızılderilileri
111 Kızılderililerin
43 Kızılderililerine
51 Kızılderililerinin
36 Kızıllı
527 Kızıltepe
433 Kızılırmak
40 Kızın
1062 Kış
129 Kışla
54 Kışlar
162 Kışları
127 Kışlası
116 Kışın
66 LA
66 LAN
38 LPG
3081 La
153 Laboratuvarı
76 Labrador
224 Ladik
57 Ladin
58 Lagos
105 Lahana
47 Lahdi
37 Laik
351 Lake
144 Lala
70 Lalapaşa
233 Lale
53 Laleli
104 Lama
52 Lana
35 Lando
196 Lane
42 Laneti
180 Lapseki
62 Latif
70 Latife
2090 Latin
1802 Latince
56 Latincede
52 Latincesi
37 Latinceye
67 Latinler
44 Latinlerin
54 Layla
314 Laz
181 Lazca
135 Lazlar
51 Lazların
64 Lazım
90 Laçin
1565 Le
417 Lefkoşa
35 Legal
138 Leh
242 Lehistan
223 Lehçe
115 Lejyon
112 Lejyonu
122 Leman
523 Lenin
95 Lens
41 Letter
44 Levanten
548 Levent
59 Leydi
378 Leyla
50 Lezbiyen
336 Liberal
64 Libre
565 Libya
36 Libyalı
164 Lice
53 Lider
142 Lideri
1090 Life
3065 Lig
78 Ligde
118 Lige
4578 Ligi
40 Ligin
125 Liginde
47 Ligine
216 Liman
293 Limanı
41 Limit
232 Limited
78 Limon
63 Link
108 Linkin
840 Linux
36 Linyit
51 Lirası
58 Lisan
443 Lisans
143 Lisansı
415 Lise
66 Liseleri
3407 Lisesi
162 Lisesinde
60 Lisesinden
60 Lisesine
92 Lisesini
35 Lisesinin
44 Liseyi
47 Liste
255 Listesi
55 Listesinde
39 Listesine
43 Liva
53 Livası
131 Liyakat
40 Locası
41 Lodos
115 Lojistik
67 Lokman
36 Lop
41 Lorca
123 Lordu
109 Lotus
62 Lut
887 Lübnan
92 Lübnanlı
37 Lüks
211 Lüleburgaz
280 Lütfi
103 Lütfü
116 MAC
91 MAHALLESİ
84 MEB
174 MEHMET
72 MERKEZ
56 MEVCUTTUR
35 MEŞHUR
37 MEŞHURDUR
50 MGK
271 MHP
68 MK
146 MKE
71 MTA
59 MUHTAR
90 MUHTARI
106 MUSTAFA
513 Maarif
429 Mac
1322 Macar
253 Macarca
1444 Macaristan
159 Macarlar
72 Macarların
58 Macera
77 Maceraları
98 Macintosh
148 Madagaskar
105 Madalya
540 Madalyası
119 Madam
155 Madde
52 Madden
35 Maddesi
523 Maden
68 Madencilik
109 Madımak
40 Mafya
39 Mafyan
77 Magazin
285 Magazine
64 Mahal
408 Mahalle
53 Mahallede
73 Mahalleleri
58 Mahallenin
1492 Mahallesi
187 Mahallesinde
36 Mahallesinden
35 Mahallesine
48 Mahallesinin
163 Mahalli
215 Mahir
169 Mahkeme
105 Mahkemeleri
1396 Mahkemesi
78 Mahkemesinde
36 Mahkemesine
46 Mahkemesinin
749 Mahmud
127 Mahmudiye
1162 Mahmut
36 Mahsulleri
53 Mahsun
79 Mahsusa
62 Mai
182 Maiden
115 Mail
164 Main
124 Maine
134 Maiyet
35 Majesteleri
196 Majör
65 Makam
63 Makamı
87 Makbule
219 Makedon
187 Makedonca
46 Makedonlar
1271 Makedonya
75 Makedonyalı
43 Makedonyalılar
47 Maki
236 Makine
51 Makineleri
42 Makinesi
39 Maksimum
40 Makyaj
96 Mal
103 Mala
112 Malaga
1430 Malatya
87 Malaya
465 Malazgirt
374 Malezya
423 Mali
201 Malik
38 Maliki
924 Maliye
260 Malkara
514 Malta
282 Maltepe
77 Malzeme
59 Malzemeler
45 Malzemeleri
118 Mama
94 Mamak
312 Manastır
291 Manastırı
158 Manav
309 Manavgat
42 Manavlar
36 Manda
81 Mandarin
48 Mandası
37 Mandıra
58 Manga
38 Mango
95 Mani
47 Manifesto
40 Manifestosu
1737 Manisa
272 Mansur
39 Mantar
61 Mantı
50 Mantık
171 Manyas
60 Manyetik
68 Mançu
137 Maraton
56 Maratonu
1305 Mardin
607 Mareşal
71 Mareşali
164 Marina
1112 Mark
73 Marka
132 Market
426 Marksist
166 Marksizm
56 Marksizmi
63 Marksizmin
40 Markı
74 Marley
4121 Marmara
197 Marmaris
553 Mars
15342 Mart
94 Marta
1585 Martin
38 Martini
56 Martta
68 Martı
36 Maruni
204 Marşı
179 Masa
83 Masal
40 Masallar
96 Masalları
110 Masalı
37 Masası
43 Mask
44 Maskeli
83 Maslak
216 Mason
109 Massa
426 Master
48 Masum
36 Mat
57 Mata
47 Matbaacılık
83 Matbaası
41 Matbuat
423 Matematik
63 Matematiksel
81 Matta
732 Mavi
627 Maya
106 Mayalar
98 Maymun
60 Mayo
77 Mayın
16777 Mayıs
60 Mayısta
36 Mayısında
205 Mazgirt
169 Mazhar
52 Mazlum
120 Mazıdağı
98 Maç
299 Maçka
41 Maçları
148 Maçı
93 Mağara
40 Mağaraları
215 Mağarası
75 Mağlubiyet
40 Mağrip
66 Mebusluğu
74 Mebusu
124 Mecidiye
114 Mecidiyeköy
155 Mecitözü
1286 Meclis
50 Meclise
1842 Meclisi
75 Meclisin
57 Meclisinde
54 Meclisine
61 Meclisinin
38 Mecliste
51 Mecmua
110 Mecmuası
127 Mecnun
204 Medeni
41 Medeniyet
65 Medeniyetleri
36 Mediha
301 Medine
118 Medrese
244 Medresesi
37 Medresesinde
457 Medya
88 Mega
47 Megan
196 Mehdi
7050 Mehmet
35 Mehmetçik
36 Mehtap
47 Mekan
88 Mekanik
60 Mekanize
1359 Meksika
233 Meksikalı
899 Mektebi
43 Mektep
47 Mektepleri
97 Mektup
76 Mektuplar
44 Mektupları
184 Mel
397 Melek
59 Melekler
68 Melen
85 Melez
234 Melih
226 Melik
61 Melike
53 Melodi
78 Meltem
153 Memduh
55 Memleket
249 Memluk
56 Memnu
45 Memun
100 Memur
35 Memurları
237 Memurluğu
115 Memuru
266 Men
662 Menderes
54 Menekşe
117 Menemen
152 Mengen
43 Mengü
37 Mengücek
92 Menkul
185 Menteşe
72 Menzil
67 Menşevik
52 Menşevikler
35 Mera
137 Meral
70 Meram
169 Mercan
60 Mercimek
123 Merhaba
82 Merhum
36 Merinos
311 Meriç
7062 Merkez
41 Merkezde
184 Merkeze
3176 Merkezi
147 Merkezinde
209 Merkezine
67 Merkezinin
87 Merkezleri
90 Merkür
70 Mermer
1692 Mersin
238 Mert
87 Mervan
70 Merve
469 Meryem
312 Merzifon
75 Merzifonlu
84 Mescidi
36 Mescit
49 Mesela
52 Meselesi
258 Mesih
1033 Meslek
93 Mesleki
66 Mestan
129 Mesud
128 Mesudiye
390 Mesut
80 Met
39 Meta
840 Metal
258 Mete
100 Meteoroloji
833 Metin
55 Metis
43 Metodu
42 Metraj
55 Metre
36 Metris
254 Metro
53 Metropol
195 Metropoliten
87 Metrosu
100 Mevcut
50 Mevki
193 Mevlana
84 Mevlevi
53 Mevsim
35 Mey
444 Meydan
526 Meydanı
44 Meydanında
38 Meymun
92 Meyve
84 Mezar
73 Mezarlık
433 Mezarlığı
80 Mezarlığına
54 Mezarlığında
92 Mezarı
64 Mezhebi
417 Mezopotamya
59 Mezunlar
127 Meşe
62 Meşhed
67 Meşhur
163 Meşrutiyet
214 Mi
947 Microsoft
49 Midhat
269 Midilli
195 Midyat
47 Mihri
77 Mihrimah
281 Mihver
129 Mika
51 Mikail
36 Mikrobiyoloji
43 Mikrofon
75 Mil
148 Miladi
389 Milas
112 Milattan
60 Mile
478 Miller
1149 Millet
60 Milleti
1932 Milletler
38 Milletlerin
897 Milletvekili
53 Milletvekilidir
1480 Milletvekilliği
7019 Milli
482 Milliye
599 Milliyet
316 Milliyetçi
158 Milyar
324 Milyon
928 Mimar
103 Mimari
91 Mimarisi
144 Mimarlar
932 Mimarlık
48 Mimi
63 Mina
71 Minare
229 Mine
110 Mini
38 Minik
165 Mir
84 Mira
68 Miralay
103 Miranda
214 Miras
148 Mirasları
176 Mirası
37 Miraç
291 Mirza
87 Misafir
35 Misis
82 Misyonu
45 Mitolojisinde
64 Miyosen
59 Mizah
107 Mobil
198 Mobile
72 Mobilya
211 Moda
509 Model
129 Modeli
855 Modern
44 Modülü
53 Moleküler
621 Molla
73 Moment
196 Mondros
46 Mont
360 Monte
247 Mor
394 Mora
96 Moritanya
45 Mors
56 Morton
388 Motor
63 Motorlu
58 Motoru
37 Mozaik
231 Mozambik
1452 Moğol
216 Moğolca
84 Moğolcada
380 Moğolistan
447 Moğollar
87 Moğollara
51 Moğollarla
48 Moğolları
168 Moğolların
147 Mu
44 Mualla
213 Muallim
265 Muammer
140 Muavinliği
128 Muaviye
78 Muazzez
35 Mucize
54 Mucur
222 Mudanya
220 Mudurnu
55 Muhabbet
39 Muhabere
102 Muhacir
43 Muhacirler
72 Muhafaza
176 Muhafazakar
186 Muhafız
104 Muhafızlar
115 Muhafızları
64 Muhafızı
52 Muhalefet
2688 Muhammed
206 Muhammet
75 Muharebe
47 Muharebeleri
1632 Muharebesi
221 Muharebesinde
257 Muharrem
177 Muhasebe
45 Muhiddin
144 Muhittin
67 Muhlis
276 Muhsin
471 Muhtar
41 Muhtarları
139 Muhtarlık
47 Muhtarlığı
190 Muhtarı
155 Muhteşem
35 Muhtırası
123 Mukaddes
36 Mukavemet
126 Mumcu
311 Murad
156 Muradiye
1873 Murat
43 Murathan
90 Muratlı
40 Murgul
85 Murtaza
1137 Musa
105 Musabeyli
343 Musevi
44 Museviler
48 Musevilerin
79 Musevilik
161 Musiki
123 Musikisi
6064 Mustafa
253 Mut
36 Mutasarrıflığı
40 Mutasarrıfı
47 Mutezile
53 Mutfak
50 Mutfağı
39 Mutki
80 Mutlak
279 Mutlu
379 Muzaffer
1040 Muğla
574 Muş
56 Mösyö
57 Mübadele
63 Mübadelesi
86 Mübarek
534 Mücadele
38 Mücadelesi
52 Müdafaa
65 Müderris
638 Müdür
105 Müdürlük
98 Müdürlükleri
3028 Müdürlüğü
62 Müdürlüğünce
95 Müdürlüğünde
150 Müdürlüğüne
41 Müdürlüğünü
51 Müdürlüğünün
1125 Müdürü
120 Müfettiş
147 Müfettişi
342 Müfettişliği
37 Müfide
57 Müfit
88 Müfrezesi
45 Müftü
79 Müftüsü
38 Müge
277 Mühendis
208 Mühendisi
146 Mühendisleri
631 Mühendislik
1215 Mühendisliği
149 Müjdat
99 Müjde
65 Mükemmel
51 Mülk
39 Mülki
455 Mülkiye
52 Mümin
127 Mümtaz
206 Münir
99 Müren
40 Mürsel
170 Müslim
2933 Müslüman
76 Müslümandır
536 Müslümanlar
169 Müslümanlara
59 Müslümanlardan
62 Müslümanlarla
137 Müslümanları
457 Müslümanların
43 Müslümanlık
36 Müslümanlığa
79 Müslümanlığı
38 Müslümanın
68 Müstahkem
42 Müstakil
231 Müsteşar
318 Müsteşarlığı
100 Müsteşarı
107 Mütarekesi
35 Müteferrika
37 Mütercim
155 Mütevelli
541 Müttefik
134 Müttefikler
112 Müttefiklerin
146 Müze
66 Müzeler
51 Müzeleri
1933 Müzesi
130 Müzesinde
38 Müzesine
54 Müzeyyen
3823 Müzik
116 Müzikal
38 Müzikleri
40 Müzisyen
825 Müziği
44 Müziğinin
62 Müşavir
81 Müşaviri
40 Müşavirlik
241 Müşavirliği
61 Müşfik
53 Müşir
65 Müşteri
108 MİT
46 Mı
4189 Mısır
326 Mısırlı
167 Mısırlılar
58 Mısırlıların
79 Mızrağı
42 NA
181 NASA
896 NATO
134 NET
64 NOT
151 Na
89 Nabi
249 Naci
55 Naciye
193 Nadi
373 Nadir
44 Nafi
59 Nafia
106 Nafiz
36 Nafıa
51 Nah
48 Nahit
92 Nahiye
145 Nahiyesi
52 Nahiyesine
119 Nail
60 Naili
109 Naim
40 Nakşa
87 Nakşibendi
214 Nallıhan
56 Nam
185 Name
179 Namibya
373 Namık
41 Nana
89 Nar
81 Nara
91 Narin
52 Narlı
47 Narlıdere
182 Narman
89 Nas
89 Nasr
36 Nasrettin
86 Nasuh
35 Nasuhi
252 Nasıl
223 Nasır
35 Naz
124 Nazan
41 Nazar
2210 Nazi
112 Nazif
225 Naziler
68 Nazilere
182 Nazilerin
45 Nazilerle
283 Nazilli
105 Nazlı
119 Nazmi
453 Nazım
64 Nazımiye
40 Nazır
219 Nazırlığı
40 Nazırlığına
383 Nazırı
720 Ne
38 Nebahat
72 Nebi
335 Necati
360 Necdet
84 Necef
279 Necip
90 Necla
158 Necmettin
103 Necmi
124 Neden
272 Nedim
87 Nedir
71 Nefes
165 Nefise
38 Nefret
48 Neftçi
147 Nehir
3566 Nehri
45 Nehrinde
51 Nehrinden
145 Nehrine
91 Nehrini
457 Nehrinin
86 Neler
90 Nemrut
474 Neolitik
48 Neon
111 Neptün
56 Nerede
41 Nereye
39 Nergis
59 Neriman
69 Nermin
62 Nesil
150 Nesin
42 Neslihan
49 Nesne
52 Nesrin
98 Net
59 Neva
164 Nevada
74 Nevin
158 Nevruz
184 Nevzat
382 Nevşehir
50 Nevşehirli
36 Ney
48 Neyzen
281 Nezareti
48 Nezih
72 Neşe
93 Neşet
35 Neşriyat
291 Nice
51 Nida
62 Nigar
145 Nihal
353 Nihat
39 Nihavend
391 Nijerya
109 Nijeryalı
171 Nikaragua
388 Niksar
561 Nil
75 Nilgün
350 Nilüfer
75 Nimet
197 Nine
71 Nisa
14003 Nisan
42 Nitekim
223 Niyazi
55 Nizam
43 Nizamiye
43 Nizamnamesi
161 Nizip
558 Niğde
120 Niş
70 Nişan
100 Nişancı
309 Nişanı
513 Noel
182 Nogay
55 Nogaylar
76 Nohut
152 Nokta
80 Noktası
58 Norma
134 Normal
93 Normale
1266 Norveç
363 Norveçli
109 Norveççe
479 Not
51 Notlar
63 Notları
346 Nova
162 Nuh
144 Numan
80 Numara
81 Numaralı
54 Numarası
92 Numune
537 Nur
49 Nuran
161 Nureddin
256 Nurettin
48 Nurhak
42 Nurhan
964 Nuri
111 Nurullah
259 Nusaybin
158 Nusret
38 Nutku
45 NÜFUS
734 Nüfus
144 Nüfusu
50 Nüfusun
60 Nükhet
330 Nükleer
43 Nüzhet
425 ODTÜ
68 OECD
214 OH
74 OK
36 OKUL
38 OLMASI
41 OLSUN
45 OPEC
43 ORMAN
96 OSMAN
93 OSMANLI
67 Oba
152 Obama
51 Obası
38 Obruk
14925 Ocak
183 Ocakları
622 Ocağı
44 Ocağına
354 Oda
85 Odabaşı
101 Odalar
98 Odaları
831 Odası
1422 Of
35 Ofis
260 Ofisi
74 Ogün
172 Oh
51 Ohm
96 Ok
37 Oka
276 Okan
112 Okay
44 Oksijen
69 Oktar
451 Oktay
412 Okul
48 Okulda
65 Okullar
150 Okulları
3034 Okulu
94 Okulun
170 Okuluna
185 Okulunda
60 Okulundan
82 Okulunu
72 Okulunun
86 Okuma
46 Okunuşu
85 Okur
341 Okyanus
771 Okyanusu
35 Okyanusun
59 Okyanusuna
71 Okyanusunda
37 Okyanusunun
152 Okyanusya
42 Okyar
44 Okyay
54 Okçu
45 Okçular
91 Ol
58 Ola
91 Olacak
96 Olay
91 Olayları
244 Olayı
35 Olağan
118 Olağanüstü
127 Olcay
49 Olcaytu
59 Oldukça
37 Ole
58 Olgun
320 Olimpik
1905 Olimpiyat
47 Olimpiyatlar
61 Olimpiyatlara
78 Olimpiyatlarda
854 Olimpiyatları
149 Olimpiyatlarına
247 Olimpiyatlarında
115 Olmak
75 Olmayan
98 Olmaz
39 Olsa
138 Olsun
318 Oltu
208 Olur
82 Oluyor
1185 On
85 Ona
99 Onat
129 Onay
92 Onbaşı
47 Ondan
53 Ondokuzmayıs
44 Onkoloji
115 Onlar
45 Onların
126 Onu
209 Onun
72 Onuncu
626 Onur
125 Onursal
705 Opera
62 Operasyon
277 Operasyonu
174 Operası
47 Optik
44 Opus
86 Orada
119 Oral
48 Oramiral
125 Oran
64 Orbay
2895 Ordu
709 Ordular
196 Orduları
52 Ordularının
70 Ordunun
2979 Ordusu
214 Ordusuna
157 Ordusunda
85 Ordusunu
346 Ordusunun
42 Orduya
55 Org
54 Organa
95 Organik
86 Organizasyon
98 Organizasyonu
292 Organize
274 Orgeneral
58 Orgeneralliğe
1720 Orhan
202 Orhaneli
134 Orhangazi
74 Orhon
201 Orhun
250 Orijinal
132 Orkestra
695 Orkestrası
55 Orkun
885 Orman
60 Ormanları
36 Ormanlık
190 Ormanı
6983 Orta
38 Ortaca
286 Ortak
39 Ortaklar
41 Ortaklık
52 Ortaklığı
397 Ortaköy
91 Ortalama
59 Ortam
84 Ortaokul
231 Ortaokulu
42 Ortası
75 Ortaç
1375 Ortodoks
37 Ortodokslar
37 Ortodoksluk
116 Oruç
3085 Osman
231 Osmancık
80 Osmaneli
159 Osmangazi
412 Osmaniye
19786 Osmanlı
334 Osmanlıca
35 Osmanlıcılık
38 Osmanlıda
993 Osmanlılar
405 Osmanlılara
47 Osmanlılarca
50 Osmanlılarda
76 Osmanlılardan
108 Osmanlılarla
70 Osmanlıları
558 Osmanlıların
185 Osmanlının
67 Osmanlıya
49 Osmanlıyı
141 Otel
65 Otelcilik
236 Oteli
55 Otlukbeli
76 Oto
120 Otobüs
49 Otobüsleri
182 Otomatik
201 Otomobil
126 Otomotiv
40 Otonom
36 Otoritesi
41 Otostopçu
55 Otoyol
102 Otoyolu
102 Otuz
148 Ova
422 Ovacık
605 Ovası
38 Ovasına
52 Ovasında
72 Ovasının
93 Oy
145 Oya
59 Oymak
51 Oymağı
58 Oynadığı
36 Oynayan
42 Oysa
548 Oyun
54 Oyuncak
1382 Oyuncu
89 Oyuncular
243 Oyuncuları
160 Oyunculuk
266 Oyuncusu
46 Oyunda
102 Oyunlar
956 Oyunları
53 Oyunlarına
63 Oyunlarında
309 Oyunu
75 Oyunun
374 Ozan
100 OĞLU
230 OĞUZ
87 Oğlak
71 Oğlan
409 Oğlu
42 Oğlum
63 Oğul
198 Oğulları
63 Oğur
2012 Oğuz
72 Oğuzeli
62 Oğuzhan
196 Oğuzlar
48 Oğuzlara
579 Oğuzların
61 PAL
64 PAŞA
59 PEN
24327 PTT
275 Padişah
183 Padişahı
47 Padişahın
74 Pagan
73 Pak
38 Paket
803 Pakistan
46 Pakistanlı
39 Pakize
189 Paktı
50 Pal
45 Pala
70 Palandöken
88 Palas
119 Palmiye
170 Palu
37 Palyaço
82 Pamir
189 Pamuk
82 Pamukova
284 Panama
122 Pancar
40 Pancarı
51 Panda
35 Panik
43 Panorama
82 Panter
498 Panzer
1044 Papa
320 Papalık
60 Papaz
304 Para
292 Paraguay
43 Paraguaylı
44 Paralel
112 Pardus
1536 Park
38 Parklar
1201 Parkı
73 Parlak
82 Parlamenter
69 Parlamenterler
379 Parlamento
38 Parlamentolar
507 Parlamentosu
44 Parmaklıklar
61 Pars
2161 Parti
39 Partiler
65 Partili
72 Partinin
4823 Partisi
43 Partisinden
112 Partisine
45 Partisini
186 Partisinin
150 Partizan
58 Parça
39 Parçası
43 Pas
60 Pasa
55 Pasaj
51 Pasaport
810 Pasifik
190 Pasinler
147 Paskalya
43 Paso
189 Pat
105 Patates
39 Pateni
52 Patent
614 Patinaj
53 Patlama
43 Patlıcan
217 Patnos
35 Patoloji
157 Patrik
61 Patrikhanesi
182 Patriği
84 Patrona
56 Pavyonu
39 Pay
35 Paydaş
45 Payton
1112 Pazar
273 Pazarcık
146 Pazarlama
238 Pazartesi
90 Pazaryeri
90 Pazaryolu
144 Pazarı
10257 Paşa
45 Paşalar
127 Paşanın
54 Paşazade
80 Pedagoji
61 Peder
143 Pehlevi
224 Pehlivan
35 Pehlivanköy
67 Pek
145 Peker
394 Pekin
209 Pekkan
41 Pekmez
35 Pekmezi
65 Pelin
195 Pembe
84 Pencere
200 Pendik
82 Penguen
40 Pentagon
48 Pepe
86 Perde
138 Performans
638 Performansı
151 Pergel
126 Peri
115 Perihan
64 Perinçek
60 Perl
35 Peron
186 Personel
158 Pertek
64 Pertev
539 Peru
53 Perulu
369 Perşembe
304 Petrol
66 Peyami
243 Peygamber
75 Peygamberi
69 Peygamberin
40 Peygamberler
50 Peynir
79 Peyzaj
159 Peçenek
70 Peçenekler
41 Peşinde
181 Peştuca
80 Pi
51 Pike
37 Piknik
72 Pilav
159 Pilavı
111 Pilot
234 Pilsen
48 Pine
216 Pir
40 Piramidi
43 Piramit
66 Piraziz
50 Pire
167 Piri
80 Pirinç
65 Piskopos
65 Piskoposu
546 Piyade
42 Piyadeleri
68 Piyale
61 Piyango
183 Piyano
83 Piyasası
52 Pizza
62 Plaj
80 Plajı
293 Plak
226 Plan
175 Planet
335 Planlama
47 Planlaması
281 Planı
103 Plastik
84 Platform
141 Platformu
103 Platin
69 Plato
176 Platon
122 Platosu
56 Pleistosen
52 Plüton
67 Poker
345 Polat
39 Polateli
314 Polatlı
683 Polis
92 Polisi
115 Politik
207 Politika
53 Politikaları
163 Politikası
113 Polo
2350 Polonya
606 Polonyalı
63 Polonyalılar
35 Polonyalıların
169 Pomak
69 Pomaklar
35 Pomakların
82 Pompa
997 Pop
71 Popular
94 Popüler
108 Porsuk
429 Portakal
1974 Portekiz
2000 Portekizce
367 Portekizli
122 Portekizliler
47 Portekizlilerin
691 Porto
73 Portresi
218 Posof
336 Post
338 Posta
40 Postane
85 Postası
39 Pot
88 Pound
112 Poyraz
87 Pozantı
39 Prehistorya
1092 Prens
475 Prenses
168 Prensesi
523 Prensi
41 Prensipler
204 Prensliği
142 Preston
52 Prime
71 Prize
42 Problem
100 Prodüksiyon
532 Profesyonel
597 Profesör
36 Profesörlük
35 Profesörlüğü
190 Profesörü
174 Program
67 Programlama
53 Programlar
93 Programları
51 Programlı
519 Programı
42 Programına
184 Proje
63 Projeleri
771 Projesi
35 Projesinin
69 Propaganda
39 Protein
532 Protestan
53 Protestanlar
35 Protestanların
55 Protestanlık
76 Protokol
139 Protokolü
45 Proton
953 Prusya
73 Prusyalı
36 Psikanaliz
96 Psikiyatri
198 Psikoloji
60 Psikolojik
50 Psikolojisi
96 Puan
41 Puanlama
50 Puma
72 Pupa
81 Pusu
56 Put
119 Python
137 Pülümür
399 Pınar
514 Pınarbaşı
76 Pınarhisar
130 Pınarı
42 Quantum
37 RAB
89 RAF
190 RAM
142 RC
51 REM
61 ROM
86 RTÜK
70 Rab
41 Rabbani
49 Rabia
56 Radar
314 Radikal
1179 Radyo
356 Radyosu
42 Radyosunda
62 Rafet
171 Ragıp
48 Rahim
84 Rahip
116 Rahman
69 Rahmetli
292 Rahmi
35 Rahşan
75 Raif
71 Raks
35 Rakı
114 Rakım
65 Rakımı
70 Ralli
52 Rallisi
72 Ram
641 Ramazan
92 Rami
50 Ramiz
59 Rana
406 Rap
117 Raporu
46 Rasathanesi
160 Rasim
45 Rast
262 Rauf
606 Ray
37 Razi
70 Raşid
125 Re
37 Reasürans
62 Recai
839 Recep
74 Redif
174 Refah
114 Refahiye
143 Refet
320 Refik
198 Reform
75 Reformu
121 Reha
58 Rehabilitasyon
83 Rehberi
41 Rehberlik
649 Reis
160 Reisi
163 Reisliği
51 Reji
44 Rekabet
90 Reklam
40 Reklamcılık
126 Rekorlar
90 Rektör
73 Rektörlük
58 Rektörlüğü
87 Rektörü
229 Remzi
472 Ren
98 Rene
42 Rengi
96 Renk
40 Renkli
1271 Resim
35 Resimleri
81 Resimli
948 Resmi
120 Ressam
120 Ressamlar
38 Rest
66 Restorasyon
86 Resul
174 Revan
50 Revolver
429 Rey
84 Reyhan
71 Reyhanlı
37 Reşad
340 Reşadiye
298 Reşat
160 Reşid
411 Reşit
161 Ring
51 Risk
52 Riva
45 Rivayete
1168 Rize
98 Robot
39 Roda
54 Rodeo
85 Rodezya
43 Roket
52 Rol
47 Rolü
46 Rom
10114 Roma
661 Romalı
831 Romalılar
134 Romalılara
53 Romalılardan
47 Romalıları
270 Romalıların
886 Roman
41 Romana
64 Romanlar
114 Romantik
37 Romantizm
1494 Romanya
47 Romanyalı
63 Romanı
58 Romanın
382 Romen
75 Romence
35 Rota
39 Roza
109 Ruby
255 Ruh
148 Ruhi
77 Ruhu
54 Ruhundan
41 Rukiye
2011 Rum
231 Rumca
966 Rumeli
280 Rumen
119 Rumence
177 Rumi
555 Rumlar
66 Rumlara
116 Rumlardan
75 Rumları
315 Rumların
7152 Rus
913 Ruslar
279 Ruslara
41 Ruslarca
130 Ruslardan
164 Ruslarla
73 Rusları
571 Rusların
6296 Rusya
2646 Rusça
65 Rusçası
123 Rusçuk
55 Ruşen
439 Rönesans
208 Rüstem
134 Rüya
98 Rüyası
110 Rüzgar
49 Rüştiye
84 Rüştiyesi
280 Rüştü
184 Rıdvan
358 Rıfat
93 Rıfkı
1127 Rıza
155 SA
42 SAHİP
41 SALT
105 SAP
44 SARI
69 SAT
55 SATA
53 SAYISI
43 SAĞLIK
155 SN
45 SOS
35 SOSYAL
89 SSK
58 START
189 SU
42 SULTAN
44 Sa
52 Saad
199 Saadet
49 Saadettin
433 Saat
82 Saati
58 Saatçi
109 Saba
536 Sabah
35 Sabahat
240 Sabahattin
62 Saban
476 Sabancı
133 Sabiha
183 Sabit
352 Sabri
35 Sabuncu
41 Sabır
41 Sadaret
89 Sade
262 Sadece
115 Sadettin
159 Sadi
489 Sadrazam
197 Sadri
71 Sadullah
46 Sadun
373 Sadık
47 Saf
179 Safa
252 Safevi
74 Safeviler
40 Safevilerin
108 Saffet
65 Safi
94 Safiye
237 Safranbolu
142 Saha
61 Sahası
105 Sahibi
272 Sahil
205 Sahili
49 Sahilleri
129 Sahip
47 Sahipleri
47 Sahir
379 Sahne
213 Sahnesi
247 Sahra
46 Sahte
656 Said
58 Saim
101 Saimbeyli
123 Saka
52 Sakal
1523 Sakarya
46 Sakin
55 Saklı
395 Saksonya
211 Sakız
60 Sal
46 Sala
47 Salah
38 Salam
84 Salar
45 Saldırmazlık
67 Saldırı
42 Saldırıları
75 Saldırısı
660 Salih
299 Salihli
160 Salim
44 Salkım
119 Salman
47 Salmanlı
273 Salon
472 Salonu
117 Salt
119 Saltuk
59 Saltık
257 Salur
289 Salı
91 Salıpazarı
777 Sam
39 Samandağ
71 Samanlı
303 Samanyolu
126 Samet
856 Sami
41 Samim
78 Samsat
2340 Samsun
3596 San
232 Sana
94 Sanal
3244 Sanat
1701 Sanatlar
40 Sanatlara
417 Sanatları
39 Sanatta
309 Sanatçı
76 Sanatçılar
44 Sanatçıları
374 Sanatçısı
234 Sanatı
39 Sanatında
1312 Sanayi
52 Sanayicileri
230 Sancak
39 Sancaklı
48 Sancar
531 Sancağı
74 Sancağına
194 Sandal
111 Sandalye
257 Sandıklı
67 Sandığı
50 Saner
53 Sani
39 Saniye
102 Sanskrit
197 Sanskritçe
38 Santral
111 Santrali
39 Santralı
140 Sapanca
56 Sar
272 Sara
44 Saran
629 Saray
51 Saraycık
72 Saraydüzü
39 Saraykent
54 Sarayköy
42 Saraylar
1186 Sarayı
35 Sarayına
67 Sarayında
37 Saraç
58 Sardunya
40 Sarhoş
58 Sari
39 Sarma
37 Sarması
46 Sarnıç
118 Sarp
199 Saruhan
85 Saruhanlı
824 Sarı
80 Sarıca
108 Sarıgöl
168 Sarıkamış
286 Sarıkaya
63 Sarıkız
37 Sarılar
64 Sarıoğlan
307 Sarıyer
142 Sarız
47 Sason
35 Sat
74 Satan
180 Satranç
41 Satsuma
199 Satürn
45 Satı
66 Satılmış
108 Satış
88 Sava
1475 Savaş
919 Savaşları
72 Savaşlarında
53 Savaşlarının
144 Savaştepe
71 Savaşçı
48 Savaşçısı
11153 Savaşı
108 Savaşın
238 Savaşına
670 Savaşında
47 Savaşındaki
349 Savaşından
127 Savaşını
363 Savaşının
204 Savcı
63 Savcılar
97 Savcılığı
83 Savcısı
1507 Savunma
90 Savunması
91 Savur
294 Say
112 Sayan
59 Sayar
56 Sayda
88 Saydam
104 Sayfa
69 Sayfanın
183 Sayfası
74 Saygı
237 Sayı
58 Sayılar
399 Sayılı
42 Sayım
97 Sayımı
65 Sayımına
243 Sayın
66 Sayısal
240 Sayısı
97 Saz
113 Sazak
52 Sazan
63 Saç
345 Saçı
213 Sağ
136 Sağlam
2184 Sağlık
189 Sağlığı
59 Sağır
45 Seba
97 Seben
67 Sebze
117 Seda
130 Sedan
491 Sedat
57 Sedef
48 Seden
38 Sedir
67 Sefa
164 Sefer
36 Seferberlik
651 Seferi
49 Seferihisar
45 Seferinde
82 Seferine
134 Seferleri
40 Seher
89 Seki
145 Sekiz
85 Sekizinci
210 Sekreter
453 Sekreteri
84 Sekreterlik
292 Sekreterliği
47 Seks
47 Seksen
51 Seksi
49 Sektör
64 Sel
237 Selahaddin
80 Selam
81 Selamet
92 Selami
66 Selda
41 Selen
128 Selendi
1313 Selim
53 Selin
151 Selma
61 Selman
905 Selçuk
2358 Selçuklu
550 Selçuklular
83 Selçuklulara
45 Selçuklulardan
242 Selçukluları
180 Selçukluların
51 Selçuklularının
108 Sema
43 Semantik
46 Semaver
245 Semih
57 Semiha
44 Semiz
84 Sempozyumu
56 Semra
611 Sen
295 Senaryo
422 Senato
506 Senatosu
98 Senatör
58 Senatörü
69 Senden
96 Sendikaları
273 Sendikası
73 Sendromu
38 Sene
263 Senegal
40 Senem
523 Senfoni
56 Senfonisi
279 Seni
129 Senin
59 Seninle
49 Sense
72 Sensiz
44 Ser
59 Sera
148 Seramik
36 Serap
47 Serasker
719 Serbest
59 Sercan
459 Serdar
88 Sergen
157 Sergi
197 Sergisi
35 Serhan
129 Serhat
220 Seri
182 Serik
249 Serisi
235 Serkan
99 Sermaye
74 Serpil
74 Serra
49 Serseri
85 Sert
68 Sertel
40 Sertifikası
345 Server
160 Servet
240 Service
125 Servis
236 Servisi
447 Ses
245 Sesi
92 Seslendirme
66 Sesler
37 Sesleri
96 Sessiz
146 Set
46 Sev
175 Sevda
64 Sevdim
207 Seven
76 Sever
222 Sevgi
106 Sevgili
50 Sevgililer
79 Sevgilim
84 Sevi
152 Sevil
35 Sevilen
96 Sevim
45 Sevin
121 Sevinç
52 Seviye
77 Seviyorum
37 Sevmek
102 Seyahat
43 Seyahatname
47 Seydiler
86 Seydişehir
87 Seyfeddin
106 Seyfettin
126 Seyfi
396 Seyhan
62 Seyhun
36 Seyir
242 Seyit
127 Seyitgazi
39 Seylan
72 Seyyal
638 Seyyid
67 Seyyit
112 Sezai
513 Sezen
328 Sezer
138 Sezgin
182 Sezon
278 Sezonu
39 Sezonun
115 Sezonunda
52 Seçilen
47 Seçilmiş
339 Seçim
97 Seçimi
260 Seçimleri
122 Seçimlerinde
75 Seçkin
92 Seçme
104 Seçmeleri
135 Si
204 Sibel
36 Sicil
750 Sicilya
62 Sicilyalı
244 Side
218 Sigorta
46 Sigortacılık
38 Sigortalar
88 Sihir
117 Sihirli
321 Siirt
116 Sikke
107 Silah
51 Silahlar
1170 Silahlı
35 Silahsızlanma
40 Silahtar
98 Silence
167 Silifke
39 Silikon
160 Silivri
103 Silopi
250 Silvan
132 Simav
259 Simavi
156 Sin
346 Sina
190 Sinagogu
1500 Sinan
443 Sincan
35 Sincanlı
64 Sincik
43 Sinek
53 Sinem
1019 Sinema
192 Sineması
42 Sinematek
87 Sinir
1062 Sinop
87 Sipahi
90 Sirkeci
125 Sis
192 Sistem
816 Sistemi
37 Sisteminde
42 Sistemine
47 Sisteminin
46 Sistemler
191 Sistemleri
139 Site
478 Sitesi
3369 Sivas
89 Sivaslı
168 Siverek
407 Sivil
60 Sivri
135 Sivrice
229 Sivrihisar
519 Siyah
43 Siyahların
48 Siyam
1168 Siyasal
334 Siyaset
47 Siyasetçi
335 Siyasi
195 Siyonist
76 Siyonizm
73 Siz
52 Size
36 Sizin
49 Skin
577 Slav
91 Slavlar
45 Slavları
56 Slavların
209 Slovak
390 Slovakya
56 Slovakça
208 Sloven
56 Slovence
399 Slovenya
47 Sn
35 Sofi
62 Sofu
70 Sofular
251 Sokak
74 Sokaklar
339 Sokağı
659 Sol
48 Solar
82 Solhan
35 Solist
39 Solmaz
253 Solo
50 Solu
35 Solunum
183 Soma
276 Somali
1931 Son
77 Sonat
115 Sonbahar
152 Soner
95 Sonradan
103 Sonraki
73 Sonrası
46 Sonrasında
82 Sonsuz
125 Sonu
78 Sonunda
108 Sonuç
57 Sonuçları
38 Sopa
49 Sor
42 Sorgu
277 Sorgun
37 Sorkun
186 Sorumlu
50 Sorumluluk
63 Sorumlusu
87 Sorunları
151 Sorunu
58 Soruşturma
41 Sos
2099 Sosyal
2112 Sosyalist
85 Sosyalizm
242 Sosyoloji
55 Sosyolojisi
42 Soy
140 Soyadı
62 Soydan
41 Soykırım
158 Soykırımı
72 Soylu
105 Soysal
41 Soyut
223 Soyuz
50 Soğan
91 Soğanlı
415 Soğuk
89 Soğuksu
75 Spagetti
45 Spiral
3597 Spor
46 Sporcusu
125 Sporları
81 Sportif
62 Stadyum
44 Stadyumda
771 Stadyumu
126 Stadyumunda
330 Stadı
40 Stadında
240 Standart
52 Standartlar
72 Standartları
1409 Star
50 Start
52 Statüsü
148 Step
46 Stil
162 Stop
83 Strateji
236 Stratejik
102 Stüdyo
102 Stüdyoları
46 Stüdyolarında
97 Stüdyosu
1197 Su
327 Suat
102 Suavi
165 Subay
35 Subaylar
112 Subaylığı
59 Subayı
129 Subaşı
42 Suda
438 Sudan
95 Sufi
36 Suikastı
75 Sulakyurt
109 Sulama
44 Sular
78 Sulh
6560 Sultan
44 Sultanbeyli
64 Sultandağı
63 Sultanhisar
94 Sultani
110 Sultanisi
63 Sultaniye
43 Sultanlar
171 Sultanlığı
677 Sultanı
41 Sultanın
107 Sulu
101 Suluova
35 Sulusaray
583 Sun
181 Suna
102 Sunak
104 Sunay
119 Sungur
323 Sungurlu
48 Sunucu
52 Sunum
180 Sur
70 Surat
274 Suresi
2683 Suriye
152 Suriyeli
75 Suruç
35 Sus
37 Susa
48 Susam
215 Susan
254 Susurluk
93 Susuz
73 Suud
836 Suudi
277 Suyu
47 Suyun
64 Suzan
84 Suç
40 Suçlar
40 Suçları
253 Suşehri
169 Söke
96 Sökmen
166 Sönmez
40 Sör
74 Söyle
35 Söylemek
44 Söylemez
522 Söz
52 Sözcüsü
59 Sözen
61 Sözleri
59 Sözleşme
222 Sözleşmesi
55 Sözlü
168 Sözlük
155 Sözlüğü
55 Sözü
295 Söğüt
123 Söğütlü
46 Süfyan
61 Süha
40 Süheyl
111 Sülalesi
2770 Süleyman
41 Süleymanlı
37 Süloğlu
35 Sümbül
424 Sümer
64 Sümerce
56 Sümerler
41 Sümerlerin
124 Sünnet
436 Sünni
4226 Süper
43 Süreci
136 Sürekli
249 Süreyya
57 Sürgün
67 Sürgünü
58 Sürmeli
200 Sürmene
178 Süryani
108 Süryanice
49 Süryaniler
53 Sürücü
46 Sürücüler
40 Sürüm
186 Süt
35 Sütlü
42 Sütlüce
40 Sütunu
50 Sütçü
46 Sütçüler
283 Süvari
49 SİVAS
103 Sıcak
43 Sıddık
42 Sıdıka
60 Sıfır
73 Sıhhiye
106 Sıkıyönetim
78 Sıla
58 Sınav
112 Sınavı
190 Sındırgı
267 Sınıf
59 Sınıflandırma
294 Sınıfı
224 Sınır
69 Sınırları
143 Sır
116 Sıra
100 Sıradağları
44 Sıralaması
1257 Sırbistan
89 Sırlar
1582 Sırp
300 Sırplar
109 Sırplara
47 Sırpları
187 Sırpların
349 Sırpça
260 Sırrı
102 Sırtı
35 Sıtma
35 Sığır
107 TARAFINDAN
43 TARHANA
105 TARIM
41 TARİH
36 TARİHÇESİ
191 TARİHİ
45 TAV
69 TAŞ
2291 TBMM
83 TCDD
35 TCK
59 TDK
159 TED
81 TEM
58 TEREKEME
106 THY
36 TIR
57 TKİ
701 TL
36 TM
49 TMMOB
164 TOBB
58 TOPRAK
72 TR
1409 TRT
38 TSE
100 TSK
74 TTK
4042 TV
84 Ta
153 Taarruz
173 Taarruzu
45 Tabanlı
68 Tabi
133 Tabiat
123 Tabii
59 Tabip
51 Tabipliği
40 Tablet
54 Tablosu
100 Tabur
216 Taburu
37 Tacettin
63 Tacik
191 Tacikistan
47 Tacikler
41 Tacikçe
125 Taha
385 Tahir
41 Tahkim
475 Tahran
202 Tahrir
50 Tahrirat
351 Tahsin
49 Taht
36 Tahta
82 Tahtacı
66 Tahtalı
38 Taif
41 Takip
50 Taksi
472 Taksim
52 Taktik
57 Takvim
48 Takvimi
798 Takım
42 Takıma
39 Takımadaları
78 Takımlar
3251 Takımı
51 Takımın
169 Takımına
110 Takımında
35 Takımını
115 Takımının
47 Takımıyla
142 Talas
325 Talat
106 Talebe
157 Talepleri
48 Talha
46 Tali
110 Talib
46 Talim
44 Talip
190 Talk
94 Talu
422 Tam
43 Tamamen
174 Tamer
303 Tan
68 Tandoğan
379 Taner
127 Tango
59 Tanin
150 Tanju
361 Tank
63 Tanpınar
1931 Tanrı
64 Tanrılar
38 Tanrıları
71 Tanrıların
50 Tanrım
167 Tanrının
70 Tanrısal
358 Tanrısı
75 Tanrıya
167 Tanrıça
104 Tanrıçası
39 Tansel
110 Tansu
197 Tanzanya
231 Tanzimat
41 Tanır
77 Tanıtma
123 Tanıtım
165 Tapu
342 Tapınak
337 Tapınağı
93 Tapınağın
169 Tara
115 Taraf
75 Taraklı
36 Tardu
96 Tarhan
219 Tarhana
1552 Tarih
2112 Tarihi
47 Tarihin
38 Tarihine
57 Tarihinin
78 Tarihler
35 Tarihleri
62 Tarihli
100 Tarihsel
46 Tarihte
45 Tarihçe
50 Tarihçesi
50 Tarihçi
62 Tarikatı
41 Tarim
215 Tarkan
101 Tarla
36 Tarlası
451 Tarsus
395 Tarık
1260 Tarım
47 Tarımda
146 Tarımsal
49 Tasarruf
354 Tasarım
161 Tasarımı
73 Tasavvuf
35 Tat
809 Tatar
94 Tatarca
68 Tatarcası
117 Tataristan
137 Tatarlar
150 Tatarları
40 Tatarların
53 Tatarlarının
40 Tatarı
53 Tatbikat
37 Tatbiki
51 Tatil
196 Tatlı
62 Tatlısı
40 Tatvan
136 Tavas
89 Tavuk
97 Tavus
123 Tavşan
289 Tavşanlı
353 Tay
36 Tayca
135 Tayfun
190 Tayfur
113 Taylan
317 Tayvan
75 Tayyar
66 Tayyare
359 Tayyip
42 Taze
50 Taç
591 Taş
45 Taşdemir
162 Taşkent
379 Taşköprü
68 Taşkın
45 Taşlı
46 Taşlık
86 Taşlıçay
137 Taşova
38 Taştan
68 Taşçı
176 Taşı
71 Taşıma
92 Taşımalı
37 Teali
55 Tecer
70 Tedavi
57 Tedrisat
58 Tefenni
159 Teftiş
37 Tehciri
66 Tehlike
57 Tehlikeli
731 Tek
236 Teke
153 Tekel
119 Tekeli
107 Tekerlekli
355 Tekin
40 Tekir
804 Tekirdağ
190 Tekke
114 Tekkeköy
147 Tekkesi
38 Tekli
173 Tekman
35 Teknesi
2395 Teknik
44 Teknikleri
63 Tekniği
739 Teknoloji
44 Teknolojik
209 Teknolojileri
171 Teknolojisi
35 Teksoy
180 Tekstil
46 Tekvando
75 Tekvin
637 Tel
178 Telefon
115 Telekomünikasyon
93 Teleskobu
684 Televizyon
168 Televizyonu
127 Telgraf
72 Telli
40 Tema
483 Temel
77 Temiz
59 Temizlik
14538 Temmuz
67 Temmuzda
49 Temmuzunda
61 Tempo
36 Temsilci
373 Temsilciler
37 Temsilcileri
278 Temsilciliği
189 Temsilcisi
78 Temsiliye
75 Temyiz
44 Temür
142 Ten
289 Tenis
49 Tenisi
213 Tenten
37 Teoloji
194 Teoman
49 Teoremi
64 Teorik
242 Teorisi
549 Tepe
135 Tepecik
50 Tepeler
115 Tepeleri
650 Tepesi
805 Terakki
65 Terakkiperver
80 Terazi
71 Terbiye
88 Terbiyesi
83 Tercan
152 Tercüman
110 Tercüme
103 Terek
121 Terekeme
63 Terence
163 Terim
71 Termal
263 Terme
78 Termik
82 Terminal
87 Terminali
51 Ters
50 Tersane
70 Tersanesi
72 Terzi
99 Terör
52 Terörle
46 Tesisi
188 Tesisleri
49 Teslim
125 Test
104 Testere
45 Testi
169 Tetkik
671 Tevfik
214 Tevrat
70 Tezcan
37 Tezer
67 Tezi
309 Teğmen
35 Teşekkür
46 Teşekkürler
61 Teşkilat
546 Teşkilatı
36 Teşkilatının
121 Teşvik
78 Ti
483 Tibet
39 Tibetçe
2110 Ticaret
339 Ticari
135 Tigin
78 Tilki
538 Tim
968 Time
35 Timsah
61 Timurtaş
45 Timuçin
66 Tin
216 Tip
102 Tipi
51 Tipik
98 Tiran
112 Tire
233 Tirebolu
64 Tiren
39 Tirit
70 Tiryaki
88 Titan
2451 Tiyatro
475 Tiyatroları
67 Tiyatrolarında
1871 Tiyatrosu
161 Tiyatrosunda
35 Tiyatrosunun
111 Togo
52 Tok
1518 Tokat
37 Tokatlı
51 Toker
52 Toktamış
639 Tokyo
235 Tolga
54 Tolunay
144 Tomarza
74 Tomris
58 Ton
48 Tonga
36 Tonguç
79 Tonya
1177 Top
261 Topal
117 Tophane
328 Toplam
128 Toplama
35 Toplamda
64 Toplantısı
125 Toplu
50 Topluluk
47 Toplulukları
967 Topluluğu
393 Toplum
37 Toplumcu
153 Toplumsal
49 Toplumu
450 Toprak
83 Topraklar
184 Toprakları
42 Toprağı
48 Topu
57 Topuz
367 Topçu
45 Topçular
62 Tor
145 Tora
71 Torbalı
216 Tortum
119 Torul
79 Torun
155 Tosun
188 Tosya
209 Total
350 Toto
47 Toy
2729 Trabzon
62 Trabzonlu
125 Trafik
59 Traktör
1359 Trakya
38 Trakyalı
55 Tramvay
57 Trans
87 Transfer
44 Transit
62 Transport
266 Tren
40 Treni
87 Trio
83 Tuba
145 Tufan
96 Tufanbeyli
205 Tugay
250 Tugayı
46 Tuhaf
54 Tulum
1016 Tuna
39 Tunalı
86 Tunca
242 Tuncay
63 Tuncel
741 Tunceli
151 Tuncer
46 Tunguz
542 Tunus
61 Tunuslu
1227 Tunç
241 Tur
58 Tura
612 Turan
56 Turancı
151 Turgay
853 Turgut
168 Turgutlu
199 Turhal
256 Turhan
51 Turist
924 Turizm
131 Turna
35 Turnesi
372 Turnuvası
41 Turnuvasında
471 Turu
36 Turuncu
43 Turşusu
95 Tut
197 Tutak
369 Tuva
48 Tuvaca
187 Tuz
197 Tuzla
122 Tuzluca
44 Tuğamiral
58 Tuğba
148 Tuğgeneral
36 Tuğgeneralliğe
40 Tuğluk
238 Tuğrul
50 Tuğçe
247 TÜBİTAK
176 TÜRK
253 TÜRKLERİ
340 TÜRKMEN
535 TÜRKMENLERİ
45 TÜRKİYE
67 Töre
64 Töreni
42 Törensel
46 Tüccarlık
47 Tüfek
67 Tüfekçi
54 Tüketici
90 Tülay
621 Tüm
260 Tümen
984 Tümeni
45 Tümenleri
56 Tümer
211 Tümgeneral
59 Tümgeneralliğe
73 Tünel
105 Tüneli
42 Tür
85 Türbe
376 Türbesi
38448 Türk
150 Türkan
42 Türkay
37 Türkcan
151 Türker
116 Türkeş
484 Türkistan
24351 Türkiye
1873 Türkler
125 Türklerde
241 Türklerden
44 Türklerdir
352 Türklere
1425 Türkleri
50 Türkleridir
1380 Türklerin
67 Türklerinde
357 Türklerinden
39 Türklerindendir
103 Türklerine
54 Türklerini
524 Türklerinin
40 Türkleriyle
129 Türklerle
37 Türkleşmesi
37 Türkleşmesinde
64 Türkleştirme
59 Türklük
2891 Türkmen
73 Türkmence
376 Türkmenistan
522 Türkmenler
276 Türkmenlerden
63 Türkmenlerdir
58 Türkmenlere
574 Türkmenleri
315 Türkmenlerin
259 Türkmenlerinden
44 Türkmenlerine
153 Türkmenlerinin
39 Türkmenlerle
107 Türkolog
124 Türkoloji
167 Türkoğlu
71 Türktür
6420 Türkçe
605 Türkçede
241 Türkçedeki
90 Türkçeden
94 Türkçedir
35 Türkçeleştirilmesi
214 Türkçenin
1050 Türkçesi
167 Türkçesinde
99 Türkçesine
127 Türkçesinin
78 Türkçesiyle
846 Türkçeye
129 Türkçeyi
79 Türkçü
88 Türkçülük
292 Türkü
42 Türküdür
61 Türküler
55 Türküleri
137 Türküsü
53 Türlerin
132 Tütün
41 Tüzüğü
88 TİP
96 Tıbbi
122 Tıbbiye
38 Tımar
2103 Tıp
3431 UEFA
54 UN
545 UNESCO
70 UNICEF
306 US
214 USA
74 Ubeydullah
43 Udine
38 Ufa
208 Ufuk
47 Ufuklar
182 Uganda
1338 Ukrayna
238 Ukraynaca
230 Ukraynalı
43 Ukraynalılar
71 Ula
35 Ulan
200 Ulaş
319 Ulaştırma
154 Ulaşım
357 Ulu
158 Ulubey
36 Uluborlu
268 Uludağ
76 Uludere
64 Ulukışla
315 Ulus
4701 Ulusal
515 Uluslar
4598 Uluslararası
122 Ulusoy
85 Ulusu
64 Uluç
95 Uluğ
133 Ulvi
38 Uma
37 Umar
51 Umay
192 Umman
166 Umum
125 Umumi
131 Umumiye
136 Umur
303 Umut
271 Un
43 Una
230 Unix
39 Unutma
42 Unutulmuş
72 Ur
277 Ural
75 Uranüs
54 Uraz
133 Urban
45 Urdu
126 Urduca
484 Urfa
82 Urla
447 Uruguay
68 Uruguaylı
109 Uruk
195 Us
37 User
76 Uslu
322 Usta
77 Ustası
55 Usul
69 Usulü
76 Utku
37 Uyan
46 Uyanık
50 Uyanış
72 Uyar
59 Uyarlama
69 Uydu
90 Uygarlığı
231 Uygulama
56 Uygulamaları
154 Uygulamalı
81 Uygun
779 Uygur
214 Uygurca
78 Uygurlar
43 Uygurların
42 Uyku
43 Uykusuz
73 Uysal
57 Uyum
47 Uyuyan
47 Uz
340 Uzak
67 Uzaklığı
73 Uzaktan
90 Uzan
805 Uzay
91 Uzel
161 Uzman
48 Uzmanları
59 Uzmanlık
87 Uzmanlığı
156 Uzmanı
902 Uzun
48 Uzundere
194 Uzunköprü
43 Uzunluk
41 Uzunluğu
88 Uç
145 Uçak
136 Uçan
118 Uçar
40 Uçağı
136 Uçuş
718 Uğur
138 Uğurlu
58 Uğurludağ
829 Uşak
48 Uşağı
41 VAN
122 VAR
471 VARDIR
80 Vadi
49 Vadim
924 Vadisi
113 Vadisinde
50 Vadisine
51 Vadisinin
49 Vaftizci
36 Vahdeti
79 Vahdettin
40 Vahit
58 Vahiy
146 Vahşi
1902 Vakfı
133 Vakfıkebir
42 Vakfının
110 Vakit
117 Vakti
172 Vakıf
180 Vakıflar
57 Vala
58 Vale
523 Vali
303 Valide
58 Valilik
94 Valilikleri
540 Valiliği
174 Valiliğine
814 Valisi
108 Vampir
289 Vampire
2495 Van
47 Vandal
52 Vandallar
45 Vapuru
503 Var
379 Varlık
44 Varlıkları
63 Varlıklarını
57 Varol
82 Varsak
196 Varto
59 Vasfi
104 Vasili
95 Vasıf
452 Vatan
49 Vatandaş
62 Vatandaşlık
65 Vatanseverlik
41 Vay
120 Vaşak
58 Veba
39 Vecdi
39 Vecihi
102 Veda
270 Vedat
244 Vefa
124 Vefik
213 Vehbi
191 Vekaleti
261 Vekili
65 Vekilleri
370 Vekilliği
916 Veli
96 Veliaht
118 Velid
353 Venezuela
36 Venezuelalı
253 Venüs
74 Ver
135 Vera
70 Veraset
110 Verdi
70 Verem
58 Veren
127 Vergi
99 Vergisi
147 Veri
169 Veteriner
182 Veysel
142 Vezir
38 Veziri
366 Vezirköprü
70 Vida
952 Video
122 Videosu
912 Vietnam
49 Vietnamca
61 Vietnamlı
156 Vilayet
533 Vilayeti
44 Vilayetine
678 Villa
115 Vince
149 Vinci
65 Viranşehir
41 Vitamin
1395 Viyana
366 Vize
44 Vişne
608 Vokal
1149 Voleybol
312 Volkan
71 Volt
87 Volta
47 Voyvoda
38 Vur
162 Vural
48 Vücut
45 WB
50 WHO
1333 Washington
1653 Windows
172 XP
36 YAKIN
42 YANİ
64 YAPILAN
54 YAPILIR
52 YAPILMAKTADIR
37 YAVUZ
56 YEMEK
55 YEMEKLER
95 YEMEKLERİ
49 YEMEĞİ
69 YENİ
77 YERLEŞİM
57 YERİ
66 YIL
104 YILDIRIM
91 YILDIZ
36 YILI
95 YILINDA
52 YILLARDA
209 YILMAZ
75 YOK
69 YOLU
35 YSK
134 YTL
42 YUSUF
354 Ya
135 Yaban
583 Yabancı
37 Yabancılar
57 Yabani
75 Yafa
51 Yahni
41 Yahuda
5796 Yahudi
41 Yahudidir
1539 Yahudiler
93 Yahudilerden
604 Yahudilere
799 Yahudileri
1343 Yahudilerin
61 Yahudilerine
41 Yahudilerini
235 Yahudilerinin
61 Yahudilerle
302 Yahudilik
61 Yahudilikte
148 Yahudiliğe
104 Yahudiliği
97 Yahudiliğin
51 Yahudiyi
583 Yahya
101 Yahyalı
45 Yahşi
42 Yak
60 Yaka
220 Yakası
166 Yaklaşık
114 Yakub
110 Yakut
443 Yakın
142 Yalan
58 Yalancı
258 Yale
75 Yalman
203 Yalnız
43 Yalnızca
57 Yalnızlık
269 Yalova
86 Yalvaç
465 Yalçın
58 Yalı
62 Yalın
119 Yalısı
121 Yaman
41 Yamanlar
45 Yamaç
101 Yan
40 Yana
48 Yanal
46 Yanardağı
49 Yandım
57 Yangın
58 Yangını
265 Yani
37 Yankı
54 Yanlış
72 Yanık
39 Yanıt
45 Yap
99 Yapan
74 Yapay
184 Yaprak
130 Yapraklı
84 Yaptığı
420 Yapı
43 Yapılmasına
69 Yapılışı
209 Yapım
55 Yapımcı
35 Yapımcıları
61 Yapımı
101 Yapısı
117 Yar
51 Yaralı
35 Yarar
51 Yarasa
40 Yarası
110 Yaratıcı
45 Yaratık
83 Yaratılış
300 Yarbay
303 Yardım
683 Yardımcı
45 Yardımcılıkları
917 Yardımcılığı
73 Yardımcılığına
1048 Yardımcısı
227 Yardımlaşma
80 Yargı
460 Yargıtay
35 Yargıç
44 Yarim
194 Yarı
109 Yarım
61 Yarımada
585 Yarımadası
40 Yarımadasına
99 Yarımadasında
38 Yarımadasındaki
119 Yarımadasının
50 Yarımca
89 Yarın
55 Yarış
41 Yarışları
70 Yarışma
1002 Yarışması
35 Yarışmasına
131 Yarışmasında
92 Yarışı
81 Yasa
167 Yasak
51 Yasaları
96 Yasama
588 Yasası
210 Yasemin
73 Yaser
140 Yasin
56 Yat
141 Yatağan
88 Yatılı
168 Yatırım
67 Yavaş
39 Yavru
1255 Yavuz
36 Yavuzeli
227 Yay
38 Yayalar
365 Yayla
54 Yaylacık
42 Yayladağı
43 Yayladere
35 Yaylaları
415 Yaylası
39 Yaylasında
99 Yaylı
1085 Yayın
392 Yayıncılık
43 Yayınlar
1303 Yayınları
36 Yayınlarından
48 Yayını
2493 Yaz
47 Yazan
285 Yazar
345 Yazarlar
197 Yazarları
97 Yazarlık
41 Yazarlığı
91 Yazarı
35 Yazarın
46 Yazgan
51 Yazlar
208 Yazları
65 Yazma
201 Yazı
141 Yazıcı
80 Yazılar
74 Yazıları
50 Yazılı
172 Yazılım
144 Yazın
115 Yazır
39 Yazısı
69 Yazıtları
40 Yazıtı
55 Yağ
67 Yağcı
37 Yağcılar
94 Yağlı
88 Yağlıdere
50 Yağma
225 Yağmur
36 Yağmurlu
36 Yağmuru
1179 Yaş
46 Yaşa
359 Yaşam
59 Yaşamak
144 Yaşamı
40 Yaşamın
718 Yaşar
53 Yaşasın
37 Yaşatma
172 Yaşayan
230 Yaşlı
56 Ye
98 Yedek
498 Yedi
198 Yedinci
40 Yedisu
63 Yediği
352 Yehuda
59 Yekta
55 Yel
79 Yeliz
730 Yelken
36 Yelleri
36 Yem
175 Yemek
53 Yemekler
190 Yemekleri
461 Yemen
197 Yemeği
37 Yemini
37 Yeminli
179 Yen
312 Yener
114 Yengeç
45 Yengi
13729 Yeni
456 Yenice
251 Yeniden
53 Yenilmez
146 Yenimahalle
126 Yenipazar
150 Yenisey
53 Yeniçağa
320 Yeniçeri
54 Yeniçeriler
389 Yenişehir
489 Yer
109 Yeraltı
64 Yerde
46 Yere
766 Yerel
219 Yeri
173 Yerköy
186 Yerleşim
68 Yerleşkesi
76 Yerleştirme
627 Yerli
57 Yerlileri
46 Yerlisi
64 Yeryüzü
73 Yetenek
102 Yeter
47 Yetişkin
55 Yetiştirme
39 Yetkili
42 Yetkin
98 Yezid
48 Yezidi
55 Yeğen
634 Yeşil
74 Yeşilhisar
166 Yeşiller
157 Yeşilova
272 Yeşilyurt
121 Yeşim
450 Yine
73 Yirmi
37 Yirminci
40 Yiyen
238 Yiğit
69 Yoga
384 Yok
37 Yokuşu
726 Yol
98 Yolcu
137 Yolculuk
60 Yolculuğu
51 Yoldaş
78 Yoldaşlığı
63 Yollar
260 Yolları
1090 Yolu
52 Yolun
44 Yoluna
64 Yolunda
47 Yolunun
131 Yom
63 Yomra
119 Yonca
38 Yortan
112 Yorum
49 Yorumlayan
1425 Yozgat
111 Yoğun
37 Yoğurtlu
40 Yufka
337 Yugoslav
1362 Yugoslavya
1282 Yukarı
39 Yukarıda
55 Yukarıdaki
35 Yula
60 Yumurta
81 Yumurtalık
74 Yun
113 Yunak
5330 Yunan
2554 Yunanca
90 Yunancada
2453 Yunanistan
154 Yunanlar
70 Yunanların
253 Yunanlı
377 Yunanlılar
102 Yunanlılara
183 Yunanlıların
690 Yunus
515 Yurdu
214 Yurt
68 Yurtsever
106 Yurttaş
1690 Yusuf
216 Yusufeli
112 Yuva
41 Yuvası
307 YÖK
61 YÖRÜK
72 Yön
50 Yönelik
54 Yönetici
43 Yöneticiliği
81 Yöneticisi
1797 Yönetim
900 Yönetimi
141 Yönetimler
63 Yönetmeliği
472 Yönetmen
453 Yönetmeni
104 Yönetmenliği
113 Yönetmenliğini
40 Yönlendirme
48 Yöntem
48 Yöntemi
56 Yöre
54 Yörede
56 Yöresel
75 Yöresi
834 Yörük
207 Yörükler
122 Yörükleri
72 Yörüklerin
38 Yörüklerinden
387 Yüce
389 Yücel
3585 Yüksek
35 Yükseklik
149 Yüksekova
362 Yüksel
49 Yükselen
46 Yükselişi
66 Yükselme
114 Yürek
54 Yürekli
250 Yüreğir
233 Yürütme
72 Yürüyüş
56 Yürüyüşü
266 Yüz
422 Yüzbaşı
69 Yüzey
242 Yüzme
220 Yüzyıl
36 Yüzyılda
60 Yüzyılın
78 Yüzü
149 Yüzük
150 Yüzüklerin
37 Yüzüncü
35 Yüzüğü
655 Yıl
133 Yılan
105 Yılancı
40 Yılanlı
51 Yılbaşı
60 Yıldıray
1222 Yıldırım
1911 Yıldız
371 Yıldızeli
35 Yıldızhan
140 Yıldızlar
68 Yıldızları
266 Yıldızı
171 Yıllar
341 Yıllara
128 Yılları
58 Yıllarında
192 Yıllık
1624 Yılmaz
401 Yılı
1660 Yılın
61 Yılından
50 Yılının
89 Yığılca
39 Zabit
504 Zafer
98 Zaferi
44 Zahid
82 Zahir
50 Zaim
112 Zaire
867 Zaman
100 Zamanla
130 Zamanlar
140 Zamanların
161 Zamanı
80 Zamanın
46 Zamanında
180 Zambiya
60 Zan
435 Zara
69 Zaten
140 Zehra
52 Zeka
67 Zekai
178 Zekeriya
696 Zeki
36 Zekiye
55 Zeliha
39 Zemin
216 Zen
154 Zengin
148 Zerdüşt
45 Zerdüştlük
123 Zerrin
105 Zeybek
63 Zeybeği
120 Zeynel
581 Zeynep
39 Zeyrek
171 Zeytin
117 Zeytinburnu
90 Zihni
41 Zil
386 Zile
41 Zinciri
64 Zira
801 Ziraat
51 Zirai
76 Zirve
160 Zirvesi
952 Ziya
46 Ziyad
39 Ziyaeddin
99 Ziyaret
41 Ziynet
946 Zonguldak
54 Zooloji
114 Zor
115 Zorlu
90 Zuhal
75 Zübeyde
35 Zübeyir
85 Zübeyr
76 Zühtü
42 Zülfikar
84 Zülfü
108 Zümrüdüanka
44 Zümrüt
70 Zürafa
166 Zırhlı
37 Zırhlısı
47 aba
37 abartılmış
218 abartılı
36 abdal
104 abdest
327 abisi
41 abisidir
49 abisinin
51 abla
317 ablası
37 ablasıdır
61 ablasının
111 abluka
88 ablukaya
115 abone
68 abonelik
60 abonesi
97 absürt
68 acaba
130 acayip
150 acele
65 aceleyle
110 acemi
23427 acentesi
633 acil
116 acilen
66 aciz
1347 acı
47 acıdan
44 acıdır
57 acıklı
110 acılar
77 acıları
36 acıların
64 acılarını
72 acılı
41 acıma
402 acımasız
129 acımasızca
35 acının
64 acısı
47 acısından
95 acısını
54 acıya
73 acıyı
1874 ad
1913 ada
66 adacık
39 adacıklar
50 adacığı
773 adada
227 adadaki
313 adadan
190 adadı
234 adadır
51 adadığı
175 adak
38 adaklar
515 adalar
147 adalara
191 adalarda
99 adalardan
525 adaları
204 adaların
98 adalarına
168 adalarında
72 adalarından
80 adalarını
92 adalarının
510 adalet
49 adalete
100 adaleti
70 adaletin
56 adaletli
50 adaletsiz
39 adalı
2734 adam
237 adama
108 adamdan
53 adamdı
185 adamdır
212 adamla
209 adamlar
1394 adamları
84 adamların
199 adamlarına
71 adamlarınca
302 adamlarından
213 adamlarını
494 adamlarının
97 adamlarıyla
3815 adamı
522 adamıdır
830 adamın
39 adamına
72 adamını
163 adamının
86 adamıydı
65 adamıyla
132 adamış
116 adamıştır
65 adana
70 adanan
233 adanmış
103 adanmıştır
1028 adanın
77 adaptasyon
44 adaptasyonu
314 adapte
641 adası
115 adasıdır
284 adasına
528 adasında
134 adasındaki
89 adasından
125 adasını
398 adasının
5008 aday
896 adaya
61 adayan
53 adaydır
239 adaylar
37 adaylara
46 adaylardan
226 adayları
126 adayların
37 adaylarına
63 adaylarından
50 adaylarını
69 adaylarının
261 adaylık
50 adaylıkları
62 adaylıktan
445 adaylığı
37 adaylığına
276 adaylığını
1953 adayı
89 adayın
41 adayını
70 adayının
960 addır
215 adedi
10252 adet
1010 adeta
48 adete
167 adeti
166 adetler
53 adetlere
317 adetleri
166 adetlerine
111 adetlerini
38 adetlerinin
100 adetlik
44 adette
51 adetten
111 adettir
574 adi
297 adil
109 adini
503 adla
58 adlandıran
137 adlandırdı
87 adlandırdıkları
182 adlandırdığı
44 adlandırdığımız
193 adlandırma
65 adlandırmak
37 adlandırmaktadır
41 adlandırması
62 adlandırmışlardır
104 adlandırmıştır
58 adlandırılabilecek
101 adlandırılabilir
80 adlandırılacak
3219 adlandırılan
338 adlandırıldı
81 adlandırıldığı
38 adlandırılmakta
443 adlandırılmaktadır
84 adlandırılması
50 adlandırılmaya
169 adlandırılmış
62 adlandırılmışlardır
56 adlandırılmıştı
760 adlandırılmıştır
2222 adlandırılır
57 adlandırılırdı
40 adlandırılırken
247 adlandırılırlar
73 adlandırılıyordu
99 adlandırır
69 adlandırırlar
349 adlar
42 adlardan
229 adlarla
1297 adları
43 adlarıdır
60 adların
120 adlarına
365 adlarında
51 adlarındaki
143 adlarından
478 adlarını
258 adlarının
534 adlarıyla
531 adli
64 adliye
35421 adlı
41 adrenalin
492 adres
141 adrese
486 adresi
164 adresinde
149 adresinden
95 adresine
174 adresini
55 adresinin
75 adresleme
50 adresler
140 adresleri
64 adreslerini
37404 adı
1739 adıdır
1876 adım
134 adımda
53 adımdır
256 adımlar
87 adımlarla
125 adımları
40 adımların
84 adımlarını
233 adımı
35 adımın
243 adımını
278 adın
5640 adına
5395 adında
1472 adındaki
1057 adından
12982 adını
11566 adının
61 adıydı
12506 adıyla
48 aerobik
133 aerodinamik
347 af
187 afet
70 afetler
51 affeder
73 affedildi
37 affı
60 afiyetle
98 afiş
39 afişleri
41 afla
109 aforoz
37 aftan
129 afyon
45 agnostik
199 agresif
69 ah
157 ahali
76 ahalinin
231 ahalisi
102 ahalisinin
61 ahenk
79 ahiret
35 ahirette
416 ahlak
41 ahlaka
440 ahlaki
60 ahlaksız
71 ahlakı
100 ahlat
43 ahtapot
39 ahududu
204 ahır
1331 ahşap
93 ahşaptan
62 ahşaptır
40 aidiyet
5267 aile
53 ailece
38 ailecek
388 ailede
41 ailedeki
815 aileden
126 ailedir
1525 aileler
137 ailelerde
227 ailelerden
53 ailelerdir
136 ailelere
667 aileleri
56 aileleridir
812 ailelerin
308 ailelerinden
135 ailelerine
90 ailelerini
240 ailelerinin
87 aileleriyle
38 ailelerle
2834 ailenin
38 ailesel
3618 ailesi
194 ailesidir
169 ailesinde
77 ailesindeki
856 ailesinden
46 ailesindendir
947 ailesine
608 ailesini
2555 ailesinin
804 ailesiyle
84 ailevi
472 aileye
174 aileyi
16224 ait
254 aitti
2538 aittir
249 ajan
124 ajanlar
122 ajanları
43 ajanların
52 ajans
157 ajansı
49 ajansına
41 ajansında
312 ajanı
40 ajanıdır
38 ajitasyon
359 ak
321 akabinde
210 akademi
52 akademide
1552 akademik
49 akademinin
80 akademisi
56 akademisinde
630 akademisyen
39 akademisyendir
150 akademisyenler
46 akademisyenlerin
43 akademiye
1058 akan
605 akar
144 akarak
38 akarken
931 akarsu
66 akarsudur
208 akarsular
83 akarsuları
106 akarsuların
168 akarsuyu
157 akaryakıt
84 akasya
79 akbaba
635 akciğer
36 akciğerler
44 akciğerlere
47 akkor
693 akla
57 aklandı
99 akli
212 aklı
128 aklın
222 aklına
82 aklında
66 aklından
134 aklını
44 aklının
65 akmakta
282 akmaktadır
85 akması
81 akmaya
66 akordeon
65 akort
868 akraba
260 akrabadır
73 akrabadırlar
123 akrabalar
501 akrabaları
45 akrabaların
68 akrabalarına
75 akrabalarından
86 akrabalarını
135 akrabalarının
41 akrabalarıyla
382 akrabalık
73 akrabalıkları
80 akrabalığı
438 akrabası
51 akrabasıdır
45 akran
123 akrep
46 akrepler
59 akrobasi
75 aks
39 aksak
41 aksaklıklar
76 aksam
47 aksamı
60 aksanı
95 aksesuar
48 aksesuarlar
49 aksesuarları
457 aksi
2624 aksine
52 aksini
558 aksiyon
38 akson
114 aktaran
45 aktararak
113 aktardı
115 aktardığı
55 aktardığına
247 aktarma
94 aktarmak
90 aktarmaktadır
35 aktarması
46 aktarmaya
101 aktarmıştır
241 aktarılan
53 aktarılarak
170 aktarıldı
70 aktarıldığı
102 aktarılmaktadır
149 aktarılması
55 aktarılmasını
107 aktarılmış
37 aktarılmıştı
290 aktarılmıştır
232 aktarılır
139 aktarım
172 aktarımı
36 aktarımını
194 aktarır
35 aktarıyor
3249 aktif
103 aktiftir
891 aktris
1899 aktör
136 aktördür
90 aktörler
41 aktörleri
47 aktörlerin
42 aktörlerinden
66 aktörlük
124 aktörü
81 aktörün
44 aktüel
185 aktığı
561 akustik
233 akut
146 akvaryum
43 akvaryumda
54 akvaryumlarda
37 akvaryumu
71 akça
81 akçaağaç
182 akçe
35 akü
92 akı
51 akıbeti
269 akıcı
1116 akıl
140 akılcı
40 akılcılık
142 akılda
64 akıllara
94 akıllarda
553 akıllı
62 akıllıca
1343 akım
170 akıma
45 akımda
78 akımdır
59 akımla
165 akımlar
47 akımlara
48 akımlardan
211 akımları
98 akımların
57 akımlarına
57 akımlarından
40 akımlarını
85 akımlarının
871 akımı
80 akımıdır
476 akımın
206 akımına
35 akımında
66 akımından
230 akımını
643 akımının
51 akımıyla
371 akın
147 akıncı
39 akıncılar
207 akınlar
35 akınlarda
191 akınları
84 akınlarına
56 akınlarıyla
142 akıntı
42 akıntılar
83 akıntıları
115 akıntısı
43 akıntıya
97 akını
76 akınına
76 akıp
66 akısı
46 akıtma
394 akış
36 akışa
239 akışkan
80 akışkanlar
106 akışkanın
39 akışları
519 akışı
102 akışına
44 akışında
243 akışını
122 akışının
1409 akşam
97 akşama
56 akşamdan
343 akşamları
578 akşamı
42 akşamına
58 akşamında
506 al
76 ala
333 alabalık
57 alabalığı
101 alabildi
39 alabildiği
59 alabildiğine
130 alabilecek
104 alabileceği
39 alabileceğini
120 alabilen
357 alabilir
134 alabilirler
67 alabilirsiniz
35 alabilme
224 alabilmek
135 alabilmektedir
75 alabilmesi
47 alabilmiştir
37 alabora
76 alaca
930 alacak
35 alacaklar
49 alacaklardır
74 alacakları
53 alacaklarını
46 alacaklı
35 alacaklının
103 alacaktı
350 alacaktır
375 alacağı
200 alacağını
306 alakalı
119 alakalıdır
149 alakası
47 alakasız
87 alalım
54 alamadan
356 alamadı
37 alamadılar
98 alamadığı
46 alamaması
52 alamamış
135 alamamıştır
196 alamayan
81 alamayınca
136 alamaz
39 alamazlar
38 alameti
37386 alan
2191 alana
4224 alanda
59 alandadır
506 alandaki
215 alandan
327 alandır
104 alanla
1353 alanlar
478 alanlara
2034 alanlarda
140 alanlardaki
247 alanlardan
127 alanlardır
113 alanlarla
2181 alanları
169 alanlarıdır
507 alanların
421 alanlarına
1369 alanlarında
143 alanlarındaki
272 alanlarından
320 alanlarını
581 alanlarının
96 alanlarıyla
50 alanlı
31254 alanı
532 alanıdır
864 alanın
1284 alanına
5210 alanında
85 alanındadır
810 alanındaki
284 alanından
504 alanını
813 alanının
155 alanıyla
6060 alarak
109 alarm
51 alarma
60 alaturka
497 alay
153 alaya
171 alaycı
39 alaylar
70 alayları
61 alaylı
287 alayı
57 alayın
50 alayına
47 alayında
61 alayının
38 alaşağı
70 alaşım
38 alaşımlar
46 alaşımları
55 alaşımı
200 albay
7508 albüm
2116 albümde
567 albümdeki
888 albümden
45 albümdü
454 albümdür
661 albüme
586 albümle
316 albümler
132 albümlerde
86 albümlerden
91 albümlere
1809 albümleri
104 albümlerin
481 albümlerinde
65 albümlerindeki
323 albümlerinden
138 albümlerine
467 albümlerini
294 albümlerinin
98 albümleriyle
44 albümlerle
38 albümlük
9506 albümü
2117 albümüdür
2955 albümün
1864 albümünde
436 albümündeki
1056 albümünden
333 albümüne
1922 albümünü
1869 albümünün
456 albümüyle
40 aldatan
48 aldatma
38 aldatmaca
46 aldattığını
41 aldatıcı
38 aldehit
25972 aldı
48 aldık
971 aldıkları
102 aldıklarını
1033 aldıktan
1419 aldılar
80 aldım
39 aldırdı
40 aldırmadan
35 aldırış
45 aldıysa
9485 aldığı
45 aldığım
60 aldığımız
85 aldığına
174 aldığında
154 aldığından
653 aldığını
41 aldığınız
73 alegorik
48 alelacele
104 alem
111 alemi
44 alemin
75 aleminde
45 alemine
72 aleminin
70 alenen
56 alerji
101 alerjik
42 alerjisi
590 alet
326 aleti
79 aletidir
68 aletin
59 aletinin
44 aletle
316 aletler
38 aletlere
433 aletleri
126 aletlerin
71 aletlerini
66 aletlerinin
75 aletlerle
81 alettir
278 alev
355 alevi
90 alevler
349 aleyhinde
568 aleyhine
73 aleyhtarı
272 alfa
266 alfabe
47 alfabede
38 alfabedir
57 alfabenin
622 alfabesi
194 alfabesinde
45 alfabesindeki
78 alfabesinden
96 alfabesine
115 alfabesini
206 alfabesinin
130 alfabesiyle
231 alfabetik
48 alfabeye
44 alfabeyi
59 alg
217 algoritma
116 algoritmalar
93 algoritmaları
49 algoritmaların
62 algoritmanın
205 algoritması
114 algı
41 algıladığı
202 algılama
44 algılaması
59 algılanabilir
103 algılanan
37 algılandı
78 algılanması
93 algılanır
70 algılar
64 algılayan
111 algılayıcı
54 algılayıcılar
44 algısal
59 algısı
293 ali
188 alim
120 alimi
77 alimler
69 alimleri
47 alimlerinden
144 alkali
50 alkil
824 alkol
75 alkole
126 alkolik
47 alkolizm
228 alkollü
44 alkolsüz
59 alkolün
60 alkış
39 alla
1850 alma
51 almada
496 almadan
344 almadı
179 almadığı
55 almadığını
3413 almak
204 almakla
